Country,Vectordimension_0,Vectordimension_1,Vectordimension_2,Vectordimension_3,Vectordimension_4,Vectordimension_5,Vectordimension_6,Vectordimension_7,Vectordimension_8,Vectordimension_9,Vectordimension_10,Vectordimension_11,Vectordimension_12,Vectordimension_13,Vectordimension_14,Vectordimension_15,Vectordimension_16,Vectordimension_17,Vectordimension_18,Vectordimension_19,Vectordimension_20,Vectordimension_21,Vectordimension_22,Vectordimension_23,Vectordimension_24,Vectordimension_25,Vectordimension_26,Vectordimension_27,Vectordimension_28,Vectordimension_29,Vectordimension_30,Vectordimension_31,Vectordimension_32,Vectordimension_33,Vectordimension_34,Vectordimension_35,Vectordimension_36,Vectordimension_37,Vectordimension_38,Vectordimension_39,Vectordimension_40,Vectordimension_41,Vectordimension_42,Vectordimension_43,Vectordimension_44,Vectordimension_45,Vectordimension_46,Vectordimension_47,Vectordimension_48,Vectordimension_49,Vectordimension_50,Vectordimension_51,Vectordimension_52,Vectordimension_53,Vectordimension_54,Vectordimension_55,Vectordimension_56,Vectordimension_57,Vectordimension_58,Vectordimension_59,Vectordimension_60,Vectordimension_61,Vectordimension_62,Vectordimension_63,Vectordimension_64,Vectordimension_65,Vectordimension_66,Vectordimension_67,Vectordimension_68,Vectordimension_69,Vectordimension_70,Vectordimension_71,Vectordimension_72,Vectordimension_73,Vectordimension_74,Vectordimension_75,Vectordimension_76,Vectordimension_77,Vectordimension_78,Vectordimension_79,Vectordimension_80,Vectordimension_81,Vectordimension_82,Vectordimension_83,Vectordimension_84,Vectordimension_85,Vectordimension_86,Vectordimension_87,Vectordimension_88,Vectordimension_89,Vectordimension_90,Vectordimension_91,Vectordimension_92,Vectordimension_93,Vectordimension_94,Vectordimension_95,Vectordimension_96,Vectordimension_97,Vectordimension_98,Vectordimension_99,Vectordimension_100,Vectordimension_101,Vectordimension_102,Vectordimension_103,Vectordimension_104,Vectordimension_105,Vectordimension_106,Vectordimension_107,Vectordimension_108,Vectordimension_109,Vectordimension_110,Vectordimension_111,Vectordimension_112,Vectordimension_113,Vectordimension_114,Vectordimension_115,Vectordimension_116,Vectordimension_117,Vectordimension_118,Vectordimension_119,Vectordimension_120,Vectordimension_121,Vectordimension_122,Vectordimension_123,Vectordimension_124,Vectordimension_125,Vectordimension_126,Vectordimension_127,Vectordimension_128,Vectordimension_129,Vectordimension_130,Vectordimension_131,Vectordimension_132,Vectordimension_133,Vectordimension_134,Vectordimension_135,Vectordimension_136,Vectordimension_137,Vectordimension_138,Vectordimension_139,Vectordimension_140,Vectordimension_141,Vectordimension_142,Vectordimension_143,Vectordimension_144,Vectordimension_145,Vectordimension_146,Vectordimension_147,Vectordimension_148,Vectordimension_149,Vectordimension_150,Vectordimension_151,Vectordimension_152,Vectordimension_153,Vectordimension_154,Vectordimension_155,Vectordimension_156,Vectordimension_157,Vectordimension_158,Vectordimension_159,Vectordimension_160,Vectordimension_161,Vectordimension_162,Vectordimension_163,Vectordimension_164,Vectordimension_165,Vectordimension_166,Vectordimension_167,Vectordimension_168,Vectordimension_169,Vectordimension_170,Vectordimension_171,Vectordimension_172,Vectordimension_173,Vectordimension_174,Vectordimension_175,Vectordimension_176,Vectordimension_177,Vectordimension_178,Vectordimension_179,Vectordimension_180,Vectordimension_181,Vectordimension_182,Vectordimension_183,Vectordimension_184,Vectordimension_185,Vectordimension_186,Vectordimension_187,Vectordimension_188,Vectordimension_189,Vectordimension_190,Vectordimension_191,Vectordimension_192,Vectordimension_193,Vectordimension_194,Vectordimension_195,Vectordimension_196,Vectordimension_197,Vectordimension_198,Vectordimension_199,Vectordimension_200,Vectordimension_201,Vectordimension_202,Vectordimension_203,Vectordimension_204,Vectordimension_205,Vectordimension_206,Vectordimension_207,Vectordimension_208,Vectordimension_209,Vectordimension_210,Vectordimension_211,Vectordimension_212,Vectordimension_213,Vectordimension_214,Vectordimension_215,Vectordimension_216,Vectordimension_217,Vectordimension_218,Vectordimension_219,Vectordimension_220,Vectordimension_221,Vectordimension_222,Vectordimension_223,Vectordimension_224,Vectordimension_225,Vectordimension_226,Vectordimension_227,Vectordimension_228,Vectordimension_229,Vectordimension_230,Vectordimension_231,Vectordimension_232,Vectordimension_233,Vectordimension_234,Vectordimension_235,Vectordimension_236,Vectordimension_237,Vectordimension_238,Vectordimension_239,Vectordimension_240,Vectordimension_241,Vectordimension_242,Vectordimension_243,Vectordimension_244,Vectordimension_245,Vectordimension_246,Vectordimension_247,Vectordimension_248,Vectordimension_249,Vectordimension_250,Vectordimension_251,Vectordimension_252,Vectordimension_253,Vectordimension_254,Vectordimension_255,Vectordimension_256,Vectordimension_257,Vectordimension_258,Vectordimension_259,Vectordimension_260,Vectordimension_261,Vectordimension_262,Vectordimension_263,Vectordimension_264,Vectordimension_265,Vectordimension_266,Vectordimension_267,Vectordimension_268,Vectordimension_269,Vectordimension_270,Vectordimension_271,Vectordimension_272,Vectordimension_273,Vectordimension_274,Vectordimension_275,Vectordimension_276,Vectordimension_277,Vectordimension_278,Vectordimension_279,Vectordimension_280,Vectordimension_281,Vectordimension_282,Vectordimension_283,Vectordimension_284,Vectordimension_285,Vectordimension_286,Vectordimension_287,Vectordimension_288,Vectordimension_289,Vectordimension_290,Vectordimension_291,Vectordimension_292,Vectordimension_293,Vectordimension_294,Vectordimension_295,Vectordimension_296,Vectordimension_297,Vectordimension_298,Vectordimension_299
afghanistan,0.04663989320397377,-0.01640188880264759,0.08342862874269485,-0.04464450106024742,0.025212714448571205,-0.11275608837604523,0.04429719224572182,0.07017207145690918,0.014726510271430016,-0.018555844202637672,-0.04189539700746536,-0.0344369150698185,-0.0348549410700798,0.09900470077991486,-0.014503790996968746,0.11040894687175751,0.04372921586036682,0.011647329665720463,-0.036908864974975586,0.0023557275999337435,-0.0020059251692146063,0.09752561151981354,-0.012153697200119495,0.022172795608639717,0.06085314229130745,0.04393048584461212,0.04633094370365143,-0.01994931325316429,0.008556179702281952,-0.07592541724443436,0.03782813251018524,-0.07010898739099503,-0.033044081181287766,-0.012475276365876198,0.03522753342986107,0.0691477507352829,0.006503925193101168,0.04513413459062576,0.11304470896720886,0.05925978720188141,0.07799305766820908,0.08224209398031235,-0.060943033546209335,0.11975919455289841,0.012191453948616982,-0.05370606854557991,-0.035878028720617294,0.026385443285107613,-0.08211401849985123,0.008832249790430069,-0.0966995507478714,-0.0009878751588985324,0.018471408635377884,0.05198328197002411,-0.026373574510216713,0.07060367614030838,-0.05958697944879532,0.03799524903297424,0.05061686038970947,0.050926774740219116,-0.025412749499082565,0.03344045206904411,-0.036074209958314896,-0.0046349395997822285,0.008215200155973434,0.08223292231559753,0.03005455993115902,-0.06343451887369156,0.007454629521816969,0.05387714132666588,-0.025959381833672523,0.02323523722589016,0.02650369144976139,-0.08159111440181732,0.04590033367276192,0.02680032141506672,0.03542460501194,0.08607488125562668,-0.07822830229997635,-0.06723780184984207,0.02557244710624218,-0.008004926145076752,-0.06090221181511879,-0.006165922619402409,0.09529648721218109,0.07195389270782471,0.02432173863053322,0.024947630241513252,0.11592486500740051,0.015514364466071129,0.0641537606716156,0.05540992692112923,0.015034814365208149,0.05356374382972717,-0.056677091866731644,0.07364467531442642,0.07420738786458969,0.030942056328058243,0.07521297037601471,-0.07149352878332138,0.02102779969573021,0.017235232517123222,0.03517652302980423,0.1526399850845337,-0.06710317730903625,-0.13335107266902924,0.11169635504484177,0.016961095854640007,-0.0023423205129802227,-0.03946688398718834,0.07280316203832626,-0.06363274157047272,-0.04027700051665306,0.06018877401947975,-0.05253434553742409,-0.04068536311388016,-0.015054957941174507,-0.03906454145908356,-0.07811430096626282,-0.0038658962585031986,-0.06716709583997726,-0.07485198229551315,-0.0381794273853302,0.0171116404235363,0.030157962813973427,-0.004714952316135168,0.04328908398747444,-0.005902085918933153,0.08815951645374298,-0.04773376137018204,0.028534945100545883,0.031233420595526695,-0.029125109314918518,-0.051559027284383774,-0.007841596379876137,-0.05623729154467583,-0.05234936624765396,-0.00040723232086747885,-0.010281885974109173,0.10876308381557465,-0.058880116790533066,-0.050545137375593185,0.00992096308618784,0.008773929439485073,0.077039435505867,-0.06038544699549675,0.022815348580479622,0.03275769203901291,-0.021140871569514275,0.004843991249799728,-0.03685258701443672,0.08160518854856491,0.13147249817848206,0.012887202203273773,0.04025421664118767,-0.039845310151576996,0.005821053870022297,0.0121427271515131,-0.014254028908908367,-0.0786340981721878,-0.029098471626639366,-0.0021105045452713966,0.026024246588349342,-0.014093589037656784,-0.1246173158288002,-0.015418969094753265,-0.016450928524136543,-0.045648910105228424,0.06354409456253052,-0.00018602819181978703,0.04731416329741478,0.08359085023403168,0.06914208084344864,0.09065816551446915,-0.06064701825380325,-0.08505331724882126,0.006638160441070795,-0.015835635364055634,0.00014326811651699245,-0.09325297176837921,-0.07347246259450912,-0.07098085433244705,0.05644301325082779,0.0093534579500556,0.03110571578145027,0.0013317156117409468,0.07375548779964447,-0.04078778252005577,-0.08526958525180817,-0.06548773497343063,0.015079137869179249,-0.016735319048166275,-0.02577057294547558,0.006014550570398569,-0.0238849725574255,-0.030247163027524948,-0.01686408929526806,0.10771206766366959,-0.03549133613705635,-0.0059560444205999374,0.019491305574774742,-0.016344167292118073,-0.12907084822654724,-0.02495395578444004,-0.03409257158637047,-0.042501553893089294,-0.08425699174404144,-0.04422557353973389,-0.14801949262619019,0.0630682110786438,-0.03202888369560242,-0.024540843442082405,-0.20132091641426086,-0.012189480476081371,-0.06468860805034637,0.0842311754822731,-0.024315863847732544,0.004974591080099344,0.034102775156497955,-0.04740205779671669,0.004138187039643526,-0.06827323883771896,-0.09702201187610626,0.006951926276087761,-0.040593355894088745,0.025620141997933388,0.04874049127101898,-0.07231003046035767,0.07150314748287201,0.12577547132968903,0.0844295397400856,0.13890022039413452,-0.00840842630714178,-0.029810218140482903,-0.01430344209074974,-0.059148747473955154,0.049138713628053665,0.04824249818921089,0.03996856510639191,0.017729081213474274,-0.026298094540834427,0.1136772483587265,-0.022549718618392944,0.0347740463912487,-0.00399709353223443,0.04677159711718559,0.045825157314538956,-0.09229747951030731,0.14885905385017395,0.00856933556497097,0.11971794813871384,0.05965111404657364,-0.02348906174302101,0.06525722146034241,0.05369671434164047,0.0791429728269577,0.013746525160968304,0.05628173425793648,-0.04347850754857063,0.039788831025362015,-0.02713788114488125,0.09603305160999298,0.06455418467521667,-0.03923913091421127,0.008587676100432873,0.07990439981222153,0.06525912135839462,0.07960301637649536,0.0022634067572653294,0.06257931888103485,0.03110290691256523,-0.08644392341375351,-0.06510631740093231,-0.011258247308433056,0.040960196405649185,-0.012689701281487942,0.005794039461761713,0.0841951072216034,-0.0050794691778719425,0.07861918210983276,0.050005607306957245,0.030335363000631332,0.058725036680698395,0.015952546149492264,0.05384264513850212,0.008686617948114872,-0.053759559988975525,-0.003933255095034838,0.08719787001609802,0.06226407364010811,0.039271507412195206,-0.031912896782159805,0.018260998651385307,0.04779936745762825,0.01697465404868126,0.03582808002829552,0.049912258982658386,-0.037865180522203445,-0.002546751406043768,-0.05082342028617859
ägypten,-0.061790768057107925,-0.062013059854507446,0.04641436040401459,-0.05034888908267021,0.08301344513893127,-0.03066524676978588,0.059151895344257355,-0.030438199639320374,0.03084912709891796,0.02744089439511299,-0.0764775276184082,-0.03953315317630768,0.007866410538554192,-0.031898465007543564,0.04234888777136803,0.07139714062213898,0.026019934564828873,0.013779652304947376,0.06376279890537262,0.052682992070913315,-0.046497881412506104,0.040904246270656586,0.0016465698136016726,0.014850272797048092,0.058355897665023804,0.00018029342754743993,0.03088712878525257,0.057213637977838516,0.06204766035079956,0.022006647661328316,0.03389975428581238,-0.04853864014148712,0.04219547659158707,-0.03572807461023331,0.14370903372764587,0.024327663704752922,-0.12229690700769424,-0.10206862539052963,0.07492432743310928,0.01045041624456644,-0.0570913627743721,0.019794398918747902,-0.028477834537625313,0.014053193852305412,0.017276406288146973,-0.08187931030988693,-0.01037217490375042,-0.043508004397153854,0.02318178117275238,0.12958115339279175,-0.011454685591161251,0.019649915397167206,-0.0018425320740789175,-0.10967012494802475,0.13877731561660767,-0.015744274482131004,0.0604696087539196,0.09410175681114197,0.03153158351778984,-0.05135781690478325,0.015404422767460346,-0.056859616190195084,-0.03998455032706261,-0.026220165193080902,-0.010981455445289612,0.042193688452243805,0.023074958473443985,-0.056116364896297455,0.009408331476151943,0.024503791704773903,0.054027292877435684,-0.031342193484306335,0.026517868041992188,-0.050190724432468414,-0.011161169968545437,0.011130624450743198,-0.012421570718288422,0.03373602777719498,-0.02419629506766796,-0.09071506559848785,-0.04410923272371292,0.018822377547621727,-0.03491169214248657,-0.043435465544462204,-0.007454324048012495,0.021669048815965652,0.015249261632561684,-0.08203215152025223,0.008344260975718498,-0.029124455526471138,0.007439233362674713,-0.07492690533399582,0.071622334420681,-0.000729172897990793,-0.08791409432888031,0.011560742743313313,0.12050367891788483,-0.04180076718330383,-0.000603462744038552,-0.047099556773900986,0.084347203373909,0.0995943620800972,-0.10918181389570236,0.03145154193043709,-0.0150385033339262,0.05914081260561943,0.03919638320803642,0.014649024233222008,0.004278625827282667,-0.032987967133522034,-0.07012362033128738,0.020445067435503006,-0.010001775808632374,0.06737561523914337,0.013855557888746262,0.035426102578639984,0.063441202044487,-0.025965295732021332,-0.05384424328804016,-0.0649653896689415,-0.06763572990894318,-0.0788060873746872,-0.007043903693556786,0.06092172861099243,0.04436855763196945,0.021101005375385284,0.1319759637117386,0.049334608018398285,-0.003951752558350563,0.08550551533699036,-0.0006050977390259504,0.04267778620123863,0.010204482823610306,-0.0012633728329092264,-0.058031611144542694,0.03460634872317314,-0.03767147660255432,0.05973833054304123,0.06999757885932922,0.012260901741683483,0.01896117441356182,0.032544203102588654,0.03541550785303116,0.08153318613767624,-0.016105927526950836,-0.05456434190273285,-0.033949825912714005,-0.053361665457487106,-0.007652739062905312,0.0075669302605092525,0.013994111679494381,0.0005808264832012355,0.057472486048936844,0.0005554896779358387,0.04776506870985031,0.049595464020967484,0.025435052812099457,0.08891753852367401,-0.02732829563319683,0.06118371710181236,-0.15542174875736237,-0.06679597496986389,0.04284270852804184,0.0019983029924333096,-0.07982377707958221,0.06451454013586044,0.07076719403266907,0.057212866842746735,0.040443338453769684,0.03115837089717388,0.07036309689283371,0.11816821992397308,-0.03383789584040642,0.010550661943852901,0.008053157478570938,-0.07482029497623444,-0.028864189982414246,-0.03298072889447212,-0.0036116379778832197,-0.054721400141716,-0.009916052222251892,0.06261894106864929,0.007964798249304295,0.05073036625981331,0.04153398424386978,-0.15435035526752472,0.046455640345811844,-0.021577931940555573,-0.0886310487985611,-0.02133963070809841,0.044037844985723495,-0.051168400794267654,-0.05443838983774185,-0.03193371370434761,-0.15855754911899567,-0.027182595804333687,-0.006764131598174572,-0.054043229669332504,-0.044443681836128235,-0.03983801603317261,0.01106781605631113,-0.05261460319161415,0.058386337012052536,-0.02368469536304474,0.006064743734896183,0.10182429105043411,0.025058455765247345,-0.012464834377169609,-0.06762649863958359,-0.02902192436158657,-0.12340634316205978,-0.12342718243598938,-0.08832616358995438,0.0456588976085186,-0.038038551807403564,0.06703043729066849,-0.05050744116306305,-0.12263820320367813,0.016228286549448967,0.03565003722906113,-0.06294789165258408,0.04746735468506813,0.011029359884560108,0.028293652459979057,-0.015717819333076477,-0.07649167627096176,0.08287633210420609,-0.014385190792381763,-0.05636793002486229,0.14395052194595337,0.02817033976316452,0.019013091921806335,-0.028865646570920944,0.0496772825717926,0.0008680347236804664,0.01320730522274971,0.03954698145389557,0.0628586858510971,0.09723552316427231,-0.025663791224360466,0.03352674841880798,0.08323759585618973,-0.015910059213638306,-0.03824160248041153,-0.05496872588992119,0.05499263107776642,0.09453092515468597,0.0352768674492836,0.15013685822486877,-0.04724153131246567,0.05957353860139847,0.09236470609903336,0.008684412576258183,0.0649809017777443,0.1961171180009842,0.07600492238998413,-0.01933433674275875,0.08157166093587875,-0.03968554735183716,-0.030490929260849953,-0.016960617154836655,0.1291748285293579,-0.013774857856333256,0.01501613762229681,-0.0940232053399086,0.034120865166187286,-0.007202778942883015,-0.007512093987315893,-0.03851922228932381,-0.015969514846801758,0.012879371643066406,0.019916510209441185,-0.09784390032291412,-0.014635595493018627,-0.0006596646271646023,-0.0462021678686142,-0.01827404461801052,0.09931135177612305,0.040286168456077576,0.10171401500701904,0.03481978923082352,0.029000336304306984,0.055870670825242996,-0.034066472202539444,0.011152040213346481,0.07905078679323196,-0.004543607123196125,0.005732215009629726,0.08821383118629456,-0.008905298076570034,0.07296532392501831,-0.06767132133245468,-0.0845630019903183,0.04394218698143959,-0.03292829543352127,-0.012355967424809933,0.07303982973098755,0.0028552834410220385,-0.08078059554100037,0.003940582741051912
albanien,-0.04490405693650246,0.007551988121122122,0.050897788256406784,0.0033975117839872837,0.03749007359147072,-0.03464016690850258,0.1144111230969429,-0.021400531753897667,-0.00014841221855022013,-0.013992865569889545,-0.0006920704618096352,-0.08726172894239426,0.011503435671329498,-0.08872980624437332,-0.008667263202369213,0.08376908302307129,0.03069537691771984,0.03569961339235306,-0.011693245731294155,0.026306279003620148,-0.13384775817394257,-0.034090109169483185,0.01587192714214325,0.006485081277787685,0.09283585101366043,-0.0026593573857098818,0.07673323899507523,-0.06126897782087326,0.017572062090039253,0.003977886401116848,-0.0049959332682192326,-0.055171120911836624,0.042966194450855255,-0.024903206154704094,0.005905854050070047,-0.07535725086927414,-0.11288926750421524,-0.031039709225296974,0.05218371003866196,0.0053084190003573895,0.047761283814907074,-0.060199204832315445,-0.006001367699354887,-0.01923542656004429,-0.00025405551423318684,-0.09742020070552826,-0.036211129277944565,0.0358378030359745,0.013818399049341679,0.03198755159974098,-0.07869983464479446,0.0868406891822815,0.02636726014316082,0.07948746532201767,0.05506305396556854,0.08970851451158524,-0.012765977531671524,-0.025525901466608047,-0.00397445447742939,-0.057852596044540405,0.05039393901824951,-0.059864796698093414,-0.02166633866727352,-0.007450995035469532,0.0002321874926565215,-0.02480078488588333,-0.03455129265785217,-0.07735101133584976,-0.014514443464577198,0.08102861046791077,-0.06918507069349289,0.04264049604535103,0.043002936989068985,0.01239727158099413,0.11810122430324554,-0.051759980618953705,0.04604297876358032,0.08058159798383713,0.03962533175945282,-0.1793545037508011,0.06039411574602127,-0.03298423811793327,-0.10397850722074509,-0.0004260773421265185,0.01212452631443739,0.03388294577598572,-0.07479999214410782,0.026922814548015594,0.06273875385522842,-0.02387189120054245,-0.0417742021381855,0.02732863835990429,0.052664391696453094,0.016788776963949203,-0.10102126747369766,-0.002989531960338354,0.06892198324203491,0.024342861026525497,0.020947620272636414,0.010245809331536293,0.03446843847632408,0.008726591244339943,-0.04440036788582802,0.07315693795681,-0.011336548253893852,-0.027468781918287277,0.12402025610208511,0.045551273971796036,-0.0015341939870268106,0.09074394404888153,0.15556125342845917,0.02141551859676838,-0.01628929376602173,0.07628476619720459,-0.08417800068855286,-0.06354790180921555,0.0076129622757434845,-0.06706453114748001,0.032397400587797165,-0.03294358775019646,-0.0938582643866539,0.013227167539298534,-0.09959744662046432,0.10815383493900299,-0.04765225201845169,0.0041734310798347,0.05276526138186455,0.0507502518594265,-0.03305057808756828,0.07454155385494232,0.04161391407251358,0.001973228994756937,0.014810753054916859,-0.08294643461704254,-0.028561731800436974,-0.04054130241274834,-0.09839621931314468,-0.00520680844783783,0.038052696734666824,-0.03191984444856644,0.015288540162146091,-0.011747374199330807,0.053412843495607376,-0.03152364492416382,0.03941260650753975,-0.0018009002087637782,-0.024684635922312737,0.02300441637635231,0.059866562485694885,0.010544407181441784,0.012470651417970657,0.040873583406209946,0.06562390178442001,-0.011231065727770329,-0.06279353052377701,-0.013751291669905186,-0.05161936581134796,0.11253713816404343,-0.00038548465818166733,-0.004178171511739492,-0.059024326503276825,-0.0787506029009819,0.02215861715376377,-0.019814034923911095,-0.011229355819523335,-0.025048287585377693,-0.04084179922938347,0.02930082567036152,0.043937310576438904,-0.01636296510696411,0.030671169981360435,-0.04382026940584183,0.09932230412960052,0.10236267745494843,-0.015916114673018456,-0.10055775195360184,-0.04964040592312813,-0.07521335035562515,-0.017445288598537445,-0.0489751473069191,0.0639222264289856,-0.0666731745004654,0.0429038405418396,2.6604844606481493e-05,0.0038337912410497665,-0.11628084629774094,-0.0459715835750103,-0.0018691780278459191,-0.05262188985943794,-0.06830345839262009,-0.010436071082949638,-0.09144556522369385,-0.06466393172740936,-0.050710201263427734,-0.06969384849071503,0.05815473571419716,-0.03683049976825714,-0.06395532190799713,-0.08747345209121704,-0.02966197207570076,-0.023669155314564705,-0.008828629739582539,0.03199520707130432,0.05852088704705238,0.018270261585712433,-0.023747310042381287,-0.08773896843194962,0.03836369514465332,0.0019493584986776114,-0.18417362868785858,-0.030215362086892128,-0.013492928817868233,0.044636063277721405,-0.024394311010837555,-0.08070042729377747,0.08618897199630737,0.03869270160794258,-0.0013341601006686687,-0.0033139376901090145,-0.1219547688961029,-0.005376966204494238,-0.025183632969856262,-0.01677030883729458,-0.003491532988846302,0.05217045545578003,0.05184434726834297,0.058471355587244034,0.00578630855306983,0.058478545397520065,0.04636557772755623,0.10937518626451492,0.05935276672244072,-0.006938839331269264,-0.01423611119389534,0.04043211787939072,0.012366595678031445,-0.012268617749214172,-0.010565231554210186,0.002631094539538026,-0.0022933362051844597,-0.12090879678726196,0.0441029854118824,-0.034085746854543686,-0.08275206387042999,-0.012590068392455578,-0.016501307487487793,0.004480975680053234,0.0404493473470211,0.06176904961466789,0.10668925940990448,0.053164806216955185,-0.047567322850227356,-0.046711549162864685,0.006140167359262705,0.0779276192188263,0.09218243509531021,0.04198051244020462,0.03129123896360397,-0.06249464303255081,0.009403836913406849,0.042174894362688065,0.04584158584475517,-0.062215160578489304,0.016652032732963562,0.033616937696933746,-0.010248986072838306,-0.056201960891485214,0.05668364465236664,0.0439118929207325,-0.05166280269622803,0.0889078751206398,0.09697599709033966,-0.047179147601127625,-0.035139814019203186,0.04085260629653931,0.08710624277591705,0.004460572265088558,0.046336594969034195,0.038997821509838104,-0.034498848021030426,0.16904447972774506,0.0722585991024971,-0.08559876680374146,-0.06038649007678032,0.028872240334749222,0.14221060276031494,-0.041521769016981125,-0.05723217874765396,0.06231125444173813,0.03519625961780548,-0.0014020242961123586,0.06815831363201141,-0.1424931287765503,0.038323406130075455,-0.01173315942287445,-0.06485894322395325,-0.025050289928913116,-0.06258124113082886,0.14258527755737305,0.023738279938697815
algerien,0.05333881080150604,-0.028819043189287186,-0.016850851476192474,-0.02913779392838478,0.11057740449905396,-0.03548968955874443,0.08576242625713348,0.03768360987305641,0.09786926954984665,-0.05926314741373062,-0.049746301025152206,-0.008942089043557644,0.060383521020412445,-0.02763132005929947,0.010307854041457176,0.11161068081855774,0.019458860158920288,0.018024155870079994,0.03300221264362335,0.0384342223405838,-0.03738871589303017,-0.030755216255784035,0.015524288639426231,-0.02764694206416607,-0.011451193131506443,-0.005316333379596472,0.002503409516066313,-0.02261028252542019,0.05871330201625824,0.05541296675801277,-0.03583017736673355,-0.10486345738172531,0.0436057485640049,0.01079773623496294,-0.0178118497133255,0.03048456273972988,-0.097206249833107,-0.0626315325498581,0.06322192400693893,0.0439252145588398,-0.031111929565668106,-0.023517698049545288,0.028943130746483803,0.01189121138304472,0.03468739241361618,0.07734217494726181,-0.020898444578051567,0.06558659672737122,-0.048280201852321625,0.02523091994225979,-0.10901270806789398,0.0015109449159353971,0.017812112346291542,0.0069963205605745316,-0.01977972313761711,0.03933760151267052,0.051047686487436295,0.04031428322196007,0.056347329169511795,-0.062280893325805664,-0.0056585692800581455,-0.028891179710626602,-0.039181701838970184,0.010577320121228695,0.002348348731175065,0.031015463173389435,0.05265256389975548,-0.017878856509923935,-0.014422659762203693,0.0258562583476305,-0.002207432873547077,0.01593022421002388,0.0659257099032402,-0.0027059055864810944,0.05290300026535988,0.00995541550219059,0.017391372472047806,-0.03096630796790123,-0.00018443864246364683,-0.08256883174180984,0.12396576255559921,-0.02506895735859871,-0.015423893928527832,-0.0435415655374527,-0.004503361415117979,0.036226846277713776,-0.036499809473752975,0.056791823357343674,0.1156773641705513,0.01805926114320755,0.010452804155647755,0.08566740155220032,0.025075247511267662,0.07089561969041824,-0.048420894891023636,-0.002388858702033758,0.005999285262078047,-0.08503328263759613,0.019187690690159798,-0.06383020430803299,0.0461745411157608,0.10569202899932861,0.10371118783950806,0.029019251465797424,-0.14670437574386597,-0.02168218605220318,0.08142673224210739,0.009395641274750233,-0.08330786228179932,-0.009057181887328625,0.041113827377557755,-0.0068995291367173195,0.01041845977306366,0.006674729287624359,0.01597568392753601,-0.03732796013355255,0.01360989734530449,-0.05090521275997162,0.013825738802552223,-0.04264185205101967,-0.032307982444763184,-0.05092405900359154,-0.05241856351494789,0.104608915746212,0.032637402415275574,0.05542818084359169,0.04284248873591423,-0.006133395247161388,-0.02484964020550251,0.09400604665279388,0.10493779182434082,0.071065254509449,-0.02554420568048954,-0.077498659491539,-0.06291670352220535,0.042212724685668945,-0.03924839198589325,0.060800038278102875,0.0230389516800642,0.12928691506385803,0.024755049496889114,0.08061225712299347,0.07961861044168472,-0.002357657765969634,0.02233744226396084,-0.006400614976882935,-0.08114570379257202,0.027021991088986397,-0.06206957623362541,-0.0872608870267868,-0.031652141362428665,0.009103327058255672,0.067599356174469,0.02670191414654255,0.03497973084449768,-0.04602096602320671,0.043051913380622864,0.0653013363480568,-0.0011016561184078455,0.005559771787375212,-0.0864264965057373,-0.13490507006645203,0.02631758339703083,0.00571335107088089,-0.03870823606848717,0.036866359412670135,0.029201142489910126,0.028394022956490517,0.047022413462400436,-0.023501427844166756,0.02783966064453125,0.20276004076004028,-0.017891237512230873,0.019992336630821228,-0.025869356468319893,-0.03185896947979927,-0.07607322931289673,-0.0051948148757219315,-0.04222540184855461,-0.061269231140613556,0.020029950886964798,-0.006028382107615471,-0.04062566161155701,0.033841729164123535,-0.010732927359640598,-0.0758354514837265,-0.05303483083844185,0.07176342606544495,-0.07544552534818649,0.015172417275607586,0.0030538032297044992,-0.011137968860566616,-0.11390650272369385,0.0558549165725708,0.014372805133461952,-0.10390708595514297,-0.02161361463367939,0.02082096040248871,-0.021548332646489143,-0.030485058203339577,0.07867772877216339,0.04318391531705856,0.06178467348217964,-0.09660711884498596,0.0021978956647217274,0.08214651793241501,-0.07247477769851685,-0.08033595979213715,-0.06123073026537895,-0.005378935020416975,-0.0886150449514389,0.03020220622420311,-0.08979249745607376,0.08225631713867188,-0.01489604078233242,0.10449425876140594,-0.05339334160089493,-0.1480942666530609,-0.039652206003665924,-0.00724630756303668,-0.08785063773393631,0.027460312470793724,-0.026991581544280052,-0.07477717101573944,0.052420374006032944,-0.15122471749782562,-0.0284732673317194,-0.06473525613546371,-0.01932344399392605,-0.057589270174503326,0.02585567533969879,0.022939423099160194,-0.02428881637752056,0.00355134648270905,-0.06488797813653946,-0.024636264890432358,0.11189331859350204,0.05002667382359505,-0.02056012861430645,-0.05422982573509216,-0.021336426958441734,-0.06688759475946426,0.014704784378409386,-0.03824424743652344,0.11206024885177612,0.08028095215559006,0.13032016158103943,0.017308667302131653,0.033844031393527985,0.01857323944568634,0.06852427870035172,0.10020869970321655,-0.023220352828502655,0.06159629672765732,-0.014265510253608227,0.07041922956705093,-0.009809788316488266,-0.004366851877421141,-0.013458199799060822,-0.06664224714040756,0.061309024691581726,0.06074242293834686,-0.08900048583745956,0.005801057908684015,-0.1593533605337143,-0.02434626780450344,-0.029344744980335236,0.03738151863217354,0.011720837093889713,0.09950122982263565,0.058112796396017075,-0.01736876554787159,0.0006619071937166154,-0.11952956020832062,0.07751358300447464,0.10410594195127487,-0.0723300650715828,0.012327354401350021,0.07852736860513687,0.043520502746105194,0.0024862552527338266,0.01745443604886532,-0.03441688045859337,-0.10256312787532806,-0.023265285417437553,0.03305727243423462,-0.062496740370988846,-0.0493188351392746,-0.05833236128091812,-0.10802566260099411,0.04980466142296791,-0.020458806306123734,-0.028551548719406128,-0.04874636232852936,0.054814938455820084,0.04777251183986664,-0.0053642322309315205,-0.05613534152507782,-0.06731035560369492,0.09782397001981735
angola,0.001835188246332109,-0.017269546166062355,0.020206810906529427,-0.0774390697479248,0.095083087682724,-0.0641602873802185,0.07818090915679932,0.021062402054667473,0.06260181963443756,-0.08967871218919754,-0.014311146922409534,-0.037234410643577576,-0.052309975028038025,0.06559456139802933,0.10626748949289322,0.01070694625377655,-0.009980660863220692,-0.012453661300241947,-0.05271920561790466,0.015366568230092525,-0.040051333606243134,-0.049759674817323685,0.03077985905110836,-0.03770900145173073,0.08245578408241272,-0.07215721160173416,-0.0009694942855276167,-0.015474296174943447,-0.02049383334815502,0.0073781744576990604,0.015065019018948078,0.13099174201488495,0.12145666033029556,-0.05930539593100548,-0.004851664416491985,-0.04469994455575943,0.018314210698008537,0.04573233798146248,0.11345990002155304,0.10234641283750534,0.037231963127851486,-0.035473864525556564,0.007828992791473866,0.03619997948408127,0.05274522677063942,0.002854918362572789,0.0028828680515289307,0.03179318457841873,0.07829596102237701,0.04857536405324936,0.002841792069375515,-0.008827835321426392,-0.04378046840429306,0.009584499523043633,0.035831984132528305,0.03834283724427223,-0.13548190891742706,0.035663753747940063,0.08267120271921158,-0.026108337566256523,0.02987123280763626,-0.0809163749217987,-0.002334003569558263,0.07344232499599457,0.02445516176521778,0.05464783310890198,0.0034274947829544544,-0.024488624185323715,0.046254947781562805,0.007734767626971006,-0.014367290772497654,0.0169974472373724,-0.011721349321305752,-0.0017409181455150247,0.006066733505576849,0.04046707972884178,-0.017683133482933044,0.04778800904750824,0.04690517857670784,-0.1109950840473175,-0.019414322450757027,0.09599923342466354,-0.06661169230937958,-0.07601143419742584,0.0835912674665451,0.004323501139879227,0.07584046572446823,-0.020614303648471832,0.06904628127813339,-0.012374474667012691,-0.04407268390059471,-0.021952128037810326,0.008364231325685978,0.006725854706019163,-0.06400395929813385,0.07545705884695053,0.08605887740850449,-0.12611670792102814,0.09681761264801025,-0.05051586031913757,0.052319515496492386,0.0035652942024171352,0.03279511630535126,0.08110848069190979,-0.12131226807832718,-0.04172937944531441,0.11974714696407318,0.042697273194789886,0.03233055770397186,-0.047349244356155396,0.001828446751460433,-0.04919368401169777,0.06301406770944595,-0.011395595036447048,-0.041046902537345886,-0.024755265563726425,-0.018190382048487663,-0.0825943574309349,-0.0012750073801726103,-0.10917674750089645,-0.08233530819416046,-0.04805850237607956,-0.02405189350247383,0.04358293488621712,0.006757899187505245,0.027335025370121002,-0.07556978613138199,0.0787714272737503,0.0025010237004607916,0.03221246227622032,-0.0486820824444294,-0.0031485736835747957,-0.04493670538067818,0.038199786096811295,-0.013693957589566708,-0.020388871431350708,-0.029936878010630608,0.01542673073709011,0.04341919347643852,0.04352238401770592,0.008802956901490688,-0.09297482669353485,0.01358690857887268,0.0005581671721301973,-0.014854740351438522,-0.05486809089779854,0.04389331489801407,0.00641005439683795,-0.054005157202482224,-0.07331746071577072,-0.08442887663841248,0.05251159891486168,0.12988653779029846,-0.03811802715063095,0.04271921515464783,-0.10530172288417816,-0.002689491957426071,0.042997460812330246,-0.052490249276161194,0.09812350571155548,-0.07574133574962616,-0.07053840160369873,-0.023297470062971115,0.010574430227279663,-0.06244436278939247,0.011414024978876114,-0.02795286476612091,0.0454968586564064,0.0723528042435646,-0.038265030831098557,0.028622491285204887,0.0014669593656435609,-0.028806591406464577,0.04487396776676178,-0.0015023603336885571,0.07377240061759949,0.055702462792396545,-0.026223275810480118,0.06264837086200714,-0.15555725991725922,0.01683635823428631,-0.03896745294332504,0.04630066081881523,-0.05119001492857933,0.03703360632061958,-0.0259354580193758,0.07734497636556625,0.0279715396463871,-0.05980149284005165,-0.031292472034692764,-0.1011735200881958,-0.000545971910469234,-0.040730830281972885,0.06931806355714798,-0.001925468211993575,0.003673905273899436,0.04636251926422119,0.04786573350429535,-0.06430049985647202,-0.013072953559458256,0.08217763155698776,-0.0009659451898187399,0.046599384397268295,-0.003855303628370166,0.04032871872186661,0.1062517836689949,-0.09096751362085342,0.0904390960931778,-0.03237536922097206,-0.16426949203014374,-0.013734100386500359,-0.010963902808725834,-0.0862904042005539,-0.07566072791814804,0.034444477409124374,0.12324313074350357,-0.05413518846035004,0.0006231418228708208,-0.019688932225108147,-0.023786235600709915,-0.06087314337491989,-0.04318436235189438,-0.10653943568468094,0.035285137593746185,0.1302301436662674,-0.09628969430923462,-0.02694261632859707,-0.044008754193782806,-0.013392297551035881,0.01854965090751648,0.025144971907138824,0.06277544051408768,-0.024727851152420044,0.018501268699765205,0.03189009428024292,-0.023314975202083588,0.039713501930236816,0.027027510106563568,0.049169596284627914,0.041247617453336716,-0.026420054957270622,0.016687767580151558,-0.058043356984853745,-0.06920426338911057,0.0648915246129036,0.005654867272824049,0.09018079191446304,-0.04276195541024208,0.054875969886779785,0.015309506095945835,0.07576929032802582,0.06733960658311844,-0.06111281365156174,0.10031630843877792,0.11094558984041214,0.10076754540205002,-0.011055894196033478,-0.09717414528131485,-0.03087576851248741,-0.08843345195055008,-0.022259844467043877,0.05708123743534088,0.11317212879657745,0.07037051022052765,0.002750210464000702,0.01165804360061884,-0.0550103634595871,0.07751354575157166,0.04459239915013313,0.05210446938872337,-0.0013039316982030869,-0.02840975858271122,-0.04015181213617325,-0.07778864353895187,0.053365983068943024,-0.07359226793050766,0.03101254068315029,0.06772446632385254,0.07005620002746582,0.04784015566110611,0.07668437063694,0.059155210852622986,0.019443849101662636,-0.026400666683912277,0.034314658492803574,-0.1100369319319725,-0.033117085695266724,0.05120242014527321,-0.026548374444246292,-0.034320101141929626,0.025628818199038506,-0.04980330169200897,0.0868644192814827,0.0736202821135521,0.04241180047392845,0.11641469597816467,0.04532879590988159,-0.04307324439287186,-0.017793510109186172,-0.0260823592543602
argentinien,0.03200772777199745,0.04777003824710846,0.0666368156671524,-0.014573631808161736,0.07711463421583176,-0.047713372856378555,-0.07567068934440613,-0.0191305261105299,0.09650053828954697,-0.018789229914546013,-0.06672421842813492,-0.02471025660634041,-0.10382343083620071,-0.04124961420893669,-0.05211642012000084,0.05234668776392937,-0.014541883952915668,-0.0009699918446131051,-0.0005296682356856763,0.0740206316113472,0.034888625144958496,-0.088107168674469,0.08794543892145157,0.05304955691099167,-0.03334841877222061,0.05663803964853287,-0.1090158149600029,0.017815468832850456,0.04624418169260025,0.048738881945610046,0.07598909735679626,0.04424067214131355,0.0418490506708622,-0.0713634192943573,0.04354232922196388,0.053053390234708786,-0.03242139145731926,0.04166014865040779,0.12535512447357178,0.03820401057600975,-0.03276810050010681,0.07759199291467667,-0.03222283720970154,0.06766293942928314,-0.07401598244905472,0.03357658535242081,-0.0037997961044311523,-0.06267370283603668,-0.011534206569194794,-0.01002028863877058,-0.005720384884625673,-0.0022008370142430067,-0.03728519380092621,-0.04754311963915825,0.06735275685787201,0.05922650173306465,-0.17215202748775482,-0.09521540254354477,-0.021789930760860443,-0.05249611660838127,-0.012761992402374744,-0.0984303206205368,-0.00965938251465559,0.0042586177587509155,0.06210440769791603,0.04311491176486015,-0.05906453728675842,-0.04087149351835251,-0.020985562354326248,-0.011612950824201107,-0.05318809673190117,-0.10597613453865051,-0.060175493359565735,-0.08532366156578064,0.11154666543006897,-0.003113958751782775,-0.09779515117406845,0.0695439875125885,-0.045334894210100174,-0.07720453292131424,0.02785477787256241,0.012730174697935581,0.01141959149390459,-0.05271423980593681,0.02915162779390812,-0.017609592527151108,-0.028782688081264496,-0.07010388374328613,0.06750603020191193,0.04030057042837143,-0.07182436436414719,-0.007284185849130154,-0.0162869393825531,-0.11889836192131042,-0.017259566113352776,-0.04462028294801712,0.03101821430027485,0.07275960594415665,0.11049262434244156,0.0038126830477267504,0.050363197922706604,0.04977495223283768,-0.008754964917898178,0.01059167180210352,-0.03292485326528549,-0.014646152965724468,0.05793149024248123,0.03847862407565117,-0.11143994331359863,-0.013922824524343014,0.014846961945295334,-0.03526687994599342,0.09580645710229874,-0.13866598904132843,-0.08481156826019287,-0.03815393149852753,0.02766757272183895,-0.016414979472756386,-0.0473596453666687,-0.12807312607765198,-0.07727187871932983,-0.08218631893396378,-0.0032176359090954065,0.05005725100636482,0.03203946352005005,-0.0926937535405159,-0.07332535088062286,-0.024348795413970947,-0.0008980936836451292,0.006159599870443344,-0.007512795738875866,-0.010978137142956257,-0.00030904595041647553,0.02982790768146515,0.048283569514751434,0.08429215848445892,-0.013733441941440105,0.06691288948059082,0.05625076964497566,-0.027859454974532127,0.035017017275094986,-0.05808083340525627,0.036216240376234055,-0.00220994814299047,0.05923277884721756,0.04005950689315796,-0.07259797304868698,-0.03649744763970375,0.07550586014986038,-0.03562679886817932,0.05532683804631233,0.12715095281600952,0.09493344277143478,-0.042520493268966675,-0.04269176721572876,-0.07678823173046112,-0.00981177855283022,0.032321032136678696,0.01304395031183958,0.11374907195568085,-0.04821740835905075,-0.16694773733615875,-0.09917836636304855,-0.029709527269005775,-0.12924860417842865,0.047634854912757874,-0.04747448116540909,0.015174456872045994,0.02528437413275242,-0.040316611528396606,0.09198800474405289,0.057936426252126694,0.059395793825387955,-0.06769464164972305,-0.07414529472589493,0.014582362025976181,-0.06125090643763542,0.056035563349723816,0.05789100378751755,-0.0710577517747879,0.027499185875058174,-0.07647081464529037,-0.04136566072702408,-0.022459549829363823,0.05281452462077141,-0.07218660414218903,-0.024263888597488403,0.03402173891663551,0.04458436742424965,-0.01983518712222576,0.029080647975206375,-0.00011434231419116259,-0.07754165679216385,-0.06129704788327217,-0.06315439194440842,-0.04666424170136452,-0.06935159862041473,-0.0801951065659523,0.00474864337593317,-0.06496450304985046,-0.062021274119615555,0.05556255578994751,-0.019416745752096176,0.03985436633229256,0.01586797647178173,0.07374661415815353,-0.02292807772755623,-0.044967081397771835,-0.03143107518553734,-0.03315557539463043,-0.06034679338335991,-0.016710925847291946,0.0326516218483448,0.051439229398965836,0.0019302188884466887,0.10271645337343216,-0.006732617039233446,-0.09696037322282791,-0.027041751891374588,-0.021029409021139145,0.040503665804862976,-0.041544102132320404,-0.021410826593637466,-0.041652996093034744,0.06685828417539597,-0.1307801902294159,0.03334113582968712,-0.007294829469174147,0.04166145622730255,0.09605671465396881,-0.006492177955806255,-0.04610132426023483,0.045941390097141266,0.05987554416060448,0.07793880999088287,0.022826582193374634,-0.019250182434916496,0.044044431298971176,-0.032317038625478745,-0.042991239577531815,0.007756315171718597,0.030125025659799576,-0.03809460997581482,0.0706397294998169,0.04016251862049103,0.029849950224161148,0.0073702470399439335,-0.0011515971273183823,-0.027351703494787216,0.02782479114830494,-0.019527481868863106,0.023486530408263206,0.06842624396085739,0.04560982435941696,-0.024361591786146164,0.03974352404475212,0.03300657868385315,-0.014350375160574913,-0.010961298830807209,-0.01927165500819683,-0.015545685775578022,0.07892763614654541,0.056490831077098846,0.037955693900585175,0.022259511053562164,-0.02449612133204937,-0.050275225192308426,-0.04823007807135582,-0.022175656631588936,0.030874157324433327,0.025122590363025665,0.0249075535684824,0.03149620443582535,-0.09062740951776505,0.06035148352384567,-0.126776784658432,0.12581205368041992,0.12644071877002716,0.11950399726629257,0.008496676571667194,0.05016070976853371,0.038585953414440155,-0.10712360590696335,-0.039189644157886505,0.10965906828641891,-0.03539739549160004,0.036041442304849625,0.06001831963658333,-0.03404323756694794,-0.0524018295109272,-0.02639760635793209,-0.04879167675971985,-0.01085493341088295,0.059778984636068344,0.03567241504788399,-0.004701707512140274,0.0534907728433609,-0.017485829070210457,-0.024283483624458313,0.021264808252453804
armenien,-4.214833097648807e-05,-0.01768937148153782,0.10093402862548828,-0.03964248299598694,0.05223104730248451,-0.05882414057850838,-0.035803746432065964,0.020183289423584938,0.002181081799790263,0.10038749128580093,-0.06927261501550674,0.0532514825463295,-0.057086676359176636,-0.026882167905569077,0.10086429864168167,0.07458266615867615,-0.09697256982326508,0.023013921454548836,-0.02115984447300434,0.07388249784708023,-0.05757546052336693,0.004208684433251619,0.0328713059425354,-0.009147192351520061,-9.020917786983773e-05,0.03675192967057228,0.030604619532823563,0.00619174400344491,-0.021950384601950645,-0.07234228402376175,0.034382905811071396,-0.031794093549251556,0.07506133615970612,0.0010998754296451807,0.01912604086101055,0.0022603636607527733,-0.08607131987810135,0.026855701580643654,-0.029858678579330444,0.020286042243242264,0.045193396508693695,0.01797511801123619,0.015619846060872078,0.02103728987276554,-0.001614504843018949,0.00043371671927161515,-0.023533811792731285,-0.05134234204888344,-0.01608450897037983,0.08953279256820679,-0.08322539925575256,0.0906045064330101,0.012074713595211506,0.00037055829307064414,0.04838429391384125,0.09633735567331314,0.002425966551527381,0.054429955780506134,0.06603938341140747,-0.04497417062520981,-0.09393734484910965,-0.03291792795062065,-0.062305934727191925,-0.011303803883492947,-0.04441789537668228,0.03713974356651306,0.10935644805431366,-0.095316082239151,0.004040745086967945,-0.011750571429729462,0.033750515431165695,-0.007528015878051519,-0.02179352380335331,-0.024988671764731407,0.05294131860136986,0.07910533249378204,-0.016147973015904427,0.042234621942043304,-0.05721810460090637,-0.07177971303462982,0.14897948503494263,-0.05865008011460304,-0.04435194283723831,0.01763567142188549,0.15390029549598694,0.10162202268838882,0.01845381036400795,-0.10740700364112854,0.047880079597234726,-0.05292156711220741,-0.04030761495232582,-0.0032167795579880476,0.06926604360342026,0.0682830736041069,-0.024516258388757706,-0.11648328602313995,-0.03704856336116791,0.026145298033952713,0.02207215689122677,-0.08952101320028305,0.10473895817995071,-0.06020958721637726,-0.010366695933043957,-0.0036449329927563667,-0.03107902593910694,0.05214633047580719,0.03265120089054108,-0.06622031331062317,-0.10970493406057358,0.05453305318951607,0.09222576022148132,0.03983588516712189,-0.03046104498207569,0.07787684351205826,-0.05356913059949875,-0.03835386037826538,0.026429558172822,-0.034967392683029175,-0.0037347578909248114,-0.0029338956810534,-0.009855473414063454,0.03433914855122566,-0.02590433694422245,0.1228029653429985,0.03349181264638901,0.06716093420982361,-0.04391827806830406,-0.02653794176876545,-0.10972502082586288,0.1768617033958435,0.013108131475746632,0.01506564300507307,0.04148430377244949,-0.008118054829537868,-0.037860628217458725,-0.0028278117533773184,-0.008357015438377857,0.09405399113893509,-0.023193830624222755,0.1321265548467636,0.10435852408409119,-0.0041501340456306934,0.059415001422166824,0.01809096522629261,-0.0770924761891365,0.030000973492860794,0.021613076329231262,-0.006397783290594816,-0.02625453472137451,-0.032924551516771317,-0.026006922125816345,0.0032301151659339666,0.042562633752822876,0.039731692522764206,-0.010435960255563259,-0.06853166967630386,-0.0430176705121994,0.07839468866586685,-0.059442177414894104,0.020448578521609306,-0.09051234275102615,-0.10703741759061813,0.009194196201860905,0.017269663512706757,-0.03527240827679634,-0.0012716607889160514,-0.01512279361486435,-0.012820811942219734,0.02911786176264286,0.1258436143398285,0.10807199776172638,-0.03276212885975838,-0.07388632744550705,0.05761357396841049,0.005133229307830334,-0.06811154633760452,0.02761099487543106,0.013186849653720856,-0.035161565989255905,0.010567381978034973,0.01794985868036747,0.024859556928277016,0.0795120969414711,-0.12612693011760712,0.016566438600420952,-0.038016095757484436,-0.0001284287718590349,-0.02522054873406887,0.0032505567651242018,-0.019352100789546967,0.005431347992271185,-0.02990044467151165,-0.046491723507642746,0.011176474392414093,-0.044464267790317535,-0.04118826612830162,-0.07062340527772903,-0.008888372220098972,-0.032244447618722916,-0.01413804478943348,0.09838875383138657,0.01955271326005459,0.012517907656729221,0.06596449762582779,0.022472694516181946,0.11179153621196747,-0.03780648112297058,0.05021325498819351,-0.051837023347616196,-0.06308551132678986,-0.01743096485733986,0.023868726566433907,0.01602616347372532,0.01757216826081276,-0.0419764444231987,0.07445915043354034,-0.05619428679347038,-0.0389663390815258,-0.053589142858982086,-0.07069413363933563,0.06838256865739822,-0.03812408819794655,-0.03266138583421707,0.0418429858982563,0.10168054699897766,-0.11980830132961273,0.03334983438253403,-0.06968444585800171,-0.10393498837947845,0.1627029925584793,0.05676663666963577,0.08271921426057816,-0.006705345585942268,-0.01625514030456543,-0.030428113415837288,0.02689160406589508,-0.08074010908603668,-0.006865442730486393,0.1143028736114502,0.01577296108007431,-0.07157697528600693,0.06630124151706696,-0.03433779254555702,-0.048810649663209915,0.052638694643974304,0.08377466350793839,0.020687472075223923,0.020258033648133278,0.10188295692205429,-0.10210259258747101,0.13119548559188843,-0.001837393268942833,0.02698715217411518,0.017227502539753914,0.03099946491420269,0.06593843549489975,0.03576119989156723,0.09865037351846695,-0.02628384716808796,0.04284488409757614,-0.0185529962182045,0.025408849120140076,0.061051689088344574,0.039338160306215286,-0.02741997130215168,-0.010723997838795185,0.058995332568883896,0.015872923657298088,-0.10076639801263809,-0.052759505808353424,0.02218773029744625,-0.04845183342695236,-0.0759764239192009,-0.04501432925462723,0.09109465777873993,-0.05815742537379265,-0.026503225788474083,-0.029163816943764687,0.006852842401713133,0.025408726185560226,-0.08123779296875,0.09415508061647415,-0.009060327894985676,0.000704168516676873,-0.014609952457249165,-0.007045126054435968,-0.04849788919091225,0.09420522302389145,0.038144394755363464,-0.013118683360517025,-0.021991897374391556,0.11243842542171478,-0.03094349429011345,0.09661269187927246,-0.017728714272379875,0.020898105576634407,-0.08150410652160645,-0.0185925904661417,0.025553850457072258,0.008371962234377861
aserbaidschan,0.05678628012537956,-0.023557066917419434,0.061742231249809265,0.02359466813504696,-0.03474757447838783,-0.002416392555460334,-0.008600893430411816,-0.003073561005294323,0.04427192360162735,0.0129969771951437,0.00488244416192174,-0.04032696783542633,-0.11187858879566193,0.06477630138397217,-0.004176904913038015,0.07062454521656036,0.04013673961162567,-0.024277718737721443,-0.08024334162473679,-0.014727585949003696,-0.12435910105705261,-0.03791593015193939,-0.02250858210027218,-0.03422252833843231,0.02707628719508648,0.08723108470439911,-0.05156635865569115,0.03399331867694855,-0.08925427496433258,0.0556865930557251,0.12042316794395447,-0.06626775860786438,0.1220732256770134,-0.02755003049969673,0.04445387050509453,0.03818231821060181,-0.08974089473485947,0.021950291469693184,-0.006161357741802931,0.08952182531356812,0.055884625762701035,-0.034562643617391586,0.10157506912946701,-0.014995374716818333,-0.024555860087275505,-0.10032907128334045,0.014335580170154572,-0.024286845698952675,-0.019036227837204933,-0.0004685027524828911,-0.10205325484275818,0.07819287478923798,0.04060854762792587,0.04143471270799637,-0.02965015359222889,0.08396820724010468,0.011898653581738472,-0.04066941887140274,0.047104209661483765,0.052797071635723114,-0.008396116085350513,-0.1041007861495018,-0.06919851154088974,-0.0009965387871488929,-0.04407908022403717,0.10430004447698593,0.06709706038236618,-0.09795555472373962,0.04736220836639404,-0.03610256314277649,0.07180943340063095,0.020755361765623093,0.08446580171585083,-0.007443955168128014,0.04465828463435173,0.11398198455572128,0.03787307068705559,0.024657320231199265,-0.0373166985809803,0.02980380691587925,0.018295420333743095,-0.01666879467666149,0.010051967576146126,-0.08209637552499771,0.13308310508728027,0.11570082604885101,-0.07496671378612518,-0.07960516959428787,0.03715129941701889,-0.026578230783343315,-0.05486651510000229,0.0023077961523085833,0.01105106994509697,0.09772980213165283,-0.022786278277635574,-0.14178995788097382,0.012287041172385216,0.036441005766391754,0.04488787055015564,-0.11841045320034027,0.0672421082854271,-0.05325879529118538,0.06160334497690201,0.007249488029628992,-0.055140405893325806,-0.016204027459025383,0.0796680748462677,0.015535886399447918,-0.053264521062374115,-0.09401866048574448,0.016915418207645416,0.046121079474687576,0.015302532352507114,0.03882547840476036,-0.05497833341360092,-0.08828777074813843,0.015553168952465057,-0.0038863227237015963,0.042147569358348846,-0.029052915051579475,0.0009966104989871383,-0.08131159096956253,-0.10600629448890686,0.07333052158355713,0.05146389454603195,-0.01642354391515255,-0.04018085077404976,0.023237699642777443,-0.05681120976805687,0.07562139630317688,0.014120950363576412,-0.028170688077807426,-0.02259918302297592,0.016578273847699165,-0.07492488622665405,-0.0012722117826342583,-0.0007083001546561718,0.050677552819252014,0.08280432969331741,0.07857253402471542,0.050570446997880936,0.08774039149284363,-0.004352923482656479,0.07556912302970886,-0.01717510260641575,0.06418982893228531,-0.015424737706780434,-0.018865125253796577,-0.00900324247777462,-0.000515939958859235,-0.07521502673625946,-0.010193146765232086,0.11185187846422195,0.017259469255805016,-0.04393012076616287,-0.01710193231701851,-0.0408354252576828,0.10121838003396988,-0.021752290427684784,0.06556098163127899,-0.05221868306398392,-0.086566261947155,0.03064482845366001,-0.014053870923817158,0.04154974967241287,-0.08853838592767715,-0.00383754912763834,0.017782995477318764,0.07534287124872208,-0.01052902266383171,0.013574421405792236,0.03115040436387062,-0.029915349557995796,-0.01797633431851864,-0.042125798761844635,-0.05182235315442085,-0.11266070604324341,-0.029002707451581955,0.02154497615993023,-0.020499274134635925,-0.0009779399260878563,-0.0548514686524868,0.037756260484457016,-0.1242130696773529,0.007991885766386986,-0.04455443099141121,0.05585600435733795,-0.05936914309859276,-0.017117401584982872,-0.011998767033219337,0.07291275262832642,-0.10754305869340897,-0.09436462819576263,-0.016296107321977615,-0.12238918244838715,-0.06762705743312836,-0.026245655491948128,0.04721619188785553,-0.021370796486735344,0.08888809382915497,-0.0040146238170564175,-0.012097327969968319,-0.011876652017235756,-0.0012263830285519361,-0.012204640544950962,0.08986347168684006,0.00013118090282659978,0.11585621535778046,0.05908876657485962,-0.04730601981282234,-0.0772063210606575,-0.03525790944695473,0.05184933543205261,-0.023590048775076866,0.028918316587805748,0.091375432908535,-0.00020103879796806723,-0.05201985314488411,-0.025412458926439285,0.007619740907102823,0.006771714426577091,0.0011048989836126566,0.001961147179827094,-0.06549649685621262,0.03258556127548218,-0.09345925599336624,0.03792937472462654,-0.019062036648392677,-0.031188495457172394,0.059506990015506744,0.06297162175178528,0.030305014923214912,-0.015489967539906502,-0.0879204273223877,-0.006999805569648743,0.011422283947467804,0.017171554267406464,-0.030645644292235374,0.12126411497592926,-0.025889365002512932,-0.04516373947262764,0.07855759561061859,-0.038415174931287766,0.023029716685414314,0.005517857149243355,0.04943309724330902,0.07506058365106583,0.0038377984892576933,0.05298691615462303,-0.004263535141944885,0.07189304381608963,0.07607001811265945,0.11708756536245346,0.13457706570625305,0.036168694496154785,0.07982181757688522,-0.0571758896112442,0.01501173060387373,0.004882947541773319,-0.11497456580400467,0.04328661784529686,0.015759402886033058,0.03471316397190094,-0.033739395439624786,-0.041516195982694626,0.08340700715780258,0.05330411717295647,0.007974197156727314,-0.02327248454093933,0.10668739676475525,0.043085888028144836,-0.06958037614822388,-0.0749121829867363,-0.13736604154109955,0.0919811949133873,-0.029106056317687035,-0.09003902226686478,0.016083087772130966,0.006140519864857197,-0.01746252365410328,-0.05718269571661949,0.11522535979747772,0.026139825582504272,-0.07248684763908386,-0.039081871509552,-0.02556215599179268,0.04178730025887489,-0.06116240471601486,-0.017551450058817863,-0.0006896508857607841,-0.0532098114490509,-0.00901532918214798,0.024531852453947067,0.05712120234966278,-0.0418669655919075,-0.027774939313530922,-0.07404649257659912,-0.026794275268912315,-0.024863572791218758,-0.018007835373282433
äthiopien,-0.023544613271951675,-0.08593937009572983,0.048105474561452866,0.0006443810998462141,0.04575539752840996,-0.09933913499116898,0.05286112427711487,-0.037787992507219315,0.0008767397375777364,-0.07643995434045792,-0.07219451665878296,0.03315376117825508,-0.08077558875083923,0.07426439970731735,0.005583508871495724,0.012922985479235649,-0.05737849697470665,-0.09556372463703156,-0.04029403254389763,0.001882588374428451,0.029261596500873566,0.04552040621638298,0.09570470452308655,0.02890833280980587,0.07915905863046646,0.038544993847608566,0.007874244824051857,-0.039004694670438766,0.0685252919793129,-0.06038108468055725,0.03504779562354088,0.03002866543829441,0.11083618551492691,0.0243843887001276,0.027466852217912674,-0.0268675796687603,0.04571449011564255,-0.057662803679704666,0.07085645198822021,0.10389761626720428,-0.020641585811972618,-0.044846273958683014,-0.07903670519590378,0.02587638981640339,0.04091464728116989,0.05356427654623985,0.005069985520094633,0.006662210915237665,-0.0107160285115242,0.009429886005818844,-0.0243394635617733,0.015762630850076675,0.09520372003316879,0.00497547397390008,-0.04155808314681053,0.021156851202249527,-0.04709017649292946,-0.020061081275343895,0.00016180702368728817,-0.14883102476596832,0.012989788316190243,-0.03890978917479515,-0.11174284666776657,0.0029745299834758043,0.05177881568670273,0.06057006120681763,-0.03758767992258072,-0.010521506890654564,0.07255548983812332,-0.009503898210823536,0.07579611986875534,-0.01833968795835972,0.08786958456039429,0.07102672755718231,-0.056335385888814926,0.061416592448949814,0.04999314248561859,0.043319348245859146,0.05765792727470398,-0.11376247555017471,0.08306269347667694,0.03880208730697632,-0.14658892154693604,-0.11430428177118301,0.02686401642858982,-0.048003021627664566,-0.04348066821694374,-0.027091316878795624,-0.022625785320997238,-0.049496013671159744,0.00935663003474474,-0.010670715942978859,0.058022093027830124,-0.01924395002424717,-0.08674518018960953,-0.011135384440422058,-0.02120596542954445,-0.04652589187026024,0.0033383003901690245,-0.028216568753123283,0.21438449621200562,0.08726014941930771,-0.030733449384570122,0.09984233975410461,-0.11180013418197632,0.010612744837999344,0.03281015530228615,0.1131795346736908,-0.02283034659922123,-0.058039139956235886,0.07401120662689209,0.008647104725241661,0.026755936443805695,-0.0167026799172163,-0.01625662110745907,0.017347048968076706,-0.004736179485917091,-0.022109264507889748,-0.10539265722036362,-0.04034319892525673,-0.10378595441579819,-0.051209453493356705,-0.0999617651104927,0.03359890729188919,0.009853076189756393,0.05503831058740616,0.03969584032893181,-0.009865695610642433,0.08498178422451019,0.06838714331388474,0.028362775221467018,-0.030491897836327553,-0.054648932069540024,-0.030325748026371002,-0.07339688390493393,0.06271268427371979,-0.028143260627985,0.03898579254746437,0.1510954350233078,0.029054826125502586,-0.017486803233623505,-0.023698730394244194,0.14812755584716797,-0.019520265981554985,0.07380875945091248,-0.03582516685128212,0.06299722194671631,0.03667430207133293,-0.06051710247993469,-0.10821031779050827,-0.07412075996398926,0.11225621402263641,0.024267788976430893,-0.013461755588650703,-0.016511807218194008,-0.04883250594139099,-0.08350538462400436,0.020397258922457695,-0.04263927415013313,-0.07806839793920517,-0.062107786536216736,-0.06833305209875107,0.10958665609359741,-0.05073388293385506,-0.0729614719748497,-0.0029148119501769543,-0.013868901878595352,0.04759148880839348,-0.021874362602829933,0.01782725565135479,0.0501398965716362,-0.014196604490280151,0.04387899115681648,0.003686554729938507,0.014691716991364956,-0.01652839407324791,-0.04135769233107567,0.0327441580593586,-0.051749300211668015,-0.02903875708580017,-0.03349509835243225,0.02472524158656597,-0.04828590154647827,-0.018687603995203972,-0.030769813805818558,0.015177139081060886,0.029245367273688316,0.028275901451706886,0.07938404381275177,-0.0800500363111496,0.024690544232726097,-0.05162958800792694,-0.14333556592464447,0.011966357007622719,0.05367534980177879,-0.03264594450592995,-0.04649171978235245,-0.007163925562053919,-0.08022767305374146,-0.02791622281074524,0.031370870769023895,-0.0253898985683918,0.08424282819032669,-0.00923207774758339,0.10108239948749542,0.15709593892097473,-0.024400504305958748,-0.10181703418493271,0.01321074366569519,-0.10728049278259277,0.008322583511471748,-0.06773805618286133,-0.04366980493068695,-0.01433410495519638,-0.049417268484830856,0.0468500591814518,-0.04529811814427376,-0.02460331656038761,-0.03594889119267464,0.051118526607751846,-0.0843607559800148,-0.10106860846281052,0.023919643834233284,0.0016701837303116918,0.017867088317871094,-0.08870701491832733,-0.005532355047762394,-0.04624835029244423,0.03040609508752823,-0.02043285220861435,0.03649972379207611,-0.027952516451478004,0.050724443048238754,-0.004646846558898687,0.004135343711823225,-0.015664704144001007,-0.020275050774216652,-0.05674448609352112,-0.009026946499943733,0.05282718315720558,0.01146293617784977,0.03729188069701195,0.027136551216244698,-0.07931681722402573,0.04266566038131714,0.036273349076509476,0.046782009303569794,-0.052862029522657394,0.0645817443728447,-0.05210992693901062,0.027581695467233658,0.043128516525030136,-0.07393445074558258,0.08038421720266342,0.06057913228869438,0.03172849118709564,-0.0832330733537674,0.01891220547258854,0.055430829524993896,0.01206771470606327,0.06625791639089584,0.0488240048289299,0.09486155956983566,0.0384233333170414,-0.0875745415687561,-0.01852903887629509,0.005817946512252092,0.07969255745410919,0.039479706436395645,-0.0002025877620326355,0.04096532240509987,-0.00435109157115221,-0.055191829800605774,0.009479967877268791,0.07750505208969116,-0.0023789105471223593,0.07755950838327408,0.07372038811445236,0.10709851235151291,0.05459722876548767,0.019541215151548386,-0.04013854265213013,-0.002651217859238386,0.028789173811674118,0.01487951073795557,-0.009544425643980503,0.01959710754454136,-0.0007080012001097202,0.09270596504211426,-0.01886737532913685,0.0065202126279473305,-0.10234544426202774,0.033272650092840195,-0.018821945413947105,-0.06683900952339172,-0.02294037491083145,-0.04466500133275986,-0.08561278879642487,-0.05151261016726494,0.002260238863527775
australien,-0.006083471700549126,-0.03582325950264931,-0.025787878781557083,-0.06406611949205399,0.12105117738246918,0.01711953617632389,0.03452770784497261,0.02558964304625988,0.038354720920324326,-0.06216498464345932,0.04452769085764885,-0.07074450701475143,-0.04024636372923851,-0.10119108110666275,-0.02764439396560192,0.07009221613407135,-0.03257749229669571,-0.023555168882012367,0.012116163969039917,0.01583394594490528,0.037087004631757736,0.0587642639875412,0.06732611358165741,0.04261760786175728,-0.00848846323788166,-0.0014755894662812352,0.06006919965147972,-0.010554290376603603,0.011891703121364117,-0.039220672100782394,-0.03445100784301758,0.09893052279949188,-0.004001641646027565,-0.07521075755357742,-0.038328297436237335,-0.01063489355146885,-0.005981256254017353,0.021219059824943542,0.12786835432052612,0.0966840386390686,0.07896757125854492,-0.07386291027069092,-0.0716480016708374,0.08471962809562683,0.07575066387653351,-0.11518817394971848,0.01565699465572834,0.09324897825717926,0.08832959085702896,-0.004342838190495968,-0.08842457085847855,0.01578589156270027,0.029978692531585693,0.03960711136460304,-0.032336294651031494,-0.00793991144746542,-0.29780372977256775,0.03831644728779793,-0.02333340048789978,0.0685192346572876,0.006007280666381121,-0.10981733351945877,-0.041004568338394165,0.08323932439088821,-0.013661665841937065,-0.005241732578724623,0.03834792599081993,0.04587138071656227,-0.034193821251392365,0.05300942808389664,0.028886927291750908,-0.07863402366638184,0.01603659801185131,-0.028189819306135178,0.11929534375667572,0.0004099775105714798,0.0419757254421711,0.0764358639717102,0.04752858728170395,-0.05770404264330864,0.07022742927074432,0.077410027384758,0.02756677195429802,0.04711203649640083,0.01570015773177147,0.06311812996864319,-0.06967151165008545,-0.07161130756139755,0.07121502608060837,-0.005736053921282291,-0.032511334866285324,-0.05397137999534607,-0.0071574244648218155,0.016656117513775826,0.13304299116134644,0.0031899416353553534,0.0416545495390892,-0.029040653258562088,0.06017962470650673,-0.07350221276283264,0.08098144829273224,0.06749750673770905,-0.07599875330924988,0.009714299812912941,-0.11699756234884262,0.012713229283690453,0.05306600034236908,0.06576956808567047,-0.021132318302989006,0.05024980753660202,-0.0940830335021019,-0.07036678493022919,0.026252178475260735,-0.06751832365989685,-0.08266250789165497,0.007508853916078806,-0.030108865350484848,-0.017131909728050232,-0.038382597267627716,-0.09308064728975296,-0.061508309096097946,-0.13001972436904907,0.03950010985136032,-0.04774526134133339,-0.04095301777124405,0.05786411464214325,-0.02647964283823967,-0.0986592024564743,0.008058224804699421,-0.03129356727004051,0.009882599115371704,0.04855979233980179,0.005528155714273453,-0.09967933595180511,-0.0075003840029239655,-0.04743024706840515,0.006217228248715401,0.14636462926864624,0.10436670482158661,-0.017830435186624527,-0.08970540016889572,0.0005923031712882221,0.03166981413960457,0.017332620918750763,0.055937863886356354,0.03306691348552704,-0.05115613341331482,-0.004006070084869862,0.009792660363018513,-0.0800129622220993,0.06347741186618805,0.04540977627038956,0.018924249336123466,-0.0480610653758049,0.003613091306760907,-0.039764441549777985,0.036511775106191635,0.03711022064089775,-0.04534211754798889,-0.0322074331343174,-0.050848670303821564,-0.11719238013029099,-0.07180608808994293,-0.025922058150172234,-0.1067565381526947,0.026971079409122467,-0.018080752342939377,0.004835478961467743,-0.034278564155101776,0.03165430575609207,0.025029337033629417,0.03340449929237366,-0.09016336500644684,0.07565873116254807,0.044499192386865616,0.07108484953641891,-0.023835357278585434,-0.0026889836881309748,-0.014119498431682587,-0.08337318152189255,0.09442552924156189,0.01254200842231512,0.013678953051567078,0.004727637395262718,0.059131063520908356,-0.12291379272937775,0.01253171544522047,-0.006441179197281599,0.009660077281296253,-0.025607861578464508,0.07603812217712402,0.06245127320289612,-0.14532221853733063,0.030585667118430138,-0.009302179329097271,-0.015471451915800571,-0.01584293693304062,0.0447232648730278,0.022030867636203766,-0.033866606652736664,0.057515699416399,0.04181450232863426,0.08796200156211853,0.08114403486251831,0.020425520837306976,0.13057519495487213,0.08430515229701996,-0.03846784308552742,-0.05825019255280495,-0.008315161801874638,0.004045505542308092,-0.030207853764295578,0.008946121670305729,0.0342634916305542,-0.0028293351642787457,0.006030926015228033,-0.0012240589130669832,0.046588677912950516,0.04544246941804886,-0.02962387725710869,0.07416386157274246,-0.0049666292034089565,-0.014448819682002068,-0.013516973704099655,0.028014957904815674,-0.06920978426933289,-0.09945057332515717,-0.09037354588508606,-0.033485814929008484,-0.012648106552660465,0.01685667783021927,0.06689662486314774,-0.07605484873056412,-0.0029685881454497576,-0.025370856747031212,0.026832256466150284,-0.03344327211380005,-0.008074669167399406,0.013374597765505314,-0.06242823600769043,-0.020312128588557243,-0.042949460446834564,-0.06071047857403755,-0.027779927477240562,0.05650632083415985,0.044116728007793427,0.041180551052093506,0.037785936146974564,0.050314873456954956,-0.04374346509575844,-0.031294554471969604,0.023065201938152313,0.031252503395080566,-0.00859790574759245,0.0063828290440142155,0.06194859370589256,-0.0880010798573494,-0.006436517462134361,0.03919241577386856,-0.07965545356273651,0.008087854832410812,-0.11781268566846848,-0.03187177702784538,0.021672384813427925,-0.06141955032944679,-0.010375313460826874,0.02356084994971752,-0.00533679872751236,-0.09212636947631836,0.06459007412195206,0.03465466946363449,0.018046721816062927,0.031617891043424606,-0.06805460900068283,-0.015684261918067932,-0.11854994297027588,-0.009741232730448246,-0.003171402495354414,0.07330110669136047,0.08597254753112793,-0.04348894953727722,-0.022085677832365036,0.03346438705921173,-0.04963621124625206,0.05893241986632347,0.05827029049396515,-0.07473693788051605,-0.044600579887628555,0.0441669225692749,-0.025532664731144905,0.0021157274022698402,0.027362024411559105,0.07457945495843887,0.038649410009384155,-0.06496799737215042,0.03137661889195442,0.0012698929058387876,-0.009992584586143494,-0.009055372327566147,0.01599074900150299
bangladesch,-0.03119412064552307,-0.046020083129405975,0.01609635539352894,-0.15492531657218933,0.1079382672905922,0.038094066083431244,0.12112227082252502,0.021708717569708824,0.04067408666014671,-0.07059849798679352,-0.014969383366405964,0.018752392381429672,-0.05559510365128517,0.036985281854867935,0.07092359662055969,0.05040634423494339,0.056011151522397995,-0.01786293089389801,-0.028496315702795982,0.052071310579776764,-0.03187795355916023,0.09782857447862625,0.01542226318269968,-0.017756393179297447,-0.0593746080994606,0.09494008123874664,-0.016468379646539688,0.1133708730340004,0.06763935834169388,-0.09463775157928467,0.011476547457277775,-0.010257065296173096,0.019131341949105263,-0.043991800397634506,-0.029041867703199387,0.0286796186119318,-0.025279460474848747,-0.0646403431892395,0.1396634578704834,0.06417445093393326,-0.030448129400610924,-0.03554869070649147,-0.026814965531229973,0.11097721010446548,0.031797949224710464,0.025241127237677574,-0.04333632066845894,-6.0668910009553656e-05,0.08603785187005997,0.06713163107633591,0.019258517771959305,0.03923268988728523,-0.025487186387181282,0.0451236367225647,-0.03143499791622162,0.19030019640922546,-0.028506822884082794,0.010004120878875256,0.05587492138147354,0.051134273409843445,0.04099028930068016,-0.05827483534812927,0.028116362169384956,0.005479998420923948,0.05874624103307724,0.10431843250989914,-0.015973161906003952,-0.04585443064570427,0.025386137887835503,0.003806403838098049,0.03911919519305229,0.022999441251158714,0.02648954652249813,0.04326695203781128,0.0182809941470623,0.019020874053239822,0.025574147701263428,0.11397762596607208,-0.04817730560898781,0.07733765989542007,0.07919109612703323,0.07808440178632736,-0.0001962070382433012,0.021306369453668594,0.07331298291683197,0.005638805218040943,-0.047328583896160126,0.04819254204630852,0.05019807070493698,0.07422583550214767,0.04246361181139946,0.08388791233301163,0.03875694423913956,0.07890123128890991,0.01310026552528143,0.004640435334295034,0.13062074780464172,0.0022477344609797,0.06305967271327972,-0.08166825026273727,0.1053062379360199,0.08390644937753677,-0.010058729909360409,0.049477964639663696,0.04492555931210518,-0.0822632685303688,0.011352455243468285,0.021874768659472466,-0.02817164920270443,-0.02186664566397667,0.06742209941148758,-0.0664161741733551,0.0479242205619812,-0.009397155605256557,-0.0015734931221231818,0.026821942999958992,0.006781046278774738,-0.048098254948854446,-0.0687231793999672,-0.006039668805897236,-0.032029688358306885,-0.10561428219079971,0.04439142346382141,-0.02791796624660492,0.0037721002008765936,-0.007061484269797802,-0.005423347465693951,0.09091322869062424,0.0784204974770546,0.029590941965579987,-0.00933744665235281,0.018211379647254944,-0.03376581147313118,-0.013391494750976562,-0.11284761875867844,-0.010365915484726429,0.04804786294698715,-0.049591951072216034,0.05958593264222145,0.016240689903497696,-0.038843534886837006,-0.052382681518793106,-0.006083428394049406,-0.005027306731790304,0.05545276403427124,0.007488412782549858,0.04285835847258568,-0.06770569831132889,-0.09247301518917084,-0.08344130218029022,0.09139009565114975,0.04323161393404007,0.0105739776045084,-0.05521654710173607,0.010061871260404587,-0.07119206339120865,-0.06354053318500519,0.02684096433222294,0.0700002983212471,-0.003019064897671342,-0.06222863867878914,-0.10053899884223938,0.017800992354750633,-0.0273700300604105,-0.1223343089222908,-0.03234441578388214,-0.051258791238069534,-0.06984016299247742,0.09638743102550507,0.01266347337514162,0.12480247765779495,-0.043601639568805695,-0.05473044514656067,-0.013909813016653061,-0.10849449038505554,0.04862935096025467,-0.003185316687449813,-0.10379119962453842,0.03937332332134247,-0.024810047820210457,-0.019080068916082382,-0.010810323059558868,-0.011415049433708191,-0.02745364047586918,-0.0320265032351017,0.0030611080583184958,0.061278000473976135,-0.041197519749403,0.030602777376770973,-0.05754074454307556,0.05040842294692993,-0.08503874391317368,0.04187667742371559,0.045993972569704056,0.057270150631666183,-0.009765415452420712,-0.02020294964313507,0.031613558530807495,-0.019462622702121735,0.06300798058509827,0.013980328105390072,0.053248751908540726,-0.07141778618097305,0.01671534776687622,-0.05730954185128212,0.08013501018285751,0.01661595143377781,0.019163645803928375,0.09577122330665588,-0.0211410503834486,-0.011004609055817127,-0.04000290855765343,-0.03758177533745766,0.02780754677951336,-0.09096404165029526,0.0682230293750763,-0.003906665835529566,0.011243983171880245,-0.018849454820156097,-0.027518438175320625,0.03349626809358597,0.023347146809101105,-0.13166117668151855,-0.06907118856906891,0.04160032048821449,-0.0004664942971430719,-0.045154109597206116,-0.1136857122182846,0.009790248237550259,-0.0632031038403511,-0.020570654422044754,-0.016005590558052063,0.005838009994477034,-0.01801854744553566,0.01914304681122303,-0.04222269356250763,-0.035346779972314835,0.019805144518613815,0.06822589039802551,0.02380962483584881,0.07618749141693115,-0.029948437586426735,-0.0656491294503212,-0.014320259913802147,-0.09650065749883652,0.08947436511516571,0.0203354824334383,-0.032583821564912796,0.03337336331605911,-0.07640314102172852,-0.0037476057186722755,-0.012015271931886673,-0.07903016358613968,0.0351862758398056,0.06657552719116211,0.1364247351884842,0.003488038433715701,0.06996946781873703,-0.0574093759059906,0.017178738489747047,0.004551361780613661,0.005162758752703667,0.03427446261048317,0.03276755288243294,-0.1264980435371399,0.0644356831908226,0.019047565758228302,0.11237704753875732,0.08006267249584198,0.019716458395123482,0.037487249821424484,0.020177213475108147,-0.05666865035891533,-0.06713943183422089,0.06926902383565903,0.0284491665661335,-0.07370297610759735,0.08088619261980057,0.07498135417699814,-0.007321036886423826,0.05494920164346695,-0.038036953657865524,-0.04185248538851738,0.07224039733409882,0.0004951233277097344,-0.057598937302827835,-0.052561938762664795,-0.011692659929394722,-0.02296496368944645,-0.1024264395236969,0.01407112367451191,-0.10190702974796295,0.018631314858794212,0.06116321310400963,0.06335945427417755,0.05901719629764557,-0.00225857924669981,-0.0026616640388965607,-0.18657629191875458,-0.010862553492188454
belarus,0.035366568714380264,0.0004007275856565684,0.04209943488240242,0.0033601524773985147,0.06844012439250946,-0.0028178375214338303,0.09131160378456116,0.049236491322517395,-0.0029561039991676807,0.011552097275853157,-0.019583065062761307,-0.01093702856451273,-0.07134528458118439,0.02982013300061226,0.0624113604426384,0.07593492418527603,0.10617778450250626,0.011621828190982342,-0.010678725317120552,-0.06167471781373024,-0.09577525407075882,0.008169319480657578,-0.016644855961203575,0.01996266283094883,0.02982303313910961,0.03310326859354973,-0.0354396253824234,0.029468223452568054,-0.10581494122743607,-0.045908793807029724,0.0674593448638916,0.0023211634252220392,0.04947413504123688,-0.09227139502763748,0.006857635453343391,0.04547136649489403,-0.03339511528611183,0.03244001418352127,0.06808903813362122,0.07437548786401749,0.09733152389526367,0.016733689233660698,-0.018277732655405998,0.07490136474370956,0.046732474118471146,-0.09892632067203522,-0.01945354975759983,0.03125406801700592,-0.008726161904633045,-0.022930830717086792,-0.04008962959051132,-0.0631457269191742,-0.00352922803722322,-0.05487391725182533,-0.03238464519381523,0.09407974779605865,-0.031646180897951126,0.023750176653265953,-0.01416593138128519,0.04350588098168373,0.051119718700647354,-0.058510806411504745,-0.03354068472981453,-0.1194673478603363,0.009384877048432827,0.03799416497349739,0.023282291367650032,-0.06035207584500313,0.015104549936950207,-0.02465759962797165,0.012820965610444546,0.007952548563480377,0.08530794084072113,-0.06107819452881813,0.14817169308662415,0.02131800912320614,0.11821027845144272,-0.10190543532371521,0.07061471790075302,-0.00859835371375084,0.07351087033748627,-0.03958979621529579,-0.06846153736114502,-0.08263932168483734,0.1347600817680359,0.05787668749690056,0.021508527919650078,-0.09386444836854935,0.02961915358901024,0.04052085056900978,0.012748491019010544,0.04485375061631203,0.060937851667404175,-0.01693490333855152,-0.10940683633089066,-0.032009679824113846,-0.024316679686307907,0.048380155116319656,0.06250081956386566,-0.11808943748474121,0.05959244444966316,0.04370902478694916,-0.006927162408828735,0.05694807693362236,-0.06866046041250229,-0.044077079743146896,-0.05304398387670517,0.1274322122335434,-0.10536130517721176,-0.05414264649152756,0.025436459109187126,0.012388614937663078,-0.0029691250529140234,0.02452479489147663,1.070558823812462e-06,0.011964219622313976,-0.051040224730968475,-0.0786333978176117,-0.037779804319143295,-0.06570491939783096,-0.019850807264447212,0.014638269320130348,-0.02021217532455921,0.145094096660614,0.09069392085075378,0.012345092371106148,-0.048713430762290955,-0.00644339295104146,0.05824004486203194,0.0028349312487989664,0.06303461641073227,-0.035351093858480453,0.05508154258131981,-0.07632315158843994,-0.011944330297410488,-0.007937654852867126,-0.04658215120434761,0.06468669325113297,0.07983077317476273,0.08310119062662125,0.09640032052993774,-0.019381703808903694,0.01863662526011467,-0.009909244254231453,-0.08498384803533554,0.09027773886919022,-0.03476065397262573,0.04305047541856766,-0.06689078360795975,-0.04098135977983475,-0.16949884593486786,-0.020809544250369072,0.015480331145226955,-0.013185741379857063,-0.05692647770047188,-0.08730246126651764,0.011686472222208977,0.11823374778032303,0.036772117018699646,-0.03431108966469765,-0.003927124664187431,0.03939983993768692,0.09480392187833786,-0.08773790299892426,-0.006581490859389305,-0.09653373807668686,-0.027613621205091476,0.014290852472186089,0.06344243884086609,0.023043550550937653,0.16266876459121704,-0.010071209631860256,-0.025085769593715668,-0.035999543964862823,0.0684790164232254,0.04156506434082985,-0.06257449090480804,0.03789152950048447,-0.04519040510058403,-0.06066836044192314,-0.04690546914935112,0.023730777204036713,-0.01756601780653,-0.055136069655418396,0.006959505379199982,-0.09123603254556656,0.00500490702688694,-0.04107639566063881,0.012018647976219654,-0.04533930495381355,-0.030206844210624695,-0.01835133507847786,-0.11788060516119003,-0.0033303420059382915,-0.11630978435277939,-0.049238983541727066,-0.0005799986538477242,0.0269244946539402,-0.06671522557735443,-0.007681927178055048,0.007207865361124277,0.03559514880180359,-0.029195746406912804,0.040136463940143585,0.06714692711830139,0.053812526166439056,0.006751253269612789,0.006365188397467136,-0.06093842536211014,-0.03970368579030037,-0.06872645020484924,0.07272472977638245,-0.037919558584690094,0.052707262337207794,0.08132807910442352,-0.061872392892837524,0.048513397574424744,0.074251689016819,-0.032837457954883575,0.02288053184747696,0.07414501905441284,0.016961708664894104,0.036555055528879166,-0.11558587849140167,0.0019171165768057108,-0.04402703791856766,0.0523919053375721,0.03287232667207718,0.06726580113172531,0.0609016977250576,0.04813560098409653,0.08195780217647552,-0.006279369816184044,0.0652359127998352,-0.0021972288377583027,0.06811921298503876,0.03674667328596115,0.005996771156787872,0.12044887989759445,0.0008112969808280468,-0.03493405506014824,-0.04148026555776596,-0.04722299054265022,0.025860203430056572,-0.040926188230514526,0.13745088875293732,0.01580691896378994,-0.05627713352441788,0.055031172931194305,-0.004004926420748234,0.12061399221420288,0.0176550280302763,0.052967581897974014,0.05246147885918617,0.017640279605984688,-0.0560714453458786,0.015795428305864334,0.05368944630026817,-0.06817760318517685,-0.09535794705152512,-0.0711701363325119,0.0353286936879158,0.0003373658109921962,0.0826130285859108,-0.04829131439328194,0.04542885720729828,0.0519537478685379,0.008755789138376713,-0.018256258219480515,-0.01499352976679802,-0.017203643918037415,-0.020485008135437965,-0.11402986943721771,-0.04285643249750137,0.06378301233053207,-0.007086040452122688,-0.10285764187574387,0.0014617255656048656,0.06650736182928085,-0.023979874327778816,-0.14390099048614502,0.03205966576933861,0.014665043912827969,-0.05058905854821205,-0.02790340781211853,-0.06589604914188385,0.07368773221969604,0.04910776764154434,-0.020595693960785866,0.0036927382461726665,0.001826468505896628,-0.02857121080160141,-0.05294417589902878,0.04459059610962868,0.009889108128845692,0.019879620522260666,-0.013290537521243095,-0.017989706248044968,0.06509434431791306,-0.007580436300486326
belgien,-0.007153738755732775,-0.09095949679613113,0.04864994063973427,-0.07513299584388733,0.11463970690965652,0.01274149026721716,0.07993117719888687,0.039586588740348816,-0.0506330244243145,-0.0801665186882019,-0.0801103487610817,-0.009214320220053196,-0.08217214047908783,0.021710187196731567,0.027410417795181274,0.07682385295629501,-0.06696224212646484,0.028199277818202972,0.03375905752182007,-0.007975572720170021,0.06293715536594391,-0.0228041410446167,0.00396543787792325,0.014329650439321995,0.022491583600640297,0.036199212074279785,0.023253370076417923,0.059065625071525574,0.04266132041811943,0.026198510080575943,0.0013146207202225924,0.06324851512908936,0.0744413360953331,0.005581022705882788,-0.03583427146077156,-0.12381798774003983,-0.01751597784459591,0.015630440786480904,0.11638474464416504,0.0426747091114521,0.02452455833554268,-0.01871599815785885,-0.024784542620182037,0.02721341699361801,-0.030094129964709282,-0.08009085804224014,-0.02787024900317192,-0.0318816639482975,0.08590926229953766,-0.05133623629808426,-0.09027887880802155,0.04361925274133682,-0.03727153316140175,0.11358550190925598,0.048663463443517685,0.09916981309652328,-0.059801504015922546,0.07904776930809021,-0.055516794323921204,0.039988819509744644,-0.031142355874180794,-0.02449807897210121,0.02018798515200615,0.044042106717824936,-0.034585412591695786,-0.02032412961125374,0.029712418094277382,0.00030545800109393895,-0.05290479585528374,0.08360357582569122,0.03734947741031647,-0.13376155495643616,0.0170066449791193,-0.10599293559789658,0.02549886889755726,-0.031219398602843285,-0.020428022369742393,-0.027394214645028114,-0.0008432586910203099,-0.03229093179106712,0.04634325951337814,0.0008097619283944368,-0.06493193656206131,0.003964126575738192,0.013578998856246471,0.06613045185804367,-0.07169590145349503,-0.02602320723235607,0.15790630877017975,-0.0032221092842519283,0.0020866275299340487,0.006968016270548105,-0.12687653303146362,0.05999576672911644,0.004541815258562565,0.04685308784246445,0.028765281662344933,-0.002589551266282797,0.05198036506772041,0.029020637273788452,-0.030607612803578377,0.01315598376095295,-0.04352942481637001,-0.07832537591457367,-0.026472924277186394,-0.06473425030708313,0.08306330442428589,0.12440275400876999,0.018706869333982468,-0.02565217949450016,-0.027024785056710243,0.052143849432468414,0.08681463450193405,-0.04246588423848152,-0.04743829369544983,-0.017499443143606186,-0.001901258947327733,-0.08623456954956055,-0.01426437683403492,-0.02374318242073059,-0.021648673340678215,-0.07888954877853394,0.05378495901823044,-0.027013104408979416,-0.03553526848554611,0.038503989577293396,0.10215910524129868,-0.0931224375963211,0.03655635565519333,-0.031665753573179245,0.04853813722729683,0.03256641700863838,0.03420905023813248,-0.0730704665184021,-0.002096169162541628,-0.035894978791475296,0.03543351963162422,0.005270300433039665,0.04871581867337227,0.10650201886892319,0.051420677453279495,-0.02030879631638527,-0.07401541620492935,0.1369030624628067,0.0400339812040329,0.033104173839092255,-0.07063711434602737,-0.030098315328359604,-0.03863059729337692,-0.026281233876943588,-0.04630434885621071,-0.019513674080371857,0.03797420114278793,0.025693945586681366,-0.06640531122684479,0.019861862063407898,0.0019372558454051614,0.02384316921234131,0.03012106940150261,-0.008996881544589996,-0.06552860885858536,-0.11674001812934875,-0.04463805630803108,0.004080012906342745,-0.10819000005722046,0.07307247817516327,0.05225786939263344,-0.00816732831299305,0.07539234310388565,-0.04699339717626572,0.0548478327691555,-0.05411514639854431,0.017229290679097176,0.028587430715560913,0.0775751993060112,0.005793842487037182,-0.0668191909790039,0.03769172728061676,0.0369538813829422,-0.08046816289424896,0.06962591409683228,-0.030392954126000404,-0.07489035278558731,0.015037091448903084,0.059758856892585754,-0.10311935842037201,-0.022852960973978043,-0.011911282315850258,0.0920908972620964,-0.04525837302207947,-0.11162403225898743,-0.004387600813060999,-0.09946298599243164,0.0005384874530136585,-0.09806855767965317,-0.03701092302799225,-0.004265344236046076,0.0124087855219841,-0.006376188714057207,-0.01954280026257038,-0.013488623313605785,0.05114135146141052,0.01811334490776062,0.077668197453022,0.04665049538016319,0.1028173565864563,-0.004745488055050373,-0.11228930205106735,-0.09176861494779587,-0.05401700735092163,-0.06880758702754974,0.022762365639209747,0.0018900246359407902,0.06829661875963211,-0.07047426700592041,0.09649255126714706,0.06057468056678772,0.009399227797985077,-0.038279082626104355,-0.01044623926281929,-0.020805202424526215,-0.04085420444607735,0.007892586290836334,0.01659807562828064,0.07815051078796387,0.014973095618188381,-0.03889923542737961,-0.005455137230455875,-0.041282154619693756,0.10118027776479721,0.03773542121052742,0.03313367813825607,0.025451553985476494,-0.04557742178440094,0.03332354500889778,-0.00816407147794962,0.008429575711488724,0.028255123645067215,0.005682853516191244,-0.031461816281080246,-0.10846780985593796,0.019651737064123154,0.01564658433198929,0.026093432679772377,0.06522823125123978,-0.004916136618703604,0.05657179281115532,0.03267960250377655,0.04952583089470863,0.1026473343372345,-0.07103320211172104,0.028679052367806435,0.05684567987918854,0.021090321242809296,0.0001555159396957606,0.025620564818382263,0.003804329549893737,-0.0033184755593538284,-0.059896502643823624,-0.02180027775466442,-0.022943034768104553,-0.018021192401647568,-0.08328045904636383,-0.05623185262084007,0.01735188625752926,-0.02334637939929962,0.0687078982591629,-0.003876947332173586,0.015467328950762749,-0.002390659647062421,0.03588800132274628,-0.10260393470525742,-0.12629824876785278,-0.1354706585407257,0.17469580471515656,-0.04852927848696709,0.0824848860502243,-0.016760235652327538,0.04854032024741173,-0.008207868784666061,0.03860710561275482,0.06384318321943283,-0.06316226720809937,0.11030858010053635,0.04444030672311783,0.014375446364283562,-0.006616771221160889,-0.1249304860830307,0.07170910388231277,0.046655699610710144,-0.024806862697005272,0.09780308604240417,-0.057060856372117996,0.017824092879891396,-0.09436696767807007,0.05453134700655937,-0.14328040182590485,-0.0009252582094632089,0.034313466399908066,0.09718538820743561
bosnien_und_herzegowina,0.02435065060853958,-0.07935358583927155,0.01214521937072277,-0.011919496580958366,-0.0015965864295139909,0.055300384759902954,0.028719821944832802,0.018298014998435974,-0.01254669763147831,0.00097819440998137,-0.0349920280277729,-0.07288525253534317,0.07107051461935043,-0.016492564231157303,-0.07620511204004288,0.02598024345934391,0.05351616442203522,0.030656814575195312,-0.05142690986394882,-0.009355110116302967,-0.04465656355023384,0.04087609797716141,-0.04268293455243111,-0.031575825065374374,-0.019270289689302444,0.03520234301686287,-0.03652120754122734,-0.03984564170241356,-0.08806838095188141,-0.06281828135251999,0.10939858853816986,-0.027665862813591957,-0.03415355458855629,-0.1241740733385086,-0.010498302057385445,0.008756540715694427,-0.008424395695328712,0.012079375796020031,0.05287028104066849,0.10056927800178528,0.04535050317645073,-0.012008403427898884,-0.033674899488687515,0.024184521287679672,-0.041367195546627045,0.10598982870578766,0.015379255637526512,0.0698440670967102,-0.057702213525772095,0.038606733083724976,-0.10382819920778275,0.07652091979980469,0.02084902860224247,0.06993686407804489,0.024852074682712555,0.07936035841703415,-0.04260585829615593,0.014375935308635235,-0.013359278440475464,-0.004925103392452002,0.0726010724902153,-0.02371353842318058,-0.07237869501113892,-0.0019658824894577265,-0.02109370008111,-0.06495792418718338,-0.0183042474091053,0.021066121757030487,0.007976652123034,-0.0008039555395953357,0.04624366760253906,-0.029498670250177383,0.0318928025662899,0.0011792704463005066,0.1702546626329422,0.024391643702983856,0.008651820942759514,0.05248633399605751,0.03909682482481003,-0.12104809284210205,0.14231020212173462,-0.03269852697849274,-0.025246333330869675,-0.05193980410695076,-0.0789150819182396,0.031201425939798355,0.018871335312724113,0.0116971954703331,0.051455531269311905,0.0008071751799434423,0.06746269017457962,0.055177733302116394,0.09252721071243286,0.010091772302985191,-0.06811248511075974,-0.020077217370271683,0.09900271147489548,0.0038336811121553183,-0.09351658821105957,-0.024915775284171104,-0.023614954203367233,-0.0481022484600544,-0.01527129765599966,0.048686426132917404,-0.0014131770003587008,-0.011295930482447147,0.07544920593500137,-0.09728460013866425,-0.09842906147241592,0.01532609760761261,0.07600197941064835,-0.02522166818380356,0.024307381361722946,0.10560517758131027,-0.07504953444004059,-0.07053083181381226,-0.06538227200508118,-0.06042446941137314,0.020054198801517487,0.009833340533077717,-0.06134786456823349,-0.03739718720316887,-0.006522364914417267,0.016795529052615166,0.02730749174952507,0.03947174549102783,0.08331967890262604,-0.019897552207112312,0.022593047469854355,0.006945617496967316,0.08932551741600037,0.04806642234325409,0.06164999306201935,-0.060605600476264954,-0.10708276927471161,0.0574231818318367,-0.09936341643333435,0.009014992043375969,0.1368866115808487,0.01481030322611332,0.03327389806509018,0.004058455117046833,0.018105454742908478,0.05308298021554947,0.025493688881397247,0.06529199331998825,-0.0185129102319479,0.007696065120398998,-0.01770622283220291,0.09394374489784241,-0.10786190629005432,-0.021882032975554466,0.09431038051843643,0.009234816767275333,-0.055454231798648834,-0.058999646455049515,-0.008853642269968987,0.06914030760526657,-0.03904347866773605,0.01607750728726387,-0.021543331444263458,-0.037636466324329376,-0.03952013701200485,0.06448237597942352,-0.06493757665157318,0.023932358250021935,-0.03437967225909233,0.003188122995197773,0.03227200359106064,-0.06674012541770935,0.08137647807598114,0.008982697501778603,0.020442916080355644,0.02690204232931137,-0.09388560056686401,-0.06681811809539795,-0.05481331795454025,0.0019483239157125354,-0.02143717184662819,-0.06158526986837387,-0.04585915803909302,-0.10921413451433182,0.028394348919391632,0.005652220454066992,-0.042662739753723145,-0.0634891465306282,0.01608697697520256,0.01588490605354309,-0.013955843634903431,-0.030832678079605103,-0.08695079386234283,-0.0921592265367508,-0.15179380774497986,0.03199077770113945,-0.007929242216050625,0.06039610877633095,0.037569813430309296,-0.019247092306613922,-0.009245212189853191,-0.06235314905643463,-0.016341567039489746,-0.04735928773880005,0.010460009798407555,-0.03380044549703598,0.10935388505458832,-0.012615680694580078,0.0012490528170019388,0.06830249726772308,-0.10183443874120712,-0.1411631554365158,-0.017629463225603104,0.08798731863498688,-0.1386968493461609,0.0029136142693459988,0.003414745908230543,0.06949744373559952,0.11753938347101212,0.09726919233798981,-0.060763269662857056,-0.08646108210086823,0.014603658579289913,-0.059234824031591415,0.002373297465965152,-0.047720056027173996,-0.014263475313782692,0.03420475125312805,0.028929734602570534,0.05376791954040527,0.11179958283901215,0.09890640527009964,0.02750321477651596,0.034888140857219696,-0.05825476348400116,0.013415729627013206,-0.06166454404592514,-0.04057516157627106,0.0930124893784523,-0.06366098672151566,-0.042495716363191605,-0.03538524731993675,-0.14807365834712982,0.006423805840313435,-0.03099500946700573,-0.10985685139894485,0.012336654588580132,-0.005199851468205452,-0.03512198477983475,-0.09060857445001602,0.05824676528573036,0.06625262647867203,0.04198969528079033,0.04483720287680626,-0.03034701943397522,0.05668976902961731,0.008906759321689606,0.15757465362548828,-5.387968849390745e-05,0.08044182509183884,0.06021186336874962,0.021162137389183044,-0.05076352506875992,-0.006213605869561434,0.006086322478950024,-0.02587769366800785,0.09269967675209045,0.05906450003385544,0.09999065846204758,-0.01076462585479021,-0.04831264913082123,-0.016906211152672768,0.08381908386945724,0.07552573829889297,-0.0496603362262249,-0.04560612887144089,0.11058040708303452,0.04114453122019768,0.0024860049597918987,0.10314022749662399,0.00982326827943325,0.09586465358734131,-0.01859940215945244,-0.0037179880309849977,-0.04332783445715904,-0.045468512922525406,-0.009714970365166664,0.04151785001158714,-0.09739025682210922,-0.05361760035157204,0.011916863732039928,0.025388868525624275,-0.015860209241509438,0.03442133963108063,-0.014883765950798988,-0.03367619588971138,-0.04887792095541954,-0.0006792729836888611,0.023558130487799644,-0.023460080847144127,0.005605325102806091,-0.0016490989364683628
brasilien,-0.016802826896309853,0.02461901865899563,0.12064556777477264,-0.11853601783514023,0.1274365484714508,-0.04981326311826706,0.02904270589351654,-0.03704862296581268,0.062425319105386734,-0.0874587669968605,-0.03797432407736778,-0.06655140966176987,-0.13478507101535797,-0.0954437330365181,-0.028917817398905754,0.07476925104856491,0.009085704572498798,0.0007434234721586108,0.07214312255382538,-0.03234770894050598,-0.02498427778482437,-0.06470222026109695,0.010555841960012913,-0.014083340764045715,-0.07060731202363968,0.10008291155099869,-0.030726905912160873,0.024494877085089684,0.09800763428211212,0.08149492740631104,0.020839989185333252,-0.007854710333049297,0.11608520895242691,-0.02537960186600685,0.09908095747232437,0.03154943510890007,-0.02089693769812584,0.012807406485080719,0.08567166328430176,-0.004826807416975498,-0.004039212595671415,-0.04407459869980812,0.01909576915204525,0.15892493724822998,0.015763044357299805,-0.04190165549516678,0.04481818154454231,0.019978465512394905,-0.023297354578971863,-0.009740392677485943,-0.014820521697402,-0.00455784285441041,-0.01815151982009411,-0.038878992199897766,0.040708158165216446,0.06661568582057953,-0.17112389206886292,0.07573515921831131,0.07210393249988556,-0.058400802314281464,-0.021858684718608856,-0.01301618292927742,-0.06698798388242722,0.01926840841770172,0.08437646925449371,0.017071133479475975,-0.05952455848455429,-0.0246775783598423,-0.022778186947107315,0.06962530314922333,-0.027903633192181587,0.0073612043634057045,0.020365888252854347,-0.03221661597490311,0.07205744832754135,-0.026746591553092003,-0.0229530930519104,0.03919319808483124,-0.041234612464904785,-0.04509344324469566,0.009540260769426823,-0.04580291360616684,0.009864130057394505,-0.07219820469617844,-0.06197413057088852,0.021233288571238518,-0.043229226022958755,-0.04144332557916641,0.08231526613235474,-0.009443903341889381,-0.05083080753684044,0.03279699757695198,0.050435420125722885,0.005313275847584009,0.002521948190405965,0.06055030971765518,0.11107103526592255,0.05513189360499382,0.15750820934772491,0.008986284956336021,0.0694519579410553,3.278634903836064e-05,-0.05694238841533661,-0.030909892171621323,-0.08265072107315063,0.020026149228215218,0.07294225692749023,0.06573555618524551,0.060505758970975876,-0.0020246217027306557,0.02707809768617153,-0.021553758531808853,0.07636760920286179,-0.0408654510974884,-0.05148443952202797,-0.017048386856913567,-0.007833071053028107,-0.06632742285728455,-0.004685419611632824,-0.009307995438575745,-0.04885328933596611,0.04045538604259491,-0.03474093973636627,-0.001113440841436386,0.07863324880599976,0.02781824953854084,0.006291152443736792,-0.021986864507198334,0.042550474405288696,0.03408772870898247,0.07516585290431976,0.018289906904101372,0.0554172620177269,0.001842266763560474,0.025501858443021774,-0.06731516867876053,-0.016069356352090836,0.12093324959278107,-0.07284741848707199,0.01625584065914154,0.014194555580615997,-0.021107900887727737,0.035366401076316833,0.04895005002617836,-0.004996162839233875,5.2962637710152194e-05,0.027124108746647835,0.03987685590982437,0.030732393264770508,-0.04928099364042282,0.009995343163609505,0.07357563823461533,0.09653498977422714,-0.01366429403424263,-0.00924433022737503,-0.02962922863662243,0.09870021045207977,0.06513156741857529,-0.0725262388586998,0.10230614244937897,0.02257494069635868,-0.12472034990787506,-0.07648582011461258,-0.0697881206870079,-0.06736224889755249,0.10276172310113907,-0.0427776537835598,-0.0009557660087011755,0.06148766353726387,0.06753372400999069,0.034996528178453445,0.0023924284614622593,-0.0639370009303093,-0.017675776034593582,-0.03693350404500961,-0.03733506798744202,0.03757745400071144,0.04037592187523842,0.015426475554704666,-0.04594315588474274,-0.013971337117254734,-0.0772140771150589,0.022812604904174805,0.007451675832271576,0.02624344453215599,-0.07263293862342834,-0.06164863333106041,-0.03706670552492142,0.0698743462562561,-0.11446788161993027,-0.007760152220726013,-0.09990835189819336,-0.06527570635080338,0.043419092893600464,-0.022478250786662102,-0.14270903170108795,0.031955569982528687,-0.043331630527973175,-0.05277352035045624,-0.143069788813591,0.00630075903609395,-0.038799136877059937,0.013853085227310658,0.027900516986846924,-0.10282441228628159,-0.016015978530049324,0.0850272923707962,-0.020274410024285316,-0.047957416623830795,0.015907268971204758,-0.03732161968946457,0.010283758863806725,-0.04520092532038689,-0.010905410163104534,-0.012961002998054028,0.10032214969396591,0.057402584701776505,-0.026257086545228958,0.006655930075794458,-0.0457218661904335,-0.024456368759274483,0.034425992518663406,-0.04001844674348831,-0.0557856485247612,0.10433848202228546,-0.06476787477731705,-0.05042701214551926,-0.0064645251259207726,-0.09872284531593323,0.14025333523750305,0.013510828837752342,0.05861613526940346,-0.014745973981916904,-0.02026175893843174,0.016428109258413315,0.1885962039232254,-0.005959917325526476,0.02351754531264305,0.038396574556827545,-0.08501298725605011,0.03320179134607315,-0.027832863852381706,-0.05049867555499077,-0.029483705759048462,-0.04007836803793907,0.03897107392549515,0.0236012265086174,0.033995192497968674,0.04155080020427704,0.015943385660648346,0.06285889446735382,0.02438812144100666,-0.013766765594482422,0.04091349244117737,-0.03404901921749115,0.12110321968793869,-0.030763942748308182,0.030760785564780235,0.03391740471124649,-0.0652751550078392,-0.0019541236106306314,-0.027581244707107544,0.08836761116981506,0.0633348748087883,-0.05641457438468933,-0.0793401449918747,0.000581696629524231,0.03345043957233429,-0.019281549379229546,0.007944154553115368,0.0908433273434639,-0.02257407456636429,-0.030285051092505455,-0.006746403872966766,0.08133955299854279,-0.05911433324217796,0.04292086139321327,0.057457175105810165,-0.018135646358132362,-0.01705251634120941,-0.004411147907376289,0.01589292101562023,0.0033678095787763596,-0.01658538542687893,-0.03366229310631752,-0.061808470636606216,-0.1223900318145752,0.01704500988125801,-0.006606207694858313,-0.10612916201353073,0.06994545459747314,-0.013169633224606514,0.04945603758096695,0.06658700108528137,-0.08522238582372665,0.09918941557407379,0.030053433030843735,0.034994937479496,-0.1004989892244339,-0.0057716527953743935
