Country,Vectordimension_0,Vectordimension_1,Vectordimension_2,Vectordimension_3,Vectordimension_4,Vectordimension_5,Vectordimension_6,Vectordimension_7,Vectordimension_8,Vectordimension_9,Vectordimension_10,Vectordimension_11,Vectordimension_12,Vectordimension_13,Vectordimension_14,Vectordimension_15,Vectordimension_16,Vectordimension_17,Vectordimension_18,Vectordimension_19,Vectordimension_20,Vectordimension_21,Vectordimension_22,Vectordimension_23,Vectordimension_24,Vectordimension_25,Vectordimension_26,Vectordimension_27,Vectordimension_28,Vectordimension_29,Vectordimension_30,Vectordimension_31,Vectordimension_32,Vectordimension_33,Vectordimension_34,Vectordimension_35,Vectordimension_36,Vectordimension_37,Vectordimension_38,Vectordimension_39,Vectordimension_40,Vectordimension_41,Vectordimension_42,Vectordimension_43,Vectordimension_44,Vectordimension_45,Vectordimension_46,Vectordimension_47,Vectordimension_48,Vectordimension_49,Vectordimension_50,Vectordimension_51,Vectordimension_52,Vectordimension_53,Vectordimension_54,Vectordimension_55,Vectordimension_56,Vectordimension_57,Vectordimension_58,Vectordimension_59,Vectordimension_60,Vectordimension_61,Vectordimension_62,Vectordimension_63,Vectordimension_64,Vectordimension_65,Vectordimension_66,Vectordimension_67,Vectordimension_68,Vectordimension_69,Vectordimension_70,Vectordimension_71,Vectordimension_72,Vectordimension_73,Vectordimension_74,Vectordimension_75,Vectordimension_76,Vectordimension_77,Vectordimension_78,Vectordimension_79,Vectordimension_80,Vectordimension_81,Vectordimension_82,Vectordimension_83,Vectordimension_84,Vectordimension_85,Vectordimension_86,Vectordimension_87,Vectordimension_88,Vectordimension_89,Vectordimension_90,Vectordimension_91,Vectordimension_92,Vectordimension_93,Vectordimension_94,Vectordimension_95,Vectordimension_96,Vectordimension_97,Vectordimension_98,Vectordimension_99,Vectordimension_100,Vectordimension_101,Vectordimension_102,Vectordimension_103,Vectordimension_104,Vectordimension_105,Vectordimension_106,Vectordimension_107,Vectordimension_108,Vectordimension_109,Vectordimension_110,Vectordimension_111,Vectordimension_112,Vectordimension_113,Vectordimension_114,Vectordimension_115,Vectordimension_116,Vectordimension_117,Vectordimension_118,Vectordimension_119,Vectordimension_120,Vectordimension_121,Vectordimension_122,Vectordimension_123,Vectordimension_124,Vectordimension_125,Vectordimension_126,Vectordimension_127,Vectordimension_128,Vectordimension_129,Vectordimension_130,Vectordimension_131,Vectordimension_132,Vectordimension_133,Vectordimension_134,Vectordimension_135,Vectordimension_136,Vectordimension_137,Vectordimension_138,Vectordimension_139,Vectordimension_140,Vectordimension_141,Vectordimension_142,Vectordimension_143,Vectordimension_144,Vectordimension_145,Vectordimension_146,Vectordimension_147,Vectordimension_148,Vectordimension_149,Vectordimension_150,Vectordimension_151,Vectordimension_152,Vectordimension_153,Vectordimension_154,Vectordimension_155,Vectordimension_156,Vectordimension_157,Vectordimension_158,Vectordimension_159,Vectordimension_160,Vectordimension_161,Vectordimension_162,Vectordimension_163,Vectordimension_164,Vectordimension_165,Vectordimension_166,Vectordimension_167,Vectordimension_168,Vectordimension_169,Vectordimension_170,Vectordimension_171,Vectordimension_172,Vectordimension_173,Vectordimension_174,Vectordimension_175,Vectordimension_176,Vectordimension_177,Vectordimension_178,Vectordimension_179,Vectordimension_180,Vectordimension_181,Vectordimension_182,Vectordimension_183,Vectordimension_184,Vectordimension_185,Vectordimension_186,Vectordimension_187,Vectordimension_188,Vectordimension_189,Vectordimension_190,Vectordimension_191,Vectordimension_192,Vectordimension_193,Vectordimension_194,Vectordimension_195,Vectordimension_196,Vectordimension_197,Vectordimension_198,Vectordimension_199,Vectordimension_200,Vectordimension_201,Vectordimension_202,Vectordimension_203,Vectordimension_204,Vectordimension_205,Vectordimension_206,Vectordimension_207,Vectordimension_208,Vectordimension_209,Vectordimension_210,Vectordimension_211,Vectordimension_212,Vectordimension_213,Vectordimension_214,Vectordimension_215,Vectordimension_216,Vectordimension_217,Vectordimension_218,Vectordimension_219,Vectordimension_220,Vectordimension_221,Vectordimension_222,Vectordimension_223,Vectordimension_224,Vectordimension_225,Vectordimension_226,Vectordimension_227,Vectordimension_228,Vectordimension_229,Vectordimension_230,Vectordimension_231,Vectordimension_232,Vectordimension_233,Vectordimension_234,Vectordimension_235,Vectordimension_236,Vectordimension_237,Vectordimension_238,Vectordimension_239,Vectordimension_240,Vectordimension_241,Vectordimension_242,Vectordimension_243,Vectordimension_244,Vectordimension_245,Vectordimension_246,Vectordimension_247,Vectordimension_248,Vectordimension_249,Vectordimension_250,Vectordimension_251,Vectordimension_252,Vectordimension_253,Vectordimension_254,Vectordimension_255,Vectordimension_256,Vectordimension_257,Vectordimension_258,Vectordimension_259,Vectordimension_260,Vectordimension_261,Vectordimension_262,Vectordimension_263,Vectordimension_264,Vectordimension_265,Vectordimension_266,Vectordimension_267,Vectordimension_268,Vectordimension_269,Vectordimension_270,Vectordimension_271,Vectordimension_272,Vectordimension_273,Vectordimension_274,Vectordimension_275,Vectordimension_276,Vectordimension_277,Vectordimension_278,Vectordimension_279,Vectordimension_280,Vectordimension_281,Vectordimension_282,Vectordimension_283,Vectordimension_284,Vectordimension_285,Vectordimension_286,Vectordimension_287,Vectordimension_288,Vectordimension_289,Vectordimension_290,Vectordimension_291,Vectordimension_292,Vectordimension_293,Vectordimension_294,Vectordimension_295,Vectordimension_296,Vectordimension_297,Vectordimension_298,Vectordimension_299
afghanistan,0.008156847208738327,-0.020631106570363045,0.1380758136510849,-0.09472181648015976,0.0931469202041626,0.046626221388578415,0.07131294161081314,0.09574535489082336,0.014139995910227299,-0.01717768795788288,-0.03760110214352608,-0.06402554363012314,-0.012495067901909351,0.017930472269654274,0.04372812435030937,0.05268574878573418,0.06646319478750229,-0.09606955945491791,0.004208142403513193,0.03127305954694748,-0.019968129694461823,-0.007448127027601004,0.05938639119267464,0.018537702038884163,-0.0688910186290741,-0.021849291399121284,-0.10382231324911118,-0.037236690521240234,0.05315938591957092,-0.05469268560409546,0.05151228606700897,-0.033545173704624176,-0.01850108988583088,0.04048297181725502,-0.034302860498428345,0.021993063390254974,0.028206218034029007,-0.092464879155159,0.02909817546606064,-0.023976730182766914,-0.02979259565472603,0.07541603595018387,-0.12029102444648743,0.008123984560370445,-0.005788184702396393,-0.0024993200786411762,-0.09375185519456863,-0.011295069009065628,-0.03209291025996208,-0.015062032267451286,-0.05932004377245903,0.026948707178235054,0.0149390185251832,-0.006919503677636385,0.005388321820646524,0.029813086614012718,-0.02682548575103283,-0.004859721288084984,0.024546639993786812,0.042895346879959106,0.009945866651833057,-0.06470821797847748,-0.166097491979599,0.09265173226594925,0.006009073927998543,-0.05988118797540665,-0.045096997171640396,-0.03656357526779175,0.05845300108194351,0.11263906955718994,0.07878429442644119,0.05859396979212761,0.04154912009835243,-0.0757429376244545,0.07391685992479324,0.07040755450725555,-0.07060500979423523,0.11536802351474762,-0.015983011573553085,-0.070297971367836,0.06982484459877014,-0.06876915693283081,0.006714641582220793,0.021425990387797356,0.024309631437063217,0.005626650992780924,0.016131052747368813,-0.045654866844415665,0.07168593257665634,0.177098348736763,-0.04764670878648758,0.04561550170183182,0.004202512092888355,-0.04155083745718002,0.02666761539876461,0.03678228706121445,0.054301775991916656,-0.04114101827144623,-0.014448965899646282,-0.053315725177526474,0.021740088239312172,-0.0636821836233139,0.02213446795940399,0.027274401858448982,0.0033547296188771725,-0.10844998806715012,0.0402623750269413,0.056179799139499664,-0.017007026821374893,0.05895185470581055,-0.023838305845856667,-0.013123362325131893,0.007566468790173531,0.03593618422746658,0.03618515282869339,0.025280676782131195,-0.008805083110928535,-0.07246790081262589,-0.016179392114281654,-0.02514255978167057,-0.058743879199028015,-0.07779064774513245,-0.003329608589410782,0.04017667472362518,0.006520848721265793,0.030202854424715042,0.05210132896900177,0.0013533695600926876,0.09605125337839127,0.05152210593223572,0.1648882031440735,0.08035250753164291,-0.05419810861349106,-0.10356446355581284,-0.06111419200897217,0.08029954880475998,-0.0015281494706869125,0.020221205428242683,0.05853155627846718,-0.01507687009871006,-0.10404133796691895,-0.04444500058889389,-0.030003966763615608,0.007045624777674675,0.050182852894067764,-0.06786485761404037,0.021535536274313927,0.10960666090250015,-0.03666580468416214,0.009656133130192757,-0.02866402082145214,0.09172479063272476,0.09948769211769104,0.11980438977479935,-0.051202062517404556,-0.05060592293739319,-0.015177544206380844,0.05728907883167267,-0.0054410588927567005,-0.08301733434200287,-0.12374265491962433,0.0050592017360031605,0.04734105244278908,-0.06747263669967651,-0.08136610686779022,0.03498296067118645,0.014214432798326015,-0.002650823211297393,0.07119780033826828,-0.07229506969451904,-0.012777449563145638,0.052718937397003174,-0.08776656538248062,-0.004355961456894875,0.018619844689965248,-0.03319929167628288,-0.03167247399687767,-0.08734847605228424,0.06409268081188202,0.05064186453819275,0.016646740958094597,-0.10231392085552216,0.09719084948301315,0.12168505042791367,0.05535263568162918,-0.007160209584981203,0.09050711244344711,-0.08012210577726364,-0.02297828532755375,0.024160031229257584,0.038979846984148026,-0.0032856534235179424,-0.025401590391993523,-0.02745344676077366,-0.050608035176992416,-0.04028857499361038,-0.04837630316615105,-0.048922277987003326,-0.05942525714635849,-0.018533984199166298,-0.062432680279016495,0.06614696234464645,0.05054164305329323,-0.0810459777712822,0.01947209984064102,-0.08028357475996017,0.08588157594203949,-0.09188489615917206,-0.04590563848614693,-0.08094976842403412,0.04843004420399666,-0.009027400985360146,-0.05241537094116211,-0.103238046169281,-0.02873140573501587,0.10951787233352661,-0.025222834199666977,0.06950438022613525,0.0945160835981369,0.02869013510644436,-0.011724883690476418,0.040568601340055466,-0.03998485580086708,0.05659348517656326,-0.04075224697589874,-0.009863619692623615,0.02694513276219368,-0.0986575111746788,-0.008347771130502224,-0.002445047488436103,0.012733490206301212,0.10931345820426941,-0.009427234530448914,0.023864632472395897,0.008738977834582329,0.06804874539375305,0.023884225636720657,0.05109614133834839,0.13595493137836456,-0.03630778193473816,0.007714681793004274,0.04384756460785866,-0.06448984891176224,-0.023341814056038857,-0.0011257079895585775,-0.04723040759563446,-0.011229341849684715,0.024511519819498062,0.03274807706475258,-0.0014845635741949081,0.11255253851413727,-0.013861158862709999,0.010402988642454147,-0.04645536094903946,0.004677502438426018,0.08240517973899841,0.09159392863512039,-0.012105528265237808,-0.12204868346452713,0.0029963913839310408,-0.01442905142903328,-0.012555001303553581,-0.04783352464437485,0.04065628722310066,0.010126977227628231,0.03040682151913643,0.07812704890966415,0.04133310168981552,0.11525451391935349,-0.005781839601695538,0.022727785632014275,-0.01667836681008339,-0.07076757401227951,-0.04154954105615616,-0.08116746693849564,-0.05101092532277107,-0.01866336539387703,-0.005760121624916792,-0.031612321734428406,0.07843481004238129,-0.07524116337299347,0.006649491842836142,0.03616408258676529,0.03253781422972679,0.04122714325785637,-0.027699198573827744,-0.03169270232319832,0.021147869527339935,0.01756579615175724,0.06983276456594467,0.08671032637357712,-0.001354518928565085,-0.005445520393550396,-0.06365204602479935,0.006713047157973051,0.08008763194084167,-0.010027699172496796,-0.02921026013791561,-0.03562432527542114,-0.11304172873497009
ägypten,0.03288118541240692,-0.012634356506168842,0.05842368304729462,-0.10421523451805115,0.06242138892412186,-0.03600257262587547,0.023615842685103416,0.007921275682747364,0.11360327154397964,-0.09955218434333801,0.015403670258820057,-0.008633526042103767,0.0142134390771389,-0.0023246367927640676,-0.00033900211565196514,-0.011158761568367481,0.009558004327118397,-0.07524696737527847,0.02487046644091606,-0.06525785475969315,0.007486280053853989,0.061828307807445526,-0.05416156351566315,-0.022659050300717354,-0.01159832812845707,0.006007905583828688,-0.09518832713365555,0.00356478919275105,-0.018900180235505104,0.01538113784044981,-0.002806740580126643,0.04420795664191246,0.0024385727010667324,-0.011512473225593567,0.014579166658222675,-0.08682914823293686,0.019131740555167198,-0.049762044101953506,0.042385317385196686,0.09971220046281815,-0.004439524374902248,0.11768395453691483,0.046518899500370026,0.023266395553946495,0.01047859713435173,-0.05697936937212944,-0.05085247755050659,0.08869032561779022,0.04282079264521599,0.02748977579176426,0.017441224306821823,0.04825187474489212,0.010899809189140797,-0.03117751143872738,-0.0022373709362000227,0.016840318217873573,-0.08660304546356201,0.020851481705904007,-0.009159903973340988,-0.05606873705983162,0.014509828761219978,0.02392289787530899,0.06777358055114746,0.02083662524819374,-0.005388947203755379,-0.01498047262430191,-0.014596011489629745,-0.005024468060582876,-0.007006039377301931,-0.0805647000670433,0.05588042363524437,-0.05619902163743973,-0.015874728560447693,-0.09227032214403152,0.09015577286481857,0.07584275305271149,0.020691920071840286,0.0006976026925258338,0.033108748495578766,-0.1169259175658226,0.024294808506965637,0.031214138492941856,0.006625629495829344,-0.12549449503421783,0.021725807338953018,-0.008253035135567188,0.0888671875,-0.01605830155313015,0.09816979616880417,0.050930239260196686,-0.08206718415021896,0.008731629699468613,-0.07047078758478165,0.020792070776224136,-0.03260020166635513,-0.09604531526565552,-0.010238854214549065,-0.007292100228369236,0.01049348246306181,-0.07196887582540512,0.09711115807294846,0.13932320475578308,0.058244239538908005,0.03655470907688141,-0.0020592990331351757,-0.11472855508327484,0.08798928558826447,-0.0533442460000515,0.012161459773778915,-0.06972234696149826,-0.04243122413754463,0.17425860464572906,0.004682260565459728,0.08752833306789398,0.01999615877866745,0.05905736982822418,0.02973514422774315,-0.013413829728960991,-0.019192930310964584,0.05922111123800278,-0.0687442421913147,0.04564174637198448,0.01769634522497654,-0.018580397590994835,0.005253767129033804,0.05608643591403961,-0.02254515513777733,0.03359520807862282,-0.02994125336408615,0.15841980278491974,0.03375357761979103,0.00027434772346168756,-0.007199971470981836,-0.0709039494395256,-0.05463225021958351,0.019711965695023537,-0.042856935411691666,0.07794240862131119,0.045142706483602524,0.07739359885454178,-0.07824286818504333,-0.017980823293328285,0.10611864924430847,0.05199648067355156,0.016508201137185097,-0.01294692698866129,-0.048448141664266586,0.017326707020401955,-0.016995104029774666,-0.005497193429619074,-0.0038076862692832947,0.024535050615668297,0.15219619870185852,0.004625051282346249,0.00908249244093895,-0.035712968558073044,0.00769237894564867,0.046812765300273895,-0.0007281418656930327,-0.06401056796312332,-0.13238567113876343,-0.07046697288751602,-0.005171974189579487,-0.017043285071849823,0.026440756395459175,-0.03456379473209381,0.029512418434023857,-0.02475799061357975,0.06243138015270233,0.11333688348531723,0.12066636979579926,0.028176020830869675,-0.08942517638206482,0.018115900456905365,-0.022833488881587982,-0.13416211307048798,-0.06438767910003662,-0.010650642216205597,0.03796468675136566,-0.02296212688088417,0.018415210768580437,-0.0012285896809771657,-0.026353316381573677,0.10225652158260345,0.011386952362954617,-0.08362733572721481,-0.0028542610816657543,0.05242672935128212,0.012927459552884102,-0.016529817134141922,0.10962646454572678,0.043360598385334015,-0.0207991860806942,0.00969996303319931,-0.0642174482345581,0.06188254803419113,-0.02204774133861065,-0.014892545528709888,-0.06318622082471848,0.00930186826735735,0.026787327602505684,0.0552743561565876,0.025280842557549477,0.042455293238162994,0.07942058145999908,-0.023471815511584282,-0.03274223953485489,-0.023118799552321434,-0.08398859202861786,-0.12435682117938995,-0.0014634709805250168,-0.09176956117153168,-0.004641563631594181,0.04132722318172455,-0.04041445627808571,0.1383398175239563,0.0019314191304147243,0.0025918525643646717,0.01223520003259182,0.001447543385438621,-0.027721049264073372,0.03122910112142563,-0.045794740319252014,0.005202139262109995,0.14104284346103668,0.004304972477257252,-0.0542326383292675,-0.06510605663061142,0.019347215071320534,0.05022171512246132,0.03940797969698906,-0.021523529663681984,-0.09388531744480133,0.00923122651875019,-0.0015324747655540705,0.0808848962187767,-0.04395065829157829,-0.020686162635684013,0.06990945339202881,-0.012449749745428562,0.035070791840553284,0.04055976867675781,-0.05131809040904045,0.0027390324976295233,-0.005472240503877401,0.020103057846426964,-0.0030292633455246687,0.12068592756986618,-0.02991415187716484,0.08115828782320023,0.09365760535001755,0.06906384229660034,-0.08637183159589767,-0.04631461203098297,0.06661864370107651,0.166227325797081,-0.041483014822006226,-0.010636396706104279,-0.0890093445777893,0.027345525100827217,-0.005859645549207926,0.014320062473416328,0.014699108898639679,0.06636745482683182,-0.008136472664773464,-0.04331360384821892,0.10305069386959076,0.03204630687832832,0.038589540868997574,0.0739702433347702,0.04864973947405815,0.09526009857654572,-0.01627787947654724,-0.07659953832626343,-0.05243556573987007,-0.12513722479343414,-0.024924524128437042,0.05567437410354614,0.06906876713037491,-0.050097204744815826,0.03294744715094566,0.02394375018775463,0.04723688215017319,-0.03207649290561676,0.0152520053088665,-0.029838625341653824,0.07981923222541809,0.012452494353055954,-0.09053073823451996,0.012638053856790066,0.04578716680407524,-0.042040951550006866,-0.03399164229631424,0.06968393176794052,0.08694042265415192,0.06413739919662476,0.05183403566479683,0.06252086907625198,0.024591436609625816,-0.13556025922298431
albanien,0.04725644737482071,-0.03696700930595398,-0.01497961487621069,-0.02371687814593315,-0.045974425971508026,0.01691962033510208,0.0642518624663353,-0.06551609933376312,0.006740243174135685,-0.0006529131787829101,0.011109196580946445,-0.0014726921217516065,0.02891068533062935,0.16583050787448883,0.0186142697930336,0.07660208642482758,-0.021299056708812714,0.023375699296593666,-0.04784107208251953,0.03574250265955925,0.04026779904961586,0.08983132243156433,0.09006287157535553,0.04912804439663887,-0.009045444428920746,0.016706861555576324,0.030019495636224747,0.09759918600320816,-0.011451726779341698,0.018409574404358864,-0.048820268362760544,-0.026140771806240082,-0.04760389029979706,0.005433009006083012,0.12270958721637726,0.011771710589528084,-0.019197357818484306,-0.10442275553941727,-0.05907997116446495,0.0047959997318685055,-0.12114562839269638,0.041822582483291626,-0.022309215739369392,-0.01097024790942669,-0.04291824623942375,0.06578492373228073,-0.04497118294239044,-0.0685538575053215,0.03311419114470482,-0.08455409854650497,-0.13171236217021942,-0.05335666984319687,0.1016506478190422,-0.060908909887075424,0.054659295827150345,0.043094586580991745,-0.028251368552446365,0.006373771466314793,-0.04596036300063133,-0.004255145788192749,-0.01110319048166275,0.006737758405506611,-0.0914001613855362,0.15010784566402435,-0.05953652784228325,-0.009337102994322777,-0.04296453297138214,-0.02828468754887581,0.07208708673715591,0.049093615263700485,-0.004143123980611563,0.045436322689056396,0.05305250734090805,-0.057680703699588776,0.03165033459663391,-0.004863270092755556,-0.0259852297604084,0.05611308664083481,0.030662089586257935,-0.03580815717577934,0.016663605347275734,-0.07030858844518661,-0.0532105416059494,-0.05370064824819565,0.04298970475792885,0.045654296875,-0.03888396546244621,-0.017037691548466682,0.16611547768115997,0.0404837541282177,0.057202763855457306,0.02089029736816883,0.03154735639691353,-0.05199050158262253,-0.0693884864449501,0.059056174010038376,0.06166302040219307,-0.06442730873823166,-0.04876326024532318,0.02469385415315628,0.05140754207968712,-0.047055620700120926,0.033034224063158035,-0.0563185028731823,0.009892743080854416,-0.04450749605894089,0.12952683866024017,0.043061960488557816,0.02097935602068901,-0.00546756386756897,-0.05344967916607857,0.02146044187247753,0.020390143617987633,-0.04655301943421364,-0.03092622384428978,-0.002629309892654419,-0.05464592203497887,-0.039250344038009644,0.041885849088430405,-0.08019432425498962,0.00395179633051157,-0.03343626856803894,0.01774940825998783,-0.05876806005835533,0.09187158197164536,0.0440659299492836,-0.010451889596879482,0.009777486324310303,0.09097248315811157,0.08919127285480499,0.17687629163265228,-0.0035483802203089,-0.008929931558668613,-0.0425429530441761,-0.05627600476145744,0.008370701223611832,-0.05262646824121475,0.054831355810165405,0.05305326730012894,0.07633053511381149,0.07324396073818207,-0.04467494785785675,0.05631936714053154,0.03850249573588371,-0.03330859914422035,0.021624842658638954,-0.006434330716729164,0.04869965463876724,0.012562434189021587,-0.023821065202355385,-0.008211962878704071,0.13281427323818207,0.007988802157342434,0.0686953067779541,-0.0022599503863602877,0.028568964451551437,-0.12513601779937744,0.03372585028409958,0.054098278284072876,0.020947393029928207,-0.03224315121769905,-0.027998121455311775,-0.0324547253549099,-0.08843732625246048,-0.08542998135089874,-0.0991959348320961,0.06680772453546524,-0.062100157141685486,0.02233039028942585,0.01644153706729412,0.1326761245727539,0.045145656913518906,-0.06139802187681198,0.039571136236190796,-0.011587625369429588,-0.012189996428787708,-0.031054703518748283,-0.05121520161628723,0.09767302870750427,0.027681240811944008,0.06345623731613159,-0.01639632321894169,-0.08153916895389557,0.08918166905641556,0.010777706280350685,-0.05713000148534775,-0.05680231750011444,0.006002304144203663,-0.009954245761036873,0.05320156738162041,-0.03136580437421799,0.00832416582852602,-0.09040459990501404,0.12312759459018707,-0.0063705770298838615,0.03592469543218613,-0.0031355037353932858,0.0014171606162562966,-0.0018573473207652569,0.06417357176542282,-0.027255095541477203,-0.03212875872850418,0.03411848843097687,-0.02279416099190712,-0.0400414876639843,0.022956853732466698,-0.0660947859287262,-0.07713034749031067,0.004267735872417688,-0.03435375168919563,0.01743597537279129,0.015719911083579063,-0.11092004179954529,-0.027874143794178963,-0.08037494868040085,0.16481634974479675,-0.044943537563085556,0.015326681546866894,-0.023179328069090843,-0.05649014934897423,0.009687721729278564,0.03336517885327339,-0.008769909851253033,-0.05873909965157509,0.03514925390481949,-0.04190931096673012,-0.00899181142449379,-0.012320655398070812,0.03112860769033432,0.0711861327290535,0.08950455486774445,0.06896623224020004,-0.032035943120718,-0.027706503868103027,-0.008017606101930141,-0.058685291558504105,0.08268378674983978,0.0868614986538887,0.02666303515434265,0.0749482661485672,0.02933158352971077,0.13803483545780182,-0.07141276448965073,-0.12336642295122147,-0.00969080813229084,0.009526804089546204,0.11916632205247879,0.07683556526899338,0.1053856611251831,-0.055667661130428314,0.06836678087711334,-0.01430133730173111,0.015320846810936928,0.02850201725959778,0.018323976546525955,0.05055326595902443,0.042166970670223236,0.01913374662399292,-0.06688211858272552,-0.013136402703821659,0.0010273705702275038,0.00813356228172779,-0.08012190461158752,-0.01938612200319767,-0.0433206669986248,-0.03504646196961403,-0.02905157022178173,0.04020247608423233,0.045789726078510284,-0.029737509787082672,-0.009479551576077938,0.028496136888861656,-0.1255839616060257,0.011742840521037579,0.0453786663711071,-0.07119608670473099,-0.03710678219795227,0.05528854578733444,0.08271139860153198,-0.003377624787390232,-0.04873304069042206,0.12705165147781372,-0.010018756613135338,-0.004649415146559477,0.07835232466459274,-0.020994016900658607,-0.001524723251350224,-0.04194233939051628,-0.011691994033753872,0.034259214997291565,0.07125670462846756,-0.011974487453699112,0.066830113530159,0.0948745533823967,-0.03672405332326889,0.03131844848394394,-0.0007493746816180646,-0.01844291016459465,0.1567642092704773,-0.01769888587296009
algerien,0.083694227039814,-0.04388212785124779,0.09212015569210052,-0.018495000898838043,0.1252940595149994,0.018977126106619835,0.03980669751763344,-0.022334787994623184,0.1272677481174469,0.007792020216584206,0.004110162146389484,0.0025257610250264406,0.01927630603313446,-0.044649288058280945,0.048486918210983276,0.09895862638950348,-0.009193883277475834,0.011007753200829029,0.00010532664600759745,-0.059020575135946274,-0.023799268528819084,0.06410286575555801,-0.013136236928403378,-0.016653170809149742,0.03025861270725727,0.03518429398536682,-0.00274273450486362,0.0012207624968141317,0.054461702704429626,0.034940242767333984,0.01636853814125061,-0.025182172656059265,-0.01667894423007965,0.022494720295071602,-0.0440087616443634,0.0331517718732357,0.00039781050872989,-0.034686941653490067,0.03757290169596672,-0.00991748832166195,-0.003045549849048257,0.0777711570262909,-0.03146481141448021,0.07964037358760834,-0.011324942111968994,0.005396610125899315,-0.050363145768642426,0.02475331909954548,-0.034271568059921265,0.02147354558110237,-0.0246405191719532,0.05398983880877495,0.026525113731622696,0.014013238251209259,0.05584093555808067,0.03610703721642494,-0.028159301728010178,-0.010794614441692829,-0.05578356981277466,0.00576590234413743,0.039813023060560226,-0.14225977659225464,-0.10456149280071259,0.06578822433948517,0.02950333058834076,-0.05588747560977936,-0.09766970574855804,-0.012854517437517643,-0.048548709601163864,0.021683238446712494,0.06990057229995728,-0.031159503385424614,0.08474282920360565,-0.027904700487852097,0.011532634496688843,0.0709252804517746,-0.008049090392887592,0.019192157313227654,0.008190936408936977,0.003999608103185892,-0.04477398470044136,-0.06950341910123825,-0.031232602894306183,0.0897420197725296,0.053700271993875504,0.013457579538226128,-0.004581058397889137,-0.06729122251272202,-0.09595482051372528,0.12527702748775482,0.007808325812220573,0.09668831527233124,-0.04688341170549393,0.011429310776293278,-0.03609183803200722,-0.07903429120779037,0.06332722306251526,0.002586708404123783,0.00930106546729803,-0.04551742598414421,0.08385501801967621,0.08207548409700394,0.043603286147117615,-0.0059239184483885765,-0.027417154982686043,-0.09417354315519333,-0.005617027170956135,0.061905935406684875,-0.09117776900529861,0.040563419461250305,-0.00697570014744997,0.07061466574668884,0.006757766008377075,0.043355174362659454,0.04424633830785751,-0.048648733645677567,-0.024278584867715836,0.0015290402807295322,0.031056934967637062,-0.0043178522028028965,-0.05430704355239868,-0.042578499764204025,0.08890712261199951,0.08131568878889084,0.01871616765856743,-0.10660900920629501,-0.015447879210114479,-0.0086502181366086,0.03176452964544296,0.07137172669172287,0.0654754489660263,0.017925715073943138,-0.028170960023999214,-0.09209391474723816,-0.11628066003322601,0.024452051147818565,0.00808575376868248,0.021617835387587547,-0.0014955444494262338,0.09927769750356674,-0.07761019468307495,-0.021775521337985992,0.040493302047252655,0.03580314666032791,-0.09190785139799118,-0.06506641209125519,0.07363688945770264,-0.0006966072251088917,0.012547759339213371,0.004087007138878107,-0.028788700699806213,0.006347764749079943,0.19131559133529663,-0.027857735753059387,0.05940362438559532,-0.07391461730003357,0.023996682837605476,0.07793845981359482,0.02007545530796051,-0.002356328070163727,-0.11693502217531204,0.027106229215860367,0.03034365363419056,-0.08539080619812012,0.02512824349105358,0.007740718312561512,0.042180392891168594,0.054369792342185974,0.03742183744907379,0.06279468536376953,0.08367633819580078,-0.010838459245860577,-0.050889596343040466,0.01842004619538784,-0.11366347968578339,-0.15614494681358337,-0.05841035768389702,-0.09685196727514267,0.10462985932826996,-0.04055844992399216,-0.014649850316345692,0.0857250839471817,-0.06831473857164383,0.06802698224782944,-0.03662172704935074,0.010077287442982197,0.08762390911579132,-0.060092486441135406,0.05015264078974724,-0.06703222543001175,-0.002208575140684843,0.030940428376197815,-0.002406677696853876,0.0029160294216126204,-0.07430005818605423,-0.026038886979222298,-0.027520855888724327,-0.06596296280622482,0.03598892688751221,0.06724391132593155,0.00902330968528986,-0.022687608376145363,0.012904062867164612,0.04275345057249069,0.08907384425401688,-0.039674919098615646,0.04644229635596275,-0.004955601878464222,-0.01745518669486046,-0.0389183834195137,-0.04008857533335686,-0.08774439990520477,-0.07115761190652847,0.03137115761637688,-0.07168876379728317,0.10107902437448502,0.01967669278383255,0.01259574294090271,0.03344025835394859,0.006064326036721468,0.008376040495932102,-0.016207894310355186,-0.12385537475347519,0.03759395331144333,0.06635831296443939,-0.019432956352829933,0.010442208498716354,0.05173143371939659,0.08877532929182053,0.02037651278078556,0.15334922075271606,0.015240589156746864,-0.01479428168386221,0.15050745010375977,-0.04275018721818924,-0.03320423141121864,0.06679455190896988,0.03707079961895943,0.0019538209307938814,-0.07598771154880524,-0.10991398245096207,-0.009385338984429836,-0.02827591449022293,-0.04834536463022232,-0.000964975799433887,-0.019441911950707436,0.0738067626953125,0.11768588423728943,0.08586298674345016,-0.061176177114248276,0.19336935877799988,0.07050491869449615,0.08430736511945724,-0.06840667128562927,-0.004662932362407446,0.12819190323352814,-0.04699486866593361,-0.0098031647503376,-0.08139113336801529,-0.017741166055202484,0.005033317022025585,0.04374217987060547,0.012551170773804188,0.005964367650449276,-0.05657577142119408,-0.05269303172826767,0.02616947703063488,-0.02059594914317131,0.042596474289894104,0.03592849522829056,0.08025626838207245,0.0025279331021010876,0.002772000152617693,-0.03370712697505951,0.049123574048280716,-0.048858482390642166,0.009975465945899487,0.07656823098659515,0.012465307489037514,0.07787797600030899,-0.08106964826583862,0.0666043683886528,0.007700743153691292,0.01910596899688244,-0.026845326647162437,-0.08989059180021286,0.0160629004240036,-0.019301921129226685,0.012097315862774849,0.020876795053482056,0.11839991062879562,-0.11297114938497543,-0.047572143375873566,-0.021232575178146362,-0.006506946869194508,-0.008667739108204842,-0.06283242255449295,-0.027471434324979782,-0.009701551869511604,-0.02404739521443844
angola,0.08476527780294418,-0.07195300608873367,0.06719184666872025,-0.04202038422226906,0.04041781276464462,-0.08237722516059875,0.055258508771657944,-0.08598406612873077,-0.007621644996106625,-0.11042244732379913,-0.005257712211459875,-0.057401496917009354,0.10092142224311829,-0.08275017887353897,0.030039770528674126,0.0056762853637337685,0.01429195236414671,-0.027440642938017845,0.07059569656848907,0.0011183501919731498,-0.012511183507740498,-0.01294105127453804,-0.02983708865940571,-0.04237242788076401,0.0189172625541687,-0.04692244157195091,-0.06032037362456322,0.06593603640794754,-0.04242823272943497,0.010812348686158657,-0.018923843279480934,0.028037091717123985,0.04311118274927139,-0.003969329409301281,-0.04294920340180397,-0.029672157019376755,-0.013813059777021408,-0.06274086236953735,0.12057125568389893,-0.010824753902852535,0.028121646493673325,0.07868659496307373,-0.0018195691518485546,-0.008996632881462574,0.012478362768888474,-0.07324183732271194,-0.05330639332532883,0.03091846965253353,-0.062044285237789154,-0.02296431176364422,-0.04220784828066826,-0.0373905785381794,0.07952160388231277,-0.03773117437958717,0.03734298050403595,0.05369555950164795,-0.017513202503323555,0.04326336458325386,-0.028401009738445282,0.051666539162397385,0.06699345260858536,-0.11846388876438141,-0.07288544625043869,0.05407135561108589,-0.03784086927771568,-0.056517310440540314,0.06970687955617905,-0.00997607596218586,-0.02321380190551281,-0.014653670601546764,0.05322796106338501,0.035207800567150116,0.056284043937921524,0.02123543992638588,-0.0006018623244017363,0.08768419176340103,-0.025019943714141846,-0.0038576859515160322,0.0039446488954126835,-0.07710054516792297,0.040834635496139526,0.10265681892633438,0.00576328719034791,-0.11032175272703171,0.061363257467746735,0.034949347376823425,-0.023516125977039337,-0.008958784863352776,0.06338291615247726,0.14007142186164856,0.0703873485326767,0.05776893347501755,-0.011054073460400105,0.014078311622142792,0.08155309408903122,0.006503803189843893,0.0176500603556633,0.04086810350418091,0.07003027945756912,0.011113719083368778,0.08975253254175186,0.0374249592423439,0.07853250950574875,0.034484535455703735,-0.09689883887767792,-0.07204744964838028,-0.012239859439432621,-0.004113858100026846,-0.14118823409080505,0.03675267472863197,0.06825842708349228,-0.036679644137620926,0.09807977825403214,0.10013075917959213,0.009894885122776031,-0.02111271396279335,-0.051759883761405945,-0.025559650734066963,-0.046125996857881546,-0.06424466520547867,-0.0961574837565422,-0.028267012909054756,0.11250805854797363,0.02792992815375328,0.0790175348520279,-0.025722434744238853,0.02212528884410858,-0.001738053048029542,0.014670193195343018,-0.036146726459264755,0.0763886421918869,0.13126520812511444,-0.010877496562898159,-0.059345144778490067,-0.11074050515890121,0.017563506960868835,-0.008462263271212578,-0.08400177955627441,0.10907383263111115,0.09064009040594101,0.053442541509866714,-0.12088213860988617,0.02711375616490841,0.04568685591220856,-0.0019463812932372093,-0.045547209680080414,0.07332690060138702,0.03641464561223984,-0.01604560576379299,0.012194780632853508,0.07286448031663895,0.0061843423172831535,0.10538751631975174,0.05310201272368431,0.024208413437008858,0.017184017226099968,0.09322269260883331,0.0356796532869339,0.0724257081747055,-0.04446589946746826,-0.05436490476131439,-0.04842139780521393,0.00833767931908369,-0.019714973866939545,-0.04389072209596634,0.04575439170002937,0.013348601758480072,-0.03701502084732056,0.07383234053850174,0.024243347346782684,0.08927727490663528,-0.045739833265542984,-0.014868885278701782,0.012486464343965054,-0.0775776281952858,-0.07479977607727051,0.02280758135020733,0.09744364768266678,0.06600413471460342,0.013045942410826683,-0.020959902554750443,-0.015428438782691956,0.024939632043242455,0.08611517399549484,-0.053651999682188034,0.05206700414419174,0.0496395006775856,-0.049269821494817734,-0.029803525656461716,-0.005330082960426807,0.0897093191742897,-0.05053994059562683,-0.05174592509865761,-0.05244690552353859,-0.008630848489701748,0.050318218767642975,-0.009378177113831043,0.0770440474152565,0.006033646408468485,-0.09068331867456436,-0.028568729758262634,-0.03664426878094673,0.015454313717782497,0.013622293248772621,0.09257917106151581,0.021669607609510422,0.03714046999812126,0.0774739682674408,0.04050062596797943,-0.08359607309103012,0.024894438683986664,-0.07366076111793518,-0.03871115669608116,0.08428950607776642,-0.06960925459861755,0.1358538120985031,-0.06843829154968262,0.030906515195965767,0.017820946872234344,-0.014369114302098751,-0.05931852385401726,-0.07394096255302429,0.0052558802999556065,-0.08911585062742233,0.055566128343343735,-0.17111606895923615,0.012297612614929676,-0.05000767856836319,0.006654954049736261,0.06162162870168686,0.0522175170481205,0.048894498497247696,0.02225009724497795,0.025512386113405228,-0.11092100292444229,0.04475589096546173,0.0014902114635333419,-0.022358480840921402,-0.003309640334919095,-0.004933158401399851,0.027935322374105453,0.05928435176610947,-0.0285834688693285,-0.020981090143322945,0.07901857048273087,-0.01567855291068554,0.06909775733947754,0.02423342503607273,0.026355504989624023,0.04096614941954613,0.13433390855789185,0.031174108386039734,-0.0015981746837496758,-0.0447905957698822,0.08891260623931885,0.24003584682941437,-0.06773906946182251,-0.04621023312211037,-0.0441475547850132,0.05786673724651337,0.03358044475317001,0.007139307446777821,-0.06386313587427139,0.01835946924984455,0.055554766207933426,-0.01210981234908104,0.06820657849311829,-0.0045890649780631065,0.012546855956315994,0.018130652606487274,-0.043503597378730774,0.024130139499902725,0.023622214794158936,-0.05996846780180931,0.011206474155187607,-0.08373551815748215,-0.02769928053021431,0.06684193760156631,0.08024826645851135,0.02797561138868332,-0.023890910670161247,0.024365246295928955,0.011963145807385445,0.0012445349711924791,0.0403839610517025,-0.04321209341287613,-0.046318382024765015,-0.039746008813381195,-0.07357368618249893,-0.015771178528666496,0.08725950121879578,-0.066911481320858,-0.020879320800304413,-0.015812499448657036,0.06361670047044754,-0.06767502427101135,-0.028074314817786217,0.002999726217240095,-0.00703469617292285,-0.03596991300582886
argentinien,0.005863978527486324,0.03495880216360092,0.027835475280880928,-0.016617266461253166,0.016528846696019173,-0.02851342037320137,-0.02628365345299244,-0.0644523873925209,0.0005718666361644864,-0.0653563141822815,0.05070868134498596,-0.030599182471632957,-0.030991526320576668,0.019830260425806046,-0.01342946756631136,0.055313512682914734,-0.0030782492831349373,-0.01788298226892948,0.1553080528974533,0.01940115913748741,0.016240300610661507,0.041971512138843536,-0.01706412062048912,0.01082876231521368,-0.03698929399251938,0.15112192928791046,0.042999375611543655,0.00964771956205368,-0.08420129120349884,-0.06993886828422546,0.052974551916122437,-0.03323373943567276,0.0056988452561199665,0.013889424502849579,0.09139775484800339,0.001370418700389564,0.0018579934258013964,-0.048565108329057693,0.09880998730659485,-0.03671965375542641,-0.07591317594051361,0.029466092586517334,-0.04299241676926613,0.06065155193209648,0.01708626188337803,-0.07707627862691879,-0.10902139544487,-0.004786444827914238,0.027237487956881523,-0.09066317230463028,-0.05476401001214981,0.0012215450406074524,0.03503546118736267,0.010128192603588104,-0.010162423364818096,0.07552209496498108,0.03264697641134262,-0.026259828358888626,0.03758903965353966,-0.05830524489283562,-0.0422966293990612,-0.005713305436074734,-0.2256513088941574,0.05766903981566429,0.018642952665686607,0.013371704146265984,0.026843981817364693,-0.029707565903663635,-0.056846242398023605,0.024901341646909714,0.060662154108285904,-0.010317472741007805,0.005892745219171047,-0.0379791334271431,0.0008248819503933191,0.05461111664772034,-0.026948027312755585,-0.04739724472165108,0.051712971180677414,-0.05203191936016083,0.01919648051261902,0.03451259434223175,-0.054921042174100876,-0.11735119670629501,0.0016482683131471276,0.06768295168876648,-0.0591559074819088,0.005064837168902159,0.008701130747795105,-0.015507696196436882,-0.05447226017713547,0.08477865159511566,-0.0035403745714575052,-2.339211459911894e-05,0.06522815674543381,-0.03128863498568535,0.003763352520763874,0.037531156092882156,0.0694265365600586,-0.02519048936665058,0.04414314031600952,-0.010924523696303368,0.03737597540020943,0.11071386933326721,-0.09041566401720047,-0.10394787043333054,-0.04274742677807808,0.00016038196918088943,-0.03572425618767738,0.021356863901019096,-0.10132722556591034,-0.024481860920786858,0.08703064173460007,-0.019378475844860077,-0.023596953600645065,0.00725769717246294,-0.06977926939725876,-0.054382991045713425,0.005934234242886305,-0.09956154972314835,-0.019556045532226562,-0.08672067523002625,0.048436783254146576,0.005066473037004471,0.06226889044046402,-0.046965453773736954,0.013146930374205112,-0.05437180772423744,0.03191499412059784,0.08175177127122879,0.11169079691171646,-0.01466633751988411,-0.028240259736776352,-0.10247959196567535,-0.049771685153245926,0.05664172023534775,-0.10253949463367462,0.035961639136075974,0.07918605953454971,0.04690195620059967,-0.005394349340349436,0.11813566088676453,0.0797533243894577,0.08228136599063873,0.023622332140803337,-0.015148269943892956,0.023811042308807373,0.024075530469417572,0.05646118149161339,-0.06632664799690247,-0.042705733329057693,0.06448729336261749,-0.07032164186239243,-0.036357179284095764,-0.04458288475871086,0.015444144606590271,0.010183765552937984,0.07649973779916763,0.09177239239215851,-0.04926726222038269,0.061825886368751526,-0.018499156460165977,0.027755258604884148,-0.036925241351127625,-0.03137918934226036,-0.020431173965334892,0.04961036145687103,-0.03798383101820946,0.02410653978586197,0.011623467318713665,0.08740776777267456,-0.057014498859643936,-0.09091927856206894,0.031961578875780106,-0.04169711098074913,-0.11059727519750595,-0.020166149362921715,-0.06766076385974884,-0.13658371567726135,-0.016563797369599342,0.07075627893209457,-0.08011651784181595,-0.018466021865606308,0.07817733287811279,-0.03136533871293068,0.009300824254751205,-0.0326811745762825,-0.06005244329571724,0.0654701292514801,-0.0628945603966713,0.07943304628133774,0.04573998972773552,-0.0431465208530426,0.0765417069196701,-0.10176590085029602,-0.015601111575961113,-0.08636577427387238,0.09500163048505783,-0.028748618438839912,-0.05257858708500862,0.0034733908250927925,0.012039056979119778,0.019604554399847984,0.015260303393006325,0.08344126492738724,0.1034628301858902,0.05625167116522789,-0.03119983710348606,-0.04028428718447685,-0.1052485853433609,-0.06905847042798996,-0.012814021669328213,-0.05629481375217438,0.018964797258377075,-0.009783712215721607,-0.029803600162267685,0.01908263750374317,0.017776235938072205,-0.07483786344528198,0.03300861641764641,0.08707807213068008,0.04072951525449753,-0.07669506222009659,-0.030704207718372345,0.08479713648557663,-0.046016667038202286,0.005893029738217592,0.044443417340517044,-0.05180655047297478,0.028006911277770996,0.0007294196984730661,0.009761218912899494,0.11570566147565842,-0.02730342000722885,-0.0003702387912198901,0.0613991804420948,0.06840811669826508,-0.047490257769823074,-0.05942685157060623,-0.02199540100991726,-9.239604696631432e-05,-0.0739092081785202,-0.0008700761827640235,-0.09218793362379074,0.13705232739448547,-0.03209337219595909,0.06968433409929276,0.15599076449871063,0.005487743765115738,-0.04852825030684471,0.051141854375600815,-0.04424348101019859,0.08698854595422745,0.004761454649269581,-0.028957439586520195,0.10470269620418549,-0.0446162112057209,-0.05645422264933586,0.03352075442671776,0.0029553156346082687,0.010349873453378677,0.01352015882730484,0.02111334726214409,-0.018033308908343315,0.05194568634033203,0.029010621830821037,-0.04288243502378464,0.011660171672701836,0.07852537930011749,-0.014846290461719036,0.04038184881210327,0.04420650005340576,0.026952262967824936,0.09874458611011505,0.11718334257602692,0.027948813512921333,-0.029435116797685623,0.016946736723184586,-0.01394499558955431,0.06765960156917572,0.1500057578086853,-3.6322500818641856e-05,0.0205231923609972,0.02253277599811554,0.05141168087720871,0.020947610959410667,0.02142946980893612,0.07735052704811096,-0.10759028047323227,-0.016449984163045883,0.0731850266456604,-0.03597820922732353,0.0965190902352333,-0.002607471076771617,-0.01608232595026493,0.1157309040427208,0.0694076418876648,-0.004178485833108425,0.01637028343975544,-0.016954531893134117
armenien,0.0003192445437889546,-0.024204911664128304,0.018132949247956276,-0.02391534298658371,0.06982209533452988,0.014355805702507496,0.1729888767004013,-0.050955966114997864,0.028240496292710304,0.05696690082550049,-0.016099970787763596,-0.010387408547103405,-0.003955591004341841,0.029757313430309296,-0.04236989468336105,0.1006435751914978,-0.024070657789707184,-0.03420838341116905,-0.035919271409511566,0.023254266008734703,0.041290171444416046,0.09280574321746826,0.08950906246900558,0.009121664799749851,-0.06239357590675354,-0.018079107627272606,-0.04524465277791023,0.03560948744416237,0.06693734973669052,-0.020223891362547874,0.027494357898831367,-0.06396220624446869,-0.018152108415961266,-0.06884868443012238,0.0038746704813092947,0.08289434760808945,-0.028898855671286583,-0.03987949714064598,0.17092987895011902,0.03494501858949661,-0.028122609481215477,0.007461966946721077,-0.01898965984582901,0.04021046683192253,-0.06287862360477448,0.03814662620425224,0.03412127122282982,0.12073871493339539,0.004280186723917723,-0.010801001451909542,-0.1342434585094452,0.06635669618844986,0.011916826479136944,0.027274366468191147,-0.005682387854903936,-0.061412543058395386,-0.025530025362968445,0.015371165238320827,-0.0533088818192482,0.02916429378092289,-0.009211876429617405,-0.03968879207968712,-0.10803575813770294,0.06230288743972778,0.057320501655340195,-0.008382855914533138,0.08110974729061127,-0.020594323053956032,0.03198869898915291,-0.04021308943629265,0.03704523295164108,0.03852975368499756,-0.015442738309502602,-0.032288454473018646,-0.0026169053744524717,0.04673182591795921,0.0029372728895395994,0.08438814431428909,0.0007066162070259452,-0.11061885952949524,0.11611946672201157,-0.032860953360795975,0.006264036521315575,-0.012683693319559097,0.07376175373792648,-0.042043134570121765,-0.005915918853133917,-0.11974669247865677,0.053285304456949234,0.0792309120297432,0.05508807674050331,-0.035609904676675797,-0.05483144149184227,0.08192699402570724,-0.01880093291401863,0.06646642833948135,-0.08750420808792114,-0.05100995674729347,0.054251980036497116,-0.0802873894572258,0.07008104771375656,0.02082320675253868,-0.007116648368537426,0.0240732803940773,0.015039075165987015,-0.05295625701546669,0.07379637658596039,0.0025544934906065464,-0.08077819645404816,0.030131647363305092,-0.012644527480006218,0.04801497608423233,0.02557363174855709,0.056600432842969894,0.004814519546926022,-0.011588692665100098,0.03354130685329437,-0.06348947435617447,0.040916722267866135,0.10003699362277985,0.004159149713814259,0.04850321263074875,0.03467225283384323,-0.03452078998088837,0.08206984400749207,0.01581687480211258,0.023175043985247612,0.08688069134950638,-0.024155762046575546,0.17338308691978455,0.01535000465810299,0.004470813553780317,-0.05968878045678139,0.016687266528606415,-0.044924262911081314,0.0004824844654649496,-0.12728315591812134,0.08165371417999268,0.10800555348396301,0.061029102653265,-0.03376585617661476,0.02051442302763462,0.051382534205913544,0.0459466390311718,0.05537761375308037,-0.05299331247806549,-0.04903840273618698,0.0032333836425095797,0.023721598088741302,-0.015113316476345062,-0.012949677184224129,0.00906309299170971,0.08306062966585159,-0.0006653637974523008,-0.0696641132235527,-0.05038106068968773,-0.047556810081005096,-0.04700171574950218,0.015721246600151062,-0.02360009029507637,-0.058649469166994095,-0.07566332072019577,0.055419936776161194,-0.06600283831357956,-0.03642683103680611,-0.002177237067371607,0.0005296513554640114,-0.001987962517887354,0.03859327733516693,-0.0166716780513525,-0.016403086483478546,-0.0021626390516757965,-0.053614791482686996,0.005414721556007862,-0.004427500069141388,-0.08241027593612671,-0.05939765274524689,-0.04706428572535515,0.021648811176419258,0.02254507876932621,-0.04102379456162453,-0.010476169176399708,0.010133706033229828,-0.013487590476870537,-0.0702446773648262,-0.08433384448289871,0.07721526175737381,-0.08319852501153946,-0.02260916493833065,0.04972114413976669,0.03898770734667778,-0.13498251140117645,-0.07339878380298615,-0.03467869386076927,-0.09674018621444702,0.04527167230844498,-0.03242211416363716,0.006080880761146545,-0.019239254295825958,-0.009005376137793064,-0.08343050628900528,0.006705761421471834,0.02373778261244297,0.0665152445435524,0.030418433248996735,0.05289571359753609,0.006308939307928085,0.015470368787646294,0.05674527585506439,-0.13650000095367432,-0.02078649401664734,-0.08989117294549942,0.043737687170505524,0.001181349391117692,0.0021992188412696123,0.03372366726398468,-0.0447692908346653,-0.01585434563457966,0.06859558075666428,-0.009001809172332287,0.15770725905895233,-0.03689787909388542,-0.008482665754854679,-0.07816069573163986,-0.027381327003240585,-0.052683062851428986,-0.03602589666843414,-0.007893924601376057,0.013798478990793228,0.013912617228925228,0.014127643778920174,0.06319291144609451,-0.10977071523666382,0.11502265185117722,0.025729170069098473,0.026690807193517685,0.06473157554864883,-0.02334822155535221,0.01622471585869789,-0.041566379368305206,-0.00747756427153945,0.016024047508835793,-0.0902213305234909,0.034162621945142746,0.058393701910972595,0.0019271570490673184,-0.03362055495381355,0.0848257914185524,0.08211413770914078,0.0018124976195394993,0.11533978581428528,-0.06388544291257858,0.09101957827806473,-0.08904899656772614,0.03937902674078941,0.11200281977653503,0.02515951544046402,0.07637149840593338,-0.04603257775306702,0.0054010991007089615,-0.05402842164039612,-0.03047407977283001,-0.06600919365882874,0.07881759107112885,-0.008048911578953266,-0.026615949347615242,-0.0238691046833992,0.04482932761311531,0.034658417105674744,-0.0034336165990680456,0.050397470593452454,0.1252860575914383,0.05602516606450081,-0.09970778226852417,0.025668296962976456,-0.10573858767747879,-0.017071029171347618,0.030895356088876724,0.12668736279010773,0.054546207189559937,-0.08587182313203812,0.05657961219549179,0.06300514191389084,0.07949619740247726,0.002323066582903266,0.12767274677753448,0.054551251232624054,-0.14921246469020844,0.02576085925102234,0.0650935173034668,-0.02595890499651432,-0.061738140881061554,-0.00887101236730814,-0.015543037094175816,-0.05734581872820854,0.05649164319038391,-0.011656876653432846,0.07036883383989334,0.026577217504382133,0.009896055795252323
aserbaidschan,-0.005432941019535065,-0.025162721052765846,-0.0025812445674091578,-0.08967344462871552,0.045861732214689255,-0.04491274058818817,0.16744863986968994,0.03288496285676956,0.016423996537923813,0.01257751602679491,-0.018705887719988823,-0.06384647637605667,-0.034074816852808,-0.0128391208127141,-0.019667407497763634,0.054513636976480484,-0.07093091309070587,-0.04317956790328026,-0.008804544806480408,0.06695866584777832,0.057169925421476364,0.02779742144048214,0.14109158515930176,0.026905540376901627,-0.012086804956197739,0.011869840323925018,-0.0698026493191719,0.026126284152269363,0.06546661257743835,0.03498945012688637,0.019274422898888588,-0.012328194454312325,0.05030831694602966,-0.054510097950696945,-0.02707611210644245,0.10637133568525314,-0.014571215957403183,-0.026779914274811745,0.12866613268852234,0.03503516688942909,-0.04515039548277855,0.016642607748508453,-0.024866417050361633,0.07027795165777206,-0.03309478610754013,-0.019812628626823425,-0.007032281719148159,0.09650158882141113,0.020184742286801338,0.006481891963630915,-0.12175936996936798,0.07035886496305466,0.04275598004460335,0.019759777933359146,0.010102815926074982,-0.03170004487037659,-0.021654153242707253,-0.0028021784964948893,-0.050137393176555634,-0.0049980077892541885,0.00345052033662796,-0.020375404506921768,-0.027575448155403137,-0.0032038073986768723,0.06242549419403076,0.003565598279237747,0.046000465750694275,0.0021330539602786303,0.042033467441797256,-0.04241834953427315,0.09590858966112137,0.06921757012605667,-0.032741352915763855,-0.04090803116559982,0.03867397457361221,0.13181152939796448,-0.022989239543676376,0.07768163830041885,-0.021741917356848717,-0.10019246488809586,0.0906134694814682,-0.03333859145641327,-0.0027835695073008537,-0.00011605842155404389,0.10435923933982849,0.00015878226258791983,0.00023272368707694113,-0.059365369379520416,0.04394654929637909,0.01767040230333805,0.07030656188726425,-0.05939026176929474,-0.0009812039788812399,0.05759598687291145,-0.041820164769887924,0.008168181404471397,-0.08683090656995773,-0.08848690986633301,-0.020730873569846153,-0.1033286601305008,0.0978698804974556,0.035072844475507736,0.04546155035495758,0.004260888323187828,-0.006400836165994406,-0.06517547369003296,0.11512655019760132,-0.017719749361276627,-0.08998296409845352,0.0873250737786293,-0.017837347462773323,0.04929971694946289,0.01320754736661911,-0.03864195942878723,0.014132951386272907,-0.0504976250231266,0.03704890236258507,-0.055455610156059265,-0.009626704268157482,0.07578427344560623,-0.019860556349158287,0.06631603091955185,-0.021956903859972954,0.008199968375265598,0.037592049688100815,0.13640734553337097,0.009109430946409702,0.032567478716373444,0.043511927127838135,0.14371441304683685,-0.005249722395092249,-0.008770928718149662,-0.00798925943672657,-0.021957270801067352,-0.053121935576200485,-0.030075157061219215,-0.0573907308280468,0.06528828293085098,0.09324432909488678,0.0749019980430603,0.06534002721309662,0.04374896362423897,0.05441392958164215,0.038060255348682404,0.03122107870876789,-0.005873134359717369,-0.05107457935810089,0.015629827976226807,0.07929370552301407,0.0014898868976160884,0.022709395736455917,-0.0025440312456339598,0.09223682433366776,-0.010255607776343822,-0.0006400328711606562,-0.07040204107761383,-0.030696967616677284,-0.023308968171477318,-0.014697276055812836,-0.04842107370495796,-0.04021579027175903,-0.03723372519016266,0.03256147727370262,-0.039903100579977036,-0.03253577649593353,-0.027535419911146164,-0.03645794466137886,0.009841598570346832,0.10608363896608353,-0.0284484401345253,-0.006957316305488348,0.03858279064297676,-0.037680208683013916,0.016065947711467743,-0.034638818353414536,-0.09395197033882141,-0.06795570254325867,-0.13265365362167358,0.044083286076784134,-0.0003205964749213308,0.07461706548929214,0.029547736048698425,-0.026606589555740356,-0.010120019316673279,-0.04026453197002411,-0.052029162645339966,0.03341761231422424,-0.05827635899186134,-0.02622625231742859,0.03024238720536232,0.07647687941789627,-0.15477272868156433,-0.11874744296073914,-0.0800897553563118,-0.07030259817838669,0.060800570994615555,-0.05793486908078194,0.005644237156957388,-0.04385194927453995,-0.057605400681495667,-0.05455917492508888,-0.021047670394182205,-0.018286723643541336,0.008206585422158241,0.049902405589818954,0.09556130319833755,-0.025970585644245148,0.030977502465248108,0.008876980282366276,-0.12273156642913818,-0.017566123977303505,-0.10290737450122833,-0.01787002757191658,0.03440280258655548,0.0160993579775095,0.07708989828824997,-0.004211042542010546,0.008888713084161282,-0.009083220735192299,0.009133953601121902,0.07033024728298187,-0.09655259549617767,0.024969417601823807,-0.038785967975854874,0.05224470794200897,-0.054901424795389175,-0.0293525829911232,-0.02162645012140274,0.011148851364850998,0.0071318126283586025,-0.012738524004817009,0.049175526946783066,-0.05459199473261833,0.07528666406869888,-0.00889548845589161,0.03402712196111679,0.08543708175420761,-0.04126005619764328,0.018209444358944893,-0.04521636292338371,0.01023296918720007,0.09070265293121338,-0.10064078867435455,0.03145582973957062,0.027236351743340492,-0.0662798061966896,0.007087246049195528,0.0743875801563263,0.134088397026062,-0.03554310277104378,0.06718924641609192,-0.03821134939789772,0.08952859044075012,-0.08091959357261658,-0.027704298496246338,0.18572500348091125,-0.03270909562706947,0.04599854722619057,-0.06427837163209915,0.008863423950970173,-0.040193215012550354,-0.00258543249219656,-0.04426044225692749,0.031244616955518723,-0.02185928076505661,-0.004537504632025957,0.05297951027750969,0.07197193056344986,0.012751738540828228,0.05834337696433067,-0.0011233469704166055,0.15455171465873718,0.06747228652238846,-0.0739303007721901,0.001675873645581305,-0.13056637346744537,-0.07034479081630707,0.013040861114859581,0.0835866779088974,0.055667053908109665,-0.040436990559101105,0.06784827262163162,0.03828806430101395,0.023406874388456345,0.027782021090388298,0.07811380922794342,0.12042224407196045,-0.12609636783599854,0.026510583236813545,0.02605358511209488,0.013276287354528904,-0.033659640699625015,-0.020240625366568565,0.002655802993103862,-0.013690943829715252,0.07966488599777222,-0.06868285685777664,0.08020969480276108,0.08595185726881027,-0.003742366097867489
äthiopien,-0.0070869699120521545,-0.13721375167369843,-0.04116049408912659,-0.01352051179856062,0.04626176878809929,-0.059574637562036514,0.11796744167804718,-0.05219414830207825,-0.0033505461178719997,-0.039530836045742035,-0.0103840297088027,0.003134439466521144,-0.017920900136232376,-0.010074883699417114,-0.04704698175191879,0.054827019572257996,-0.057529300451278687,0.029304683208465576,0.02096567675471306,0.07212485373020172,0.005588282831013203,0.007951122708618641,0.12031172215938568,0.02884470298886299,0.011726110242307186,0.08281194418668747,-0.056876953691244125,-0.04260551184415817,-0.06606045365333557,-0.028339814394712448,0.05027274042367935,0.008855254389345646,0.019156979396939278,-0.04422510415315628,0.03448107838630676,0.05383332818746567,0.02599022351205349,-0.08292317390441895,0.05096536502242088,-0.027593154460191727,-0.004836993757635355,-0.05615963786840439,-0.12492608278989792,-0.022186389192938805,-0.044146254658699036,-0.0697273313999176,-0.021162938326597214,-0.01835564523935318,-0.04575611650943756,-0.02101847156882286,-0.10065020620822906,-0.11729394644498825,0.03822006657719612,0.01151529885828495,0.013565490022301674,0.026742219924926758,-0.05726728215813637,0.06208490580320358,-0.08199569582939148,-0.04672376066446304,0.06408281624317169,-0.053471408784389496,-0.062200549989938736,0.016424596309661865,-0.029017046093940735,-0.010280046612024307,0.027870040386915207,0.015178393572568893,-0.03323754668235779,0.014015847817063332,-0.015116791240870953,0.056320782750844955,0.01898064836859703,-0.10268529504537582,0.015622375532984734,-0.01714899390935898,-0.03171776607632637,0.03359777480363846,0.01738719455897808,-0.06008036062121391,0.08791278302669525,-0.015148782171308994,-0.01021888293325901,-0.10119882971048355,0.10221284627914429,0.056440308690071106,-0.030447646975517273,0.03920114040374756,0.10230135172605515,0.03261519595980644,0.014380505308508873,0.10556644201278687,-0.02288469299674034,0.01905202306807041,-0.0038052320014685392,0.022940335795283318,0.08299041539430618,-0.014072444289922714,-0.002009296091273427,0.00028383065364323556,0.1307782232761383,0.014749475754797459,0.14133097231388092,0.03845106065273285,-0.09665180742740631,-0.049255333840847015,0.012450281530618668,0.01584543101489544,-0.028219962492585182,0.08437441289424896,-0.05735362321138382,0.04668679088354111,0.03599883243441582,0.005705675575882196,-0.0033152347896248102,0.01955473981797695,-0.055226802825927734,-0.06906164437532425,0.07080497592687607,-0.01715557463467121,-0.017162831500172615,0.011657968163490295,0.018552349880337715,-0.0028325095772743225,0.03492393344640732,-0.040033526718616486,-0.015927894040942192,-0.016246898099780083,0.0027429128531366587,0.050960980355739594,0.04378848150372505,0.1424209177494049,-0.0648517832159996,-0.12131916731595993,-0.03181707486510277,0.039532627910375595,-0.04389186576008797,-0.11139407008886337,0.060937389731407166,0.045343779027462006,0.07912077009677887,0.0028189111035317183,-0.011066812090575695,0.04024076089262962,-0.05623447522521019,-0.06629946827888489,0.0379299558699131,-0.0012043759925290942,0.05024489760398865,-0.06812761723995209,0.0585637167096138,0.11785844713449478,0.0836043581366539,0.04933277517557144,0.05917547643184662,-0.01269558072090149,-0.020313547924160957,0.029616929590702057,0.045104775577783585,-0.11540717631578445,-0.0740128606557846,-0.01307820063084364,0.01645895652472973,-0.030439648777246475,-0.09967418760061264,-0.004196661524474621,0.04588557779788971,-0.006200018338859081,0.09482145309448242,0.04070472717285156,0.11462479084730148,-0.07223021984100342,-0.024127112701535225,0.009395317174494267,-0.03431189805269241,0.05405855551362038,-0.09326892346143723,0.056475695222616196,0.016236040741205215,0.10304763913154602,0.06776253134012222,0.07549142837524414,-0.027760786935687065,0.060092125087976456,0.004513680934906006,-0.08327849954366684,0.11101610213518143,-0.02491697482764721,0.001013448229059577,-0.011720823124051094,0.007010836154222488,0.029361667111516,-0.05654696747660637,0.027955319732427597,0.0094231516122818,-0.07678871601819992,0.0928972065448761,0.022988364100456238,0.03045187145471573,-0.1062692254781723,-0.0625513568520546,0.021303342655301094,0.002460082061588764,-0.03988363593816757,0.05336920544505119,0.024494096636772156,0.014670352451503277,-0.04107623174786568,0.01891099475324154,0.008856761269271374,0.04643554985523224,-0.00860777497291565,-0.022462552413344383,0.08038100600242615,-0.0011767040705308318,0.06412765383720398,-0.0025467914529144764,-0.024355577304959297,-0.03151465952396393,0.06888994574546814,-0.09981069713830948,-0.09681631624698639,-0.09687811881303787,-0.1020607054233551,0.10842885822057724,-0.14948737621307373,-0.00605855043977499,-0.01784263737499714,0.049849092960357666,0.10416340827941895,0.030228395015001297,0.028856823220849037,-0.06525914371013641,0.051771409809589386,-0.09196362644433975,0.08050426840782166,0.037292540073394775,-0.04630047082901001,0.13657639920711517,0.00604051211848855,0.05271712318062782,0.041633911430835724,-0.06506110727787018,-0.019536608830094337,0.06105578690767288,0.036643728613853455,0.002666451968252659,0.033363841474056244,-0.032431621104478836,0.019567346200346947,0.06903284043073654,-0.03454631567001343,-0.010721678845584393,-0.03688383847475052,0.014394628815352917,0.16398875415325165,0.11580291390419006,-0.06731253117322922,-0.014709338545799255,0.03957352787256241,-0.02661178819835186,0.03232932463288307,-0.09158215671777725,0.020154910162091255,0.028915490955114365,-0.009843992069363594,0.07061412930488586,0.07633979618549347,0.024061143398284912,0.009919820353388786,0.1348988115787506,0.06732137501239777,-0.04411923512816429,0.00033706193789839745,0.007365800905972719,-0.0014579356648027897,0.07874307781457901,0.03872118890285492,0.007207675836980343,-0.0018450900679454207,-0.10432414710521698,-0.002726674312725663,0.043518517166376114,0.010119080543518066,0.047457255423069,-0.022252501919865608,-0.00798023585230112,-0.02576478384435177,-0.07806410640478134,0.027207983657717705,0.04950588196516037,-0.1328817754983902,0.003106678370386362,-0.03775859251618385,-0.01618238165974617,0.061512649059295654,0.009193924255669117,-0.04041213542222977,-0.06764233112335205,-0.07237675040960312
australien,0.03330961614847183,-0.011139130219817162,0.03765921667218208,-0.01936541311442852,0.033690642565488815,-0.02058638446033001,0.05107419937849045,-0.005949601996690035,0.07610400766134262,-0.07878509908914566,0.08486127108335495,-0.0665513128042221,0.04012966528534889,-0.08353309333324432,-0.05980238690972328,-0.025184866040945053,0.03129361569881439,0.004126031883060932,0.037575818598270416,0.11187057942152023,0.010713850148022175,-0.026772839948534966,-0.039346471428871155,-0.024795182049274445,-0.01117941178381443,0.03856325149536133,-0.034490637481212616,0.00426011998206377,0.01140874158591032,0.028911912813782692,-0.03322713077068329,0.016939446330070496,-0.008733516559004784,-0.07749763131141663,0.08293294906616211,0.039598945528268814,-0.11360593140125275,-0.009438179433345795,0.02915017493069172,0.06947902590036392,0.012779793702065945,0.07784280180931091,-0.08524689823389053,0.02320712059736252,0.01781735010445118,0.04333256557583809,-0.14562787115573883,0.029605332762002945,0.0173349492251873,-0.06205219402909279,0.05822312459349632,0.06529808044433594,0.0035257020499557257,0.05169200897216797,-0.045479677617549896,0.1006307303905487,-0.02489490620791912,-0.018997153267264366,0.012434124015271664,-0.004286287818104029,0.006138453260064125,-0.025614896789193153,-0.10336129367351532,0.060812801122665405,0.02368715964257717,-0.12015583366155624,0.08843033760786057,-0.000874180463142693,-0.07762586325407028,-0.05213377997279167,0.016490735113620758,0.007420058362185955,0.072598896920681,-0.043097011744976044,0.061981137841939926,0.08688239008188248,-0.043439265340566635,-0.010009346529841423,-0.0193911325186491,-0.1295797973871231,0.04921512305736542,-0.008759706281125546,-0.12938673794269562,-0.08728106319904327,-0.039479032158851624,0.01757705956697464,-0.0017293713754042983,-0.0527028925716877,0.052863094955682755,-0.052519675344228745,0.056857630610466,-0.024550508707761765,-0.05388297885656357,0.007515327539294958,0.07875426113605499,-0.02033694088459015,-0.035626042634248734,-0.12628187239170074,0.10949371010065079,-0.020968416705727577,-0.04685065522789955,-0.026369359344244003,0.057203132659196854,0.05477852374315262,-0.11683670431375504,-0.050231218338012695,0.07783477008342743,0.09901673346757889,-0.05070359259843826,0.0939626395702362,-0.0463433638215065,0.03808959573507309,0.0703764259815216,0.058163512498140335,-0.04791466146707535,0.017459740862250328,0.03906084969639778,-0.16672003269195557,-0.028681272640824318,-0.02836320735514164,0.03963750973343849,0.010308702476322651,0.028346676379442215,0.07372026145458221,0.0783236101269722,-0.015364388935267925,-0.026432804763317108,0.00678278598934412,0.006636125035583973,0.030262788757681847,0.04406123235821724,0.05364842712879181,-0.06026914715766907,0.058071721345186234,-0.13624560832977295,0.035063765943050385,0.013149108737707138,0.05089269205927849,0.008963016793131828,0.031178800389170647,0.03254037722945213,-0.02459544502198696,-0.01619924046099186,0.06527228653430939,-0.03233819454908371,-0.049292005598545074,-0.037842702120542526,-0.0025596425402909517,0.0428018681704998,-0.07111804932355881,-0.038912877440452576,0.026560310274362564,0.03163716197013855,0.13458029925823212,0.058243412524461746,0.02531525120139122,-0.028545530512928963,0.06407875567674637,0.036995142698287964,0.0019554910250008106,-0.012622152455151081,0.006950144190341234,0.05469854548573494,-0.0664098858833313,0.03619394451379776,-0.06112409010529518,-0.01504517626017332,0.081816665828228,0.16950853168964386,-0.01219359040260315,0.010171166621148586,0.08934570848941803,-0.1090402752161026,0.04955726116895676,0.07315832376480103,-0.026388155296444893,-0.044174183160066605,0.02599238231778145,0.03776324912905693,0.029462138190865517,0.03878802806138992,0.020008811727166176,-0.06943384557962418,0.006285620853304863,0.16484957933425903,0.03836297616362572,-0.0004140767559874803,-0.06736594438552856,-0.018187860026955605,-0.014672469347715378,0.12177399545907974,0.07572139799594879,-0.013690914027392864,-0.0374918207526207,-0.0160360187292099,0.07186718285083771,-0.11918146163225174,0.024272000417113304,-0.04889751598238945,0.009953354485332966,-0.025696687400341034,-0.03939322009682655,0.06340079009532928,0.0035078369546681643,-0.015136162750422955,-0.10396549850702286,0.07473944872617722,-0.06447989493608475,-0.03213503956794739,-0.07954799383878708,0.02269863337278366,-0.009575260803103447,0.08259480446577072,-0.013925101608037949,-0.009951351210474968,0.09115681052207947,0.005931494757533073,0.012247066013514996,-0.03553939238190651,-0.006702978629618883,-0.018476245924830437,0.09624780714511871,-0.03467788174748421,0.03841647133231163,0.13183091580867767,-0.07416107505559921,-0.035141438245773315,-0.004798449110239744,-0.04644804075360298,-0.025081783533096313,0.015155592001974583,0.030836110934615135,0.08777980506420135,0.06988050788640976,0.004409411456435919,0.07265207916498184,0.013112194836139679,-0.007549874018877745,-0.021893933415412903,-0.14347465336322784,-0.027086947113275528,0.075278140604496,-0.0177235659211874,-0.003932124935090542,0.07812603563070297,0.08702515065670013,0.09046953171491623,0.04393485561013222,-0.07379215955734253,0.008314225822687149,-0.041224297136068344,0.0393277183175087,-0.05981221795082092,-0.040758248418569565,0.08776596188545227,0.050254616886377335,-0.006207035388797522,-0.015295532532036304,-0.018918313086032867,-0.07096286863088608,-0.041777197271585464,-0.003915759269148111,-0.035171788185834885,-0.004072953015565872,-0.03860584646463394,0.031929995864629745,0.12077619135379791,-0.04371068626642227,0.018323274329304695,0.05901870131492615,-0.013405101373791695,0.05508493632078171,-0.012425682507455349,-0.11005929112434387,0.12554313242435455,-0.1087205782532692,-0.0077758412808179855,0.07302183657884598,-0.030967263504862785,0.05593473091721535,0.015009916387498379,-0.020769266411662102,0.04683085158467293,0.029343223199248314,-0.020731089636683464,-0.08916650712490082,-0.00396244740113616,-0.08598723262548447,0.0401080884039402,-0.05637362226843834,0.0634075477719307,0.007441964000463486,0.02054506540298462,-0.01722511649131775,0.015666544437408447,0.01607416197657585,0.006064367480576038,0.037710513919591904,-0.03732463717460632,-0.007776719983667135
bangladesch,-0.0030343204271048307,0.0797460600733757,0.04193148389458656,0.0017257611034438014,0.04527772590517998,-0.05828898027539253,0.061577435582876205,-0.023538663983345032,0.02101771906018257,-0.029814545065164566,0.051943983882665634,-0.10129576921463013,0.030493807047605515,-0.11837005615234375,0.044144727289676666,0.051445577293634415,-0.06255612522363663,0.05747545138001442,-0.017107123509049416,-0.02094922587275505,0.014212471432983875,-0.03271188586950302,0.029177580028772354,-0.03128712996840477,0.0365445613861084,0.0776071846485138,-0.03961571305990219,0.07081815600395203,-0.08165153115987778,-0.012783819809556007,0.011740961112082005,0.03616596758365631,0.08190853148698807,-0.05622640624642372,-0.021062061190605164,0.0014913143822923303,0.03607455641031265,-0.10293776541948318,0.044377487152814865,-0.01627226360142231,0.011581381782889366,0.06728177517652512,-0.04248468950390816,-0.05845136567950249,0.00889731477946043,0.004687833599746227,-0.04693962261080742,0.11844436079263687,-0.015170079655945301,-0.08803367614746094,-0.11666619777679443,0.06010483205318451,0.08269155770540237,0.007083206903189421,-0.013102966360747814,0.002615501871332526,-0.03641214966773987,-0.033137135207653046,-0.014596225693821907,-0.02199297957122326,0.08003781735897064,-0.05662019923329353,-0.044998813420534134,0.009387290105223656,0.02115759812295437,0.05648507550358772,0.02008545771241188,0.0073819849640131,0.009631599299609661,0.027194319292902946,0.02511388622224331,-0.007859030738472939,-0.02497861348092556,-0.010755019262433052,0.037657056003808975,0.028566861525177956,-0.03210838511586189,0.062143247574567795,0.07273722440004349,0.015982361510396004,0.0021718470379710197,0.040307413786649704,0.01331221591681242,-0.0555192269384861,-0.007892176508903503,0.042980559170246124,0.018308114260435104,-0.06183451786637306,0.08719473332166672,0.11951161921024323,0.02407132275402546,0.052880819886922836,-0.06373502314090729,-0.048518430441617966,-0.12549859285354614,0.010527928359806538,0.06727088987827301,-0.051201093941926956,0.03617357462644577,-0.07232005894184113,0.031701602041721344,0.05795588716864586,0.07845506817102432,0.059996217489242554,-0.10027502477169037,-0.025987399742007256,0.09217095375061035,0.036205146461725235,0.022268306463956833,-0.11073192954063416,-0.055381447076797485,-0.010833143256604671,0.06614651530981064,0.06119474023580551,0.022601386532187462,0.11142122745513916,0.05561550706624985,0.034930311143398285,-0.014110444113612175,-0.009752768091857433,0.035809118300676346,-0.01506933942437172,0.06265690177679062,0.0887669250369072,0.1444389820098877,0.07613572478294373,-0.06400638818740845,0.1022612452507019,0.05764390155673027,0.15010538697242737,0.055519215762615204,0.022583002224564552,-0.06204909458756447,-0.09822530299425125,-0.07688449323177338,0.052152369171381,-0.005043296609073877,0.0719263032078743,0.0017885988345369697,0.02223844826221466,0.011437649838626385,0.025650134310126305,0.08098051697015762,-0.015156827867031097,-0.007650274317711592,-0.057486169040203094,0.03442177176475525,0.01325886882841587,0.036392342299222946,-0.029164688661694527,0.012962346896529198,0.07383140176534653,-0.02785268984735012,0.011928037740290165,0.014386304654181004,-0.06513531506061554,-0.009198258630931377,0.02644841931760311,0.10885916650295258,-0.037630364298820496,0.021414661779999733,-0.04726114124059677,0.05098394304513931,0.023136047646403313,0.00019138838979415596,0.024623483419418335,0.04692476615309715,-0.029602812603116035,0.0561116486787796,0.17308613657951355,0.11199893802404404,0.006415417417883873,-0.0445437915623188,0.13287979364395142,-0.03474049270153046,-0.046233855187892914,0.01151326484978199,0.05018167570233345,0.04718318581581116,0.021443847566843033,-0.02706504799425602,-0.005437235347926617,-0.027476036921143532,-0.002514480147510767,-0.04170464351773262,-0.027729634195566177,0.02600269950926304,-0.07218330353498459,-0.0846090242266655,-0.08144199103116989,0.06273440271615982,-0.022335514426231384,-0.07926148176193237,0.05712324008345604,-0.0014043955598026514,-0.04621882364153862,-0.04822686314582825,-0.04128356650471687,-0.1005859300494194,0.057780008763074875,0.025980602949857712,-0.01769990287721157,0.026282699778676033,0.010715188458561897,-0.0059175337664783,0.09634193032979965,0.07754383981227875,-0.007869167253375053,0.013279679231345654,-0.060631174594163895,-0.042274657636880875,-0.0005862284451723099,-0.017389468848705292,0.033929623663425446,-0.028590332716703415,0.0667274221777916,-0.012598269619047642,-0.0030736832413822412,-0.03616971895098686,-0.07280854880809784,0.01103117410093546,-0.04267428442835808,-0.07998166233301163,-0.09671183675527573,0.09835098683834076,0.028324458748102188,0.07232427597045898,-0.07185584306716919,0.019092615693807602,-0.06372305750846863,0.022494547069072723,0.07859635353088379,-0.04637106508016586,0.11144182085990906,-0.08059673756361008,0.07042872905731201,-0.025505071505904198,0.061099886894226074,0.00420776754617691,-0.012880097143352032,0.03870900720357895,-0.04790862649679184,-0.07097858935594559,-0.05654866620898247,0.03602345287799835,-0.0419158898293972,-0.0026891634333878756,0.026491258293390274,-0.015148916281759739,0.012064645998179913,0.09027149528265,0.030481360852718353,0.0046576582826673985,-0.0462995208799839,0.07473765313625336,0.14405639469623566,-0.08454953879117966,-0.048391539603471756,-0.0773618295788765,0.003757479600608349,-0.03816813603043556,0.056845538318157196,0.05772675201296806,-0.021328825503587723,-0.010666688904166222,-0.004647222813218832,0.05684582144021988,0.034353770315647125,0.10987218469381332,0.12250563502311707,-0.014090752229094505,0.08989383280277252,0.0021085033658891916,-0.04550467059016228,0.006684361957013607,-0.09279318153858185,-0.09863889217376709,0.03459307923913002,0.1852887123823166,-0.006337590515613556,0.08421305567026138,-0.007881858386099339,0.08560957759618759,0.05091876536607742,0.025214610621333122,-0.05512184649705887,0.04174071177840233,0.03664860874414444,-0.05003215745091438,0.05404523015022278,0.05047888681292534,-0.07084513455629349,0.10797364264726639,-0.01701395958662033,0.09527125954627991,0.0586746446788311,0.0028890827670693398,-0.05522841587662697,0.05311325937509537,-0.013004090636968613
belarus,0.06444098055362701,0.01968652755022049,0.05048990622162819,-0.014520647004246712,0.05554633215069771,-0.07567065954208374,0.018631478771567345,0.0034770905040204525,0.021612953394651413,0.05844126269221306,-0.054443541914224625,-0.03777152672410011,0.041159555315971375,0.029118429869413376,-0.0399303175508976,0.07470548897981644,-0.06881529837846756,0.01595362089574337,-0.027785860002040863,-0.005398120731115341,0.04542980343103409,0.06585478782653809,0.057847898453474045,0.0546523779630661,-0.037184085696935654,-0.017225172370672226,-0.11525041610002518,-0.12937717139720917,0.06990418583154678,-0.03380155563354492,-0.05767238512635231,0.0432150661945343,0.03541994467377663,-0.09898834675550461,-0.013401729986071587,0.10379083454608917,-0.02733715996146202,-0.07778313755989075,-0.005029672756791115,-0.016220437362790108,0.0595054104924202,0.1339244842529297,-0.08615028858184814,0.03273510932922363,-0.07647121697664261,-0.055896155536174774,0.029733354225754738,-0.015805868431925774,-0.018110182136297226,-0.004245319403707981,-0.028388390317559242,0.046144694089889526,0.15346306562423706,0.03782978281378746,-0.011521159671247005,-0.007425470277667046,0.006723929662257433,0.02804517187178135,-0.029894907027482986,0.02365266904234886,0.05363684520125389,-0.1371982991695404,-0.02327958680689335,-0.031645577400922775,0.02440907433629036,-0.10182010382413864,-0.1802847981452942,-0.06698641180992126,0.01767345704138279,-0.017442375421524048,0.049588024616241455,-0.009950926527380943,0.01197167206555605,-0.030833842232823372,0.07750219106674194,-0.007166641298681498,-0.03444017842411995,0.09698539227247238,0.029665116220712662,-0.0205089058727026,0.1213139072060585,-0.022310378029942513,-0.03263748437166214,-0.005742054432630539,-0.03362626954913139,-0.022374993190169334,0.03310916945338249,-0.055385295301675797,-0.007146412041038275,0.06674359738826752,-0.19240866601467133,-0.024245331063866615,-0.03550276160240173,-0.04986007139086723,-0.10642778128385544,-0.07107971608638763,-0.006095877382904291,-0.06691178679466248,0.035174719989299774,0.031224682927131653,0.017057128250598907,0.08697544038295746,-0.041680075228214264,0.033961910754442215,0.009953691624104977,-0.03485563397407532,0.04867476597428322,-0.00045616403804160655,-0.09912724047899246,0.03080487623810768,-0.03129992261528969,0.0586199052631855,0.0024119459558278322,0.10056863725185394,-0.08198778331279755,0.018927115947008133,0.04373499006032944,0.050760675221681595,0.0239699836820364,-0.083790123462677,-0.04520963504910469,0.060107067227363586,-0.036900512874126434,0.11434770375490189,0.0890900045633316,-0.037539999932050705,-0.010130900889635086,-0.03600547835230827,-0.018117886036634445,0.021499181166291237,0.021978389471769333,0.006174988579005003,-0.044236183166503906,-0.09760863333940506,-0.04455525055527687,-0.04051104933023453,-0.018275082111358643,0.1326056867837906,0.009458634071052074,0.11647691577672958,-0.06500829756259918,-0.0951208844780922,0.08336170017719269,0.13729976117610931,-0.04421665519475937,0.04516652598977089,-0.0603577084839344,-0.011729084886610508,0.07539167255163193,0.021343698725104332,-0.059415481984615326,0.031109364703297615,0.042247120290994644,-0.009321829304099083,-0.024799954146146774,-0.009087752550840378,-0.009055741131305695,0.02733020856976509,0.15046502649784088,-0.0532810278236866,-0.0664956271648407,-0.01464835461229086,0.030054545029997826,-0.06324367225170135,-0.06631514430046082,-0.12757843732833862,-0.011091622523963451,-0.05926305428147316,0.06800948083400726,0.015561564825475216,-0.0037363064475357533,0.08121297508478165,-0.02290535159409046,0.015245173126459122,-0.007133783306926489,-0.03495270386338234,-0.012240142561495304,0.034604307264089584,-0.0033202841877937317,-0.0990094542503357,0.017344335094094276,-0.06481397151947021,-0.035108309239149094,0.08965753018856049,-0.00953933410346508,-0.010421592742204666,-0.026100479066371918,-0.06402767449617386,-0.0015906833577901125,0.038833968341350555,-0.016503024846315384,-0.05023135617375374,-0.09614643454551697,0.07102721184492111,-0.0780719593167305,-0.015782175585627556,0.08556275814771652,-0.019388003274798393,-0.0904938355088234,0.00026484508998692036,0.013608244247734547,0.038474585860967636,-0.020097000524401665,-0.025821628049016,0.015491658821702003,-0.04961216449737549,0.036268699914216995,0.024781163781881332,0.015959160402417183,-0.04677239805459976,0.11865004152059555,-0.057505980134010315,-0.048317547887563705,0.028218846768140793,-0.03449869155883789,0.08560536056756973,-0.025326965376734734,0.008831101469695568,-0.08423436433076859,0.06720910966396332,-0.022129565477371216,0.05415722727775574,-0.020339423790574074,-0.03829733282327652,0.018783438950777054,0.01805775798857212,0.029966123402118683,0.07222793251276016,-0.02601516805589199,0.029191121459007263,-0.025996310636401176,0.06395040452480316,-0.029261166229844093,0.0906883031129837,0.0008774095913395286,0.016821132972836494,-0.008384612388908863,0.010675827972590923,0.06003711372613907,0.022157734259963036,0.019376395270228386,0.01470743678510189,-0.03254338353872299,-0.09067074209451675,0.06991420686244965,0.08147633820772171,0.16076618432998657,0.03687280789017677,0.03536186367273331,-0.09281224757432938,0.04352857545018196,-0.03026559017598629,0.0822579488158226,-0.021411782130599022,0.08910122513771057,0.06180154159665108,-0.017954185605049133,0.058502085506916046,-0.06683201342821121,-0.01692073419690132,-0.08032303303480148,-0.10184314101934433,0.04807273671030998,0.008774280548095703,-0.0214412659406662,0.04857117310166359,0.04381290823221207,0.08781697601079941,0.08927435427904129,-0.00021917866251897067,-0.0008131926297210157,-0.0028966967947781086,0.04563119262456894,0.020552517846226692,0.04110705479979515,-0.1240711361169815,0.042971473187208176,-0.004469500854611397,0.02347579225897789,-0.05715874582529068,0.03531217202544212,0.03847524896264076,0.018951553851366043,0.03175194561481476,0.03336430341005325,0.008730055764317513,0.026480969041585922,-0.10574724525213242,-0.040891874581575394,-0.0002127024345099926,0.006651706527918577,0.011887905187904835,0.05890998616814613,-0.08711778372526169,-0.02058103308081627,0.022847855463624,0.009189169853925705,0.0855938270688057,0.03372013196349144,0.03210580348968506
belgien,0.04723932594060898,-0.013176354579627514,-0.0059186555445194244,0.010873555205762386,0.04554291069507599,-0.011709330603480339,0.08473765105009079,-0.04235153645277023,0.059172336012125015,-0.03727426752448082,0.04445014148950577,-0.1387864500284195,0.018090130761265755,-0.05196923017501831,-0.01708795875310898,0.063911072909832,-0.021829873323440552,-0.03341778367757797,-0.02531697228550911,0.06179849058389664,0.015999408438801765,-0.004398459102958441,0.03889230266213417,-0.01836356893181801,0.03316585719585419,0.010601596906781197,0.04880029335618019,0.024077700451016426,0.0626993328332901,-0.03886707127094269,0.01128992810845375,-0.08107870072126389,-0.029325999319553375,0.02543635293841362,-0.04716770350933075,0.0040819356217980385,-0.015724176540970802,-0.17467981576919556,0.04611260071396828,-0.00623770896345377,0.057231273502111435,-0.012121309526264668,-0.019099609926342964,0.0998273491859436,0.006083256099373102,0.08793247491121292,-0.0983329564332962,-0.026967423036694527,-0.06203421205282211,-0.07205689698457718,0.029948566108942032,0.04475221410393715,0.05129454284906387,-0.0037590546999126673,0.0416259840130806,0.02925931103527546,-0.09844706952571869,-0.030313856899738312,0.025199078023433685,-0.004602533765137196,0.043603211641311646,0.054890260100364685,-0.005207359790802002,-0.03453498333692551,-0.08725763112306595,-0.011757009662687778,-0.03663162142038345,-0.012552119791507721,-0.00514054112136364,-0.06270962208509445,-0.07565274089574814,-0.0715758204460144,0.007859492674469948,-0.011510021053254604,0.13794134557247162,0.09836482256650925,0.031026940792798996,0.026500029489398003,0.04620229825377464,-0.1326974779367447,0.06582699716091156,0.07702583819627762,-0.029424214735627174,-0.08552351593971252,-0.06431584805250168,0.10523709654808044,0.03348880633711815,0.01989184506237507,0.058613263070583344,-0.02526271715760231,-0.010127434507012367,-0.018371110782027245,-0.09316953271627426,-0.023181460797786713,-0.02293981984257698,0.0162852481007576,0.030580800026655197,0.021029073745012283,0.030226372182369232,-0.10378190129995346,-0.03156713768839836,0.0772135928273201,-0.15005986392498016,0.014882082119584084,-0.03420793265104294,-0.05539510026574135,0.09890180081129074,0.07725600898265839,0.13703815639019012,-0.04393266886472702,-0.006345520261675119,0.015317696146667004,0.00943805929273367,-0.028450576588511467,-0.07101340591907501,-0.0187681894749403,0.1167835220694542,-0.055536601692438126,0.029917864128947258,0.012460840865969658,0.03366857394576073,-0.035424355417490005,0.021884677931666374,0.023237159475684166,0.07316702604293823,-0.01633519120514393,-0.024184588342905045,-0.0671834871172905,-0.03745466470718384,0.06981773674488068,0.08947540074586868,0.11020050197839737,0.08011291921138763,-0.09999601542949677,-0.05946657434105873,-0.0015027927001938224,-0.024272598326206207,-0.031908463686704636,-0.0033385606948286295,0.06729576736688614,-0.035224929451942444,0.09160695970058441,0.05184119939804077,0.09278111159801483,-0.037405792623758316,0.05525973066687584,-0.027773160487413406,-0.0006187984254211187,-0.08352044969797134,-0.08052617311477661,-0.0686667189002037,-0.035449352115392685,0.09640219807624817,0.01039059180766344,0.05515577644109726,0.048381876200437546,0.008363879285752773,0.18858861923217773,0.011881668120622635,-0.03722665458917618,0.006104270927608013,-0.09303367137908936,0.0078086573630571365,-0.0822698101401329,-0.08093824237585068,0.04370241239666939,-0.006883066147565842,-0.020931238308548927,0.11245863884687424,0.0271751768887043,0.08063626289367676,0.03921443596482277,0.049223434180021286,0.0743856206536293,-0.0314149335026741,-0.0848541408777237,-0.014502296224236488,0.006249269004911184,-0.03252103552222252,0.050724729895591736,0.046639584004879,-0.02286067046225071,-0.07112728804349899,-0.007693995721638203,-0.018184388056397438,-0.07316669821739197,-0.04941399395465851,0.05378913879394531,0.07664474844932556,-0.024004023522138596,-0.02199486829340458,-0.05960413068532944,-0.08352404087781906,0.06093638762831688,0.05694526806473732,-0.008014229126274586,0.005911150947213173,0.09258998185396194,-0.007916568778455257,0.04666498675942421,-0.0001234701048815623,-0.03402196615934372,0.05938931182026863,0.09838836640119553,-0.010604942217469215,0.07404015213251114,-0.014390295371413231,-0.07500006258487701,-0.011982215568423271,-0.05088265985250473,-0.07187333703041077,0.028756920248270035,-0.0255189947783947,-0.024200191721320152,0.08856941759586334,0.009995894506573677,-0.029464805498719215,0.003859327407553792,-0.024887267500162125,0.017996665090322495,-0.009314405731856823,0.017773037776350975,-0.09461954981088638,0.08380728960037231,0.10360028594732285,0.07750459015369415,-0.013409601524472237,0.006510769948363304,-0.12304361164569855,0.05266543850302696,0.09553878009319305,0.05432388186454773,-0.0047256359830498695,0.07492808997631073,0.019907815381884575,-0.00682774418964982,0.05589562654495239,0.04100587218999863,-0.0060738855972886086,-0.015131458640098572,0.031798310577869415,-0.004472073633223772,0.0030354566406458616,0.011942978948354721,0.12493420392274857,-0.04471917450428009,0.015468647703528404,0.060939688235521317,-0.0032554357312619686,-0.008737941272556782,0.09636787325143814,-0.0029868429992347956,0.12380291521549225,0.02136986516416073,-0.039022497832775116,0.08012689650058746,0.0074915457516908646,-0.002192836254835129,0.00030994010739959776,-0.024341149255633354,-0.1137869730591774,-0.05284847319126129,-0.10182555019855499,0.03636230155825615,-0.08143975585699081,0.001217024284414947,0.14868000149726868,0.05004376545548439,-0.016173256561160088,-0.040209922939538956,0.008089568465948105,0.10719610750675201,-0.008992918767035007,-0.03630685433745384,0.09546493738889694,-0.026997487992048264,-0.026576321572065353,0.0051964703015983105,-0.03145868703722954,0.12558718025684357,-0.00896450411528349,0.007426589261740446,0.00836195144802332,0.014666249044239521,-0.026284977793693542,-0.01377751212567091,0.0274459570646286,-0.04679624363780022,-0.046013280749320984,0.06896059960126877,-0.03213892877101898,-0.0010235687950626016,0.007281438447535038,0.026607681065797806,-0.0662415400147438,0.002054791431874037,0.05187664553523064,0.0868992954492569,0.05258417874574661,-0.03540058061480522
bosnien_und_herzegowina,0.09145132452249527,0.02519441954791546,-0.0064613292925059795,0.07516815513372421,0.06790918856859207,-0.03984227403998375,0.10620176047086716,0.13758769631385803,-0.018304964527487755,0.005723502952605486,-0.058390017598867416,-0.12326827645301819,-0.05469562113285065,0.01899724267423153,0.07674563676118851,0.0354643352329731,-0.002053129021078348,0.057071100920438766,-0.006702453829348087,0.036146752536296844,0.06142246350646019,-0.031112318858504295,-0.0022405164781957865,-0.07598692923784256,-0.04133747145533562,-0.008512691594660282,-0.08029807358980179,-0.011657372117042542,-0.01211797446012497,-0.061267584562301636,-0.023338375613093376,0.03662288188934326,0.018686164170503616,-0.012177097611129284,0.03150432929396629,-0.021665168926119804,-0.017733285203576088,-0.12008106708526611,0.03951263427734375,-0.10120827704668045,-0.04594123736023903,-0.06935102492570877,-0.09962792694568634,0.0037638326175510883,0.0190736036747694,0.05854319781064987,-0.09469449520111084,-0.05518980696797371,0.05807121470570564,0.05498854070901871,-0.067206472158432,-0.014998286962509155,0.02001415379345417,0.07689280062913895,0.032841697335243225,0.057684049010276794,-0.029383614659309387,-0.005396849010139704,-0.04849324747920036,0.002145077334716916,-0.04270527511835098,-0.04486136883497238,-0.0863988846540451,0.06188630312681198,-0.02362580969929695,0.07078734040260315,-0.03738639876246452,-0.06393008679151535,0.036894187331199646,-0.03722110763192177,0.06510341167449951,0.04043914005160332,-0.01710696890950203,-0.06325947493314743,-0.024046076461672783,0.06458330154418945,0.0283515565097332,0.12029854208230972,-0.0570676326751709,-0.11624205857515335,0.05905327573418617,-0.03961664065718651,-0.12363263219594955,0.027309363707900047,0.05408608913421631,0.028138983994722366,0.030245836824178696,0.044851407408714294,0.030556512996554375,0.0007551172166131437,0.05812952294945717,0.14019295573234558,-0.029957935214042664,0.019368475303053856,0.0008456752402707934,0.06659071147441864,0.03289429843425751,0.09695155173540115,0.037004224956035614,0.027794936671853065,-0.024275748059153557,-0.06980400532484055,-0.03949706628918648,-0.003095237771049142,-0.13511879742145538,-0.0037502238992601633,0.05244575813412666,0.01910373382270336,-0.041872985661029816,0.1000596359372139,-0.04469163343310356,-0.06807350367307663,0.03230524808168411,-0.07421469688415527,-0.00330972857773304,0.002594192512333393,-0.01151179987937212,-0.0532463975250721,-0.009121284820139408,-0.03972434625029564,-0.07056064903736115,-0.08990630507469177,0.04231124371290207,-0.0027498642448335886,0.06372041255235672,0.05409489944577217,-0.09363377094268799,-0.02636813372373581,0.02534416690468788,0.20586560666561127,0.13361051678657532,-0.008011865429580212,-0.03742509335279465,-0.0045847524888813496,-0.031246118247509003,-0.06500385701656342,-0.10500083863735199,0.022712744772434235,0.014738769270479679,0.11461745947599411,0.006617952138185501,-0.035263728350400925,0.050149571150541306,0.003010587999597192,0.024253586307168007,-0.06842289865016937,-0.016662852838635445,0.004787756130099297,0.03570038825273514,0.032629676163196564,-0.18383300304412842,-0.03435672074556351,0.13682523369789124,0.008156631141901016,-0.04612981155514717,-0.03717853128910065,-0.09049630165100098,0.017967261373996735,0.05450652912259102,0.005738976411521435,-0.036157578229904175,-0.0025627592112869024,0.05761773884296417,-0.017080621793866158,0.00021104802726767957,-0.004823743365705013,0.10699227452278137,-0.003803845262154937,0.05469047278165817,0.046063393354415894,-0.032129399478435516,0.05505174398422241,-0.05902586504817009,0.04353693872690201,-0.056680090725421906,0.009838461875915527,-0.03256351128220558,-0.07886869460344315,0.04092177748680115,0.008058859035372734,0.10356321930885315,-0.011836566030979156,-0.014326509088277817,0.11560297012329102,-0.0017482433468103409,-0.14072293043136597,-0.003327467944473028,-0.06998956203460693,-0.1001117080450058,-0.02048104628920555,0.07226701825857162,-0.02868039906024933,-0.07823066413402557,0.03249923512339592,-0.08776353299617767,-0.048558738082647324,0.04565576836466789,-0.02096775360405445,0.010972108691930771,0.03269340470433235,-0.07003343105316162,-0.03549932315945625,-0.009394785389304161,0.013013250194489956,0.011322700418531895,-0.08958698064088821,-0.04744645580649376,-0.04149715229868889,0.02585785649716854,0.007247474510222673,-0.013294712640345097,-0.03890804201364517,-0.005362359341233969,0.04016957804560661,-0.032584041357040405,0.09048803150653839,0.0018131709657609463,0.014040311798453331,0.06507275253534317,-0.015818944200873375,-0.014065409079194069,0.023992635309696198,-0.02171766385436058,-0.010677482932806015,0.048992037773132324,-0.07295660674571991,0.0013631639303639531,0.019196009263396263,0.04859002307057381,0.03622909262776375,0.05175136774778366,0.021615954115986824,-0.021742045879364014,0.06853366643190384,0.021508682519197464,-0.04720334708690643,0.03318452090024948,0.07700945436954498,0.0017599661368876696,0.008413978852331638,0.08365622162818909,0.0885409265756607,-0.027347564697265625,-0.06665347516536713,0.05427015945315361,-0.0017284281784668565,0.04467080906033516,0.057154834270477295,-0.008538597263395786,-0.1341150850057602,0.06061078980565071,-0.0775822103023529,0.028300754725933075,0.07128043472766876,0.06681652367115021,0.11998700350522995,0.010380581021308899,0.09820224344730377,-0.10037089139223099,0.009599051438272,-0.002702882280573249,0.0020996620878577232,0.0858554020524025,-0.014385448768734932,0.03419306501746178,0.019029216840863228,0.015565972775220871,0.039707668125629425,0.00883964728564024,-0.08107313513755798,0.027419360354542732,0.033945560455322266,-0.030472267419099808,0.08804361522197723,-0.006146549247205257,-0.01013993564993143,0.04185943678021431,0.022942708805203438,0.0696011409163475,-0.006040192674845457,-0.0322408489882946,-0.0322476364672184,-0.06136597320437431,0.05187837406992912,0.024420345202088356,0.030040407553315163,-0.03893101215362549,0.030613485723733902,0.029253041371703148,-0.05317175015807152,0.1467997133731842,0.02795574627816677,-0.006307700648903847,0.013337082229554653,0.015153458341956139,0.09891481697559357,-0.03457923233509064,-0.05175314098596573,-0.02951640449464321,-0.09164664894342422
brasilien,-0.03940649330615997,-0.009440798312425613,0.08285270631313324,-0.09282560646533966,0.07197833061218262,-0.10152024030685425,0.00426365016028285,-0.013157750479876995,0.015344287268817425,-0.1044604480266571,0.06629053503274918,-0.0037051737308502197,0.0056652347557246685,-0.003926623612642288,0.06790834665298462,0.03038736991584301,-0.04902195185422897,0.05998333916068077,-0.07760198414325714,0.035330407321453094,-0.001173652010038495,0.019451411440968513,0.0882391408085823,0.05034928023815155,-0.0674339011311531,-0.01446029543876648,-0.04830941930413246,-0.03459777683019638,0.01970483548939228,-0.05365488678216934,0.014675754122436047,0.03695208206772804,0.05874137952923775,-0.015182090923190117,0.04409888759255409,0.025179408490657806,-0.0882338136434555,-0.06399132311344147,0.0205644890666008,-0.0070232511498034,-0.028393806889653206,-0.007877380587160587,0.016864096745848656,0.019322393462061882,0.06767520308494568,-0.04419567435979843,-0.11798277497291565,0.07834725826978683,-0.05676420032978058,-0.008665665052831173,0.020579563453793526,0.031028321012854576,-0.008731729350984097,-0.04321630671620369,0.08211280405521393,0.12068033963441849,-0.060774557292461395,0.06748589873313904,0.029961830005049706,-0.0541691929101944,-0.004152711946517229,-0.06608296185731888,-0.14485210180282593,0.012249115854501724,0.010207443498075008,-0.05648227781057358,-0.04217668995261192,-0.09295997023582458,0.027869410812854767,0.011447357945144176,0.03465021774172783,-0.0018166359513998032,0.022162530571222305,-0.030462369322776794,0.15600921213626862,0.06673484295606613,-0.020503975450992584,-0.02344377152621746,0.040617622435092926,-0.09763721376657486,0.06136411055922508,0.09489139914512634,-0.05243496969342232,-0.04851135239005089,0.02758193388581276,0.07124926894903183,0.038171712309122086,0.08689980208873749,0.014194361865520477,0.055623557418584824,-0.0306098610162735,0.009251188486814499,-0.07767540216445923,0.0029295743443071842,-0.046175114810466766,-0.03447273001074791,-0.000724821409676224,0.012783344835042953,0.05455111712217331,-0.0012946987990289927,0.10313728451728821,-0.004021553788334131,-0.0903596505522728,0.08411771804094315,-0.003610772779211402,0.022303428500890732,0.0064950245432555676,0.12255217134952545,-0.040777113288640976,-0.019771523773670197,-0.009235973469913006,0.07161875069141388,0.008665299974381924,0.050484444946050644,-0.056977588683366776,0.05345819517970085,-0.03454602137207985,-0.08918020874261856,0.011878304183483124,-0.06282190978527069,-0.0327543281018734,-0.024420535191893578,0.10988280177116394,0.022013908252120018,0.0910467877984047,0.06017671525478363,-0.07011202722787857,0.0053743221797049046,0.04477996751666069,0.11467514932155609,0.02591937594115734,-0.03527704253792763,-0.06494446098804474,-0.13904650509357452,-0.07496163249015808,-0.034153010696172714,-0.02604304999113083,-0.07070303708314896,0.02418576180934906,-0.02915923297405243,0.06926760077476501,0.04797273874282837,0.12515443563461304,0.004221086390316486,0.017336446791887283,-0.02475488930940628,-0.01571887917816639,0.0728212222456932,0.08163262903690338,-0.08863256126642227,-0.0027707547415047884,0.06104707717895508,0.029440773651003838,0.05597284808754921,-0.02939452975988388,0.01245961245149374,0.03467291593551636,0.07451750338077545,0.008842616342008114,0.0372878722846508,0.03511291742324829,-0.006247856188565493,-0.019090527668595314,-0.046630654484033585,-0.09144104272127151,-0.01083438005298376,-0.006585653405636549,0.009498190134763718,0.13808995485305786,0.04753803089261055,0.02393198572099209,-0.042933497577905655,0.054177116602659225,0.06004234775900841,0.017640840262174606,-0.07262840867042542,-0.0017858896171674132,-0.0183348897844553,-0.02751639299094677,-0.03528131917119026,0.068740114569664,-0.05718543380498886,0.07569333165884018,0.0007390758255496621,0.02312358468770981,0.04644295200705528,-0.022364886477589607,-0.08686313033103943,0.02146005630493164,-0.046570129692554474,0.06514189392328262,-0.02622966468334198,-0.05702950805425644,-0.07246436178684235,0.009716624394059181,-0.05198819562792778,0.04280800372362137,0.03142904117703438,-0.058330025523900986,-0.05267064645886421,-0.007846766151487827,0.03869734704494476,0.04694700241088867,0.05913925915956497,-0.041585132479667664,0.11061576008796692,0.03865910321474075,0.03370728716254234,0.09112213551998138,-0.10850389301776886,-0.01881399191915989,-0.008234761655330658,-0.02222820743918419,0.07505970448255539,-0.013931000605225563,0.04651409015059471,-0.008912616409361362,0.07063411921262741,0.02489648200571537,-0.007460418622940779,-0.0057351780124008656,0.01139468140900135,-0.09801283478736877,0.00452168844640255,0.06804489344358444,-0.05746842548251152,0.0005960933631286025,0.033344559371471405,0.009786063805222511,-0.045714810490608215,0.036215536296367645,0.17100727558135986,-0.007944163866341114,0.15455429255962372,0.006360264029353857,-0.08628550916910172,-0.04196939989924431,-0.030068686231970787,-0.020058350637555122,-0.06659877300262451,-0.004949938505887985,-0.01823369786143303,-0.0730840265750885,-0.09134688228368759,0.062176987528800964,0.08770277351140976,-0.026254424825310707,0.02861160784959793,0.007811046205461025,-0.028615407645702362,0.020208198577165604,-0.045147854834795,0.02891417220234871,0.0020411282312124968,0.03158460929989815,0.10811076313257217,0.007713878061622381,-0.08352416008710861,0.01421881653368473,-0.09556607902050018,0.002603416796773672,0.015818744897842407,-0.01472942903637886,0.0032476577907800674,0.032454025000333786,0.0009829611517488956,-0.041654303669929504,-0.023620693013072014,-0.02198641188442707,0.003694599959999323,-0.023582370951771736,0.05867282301187515,-0.04013998433947563,-0.017081692814826965,0.06183036044239998,-0.0656435489654541,-0.028677115216851234,0.0819191187620163,0.07810617983341217,0.14145278930664062,0.024769119918346405,0.0418352447450161,-0.06195858120918274,0.04154984652996063,-0.026660054922103882,-0.03439892455935478,-0.0186107587069273,0.11056099832057953,-0.1651652306318283,0.0032787485979497433,0.08529233932495117,-0.050679318606853485,-0.002843378344550729,0.056537121534347534,-0.07050949335098267,0.05622352659702301,-0.016544438898563385,0.12680071592330933,-0.14052066206932068,-0.023791875690221786
