Country,Vectordimension_0,Vectordimension_1,Vectordimension_2,Vectordimension_3,Vectordimension_4,Vectordimension_5,Vectordimension_6,Vectordimension_7,Vectordimension_8,Vectordimension_9,Vectordimension_10,Vectordimension_11,Vectordimension_12,Vectordimension_13,Vectordimension_14,Vectordimension_15,Vectordimension_16,Vectordimension_17,Vectordimension_18,Vectordimension_19,Vectordimension_20,Vectordimension_21,Vectordimension_22,Vectordimension_23,Vectordimension_24,Vectordimension_25,Vectordimension_26,Vectordimension_27,Vectordimension_28,Vectordimension_29,Vectordimension_30,Vectordimension_31,Vectordimension_32,Vectordimension_33,Vectordimension_34,Vectordimension_35,Vectordimension_36,Vectordimension_37,Vectordimension_38,Vectordimension_39,Vectordimension_40,Vectordimension_41,Vectordimension_42,Vectordimension_43,Vectordimension_44,Vectordimension_45,Vectordimension_46,Vectordimension_47,Vectordimension_48,Vectordimension_49,Vectordimension_50,Vectordimension_51,Vectordimension_52,Vectordimension_53,Vectordimension_54,Vectordimension_55,Vectordimension_56,Vectordimension_57,Vectordimension_58,Vectordimension_59,Vectordimension_60,Vectordimension_61,Vectordimension_62,Vectordimension_63,Vectordimension_64,Vectordimension_65,Vectordimension_66,Vectordimension_67,Vectordimension_68,Vectordimension_69,Vectordimension_70,Vectordimension_71,Vectordimension_72,Vectordimension_73,Vectordimension_74,Vectordimension_75,Vectordimension_76,Vectordimension_77,Vectordimension_78,Vectordimension_79,Vectordimension_80,Vectordimension_81,Vectordimension_82,Vectordimension_83,Vectordimension_84,Vectordimension_85,Vectordimension_86,Vectordimension_87,Vectordimension_88,Vectordimension_89,Vectordimension_90,Vectordimension_91,Vectordimension_92,Vectordimension_93,Vectordimension_94,Vectordimension_95,Vectordimension_96,Vectordimension_97,Vectordimension_98,Vectordimension_99,Vectordimension_100,Vectordimension_101,Vectordimension_102,Vectordimension_103,Vectordimension_104,Vectordimension_105,Vectordimension_106,Vectordimension_107,Vectordimension_108,Vectordimension_109,Vectordimension_110,Vectordimension_111,Vectordimension_112,Vectordimension_113,Vectordimension_114,Vectordimension_115,Vectordimension_116,Vectordimension_117,Vectordimension_118,Vectordimension_119,Vectordimension_120,Vectordimension_121,Vectordimension_122,Vectordimension_123,Vectordimension_124,Vectordimension_125,Vectordimension_126,Vectordimension_127,Vectordimension_128,Vectordimension_129,Vectordimension_130,Vectordimension_131,Vectordimension_132,Vectordimension_133,Vectordimension_134,Vectordimension_135,Vectordimension_136,Vectordimension_137,Vectordimension_138,Vectordimension_139,Vectordimension_140,Vectordimension_141,Vectordimension_142,Vectordimension_143,Vectordimension_144,Vectordimension_145,Vectordimension_146,Vectordimension_147,Vectordimension_148,Vectordimension_149,Vectordimension_150,Vectordimension_151,Vectordimension_152,Vectordimension_153,Vectordimension_154,Vectordimension_155,Vectordimension_156,Vectordimension_157,Vectordimension_158,Vectordimension_159,Vectordimension_160,Vectordimension_161,Vectordimension_162,Vectordimension_163,Vectordimension_164,Vectordimension_165,Vectordimension_166,Vectordimension_167,Vectordimension_168,Vectordimension_169,Vectordimension_170,Vectordimension_171,Vectordimension_172,Vectordimension_173,Vectordimension_174,Vectordimension_175,Vectordimension_176,Vectordimension_177,Vectordimension_178,Vectordimension_179,Vectordimension_180,Vectordimension_181,Vectordimension_182,Vectordimension_183,Vectordimension_184,Vectordimension_185,Vectordimension_186,Vectordimension_187,Vectordimension_188,Vectordimension_189,Vectordimension_190,Vectordimension_191,Vectordimension_192,Vectordimension_193,Vectordimension_194,Vectordimension_195,Vectordimension_196,Vectordimension_197,Vectordimension_198,Vectordimension_199,Vectordimension_200,Vectordimension_201,Vectordimension_202,Vectordimension_203,Vectordimension_204,Vectordimension_205,Vectordimension_206,Vectordimension_207,Vectordimension_208,Vectordimension_209,Vectordimension_210,Vectordimension_211,Vectordimension_212,Vectordimension_213,Vectordimension_214,Vectordimension_215,Vectordimension_216,Vectordimension_217,Vectordimension_218,Vectordimension_219,Vectordimension_220,Vectordimension_221,Vectordimension_222,Vectordimension_223,Vectordimension_224,Vectordimension_225,Vectordimension_226,Vectordimension_227,Vectordimension_228,Vectordimension_229,Vectordimension_230,Vectordimension_231,Vectordimension_232,Vectordimension_233,Vectordimension_234,Vectordimension_235,Vectordimension_236,Vectordimension_237,Vectordimension_238,Vectordimension_239,Vectordimension_240,Vectordimension_241,Vectordimension_242,Vectordimension_243,Vectordimension_244,Vectordimension_245,Vectordimension_246,Vectordimension_247,Vectordimension_248,Vectordimension_249,Vectordimension_250,Vectordimension_251,Vectordimension_252,Vectordimension_253,Vectordimension_254,Vectordimension_255,Vectordimension_256,Vectordimension_257,Vectordimension_258,Vectordimension_259,Vectordimension_260,Vectordimension_261,Vectordimension_262,Vectordimension_263,Vectordimension_264,Vectordimension_265,Vectordimension_266,Vectordimension_267,Vectordimension_268,Vectordimension_269,Vectordimension_270,Vectordimension_271,Vectordimension_272,Vectordimension_273,Vectordimension_274,Vectordimension_275,Vectordimension_276,Vectordimension_277,Vectordimension_278,Vectordimension_279,Vectordimension_280,Vectordimension_281,Vectordimension_282,Vectordimension_283,Vectordimension_284,Vectordimension_285,Vectordimension_286,Vectordimension_287,Vectordimension_288,Vectordimension_289,Vectordimension_290,Vectordimension_291,Vectordimension_292,Vectordimension_293,Vectordimension_294,Vectordimension_295,Vectordimension_296,Vectordimension_297,Vectordimension_298,Vectordimension_299
afghanistan,0.03192606195807457,0.021177662536501884,0.07916152477264404,-0.013190516270697117,-0.011944815516471863,-0.04812772572040558,0.08522255718708038,0.08390869945287704,0.045344602316617966,0.009485635906457901,-0.08303524553775787,-0.05512721836566925,-0.05829813703894615,0.015376548282802105,0.010716522112488747,0.09565538913011551,0.0030512611847370863,-0.024385569617152214,-0.03204742446541786,0.019993402063846588,0.03536377474665642,0.002200331771746278,0.06908733397722244,0.013278951868414879,0.037687577307224274,0.036353208124637604,0.02907571569085121,0.007164086680859327,-0.036473799496889114,-0.007248150184750557,0.025344833731651306,-0.042642850428819656,0.0059615918435156345,0.021466605365276337,0.010160606354475021,0.02143706940114498,0.0662565529346466,0.007810789626091719,0.09177838265895844,0.033009953796863556,0.062360458076000214,0.040627285838127136,-0.03756669908761978,0.08510612696409225,-0.012548654340207577,-0.02873855270445347,-0.0553986057639122,0.053159505128860474,-0.10242457687854767,-0.020905740559101105,-0.10298522561788559,0.053491976112127304,0.07565256208181381,0.07939210534095764,-0.02345351129770279,0.048950813710689545,-0.07379599660634995,0.023998988792300224,0.045898523181676865,0.06308118253946304,0.003759732935577631,0.01853054016828537,-0.053981978446245193,0.012295293621718884,-0.015448388643562794,0.02754421904683113,0.03248649835586548,-0.028285779058933258,-0.002252804348245263,0.10856681317090988,-0.0030108254868537188,-0.013100698590278625,0.060558270663022995,-0.042462412267923355,0.05269252136349678,0.0030382834374904633,0.013241886161267757,0.06231124326586723,-0.06386822462081909,-0.07959796488285065,0.03607375919818878,-0.04522039741277695,-0.03605247288942337,-0.001805284759029746,0.07682159543037415,0.09692815691232681,-0.007359430659562349,0.0009584318613633513,0.07685006409883499,-0.06621172279119492,0.04694962501525879,0.06425256282091141,0.05091308802366257,0.020857665687799454,-0.07828005403280258,0.09168447554111481,0.013363697566092014,0.0132131427526474,0.06602230668067932,-0.015988636761903763,0.03285636007785797,-0.07711488008499146,0.09030692279338837,0.15817156434059143,-0.02808428928256035,-0.06248285993933678,0.029255053028464317,0.07001717388629913,-0.004899661056697369,-0.03273595869541168,0.04870501160621643,-0.038401320576667786,-0.06291686743497849,0.051142722368240356,-0.022999897599220276,-0.010037176311016083,-0.027603548020124435,-0.05190631002187729,-0.07199309766292572,0.05577323958277702,-0.1040731742978096,-0.06535834819078445,0.029824867844581604,0.024465277791023254,0.02563243731856346,0.08668732643127441,0.051153186708688736,-0.004339996259659529,0.07654092460870743,-0.060425955802202225,0.012876275926828384,0.01575274020433426,0.031868353486061096,-0.09644001722335815,-0.023963233456015587,-0.03166886419057846,0.013238847255706787,0.0016739112325012684,0.0026393518783152103,0.14713981747627258,0.01594095304608345,-0.06351346522569656,0.02832980453968048,0.023777121677994728,0.14094026386737823,-0.03333762288093567,-0.014189857989549637,-0.02938968874514103,-0.03235446661710739,0.024565022438764572,-0.06911758333444595,0.02055506594479084,0.16139134764671326,0.04122992977499962,0.0028652846813201904,-0.047231078147888184,0.03669510409235954,-0.004487669561058283,-0.028182432055473328,-0.03926872834563255,0.015310217626392841,-0.07134009152650833,0.015202575363218784,-0.003394246567040682,-0.08224418759346008,-0.017447320744395256,-0.016791006550192833,-0.05307324230670929,0.07027284055948257,0.004564465954899788,-0.0022525943350046873,0.09042169153690338,0.013517928309738636,0.050079695880413055,-0.08852777630090714,-0.11795681715011597,0.02866349183022976,-0.0440569743514061,0.020935749635100365,-0.12345949560403824,-0.032974567264318466,-0.044767171144485474,0.03735225275158882,0.044702060520648956,-0.019287707284092903,0.005098679102957249,0.02153037115931511,-0.06276901811361313,-0.10117615014314651,-0.06710013002157211,0.01911740191280842,0.004881954751908779,-0.04977847635746002,0.031100934371352196,-0.038725655525922775,-0.06505348533391953,-0.03872135281562805,0.12646479904651642,-0.026537880301475525,0.05112957954406738,0.01769065670669079,-0.030948933213949203,-0.0915864109992981,0.03407656401395798,-0.04331018403172493,-0.060594335198402405,-0.03209405019879341,-0.0010994626209139824,-0.12965472042560577,-0.0333096981048584,-0.040283892303705215,-0.09500739723443985,-0.03886685147881508,-0.03227996453642845,-0.020362205803394318,0.037796128541231155,-0.01905244216322899,0.06072206422686577,0.030360223725438118,-0.04875979200005531,-0.04612819850444794,-0.0664622113108635,-0.1008935272693634,0.007685497868806124,-0.04509315267205238,-0.006313237827271223,0.05754948779940605,-0.10930505394935608,0.10411281138658524,0.13505364954471588,0.09399539232254028,0.16230228543281555,-0.018031803891062737,0.029472948983311653,-0.00425324123352766,-0.0026017515920102596,-0.005402922164648771,0.08858485519886017,-0.010353988036513329,0.001979263499379158,-0.07463069260120392,0.16484275460243225,-0.023548858240246773,0.029071679338812828,0.01333299744874239,0.027040904387831688,0.004787908401340246,-0.07412958145141602,0.08529776334762573,0.06776994466781616,0.07986892014741898,0.022043131291866302,-0.03150187432765961,0.09317239373922348,0.08854750543832779,0.07732068747282028,0.029089612886309624,0.06527141481637955,-0.0747135654091835,0.07529810070991516,-0.035665854811668396,0.12067283689975739,0.048145879060029984,-0.060903310775756836,0.005642412696033716,0.08360183984041214,0.04467247426509857,0.08356381207704544,-0.05657411739230156,0.1245412826538086,0.02702552080154419,-0.05265117064118385,-0.009625411592423916,-0.06449803709983826,0.059991467744112015,0.016133878380060196,-0.010476169176399708,0.1174340471625328,-0.06160089373588562,0.07561991363763809,0.02418338693678379,-0.04248004034161568,0.0580979585647583,-0.019862744957208633,0.061749547719955444,-0.006448801141232252,-0.05953856185078621,0.0025057317689061165,-0.00496805552393198,0.06216694414615631,0.03932398930191994,-0.08562563359737396,0.0013025559019297361,0.045693233609199524,0.026165476068854332,-0.03298906981945038,0.005898970179259777,-0.07545001059770584,-0.0918881893157959,-0.06726440787315369
ägypten,-0.03457909822463989,-0.04168310761451721,0.0442967489361763,-0.08135417103767395,-0.0279413890093565,0.03766359016299248,0.09013106673955917,-0.0012557541485875845,0.05576763302087784,0.05536701902747154,-0.05166386067867279,-0.009848689660429955,-0.007652993779629469,-0.04748043045401573,0.01332551147788763,-0.008784882724285126,0.07888603955507278,0.019487973302602768,-0.03525694087147713,-0.05465667322278023,-0.011913706548511982,0.014748873189091682,-0.013663980178534985,0.03256641700863838,0.025160785764455795,0.04593159258365631,-0.07985620200634003,-0.008039903827011585,0.028361788019537926,0.013781461864709854,0.020919974893331528,-0.0719776600599289,0.05380555987358093,0.015975531190633774,0.038511548191308975,-0.08660499006509781,-0.025533996522426605,-0.14270976185798645,0.051368724554777145,0.01044184248894453,0.018226565793156624,0.013019542209804058,-0.06397861987352371,0.025774000212550163,0.04497135803103447,-0.04374931752681732,-0.03259158879518509,0.037745434790849686,-0.03141287714242935,0.055320169776678085,-0.07338938862085342,0.037631478160619736,0.01406797580420971,0.015646103769540787,0.07487425208091736,0.057701971381902695,-0.03835543617606163,-0.0034914000425487757,-0.023258797824382782,-0.06458848714828491,0.04208110645413399,-0.01151129137724638,-0.030553070828318596,0.03228152543306351,-0.049215905368328094,-0.003159720217809081,0.036176733672618866,-0.012838372029364109,-0.005047912243753672,-0.007515967823565006,0.034172818064689636,-0.052980609238147736,0.06515468657016754,-0.0779133290052414,0.04588975012302399,0.03373514115810394,-0.001157434075139463,0.05097869783639908,0.04642888158559799,-0.0837559849023819,-0.02759559266269207,0.05996617302298546,-0.10612069815397263,0.07901758700609207,0.028081858530640602,0.04851381108164787,0.05113844573497772,-0.030149638652801514,0.05372448265552521,-0.019751552492380142,-0.07269331067800522,0.03235769271850586,0.06594222784042358,0.009859198704361916,-0.10632465034723282,0.002149298321455717,0.026747876778244972,0.046453919261693954,0.03012166917324066,-0.07029132544994354,0.041551437228918076,0.06254151463508606,-0.024661961942911148,0.037167344242334366,-0.04193460941314697,0.010537846013903618,0.06907811760902405,0.0704474002122879,-0.009741573594510555,-0.0036315913312137127,-0.04683433845639229,0.07173623144626617,-0.02379309944808483,0.030868563801050186,-0.031724054366350174,0.05123789235949516,0.052859582006931305,-0.0760798528790474,-0.041935306042432785,-0.01600021868944168,-0.12981419265270233,-0.046007074415683746,-0.05176936835050583,0.0832231193780899,0.02498430386185646,0.09311369061470032,-0.0070418440736830235,-0.05930870771408081,0.032704323530197144,0.10044890642166138,0.05511578544974327,0.061374034732580185,0.022230003029108047,-0.04059378057718277,-0.023959588259458542,-0.07291070371866226,0.003663012059405446,0.05297187715768814,0.01820126734673977,0.020329780876636505,0.012823634780943394,-0.024637548252940178,0.024808039888739586,0.0871029868721962,0.021975792944431305,-0.07874030619859695,-0.004288665484637022,-0.08515121787786484,-0.025344371795654297,-0.030685139819979668,-0.03738431632518768,-0.06486956030130386,0.13478189706802368,-0.03696385398507118,0.05065302923321724,0.0207514688372612,-0.12075372040271759,0.115323506295681,-0.08903984725475311,0.12189985811710358,-0.09836320579051971,-0.10489080101251602,-0.08951357007026672,0.05222870409488678,0.007994052022695541,0.04983600601553917,-0.007446432951837778,0.021766074001789093,0.12800274789333344,0.004566208925098181,0.12004433572292328,0.0481896735727787,-0.048288363963365555,-0.032122597098350525,-0.021168449893593788,-0.14349105954170227,-0.042387984693050385,-0.03840785473585129,0.08436515927314758,-0.10837216675281525,-0.008267834782600403,0.03077191673219204,-0.08698205649852753,0.045224372297525406,-0.03156209737062454,-0.1269804686307907,0.043938446789979935,-0.019132494926452637,-0.02299065701663494,-0.016024798154830933,0.024548685178160667,0.058487728238105774,-0.12438224256038666,-0.09808368235826492,-0.18903608620166779,-0.012201620265841484,-0.011588097549974918,-0.015541015192866325,-0.017230164259672165,0.028443200513720512,0.0071437424048781395,0.08365359157323837,0.044917840510606766,-0.012642492540180683,0.045101821422576904,0.10501938313245773,0.022663909941911697,-0.05342733860015869,-0.04595688357949257,-0.05193087086081505,-0.16109038889408112,-0.12468454986810684,-0.03014351986348629,0.05598551407456398,0.054247643798589706,0.02508643828332424,0.032625965774059296,-0.032417673617601395,-0.04080965369939804,-0.03000864014029503,0.02902935817837715,0.02580598182976246,-0.01380338054150343,0.009327727369964123,-0.06797049194574356,-0.05623719096183777,0.0947885736823082,-0.01036936603486538,-0.019491564482450485,0.08154454827308655,0.005874177906662226,0.13030004501342773,-0.0483725406229496,-0.050930339843034744,-0.008421515114605427,0.06103343144059181,0.11129794269800186,0.11407549679279327,0.005498690064996481,-0.01558475848287344,0.055756889283657074,0.09241151064634323,0.012793022207915783,-0.031156813725829124,-0.09434129297733307,-0.04719499498605728,0.0470418855547905,0.12273301184177399,0.021418431773781776,-0.015665635466575623,0.0289596114307642,0.08248656243085861,-0.03091907873749733,0.06931298226118088,0.09874357283115387,0.038475152105093,-0.09307840466499329,0.017230916768312454,0.016970492899417877,0.02103879489004612,-0.029687626287341118,0.09341173619031906,0.02077595517039299,0.0069314902648329735,-0.01515649352222681,0.02523895911872387,0.015040676109492779,-0.01170157641172409,-0.044802017509937286,0.010375548154115677,0.048305679112672806,0.09628104418516159,0.00797207374125719,-0.10227558016777039,0.08697021752595901,-0.01720513589680195,0.09015293419361115,0.08898582309484482,-0.012414740398526192,0.08290062099695206,0.002158060669898987,0.010762223973870277,0.04326985776424408,-0.051252346485853195,0.03826095908880234,-0.03761360049247742,0.058858614414930344,0.024676749482750893,0.03299502655863762,-0.00041319330921396613,0.004364839754998684,-0.07269890606403351,-0.07766242325305939,0.03620397672057152,-0.012559764087200165,-0.03690711781382561,0.018104344606399536,-0.015980958938598633,-0.044300246983766556,0.05445185303688049
albanien,-0.09424389898777008,0.02665743976831436,0.03472117707133293,-0.03907502815127373,0.11781307309865952,-0.032266125082969666,0.15238603949546814,-0.009354975074529648,0.03018116019666195,0.07147706300020218,0.04332774505019188,-0.08066786825656891,-0.011216655373573303,-0.08644375950098038,-0.034522347152233124,0.03286594897508621,0.03162713348865509,0.007247507106512785,0.0005923983408138156,-0.03129996359348297,-0.04305741935968399,0.01921261101961136,-0.052523910999298096,0.015887198969721794,0.017165927216410637,0.02076069638133049,0.022401614114642143,-0.02602490782737732,0.04987363889813423,-0.0007016036543063819,0.07150846719741821,-0.0424470491707325,0.16481143236160278,0.062375593930482864,0.002334882039576769,-0.007903613150119781,-0.09782307595014572,-0.05020976811647415,0.06933823227882385,0.032381996512413025,-0.014054924249649048,-0.04915270209312439,0.0030833142809569836,0.11397220939397812,-0.051313526928424835,-0.07180090248584747,-0.024895286187529564,0.02523542009294033,0.034161292016506195,-0.017748767510056496,-0.07266882061958313,0.008427731692790985,0.06692788004875183,0.06752099096775055,0.024106066673994064,0.05854225158691406,-0.07625181972980499,-0.03810332715511322,0.0040209973230957985,-0.06654728949069977,0.07136620581150055,-0.0029060563538223505,-0.05346870422363281,-0.02266707643866539,-0.05914844200015068,0.045598000288009644,-0.025697359815239906,-0.008038460277020931,0.08621959388256073,0.06323907524347305,-0.05269007384777069,0.0668552964925766,0.0035914371255785227,-0.0074822260066866875,0.07281680405139923,-0.020161544904112816,0.11395969241857529,0.16508394479751587,0.019924864172935486,-0.10158444941043854,0.12381371855735779,-0.04605195298790932,-0.03937618434429169,0.05457368493080139,-0.03487396612763405,0.027647024020552635,-0.11083368957042694,0.07049356400966644,0.036885686218738556,-0.022142473608255386,-0.06206827610731125,-0.03334558382630348,0.048532482236623764,-0.003261026693508029,-0.018390998244285583,0.05472419783473015,0.047428157180547714,0.023896928876638412,-0.012661956250667572,-0.026077885180711746,0.011843111366033554,-0.03950555995106697,-0.05374860763549805,0.022015824913978577,-0.005833741277456284,-0.0759982317686081,0.051543205976486206,0.05432790145277977,-0.046626973897218704,0.03112390637397766,0.11103734374046326,-0.029169123619794846,0.040601473301649094,0.05469143018126488,-0.06978601962327957,0.005975380074232817,-0.029867328703403473,-0.050606537610292435,-0.002725181868299842,-0.0033373460173606873,-0.07807095348834991,-0.052823107689619064,-0.036901623010635376,0.10709039121866226,-0.06182219833135605,-0.06827156990766525,0.05885783210396767,0.09431994706392288,-0.0197015181183815,0.06637454777956009,0.03880586475133896,-0.04965224117040634,0.03942583128809929,-0.05677177011966705,-0.10867475718259811,-0.014146639034152031,-0.006899513304233551,0.014638980850577354,0.06925608217716217,0.020901164039969444,0.02245582640171051,-0.010302184149622917,0.06187779828906059,-0.013768866658210754,-0.03556900471448898,0.06341385841369629,0.010273393243551254,-0.002609270391985774,0.02619401551783085,0.05278024822473526,0.01775277592241764,0.03862892463803291,0.10063628107309341,-0.015215660445392132,0.001201452687382698,0.017187923192977905,-0.05053086206316948,0.08198285102844238,0.006560984067618847,-0.025901978835463524,-0.057905953377485275,-0.06281829625368118,-0.04739261046051979,0.03294467180967331,0.016197538003325462,0.003980154637247324,-0.0751311257481575,0.02040993422269821,0.06651691347360611,-0.004580644425004721,0.036634087562561035,0.05729877948760986,0.04643196612596512,0.16405466198921204,-0.022960558533668518,-0.06196224316954613,-0.031379155814647675,-0.02261878363788128,-0.02221038192510605,-0.08524437248706818,0.07949317246675491,-0.1121559590101242,-0.04375283047556877,-0.0530816912651062,-0.03777313604950905,-0.03523428738117218,0.0019960985518991947,0.01743336208164692,-0.0008387929992750287,-0.015434058383107185,-0.023172838613390923,-0.05115180462598801,-0.03901682794094086,-0.06422330439090729,-0.054849427193403244,0.07078249007463455,-0.02167397551238537,-0.020779753103852272,-0.08472901582717896,0.014124982059001923,-0.016197124496102333,-0.08912307024002075,0.08125823736190796,0.047988664358854294,-0.06123214215040207,0.02868187427520752,-0.012252972461283207,0.01738658733665943,-0.0030151247046887875,-0.07642549276351929,-0.05310015007853508,0.0130494125187397,0.03746148198843002,-0.05803701654076576,-0.06420301645994186,0.08501923084259033,0.041291311383247375,0.06954130530357361,0.012749671936035156,-0.13188080489635468,-0.018599938601255417,-0.07921001315116882,0.027066189795732498,0.024067740887403488,0.08143182098865509,0.05106455460190773,0.07043693214654922,0.07187306135892868,-0.05067041888833046,0.05885167419910431,0.05878226086497307,0.05197180435061455,0.014804566279053688,-0.0003966453077737242,0.026410983875393867,0.040144581347703934,0.1051090657711029,-0.03096492774784565,-0.01019996590912342,0.05561865493655205,0.0013403084594756365,0.0019815147388726473,-0.04768712446093559,0.020766479894518852,-0.02574186958372593,-0.031537752598524094,0.002958795288577676,0.00675444258376956,0.03600888326764107,0.05950988084077835,-0.01885952241718769,0.03504911810159683,0.036509767174720764,0.06530949473381042,0.05639350414276123,0.07753968238830566,0.03621285408735275,0.06035912409424782,-0.01818474382162094,0.02640412747859955,0.00831620767712593,0.10712652653455734,-0.062067847698926926,-0.030332425609230995,0.009347411803901196,-0.04260937124490738,-0.0024519297294318676,0.07582789659500122,0.05602695420384407,-0.03185063600540161,0.003069407306611538,0.08016261458396912,-0.12417031824588776,-0.07672235369682312,0.11628968268632889,-0.0030795144848525524,-0.01200154796242714,0.0934775099158287,0.1165226548910141,0.07397037744522095,0.17871756851673126,0.085269033908844,-0.106710284948349,-0.04419226571917534,-0.005637187510728836,0.06524781137704849,-0.04599350690841675,-0.04033317416906357,0.08069601655006409,0.006948821246623993,-0.06886570900678635,0.003920095041394234,-0.04442267119884491,-0.038248587399721146,0.022844312712550163,-0.06298661977052689,-0.06569589674472809,-0.05321355164051056,0.18245729804039001,0.0019892994314432144
algerien,0.020120469853281975,-0.0778002068400383,0.050459787249565125,-0.0011481748661026359,0.13111428916454315,-0.06133607402443886,0.005449261050671339,0.026073826476931572,0.08359446376562119,-0.03511293977499008,-0.025191543623805046,-0.08417969197034836,0.016014328226447105,-0.042412783950567245,-0.004629228729754686,0.05695096775889397,0.07851549983024597,0.0073216380551457405,-0.010413873009383678,0.0730067789554596,-0.03999050706624985,0.03551563248038292,0.06295737624168396,0.014850008301436901,-0.03843385726213455,0.07803662866353989,-0.03543905168771744,0.030224408954381943,0.015624972991645336,0.03145395591855049,0.042967721819877625,-0.0379684716463089,0.02110384777188301,0.04183163866400719,0.037385743111371994,-0.011884556151926517,-0.046698808670043945,-0.06459882855415344,0.11201698333024979,0.0020983798895031214,0.01638755574822426,0.06105242297053337,-0.019863944500684738,0.059615954756736755,0.024263951927423477,0.06535658240318298,-0.02434246428310871,0.05209307372570038,-0.05731417238712311,0.05262860283255577,-0.02035241387784481,0.04993516579270363,-0.04645504802465439,0.05065756291151047,0.04730363190174103,-0.007028140593320131,-0.05446349084377289,0.022702138870954514,0.05084877461194992,-0.03695036843419075,-0.042334023863077164,-0.08765023946762085,-0.004119036719202995,0.020222118124365807,0.040490806102752686,0.053627245128154755,0.000752825872041285,-0.1029425635933876,0.01646541617810726,0.042357537895441055,-1.5066655578266364e-05,0.05049190670251846,0.17210914194583893,-0.03867430239915848,0.04020914435386658,0.02609200030565262,-0.01646370254456997,0.0355461910367012,-0.043774090707302094,-0.10243392735719681,0.05621672049164772,0.02904161810874939,0.002254580147564411,0.017459429800510406,0.026172304525971413,0.007688403595238924,0.003399237524718046,0.03280692175030708,0.053695980459451675,0.026675883680582047,0.0026345690712332726,0.012458438985049725,0.02364589273929596,-0.024049395695328712,0.04139275476336479,0.0508824847638607,-0.04420371353626251,-0.022338291630148888,-0.013291946612298489,-0.02904888242483139,0.10835429280996323,-0.04572336748242378,-0.009163642302155495,-0.012427938170731068,-0.07870840281248093,0.012884031981229782,-0.02918405272066593,0.038422632962465286,-0.03937513753771782,0.024386141449213028,0.0382612980902195,0.1205233484506607,-0.033770978450775146,-0.023354588076472282,-0.09297481924295425,0.04625387117266655,0.007898977026343346,-0.1731993705034256,-0.029673386365175247,-0.0876845121383667,-0.07031597197055817,0.011541122570633888,0.07330550998449326,0.06811729818582535,0.028012331575155258,-0.029849287122488022,0.033774882555007935,0.00547344284132123,-0.03170211985707283,0.056337080895900726,0.0700014978647232,0.13490647077560425,-0.03699615225195885,-0.0526246652007103,-0.008572554215788841,0.018892532214522362,0.028867673128843307,0.13023962080478668,0.05971367657184601,0.054873988032341,0.0019705817103385925,0.03460464999079704,0.04854829981923103,0.03144826367497444,-0.005203370936214924,0.020997846499085426,0.002014197176322341,0.004083053674548864,0.04173379763960838,-0.19700850546360016,-0.01116448175162077,-0.001825913437642157,0.09467744827270508,0.04029826074838638,-0.06022699922323227,-0.026445547118782997,0.00886742863804102,0.03652913123369217,-0.16062277555465698,0.0603971853852272,0.02591436170041561,-0.14214637875556946,-0.05527248606085777,-0.05994383245706558,-0.05239851772785187,0.09335435926914215,-0.05567972734570503,-0.007270633243024349,0.02594730816781521,-0.046945784240961075,-0.05200159549713135,0.10233942419290543,0.02781570330262184,0.14614534378051758,-0.07215817272663116,-0.08166538923978806,-0.019939856603741646,0.004622140433639288,-0.006947131361812353,-0.051340896636247635,0.009091955609619617,-0.07648599147796631,-0.05832866579294205,-0.006045149173587561,-0.09640368074178696,-0.11135637760162354,-0.05684850737452507,-0.01975540816783905,-0.0004035201855003834,-0.06587198376655579,-0.04231805354356766,0.045001350343227386,0.026247888803482056,0.043970007449388504,-0.08517785370349884,0.0025933037977665663,0.1015348806977272,0.02906300127506256,-0.07001381367444992,0.017812423408031464,0.0503227524459362,-0.01497712079435587,-0.008664624765515327,-0.07456544041633606,-0.04010576009750366,0.08287516236305237,-0.018879976123571396,0.0632757619023323,-0.04187832772731781,-0.1243758499622345,-0.06538491696119308,-0.06452366709709167,0.006301437504589558,-0.016179237514734268,-0.03182680904865265,-0.010473400354385376,-0.011977283284068108,-0.008709139190614223,0.016005946323275566,0.007095008157193661,0.011347501538693905,0.009360529482364655,-0.004248256795108318,-0.040230654180049896,0.043289877474308014,-0.12882839143276215,0.009353356435894966,-0.03364299610257149,-0.04484999552369118,0.017247170209884644,0.012133182026445866,0.053360048681497574,0.06776539236307144,0.014112163335084915,-0.1408056765794754,-0.010367892682552338,-0.03180507570505142,0.05341411754488945,0.09611041843891144,-0.1303359568119049,0.00840730406343937,0.01869921199977398,0.01359905581921339,0.0033640749752521515,-0.00915476493537426,0.055930834263563156,0.013535396195948124,0.023905761539936066,0.0499456413090229,0.0399579182267189,0.04567398875951767,0.1260523647069931,0.028373267501592636,0.08904274553060532,-0.010834326967597008,0.0692145824432373,0.0028657889924943447,-0.02915584109723568,-0.059015218168497086,-0.011403555050492287,-0.07370783388614655,0.11936204135417938,-0.012751028873026371,0.03946341946721077,0.05757294222712517,-0.10072040557861328,0.02639598399400711,-0.014282377436757088,-0.07866362482309341,-0.013625850901007652,0.062478628009557724,-0.037150971591472626,-0.07372290641069412,-0.12117841839790344,0.13504163920879364,0.04443393647670746,-0.040730834007263184,0.09757979214191437,-0.03145567700266838,0.10415390878915787,-0.015526673756539822,0.015262601897120476,-0.06360430270433426,0.012937579303979874,-0.013211471028625965,0.03750821202993393,-0.024417230859398842,0.021334229037165642,0.038566477596759796,-0.006959747988730669,0.1130230575799942,-0.03585154935717583,-0.046951066702604294,-0.009907273575663567,0.06105876341462135,-0.014534416608512402,-0.05189921706914902,-0.12528671324253082,0.034526050090789795,-0.01825273036956787
angola,0.014496242627501488,-0.025798827409744263,-0.02233130857348442,-0.03716634586453438,0.10632020980119705,-0.08299724012613297,0.020528117194771767,0.014892692677676678,0.08429388701915741,-0.0679948702454567,-0.04664430767297745,-0.05756812170147896,-0.08051110059022903,0.08729781955480576,0.041941531002521515,0.01519862748682499,0.051785774528980255,0.01367507316172123,-0.04694924131035805,-0.014032951556146145,-0.04566027596592903,-0.03832582011818886,0.015487100929021835,-0.012365340255200863,0.09096811711788177,-0.09569976478815079,0.0279441736638546,0.02705177292227745,0.020097840577363968,0.02948000654578209,0.007469191215932369,0.15329541265964508,0.1098736822605133,-0.020938433706760406,0.0032583815045654774,-0.09257663786411285,0.024960851296782494,-0.03430384770035744,0.06963459402322769,0.0955561026930809,0.005896379705518484,0.0034378059208393097,-0.021226750686764717,0.008124087005853653,0.022863207384943962,-0.030198469758033752,-0.007076793350279331,0.07065875083208084,0.07341183722019196,0.05474582314491272,-0.08763402700424194,-0.006648531183600426,-0.034238699823617935,0.006883378606289625,0.03965257480740547,0.014992536045610905,-0.12224671989679337,0.032072052359580994,0.11287011951208115,-0.017663422971963882,-0.03118620254099369,0.007435012608766556,0.0113583505153656,0.09935921430587769,0.041673313826322556,0.00806322880089283,-0.022297123447060585,-0.022390825673937798,0.11771632730960846,0.005412511061877012,-0.029857302084565163,-0.061631474643945694,-0.031331390142440796,-0.0519314669072628,0.015124309808015823,0.04004456475377083,-0.01616237312555313,0.03175349533557892,0.03206789866089821,-0.16121068596839905,-0.010808796621859074,0.04773524031043053,-0.06925632059574127,-0.032513342797756195,0.13135798275470734,-0.005681099835783243,0.08167832344770432,-0.037778113037347794,0.056345079094171524,0.00760309025645256,-0.06291588395833969,0.006906184367835522,0.003137740772217512,-0.026734815910458565,-0.03271093592047691,0.04885348305106163,0.023299440741539,-0.1132022887468338,0.09918300807476044,-0.06362231075763702,0.07976334542036057,0.012655813246965408,0.014563873410224915,0.03828150033950806,-0.09373604506254196,-0.08159514516592026,0.09459748864173889,0.05360247194766998,0.02970454841852188,-0.048093996942043304,-0.018370557576417923,-0.06208962947130203,0.02585792727768421,4.971220550942235e-05,-0.020911678671836853,0.026391800493001938,-0.0803186446428299,-0.05292065069079399,-0.0015825842274352908,-0.0861087217926979,-0.050018396228551865,-0.01887744478881359,0.029102293774485588,-0.035122331231832504,0.04174546152353287,0.022340871393680573,0.036844730377197266,0.035814132541418076,-0.012363170273602009,0.10063891112804413,0.026790743693709373,0.01966845989227295,-0.06962774693965912,-0.029729720205068588,0.047554291784763336,-0.02411755919456482,-0.08654026687145233,0.005486184265464544,0.03374488279223442,0.07122106850147247,0.012436778284609318,-0.07409591972827911,0.003739196341484785,0.0234665647149086,-0.016680020838975906,-0.057942815124988556,0.08010481297969818,0.0009923881152644753,-0.0842880979180336,-0.07301321625709534,-0.0396074503660202,0.0684015080332756,0.0961245447397232,0.014690639451146126,0.06933923810720444,-0.10448647290468216,0.0017460306407883763,0.0446084626019001,-0.03714534267783165,0.1676507592201233,-0.0030001106206327677,-0.05575627461075783,-0.09563454985618591,0.006444691214710474,-0.08710923045873642,0.0029237205162644386,-0.032806746661663055,0.04248853400349617,0.1050596609711647,-0.08880245685577393,0.029224246740341187,-0.00721569312736392,-0.07243503630161285,0.04971035197377205,-0.07249148190021515,0.04601969197392464,0.029206350445747375,-0.039592575281858444,0.053270045667886734,-0.1901615411043167,0.019828543066978455,-0.034728482365608215,-0.022607402876019478,-0.0792742520570755,-0.002242174232378602,-0.03771901875734329,0.03436822444200516,0.024854110553860664,-0.07317037880420685,0.040626782923936844,-0.05372792109847069,0.010529219172894955,-0.06158740445971489,0.05935869365930557,-0.0043916525319218636,0.008050846867263317,0.06573986262083054,0.022028516978025436,-0.08763352781534195,0.03407900780439377,0.08504945784807205,0.03306913003325462,0.05399567261338234,-0.028979061171412468,0.010386019945144653,0.11495015770196915,-0.0408361554145813,0.060520995408296585,-0.04161820188164711,-0.12134821712970734,-0.013413798063993454,0.0023947355803102255,-0.03954070433974266,-0.0769628956913948,0.020039457827806473,0.11222171783447266,-0.06214549392461777,0.03220704570412636,-0.0114085478708148,-0.03498790040612221,-0.040364500135183334,-0.03741653263568878,-0.05346672236919403,0.04888469725847244,0.12681743502616882,-0.06026776507496834,0.04742514342069626,-0.07042332738637924,-0.05899455398321152,0.05207786709070206,0.06882656365633011,0.07430682331323624,-0.01886029914021492,0.0463036447763443,0.03166792169213295,-0.031451258808374405,-0.00532868318259716,0.016980217769742012,0.06219020113348961,-0.024743223562836647,-0.01767626404762268,0.015482557006180286,-0.04072418436408043,-0.05485859513282776,0.052717823535203934,-0.012697950936853886,0.07786981761455536,-0.012992138043045998,0.09226831048727036,0.06758007407188416,0.030929023399949074,-0.0021507074125111103,-0.04517514631152153,0.10322380810976028,0.0939272865653038,0.08661428093910217,0.00790537428110838,-0.03238612413406372,-0.0057364641688764095,-0.11198699474334717,-0.1029888466000557,0.04901513829827309,0.11624480038881302,0.05611792951822281,0.01811056397855282,0.013195965439081192,-0.04827313870191574,0.02378903143107891,0.005553370341658592,0.042936667799949646,0.006959793157875538,-0.005986017175018787,1.2919498658447992e-05,-0.10033576935529709,0.09382583200931549,-0.06239701062440872,-0.006265171803534031,0.1082526296377182,0.016936853528022766,-0.00612472090870142,0.08884783089160919,-0.010965256951749325,-0.02448941580951214,-0.04504745453596115,0.023984787985682487,-0.08380017429590225,-0.05302709713578224,0.07673037797212601,-0.06089898198843002,-0.014369698241353035,0.036293040961027145,-0.056426580995321274,0.04841500148177147,0.06570993363857269,0.04069497808814049,0.04118921235203743,0.010276160202920437,0.00012297443754505366,-0.0018204774241894484,-0.04188457131385803
argentinien,-0.08140482008457184,0.01412756834179163,0.05814993008971214,-0.02466847561299801,0.05842593312263489,0.01750914938747883,-0.014877229928970337,-0.05119254067540169,0.09357323497533798,-0.14977474510669708,-0.022794093936681747,-0.03582410886883736,-0.12604184448719025,0.03691669926047325,0.06428296118974686,0.03475657477974892,-0.03395344316959381,0.013541985303163528,-0.059110213071107864,0.038722217082977295,-0.05041646584868431,-0.021519841626286507,0.019591646268963814,0.07199288159608841,-0.080208420753479,0.08074843883514404,0.03963464871048927,-0.10506357252597809,0.04533066973090172,0.04873000457882881,0.06296037137508392,0.01106700673699379,0.038639821112155914,-0.03505504131317139,-0.04479401931166649,0.007590077351778746,-0.037963248789310455,0.008636358194053173,0.08086614310741425,0.04646691679954529,0.06887394189834595,0.11069290339946747,0.05483228713274002,0.04996632784605026,-0.011536511592566967,0.007238840218633413,-0.03587428480386734,0.02977941371500492,0.0300376508384943,0.04512598365545273,-0.016978930681943893,-0.04974868521094322,-0.0009514694102108479,-0.0037117721512913704,0.023434016853570938,-0.04559847712516785,-0.06394240260124207,-0.07668562233448029,0.01664251647889614,-0.03244227543473244,-0.03653496876358986,-0.04612916707992554,-0.03519163653254509,0.026700682938098907,0.027417022734880447,-0.011143879033625126,-0.01085115410387516,-0.0454789362847805,-0.039535023272037506,0.03480582684278488,-0.04095068946480751,-0.046848099678754807,-0.02165796421468258,0.012066749855875969,0.17172007262706757,-0.012255151756107807,0.023193297907710075,0.10749723762273788,-0.05132504552602768,-0.06584685295820236,0.11181096732616425,0.07468587160110474,0.004746919497847557,-0.00843838881701231,0.046783044934272766,0.10768231004476547,-0.027591723948717117,-0.09808667749166489,0.043597184121608734,0.07691951096057892,-0.020715272054076195,0.056819818913936615,-0.04509740695357323,-0.11070781946182251,0.015146310441195965,-0.010575136169791222,-0.005229039583355188,0.0280868262052536,0.1510486602783203,-0.04394300654530525,0.0314139686524868,-0.05831463634967804,-0.009175892919301987,0.07183718681335449,-0.08271054178476334,-0.0803031474351883,0.015790697187185287,-9.203284571412951e-05,-0.06264306604862213,-0.06892576813697815,-0.0013884954387322068,-0.1034793108701706,-0.040554825216531754,-0.05492877960205078,-0.0571158230304718,0.03526943549513817,-0.022255878895521164,-0.06733153015375137,-0.0461973138153553,-0.06257816404104233,0.0011151384096592665,-0.055003780871629715,-0.014589721336960793,0.06456397473812103,0.020265527069568634,-0.08940340578556061,-0.036274660378694534,-0.0732475072145462,-0.03927544876933098,0.01916704885661602,0.037187475711107254,-0.014335381798446178,-0.07107697427272797,-0.056043095886707306,-0.019437918439507484,0.03201315551996231,0.033171992748975754,0.05277407541871071,0.013840937986969948,-0.04207112267613411,-0.06858743727207184,-0.07570064067840576,0.020789869129657745,0.09639690816402435,0.027689900249242783,0.02278304658830166,-0.02762838825583458,-0.018995415419340134,0.007038237992674112,-0.10871671885251999,0.03061603754758835,-0.0075092799961566925,-0.010100312530994415,-0.03855929151177406,0.03089725784957409,-0.03495217114686966,0.009403943084180355,0.03614439070224762,0.10331697762012482,0.04514792561531067,0.028128208592534065,-0.20905356109142303,-0.04592052102088928,0.030132615938782692,-0.0808916762471199,0.07141497731208801,-0.0005153812235221267,-0.07881953567266464,0.06541065126657486,0.09263984858989716,0.1044955924153328,-0.019702313467860222,0.11242279410362244,-0.10911110788583755,-0.07008729875087738,-0.04247862473130226,-0.02275300770998001,0.04841021075844765,0.02904503233730793,-0.09003523737192154,-0.01886947825551033,-0.04934139922261238,-0.12211333960294724,-0.0419175811111927,0.02652556076645851,-0.02002897672355175,-0.011421604081988335,-0.0019567483104765415,0.04575611650943756,-0.01597856730222702,0.03875833377242088,-0.09478747099637985,-0.10194641351699829,0.008545713499188423,-0.0720098540186882,-0.06478677690029144,-0.05805462971329689,0.03285853564739227,0.0032332916744053364,-0.0294585432857275,-0.06972809135913849,0.04124530777335167,-0.0317302867770195,0.035990793257951736,0.0025280138943344355,0.13021454215049744,-0.031173212453722954,-0.06675730645656586,-0.08220022171735764,-0.010092002339661121,0.002657179953530431,-0.012254332192242146,-0.02155551128089428,0.018451128154993057,0.08552372455596924,0.001781025086529553,0.03855152428150177,-0.06989394873380661,-0.044359270483255386,0.005679260939359665,-0.014035766944289207,-0.04688814654946327,0.05894509702920914,0.0631517842411995,0.15988263487815857,-0.08692631125450134,0.04471047967672348,-0.02529444731771946,0.0028125212993472815,0.07171740382909775,-0.06606827676296234,-0.028791658580303192,0.04126419872045517,-0.03240031376481056,0.02618671953678131,0.12115809321403503,-0.036542169749736786,0.08442987501621246,-0.04357543960213661,-0.02985859476029873,-0.011997444555163383,0.03867606073617935,0.010483535937964916,0.059888288378715515,0.013829797506332397,0.05190616846084595,-0.004800084512680769,-0.05819350481033325,-0.03307272121310234,0.11050576716661453,-0.0076793283224105835,-0.009503907524049282,0.031731754541397095,0.07517683506011963,-0.029298676177859306,0.004425388295203447,0.007646686397492886,-0.017621705308556557,0.01760098896920681,0.04277381673455238,0.013488510623574257,-0.020769992843270302,-0.02629890851676464,0.005477695260196924,0.0033547095954418182,0.0030126303900033236,0.04230509325861931,0.09384961426258087,-0.05018674582242966,-0.01391623355448246,0.08819925785064697,0.07358241826295853,-0.016329387202858925,-0.04771782457828522,0.052249711006879807,-0.09142442047595978,0.035301581025123596,0.13375064730644226,0.07232660800218582,0.06542063504457474,0.04897082597017288,0.019297756254673004,0.029379645362496376,0.0460127592086792,0.06837227940559387,-0.11101611703634262,-0.1416132152080536,0.013130025006830692,0.06203008443117142,-0.05753355473279953,0.029642833396792412,-0.009011994116008282,-0.005782742984592915,0.038057852536439896,0.018140845000743866,0.037831198424100876,0.048170533031225204,-0.015312330797314644,0.030665775761008263,-0.0897265374660492
armenien,-0.04031248763203621,-0.08168204873800278,0.17469635605812073,-0.019591083750128746,0.09505793452262878,-0.021057192236185074,-0.018392831087112427,0.07106167823076248,-0.007853769697248936,0.154405415058136,0.007157270330935717,0.029664216563105583,-0.07862216979265213,-0.06058245152235031,0.04445204138755798,0.04880952462553978,0.0045246584340929985,-0.013427838683128357,0.021359700709581375,0.12786997854709625,-0.02071542479097843,-0.0473906509578228,-0.03311673551797867,-0.015286507084965706,0.006750870496034622,-0.006987478118389845,-0.05780480429530144,-0.005106793716549873,0.0064556412398815155,-0.009126508608460426,0.05574238672852516,-0.06794872134923935,0.05180450901389122,-0.00732424994930625,0.06003090366721153,0.03539078310132027,-0.13010293245315552,0.06785210222005844,-0.022691939026117325,-0.008006439544260502,0.038679856806993484,0.0361650213599205,0.0007391309482045472,0.057387299835681915,0.005736117716878653,-0.04622287303209305,-0.0022622921969741583,0.02422083541750908,-0.021457860246300697,0.010966683737933636,-0.02652246505022049,0.06609966605901718,0.005270977038890123,-0.010331717319786549,0.0029038898646831512,0.1265004724264145,-0.040769848972558975,0.008995702490210533,0.05157318338751793,0.03340067341923714,-0.03151761740446091,-0.03632697835564613,0.01139270793646574,-0.04673095420002937,-0.026753956452012062,-0.002159066731110215,0.10781046003103256,-0.09279019385576248,0.008355858735740185,0.10600487142801285,0.0438576377928257,-0.07168298959732056,0.02389366179704666,-0.0758967399597168,0.04038812220096588,0.052557434886693954,0.05335873365402222,0.01852855645120144,-0.05534584820270538,-0.06420338898897171,0.055810730904340744,0.0019050175324082375,0.012357471510767937,-0.09434850513935089,0.059734344482421875,0.13149140775203705,0.02872842736542225,-0.09426502138376236,-0.008393259719014168,-0.050395864993333817,0.023661626502871513,0.012423229403793812,0.011007696390151978,0.0745554119348526,-0.027739638462662697,-0.09159833192825317,0.03549831360578537,0.040334537625312805,-0.041538920253515244,-0.06578441709280014,0.056428730487823486,-0.06489639729261398,0.15380819141864777,0.02337755635380745,-0.02458084002137184,0.004166986793279648,0.0953201949596405,-0.10718359798192978,-0.052173055708408356,-0.02662285603582859,0.008815630339086056,0.01306948158890009,0.011573053896427155,-0.006049782037734985,-0.009996935725212097,-0.02065541036427021,-0.03446207568049431,-0.0296291746199131,0.07754766941070557,-0.03402841463685036,0.01767118275165558,0.025226417928934097,0.012683686800301075,0.16459503769874573,0.06157702952623367,0.0074253627099096775,-0.058662816882133484,-0.05117602273821831,-0.05433756858110428,0.11927579343318939,0.04623806104063988,-0.057640716433525085,0.09639399498701096,-0.00962543673813343,-0.003724251873791218,0.0017480644164606929,-0.057250700891017914,0.0552118644118309,0.008886441588401794,0.09619937092065811,0.04367298260331154,-0.04218808189034462,0.02503165416419506,-0.003633582266047597,-0.008431477472186089,-0.01785619743168354,-0.007246957626193762,0.04512232914566994,-0.06742879748344421,-0.10158959031105042,-0.040366195142269135,-0.022297348827123642,0.009896322153508663,-0.03091762587428093,-0.04076852276921272,-0.07876969128847122,-0.06116194650530815,0.08669351786375046,0.02896357886493206,0.004221746232360601,-0.05958782136440277,-0.042740728706121445,-0.0310500655323267,-0.016799254342913628,-0.005959307309240103,0.03397916257381439,0.006378477904945612,0.015431255102157593,0.06414920091629028,-0.02481820434331894,0.073942169547081,0.055565834045410156,-0.024028893560171127,0.04939427971839905,0.038065895438194275,-0.10208070278167725,0.04696939140558243,-0.060904767364263535,-0.008482019416987896,-0.07364655286073685,0.09306815266609192,0.035048749297857285,0.06378554552793503,-0.06699422746896744,-0.017983747646212578,-0.1044965609908104,-0.018732884898781776,-0.023803003132343292,-0.018110046163201332,-0.02377038449048996,0.028485776856541634,-0.10793709009885788,0.028439315035939217,0.0654299259185791,-0.1059948056936264,0.008215687237679958,0.07296270877122879,-0.007914340123534203,-0.1055859923362732,-0.002974753500893712,-0.041935328394174576,-0.03632230684161186,-0.011424468830227852,0.05439536273479462,0.024954013526439667,0.05180883780121803,-0.014506588689982891,0.07986776530742645,-0.08284563571214676,-0.13800114393234253,-0.050829894840717316,0.04365956038236618,-0.07111214846372604,0.005682563874870539,0.03524037078022957,0.054290253669023514,-0.006373049691319466,-0.05773566663265228,0.014515725895762444,0.014233226887881756,-0.010982529260218143,-0.05664053186774254,-0.060521241277456284,-0.01991242542862892,0.061524368822574615,-0.07813820242881775,-0.004830140620470047,-0.10311010479927063,-0.0334407202899456,0.15574660897254944,0.0693838894367218,-0.021507130935788155,0.005723678972572088,-0.022792547941207886,0.00917917862534523,0.06585152447223663,-0.03356851637363434,0.04309709742665291,0.010215533897280693,-0.054689813405275345,-0.1817488670349121,0.010773580521345139,-0.026250768452882767,0.0015983486082404852,0.025286288931965828,0.0933397188782692,0.026926521211862564,0.03356967493891716,0.06449177116155624,-0.025984380394220352,0.046243444085121155,-0.009078003466129303,-0.03494386002421379,0.041845448315143585,0.029621506109833717,0.0335569866001606,0.06159849092364311,0.10037173330783844,-0.05373665690422058,0.029427634552121162,0.05260095000267029,0.04891463741660118,0.04427192360162735,0.06919720023870468,-0.03777319937944412,0.03079066053032875,-0.0017701092874631286,-0.09133132547140121,0.004660655744373798,-0.020108209922909737,0.05901998281478882,0.07580605149269104,0.06457110494375229,-0.04515624791383743,-0.007940578274428844,-0.0027125405613332987,0.042159054428339005,0.014209113083779812,0.0021808387245982885,-0.02949558012187481,-0.13936322927474976,0.04566610977053642,-0.03545282036066055,0.07778864353895187,0.012428604997694492,0.007882121950387955,-0.04956502094864845,-0.07404069602489471,0.02341647818684578,0.013238591141998768,-0.0886337161064148,0.20001789927482605,0.05024202540516853,0.06945974379777908,-0.0065854135900735855,-0.015498248860239983,-0.11102203279733658,-0.007400787901133299,0.02860410511493683,0.022302603349089622
aserbaidschan,0.08414656668901443,-0.032134585082530975,0.07792173326015472,-0.021109795197844505,0.09733878076076508,0.06739179790019989,0.008352013304829597,0.009474273771047592,0.013180119916796684,0.07051623612642288,-0.01430513709783554,-0.022144533693790436,-0.10237263143062592,0.05127232149243355,-0.012018038891255856,0.09089700877666473,-0.042865049093961716,0.08885656297206879,-0.009033956564962864,0.010273831896483898,-0.06915924698114395,-0.03738519549369812,-0.04458748549222946,-0.017511654645204544,0.01354228425770998,0.0159139484167099,-0.06459208577871323,0.05285853147506714,-0.07352237403392792,0.06654839217662811,0.12310419976711273,-0.014049955643713474,0.12224546074867249,-0.049625325947999954,0.04406741261482239,0.0783352330327034,-0.10531570017337799,0.0256622526794672,0.028757764026522636,0.061251018196344376,0.020755326375365257,-0.04916316643357277,0.07629811763763428,0.039053160697221756,-0.017044341191649437,0.019606122747063637,0.019205136224627495,0.01573980040848255,0.009487641975283623,-0.007203808985650539,-0.02381233125925064,0.11104315519332886,0.049038369208574295,0.06165260821580887,0.0027024620212614536,0.026485253125429153,-0.028959140181541443,-0.019461840391159058,0.020394735038280487,0.08635730296373367,0.031773053109645844,-0.04330379143357277,-0.09808242321014404,-0.030836571007966995,0.03349532186985016,0.08441946655511856,0.040875036269426346,-0.05589080601930618,0.06036810576915741,0.004920726176351309,-0.019018644466996193,-0.0011650280794128776,0.06467584520578384,-0.035370707511901855,-0.03017568588256836,0.135625422000885,0.09324865788221359,0.0017795723397284746,-0.02565147913992405,-0.017304236069321632,0.04297107458114624,-0.02266598865389824,-0.01921289600431919,-0.04857746139168739,0.13426412642002106,0.057567939162254333,-0.06972236186265945,-0.07913394272327423,0.07453848421573639,0.06298215687274933,-0.04947904869914055,-0.031590353697538376,0.01193489134311676,0.0922425240278244,-0.07952404022216797,-0.09795433282852173,0.012074507772922516,-0.005426265764981508,0.08320797979831696,-0.07319344580173492,0.09657581150531769,-0.05276899039745331,0.1297181248664856,0.008464536629617214,-0.049866463989019394,0.05152000114321709,0.06050742045044899,0.049900900572538376,-0.03877001628279686,-0.10421484708786011,0.006524995900690556,0.0010349104413762689,0.018322324380278587,0.007907360792160034,-0.06466276198625565,-0.053251978009939194,-0.028471624478697777,-0.042586799710989,0.04269695654511452,-0.04219527542591095,-0.05373847484588623,-0.0701373815536499,-0.05302439257502556,0.15348951518535614,0.10839278250932693,-0.003429442411288619,-0.025623345747590065,-0.047960296273231506,-0.02977384626865387,0.05127071216702461,0.05228758230805397,-0.04962948337197304,-0.015883419662714005,-0.04301447048783302,-0.03968924283981323,0.002759871305897832,-0.06254538148641586,0.1089993417263031,0.07520763576030731,0.10832539945840836,0.013993446715176105,-0.00358029967173934,0.04612885043025017,0.11702988296747208,-0.007308766711503267,0.015667805448174477,-0.03129669651389122,-0.024851951748132706,-0.006403359584510326,0.018826499581336975,0.007967839948832989,-0.027663955464959145,0.06252475827932358,-0.019434906542301178,-0.06043647602200508,-0.020404251292347908,0.03364796191453934,0.13321824371814728,-0.021810246631503105,0.009493989869952202,-0.10142345726490021,-0.04053825885057449,0.06636428833007812,-0.010881228372454643,0.027110375463962555,-0.018343748524785042,0.0037629033904522657,0.09988551586866379,0.08650700747966766,0.031185662373900414,0.08579675108194351,0.03572233393788338,-0.07009439915418625,-0.014748777262866497,0.01661079190671444,-0.06066238880157471,-0.03890891745686531,-0.00888577476143837,-0.09253719449043274,-0.042977988719940186,-0.01989501528441906,-0.04328981041908264,0.016337379813194275,-0.10584638267755508,-0.036460116505622864,-0.11136261373758316,0.015378380194306374,-0.042442437261343,0.005409060511738062,0.013935740105807781,0.09342432022094727,-0.10298022627830505,0.01951100304722786,0.0033679690677672625,-0.10826060175895691,-0.024153655394911766,0.051440585404634476,0.04532171040773392,-0.11989886313676834,0.03258490189909935,-0.010537962429225445,0.0072923325933516026,-0.003952737897634506,-0.02874281257390976,0.023979978635907173,0.04240378737449646,-0.038588155061006546,0.08424344658851624,-0.006653189659118652,-0.0972861498594284,-0.058598004281520844,-0.003229015041142702,-0.06501613557338715,-0.04146752133965492,0.05384295806288719,0.08177895098924637,0.048249151557683945,-0.01444987952709198,0.039553817361593246,0.01370519120246172,-0.05611780285835266,-0.03324851393699646,0.025072241201996803,-0.016479767858982086,0.04206810146570206,-0.07133583724498749,0.03473539277911186,-0.08343353867530823,-0.026938078925013542,0.08016595244407654,0.06481076031923294,0.07323207706212997,-0.015288536436855793,-7.84393705544062e-05,-0.03996254876255989,0.07475842535495758,-0.0019295793026685715,0.007663360796868801,0.09725815802812576,-0.058345939964056015,-0.10730577260255814,0.02928902581334114,-0.037541765719652176,0.01885877549648285,0.060689475387334824,0.04509275034070015,0.01173942256718874,-0.004994399845600128,0.07258104532957077,0.007583560887724161,0.11278606951236725,0.000289982242975384,0.021675771102309227,0.07914675027132034,0.022910017520189285,-0.024048881605267525,0.00046102871419861913,0.09939805418252945,-0.004356354475021362,-0.04478900879621506,-0.01411457546055317,0.06663408875465393,0.058117665350437164,-0.0006678866338916123,-0.010795075446367264,0.14023612439632416,0.00717754615470767,0.07073739916086197,-0.013625229708850384,0.06523947417736053,-0.008164175786077976,0.005805433262139559,-0.04632527008652687,-0.07658429443836212,0.06502215564250946,-0.039358951151371,-0.10933271795511246,0.02328874170780182,-0.002399281831458211,-0.0027642976492643356,-0.005822168663144112,0.14221405982971191,-0.05470003932714462,-0.07036612182855606,-0.04385785758495331,-0.057094547897577286,0.06649689376354218,0.02303043194115162,0.06167628988623619,0.040431909263134,-0.06023387238383293,0.012103136628866196,0.07595895230770111,0.05984429270029068,-0.0837283656001091,0.04940261319279671,-0.08531252294778824,0.04917530715465546,-0.044549692422151566,-0.033694829791784286
äthiopien,-0.0025299079716205597,-0.001304336474277079,0.00038318114820867777,-0.02409450337290764,0.0012561773182824254,-0.03554411605000496,-0.007073362823575735,-0.04903775453567505,0.05445221811532974,0.012996064499020576,-0.10040538012981415,0.008384853601455688,-0.07572414726018906,0.024872496724128723,-0.038042861968278885,0.0999138355255127,0.03916240483522415,-0.020603813230991364,0.03388063609600067,-0.03191772475838661,-0.017500095069408417,-0.014699667692184448,0.043716032058000565,-0.012946867384016514,0.05017513409256935,-0.025344258174300194,0.01673673652112484,0.0035293763503432274,0.1016896665096283,-0.022074386477470398,0.05995664745569229,0.03868555277585983,0.18003800511360168,-0.004469413310289383,-0.0291616078466177,-0.03526146337389946,-0.003564549842849374,-0.02248942106962204,0.0942281112074852,0.031439200043678284,-0.11419498920440674,-0.04550392925739288,-0.04620148241519928,0.0005465816939249635,0.022595977410674095,0.001221527811139822,0.009404318407177925,0.031976159662008286,-0.03175341337919235,-0.008466114290058613,-0.1389736533164978,0.03164573386311531,0.05136648938059807,0.13908256590366364,-0.049743615090847015,0.03510482236742973,0.0010758471908047795,-0.04239930212497711,-0.06333266943693161,-0.08809823542833328,-0.0215122289955616,0.02225145325064659,-0.052115827798843384,-0.03375108167529106,0.09695697575807571,0.08705027401447296,-0.10333646833896637,-0.04283483698964119,0.017532436177134514,-0.13906683027744293,0.04457452520728111,-0.02522149123251438,0.12775282561779022,-0.007767274044454098,0.021008174866437912,0.0478031262755394,-0.017453571781516075,0.02108740247786045,0.05109955742955208,-0.16160912811756134,0.11521346867084503,0.03354020044207573,-0.056069497019052505,-0.10910989344120026,0.10571666061878204,0.08673443645238876,-0.012423388659954071,-0.04350119084119797,0.011323374696075916,-0.035392601042985916,-0.018366724252700806,-0.00034343081642873585,-0.001210983726195991,0.07063442468643188,-0.08991821855306625,0.0029543207492679358,-0.05441299453377724,-0.06838738918304443,0.02516445703804493,-0.13169904053211212,0.11912600696086884,0.023124229162931442,0.047684792429208755,-0.038123439997434616,-0.033319007605314255,-0.04080856591463089,-0.018634339794516563,0.09537091106176376,0.025098657235503197,-0.04227732867002487,0.07304693013429642,-0.028715377673506737,0.10200905054807663,0.02989349327981472,0.018121318891644478,0.09718835353851318,-0.00043150215060450137,-0.09970073401927948,-0.07285825908184052,0.02294171042740345,-0.009485924616456032,-0.02305716648697853,-0.07380910962820053,0.005104425363242626,-0.008363890461623669,0.06595314294099808,0.05811948701739311,-0.04268040508031845,0.003921485040336847,0.10087539255619049,0.011222254484891891,0.043857019394636154,-0.040073126554489136,-0.05827200412750244,-0.045110877603292465,0.04626721516251564,-0.038129519671201706,0.09392743557691574,0.13890333473682404,0.06072593107819557,-0.04051945358514786,0.008588602766394615,0.03193600848317146,0.017885377630591393,0.08136750757694244,-0.11595533788204193,0.026718199253082275,0.057748645544052124,0.011149318888783455,-0.11048068106174469,-0.014316334389150143,0.09152080863714218,0.04590334743261337,0.000573983124922961,0.04819544032216072,0.003859698073938489,-0.017993591725826263,0.03250712528824806,-0.03489549830555916,-0.00016173145559150726,-0.0506025031208992,-0.06442684680223465,0.062144193798303604,-0.013247642666101456,0.0017619021236896515,0.013355834409594536,-0.0251576229929924,0.08083876967430115,0.01098302286118269,0.05756039917469025,0.07575765997171402,0.00898302998393774,0.012955709360539913,-0.015106866136193275,-0.009326282888650894,-0.028957879170775414,-0.03159274160861969,0.06846946477890015,0.022618290036916733,-0.07064560800790787,-0.05218448117375374,-0.012635610066354275,0.030512144789099693,-0.010255417786538601,-0.035531967878341675,0.024973807856440544,-0.003848559921607375,0.0057377442717552185,0.05835740640759468,-0.1358269900083542,0.007790990173816681,0.01573222316801548,-0.11830135434865952,0.06920701265335083,0.010972498916089535,-0.017623793333768845,-0.04277556762099266,-0.05603737384080887,-0.07361485064029694,-0.08035239577293396,0.05402589961886406,0.027435405179858208,-0.02837175317108631,0.01553733553737402,0.008543189615011215,0.10228035598993301,-0.007871240377426147,-0.046610601246356964,-0.014868001453578472,-0.037626881152391434,-0.06399892270565033,-0.1365441083908081,-0.007185944356024265,0.07389963418245316,-0.010074060410261154,0.054123666137456894,-0.03671630844473839,0.039314258843660355,0.008465138264000416,0.014850635081529617,-0.10804896801710129,-0.03822193294763565,0.027521969750523567,-0.037589479237794876,0.014369864016771317,-0.10548095405101776,-0.0317520909011364,-0.06483198702335358,-0.022757919505238533,-0.013788580894470215,0.04150770604610443,0.07045357674360275,0.01783031038939953,-0.018340354785323143,0.0044675664976239204,0.03679998219013214,-0.04427680745720863,0.0005673595005646348,0.11512613296508789,-0.026460209861397743,-0.03677288815379143,0.06925959140062332,-0.0024559448938816786,-0.02120799757540226,0.08966401219367981,0.10163909196853638,0.07230488210916519,-0.04064663499593735,0.04614351689815521,-0.003936812747269869,0.01973002217710018,-0.03266335651278496,-0.0804312601685524,0.07657437771558762,0.10450906306505203,0.005676402244716883,-0.08205296099185944,0.0532318577170372,0.019760582596063614,0.0108471205458045,0.005281809251755476,0.08896349370479584,0.03197161853313446,0.026027848944067955,-0.07113006711006165,-0.015995023772120476,0.04285825043916702,0.06038068234920502,-0.09115059673786163,0.07091602683067322,0.06104009971022606,0.048158708959817886,-0.003173145465552807,-0.0660378634929657,0.10589652508497238,0.015147393569350243,0.0848163515329361,0.06445594131946564,0.025808872655034065,0.019071195274591446,0.049778345972299576,0.037857647985219955,-0.0542212575674057,-0.0058776987716555595,-0.0145677225664258,0.0019870519172400236,0.019073333591222763,0.04771047458052635,0.06989633291959763,0.029672229662537575,-0.008125519379973412,-0.16468596458435059,-0.0461961068212986,0.021755047142505646,-0.09467864036560059,0.02061329409480095,-0.05718366056680679,-0.04973038285970688,-0.06864307075738907,0.0014352538855746388
australien,-0.05983850359916687,0.006316973827779293,0.04284675046801567,-0.003644897835329175,0.17077895998954773,0.046567633748054504,0.033279627561569214,0.011404430493712425,0.11381275206804276,-0.08786442875862122,0.023849552497267723,0.006686266511678696,0.037593185901641846,-0.10364016890525818,-0.019075755029916763,0.07590342313051224,-0.021956223994493484,0.08618161827325821,0.009594302624464035,0.046285971999168396,0.07907789945602417,-0.011758550070226192,-0.0025787092745304108,0.004391974303871393,0.0032219502609223127,0.023158257827162743,-0.036314453929662704,0.07700169831514359,0.05755188316106796,0.01952761597931385,-0.004979488905519247,0.03313872218132019,0.0162027720361948,-0.05168173834681511,-0.012095549143850803,-0.020081477239727974,-0.019901016727089882,-0.0331023670732975,0.07092896848917007,0.01957545429468155,0.0683743879199028,-0.08416314423084259,-0.03222072869539261,0.04874748736619949,-0.031768541783094406,-0.13881151378154755,0.025493118911981583,0.05947910249233246,0.08611566573381424,0.008349167183041573,0.0503946952521801,0.0605272501707077,-0.0019141781376674771,0.01307398360222578,0.08617934584617615,0.023115312680602074,-0.23633110523223877,0.0073384810239076614,-0.06490924209356308,0.041126638650894165,-0.0501558743417263,-0.04597694054245949,-0.08808363229036331,0.0648135244846344,0.019314482808113098,-0.06001492217183113,0.04199899733066559,0.021138660609722137,-0.04518892988562584,0.12575410306453705,0.019876983016729355,-0.02301732636988163,0.07274175435304642,-0.05865369737148285,0.15699122846126556,0.08577996492385864,0.09792087227106094,0.006382945459336042,0.007776675745844841,-0.12642857432365417,0.05551799386739731,0.07184159755706787,-0.04110783711075783,-0.007210628129541874,0.04246736317873001,0.10200058668851852,-0.00044855684973299503,-0.03180798515677452,0.013131361454725266,-0.018479784950613976,-0.018704766407608986,0.022325124591588974,-0.012458933517336845,0.10061604529619217,0.055718179792165756,-0.02480175904929638,0.04439180716872215,-0.04868387430906296,0.01850828528404236,-0.08872872591018677,0.04120080545544624,0.05430198833346367,-0.0703783631324768,-0.007826069369912148,-0.06392329931259155,-0.041696205735206604,0.0073378123342990875,0.07930409908294678,-0.09250890463590622,0.032372262328863144,-0.12739136815071106,-0.013928701169788837,-0.034136440604925156,-0.024467401206493378,-0.11084890365600586,0.061332158744335175,0.0047469837591052055,0.01571250893175602,0.002499186899513006,-0.038040753453969955,-0.049562469124794006,-0.09767665714025497,0.04319960996508598,0.10402827709913254,0.01737711764872074,0.024578003212809563,0.038898177444934845,-0.08129942417144775,-0.03639915585517883,0.03327890485525131,-0.015977375209331512,0.05943584442138672,-0.08144678920507431,-0.15264511108398438,0.00854687299579382,-0.020458916202187538,0.008911809884011745,0.1242387592792511,0.13653826713562012,-0.10692168027162552,-0.01733933389186859,-0.018192356452345848,0.06522254645824432,0.01857331022620201,0.001396599574945867,0.024467989802360535,-0.02817133627831936,0.005797261837869883,0.03129621595144272,-0.011801913380622864,0.06916965544223785,0.08397785574197769,-0.02341410517692566,-0.008986885659396648,-0.003641085233539343,-0.054623816162347794,0.028870930895209312,0.03172248229384422,0.05728636682033539,-0.031213976442813873,-0.03645884618163109,-0.13356290757656097,-0.05466555804014206,-0.03439675271511078,-0.06678985804319382,0.049126993864774704,-0.030209949240088463,-0.014859719201922417,0.09916791319847107,0.05240986496210098,-0.01982082985341549,-0.007513351738452911,-0.11009366065263748,-0.03055962361395359,0.01830378919839859,-0.011029072105884552,0.005814539734274149,-0.042245738208293915,-0.0017305010696873069,-0.08542384952306747,0.1304198056459427,0.000647654989734292,0.041276965290308,-0.013254143297672272,0.05444931983947754,-0.034814395010471344,-0.005804566200822592,-0.03368748724460602,-0.0241661686450243,-0.03368273004889488,0.03279548138380051,0.016247309744358063,-0.10195720195770264,0.02051904983818531,-0.11223115772008896,-0.02327374927699566,-0.011054209433495998,0.02468120865523815,0.00011599842400755733,0.010202446952462196,-0.07534465938806534,-0.035880617797374725,0.01991325616836548,0.09638314694166183,-0.016728181391954422,0.0432003028690815,0.04161272570490837,0.0017957958625629544,-0.06780487298965454,-0.027385590597987175,-0.013541924767196178,-0.025775499641895294,0.003022746415808797,0.023112569004297256,0.04202162101864815,0.09019602835178375,0.003788325469940901,-0.036091022193431854,-0.007910232059657574,-0.08511469513177872,0.013255985453724861,-0.06694486737251282,0.01460854709148407,-0.011144439689815044,0.049575161188840866,-0.03351380676031113,0.00873728096485138,-0.11656216531991959,-0.032374944537878036,-0.04107513278722763,0.021861499175429344,0.07172036170959473,0.0011494277277961373,0.0026745155919343233,-0.09075720608234406,0.05492005869746208,-0.07415277510881424,0.051290515810251236,-0.03071439079940319,-0.0020610885694622993,-0.0388958603143692,-0.012470248155295849,-0.04926753416657448,0.027638675644993782,0.07794924825429916,-0.005879203788936138,0.08307361602783203,0.0008520049741491675,0.014145505614578724,0.023218398913741112,-0.04286041483283043,-0.0002321598876733333,0.040334515273571014,-0.004752771463245153,0.060367897152900696,0.0464734211564064,-0.04108748584985733,-0.08034224063158035,0.03679962456226349,-0.03623278811573982,0.02725742757320404,-0.10608834773302078,0.024892374873161316,0.052178967744112015,-0.0730532556772232,-0.010394197888672352,0.038090918213129044,-0.0004906702670268714,-0.11276788264513016,0.007512885145843029,-0.011783975176513195,0.028498118743300438,0.10431350767612457,-0.10913907736539841,0.09771573543548584,-0.05480346828699112,-0.04422267898917198,0.03072959929704666,-0.001280122552998364,0.015183951705694199,-0.022264476865530014,0.014160905964672565,0.007657688111066818,-0.10953671485185623,-0.09475995600223541,0.022469298914074898,0.050472892820835114,-0.0975354015827179,0.06473618000745773,0.026610160246491432,0.03303348273038864,0.07222054898738861,0.013817891478538513,0.059120118618011475,0.016565266996622086,-0.007435034029185772,0.06323474645614624,-0.060270994901657104,-0.010820778086781502,-0.03943553566932678
bangladesch,-0.03364091366529465,0.01975184679031372,0.0432714968919754,-0.13627399504184723,0.1280008852481842,-0.048749905079603195,0.059627193957567215,0.022730784490704536,0.08419046550989151,-0.1119430735707283,-0.026103796437382698,-0.01701381802558899,-0.04991140961647034,-0.09629067778587341,0.041559383273124695,-0.008082925342023373,0.05866742134094238,0.06756694614887238,-0.011298555880784988,-0.05321855843067169,-0.032721150666475296,0.01042757648974657,0.10890322178602219,-0.008478881791234016,0.012951858341693878,0.12191744893789291,-0.03277187421917915,0.06654094159603119,0.05167542025446892,0.007692610379308462,0.014492985792458057,-0.012544986791908741,0.030372953042387962,0.01742912083864212,0.0570354163646698,-0.04780999943614006,0.04558208957314491,-0.029041679576039314,0.11070090532302856,0.014291263185441494,-0.01805335469543934,0.05062490329146385,-0.022484377026557922,0.06064065173268318,0.08826936781406403,0.03940686583518982,-0.08087056875228882,-0.000342640996677801,0.0558471716940403,-0.008057934232056141,-0.039932649582624435,0.08874119073152542,-0.0761098712682724,0.011507558636367321,0.07518325746059418,0.1460295468568802,-0.026605850085616112,0.019425280392169952,0.07244980335235596,-0.030197376385331154,0.03998564928770065,-0.07676681131124496,0.017902549356222153,-0.017951728776097298,0.03257564827799797,0.09986287355422974,-0.016622407361865044,-0.07490260154008865,0.02043589949607849,-0.03747381642460823,0.032443221658468246,0.003353462088853121,-0.045739900320768356,-0.027807703241705894,0.0072150505147874355,0.036729663610458374,0.07189697027206421,0.1117047667503357,0.0022154380567371845,0.0528501458466053,-0.029950253665447235,-0.009421057067811489,-0.008983023464679718,0.02289196103811264,0.0887792557477951,0.036082588136196136,-0.07684974372386932,0.03308577463030815,0.06142912060022354,0.02378702722489834,0.029984410852193832,0.0811464712023735,0.00929516926407814,0.07729307562112808,-0.08115571737289429,0.008145513013005257,0.05790125951170921,-0.007939628325402737,0.0965971052646637,-0.06650560349225998,0.12191326916217804,0.10542594641447067,0.005366320721805096,0.03070959262549877,-0.006031931843608618,-0.06492405384778976,-0.0005061121191829443,0.0423632375895977,-0.10588020086288452,-0.005820632446557283,0.11527872085571289,-0.0035275393165647984,0.07188823074102402,0.003365827491506934,-0.005154125392436981,0.02087482064962387,0.029972055926918983,-0.09661725908517838,-0.0686192512512207,0.06492173671722412,-0.007486003451049328,-0.07738222926855087,0.030342286452651024,0.008554225787520409,-0.025109633803367615,-0.015677139163017273,0.03877801075577736,0.06106281653046608,0.11785820126533508,-0.015974415466189384,0.007116078399121761,0.03374277800321579,-0.002347351750358939,-0.013507736846804619,-0.0978470891714096,-0.06584756076335907,0.11935822665691376,-0.03221572935581207,0.060098063200712204,0.022845881059765816,0.020063627511262894,-0.03974951431155205,0.0030605948995798826,-0.057698190212249756,0.11516830325126648,-0.0035353999119251966,0.06464069336652756,-0.038523655384778976,0.0038648457266390324,-0.08172482997179031,0.04060441628098488,0.043376874178647995,0.02341366931796074,-0.04711385443806648,0.06167372688651085,0.004475329536944628,-0.006743442267179489,0.0662849098443985,-0.03869197890162468,0.020130950957536697,0.0122865941375494,-0.02231404557824135,-0.04426915571093559,-0.029050277546048164,0.0009084480698220432,0.0419306643307209,-0.05055461823940277,-0.044484786689281464,0.13507086038589478,0.06710387021303177,0.16389352083206177,-0.06626632064580917,-0.061002492904663086,0.007489285431802273,-0.07640291750431061,0.007884550839662552,0.0021692891605198383,-0.05464395135641098,0.025832301005721092,0.009053219109773636,0.011700810864567757,-0.014558357186615467,-0.02648911438882351,-0.004928366281092167,0.00937054306268692,-0.021990995854139328,-0.027317112311720848,-0.028943296521902084,0.08104223757982254,-0.09063342213630676,0.027805719524621964,-0.12656162679195404,-0.0069884043186903,0.0411304347217083,-0.042043350636959076,0.01737496256828308,-0.0019703656435012817,0.012406868860125542,-0.09242585301399231,0.03325818106532097,0.020547695457935333,0.039121340960264206,0.045801226049661636,0.028735021129250526,-0.03226124122738838,0.06696341931819916,0.02635841630399227,-0.009094671346247196,0.11042177677154541,-0.04008406028151512,-0.09835847467184067,-0.031726378947496414,-0.05596311017870903,-0.02455749362707138,-0.04141449183225632,0.08250299096107483,-0.020024560391902924,0.04143831133842468,-0.059656478464603424,0.021193204447627068,0.05809815973043442,0.02326405793428421,0.005541821476072073,-0.06654485315084457,0.01827661134302616,0.0276423841714859,0.026543132960796356,-0.07087906450033188,-0.05959032475948334,-0.009838149882853031,-0.07608843594789505,-0.014117005281150341,-0.0035642499569803476,0.038583360612392426,0.08143160492181778,-0.03379962220788002,-0.05508577823638916,0.04922422394156456,0.024714360013604164,-0.050605472177267075,-0.008266658522188663,-0.04640934616327286,-0.017695708200335503,0.013801248744130135,-0.0606377087533474,0.11822576820850372,0.0006121295737102628,0.02977861650288105,0.008199194446206093,-0.0485701858997345,-0.0340660884976387,0.058348964899778366,-0.024767771363258362,0.016585171222686768,0.11846470832824707,0.08312161266803741,0.0013863485073670745,-0.02825404517352581,-0.06588850170373917,-0.08299905061721802,-0.015730664134025574,-0.0625176876783371,0.04871097952127457,0.02223813347518444,-0.05054090544581413,-0.004554004408419132,0.03377107158303261,0.1782083809375763,-0.013297954574227333,-0.057190995663404465,0.01949954405426979,-0.07523564249277115,-0.039917487651109695,-0.19136710464954376,0.01740170083940029,0.006768227554857731,-0.04577014967799187,0.020299065858125687,-0.07814919203519821,0.07193644344806671,0.08049044013023376,-0.024747315794229507,-0.04358857125043869,0.061484649777412415,-0.022107988595962524,-0.09905894845724106,-0.04596641659736633,-0.039393264800310135,-0.03857672959566116,-0.057953689247369766,0.03121108189225197,-0.13045887649059296,0.01785566471517086,-0.007704033516347408,-0.00777561217546463,0.023024413734674454,-0.12297239154577255,-0.003911253996193409,-0.12874248623847961,0.021731438115239143
belarus,0.028968751430511475,-0.0244524497538805,0.07364971190690994,-0.00436784652993083,0.011403149925172329,-0.019224485382437706,0.08204174041748047,0.030524831265211105,0.009894545190036297,0.067762091755867,0.04187541455030441,-0.028129467740654945,-0.056724704802036285,-0.009438039734959602,-0.006384153850376606,0.08208996802568436,0.07978671789169312,-0.05124654620885849,0.027063488960266113,-0.04991573095321655,0.006883271504193544,-0.012439791113138199,-0.10922719538211823,0.02593681588768959,-0.058392055332660675,0.06640265882015228,-0.048054855316877365,0.008726588450372219,0.0022955837193876505,-0.00936846062541008,0.030517157167196274,0.0011220277519896626,0.10199122130870819,-0.09647374600172043,0.05191762372851372,0.023105688393115997,-0.04143405705690384,0.04646351560950279,0.08137424290180206,0.10068584978580475,-0.017860081046819687,0.009290438145399094,-0.020416783168911934,0.0012415844248607755,0.03863310068845749,-0.0807899534702301,-0.04321037977933884,0.028183158487081528,0.04330437257885933,0.0034340587444603443,0.028423596173524857,0.009793372824788094,0.017944982275366783,0.024803970009088516,-0.01236543245613575,0.10668575018644333,-0.029499873518943787,0.002831922611221671,-0.07431846112012863,0.058066219091415405,0.04175031930208206,-0.12063747644424438,-0.08932149410247803,-0.08052746951580048,0.04580230638384819,0.11934976279735565,0.03648412227630615,0.003438721876591444,0.0030605618376284838,0.035828590393066406,0.03476060926914215,0.00022539484780281782,0.024339308962225914,-0.13187555968761444,0.058124981820583344,0.08754698932170868,0.04520693048834801,0.05458396300673485,0.04391259700059891,-0.04423404112458229,-0.049486298114061356,0.008103662170469761,-0.026285097002983093,-0.00784300360828638,0.1862211525440216,0.06255041062831879,0.03464079648256302,-0.052346955984830856,0.0884213075041771,0.02284710668027401,-0.06400313228368759,-0.016319245100021362,0.036535508930683136,-0.026075415313243866,-0.06660706549882889,0.025609102100133896,0.01331385225057602,0.07044762372970581,0.11175860464572906,-0.10880114883184433,0.06622853875160217,-0.016190743073821068,0.06302917748689651,-0.020223621279001236,-0.11683093756437302,-0.03450487554073334,0.03467928245663643,0.09619216620922089,-0.05731860548257828,-0.03187836706638336,0.02023419924080372,-0.020208323374390602,0.004896222148090601,-0.022049618884921074,0.004379908554255962,0.02699778974056244,-0.07311020791530609,-0.0307623203843832,-0.049534495919942856,-0.04290224239230156,0.06509235501289368,0.03996327891945839,0.04361756145954132,0.13381631672382355,0.04451039433479309,0.022089745849370956,-0.032925307750701904,-0.0688701644539833,0.034501541405916214,-0.008661615662276745,0.03417539596557617,0.02864966355264187,0.017877189442515373,-0.08340147137641907,0.03838152810931206,-0.009553031995892525,-0.07927930355072021,0.1514834612607956,0.0654565617442131,0.09832842648029327,0.11492478102445602,-0.07078173756599426,0.0765218734741211,0.03365674987435341,0.04578530043363571,0.04471273347735405,-0.02011461928486824,-0.021355081349611282,0.002840552246198058,-0.027562685310840607,-0.04791886359453201,0.075635626912117,-0.02165377326309681,0.03311062231659889,-0.038941845297813416,-0.06515718251466751,-0.007697610650211573,0.13122163712978363,0.0255828108638525,-0.027687977999448776,-0.05816471204161644,0.020508477464318275,0.0647154375910759,-0.12859052419662476,0.09477019309997559,-0.06690919399261475,-0.019575130194425583,0.05075949802994728,0.05376135930418968,-0.01280157919973135,0.11498390138149261,-0.012598310597240925,-0.030124083161354065,0.02866862528026104,-0.030645817518234253,0.024300457909703255,-0.039800357073545456,-0.06484928727149963,-0.06341911107301712,-0.033621449023485184,0.01798349991440773,-0.014592829160392284,-0.0038772576954215765,-0.06899402290582657,0.023971224203705788,-0.05157717689871788,-0.017374595627188683,-0.018621953204274178,-0.08068539202213287,-0.004628476221114397,-0.02236652374267578,-0.11356253176927567,-0.11440827697515488,0.0783563181757927,-0.12829242646694183,0.07203838974237442,0.03788362443447113,0.03241074085235596,-0.13073551654815674,0.09531339257955551,0.0015621364582329988,0.03570352494716644,0.027803029865026474,-0.002692208159714937,-0.04636942595243454,0.013156171888113022,-0.01660984382033348,-0.030838847160339355,-0.07453428953886032,-0.006124602630734444,-0.05118732154369354,0.06271746009588242,-0.11723790317773819,0.0275468397885561,0.06911516934633255,-0.07211591303348541,-0.0437944121658802,-0.05012519657611847,-0.11017631739377975,0.0934867262840271,0.001429425785318017,-0.04600417986512184,-0.011749843135476112,-0.06241749972105026,-0.0170403141528368,-0.1301446110010147,-0.01512208953499794,-0.036967065185308456,0.05187510326504707,0.09184645861387253,-0.026010558009147644,0.08902186900377274,-0.05809210613369942,0.00029793084831908345,-0.007115925662219524,-0.02157669886946678,-0.0018567213555797935,0.006716214586049318,0.141732856631279,0.0073390197940170765,-0.07695643603801727,0.008625891990959644,-0.037227507680654526,0.037554237991571426,0.05628121644258499,0.14992208778858185,0.03588375449180603,0.0523313544690609,0.03569592162966728,0.08121597021818161,0.13495589792728424,0.017756232991814613,0.017370011657476425,-0.004323082976043224,0.0647222101688385,0.04515266418457031,0.021786538884043694,0.07395680993795395,-0.05199446156620979,-0.029554661363363266,0.04990735650062561,0.03801613301038742,-0.06753363460302353,0.058101408183574677,0.022411393001675606,0.06292539089918137,-0.03887072205543518,0.04792208597064018,0.00612318841740489,-0.09330681711435318,-0.017625510692596436,-0.017873715609312057,0.0209159217774868,-0.049435656517744064,0.10731439292430878,-0.04718853905797005,-0.01636934094130993,-0.02263948880136013,0.04457477480173111,-0.025637032464146614,-0.06897858530282974,0.06575321406126022,-0.012041671201586723,0.007224838715046644,0.013302093371748924,-0.08302140235900879,-0.005270811263471842,-0.009903953410685062,-0.0238492414355278,-0.018103906884789467,-0.03840118274092674,-0.03912186995148659,0.012161421589553356,0.0347479023039341,-0.005472694523632526,0.019322440028190613,-0.028997471556067467,9.393822256242856e-05,-0.010961340740323067,-0.040837693959474564
belgien,-0.028210068121552467,-0.11152190715074539,0.03568268567323685,-0.03479750454425812,0.09575967490673065,0.010281456634402275,0.11287825554609299,0.022085566073656082,-0.05284373462200165,-0.04703550785779953,-0.11943153291940689,-0.006449899170547724,-0.07412727177143097,0.04733775183558464,0.0136965187266469,0.011903556063771248,-0.013681605458259583,-0.0033277112524956465,0.03345675393939018,-0.02403399534523487,0.07543320208787918,-0.06693090498447418,-0.022955365478992462,0.06176447495818138,0.026473037898540497,0.011197325773537159,0.034429118037223816,0.09484777599573135,0.09295843541622162,0.005235008429735899,-0.017992211505770683,0.10885073244571686,0.09330054372549057,-0.022611118853092194,0.035301364958286285,-0.0743408128619194,-0.07253500074148178,-0.034363433718681335,0.09313094615936279,0.009181566536426544,0.05729862302541733,0.01077654305845499,0.01730153150856495,0.022713875398039818,0.033476028591394424,-0.06148095056414604,0.048799995332956314,-0.08810490369796753,0.10422419011592865,-0.04321820288896561,-0.05722254887223244,-0.05976312234997749,-0.08235399425029755,0.06833835691213608,0.08880122750997543,0.026758559048175812,-0.1029704362154007,-0.01858721300959587,-0.03808949887752533,-0.023144781589508057,-0.031883448362350464,-0.07811274379491806,-0.01128510944545269,0.07141587138175964,-0.030008511617779732,0.04839207977056503,-0.11416079849004745,0.004703823942691088,-0.030739637091755867,0.049583639949560165,-0.026046760380268097,-0.09668410569429398,0.0044298782013356686,-0.06129549443721771,0.12699617445468903,-0.03776559606194496,-0.024947864934802055,-0.012787607498466969,0.04754839465022087,0.0003392569487914443,0.026272522285580635,-0.004198049660772085,-0.07271474599838257,-0.05673897638916969,-0.035090889781713486,0.053950048983097076,-0.02595454268157482,-0.013971276581287384,0.11013927310705185,-0.005834757350385189,-0.04016070067882538,0.024144023656845093,-0.007199235260486603,0.01769140176475048,-0.036852896213531494,0.020760806277394295,0.023494256660342216,-0.03597257286310196,-0.05932913348078728,0.04982370883226395,0.02409764751791954,0.015790367498993874,-0.0004211801860947162,-0.031199971213936806,-0.002995399758219719,-0.1065651923418045,-0.01546383835375309,0.0730796605348587,-0.007181087508797646,0.05762965604662895,0.08880555629730225,-0.04488242045044899,0.07299142330884933,-0.06785266101360321,-0.017498234286904335,-0.029823940247297287,0.05226203799247742,-0.042006392031908035,-0.04859773814678192,0.026678675785660744,0.007772841956466436,-0.0415341779589653,0.0648932158946991,0.03877611085772514,0.026768388226628304,0.05370194464921951,0.054200492799282074,-0.04846381023526192,0.007679962553083897,-0.017916357144713402,-0.0037616295740008354,0.04145100712776184,-0.019372889772057533,-0.08666853606700897,-0.047587428241968155,-0.04103026166558266,0.013229010626673698,0.0014404808171093464,0.06360968202352524,0.09333758801221848,0.059704866260290146,-0.09656723588705063,-0.044550057500600815,0.1922643929719925,0.053925465792417526,-0.009355354122817516,0.043689657002687454,-0.02847733534872532,-0.09567748010158539,-0.020771782845258713,0.04882398247718811,-0.004006838425993919,0.044648319482803345,-0.004150540102273226,-0.009940140880644321,-0.08892273157835007,-0.06838436424732208,0.039881788194179535,0.023746298626065254,-0.025837989524006844,-0.04744179919362068,-0.07755698263645172,0.05987570062279701,0.05173654854297638,-0.09386453032493591,0.0031112635042518377,0.06784801930189133,0.005194858647882938,0.181344136595726,0.010392130352556705,0.020537815988063812,0.023126671090722084,-0.038165729492902756,0.041439857333898544,0.02621491625905037,-0.0337759293615818,-0.12390130758285522,0.010321862995624542,-0.0156659297645092,-0.11068227887153625,0.05522220954298973,0.02242819406092167,-0.08373405039310455,-0.016945647075772285,0.031198276206851006,-0.050511669367551804,-0.004926568362861872,0.05298960208892822,0.03235353156924248,-0.05948657914996147,0.011533866636455059,-0.00011086305312346667,-0.07528983801603317,0.03371032699942589,-0.06975984573364258,-0.0541464127600193,0.05567100644111633,0.012717222794890404,-0.01399211771786213,-0.031009940430521965,-0.014518494717776775,0.07838822156190872,0.0933828130364418,0.10224414616823196,-0.013306792825460434,0.09566658735275269,-0.032097529619932175,-0.06734885275363922,0.013937313109636307,-0.05010739341378212,-0.0011874544434249401,-0.011945923790335655,-0.010667506605386734,0.08567676693201065,0.0027277141343802214,0.07138857990503311,0.0069033377803862095,0.03225873038172722,0.009382436983287334,-0.07585223019123077,0.0529191717505455,-0.001219797763042152,-0.04850540682673454,0.03602851554751396,0.12549151480197906,-0.04613766819238663,-0.09131792187690735,0.035215314477682114,-0.02807348221540451,0.06697635352611542,0.037640076130628586,0.010303349234163761,-0.05639703571796417,-0.05566995218396187,0.07986859977245331,0.048121094703674316,0.02817128598690033,0.09221556782722473,-0.0048796022310853004,0.014601786620914936,-0.07480363547801971,0.08260158449411392,-0.00611113803461194,-0.009863541461527348,0.07695075124502182,-0.056024014949798584,0.07985062152147293,0.02982880361378193,-0.040864247828722,0.03569475933909416,-0.06958258897066116,-0.016829365864396095,-0.047358740121126175,0.001284174621105194,-0.03369749337434769,0.0480264388024807,-0.04083548113703728,-0.05442347005009651,-0.0632094144821167,-0.037205372005701065,-0.05470651388168335,-0.026744723320007324,-0.046027038246393204,-0.02297320030629635,-0.029467539861798286,-0.06338535994291306,0.07980746030807495,0.045894015580415726,0.06426430493593216,0.023520875722169876,-0.008221762254834175,-0.05386411026120186,-0.02742616832256317,-0.1359652727842331,0.2223416566848755,0.03467831388115883,0.06499317288398743,-0.04991491138935089,0.03281836584210396,-0.028490327298641205,0.03910801187157631,0.048185184597969055,-0.0012045311741530895,0.0003675808839034289,0.06931733340024948,0.01798436976969242,-0.10312899947166443,-0.05433287099003792,0.14956055581569672,0.010180404409766197,-0.030181482434272766,0.0184898991137743,0.021547755226492882,0.09145122021436691,-0.04282275587320328,-0.01781792752444744,-0.0936865508556366,-0.016754556447267532,0.05080045387148857,0.0764039158821106
bosnien_und_herzegowina,0.017084307968616486,-0.07070060074329376,-0.005319052841514349,-0.0011643883772194386,0.04428472742438316,-0.018591009080410004,0.0501818023622036,0.026664450764656067,-0.01449758093804121,-0.05246901884675026,-0.01359251793473959,-0.10684319585561752,0.07222334295511246,-0.04741163179278374,-0.08502256870269775,0.030455779284238815,0.041354529559612274,-0.010304206050932407,-0.008662491105496883,-0.02495923824608326,-0.035028714686632156,-0.04838653281331062,-0.05467381700873375,0.02206512540578842,0.043439511209726334,-0.012333020567893982,-0.06039067357778549,-0.03535237908363342,-0.04073072224855423,0.008759982883930206,0.06772183626890182,0.04432712122797966,0.03636670857667923,-0.1240868791937828,-0.006106828339397907,-0.04103119671344757,-0.07666946202516556,-0.058931462466716766,0.058784786611795425,0.05025047808885574,0.07182475179433823,-0.08735739439725876,-0.058327119797468185,-0.014411876909434795,-0.02521333284676075,0.057911526411771774,-0.006582578644156456,-0.006819449830800295,-0.04764527082443237,0.03312600404024124,-0.09726700931787491,0.04311677813529968,0.010064675472676754,0.1203128844499588,0.021525122225284576,0.09827647358179092,0.007506703492254019,-0.020288145169615746,-0.05025961995124817,-0.009200870990753174,0.008266224525868893,-0.04680690914392471,-0.06256908923387527,-0.018259571865200996,-0.06761803478002548,-0.029789309948682785,-0.04018709808588028,-0.012672343291342258,0.03654955327510834,0.039925623685121536,-0.0007122509996406734,-0.07314375787973404,0.013132738880813122,0.03495611250400543,0.16985374689102173,-0.021166466176509857,0.005398333538323641,0.09753990918397903,-0.0050078993663191795,-0.09656653553247452,0.08528067171573639,0.06207944452762604,-0.041143324226140976,-0.047433655709028244,-0.03448867425322533,0.028925327584147453,0.04867628216743469,0.008578142151236534,0.02077050507068634,-0.04330554977059364,-0.020879732444882393,-0.004730707034468651,0.02323027141392231,0.04637604206800461,-0.07909629493951797,0.01674692891538143,0.03528178483247757,0.01944882981479168,-0.06356347352266312,-0.009226714260876179,0.011954914778470993,-0.09115114063024521,-0.05976097658276558,0.04305104538798332,0.010589073412120342,0.02903047576546669,0.074637770652771,-0.025778815150260925,-0.0224287286400795,0.03233619034290314,0.010537956841289997,-0.032658401876688004,0.040076207369565964,0.0649581104516983,-0.08687064051628113,-0.043277498334646225,-0.024023424834012985,-0.06246230751276016,0.05339176207780838,-0.01354022417217493,-0.028246309608221054,-0.0009572280687279999,0.01890864036977291,-0.002772366860881448,0.03042174130678177,0.02452618069946766,0.05004989355802536,0.012563941068947315,-0.002758418908342719,0.10243608802556992,0.0845494493842125,0.05001445859670639,-0.028736881911754608,-0.05024835467338562,-0.052956193685531616,0.06491413712501526,-0.11448509991168976,-0.032145895063877106,0.12480910122394562,-0.0029970472678542137,0.07399172335863113,0.0007698996923863888,-0.00861434731632471,0.06852523982524872,0.11126411706209183,0.08888854831457138,0.04733485355973244,0.04486928507685661,-0.009887258522212505,0.04018375277519226,-0.049597419798374176,-0.04423416778445244,0.11369658261537552,0.039086729288101196,-0.07424239814281464,-0.05635590851306915,-0.049208883196115494,0.13705478608608246,-0.026363063603639603,0.04350319877266884,0.05218628793954849,-0.014986049383878708,-0.08827491104602814,0.011622813530266285,-0.06599772721529007,0.07949726283550262,-0.07165530323982239,0.028978733345866203,0.04640872776508331,-0.036774542182683945,0.035927243530750275,0.005627427715808153,0.030004294589161873,-0.014523091726005077,-0.15427280962467194,-0.06278169900178909,-0.027359969913959503,-0.005607754457741976,-0.04794727638363838,-0.11606951057910919,-0.006693265400826931,-0.09018135070800781,0.01661798171699047,0.03138907998800278,-0.04742440953850746,-0.03748743236064911,-0.02466815523803234,0.041795164346694946,-0.05391376465559006,-0.07015760242938995,-0.03612666204571724,-0.041827671229839325,-0.13918566703796387,0.03168943524360657,-0.08269308507442474,-0.02617541514337063,-0.03182443231344223,-0.013731771148741245,0.03154619783163071,-0.014621810056269169,0.03706059977412224,-0.06755459308624268,0.01750084199011326,0.02627171017229557,-0.011105677112936974,0.0032522662077099085,0.0025174554903060198,0.10512707382440567,-0.042105529457330704,-0.11582030355930328,0.022682253271341324,0.053900353610515594,-0.1423356980085373,0.052349139004945755,-0.026549113914370537,0.10198868066072464,0.09824571013450623,0.059870343655347824,-0.016084739938378334,-0.009356536902487278,0.05533875152468681,-0.10127007216215134,-0.01026268769055605,0.03204469382762909,-0.03426014631986618,0.023640405386686325,0.060443054884672165,0.07001382112503052,0.13437959551811218,0.15016615390777588,0.019010035321116447,0.11265545338392258,-0.007612233981490135,0.0216592438519001,-0.04440172389149666,-0.006274583749473095,0.05315764993429184,-0.05608150735497475,0.015039055608212948,-0.05320313200354576,-0.1391974687576294,0.01992793008685112,-0.0813104435801506,-0.050613828003406525,0.00706146378070116,0.0026600405108183622,-0.029656261205673218,-0.06817560642957687,0.035824280232191086,0.06762122362852097,0.05553053319454193,0.06512735038995743,-0.036458466202020645,0.051620207726955414,0.046700477600097656,0.17582696676254272,0.018620876595377922,0.05021783336997032,0.03059166669845581,0.02005293406546116,-0.07220133394002914,0.027444826439023018,-0.00021489238133653998,0.0014295029686763883,0.029776910319924355,0.0756557285785675,0.00039851610199548304,0.08139078319072723,-0.04229350388050079,-0.024588577449321747,0.035951100289821625,0.034085243940353394,-0.006992875132709742,-0.056802839040756226,0.18360143899917603,0.019456153735518456,0.059412676841020584,0.08888579159975052,-0.012277101166546345,0.059438180178403854,-0.03851396590471268,0.028648285195231438,-0.0964571163058281,-0.05518960580229759,0.03310420736670494,0.05128028243780136,-0.08454761654138565,-0.04402179643511772,0.06923083961009979,0.015148228965699673,-0.010383742861449718,0.00380300497636199,0.013650493696331978,-0.00959254615008831,-0.0326557382941246,-0.04429320991039276,-0.01335412822663784,-0.049478862434625626,0.09183181822299957,-0.08531654626131058
