Country,Vectordimension_0,Vectordimension_1,Vectordimension_2,Vectordimension_3,Vectordimension_4,Vectordimension_5,Vectordimension_6,Vectordimension_7,Vectordimension_8,Vectordimension_9,Vectordimension_10,Vectordimension_11,Vectordimension_12,Vectordimension_13,Vectordimension_14,Vectordimension_15,Vectordimension_16,Vectordimension_17,Vectordimension_18,Vectordimension_19,Vectordimension_20,Vectordimension_21,Vectordimension_22,Vectordimension_23,Vectordimension_24,Vectordimension_25,Vectordimension_26,Vectordimension_27,Vectordimension_28,Vectordimension_29,Vectordimension_30,Vectordimension_31,Vectordimension_32,Vectordimension_33,Vectordimension_34,Vectordimension_35,Vectordimension_36,Vectordimension_37,Vectordimension_38,Vectordimension_39,Vectordimension_40,Vectordimension_41,Vectordimension_42,Vectordimension_43,Vectordimension_44,Vectordimension_45,Vectordimension_46,Vectordimension_47,Vectordimension_48,Vectordimension_49,Vectordimension_50,Vectordimension_51,Vectordimension_52,Vectordimension_53,Vectordimension_54,Vectordimension_55,Vectordimension_56,Vectordimension_57,Vectordimension_58,Vectordimension_59,Vectordimension_60,Vectordimension_61,Vectordimension_62,Vectordimension_63,Vectordimension_64,Vectordimension_65,Vectordimension_66,Vectordimension_67,Vectordimension_68,Vectordimension_69,Vectordimension_70,Vectordimension_71,Vectordimension_72,Vectordimension_73,Vectordimension_74,Vectordimension_75,Vectordimension_76,Vectordimension_77,Vectordimension_78,Vectordimension_79,Vectordimension_80,Vectordimension_81,Vectordimension_82,Vectordimension_83,Vectordimension_84,Vectordimension_85,Vectordimension_86,Vectordimension_87,Vectordimension_88,Vectordimension_89,Vectordimension_90,Vectordimension_91,Vectordimension_92,Vectordimension_93,Vectordimension_94,Vectordimension_95,Vectordimension_96,Vectordimension_97,Vectordimension_98,Vectordimension_99,Vectordimension_100,Vectordimension_101,Vectordimension_102,Vectordimension_103,Vectordimension_104,Vectordimension_105,Vectordimension_106,Vectordimension_107,Vectordimension_108,Vectordimension_109,Vectordimension_110,Vectordimension_111,Vectordimension_112,Vectordimension_113,Vectordimension_114,Vectordimension_115,Vectordimension_116,Vectordimension_117,Vectordimension_118,Vectordimension_119,Vectordimension_120,Vectordimension_121,Vectordimension_122,Vectordimension_123,Vectordimension_124,Vectordimension_125,Vectordimension_126,Vectordimension_127,Vectordimension_128,Vectordimension_129,Vectordimension_130,Vectordimension_131,Vectordimension_132,Vectordimension_133,Vectordimension_134,Vectordimension_135,Vectordimension_136,Vectordimension_137,Vectordimension_138,Vectordimension_139,Vectordimension_140,Vectordimension_141,Vectordimension_142,Vectordimension_143,Vectordimension_144,Vectordimension_145,Vectordimension_146,Vectordimension_147,Vectordimension_148,Vectordimension_149,Vectordimension_150,Vectordimension_151,Vectordimension_152,Vectordimension_153,Vectordimension_154,Vectordimension_155,Vectordimension_156,Vectordimension_157,Vectordimension_158,Vectordimension_159,Vectordimension_160,Vectordimension_161,Vectordimension_162,Vectordimension_163,Vectordimension_164,Vectordimension_165,Vectordimension_166,Vectordimension_167,Vectordimension_168,Vectordimension_169,Vectordimension_170,Vectordimension_171,Vectordimension_172,Vectordimension_173,Vectordimension_174,Vectordimension_175,Vectordimension_176,Vectordimension_177,Vectordimension_178,Vectordimension_179,Vectordimension_180,Vectordimension_181,Vectordimension_182,Vectordimension_183,Vectordimension_184,Vectordimension_185,Vectordimension_186,Vectordimension_187,Vectordimension_188,Vectordimension_189,Vectordimension_190,Vectordimension_191,Vectordimension_192,Vectordimension_193,Vectordimension_194,Vectordimension_195,Vectordimension_196,Vectordimension_197,Vectordimension_198,Vectordimension_199,Vectordimension_200,Vectordimension_201,Vectordimension_202,Vectordimension_203,Vectordimension_204,Vectordimension_205,Vectordimension_206,Vectordimension_207,Vectordimension_208,Vectordimension_209,Vectordimension_210,Vectordimension_211,Vectordimension_212,Vectordimension_213,Vectordimension_214,Vectordimension_215,Vectordimension_216,Vectordimension_217,Vectordimension_218,Vectordimension_219,Vectordimension_220,Vectordimension_221,Vectordimension_222,Vectordimension_223,Vectordimension_224,Vectordimension_225,Vectordimension_226,Vectordimension_227,Vectordimension_228,Vectordimension_229,Vectordimension_230,Vectordimension_231,Vectordimension_232,Vectordimension_233,Vectordimension_234,Vectordimension_235,Vectordimension_236,Vectordimension_237,Vectordimension_238,Vectordimension_239,Vectordimension_240,Vectordimension_241,Vectordimension_242,Vectordimension_243,Vectordimension_244,Vectordimension_245,Vectordimension_246,Vectordimension_247,Vectordimension_248,Vectordimension_249,Vectordimension_250,Vectordimension_251,Vectordimension_252,Vectordimension_253,Vectordimension_254,Vectordimension_255,Vectordimension_256,Vectordimension_257,Vectordimension_258,Vectordimension_259,Vectordimension_260,Vectordimension_261,Vectordimension_262,Vectordimension_263,Vectordimension_264,Vectordimension_265,Vectordimension_266,Vectordimension_267,Vectordimension_268,Vectordimension_269,Vectordimension_270,Vectordimension_271,Vectordimension_272,Vectordimension_273,Vectordimension_274,Vectordimension_275,Vectordimension_276,Vectordimension_277,Vectordimension_278,Vectordimension_279,Vectordimension_280,Vectordimension_281,Vectordimension_282,Vectordimension_283,Vectordimension_284,Vectordimension_285,Vectordimension_286,Vectordimension_287,Vectordimension_288,Vectordimension_289,Vectordimension_290,Vectordimension_291,Vectordimension_292,Vectordimension_293,Vectordimension_294,Vectordimension_295,Vectordimension_296,Vectordimension_297,Vectordimension_298,Vectordimension_299
afghanistan,0.024563277140259743,0.0028653331100940704,0.11064291000366211,-0.0523008331656456,0.037926316261291504,0.014061566442251205,0.06699278205633163,0.02036525309085846,0.044548824429512024,0.014111325144767761,-0.031013555824756622,-0.044294387102127075,-0.08434857428073883,0.04356168955564499,0.005911082029342651,-0.0005772104486823082,0.050687119364738464,-0.01403473224490881,0.023397520184516907,0.01849546656012535,0.018149005249142647,0.06304728239774704,-0.004566896706819534,0.012396316975355148,-0.12515242397785187,0.06348930299282074,0.025553114712238312,0.0663398876786232,0.057327091693878174,-0.07219002395868301,-0.005799285136163235,0.05516548082232475,0.002730455482378602,0.010928932577371597,-0.018139177933335304,0.01473747007548809,0.016181696206331253,-0.1249607652425766,-0.059544891119003296,0.03631384298205376,0.010253558866679668,0.04284140095114708,-0.06253091245889664,0.03925618156790733,-0.055435631424188614,0.002143218880519271,-0.006441659294068813,-0.020502636209130287,0.07194703817367554,0.04872133210301399,-0.038209181278944016,0.07747745513916016,0.03804829344153404,0.076727956533432,0.1353929340839386,0.04772685468196869,-0.053468476980924606,0.044177085161209106,0.012537016533315182,-0.032945021986961365,-0.10201572626829147,-0.12456106394529343,-0.10167412459850311,0.024003667756915092,0.09491623193025589,0.030209871008992195,-0.07733564078807831,-0.041164789348840714,0.03892366588115692,0.08442380279302597,0.07008242607116699,-0.0674513429403305,0.04724087566137314,-0.026487383991479874,0.05544823035597801,0.09851367026567459,-0.06377466768026352,0.08337321132421494,0.10498110204935074,-0.029050996527075768,0.06939733773469925,-0.009982623159885406,-0.03359894081950188,0.046286746859550476,0.07835112512111664,0.027318058535456657,-0.01860734075307846,0.024886706843972206,0.0808008685708046,0.08443935960531235,0.038962770253419876,0.06122075766324997,-0.013807675801217556,0.008032595738768578,-0.011805974878370762,0.09246713668107986,0.007885116152465343,-0.02481517568230629,0.05661725997924805,-0.03575761988759041,-0.05750294402241707,0.03244498744606972,0.08499559015035629,0.09338395297527313,-0.0006711098831146955,-0.02114252746105194,0.1412966400384903,0.06667904555797577,-0.05587397888302803,-0.007106110453605652,-0.06485963612794876,-0.028719237074255943,0.14555294811725616,0.03451608493924141,-0.10434272885322571,0.025726918131113052,-0.10741820186376572,0.005750064272433519,-0.04879907891154289,-0.014813206158578396,-0.15826135873794556,-0.0728767067193985,0.04475961998105049,-0.0071059707552194595,0.018635379150509834,0.12047958374023438,-0.019803021103143692,0.026423081755638123,0.05055864527821541,0.08493351191282272,0.00978624727576971,0.0837884470820427,-0.12817713618278503,-0.1728280484676361,-0.08969337493181229,-0.0051805367693305016,-0.04135742411017418,-0.019702674821019173,-0.020792145282030106,0.036207474768161774,-0.07959024608135223,-0.055683329701423645,-0.03568115830421448,0.02692900039255619,0.04182969033718109,-0.04454191029071808,0.02721482142806053,0.08221855014562607,0.02741292119026184,0.05358414724469185,-0.002424695761874318,0.0682726576924324,0.10484626889228821,0.021656058728694916,0.05654050037264824,-0.010898253880441189,0.056729529052972794,-0.00834297202527523,0.06684327125549316,-0.08515471965074539,-0.06532759219408035,-0.021203959360718727,0.009528025984764099,-0.07824598252773285,-0.04250041022896767,0.026537390425801277,-0.010604726150631905,-0.07427571713924408,0.026753442361950874,-0.0019757801201194525,0.058201972395181656,0.07766216993331909,0.021287240087985992,0.05372607335448265,0.006749093998223543,-0.05940428376197815,-0.03668295964598656,-0.1294880360364914,0.008480096235871315,-0.020211251452565193,0.019095299765467644,-0.011667819693684578,0.027872759848833084,0.12490902841091156,0.1097058355808258,0.025371283292770386,0.030145015567541122,0.003124633338302374,-0.051603369414806366,-0.047286853194236755,-0.01871522329747677,-0.0070652044378221035,0.036717165261507034,0.022534672170877457,0.029736611992120743,-0.053726162761449814,-0.10159943252801895,0.07372836023569107,-0.09147133678197861,-0.020562656223773956,-0.05527224764227867,-0.008269060403108597,-0.006567946635186672,0.05261632055044174,0.07912560552358627,-0.10264208912849426,0.03984786942601204,-0.13257315754890442,-0.07270882278680801,0.0010290199425071478,0.06468401849269867,0.012014726176857948,-0.047890085726976395,-0.014209240674972534,0.02536524087190628,0.0758301392197609,0.01250234991312027,0.03233771771192551,0.04488988593220711,-0.08787409961223602,-0.014120564796030521,0.005152109544724226,-0.09652966260910034,-0.026258639991283417,-0.018466031178832054,-0.012855619192123413,-0.008737578988075256,-0.0161232091486454,0.038013722747564316,-0.013995097950100899,0.00675681047141552,0.12105716019868851,-0.04592663794755936,-0.06668492406606674,-0.03340133652091026,0.007217445410788059,0.015691623091697693,0.06638805568218231,0.13131539523601532,0.07020862400531769,0.015110408887267113,0.02176949754357338,-0.05514448508620262,-0.036308303475379944,-0.03851865231990814,0.023153075948357582,-0.03356146067380905,-0.04927203431725502,0.040327854454517365,-0.05060011148452759,0.06946540623903275,-0.014150276780128479,0.04984298348426819,0.02459988370537758,0.04558027908205986,0.07247414439916611,0.05190575122833252,-0.03618505597114563,-0.0802651196718216,0.046355072408914566,0.01324465125799179,0.03809661790728569,0.004929791204631329,-0.04152163863182068,0.010586186312139034,0.04082826152443886,0.10473868995904922,0.04537066072225571,0.04008522257208824,-0.02974798157811165,0.08428993076086044,-0.04368334263563156,-0.073166124522686,-0.04706457257270813,-0.01783331111073494,0.008637613616883755,-0.01424422487616539,0.011451391503214836,0.018289580941200256,0.020138565450906754,0.07036898285150528,0.03777395561337471,0.04464755207300186,0.03693397715687752,0.03762734308838844,-0.06080583855509758,0.050935838371515274,0.018730752170085907,0.014168137684464455,-0.011033601127564907,0.09650605171918869,0.005884598009288311,0.035186994820833206,-0.04738510027527809,-0.01917179487645626,0.03562066704034805,-0.023849129676818848,0.024965770542621613,-0.07302616536617279,-0.13176655769348145
ägypten,-0.00032845736132003367,-0.008848036639392376,0.05111370608210564,-0.05205615237355232,0.06486661732196808,-0.029793385416269302,0.08379117399454117,-0.07516005635261536,0.11121992766857147,-0.1582084447145462,0.052125491201877594,-0.022848771885037422,0.03607766330242157,-0.031231340020895004,-0.034239690750837326,0.04249582812190056,-0.07097624987363815,0.08872499316930771,-0.06070173159241676,0.006258534733206034,-0.023301826789975166,0.038853611797094345,-0.023370420560240746,-0.12980709969997406,0.018079226836562157,0.016078190878033638,-0.053615324199199677,0.051535069942474365,-0.07568588107824326,-0.06196616590023041,-0.008045582100749016,0.026533853262662888,-0.059733353555202484,-0.06692404299974442,0.10589965432882309,-0.04768494516611099,-0.005371567793190479,0.0022783323656767607,-0.05496994033455849,-0.014891204424202442,0.03196946159005165,0.05504842475056648,0.02867703326046467,-0.01227329857647419,0.030252911150455475,0.02797163464128971,0.0736795961856842,-0.00348076899535954,-0.03504301607608795,-0.005289738532155752,-0.08369157463312149,0.08341322094202042,0.08564677089452744,0.09124355763196945,0.05281047523021698,0.07127868384122849,-0.017343593761324883,-0.10542218387126923,-0.01143623236566782,-0.08602730184793472,-0.00858299806714058,0.06360946595668793,-0.0007692789076827466,0.07551595568656921,-0.024166777729988098,0.0045480141416192055,0.05212637409567833,-0.07375451177358627,-0.09613186866044998,-0.029901213943958282,-0.008508849889039993,-0.033180609345436096,0.03327140584588051,-0.08701540529727936,0.04153645411133766,0.053477514535188675,0.08028065413236618,-0.028658699244260788,0.029860978946089745,0.029554082080721855,-0.032832060009241104,0.019133182242512703,0.0046270135790109634,-0.036842700093984604,0.049733392894268036,-0.08908980339765549,0.009057840332388878,0.08345483243465424,-0.02082616090774536,0.03309797868132591,-0.08900642395019531,0.06935898959636688,-0.06012795493006706,0.023872345685958862,-0.04091275855898857,-0.05204523354768753,-0.09287484735250473,0.007864867337048054,-0.007551794406026602,-0.05803759768605232,0.026784595102071762,0.16517578065395355,0.03489949181675911,-0.022494001314044,-0.030459385365247726,0.013195122592151165,0.13103076815605164,0.019640794023871422,-0.06493380665779114,-0.003492439864203334,0.06496651470661163,-0.01814102940261364,0.0937967374920845,-0.016748080030083656,-0.05498728156089783,0.06250981986522675,0.03160084784030914,-0.05122032389044762,-0.09226801991462708,0.035060763359069824,-0.021795960143208504,0.07104421406984329,-0.04153568670153618,0.013725252822041512,0.005751713179051876,0.010776630602777004,0.032424308359622955,0.030312491580843925,-0.007627391256392002,0.10344498604536057,-0.010733778588473797,-0.033514928072690964,-0.11842653900384903,0.01988598331809044,-0.006482517812401056,-0.08063484728336334,-0.11895167082548141,-0.003314778907224536,0.06833043694496155,0.026171861216425896,0.02698918804526329,0.024046869948506355,0.024207109585404396,0.055259522050619125,-0.010743251070380211,-0.0048798806965351105,0.032585013657808304,0.091317318379879,0.00832300167530775,-0.048456259071826935,0.006395149510353804,-0.024292297661304474,0.12834765017032623,0.052901629358530045,0.004561190493404865,0.030809031799435616,-0.08864094316959381,0.07026626169681549,0.0020550796762108803,0.05639157444238663,0.0042755259200930595,-0.08939467370510101,0.03084903582930565,-0.022393209859728813,-0.06075794994831085,0.018435461446642876,0.030011944472789764,0.08482109010219574,0.06880666315555573,-0.02150861546397209,0.07961529493331909,0.026839302852749825,-0.09302360564470291,-0.031240861862897873,-0.05861087515950203,-0.040838439017534256,0.023432254791259766,0.03211762383580208,0.06278807669878006,-0.10337474942207336,-0.019169488921761513,0.11438441276550293,-0.02928515151143074,0.014670372009277344,0.020853398367762566,-0.0064146146178245544,0.0015658712945878506,-0.07096479833126068,-0.09548230469226837,-0.08998802304267883,0.0024043910671025515,-0.03624141961336136,-0.09192734956741333,-0.08334435522556305,-0.046675823628902435,0.011550587601959705,-0.03586003556847572,0.10405701398849487,-0.0738106369972229,0.010051500983536243,-0.01354620698839426,0.07024317979812622,0.06314969062805176,0.07581160217523575,0.11382289230823517,-0.005189886782318354,-0.048182908445596695,-0.0684564933180809,-0.03469054773449898,-0.06058143451809883,0.10382658243179321,-0.01822938770055771,-0.022450238466262817,-0.019370488822460175,-0.02732176147401333,-0.006591711658984423,0.0142368758097291,-0.042152076959609985,-0.024977581575512886,-0.022315941751003265,-0.05262299254536629,0.0072328136302530766,-0.02121206559240818,-0.022210396826267242,0.0796688050031662,-0.03742285445332527,-0.10778971761465073,-0.14855189621448517,0.08750037103891373,0.022278817370533943,0.05985123664140701,0.014690132811665535,0.006625068839639425,0.08477866649627686,0.030964557081460953,0.04949325695633888,-0.05034704878926277,0.11204314231872559,0.14959542453289032,-0.008815127424895763,0.03915185481309891,0.024053437635302544,-0.037327539175748825,-0.04772784560918808,0.08111687004566193,0.05177688226103783,0.004147764295339584,0.06913711130619049,0.04856552556157112,0.03955618664622307,0.05374761298298836,0.046026334166526794,-0.04868260398507118,-0.023414788767695427,0.04873664304614067,0.14801408350467682,-0.015107664279639721,0.07919104397296906,0.0044617000967264175,-0.06961122155189514,-0.07742393761873245,0.043137192726135254,0.011387093923985958,-0.0007209813920781016,-0.032683875411748886,0.0440821535885334,0.13005594909191132,0.0628049373626709,0.011117363348603249,0.007329641375690699,-0.02595403790473938,0.0029415276367217302,-0.010878107510507107,-0.04695036634802818,-0.0049463375471532345,0.0517040453851223,-0.050001051276922226,-0.03682173043489456,0.07141377776861191,0.1008252501487732,0.035312455147504807,-0.005052747204899788,-0.012453393079340458,0.1401117742061615,-0.035384856164455414,-0.03570009395480156,0.07741007953882217,-0.009294897317886353,-0.038877081125974655,0.01623380184173584,0.047381144016981125,-0.07372400909662247,0.051710259169340134,0.04212818667292595,-0.01855587214231491,0.019691605120897293,-0.055040594190359116,-0.023791607469320297,0.017020540311932564,-0.044222693890333176
albanien,0.043875519186258316,0.049174852669239044,0.001342262839898467,-0.12960529327392578,-0.003920446615666151,-0.01892438530921936,0.19049172103405,0.05080053582787514,0.028392469510436058,-0.055350225418806076,0.0005272317794151604,-0.11261923611164093,0.05892288312315941,0.020948898047208786,0.010036749765276909,0.020222486928105354,-0.07643479108810425,-0.03755149245262146,-0.01452658511698246,0.016046667471528053,-0.070821613073349,-0.03706084564328194,0.05012698471546173,-0.05471513047814369,-0.004283196292817593,0.08378679305315018,0.020004235208034515,0.008993581868708134,-0.0037909408565610647,-0.07770799845457077,0.049090802669525146,-0.0020190468057990074,0.03402566537261009,-0.14312700927257538,0.05068248510360718,0.023300467059016228,-0.035340145230293274,-0.05175551772117615,0.04987708479166031,0.03680039197206497,0.06095428019762039,-0.14571772515773773,-0.03615577891469002,0.13399319350719452,0.022669479250907898,0.011051840148866177,0.008685274049639702,-0.02429831586778164,0.014058738946914673,-0.06887666136026382,-0.012794503010809422,0.03539608046412468,0.08157569915056229,0.14488932490348816,0.03961129114031792,0.0956919714808464,-0.013497837819159031,-0.02815783955156803,-0.0721014216542244,-0.027216264978051186,-0.013444462791085243,-0.0736805871129036,-0.03194596990942955,0.0675826221704483,0.012686644680798054,0.031150683760643005,0.05080253258347511,-0.04926243796944618,0.009511751122772694,0.014029625803232193,0.06491433084011078,0.10527245700359344,0.033210646361112595,-0.07165486365556717,0.04172663018107414,-0.018399953842163086,-0.06600715965032578,0.030965276062488556,0.0314590148627758,-0.09748078137636185,0.10411693155765533,-0.003455962287262082,-0.0009572998969815671,-0.05307508260011673,0.004511664621531963,0.05615437403321266,-0.018634267151355743,0.06848800927400589,0.08463043719530106,0.01613999530673027,0.012549832463264465,0.029648423194885254,0.024977048859000206,-0.012106504291296005,-0.1306256800889969,0.06099517270922661,-0.025506429374217987,-0.16803744435310364,-0.06330746412277222,-0.006359043065458536,-0.003785539185628295,0.016312971711158752,0.05835207551717758,-0.015375289134681225,-0.10425721108913422,-0.018301721662282944,0.0378442108631134,-0.06092843413352966,0.009844986721873283,-0.01268494687974453,-0.056824974715709686,-0.0025123946834355593,0.052405983209609985,-0.020306311547756195,-0.060668036341667175,-0.0248256865888834,-0.04685346782207489,-0.04311532899737358,-0.03566521406173706,-0.017332537099719048,-0.07170800864696503,0.004546832758933306,-0.05340190604329109,-0.02457302249968052,0.009119710884988308,-0.004646088927984238,0.07042262703180313,0.0024266797117888927,0.011211142875254154,-0.020740309730172157,0.05356629565358162,0.0481032058596611,-0.036455389112234116,-0.01961357519030571,-0.026098476722836494,-0.10416273027658463,-0.056862134486436844,0.055221572518348694,0.12398671358823776,0.07441706955432892,0.020782610401511192,0.011590851470828056,0.016519984230399132,-0.04033629968762398,0.013241738080978394,0.07106741517782211,0.05467585101723671,-0.00901846308261156,0.025857044383883476,-0.06505393236875534,-0.0616864413022995,-0.04498393088579178,-0.021211879327893257,0.021429095417261124,-0.06596619635820389,0.03320593386888504,0.004329395014792681,-0.015347168780863285,0.06743588298559189,0.0431409515440464,-0.06358630210161209,0.0255404245108366,0.02105078101158142,0.03572428598999977,0.056466490030288696,-0.019880009815096855,0.010374849662184715,0.08686153590679169,0.06272562593221664,-0.025507213547825813,0.06563683599233627,0.1129138246178627,-0.07454898953437805,0.10615111887454987,-0.05571059137582779,0.01292781624943018,-0.057142917066812515,-0.09700548648834229,-0.08145222067832947,-0.0010416549630463123,0.06320696324110031,-0.03911749646067619,0.012754842638969421,0.03243988752365112,-0.0031347626354545355,-0.06299122422933578,0.0044522895477712154,-0.03742944821715355,-0.04551899805665016,-0.013566204346716404,0.07307605445384979,0.026897598057985306,-0.10490096360445023,-0.05136565864086151,0.043809808790683746,0.06214965134859085,-0.008348559029400349,0.03589709848165512,-0.04703003168106079,0.014318707399070263,0.005151946097612381,-0.01789240911602974,0.035138100385665894,-0.05752534419298172,-0.035863883793354034,-0.008479381911456585,-0.018785927444696426,-0.001835349015891552,0.05415428429841995,-0.11907128989696503,-0.08156148344278336,-0.01536060031503439,-0.09184763580560684,0.00586728285998106,-0.06571319699287415,0.05620695650577545,-0.03594245761632919,0.037756238132715225,0.0756746456027031,-0.09479230642318726,-0.015736404806375504,0.012415146455168724,-0.1277300864458084,-0.06646084785461426,0.16351425647735596,-0.050044864416122437,-0.04926706477999687,-0.018980195745825768,0.013547822833061218,0.030054543167352676,0.10335920006036758,0.03973410651087761,-0.006687925197184086,0.050309717655181885,-0.03644533082842827,-0.005292742978781462,-0.015072401612997055,-0.05607445538043976,0.02159089967608452,0.059940699487924576,0.05547407642006874,0.09243126958608627,-0.12558197975158691,-0.12548024952411652,0.0006951490649953485,-0.032187774777412415,0.001528252731077373,0.0036214215215295553,0.11440465599298477,0.08277742564678192,0.11505439877510071,0.0612342469394207,-0.03373086079955101,-0.019959451630711555,0.008887832053005695,0.012568744830787182,-0.022261792793869972,0.0038158090319484472,-0.05134133622050285,-0.04870573431253433,-0.0984412133693695,0.052028197795152664,-0.05733809992671013,-0.013142515905201435,0.0592496357858181,0.057085275650024414,-0.016017163172364235,0.10290338099002838,0.0010558245703577995,0.008486482314765453,0.06525138765573502,0.06325322389602661,-0.03503141552209854,-0.09254520386457443,0.0470062755048275,-0.03420094773173332,-0.03501684218645096,0.12609195709228516,0.06556746363639832,-0.01548943854868412,-0.004927095025777817,0.024838393554091454,0.0009902433957904577,0.021717391908168793,-0.02827545814216137,0.0253857783973217,0.09544922411441803,-0.02902362309396267,-0.012801045551896095,0.01602271758019924,0.032636549323797226,-0.03287734091281891,-0.05492422729730606,-0.05942562595009804,-0.03219261020421982,0.041394323110580444,-0.07874736189842224,0.04588594660162926,0.05578600615262985,-0.12326312810182571
algerien,0.020285427570343018,-0.003029820742085576,0.10675080120563507,-0.046847764402627945,0.08661051094532013,-0.028984637930989265,0.0671803429722786,-0.04070042073726654,0.13321863114833832,0.026400092989206314,0.07790999859571457,-0.12598112225532532,-0.014237437397241592,0.07126732915639877,0.03951554000377655,-0.0035647922195494175,-0.007710654754191637,-0.020756950601935387,-0.03513776883482933,0.005240349564701319,-0.0028818128630518913,0.08997264504432678,0.028275568038225174,0.05177747458219528,-0.0512157566845417,0.02630358561873436,-0.004108861088752747,0.05191608890891075,0.07167456299066544,-0.0004013310244772583,0.03211083263158798,-0.03331876918673515,-0.009513051249086857,-0.007998828776180744,-0.04538394883275032,0.05073980614542961,0.02621931955218315,-0.043965183198451996,0.13855379819869995,0.015350913628935814,0.07415441423654556,0.05135503038764,0.03536543622612953,0.10691139847040176,-0.019216731190681458,0.004606522619724274,0.0013721638824790716,-0.013498621992766857,0.04334390535950661,-0.02423975057899952,-0.09337403625249863,0.038555994629859924,0.07763874530792236,-0.05988369509577751,0.04632069543004036,-0.038403622806072235,-0.07200127840042114,-0.0285720843821764,0.03299667686223984,0.0283697210252285,-0.06267505139112473,-0.1445208489894867,-0.01799582503736019,0.12077523022890091,-0.001126183196902275,-0.049255840480327606,-0.031102510169148445,-0.08021263033151627,-0.03248057886958122,-0.026119476184248924,-0.024146882817149162,-0.09262903034687042,0.06772924214601517,0.024876387789845467,0.047029219567775726,-0.03661513701081276,-0.0683722198009491,0.04382389783859253,0.014259192161262035,-0.007918485440313816,0.0024131883401423693,0.043495289981365204,-0.03612329065799713,-0.024245472624897957,0.041540734469890594,-0.027631724253296852,0.049006909132003784,0.0008598518325015903,0.0224458035081625,0.08863768726587296,0.05602686479687691,0.08034749329090118,-0.10892504453659058,0.10996397584676743,0.005179722793400288,0.00914704892784357,-0.01728157512843609,0.020689494907855988,0.02844901941716671,0.02692311629652977,0.19464485347270966,-0.009755562990903854,0.043536946177482605,0.07316112518310547,-0.016287321224808693,-0.06973404437303543,0.04442576318979263,0.0507950633764267,-0.0523720383644104,0.02066643536090851,-0.019303694367408752,0.0914338231086731,0.025166714563965797,0.0553421825170517,0.08706601709127426,0.021586796268820763,0.026830365881323814,-0.04900659620761871,0.01976875588297844,-0.13297142088413239,-0.100274957716465,0.006241552997380495,-0.06946948915719986,-0.032947879284620285,-0.0602562353014946,0.07423842698335648,-0.148301362991333,0.03422483429312706,0.04711814969778061,0.009619959630072117,-0.0035450581926852465,0.10932186990976334,-0.09095480293035507,-0.10830169171094894,-0.04068869352340698,-0.005271304864436388,0.013961895368993282,0.07672831416130066,-0.02148551493883133,0.0932283103466034,0.008606035262346268,-0.002764805918559432,0.03373541310429573,0.04556254297494888,-0.06684409081935883,-0.023878945037722588,0.09502927213907242,0.017662938684225082,-0.017768166959285736,-0.03483229875564575,0.009570211172103882,0.03025662526488304,0.10123002529144287,-0.11825183033943176,0.09090996533632278,-0.06972411274909973,0.06746957451105118,0.05759013816714287,0.034788504242897034,-0.030501514673233032,-0.07744161784648895,0.01968234032392502,0.029469944536685944,0.028430180624127388,0.0759311392903328,0.015451101586222649,-0.017872963100671768,-0.018203968182206154,0.022722691297531128,-0.035935524851083755,0.0850878581404686,0.03068273887038231,-0.003677604254335165,0.03251617029309273,0.018828079104423523,0.003110680030658841,-0.07522642612457275,-0.10879065841436386,0.06274359673261642,-0.02766720950603485,0.0019759992137551308,0.025036515668034554,-0.10754819959402084,0.04040702059864998,-0.04016854614019394,-0.026753123849630356,0.05414610356092453,-0.024637093767523766,-0.07391686737537384,-0.015292340889573097,0.009358422830700874,0.021579565480351448,-0.062309376895427704,0.1206403598189354,-0.08084527403116226,0.007950170896947384,-0.0049773817881941795,-0.035167742520570755,0.09505501389503479,-0.008399615064263344,-0.02786998637020588,0.07363086938858032,0.04894617572426796,0.04962402209639549,0.04194438084959984,-0.016391195356845856,0.07696890085935593,-0.10396235436201096,0.05321456491947174,-0.049468621611595154,-0.029676947742700577,-0.07569248229265213,-0.045999377965927124,0.0062303608283400536,0.016457410529255867,0.07989926636219025,-0.030413947999477386,0.04814146086573601,0.024213064461946487,-0.02037043683230877,0.0724039226770401,-0.04456941410899162,-0.043373510241508484,-0.09658747166395187,0.013541231863200665,-0.08423121273517609,0.01549200527369976,-0.016149455681443214,0.027829058468341827,0.05252616107463837,0.10910952836275101,-0.002752986503764987,0.007525001186877489,-0.055928561836481094,-0.0007446265080943704,-0.011455344967544079,0.030709093436598778,0.049303095787763596,0.13494117558002472,0.011408641934394836,0.011081034317612648,-0.00045372650492936373,0.07326879352331161,-0.06946636736392975,0.06010367348790169,0.06252636760473251,-0.008397744037210941,0.1122099757194519,0.038256753236055374,0.05698085203766823,0.11015929281711578,0.05938610062003136,0.04259970411658287,-0.1028335690498352,0.04610258713364601,0.08144928514957428,0.04499170184135437,-0.050767362117767334,-0.013321575708687305,-0.018853330984711647,-0.04731309041380882,0.08231444656848907,0.07698018848896027,0.02182544395327568,-0.08308598399162292,0.0056503769010305405,0.096598319709301,0.08128022402524948,0.04350217059254646,-0.05950338765978813,-0.009829506278038025,0.054467711597681046,-0.0294454675167799,-0.03664349392056465,0.009811793453991413,0.022273872047662735,-0.013005453161895275,0.08324909955263138,0.0789376050233841,-0.026909025385975838,0.07033459842205048,0.0844537615776062,0.045102559030056,0.10563093423843384,0.0021194966975599527,-0.008788026869297028,-0.01559032779186964,-0.05709736794233322,-0.022234609350562096,-0.04400898516178131,0.045237984508275986,-0.04823857545852661,-0.008982924744486809,-0.03246253356337547,0.0006795507506467402,-0.005558438133448362,-0.065268374979496,0.06574531644582748,0.03830811753869057,0.02939741313457489
angola,0.10460914671421051,-0.007053714245557785,0.08630054444074631,-0.06952864676713943,0.08100723475217819,-0.020725533366203308,0.03509382903575897,0.03598698228597641,0.07797812670469284,-0.062164146453142166,-0.0053714425303041935,0.04958649352192879,0.11045853048563004,-0.021250924095511436,0.07924246788024902,-0.012035517022013664,0.018893174827098846,0.04602987691760063,-0.010469497181475163,-0.011557637713849545,-0.006569447927176952,0.01641746051609516,0.047169145196676254,-0.05020112544298172,-0.03619285300374031,0.11460357159376144,-0.03188616782426834,-0.015914838761091232,0.058750659227371216,0.017660507932305336,-0.02167569287121296,0.058560047298669815,-0.01656416989862919,-0.08649775385856628,-0.07366830110549927,0.02982534095644951,0.030803777277469635,-0.016271494328975677,0.020084094256162643,0.019394977018237114,-0.005406766198575497,0.05887323245406151,-0.007824795320630074,-0.01904025301337242,0.04525522515177727,-0.028182124719023705,0.019320562481880188,0.0004832869744859636,-0.021694116294384003,-0.003470622468739748,-0.06098338961601257,-0.015646889805793762,-0.020929772406816483,-0.020902156829833984,0.045505590736866,0.08468461036682129,0.023651592433452606,0.019750520586967468,0.012749820947647095,-0.04286570847034454,-0.032404642552137375,-0.0167870931327343,-0.029568850994110107,0.0032843768130987883,0.02814742922782898,0.021008318290114403,0.0374569445848465,-0.033275358378887177,0.02036486752331257,-0.05288296565413475,0.00030108762439340353,0.04479968920350075,0.031546853482723236,0.01576347090303898,0.07623370736837387,0.11087585985660553,-0.03631681576371193,0.07619278877973557,0.06691315770149231,-0.0769747793674469,0.04489568620920181,0.05721556395292282,0.01875355653464794,-0.09838701039552689,0.01167300809174776,0.03819189593195915,0.006017574109137058,-0.005672072060406208,0.03204565495252609,0.16234223544597626,-0.023678088560700417,-0.01961417682468891,0.0022855703718960285,-0.01987435296177864,0.08869586884975433,0.049096424132585526,-0.006256728433072567,-0.035676293075084686,0.11429314315319061,0.003953257109969854,0.08933191746473312,0.03058883547782898,0.13970646262168884,-0.0004263052251189947,-0.08398214727640152,0.005992450751364231,0.10071100294589996,0.009263132698833942,-0.06222103163599968,0.03824973106384277,0.02736826054751873,-0.015155945904552937,0.06705355644226074,0.11136575788259506,-0.019024765118956566,-0.04260024055838585,-0.11026033014059067,-0.10462985187768936,0.035244882106781006,-0.0266836229711771,-0.026431981474161148,0.025423316285014153,0.07226530462503433,0.020510882139205933,0.03496154025197029,0.015613804571330547,-0.031274400651454926,-0.009518375620245934,-0.004213340580463409,0.0542098730802536,0.0592024065554142,0.07457076013088226,-0.022511236369609833,0.0047325207851827145,-0.09342114627361298,0.11317244172096252,-0.015836402773857117,-0.09848824143409729,0.03198933228850365,-0.011994192376732826,0.050311051309108734,-0.045266471803188324,0.01143562700599432,-0.02273848094046116,-0.018409032374620438,-0.08338170498609543,0.10921868681907654,0.034330084919929504,0.08128880709409714,-0.010862933471798897,0.03904265910387039,0.05022891238331795,0.16893815994262695,0.04308377951383591,0.04696345701813698,-0.005955986212939024,0.055969178676605225,0.0692761167883873,0.1115889921784401,-0.004248839803040028,-0.03229186311364174,-0.14149576425552368,0.053129106760025024,0.004873627796769142,-0.060787416994571686,0.0003215166798327118,0.005046508274972439,0.008068451657891273,0.05456415191292763,0.03413300961256027,0.020693819969892502,0.09092455357313156,-0.004564833361655474,0.04002859815955162,0.022469928488135338,-0.06582330912351608,0.0017085903091356158,0.04276019334793091,-0.02070200815796852,-0.04496612772345543,-0.06434019654989243,-0.05238329991698265,-0.013218997046351433,0.09428386390209198,0.03802574798464775,-0.030692001804709435,0.11452222615480423,-0.029237834736704826,-0.05052303895354271,0.005066170822829008,-0.02338341437280178,-0.004005953669548035,-0.08496416360139847,0.052821096032857895,0.0035524084232747555,0.05123286694288254,-0.012249823659658432,0.037246059626340866,0.05081012845039368,-0.022300155833363533,-0.05639295279979706,-0.04673651605844498,0.01536010392010212,-0.011116905137896538,0.04745933413505554,0.000582982727792114,0.08403622359037399,-0.002525852993130684,-0.002613697201013565,-0.0077623301185667515,-0.09232613444328308,-0.09590926766395569,-0.08526140451431274,0.02323935367166996,0.0377965122461319,0.11905832588672638,0.0488421656191349,-0.03298196941614151,0.03442363068461418,-0.034755293279886246,0.05359451845288277,-0.016364723443984985,-0.09112319350242615,-0.15140479803085327,0.07963592559099197,-0.14170637726783752,0.05908674746751785,-0.10809479653835297,0.041739363223314285,0.042791664600372314,0.0628223642706871,0.07777982950210571,-0.008530310355126858,-0.013237804174423218,-0.009829986840486526,0.008641618303954601,-0.06618927419185638,-0.017928171902894974,-0.019494280219078064,0.04985123127698898,-0.0239960178732872,0.048171523958444595,-0.12277615070343018,-0.024535857141017914,0.06418159604072571,-0.06230482459068298,-0.005297429393976927,0.06405453383922577,-0.021437782794237137,-0.029839208349585533,0.10491126030683517,-0.014739256352186203,-0.004428391344845295,-0.0055463588796556,0.04114497825503349,0.13596151769161224,-0.04838702455163002,-0.03691558167338371,0.04591527208685875,-0.047520145773887634,-0.03300661966204643,0.10364457964897156,0.06062643229961395,0.01013638824224472,0.10582977533340454,0.06946532428264618,0.11661376059055328,0.06773117929697037,-0.017813049256801605,0.053273994475603104,-0.09881693869829178,0.05660180002450943,-0.060075514018535614,-0.11016775667667389,0.06498195230960846,-0.10030626505613327,-0.08938682079315186,0.06337810307741165,0.06749172508716583,0.08673326671123505,0.1074235811829567,0.024057714268565178,0.09614573419094086,0.025739625096321106,0.05038181692361832,-0.02530253678560257,-0.08701203763484955,-0.03765876218676567,-0.03296385332942009,0.06232089176774025,0.016989892348647118,-0.02716756984591484,-0.021042965352535248,-0.011840353719890118,-0.005308457184582949,-0.026283740997314453,0.007788002025336027,0.04932026192545891,0.06208738684654236,-0.04393234848976135
argentinien,0.05055699497461319,-0.026073908433318138,0.07288256287574768,-0.052920110523700714,0.04699623957276344,-0.030559388920664787,0.0399332270026207,-0.0799098089337349,0.07059991359710693,-0.10565828531980515,-0.024302547797560692,-0.12168842554092407,0.010929818265140057,-0.1226804181933403,0.022586703300476074,0.05910499766469002,0.021497920155525208,0.039685606956481934,0.026967601850628853,-0.00018800084944814444,0.008642836473882198,-0.0009031520457938313,0.00018265130347572267,0.052878621965646744,0.007986734621226788,0.03299212455749512,-0.10824260115623474,-0.05111691355705261,0.019623110070824623,0.04749731719493866,-0.0289500430226326,0.01833014003932476,-0.02453083172440529,-0.10526144504547119,0.09869305789470673,-0.07472419738769531,0.001172181568108499,0.04931291192770004,0.07486322522163391,0.009630018845200539,-0.0825456753373146,0.0017976949457079172,0.03461570665240288,0.002635484328493476,-0.035124197602272034,-0.09719268232584,0.0032416151370853186,-0.008521655574440956,0.06661602109670639,-0.0014344407245516777,-0.06640367954969406,-0.03186707943677902,0.05637247487902641,-0.008033710531890392,0.014045448042452335,0.07621067762374878,-0.11190415173768997,0.042818568646907806,-0.01889117620885372,-0.00017444563854951411,-0.029744774103164673,-0.11790516972541809,-0.11860460042953491,0.07614268362522125,0.05204930528998375,-0.020979903638362885,-0.04779690131545067,0.010185044258832932,-0.0035656867548823357,0.00786930788308382,-0.005168823525309563,-0.06661518663167953,0.009386267513036728,-0.014287681318819523,0.07846391946077347,0.0717068612575531,-0.006937526632100344,0.11242026090621948,-0.015657536685466766,-0.043742015957832336,0.0031635374762117863,0.014022120274603367,-0.12382925301790237,-0.06183942034840584,0.1090780645608902,0.09822873026132584,0.0013479599729180336,0.04884478077292442,0.03528182953596115,-0.030672550201416016,-0.05235783010721207,0.055768392980098724,0.03991638496518135,-0.018075482919812202,0.0728171318769455,0.08669117093086243,-0.06186205521225929,0.059128567576408386,0.051084406673908234,0.01017296127974987,0.023006264120340347,0.02684953063726425,0.08090938627719879,0.03334415331482887,-0.0816008523106575,-0.08451086282730103,0.042063843458890915,0.06825649738311768,-0.11237145215272903,0.08620966225862503,-0.038942206650972366,-0.04533117264509201,0.1367747038602829,-0.03616016358137131,-0.05528317019343376,-0.043017469346523285,0.02866906113922596,-0.01409298274666071,0.012295329011976719,0.03552509471774101,-0.021875478327274323,-0.0038077940698713064,0.03157718852162361,-0.039104487746953964,-0.055361077189445496,0.010037333704531193,-0.1104479432106018,-0.012227093800902367,0.0009300115634687245,0.035549014806747437,-0.008907439187169075,0.024560319259762764,-0.11227469891309738,-0.06973527371883392,-0.01331335585564375,-0.01287178136408329,-0.059061385691165924,0.05502507463097572,0.07776718586683273,-0.018780143931508064,0.013970298692584038,0.05485441908240318,0.09597152471542358,0.02011875808238983,0.07603449374437332,-0.08793563395738602,0.004384489730000496,0.0757235586643219,0.05137446150183678,-0.13365784287452698,0.001013818196952343,-0.0364668183028698,0.12001869082450867,-0.019923565909266472,-0.0026068014558404684,0.05368965119123459,0.12560898065567017,-0.01448297780007124,0.06278759986162186,-0.02133408933877945,0.05622950568795204,-0.017560843378305435,0.011599572375416756,-0.017050819471478462,-0.011062164790928364,0.024948421865701675,0.02267375774681568,-0.04711021110415459,0.09035951644182205,-0.00889482069760561,0.06559756398200989,-0.02463192492723465,-0.08027634024620056,0.04370507970452309,-0.11362721025943756,-0.06895113736391068,-0.014056023210287094,0.04198889806866646,-0.05883133038878441,0.0032615617383271456,0.0517219640314579,-0.025148674845695496,-0.0034477512817829847,0.06576339900493622,0.013273578137159348,-0.02681099623441696,0.06401185691356659,-0.003289388259872794,-0.0013908614637330174,0.013365577906370163,0.0684543326497078,0.06650897860527039,-0.1280098408460617,0.015451797284185886,-0.01911775954067707,-0.03986211493611336,-0.10245627164840698,0.0724841058254242,-0.11466126888990402,-0.10904262214899063,-0.003804192179813981,-0.038441941142082214,-0.00015820290718693286,0.010850051417946815,-0.037081241607666016,-0.001863153069280088,0.039107684046030045,-0.08987520635128021,-0.030124898999929428,-0.017564604058861732,0.0155349625274539,-0.016166316345334053,0.03805698826909065,-0.07256963849067688,-0.015286903828382492,0.009818180464208126,-0.014856833964586258,-0.09720940887928009,-0.0611707866191864,-0.00019202941621188074,0.09281744807958603,0.012106441892683506,-0.12049265205860138,-0.15677312016487122,0.01844085566699505,-0.09583651274442673,-0.03308913856744766,-0.0010007784003391862,-0.07267171144485474,-0.029175490140914917,0.0016640385147184134,0.0011252484982833266,0.033431053161621094,-0.019693225622177124,0.01840287819504738,0.049065567553043365,0.03619382902979851,-0.01781778410077095,0.013610459864139557,-0.14938020706176758,-0.038769856095314026,-0.03629626706242561,-0.06055242940783501,-0.03981967642903328,0.05438034608960152,0.012256275862455368,0.057305023074150085,0.08965135365724564,-0.02536150999367237,-0.017287246882915497,-0.048116281628608704,0.029076727107167244,-0.10813096165657043,0.06782878935337067,0.04575183615088463,0.12612952291965485,0.019798215478658676,-0.00380862969905138,-0.10344409197568893,0.04080621153116226,-0.010106002911925316,0.07529199868440628,-0.03211738169193268,0.010728067718446255,-0.021423103287816048,-0.010809298604726791,0.020495595410466194,0.0627271756529808,-0.019890019670128822,-0.026423189789056778,0.10737051069736481,0.0023419330827891827,0.00213220389559865,0.039358239620923996,0.06405282020568848,-0.019168134778738022,-0.05603589862585068,-0.014128766022622585,-0.0020538107492029667,0.08011263608932495,0.001035136403515935,-0.07281946390867233,-0.08484644442796707,0.09448449313640594,0.024785542860627174,-0.03416115790605545,-0.03621756285429001,0.07997436076402664,-0.04182090610265732,0.0013272286159917712,0.07968641072511673,-0.12714965641498566,-0.0391826257109642,-0.021957751363515854,-0.03129172697663307,-0.06251444667577744,0.008845958858728409,-0.014566577039659023,0.04829072207212448,-0.06188158318400383
armenien,0.006354518234729767,-0.046205971390008926,0.06392715126276016,-0.06301483511924744,-0.0047066546976566315,-0.08758299797773361,0.08752821385860443,-0.02175338752567768,-0.022114016115665436,-0.05552678555250168,0.007130524143576622,0.005951521452516317,-0.09110718965530396,0.009608086198568344,-0.0123744560405612,0.06248841807246208,-0.035948432981967926,-0.06655287742614746,-0.03825823590159416,0.034705907106399536,-0.009733818471431732,0.052794259041547775,0.04712546616792679,-0.027323776856064796,0.03953053429722786,0.02097700908780098,-0.07439316064119339,0.030644763261079788,0.028307899832725525,0.031647250056266785,0.03733327239751816,-0.056418027728796005,0.0010168207809329033,-0.06940900534391403,0.04975657910108566,0.0425829216837883,-0.01138194277882576,-0.05332833155989647,0.017841527238488197,0.025755835697054863,-0.06072259321808815,0.027759632095694542,0.050998393446207047,0.06762456893920898,-0.033498771488666534,0.06176359951496124,-0.0029602504801005125,0.04773944243788719,-0.06683802604675293,0.0051714517176151276,-0.14027032256126404,0.06658104807138443,0.05149013549089432,-0.02095097489655018,-0.0034485121723264456,-0.003383691655471921,-0.030916953459382057,-0.03941872715950012,0.028109677135944366,-0.060604169964790344,-0.051874447613954544,0.0038124071434140205,-0.02232430689036846,0.000784265692345798,0.019334256649017334,-0.025985561311244965,0.014199177734553814,-0.09876169264316559,-0.04830542579293251,-0.03382856398820877,0.08769681304693222,0.017540723085403442,0.008693816140294075,0.012373292818665504,0.023649871349334717,0.03519875556230545,-0.016883518546819687,0.029799122363328934,0.0724712610244751,-0.059190671890974045,0.02336941473186016,-0.07683728635311127,-0.020728707313537598,-0.034297872334718704,0.10548005253076553,0.009294236078858376,0.04309694468975067,0.04220892861485481,0.0673443078994751,-0.06708057224750519,-0.03263477981090546,0.020052576437592506,-0.036175139248371124,0.08622954040765762,-0.022254981100559235,-0.06064455583691597,-0.02678751014173031,-0.062170952558517456,0.08659134060144424,-0.049407534301280975,-0.04341283440589905,0.03268780559301376,0.03177691996097565,0.03138994798064232,-0.1009138822555542,0.010566765442490578,0.002895412966609001,-0.08351048827171326,-0.11504989117383957,0.009058604948222637,0.0010108971036970615,0.050030093640089035,0.08059529215097427,0.02070244401693344,0.007242843974381685,-0.006547837983816862,-0.024380752816796303,-0.07568337768316269,0.05564429983496666,0.07980474829673767,-0.04185805097222328,0.05760470777750015,-0.024633154273033142,0.16995671391487122,0.03861800208687782,0.02510705590248108,0.05132928863167763,-0.008096423000097275,-0.04981236904859543,0.06155591458082199,0.08781160414218903,-0.04272300377488136,-0.0981576070189476,-0.06555915623903275,-0.1334441602230072,0.09035857021808624,-0.13459959626197815,0.04600909724831581,0.06937185674905777,0.11499831080436707,0.08649361878633499,0.13216803967952728,0.05054296925663948,0.009721281006932259,0.011687193065881729,-0.002175329253077507,0.004141862038522959,0.06213165447115898,0.01778651960194111,-0.005169255193322897,0.019749701023101807,-0.026983950287103653,0.06634508073329926,0.0026867215055972338,-0.07635457813739777,0.05868542939424515,0.07593347132205963,0.0033869489561766386,0.018147336319088936,-0.01855969801545143,-0.10792918503284454,0.0015432704240083694,0.040836483240127563,0.031409330666065216,-0.015499938279390335,0.0013262293068692088,0.029057733714580536,-0.014597426168620586,0.04776348918676376,-0.04585982486605644,0.08054272830486298,0.05033961310982704,-0.02028731442987919,0.01433874387294054,-0.09344357252120972,-0.11111321300268173,0.010325849987566471,-0.01896090805530548,0.04556207358837128,-0.05344067141413689,-0.009037922136485577,0.018541228026151657,0.021674836054444313,0.04750552773475647,-0.010208327323198318,0.038211941719055176,-0.017270002514123917,-0.09073687344789505,-0.08955039829015732,0.043130576610565186,-0.06460367888212204,-0.00434884475544095,-0.10764171928167343,-0.09946808218955994,-0.04095897078514099,0.008710071444511414,-0.05631522089242935,0.025876346975564957,-0.05349964275956154,-0.029990315437316895,-0.10629758983850479,-0.04725078493356705,0.052777696400880814,-0.0010270543862134218,0.025097094476222992,0.07785728573799133,0.05163925141096115,0.034057632088661194,-0.0065977489575743675,-0.1843888759613037,-0.11121758818626404,-0.013956040143966675,-0.04558733478188515,-0.03799762576818466,-0.05444378778338432,0.06334536522626877,0.0728151798248291,-0.04304639250040054,0.018334297463297844,-0.030286375433206558,-0.01920839212834835,0.012343751266598701,-0.009127293713390827,-0.051578812301158905,0.07631458342075348,-0.08376533538103104,-0.024714060127735138,-0.0029042642563581467,-0.04648176208138466,0.06952006369829178,0.07711668312549591,0.06123488023877144,-0.07085976004600525,-0.012021554633975029,0.025131553411483765,-0.04082956910133362,0.043091386556625366,-0.1003682091832161,0.05340112745761871,-0.10316908359527588,0.03779613971710205,0.04802139103412628,-0.058469172567129135,-0.031627945601940155,0.1272958368062973,-0.019074399024248123,-0.02734050340950489,0.07330713421106339,0.035850074142217636,-0.0017399578355252743,0.0988009124994278,0.04500790685415268,0.01545117236673832,-0.10360316187143326,0.09429411590099335,0.08703737705945969,-0.0332682728767395,0.040327392518520355,-0.04382406920194626,0.020780161023139954,-0.01256299577653408,0.09340665489435196,-0.09357064217329025,-0.02209635265171528,-0.03450492024421692,0.10131380707025528,0.04064856469631195,-0.024566903710365295,-0.041132740676403046,0.03416704386472702,0.03839043155312538,0.06687147915363312,-0.004733062814921141,-0.08968283981084824,0.07826568931341171,-0.04499734938144684,-0.05314989015460014,0.07012587040662766,0.028272267431020737,0.02114073559641838,-0.08356441557407379,0.17306192219257355,-0.07439568638801575,0.10000680387020111,0.04453049227595329,0.027759673073887825,0.018920937553048134,-0.003654161002486944,0.060642093420028687,0.018831737339496613,-0.02991577610373497,-0.02066693641245365,0.08059409260749817,-0.027508871629834175,-0.01979709602892399,0.04394082352519035,-0.002826426178216934,0.006222157273441553,0.15488585829734802,0.04935874044895172
aserbaidschan,0.0007344158948399127,0.022087978199124336,0.003092511324211955,-0.10164181143045425,0.0766410082578659,-0.10533048212528229,0.08848880231380463,0.05637722089886665,-0.03642704710364342,-0.04769450053572655,0.04753104969859123,-0.04880599305033684,-0.0443555973470211,-0.013615811243653297,-0.022145355120301247,0.030771462246775627,-0.07688567787408829,0.004158649127930403,-0.06329961121082306,0.08994577080011368,0.01207119319587946,0.10538465529680252,0.06434869766235352,0.01033191941678524,0.036587849259376526,0.10047375410795212,-0.06624217331409454,0.05428741127252579,0.0683429017663002,0.005285655613988638,0.03765786066651344,-0.023245129734277725,0.023431656882166862,-0.10821377485990524,0.006146491505205631,0.08391525596380234,-0.04193692281842232,-0.11634565144777298,0.07880322635173798,-0.011181666515767574,-0.04440930485725403,0.020516959950327873,0.06870252639055252,0.06810759752988815,-0.020330630242824554,0.06632321327924728,0.008144180290400982,0.05241307616233826,0.04794786497950554,-0.010624338872730732,-0.11323855817317963,0.07397879660129547,0.014364791102707386,-0.0002636101271491498,0.034687165170907974,0.01582486182451248,-0.03516237810254097,-0.00928361713886261,-0.047257840633392334,-0.040690287947654724,-0.038859374821186066,0.009837605990469456,0.013263643719255924,0.04735729470849037,0.08288906514644623,0.030122576281428337,0.08012561500072479,-0.08611474186182022,0.018803661689162254,-0.0680479109287262,0.031809356063604355,-0.009425542317330837,-0.047829803079366684,-0.005615301430225372,0.04213634505867958,0.06782224774360657,-0.02205699123442173,0.06456423550844193,0.006757534574717283,-0.09812091290950775,0.009181595407426357,-0.03682349622249603,0.02294963039457798,0.006785753183066845,0.09004680812358856,-0.016790153458714485,-0.03239664435386658,0.04985986649990082,0.0462845042347908,0.0013777759158983827,0.007538139820098877,0.005264175124466419,-0.00815181341022253,0.008961544372141361,0.01777411438524723,0.013546766713261604,-0.1256590634584427,-0.07405880838632584,0.035299982875585556,-0.051325473934412,-0.018389426171779633,0.022069262340664864,-0.040674708783626556,0.05629970505833626,-0.05900556594133377,-0.025154612958431244,0.11422153562307358,-0.0270267091691494,-0.1137106791138649,0.0036715816240757704,-0.04378015920519829,0.09204957634210587,0.06226754188537598,0.03627403452992439,0.02537504769861698,-0.07211481779813766,-0.004873547237366438,-0.12308157235383987,0.025735732167959213,0.07693710178136826,-0.010274302214384079,-0.005460517946630716,-0.08533430844545364,0.11490175873041153,0.05882734805345535,0.0958731397986412,-0.009567651897668839,0.05309072509407997,-0.01630924642086029,0.14592646062374115,0.08019789308309555,-0.01093743834644556,-0.03506553918123245,-0.02672278694808483,-0.1583128571510315,-0.014161786995828152,-0.05724570155143738,0.05980445817112923,0.14061781764030457,0.12808097898960114,0.030088840052485466,0.04807941988110542,0.03680863976478577,0.013138973154127598,-0.007392292842268944,-0.005133648402988911,-0.021653467789292336,0.007596334908157587,0.06797637790441513,0.03267550840973854,-0.0150919109582901,0.04425239562988281,0.09090627729892731,-0.007259537000209093,-0.04674524813890457,-0.021396970376372337,0.023160763084888458,0.04941869527101517,-0.056589704006910324,-0.013263840228319168,-0.06774868071079254,-0.047315917909145355,0.015348032116889954,0.031089020892977715,-0.009389467537403107,-0.026831379160284996,0.0006346674053929746,0.03127482160925865,0.07678038626909256,-0.0319782979786396,-0.006689080502837896,0.04812907427549362,-0.052635300904512405,0.022149115800857544,0.018302274867892265,-0.057493384927511215,-0.013340258039534092,-0.1327851563692093,-0.004683323670178652,-0.06643444299697876,0.029299285262823105,0.02029118873178959,0.011464271694421768,0.017975451424717903,-0.0026650859508663416,-0.009868793189525604,0.009575719013810158,-0.07443176954984665,-0.0214320607483387,0.04299215227365494,0.005027909763157368,-0.057917144149541855,-0.10557912290096283,-0.07441851496696472,-0.05765856057405472,0.04890294745564461,0.011680389754474163,0.10124346613883972,-0.10247288644313812,-0.05055546388030052,-0.09262686222791672,-0.06988447904586792,-0.03509748354554176,0.05225921794772148,0.08962893486022949,0.08973865211009979,0.051823340356349945,0.005992170888930559,0.0528428815305233,-0.15263110399246216,-0.12746946513652802,0.022253569215536118,-0.03774357959628105,-0.0072136144153773785,-0.015834547579288483,0.035233210772275925,0.008704138919711113,-0.02299352176487446,0.0002551526704337448,-0.03359753265976906,0.07275278121232986,-0.0723753422498703,-0.021778220310807228,-0.09418558329343796,0.01656544767320156,-0.09402452409267426,-0.05743866413831711,0.01821388490498066,0.03654923662543297,0.10963860154151917,0.05150100216269493,0.03467199206352234,-0.0385647788643837,0.018842212855815887,0.015104514546692371,-0.04895002767443657,0.02275545708835125,-0.05262293294072151,0.07437565177679062,-0.038582004606723785,0.028503086417913437,0.08255878835916519,-0.0807417705655098,-0.04267266392707825,0.03974657505750656,-0.032432928681373596,0.010833825916051865,0.027079284191131592,0.02783111110329628,-0.040009964257478714,0.06508486717939377,-0.0025660954415798187,0.03673933446407318,-0.09449906647205353,0.0013760393485426903,0.1358182430267334,-0.05007712170481682,0.020975518971681595,-0.02992190606892109,0.025788405910134315,0.020383654162287712,0.105649434030056,-0.014027389697730541,-0.02557283081114292,-0.046716589480638504,0.010639971122145653,0.1131773442029953,0.03491905704140663,0.05923496559262276,0.03456825762987137,0.039562974125146866,0.10140382498502731,-0.03651309758424759,-0.1161305159330368,0.0037770140916109085,-0.03175037354230881,-0.041948847472667694,0.040609706193208694,0.05224986374378204,0.03162507712841034,-0.06312885135412216,0.08175494521856308,-0.023614248260855675,0.01158061996102333,0.0028181024827063084,0.04248863086104393,0.13155896961688995,-0.09343576431274414,0.018087834119796753,-0.01486774068325758,0.004809047561138868,-0.1004452034831047,0.08002877235412598,0.0023623723536729813,0.00679160887375474,0.11028347164392471,-0.044230736792087555,-0.03899417072534561,0.0710725337266922,-0.02836778573691845
äthiopien,0.010270063765347004,-0.037153616547584534,0.04929706081748009,-0.01746288873255253,-0.05940037593245506,-0.05069250240921974,0.11053256690502167,0.03011024184525013,0.052474599331617355,-0.07025701552629471,-0.10314320772886276,0.03169167786836624,-0.05654960498213768,-0.05751672387123108,-0.037493910640478134,0.051087137311697006,0.026284702122211456,0.06047344207763672,-0.06933248788118362,0.04281742870807648,0.03746067360043526,0.07443778216838837,0.043085936456918716,-0.03468644246459007,-0.04107695445418358,0.06372060626745224,0.0950157567858696,0.017907967790961266,-0.07104446738958359,0.008834686130285263,0.08125036954879761,0.0004929934511892498,0.08779092133045197,-0.03699370101094246,0.059980232268571854,-0.03368797153234482,0.05678541958332062,-0.07537543028593063,-0.0735863596200943,-0.03162752836942673,0.06187652796506882,-0.08980660140514374,0.013601270504295826,-0.04440665617585182,0.05658789724111557,-0.001114140497520566,0.0009491982054896653,-0.0019461995689198375,-0.03923768177628517,0.03178632631897926,-0.11093595623970032,0.02604658715426922,-0.008588031865656376,-0.019147135317325592,0.0464470349252224,-0.02127876691520214,-0.08823662996292114,0.06718487292528152,0.06693825870752335,-0.039562251418828964,0.013352463953197002,-0.07405684888362885,-0.04226154088973999,0.012866213917732239,0.046589095145463943,0.08297083526849747,-0.03697286918759346,-0.039441268891096115,0.030979733914136887,0.10059265792369843,-0.04977606236934662,-0.0033399781677871943,0.028945401310920715,-0.012421526946127415,-0.013191952370107174,0.058805737644433975,-0.04706845432519913,0.06858471035957336,-0.024350177496671677,-0.028453601524233818,0.018432023003697395,0.06290309876203537,-0.08547502011060715,-0.10021458566188812,0.01626000925898552,0.05103803798556328,0.02368464320898056,0.05530934780836105,-0.00022774090757593513,-0.07110191881656647,0.01325589045882225,0.00609212089329958,-0.008222522214055061,-0.012694100849330425,-0.03789062425494194,-0.006935959216207266,0.01576818898320198,0.10147955268621445,-0.05758161470293999,-0.09580177813768387,0.09005667269229889,0.04097502678632736,0.135664165019989,-0.013134286738932133,-0.034375693649053574,-0.06332612037658691,0.07407005876302719,0.043893180787563324,-0.017493685707449913,0.03817444667220116,-0.018439505249261856,0.018247190862894058,0.12681221961975098,0.04443804547190666,0.025031989440321922,-0.0313941165804863,-0.09005573391914368,-0.018275186419487,-0.043315619230270386,-0.042154811322689056,-0.07122467458248138,-0.0180532094091177,-0.0030996245332062244,-0.03399771451950073,0.043109383434057236,0.07851763814687729,-0.03695322945713997,0.05831292271614075,-0.14428739249706268,0.11016718298196793,0.06382177770137787,-0.030884606763720512,-0.06259327381849289,-0.04705241695046425,-0.027206944301724434,0.02874872460961342,-0.031692024320364,0.014939544722437859,0.11157160252332687,0.015253828838467598,0.06782298535108566,-0.02614208310842514,0.034839242696762085,0.013914419338107109,-0.08489897847175598,0.05057475343346596,0.09118101000785828,0.014961032196879387,0.08950594067573547,-0.11812938749790192,0.010898618027567863,0.05442333593964577,0.09381679445505142,-0.04529285803437233,0.01067036297172308,-0.02916613034904003,0.09357283264398575,-0.027248168364167213,-0.030126793310046196,-0.10152681916952133,-0.02855328656733036,-0.0903274416923523,0.04298238828778267,-0.10264439135789871,-0.04697569087147713,0.032210759818553925,0.04741024598479271,0.02023908495903015,0.045680951327085495,0.029489658772945404,0.01837538182735443,-0.06034206226468086,-0.047462545335292816,0.011124635115265846,-0.08251113444566727,0.01529113668948412,0.010189934633672237,-0.00228290818631649,0.026074251160025597,0.04622035473585129,0.054160695523023605,0.01674191839993,0.016307348385453224,0.03222811967134476,0.08039220422506332,-0.023136751726269722,0.046113740652799606,-0.0177513025701046,-0.05835096165537834,-0.0945146456360817,0.022423993796110153,-0.03790530934929848,-0.08138719946146011,-0.024801013991236687,-0.07620459049940109,-0.04076594486832619,-0.05778105556964874,0.05815679207444191,-0.038573164492845535,-0.10669989138841629,-0.0067348964512348175,0.03176140412688255,0.07051312923431396,0.036875009536743164,0.042510174214839935,0.01746392622590065,0.09049686789512634,-0.05893999710679054,0.09337612241506577,-0.057496655732393265,0.03442090377211571,0.03936074301600456,-0.0014273581327870488,-0.0026552886702120304,0.026309888809919357,0.09959755092859268,-0.08778586983680725,-0.007529247552156448,0.008540001697838306,-0.046221982687711716,0.00202233181335032,-0.0563010610640049,-0.06522001326084137,-0.03308159485459328,0.08918129652738571,-0.1497650295495987,-0.0377054326236248,0.027707498520612717,0.024516738951206207,0.066012904047966,0.003210283350199461,0.03061901591718197,-0.11900167167186737,0.023308031260967255,-0.11982494592666626,-0.0025912239216268063,-0.035716712474823,0.02711302973330021,0.10350465029478073,-0.08872643858194351,-0.023495201021432877,-0.011050217784941196,-0.15174207091331482,-0.09932319074869156,0.1442432850599289,-0.01821005716919899,0.019922452047467232,0.042051054537296295,0.002354162046685815,0.0033009457401931286,0.11937665194272995,-0.07344381511211395,0.010188580490648746,-0.019935211166739464,0.07628335058689117,0.06054617092013359,0.0681862011551857,-0.051079098135232925,0.05555138364434242,-0.006343417335301638,-0.08754061162471771,0.011777463369071484,-0.024904385209083557,-0.0444374643266201,0.026669219136238098,-0.04353955015540123,0.09264662861824036,0.05453720688819885,0.0036613072734326124,-0.04244173318147659,0.0765179917216301,0.07839223742485046,0.026873646304011345,-0.11332479864358902,-0.0458633117377758,0.031914517283439636,0.007569417357444763,0.023638257756829262,0.03066493570804596,0.08859957009553909,0.055742837488651276,0.032464515417814255,0.04670931026339531,0.01485242135822773,0.0314592644572258,-0.014887149445712566,0.038577038794755936,-0.02862820401787758,0.02994660660624504,0.05578179284930229,0.032983846962451935,-0.10174560546875,-0.006245534401386976,-0.008355222642421722,0.0018273143796250224,0.11493374407291412,-0.06278221309185028,0.028259271755814552,0.026952289044857025,0.08168298751115799
australien,0.017118265852332115,0.07951799780130386,-0.023614434525370598,-0.01548435352742672,0.07507485896348953,-0.026257731020450592,-0.017324846237897873,0.09566278755664825,0.10104085505008698,-0.00979593489319086,0.05586403235793114,-0.028201133012771606,-0.01333053968846798,-0.0010044656228274107,-0.07049262523651123,0.10042403638362885,-0.0342724435031414,-0.013924414291977882,-0.032714735716581345,0.029342981055378914,0.04779722914099693,0.07404359430074692,0.02811291813850403,-0.01884576864540577,-0.09633320569992065,0.05350668355822563,-0.055961087346076965,-0.006554952822625637,0.058306507766246796,0.009262330830097198,0.023114191368222237,0.0654493197798729,0.11041843146085739,-0.09702645987272263,0.007691324222832918,-0.01992485485970974,-0.03946417197585106,-0.09868220239877701,0.07482721656560898,0.0003167999966535717,-0.0025884269271045923,0.002059953985735774,0.05045792832970619,0.11901036649942398,0.05384916812181473,0.18012268841266632,-0.022375809028744698,0.07587600499391556,0.009899783879518509,-0.060737162828445435,0.03250773996114731,-0.07389039546251297,0.00919254682958126,0.06697016209363937,0.07191978394985199,-0.014648082666099072,-0.06840717047452927,0.03920908272266388,-0.08374465256929398,-0.053458645939826965,-0.015220917761325836,-0.03468192368745804,0.01989312283694744,-0.006620693951845169,0.031207138672471046,0.024164903908967972,0.03525879979133606,0.04076576605439186,-0.10083475708961487,0.06460320204496384,0.05210027098655701,0.008393957279622555,0.01938663423061371,-0.018954990431666374,-0.0018976731225848198,0.08099126815795898,-0.011875102296471596,0.1024143174290657,0.02899336628615856,-0.13854284584522247,0.1349925547838211,0.035130009055137634,-0.041276901960372925,-0.01994856633245945,-0.021189643070101738,-0.01006742101162672,-0.04395461082458496,-0.040436580777168274,-0.0340295247733593,0.028017152100801468,0.02177196554839611,0.06128346174955368,-0.043922267854213715,-0.002057617763057351,-0.02762312814593315,0.02227015607059002,-0.08344467729330063,-0.06909529864788055,-0.019361281767487526,-0.005052218679338694,0.03901946172118187,0.017678851261734962,-0.06276336312294006,-0.003761905711144209,-0.09506697207689285,-0.03959330543875694,0.12103261798620224,-0.035283882170915604,-0.05040415748953819,0.0511777363717556,0.030263813212513924,-0.009599198587238789,0.029304523020982742,0.0037755111698061228,-0.04917654022574425,0.03413764759898186,0.019376492127776146,-0.06143060699105263,-0.038597386330366135,0.01708321087062359,-0.13972099125385284,-0.09799597412347794,0.04733803868293762,0.000871881318744272,0.027313224971294403,0.08590405434370041,0.032488275319337845,-0.014686277136206627,0.09583166241645813,0.13712657988071442,0.10456615686416626,-0.01998649351298809,-0.0936167985200882,0.022489411756396294,-0.008965760469436646,0.04022568091750145,-0.005485528148710728,0.07816341519355774,0.03533097729086876,0.04899250715970993,0.04039140045642853,0.006309485528618097,0.06960588693618774,0.031216809526085854,0.058388736099004745,-0.053332746028900146,-0.054956186562776566,0.023488273844122887,-0.07076898962259293,-0.08237934857606888,0.011538001708686352,0.04058023914694786,-0.0035369298420846462,0.07644139230251312,0.06726919859647751,0.0020969018805772066,0.07016930729150772,0.019435381516814232,0.06784083694219589,-0.048619940876960754,-0.06078833341598511,-0.030464986339211464,0.07409194856882095,0.02157265692949295,-0.05244571343064308,0.05062256008386612,-0.024181589484214783,0.0606321282684803,0.1372048705816269,0.10124802589416504,-0.06795670837163925,-0.03849680349230766,-0.04161841422319412,0.05780402943491936,-0.03529449924826622,-0.0467187725007534,-0.06043040752410889,-0.0521165207028389,0.026405690237879753,-0.07890040427446365,0.11301843076944351,0.06585662811994553,0.0028445746283978224,0.02907070331275463,0.024332912638783455,0.008916419930756092,-0.03142724558711052,-0.03622284159064293,-0.030611973255872726,-0.06920880824327469,0.045237138867378235,-0.02427751198410988,0.012668452225625515,-0.07076824456453323,0.09267646819353104,0.08606722950935364,0.007384095806628466,0.0748496949672699,-0.17514701187610626,-0.0449528768658638,-0.04682838171720505,-0.01187333557754755,0.07555003464221954,0.08365776389837265,0.016815224662423134,-0.11446007341146469,0.039938438683748245,-0.1644580066204071,0.011757920496165752,-0.018874775618314743,-0.07061392068862915,0.03651406243443489,0.05950336158275604,-0.034355279058218,0.015220177359879017,0.02280166558921337,0.08518057316541672,-0.06927703320980072,-0.06880582123994827,-0.022820204496383667,0.03714856877923012,-0.06559079885482788,-0.04695010185241699,-0.00017970016051549464,0.1294957846403122,-0.055144671350717545,-0.023939011618494987,0.020577650517225266,-0.00770231056958437,0.06799492239952087,0.006613094359636307,0.014182048849761486,0.010473602451384068,0.03242354094982147,0.13395021855831146,0.018843958154320717,-0.0058049908839166164,-0.017632896080613136,-0.047535769641399384,-0.06709638237953186,0.014019325375556946,0.043488044291734695,0.009733520448207855,-0.06792795658111572,-0.02097971737384796,0.016359055414795876,0.07213468849658966,0.07402194291353226,0.02466091886162758,0.05764402449131012,0.01734057068824768,0.051963821053504944,0.002646975452080369,-0.007724182680249214,0.06864967942237854,0.08601409941911697,-0.11050906032323837,0.022879602387547493,-0.04475391283631325,0.057884104549884796,-0.0711253359913826,-0.040365371853113174,-0.03020956553518772,0.0775294303894043,-0.04977676272392273,-0.019806580618023872,0.08983205258846283,0.026638954877853394,0.012373794801533222,-0.03146423026919365,-0.025314049795269966,0.04145308583974838,-0.08361151814460754,-0.06606531888246536,0.0941866785287857,-0.03261444345116615,-0.019434696063399315,0.012786954641342163,0.010026352480053902,0.07894891500473022,0.006626606453210115,0.04783787205815315,0.0027576221618801355,-0.03525778651237488,-0.05469596013426781,0.03485039994120598,0.02988717146217823,-0.024598151445388794,-0.016432933509349823,-0.02272806316614151,-0.011045505292713642,-0.043424468487501144,0.05850590765476227,-0.008031928911805153,0.010861163027584553,-0.04094977676868439,-0.048900485038757324,0.13103067874908447,-0.062286049127578735,0.012539491057395935
bangladesch,-0.029387149959802628,0.04138125479221344,-0.03872299566864967,0.019770001992583275,0.03030240535736084,0.02901338040828705,0.1329764723777771,0.03362560644745827,0.02932778000831604,-0.08485851436853409,0.10373583436012268,-0.044827915728092194,-0.010677098296582699,-0.10300298780202866,-0.04831501469016075,0.016687756404280663,0.023910285905003548,0.030052468180656433,0.05658051744103432,-0.03737104684114456,0.06786598265171051,-0.034616388380527496,0.06538770347833633,-0.07913077622652054,-0.027095308527350426,0.11582024395465851,0.00022797386918682605,0.08954906463623047,0.0001283431047340855,0.04165574163198471,0.058239784091711044,0.055335633456707,-0.0013665909646078944,-0.12961997091770172,-0.008941125124692917,-0.029806526377797127,-0.07637622952461243,-0.057891346514225006,-0.0010667664464563131,-0.008323075249791145,-0.03162045776844025,0.04850525036454201,-0.008752463385462761,-0.017177559435367584,0.06146865710616112,0.03235486149787903,-0.08695012331008911,0.01582644321024418,0.08981702476739883,-0.03942409157752991,-0.1103125810623169,0.11150384694337845,0.024397389963269234,0.07037631422281265,0.021839139983057976,-0.041845422238111496,0.002373619470745325,-0.056708354502916336,0.06999127566814423,-0.06387892365455627,0.09630048274993896,-0.018710630014538765,0.008176511153578758,0.07894070446491241,-0.027712851762771606,0.027538837864995003,0.010171335190534592,-0.006850610487163067,-0.0315818153321743,0.03046623431146145,0.029809648171067238,-0.10269040614366531,0.10625459998846054,-0.09968745708465576,0.05474292114377022,0.030658109113574028,-0.004299457184970379,0.04968501627445221,-0.020466988906264305,0.03263876214623451,-0.0038916293997317553,0.10364113003015518,-0.09406573325395584,-0.1305254101753235,0.008454939350485802,-0.057221803814172745,-0.009828314185142517,0.01747443526983261,0.024510564282536507,0.03055841103196144,-0.07677968591451645,0.05265263468027115,-0.03479697182774544,-0.05134773999452591,0.05287840962409973,0.036858126521110535,0.0023874235339462757,-0.10770915448665619,0.04052647575736046,0.018050162121653557,-0.026816116645932198,0.08890494704246521,0.01401901338249445,0.04602806642651558,-0.017589125782251358,-0.002568629803135991,0.12076480686664581,-0.011022762395441532,-0.041048564016819,-0.015325347892940044,-0.0246846005320549,0.05666222795844078,-0.009786941111087799,0.06853543221950531,-0.05130792409181595,0.06275201588869095,0.017402365803718567,-0.08649314939975739,-0.016886809840798378,-0.03571806102991104,-0.010616820305585861,-0.012957860715687275,0.053584810346364975,2.2599984731641598e-05,0.057164039462804794,0.006884189322590828,-0.015063727274537086,0.04803593084216118,0.02192956954240799,0.13610930740833282,0.1264658272266388,0.06796713173389435,-0.1136130541563034,-0.10149123519659042,0.02505558356642723,0.08524749428033829,0.040888722985982895,0.024510027840733528,0.00473631639033556,0.035954661667346954,-0.03699890524148941,-0.05707075074315071,0.03804343566298485,0.06305583566427231,-0.03998807817697525,-0.05427444353699684,0.013197728432714939,-0.02361856773495674,0.02105901949107647,-0.055265285074710846,-0.027311572805047035,0.08726011216640472,0.06563305109739304,-0.01858549751341343,0.0185098834335804,0.0077156489714980125,0.07361571490764618,0.00329478713683784,0.0510900504887104,-0.08115672320127487,-0.014836160466074944,-0.07583799213171005,0.01545190904289484,-0.028434598818421364,-0.06430195271968842,0.08519233018159866,0.019705699756741524,-0.013091648928821087,0.036778636276721954,0.001833815360441804,0.0574435256421566,-0.052885666489601135,0.02058810368180275,0.059755485504865646,-0.004363148473203182,-0.008867789059877396,-0.014862649142742157,-0.039768896996974945,0.16972434520721436,0.03767255321145058,-0.04029892757534981,0.07878226041793823,-0.0994388535618782,0.04265407472848892,-0.06561031192541122,0.028574829921126366,0.09739230573177338,0.021329421550035477,-0.04631815105676651,-0.1194133535027504,-0.0480145700275898,-0.049466513097286224,-0.04004669561982155,-0.010704411193728447,-0.015023685060441494,-0.15025949478149414,-0.026715461164712906,-0.04206903651356697,-0.1254073977470398,-0.005084116943180561,-0.02295679785311222,0.049150966107845306,0.055104341357946396,-0.018950365483760834,0.055173203349113464,0.0941721722483635,0.039176467806100845,-0.07413628697395325,-0.010627953335642815,-0.013038340024650097,-0.05573653057217598,-0.04892071709036827,0.06988120824098587,0.03616579994559288,-0.005176862236112356,0.04767712950706482,0.0025054840371012688,-0.04765241593122482,-0.026012375950813293,0.013210367411375046,-0.13362722098827362,-0.0803358405828476,-0.10813026130199432,-0.006519662216305733,0.12913690507411957,-0.07498139888048172,-0.028501305729150772,-0.043965309858322144,0.07448330521583557,-0.025373589247465134,-0.021213959902524948,0.10932904481887817,0.014129970222711563,0.010071836411952972,-0.052652157843112946,0.03636521100997925,-0.021486615762114525,0.055312853306531906,-0.011297200806438923,-0.024733804166316986,-0.028499089181423187,0.0017076797084882855,-0.0697733536362648,-0.03155672922730446,-0.021782685071229935,0.02872741036117077,0.08090763539075851,0.04258306324481964,0.07746905833482742,0.007663359399884939,0.014287019148468971,0.022224709391593933,0.029211996123194695,-0.03222441300749779,-0.01986898109316826,0.11150658875703812,0.07089517265558243,-0.030133351683616638,-0.15103714168071747,0.0005567623302340508,-0.01989293098449707,0.0737723782658577,0.032150622457265854,0.017265792936086655,-0.04921206831932068,-0.07296875864267349,0.09185995906591415,0.04464669153094292,0.06521521508693695,-0.06410440057516098,0.04545912519097328,0.08578081429004669,-0.0007822816842235625,-0.06342855095863342,-0.03142934665083885,-0.06713858991861343,-0.08121312409639359,-0.01923687756061554,0.0857602208852768,-0.03376619517803192,0.019813181832432747,0.025578051805496216,0.11488305777311325,0.05030999332666397,0.017447175458073616,-0.03319815918803215,0.07636990398168564,0.018164245411753654,-0.049554187804460526,0.0595313161611557,-0.0332227498292923,-0.023024488240480423,-0.027433793991804123,0.01451641134917736,0.0011627443600445986,0.08453919738531113,0.0220201276242733,-0.017746733501553535,0.05035785958170891,0.07347260415554047
belarus,0.062298454344272614,0.0361412949860096,0.07025353610515594,-0.004474377725273371,0.02529285103082657,-0.0008981419960036874,0.0841154232621193,0.10005873441696167,0.023613600060343742,-0.06862830370664597,0.005659348331391811,-0.013406626880168915,-0.04840841516852379,0.04399803280830383,0.015245562419295311,0.07026972621679306,0.0332748182117939,0.02098085545003414,-0.07027343660593033,-0.06967765837907791,-0.03054686076939106,0.05149383470416069,-0.06458692997694016,0.008999194949865341,-0.01933273859322071,0.05419507995247841,-0.15311704576015472,0.04888828471302986,-0.048093587160110474,-0.04136507585644722,-0.006832009181380272,0.03442559763789177,0.012282666750252247,-0.09520427882671356,0.051718294620513916,0.09716092050075531,-0.02150290459394455,0.00945443008095026,-0.0883193239569664,0.04155096784234047,0.020628545433282852,0.053338050842285156,0.046138133853673935,0.018127623945474625,0.005866518244147301,0.05391316115856171,0.01975242979824543,0.06312939524650574,0.05507798492908478,0.09444412589073181,0.1313122659921646,0.09422113746404648,0.05083663389086723,-0.05715501680970192,0.0216506477445364,0.07739018648862839,-0.04828246310353279,-0.023500636219978333,-0.023503020405769348,0.04869576171040535,0.08394645899534225,-0.06908302754163742,-0.009106696583330631,-0.052109938114881516,-0.01506374403834343,-0.016439013183116913,-0.06999735534191132,-0.10710958391427994,0.0709555372595787,-0.04765070602297783,0.008149213157594204,-0.03704039007425308,0.047634996473789215,0.04004829004406929,0.06408829241991043,0.016638832166790962,-0.02829836681485176,-0.11071674525737762,0.07859641313552856,-0.03726737201213837,0.1328427791595459,0.029285965487360954,0.05970863252878189,-0.10642973333597183,0.026956094428896904,-0.08729112893342972,0.017183125019073486,-0.0029672274831682444,-0.05096985027194023,0.06436479836702347,-0.08157661557197571,-0.1336088627576828,-0.07045713067054749,-0.03266333416104317,-0.032599180936813354,-0.03692272678017616,0.07317661494016647,-0.06948692351579666,0.007585274986922741,-0.04629692807793617,0.08668744564056396,-0.020269371569156647,-0.040511056780815125,-0.03789396956562996,-0.09939112514257431,-0.028554752469062805,0.009514367207884789,0.09351620078086853,-0.02434099279344082,0.039786726236343384,-0.01021141279488802,0.05244199559092522,0.03692878037691116,0.08394665271043777,0.0021719420328736305,-0.05532066151499748,-0.04682125523686409,0.06897267699241638,-0.04756695777177811,-0.01329125463962555,-0.059813447296619415,-0.05376747250556946,0.018269427120685577,0.07444410771131516,-0.0020406972616910934,0.01376357302069664,0.04800834134221077,-0.0033684130758047104,0.0714261457324028,0.10497685521841049,0.033572327345609665,0.01316157542169094,-0.05122961476445198,-0.10724366456270218,-0.0564504973590374,-0.007717243395745754,0.006390948314219713,0.19245880842208862,-0.004637886304408312,0.1607578843832016,-0.05293518304824829,0.009274542331695557,-0.03368910402059555,0.0673869401216507,-0.07062093913555145,0.0030370084568858147,-0.01529836654663086,0.0923643633723259,-0.03909072279930115,-0.04702360928058624,0.051751602441072464,0.05635492503643036,0.1398238241672516,0.0008480454562231898,0.0021936867851763964,0.0017730430699884892,-0.021053580567240715,0.025396153330802917,-0.004620494786649942,-0.07702426612377167,-0.008374074473977089,-0.005016598384827375,0.028825920075178146,-0.049135979264974594,0.04146634042263031,0.012636406347155571,-0.013259976170957088,0.009500382468104362,0.18067806959152222,-0.04019998386502266,0.028828522190451622,0.05530393496155739,-0.02858767844736576,0.003149883123114705,-0.051558900624513626,-0.037220701575279236,-0.10721389949321747,-0.005306821316480637,-0.06210508570075035,-0.21200741827487946,0.043977294117212296,-0.07788364589214325,-0.08678751438856125,0.0289834663271904,0.016664836555719376,-0.04203163459897041,-0.019474387168884277,-0.04968257620930672,0.017255455255508423,-0.0002597010461613536,0.032666921615600586,-0.024521587416529655,-0.09504774957895279,0.02037748321890831,-0.11550211161375046,-0.055197566747665405,0.014837558381259441,0.09890419244766235,-0.02035978063941002,-0.04329961910843849,-0.0025806839112192392,-0.0064427549950778484,0.024128958582878113,0.007961678318679333,-0.03351770341396332,-0.024410216137766838,0.040405962616205215,-0.020514462143182755,-0.004117940552532673,-0.0710001215338707,0.07084149122238159,0.008420106954872608,-0.07751359045505524,-0.01872766762971878,-0.05139258876442909,0.04762781783938408,0.03414152190089226,0.04974184185266495,-0.022538259625434875,-0.0025463111232966185,0.0025145940016955137,-0.061330150812864304,0.03443954139947891,-0.09515348821878433,0.024069884791970253,-0.0943726971745491,-0.04139839485287666,-0.05557078495621681,0.009960692375898361,-0.010927083902060986,-0.02609357424080372,0.0600537471473217,-0.0060560135170817375,-0.03495776653289795,-0.007030753884464502,-0.05865148454904556,0.03583448380231857,-0.12708640098571777,0.052719563245773315,0.000745967379771173,0.017631778493523598,0.04916666820645332,0.03341677039861679,-0.01293540745973587,0.011039379984140396,-0.008440785109996796,0.063874252140522,-0.019302768632769585,0.02996685914695263,-0.09592689573764801,0.057823169976472855,0.058519333600997925,0.05494797229766846,-0.04462943598628044,0.04884364828467369,0.0494094118475914,-0.037754688411951065,0.05673008784651756,0.020896242931485176,0.07530489563941956,-0.04335935413837433,-0.05564024671912193,-0.04150010272860527,0.08518929779529572,-0.0021566972136497498,0.10263803601264954,0.09304270893335342,0.007042128127068281,-0.03651943802833557,-0.01346674282103777,0.09398838877677917,0.014942199923098087,-0.020480645820498466,-0.042321138083934784,-0.07451172918081284,-0.10855638980865479,-0.02263568714261055,-0.014200751669704914,0.04512332007288933,0.10574878752231598,0.001798451878130436,0.001650251098908484,0.021482814103364944,-0.09540891647338867,0.02905811183154583,-0.012807702645659447,0.027560442686080933,-0.0005176301347091794,-0.055001456290483475,0.05681351572275162,-0.083437480032444,0.0454653725028038,0.03341570869088173,0.020609857514500618,-0.002674598479643464,0.01591457799077034,0.001493738149292767,-0.011719658970832825,0.004611486569046974,-0.047351207584142685
belgien,0.04886193946003914,-0.019058899953961372,0.03320125490427017,-0.042130954563617706,0.07721667736768723,-0.022455239668488503,0.005250022280961275,0.024178391322493553,0.060155268758535385,-0.09044452011585236,0.05367523804306984,-0.0883534774184227,-0.05250291898846626,0.001971401507034898,-0.0071602920070290565,-0.038394249975681305,-0.04912558197975159,0.021887624636292458,0.017179835587739944,0.04972709342837334,-0.0006790372426621616,0.05575597658753395,0.013598070479929447,-0.03318881243467331,0.026562979444861412,0.08409412205219269,-0.08666913956403732,0.10695064812898636,0.08320900052785873,0.07595250755548477,-0.043034907430410385,0.08988992124795914,-0.03918265178799629,-0.1304682344198227,0.0040456512942910194,-0.023825213313102722,0.014728985726833344,0.00342614040710032,0.11422443389892578,-0.09747474640607834,0.02866700105369091,-0.0029246071353554726,-0.012711080722510815,0.10260109603404999,-0.10052655637264252,-0.07920709252357483,-0.12494766712188721,0.019279800355434418,0.030192384496331215,-0.0806644856929779,-0.003657979890704155,-0.07152757048606873,-0.0929061770439148,0.04042106121778488,0.009061282500624657,0.04247218370437622,-0.0914711281657219,-0.062304235994815826,0.008699418045580387,0.03747139126062393,-0.035459645092487335,-0.022916154935956,0.026889042928814888,-0.08171022683382034,0.017119813710451126,-0.01801743544638157,-0.01209630910307169,0.03250709921121597,0.08121741563081741,0.004099041689187288,-0.001093077240511775,0.012635494582355022,-0.041131120175123215,-0.01203746534883976,0.04682624712586403,-0.009781221859157085,0.05303702875971794,-0.07553991675376892,-0.03796035051345825,-0.08043427020311356,0.07102084904909134,-0.011836342513561249,-0.05432051047682762,0.0728568434715271,-0.014533232897520065,0.03237680345773697,0.0026823775842785835,0.11426970362663269,0.06535954773426056,0.018715806305408478,-0.09514056146144867,0.022201992571353912,0.05616022273898125,-0.01999313198029995,0.0377633236348629,-0.0383257158100605,0.02879568748176098,-0.04649357870221138,0.05686277896165848,-0.04019564762711525,-0.08775090426206589,0.07535332441329956,-0.12946845591068268,0.02464708872139454,0.02116941101849079,0.03788132220506668,0.15976601839065552,0.05657951533794403,-0.06866317242383957,0.056935373693704605,-0.030478155240416527,0.0531526617705822,0.08849551528692245,0.0019800930749624968,-0.011021836660802364,0.018471769988536835,0.05241474136710167,-0.16810107231140137,-0.04931109771132469,-0.0071424744091928005,0.02076028101146221,-0.03434159234166145,0.04796013608574867,0.05496828258037567,0.08158614486455917,0.012943488545715809,0.019046945497393608,-0.0500035434961319,-0.022375192493200302,0.016967661678791046,-0.03791968151926994,0.14034254848957062,-0.035534631460905075,-0.044084273278713226,-0.05039585381746292,-0.0469827838242054,-0.08713386952877045,0.012731256894767284,0.05338355526328087,0.08617819845676422,0.038149427622556686,-0.010058170184493065,-0.043795425444841385,0.030265958979725838,0.06708002090454102,0.05354310944676399,0.01898214966058731,-0.06046728417277336,-0.09042391180992126,-0.10501796752214432,0.05029246211051941,-0.02101524919271469,-0.02624073624610901,0.11151783913373947,0.015234324149787426,0.05062532424926758,-0.04341725632548332,0.05108660086989403,0.06209477409720421,-0.05215315893292427,0.08236057311296463,-0.056352630257606506,0.07927993685007095,-0.004690350964665413,-0.09042824804782867,0.04478595778346062,-0.06327083706855774,0.02266351506114006,0.1006736233830452,0.1055314838886261,0.0026218253187835217,0.06046213582158089,0.053644951432943344,0.0919669046998024,0.01659892126917839,-0.07923991233110428,0.010219740681350231,-0.07686507701873779,-0.025774866342544556,0.003971784375607967,0.012897288426756859,0.0335569903254509,-0.0461496040225029,-0.005515668075531721,0.003915858920663595,-0.07751739770174026,-0.012928206473588943,-0.10428678244352341,-0.07322544604539871,-0.026104487478733063,-0.0028848343063145876,-0.03200638294219971,-0.05212458595633507,-0.06243320181965828,0.0506087951362133,0.019155312329530716,0.02384134568274021,0.05153489485383034,-0.0681445300579071,-0.006599009968340397,-0.04109331592917442,-0.016283908858895302,0.034536439925432205,0.0897519513964653,-0.05608322471380234,-0.04465591534972191,-0.07453251630067825,-0.0577702634036541,-0.03921457380056381,-0.038910359144210815,0.08418852090835571,0.03774615004658699,-0.013019462116062641,-0.014526373706758022,0.017899932339787483,0.012109105475246906,0.02401650883257389,0.05267752707004547,-0.07477978616952896,-0.07371281087398529,0.06812731176614761,0.05304890125989914,-0.013065777719020844,0.025947006419301033,0.017093738541007042,0.039462611079216,-0.042783450335264206,-0.025126708671450615,-0.11233195662498474,0.0362665094435215,0.031432610005140305,0.10391900688409805,-0.004083145875483751,0.009823113679885864,0.02098986692726612,0.013702665455639362,-0.02002672106027603,0.12352252751588821,-0.0033411895856261253,-0.07247040420770645,-0.0766318216919899,-0.015358573757112026,-0.033088356256484985,-0.07076136767864227,0.08607601374387741,0.03597360849380493,-0.019010622054338455,0.003096850123256445,0.02192242629826069,0.08912881463766098,0.02279014326632023,-0.005283835809677839,-0.03177501633763313,0.06170855090022087,0.0020817541517317295,-0.02522464282810688,-0.07782074064016342,0.046625055372714996,0.009013432078063488,-0.12030483037233353,-0.019035734236240387,-0.03567090630531311,-0.010154668241739273,-0.009944836609065533,-0.03456692025065422,-0.020822683349251747,0.18980000913143158,0.013382378965616226,0.03714608773589134,-0.022187013179063797,-0.03226669877767563,0.030840352177619934,-0.025837061926722527,-0.03859647735953331,0.03270895406603813,-0.04818522185087204,-0.04716136306524277,0.020208541303873062,0.11772894859313965,0.04018806666135788,0.056223735213279724,0.0033646048977971077,-0.012989913113415241,0.09365465492010117,-0.02712114527821541,0.04947575926780701,-0.04203719273209572,-0.002300502033904195,-0.014339549466967583,0.06930750608444214,0.049022603780031204,0.013382293283939362,-0.06026097387075424,0.13670624792575836,-0.032851479947566986,-0.07566899806261063,0.005875144619494677,0.045526232570409775,0.13719512522220612,0.007454427424818277
bosnien_und_herzegowina,0.09714611619710922,-0.027264650911092758,0.010952722281217575,0.012161356396973133,0.13938957452774048,-0.0305794645100832,0.11722782254219055,0.06172740459442139,-0.08885706961154938,0.10339249670505524,-0.022206811234354973,-0.011297293938696384,-0.1257449984550476,0.05368441343307495,-0.02419627644121647,-0.019936013966798782,-0.0531437024474144,-0.04337470233440399,0.02859216369688511,-0.04723789170384407,0.020848393440246582,-0.035999368876218796,-0.011885578744113445,-0.08947433531284332,-0.010024972259998322,-0.025646649301052094,-0.004866005852818489,-0.0032383024226874113,-0.038135748356580734,-0.09166368097066879,0.04462019354104996,-0.04526112973690033,0.015680277720093727,-0.002218347741290927,0.10291654616594315,-0.02024744637310505,-0.003335589775815606,-0.09054134786128998,-0.011102053336799145,-0.041384220123291016,0.07731940597295761,-0.11881764233112335,-0.08753480017185211,0.025925174355506897,-0.018085375428199768,0.09175494313240051,-0.07025466859340668,0.07182622700929642,-0.030455341562628746,0.010705414228141308,-0.1173611506819725,-0.01710505783557892,0.014499655924737453,0.10949075222015381,0.018110990524291992,-0.013912355527281761,-0.11085931211709976,-0.05859515070915222,-0.07709133625030518,0.06083254888653755,-0.01702827773988247,-0.10223868489265442,0.013172172009944916,-0.04582446441054344,0.09922762215137482,0.03673752024769783,-0.11073080450296402,-0.12056254595518112,0.02237524650990963,-0.01664290390908718,-0.016764771193265915,0.021366676315665245,-0.030184824019670486,-0.10096676647663116,0.07936514168977737,0.0326402373611927,-0.0590759813785553,0.05418234318494797,0.021412648260593414,-0.0368819385766983,-0.012584936805069447,0.055002953857183456,0.030385378748178482,-0.05687418207526207,0.004017363768070936,0.07280108332633972,-0.00027729885187000036,-0.02802414447069168,-0.041322220116853714,0.008381043560802937,0.005877717398107052,-0.012953548692166805,-0.009701816365122795,-0.0739717036485672,-0.0417126789689064,0.05163642019033432,0.010717147961258888,0.01851593144237995,-0.0471346378326416,-0.024102574214339256,-0.08707902580499649,-0.021438954398036003,0.00020745114306919277,0.07849022001028061,-0.07284300774335861,0.04645588994026184,0.038141388446092606,0.03695384040474892,-0.004429928492754698,0.052754469215869904,-0.059498392045497894,-0.033628080040216446,-0.030474834144115448,-0.04444320127367973,-0.0007842393242754042,0.028780769556760788,0.030604178085923195,-0.038541313260793686,-0.054734762758016586,0.04123854637145996,-0.05728328227996826,-0.05116673931479454,0.013539191335439682,0.013118932954967022,-0.02180514670908451,0.04162747785449028,0.018175292760133743,-0.07710699737071991,-0.04692115634679794,0.12853507697582245,0.04795635864138603,0.0013476284220814705,-0.053230639547109604,-0.10151951014995575,0.0037941334303468466,0.015156492590904236,-0.06365849077701569,0.048251789063215256,0.11895031481981277,0.1142592579126358,0.00992974266409874,-0.025900864973664284,-0.0396440289914608,0.01845286414027214,0.0017138008261099458,0.004959110636264086,-0.01767287775874138,-0.037429679185152054,0.039705801755189896,0.031661782413721085,-0.07807714492082596,-0.020610002800822258,0.0777503028512001,0.014877796173095703,-0.011677554808557034,0.06610386818647385,-0.10005494952201843,0.027147896587848663,0.05821315571665764,-0.017077898606657982,0.020262593403458595,0.004665003158152103,0.09607581049203873,-0.08348593860864639,-0.01580723188817501,-0.0660565048456192,-0.008653247728943825,0.038662880659103394,0.02142338827252388,-0.00477151945233345,-0.01992751844227314,0.09086892008781433,-0.06899121403694153,0.04811296984553337,0.0362263023853302,-7.195837679319084e-05,-0.057388611137866974,-0.1792483925819397,0.0020599409472197294,0.037749871611595154,-0.01958211325109005,0.030733322724699974,-0.025846710428595543,0.12627284228801727,-0.026913557201623917,-0.07513299584388733,0.007558692246675491,-0.08174251019954681,-0.024899234995245934,0.04241844639182091,0.02129332348704338,-0.027318185195326805,-0.003749558702111244,-0.030870797112584114,0.056239526718854904,-0.053783539682626724,-0.01919264905154705,0.009017547592520714,-0.04562906548380852,-0.028815610334277153,-0.04574524983763695,-0.09379369765520096,-0.054242510348558426,-0.013916218653321266,0.07081582397222519,-0.05591411143541336,-0.03633895143866539,0.05988471210002899,-0.027614593505859375,-0.06036565825343132,0.03288578614592552,-0.048044294118881226,-0.05645645037293434,0.046123288571834564,-0.009289275854825974,0.08785965293645859,0.03260132297873497,0.06736049056053162,0.006028471048921347,-0.11870400607585907,-0.0319829136133194,0.0010402980260550976,0.015671581029891968,-0.02753358706831932,0.09260021895170212,-0.11471196264028549,0.14472492039203644,0.10757795721292496,0.0565771646797657,0.02394173853099346,0.08590272068977356,0.047791291028261185,-0.018708935007452965,-0.004531161859631538,0.01437816396355629,-0.025087058544158936,0.0184057354927063,0.07207512110471725,0.04468705877661705,0.025277189910411835,-0.0004705257306341082,0.04646610468626022,-0.03496727719902992,-0.06739236414432526,0.016149137169122696,0.03882157802581787,0.08288750797510147,0.012741697020828724,0.00043197922059334815,-0.10653727501630783,0.04864636808633804,-0.10382944345474243,0.06208723783493042,0.04894563928246498,-0.017174113541841507,0.027341730892658234,0.08161652088165283,0.022858308628201485,-0.09490364044904709,-0.05713909864425659,-0.02290436439216137,0.03767811134457588,0.021030239760875702,-0.052212491631507874,-0.048407528549432755,0.06539373099803925,0.06564435362815857,0.08958359062671661,0.040715403854846954,-0.004461687058210373,0.15908637642860413,0.11833545565605164,-0.13509470224380493,-0.0566842257976532,-0.03624004125595093,-0.03040713258087635,-0.032099343836307526,0.05663659796118736,0.045935261994600296,-0.02135525457561016,-0.00900590606033802,-0.06216307729482651,-0.051808539777994156,0.05768246576189995,-0.02832253836095333,-0.038847289979457855,-0.0021428430918604136,0.04100441187620163,0.02980271354317665,-0.02838011085987091,0.13779211044311523,-0.033570222556591034,0.0031761627178639174,-0.003329463768750429,-0.07295884191989899,-0.012740597128868103,-0.047467611730098724,-0.02771342545747757,0.007797119207680225,-0.09781565517187119
brasilien,-0.020550422370433807,-0.07884036749601364,0.11088293045759201,-0.07891857624053955,0.025639314204454422,-0.1131911501288414,0.06512649357318878,0.0016345399199053645,0.12817493081092834,-0.14156223833560944,0.07814863324165344,-0.014802999794483185,-0.016349952667951584,-0.027845637872815132,0.09006176888942719,0.022549133747816086,0.05036133900284767,0.024919629096984863,-0.016396867111325264,0.03810553997755051,-0.0890301838517189,0.08685389906167984,0.12910297513008118,-0.01762121543288231,0.00708105880767107,0.0720057412981987,-0.01764935627579689,-0.00853468757122755,0.07938970625400543,-0.008820020593702793,0.05439980700612068,0.0475224144756794,0.0611896812915802,-0.05733529105782509,0.0651831179857254,0.05652780458331108,0.026334812864661217,-0.021660733968019485,0.010295233689248562,0.10018759220838547,-0.07654611766338348,-0.031014475971460342,0.07781986892223358,0.029363607987761497,0.05395321547985077,-0.011422812938690186,-0.08170820027589798,0.0028950038831681013,-0.005794050637632608,-0.046735282987356186,0.036009423434734344,0.019015531986951828,-0.011690981686115265,0.039788272231817245,0.06730202585458755,0.07723687589168549,-0.04965075105428696,0.06383790075778961,0.0011834981851279736,0.013477033004164696,-0.031812138855457306,-0.011541223153471947,-0.06071867793798447,0.03563207760453224,0.015376713126897812,0.0775788351893425,0.06223464757204056,-0.03362543135881424,-0.032368533313274384,-0.010955593548715115,-0.023539243265986443,-0.07026686519384384,-0.03689127787947655,0.050930336117744446,0.07681693881750107,-0.021122993901371956,0.017662206664681435,0.004123785998672247,0.08084138482809067,-0.023960718885064125,0.06580687314271927,0.04457942396402359,-0.05947436764836311,-0.041281167417764664,0.006317186169326305,0.011032495647668839,-0.017522117123007774,-0.01502515934407711,0.06289248913526535,0.04802880063652992,0.04519274830818176,0.007325359620153904,-0.055785249918699265,-0.026869233697652817,-0.03568900376558304,0.006306051276624203,0.03100898116827011,-0.061655934900045395,0.08411885797977448,-0.041374459862709045,0.03895173966884613,0.03156318888068199,-0.006713733542710543,0.13129770755767822,-0.02108146995306015,0.004933798685669899,0.08200082927942276,-0.010164055041968822,-0.08144836872816086,-0.012606410309672356,-0.07921181619167328,0.0495491586625576,0.09186962246894836,-0.016948144882917404,-0.09791402518749237,-0.0003202455409336835,-0.0013512230943888426,-0.017593489959836006,-0.06564825028181076,-0.05209881067276001,-0.016888195648789406,0.023012330755591393,-0.013335442170500755,-0.04111327975988388,0.029397236183285713,-0.0007929099956527352,-0.008980976417660713,0.15571212768554688,-0.028645796701312065,-0.02018066681921482,0.006295726168900728,0.011175449006259441,-0.012262196280062199,-0.061596471816301346,-0.03200678899884224,0.05149223655462265,0.00838044285774231,0.1304665058851242,0.08233785629272461,-0.032890766859054565,0.062452200800180435,0.06780990958213806,0.07492662966251373,0.05891469866037369,0.04982726648449898,-0.15085017681121826,-0.012131932191550732,0.05197988823056221,0.052717845886945724,-0.12822851538658142,0.04101905971765518,0.010456696152687073,0.080210380256176,0.09368245303630829,-0.02440774068236351,0.005234786309301853,-0.029343804344534874,0.08768326044082642,0.038319651037454605,0.1400964856147766,-0.02042599953711033,-0.03823725879192352,-0.03995085135102272,-0.0374874547123909,0.018462155014276505,0.1002417653799057,-0.05442985147237778,0.00976894423365593,0.09560412168502808,-0.05185343325138092,0.04600021615624428,-0.04203448444604874,-0.025727976113557816,0.05099629983305931,0.032652415335178375,-0.13282518088817596,-0.025715194642543793,0.04584913328289986,0.015781154856085777,-0.00010612096230033785,0.10160988569259644,0.02542993798851967,0.016060473397374153,0.047759898006916046,-0.027229083701968193,-0.047657985240221024,0.035550203174352646,-0.031582772731781006,-0.03141435235738754,-0.043938715010881424,0.04633120819926262,-0.05121488869190216,0.0035571048501878977,0.047714609652757645,-0.009836630895733833,-0.06620248407125473,-0.05115177109837532,0.04020308703184128,-0.0008757867617532611,-0.08311502635478973,-0.0072425492107868195,0.008768035098910332,-0.011897625401616096,-0.023507406935095787,0.0033400258980691433,0.02854897826910019,0.06193475052714348,-0.03696716949343681,-0.016351982951164246,-0.028817301616072655,-0.014022215269505978,-0.04587176442146301,0.018312573432922363,0.062222953885793686,-0.011543052271008492,0.10166837275028229,-0.06359514594078064,-0.04692886397242546,-0.06535106152296066,0.06872673332691193,-0.010428247973322868,-0.011486086063086987,-0.04863361269235611,-0.04756889119744301,0.10100527107715607,-0.08033595979213715,0.04881228879094124,-0.0326077938079834,0.018401402980089188,0.049689482897520065,0.02718939259648323,0.07322686910629272,0.02074984461069107,0.00821995735168457,-0.001429876429028809,-0.054355885833501816,-0.027179604396224022,-0.009691986255347729,-0.05624375119805336,-0.11022290587425232,-0.07293969392776489,-0.047753073275089264,-0.027176383882761,-0.12195482105016708,0.08944450318813324,0.059520822018384933,-0.01751219667494297,0.05709068477153778,0.03225995972752571,-0.045536890625953674,0.0248446986079216,-0.032627593725919724,-0.03607219457626343,0.06057286262512207,0.04916706681251526,0.08579432219266891,-0.051560547202825546,-0.05231836810708046,0.06153983622789383,-0.03695404902100563,0.042854975908994675,0.07461785525083542,0.06516505777835846,0.15427303314208984,-0.01209673285484314,-0.05004996061325073,0.09279239922761917,0.12946096062660217,-0.08564908802509308,-0.0008505257428623736,-0.024062899872660637,0.0632365420460701,-0.004480405710637569,-0.04557906836271286,0.059247180819511414,-0.07516267895698547,-0.02380313351750374,-0.0020978120155632496,0.0770043283700943,0.16382741928100586,0.06814734637737274,-0.011462677270174026,0.03346427157521248,-0.06377944350242615,-0.019137738272547722,-0.013490919023752213,-0.018350888043642044,0.0682927593588829,-0.03519764542579651,0.052349742501974106,0.13038206100463867,-0.05030585452914238,-0.007379899267107248,0.02667165920138359,-0.00938389915972948,-0.06149178743362427,0.09032587707042694,0.03834192827343941,0.0840248167514801,-0.09447286278009415
