Country,Vectordimension_0,Vectordimension_1,Vectordimension_2,Vectordimension_3,Vectordimension_4,Vectordimension_5,Vectordimension_6,Vectordimension_7,Vectordimension_8,Vectordimension_9,Vectordimension_10,Vectordimension_11,Vectordimension_12,Vectordimension_13,Vectordimension_14,Vectordimension_15,Vectordimension_16,Vectordimension_17,Vectordimension_18,Vectordimension_19,Vectordimension_20,Vectordimension_21,Vectordimension_22,Vectordimension_23,Vectordimension_24,Vectordimension_25,Vectordimension_26,Vectordimension_27,Vectordimension_28,Vectordimension_29,Vectordimension_30,Vectordimension_31,Vectordimension_32,Vectordimension_33,Vectordimension_34,Vectordimension_35,Vectordimension_36,Vectordimension_37,Vectordimension_38,Vectordimension_39,Vectordimension_40,Vectordimension_41,Vectordimension_42,Vectordimension_43,Vectordimension_44,Vectordimension_45,Vectordimension_46,Vectordimension_47,Vectordimension_48,Vectordimension_49,Vectordimension_50,Vectordimension_51,Vectordimension_52,Vectordimension_53,Vectordimension_54,Vectordimension_55,Vectordimension_56,Vectordimension_57,Vectordimension_58,Vectordimension_59,Vectordimension_60,Vectordimension_61,Vectordimension_62,Vectordimension_63,Vectordimension_64,Vectordimension_65,Vectordimension_66,Vectordimension_67,Vectordimension_68,Vectordimension_69,Vectordimension_70,Vectordimension_71,Vectordimension_72,Vectordimension_73,Vectordimension_74,Vectordimension_75,Vectordimension_76,Vectordimension_77,Vectordimension_78,Vectordimension_79,Vectordimension_80,Vectordimension_81,Vectordimension_82,Vectordimension_83,Vectordimension_84,Vectordimension_85,Vectordimension_86,Vectordimension_87,Vectordimension_88,Vectordimension_89,Vectordimension_90,Vectordimension_91,Vectordimension_92,Vectordimension_93,Vectordimension_94,Vectordimension_95,Vectordimension_96,Vectordimension_97,Vectordimension_98,Vectordimension_99,Vectordimension_100,Vectordimension_101,Vectordimension_102,Vectordimension_103,Vectordimension_104,Vectordimension_105,Vectordimension_106,Vectordimension_107,Vectordimension_108,Vectordimension_109,Vectordimension_110,Vectordimension_111,Vectordimension_112,Vectordimension_113,Vectordimension_114,Vectordimension_115,Vectordimension_116,Vectordimension_117,Vectordimension_118,Vectordimension_119,Vectordimension_120,Vectordimension_121,Vectordimension_122,Vectordimension_123,Vectordimension_124,Vectordimension_125,Vectordimension_126,Vectordimension_127,Vectordimension_128,Vectordimension_129,Vectordimension_130,Vectordimension_131,Vectordimension_132,Vectordimension_133,Vectordimension_134,Vectordimension_135,Vectordimension_136,Vectordimension_137,Vectordimension_138,Vectordimension_139,Vectordimension_140,Vectordimension_141,Vectordimension_142,Vectordimension_143,Vectordimension_144,Vectordimension_145,Vectordimension_146,Vectordimension_147,Vectordimension_148,Vectordimension_149,Vectordimension_150,Vectordimension_151,Vectordimension_152,Vectordimension_153,Vectordimension_154,Vectordimension_155,Vectordimension_156,Vectordimension_157,Vectordimension_158,Vectordimension_159,Vectordimension_160,Vectordimension_161,Vectordimension_162,Vectordimension_163,Vectordimension_164,Vectordimension_165,Vectordimension_166,Vectordimension_167,Vectordimension_168,Vectordimension_169,Vectordimension_170,Vectordimension_171,Vectordimension_172,Vectordimension_173,Vectordimension_174,Vectordimension_175,Vectordimension_176,Vectordimension_177,Vectordimension_178,Vectordimension_179,Vectordimension_180,Vectordimension_181,Vectordimension_182,Vectordimension_183,Vectordimension_184,Vectordimension_185,Vectordimension_186,Vectordimension_187,Vectordimension_188,Vectordimension_189,Vectordimension_190,Vectordimension_191,Vectordimension_192,Vectordimension_193,Vectordimension_194,Vectordimension_195,Vectordimension_196,Vectordimension_197,Vectordimension_198,Vectordimension_199,Vectordimension_200,Vectordimension_201,Vectordimension_202,Vectordimension_203,Vectordimension_204,Vectordimension_205,Vectordimension_206,Vectordimension_207,Vectordimension_208,Vectordimension_209,Vectordimension_210,Vectordimension_211,Vectordimension_212,Vectordimension_213,Vectordimension_214,Vectordimension_215,Vectordimension_216,Vectordimension_217,Vectordimension_218,Vectordimension_219,Vectordimension_220,Vectordimension_221,Vectordimension_222,Vectordimension_223,Vectordimension_224,Vectordimension_225,Vectordimension_226,Vectordimension_227,Vectordimension_228,Vectordimension_229,Vectordimension_230,Vectordimension_231,Vectordimension_232,Vectordimension_233,Vectordimension_234,Vectordimension_235,Vectordimension_236,Vectordimension_237,Vectordimension_238,Vectordimension_239,Vectordimension_240,Vectordimension_241,Vectordimension_242,Vectordimension_243,Vectordimension_244,Vectordimension_245,Vectordimension_246,Vectordimension_247,Vectordimension_248,Vectordimension_249,Vectordimension_250,Vectordimension_251,Vectordimension_252,Vectordimension_253,Vectordimension_254,Vectordimension_255,Vectordimension_256,Vectordimension_257,Vectordimension_258,Vectordimension_259,Vectordimension_260,Vectordimension_261,Vectordimension_262,Vectordimension_263,Vectordimension_264,Vectordimension_265,Vectordimension_266,Vectordimension_267,Vectordimension_268,Vectordimension_269,Vectordimension_270,Vectordimension_271,Vectordimension_272,Vectordimension_273,Vectordimension_274,Vectordimension_275,Vectordimension_276,Vectordimension_277,Vectordimension_278,Vectordimension_279,Vectordimension_280,Vectordimension_281,Vectordimension_282,Vectordimension_283,Vectordimension_284,Vectordimension_285,Vectordimension_286,Vectordimension_287,Vectordimension_288,Vectordimension_289,Vectordimension_290,Vectordimension_291,Vectordimension_292,Vectordimension_293,Vectordimension_294,Vectordimension_295,Vectordimension_296,Vectordimension_297,Vectordimension_298,Vectordimension_299
afghanistan,0.0756816491484642,0.04028485715389252,0.11301980912685394,-0.14478406310081482,0.08027958124876022,-0.04750210419297218,0.0062608011066913605,0.09043032675981522,0.03576454147696495,-0.011221587657928467,-0.018797481432557106,-0.055376362055540085,-0.0135748740285635,0.06331390887498856,-0.00414631050080061,-0.04561949148774147,0.019610973075032234,0.0038682634476572275,-0.008478786796331406,-0.02521335519850254,0.024773964658379555,0.01807553507387638,0.024536773562431335,0.072878398001194,0.0011365237878635526,0.054719895124435425,-0.06936708092689514,0.0005568139022216201,0.018140224739909172,-0.0993967354297638,-0.011123748496174812,-0.045409031212329865,-0.0752030685544014,0.073038250207901,-0.005549571942538023,0.0889553353190422,0.03614061325788498,-0.051959000527858734,0.021399058401584625,0.007748343050479889,0.031781330704689026,-0.00793449580669403,-0.09894149005413055,0.03723961487412453,-0.09365846961736679,0.03521642088890076,0.024724941700696945,-0.0947478786110878,-0.0060896058566868305,0.034777455031871796,-0.044446974992752075,0.041588194668293,0.04685458913445473,0.017711549997329712,0.036768630146980286,0.06237553432583809,-0.05532136932015419,0.12251083552837372,0.0546656996011734,0.003399235662072897,-0.10927978903055191,-0.12440717220306396,-0.06983304023742676,-0.04579194262623787,0.06512481719255447,0.04246441274881363,-0.09712912887334824,0.025556931272149086,0.0454196035861969,0.08823225647211075,0.09805881977081299,0.06134930998086929,-0.013493770733475685,0.01594112068414688,0.10611889511346817,-0.03835749998688698,-0.02721322327852249,0.05131878703832626,0.004557078704237938,0.02500891499221325,0.07625333964824677,-0.02185450866818428,0.014682020992040634,0.07373050600290298,0.14836622774600983,-0.005931670777499676,-0.0790129005908966,0.05149932578206062,0.04159029573202133,0.034276481717824936,0.025184383615851402,0.032187800854444504,0.002682873047888279,0.06206740066409111,-0.07794427126646042,0.04895651340484619,0.02235429361462593,-0.007174419239163399,0.0029676149133592844,-0.022981557995080948,-0.029669614508748055,-0.0009363931021653116,0.026562582701444626,0.10431798547506332,0.03847222775220871,-0.05946563556790352,0.11735208332538605,0.0727512463927269,-0.03879212215542793,0.09429758787155151,-0.0013531077420338988,-0.04384268820285797,0.10490749031305313,0.020209237933158875,-0.05474987253546715,0.06853650510311127,0.006362327374517918,0.02579384297132492,-0.013579938560724258,0.0024629232939332724,-0.11997605115175247,-0.05937754362821579,0.0470421127974987,-0.043666914105415344,0.035625357180833817,0.07185656577348709,0.08643679320812225,-0.05726369097828865,0.07409127056598663,0.08145187795162201,0.03774379938840866,0.024430755525827408,-0.10576511174440384,-0.06257026642560959,0.0020732798147946596,0.07551261782646179,-0.0236526932567358,0.02639409899711609,0.01426930632442236,0.07241125404834747,-0.08105777204036713,-0.032137926667928696,-0.012928192503750324,0.004696610849350691,0.08055038005113602,-0.06507836282253265,-0.014681681990623474,0.004142026882618666,-0.04188840091228485,-0.004248170647770166,0.032791078090667725,0.014933498576283455,0.012828915379941463,0.03964152932167053,0.048464711755514145,-0.0290607251226902,-0.04208381846547127,0.031216131523251534,0.051131296902894974,-0.07276995480060577,-0.0677909404039383,-0.0002543746377341449,0.023303335532546043,-0.03682650998234749,-0.11926873028278351,0.06020722910761833,-0.061629097908735275,-0.046578507870435715,-0.049885060638189316,0.038860298693180084,0.014510547742247581,0.16329257190227509,0.007896159775555134,0.03264942765235901,0.004665674176067114,-0.08324158191680908,0.06670311838388443,-0.08903537690639496,0.09127295017242432,-0.00018402226851321757,-0.026460042223334312,-0.018037086352705956,0.06425347924232483,0.12211725860834122,-0.024780577048659325,0.0157930888235569,0.0669238492846489,-0.024673180654644966,-0.014241818338632584,-0.08647076785564423,-0.048934463411569595,-0.001229292363859713,-0.031767841428518295,0.01506955735385418,0.06762302666902542,-0.06906770169734955,-0.03352249786257744,0.07409578561782837,-0.19351349771022797,0.02413862757384777,-0.06011258810758591,0.07875828444957733,-0.010037939995527267,0.033148445188999176,-0.061708882451057434,-0.10210355371236801,0.03402399644255638,-0.07385151088237762,-0.014960499480366707,-0.0917699784040451,-0.009183911606669426,0.027487875893712044,-0.007488930132240057,-0.05655832588672638,0.0039052003994584084,0.07751836627721786,0.00450620474293828,0.015639524906873703,0.0840095803141594,-0.03665255010128021,0.030350660905241966,-0.05794379860162735,-0.05751579999923706,-0.01973971165716648,-0.03243708983063698,-0.0267095398157835,-0.03582817688584328,-0.07209446281194687,0.024611879140138626,0.025478625670075417,-0.012901060283184052,0.12303885072469711,-0.048487819731235504,0.0018132879631593823,0.03114769048988819,-0.03295666724443436,-0.025518780574202538,0.0333564430475235,0.19504891335964203,-0.009903209283947945,-0.0017259042942896485,0.07207386195659637,-0.057677656412124634,-0.011912022717297077,0.006225238088518381,-0.00071363226743415,-0.04237203299999237,-0.005445666611194611,0.00011109226761618629,-0.02740085870027542,0.03690715506672859,0.020598845556378365,0.023287320509552956,0.018558939918875694,0.025616083294153214,0.12052609026432037,0.06544952094554901,-0.08322890102863312,0.008099053055047989,-0.01584302820265293,-0.0634375736117363,0.10265591740608215,-0.03666236996650696,0.004053229000419378,-0.04626648128032684,0.06681941449642181,0.11742031574249268,0.005316524300724268,0.03684169054031372,-0.06727427989244461,0.0932084247469902,-0.022255776450037956,-0.0116182342171669,-0.02590491995215416,-0.0491139218211174,-0.022223396226763725,-0.07738439738750458,0.045907940715551376,-0.016936207190155983,-0.032287757843732834,0.0327489860355854,-0.000756218796595931,0.02990580163896084,0.011399608105421066,0.09987065196037292,-0.07911098003387451,-0.006453902926295996,0.033917542546987534,0.008293358609080315,-0.00991009920835495,0.06333624571561813,-0.025423157960176468,0.025481168180704117,-0.03230122849345207,0.03372311592102051,-0.02799653634428978,0.036356400698423386,0.11226096749305725,0.030469395220279694,-0.09459176659584045
ägypten,-0.024177638813853264,-0.04319635033607483,0.01827208325266838,-0.019336391240358353,0.06610772758722305,-0.0635693147778511,-0.03879562020301819,0.053269993513822556,0.17023849487304688,-0.178230419754982,0.02031000703573227,0.004733236972242594,-0.0438966266810894,-0.028153713792562485,-0.021399417892098427,0.04069950431585312,-0.039539311081171036,0.11411982774734497,-0.008357333950698376,0.14299990236759186,-0.0028490261174738407,0.026339812204241753,0.008272943086922169,-0.04108650982379913,0.00550816347822547,0.10378078371286392,0.019771726801991463,0.060004767030477524,0.004862667061388493,-0.055809687823057175,0.003063114359974861,0.03337712958455086,-0.09345033764839172,-0.11546985805034637,0.024663390591740608,-0.0458238385617733,-0.005700394511222839,-0.0037293534260243177,0.07921105623245239,0.04901629313826561,0.04992441460490227,0.0448014922440052,0.1290297508239746,0.07196281850337982,-0.0027079840656369925,0.004813643638044596,-0.0023387540131807327,-0.021755654364824295,-0.00727485679090023,-0.04184385761618614,-0.016739584505558014,0.10182464867830276,-0.04728308692574501,0.040855828672647476,0.0734284296631813,-0.0173394326120615,-0.08188474923372269,-0.029271723702549934,0.021933304145932198,-0.02503182366490364,-0.05800623074173927,-0.03444706276059151,0.054865214973688126,-0.030404984951019287,0.018139954656362534,0.007467566058039665,0.08217638731002808,-0.05138683319091797,-0.04459603875875473,0.01673767901957035,-0.07247468829154968,-0.06879756599664688,-0.007192937657237053,-0.028647426515817642,0.11600854247808456,0.08087383955717087,0.006429721135646105,0.01713036745786667,0.0065957349725067616,-0.010779069736599922,0.04991009831428528,-0.003397625405341387,0.0583905391395092,0.001699706888757646,-0.015358075499534607,-0.09576535224914551,0.035479798913002014,0.09409338980913162,0.020200081169605255,0.032712455838918686,0.003845820901915431,0.05646213889122009,0.017111780121922493,0.016993369907140732,-0.012411505915224552,0.00017460346862208098,-0.005361765157431364,0.01174705009907484,0.07432035356760025,-0.008804642595350742,-0.036857761442661285,0.0992521122097969,0.0003956030705012381,0.044673461467027664,-0.05734555795788765,0.016843512654304504,0.1320023238658905,0.026745202019810677,-0.05168530344963074,0.00608008773997426,0.034359969198703766,-0.0012961758766323328,0.061853356659412384,0.029033862054347992,-0.016054518520832062,-0.009382111020386219,0.07015550881624222,0.0365273654460907,-0.012069319374859333,-0.02743109129369259,-0.14834657311439514,-0.01033177599310875,-0.0175747312605381,-0.033870451152324677,-0.003194592660292983,0.03708180412650108,0.032371602952480316,0.07169844210147858,0.12933647632598877,0.10126315802335739,0.025441382080316544,0.021460380405187607,-0.07077321410179138,-0.01899593509733677,-0.05416528880596161,-0.0018615657463669777,-0.1211443692445755,-0.00809828843921423,0.038706567138433456,0.11703409999608994,-0.04856378585100174,0.0045396145433187485,0.06627974659204483,0.06799593567848206,0.08304544538259506,0.014841770753264427,-0.03242789953947067,0.030984221026301384,0.004053024109452963,-0.08538483083248138,0.01584242843091488,0.04573435336351395,0.06922794878482819,0.09887656569480896,0.026572922244668007,0.04025640711188316,-0.031042449176311493,0.0720902532339096,-0.030604491010308266,-0.015671085566282272,-0.006640189792960882,-0.07973778247833252,0.10497890412807465,-0.015769829973578453,-0.07624607533216476,-0.01619226112961769,0.03914741054177284,0.07549910992383957,0.07698731869459152,-0.008026732131838799,0.10346474498510361,0.12731775641441345,-0.04698948934674263,-0.020055096596479416,-0.12228361517190933,-0.03761085867881775,-0.023903481662273407,-0.028978239744901657,-0.00469934893772006,-0.13465674221515656,0.056784406304359436,0.0828431099653244,-0.0316762775182724,0.055037032812833786,0.002582121640443802,-0.04025276377797127,-0.022807588800787926,-0.05777149647474289,-0.034572500735521317,-0.06843870878219604,-0.00898543931543827,0.0020592473447322845,-0.06876234710216522,-0.034743160009384155,-0.0186403039842844,-0.058769263327121735,-0.09511679410934448,0.11155857890844345,-0.051226407289505005,0.006790859159082174,-0.0022885100916028023,0.04518933594226837,0.055872250348329544,-0.06449174135923386,0.05334018915891647,0.0021453567314893007,-0.0187535360455513,0.020459774881601334,-0.08764318376779556,-0.012786981649696827,0.043368130922317505,-0.019443223252892494,0.05518524721264839,0.05579681321978569,-0.04992254078388214,0.06730221211910248,-0.007495038211345673,-0.07514996081590652,0.09145955741405487,0.05799013376235962,0.01101970486342907,0.023074625059962273,-0.02441759966313839,-0.014292498119175434,0.055688902735710144,-0.08008138090372086,-0.09059976786375046,-0.08357341587543488,-0.0240621380507946,0.07770460844039917,0.13604862987995148,-0.02879899926483631,0.042022496461868286,0.10658382624387741,-0.06418433785438538,0.022510752081871033,-0.05080899968743324,0.05788300186395645,0.044083911925554276,-0.033525001257658005,0.017759721726179123,0.02799278497695923,-0.017400678247213364,-0.044193778187036514,0.021204058080911636,-0.04390760138630867,0.03195379301905632,0.1263260543346405,0.056206829845905304,-0.0057214051485061646,0.09793348610401154,-0.0026955779176205397,-0.03925766795873642,0.010453665629029274,-0.010773390531539917,0.11386934667825699,-0.04219513013958931,0.010808644816279411,0.0025349289644509554,-0.06511938571929932,-0.09788699448108673,0.009188328869640827,0.05480519309639931,0.04081524908542633,0.06743162870407104,0.049061793833971024,0.0017787765245884657,-0.0036733197048306465,0.03324425593018532,0.0002571327204350382,-0.013350304216146469,0.06471732258796692,-0.05346521735191345,0.01600121520459652,0.042469289153814316,0.009457596577703953,-0.1280086785554886,0.02731085568666458,-0.004606054630130529,0.0009352997876703739,-0.0008410591399297118,-0.07899119704961777,0.011421634815633297,0.08661488443613052,-0.07063739001750946,-0.00648884754627943,0.14700022339820862,0.028198285028338432,0.04521869122982025,0.03304776921868324,0.1378926932811737,-0.05626405403017998,0.04467826709151268,0.01791132241487503,-0.004056980367749929,0.04555179551243782,-0.029735341668128967,-0.08384104818105698,-0.005860579665750265,0.017315737903118134
albanien,0.1204589232802391,0.07876090705394745,0.019446961581707,-0.09871020168066025,0.04072416201233864,-0.06776685267686844,0.03896120563149452,0.058239903301000595,0.085781030356884,-0.046370670199394226,-0.038103137165308,-0.11624700576066971,0.037823934108018875,-0.03727620095014572,-0.06403286755084991,0.04662460461258888,-0.047178588807582855,-0.026507340371608734,-0.04061123728752136,-0.031376540660858154,-0.020345889031887054,0.035975705832242966,0.05252116173505783,-0.01214366964995861,0.02998870052397251,0.07956167310476303,-0.02360074408352375,0.03545836731791496,-0.007732444442808628,-0.05885867029428482,-0.023126937448978424,-0.02010519616305828,-0.04263520985841751,-0.11582314223051071,0.008233282715082169,-0.03313721343874931,0.00402108347043395,-0.06013213098049164,0.11929526925086975,0.09854146093130112,0.002649635076522827,-0.10207418352365494,-0.0832967758178711,0.07752136141061783,0.018883967772126198,0.023891346529126167,-0.03281543403863907,-0.03885064274072647,0.07526945322751999,-0.05280197039246559,-0.010248641483485699,0.047503285109996796,0.06540572643280029,0.08997170627117157,0.09136075526475906,0.05777418240904808,-0.014099539257586002,0.01628144271671772,0.003971959929913282,-0.046857722103595734,0.019087007269263268,-0.09378084540367126,-0.01693672128021717,0.007830934599041939,0.0292973592877388,0.013323713093996048,0.06814562529325485,0.00024496784317307174,0.008908798918128014,0.017769712954759598,0.05924874171614647,0.11701124906539917,0.03008120507001877,-0.03212994709610939,0.11645404994487762,-0.017157353460788727,-0.020099325105547905,0.028907421976327896,0.005061464849859476,-0.03254479169845581,0.140120267868042,0.01574442908167839,-0.03179609775543213,0.0445045530796051,0.004123551771044731,0.10229872167110443,-0.12753471732139587,0.01936262659728527,0.03002927266061306,-0.0162294153124094,-0.05013623088598251,0.027993498370051384,0.012084617279469967,0.020031245425343513,0.008059969171881676,0.055042192339897156,-0.05247058719396591,-0.09772457182407379,-0.03160152956843376,0.06817281246185303,-0.05457809939980507,0.05395635589957237,0.06200450658798218,-0.03560565784573555,-0.08986325562000275,-0.0015031833900138736,0.042985815554857254,0.01033844891935587,-0.007986674085259438,0.013735897839069366,-0.06641194224357605,-0.014375504106283188,0.06273824721574783,0.05562587082386017,-0.0024135306011885405,-0.007321341894567013,-0.029591694474220276,-0.07036345452070236,-0.030519992113113403,0.010859686881303787,-0.12134470045566559,0.08734561502933502,-0.0423213392496109,-0.010543152689933777,0.03777812793850899,0.06903064996004105,0.0052253324538469315,0.020199885591864586,0.06636124849319458,0.06376031041145325,0.03824157640337944,0.04739359766244888,-0.005744050722569227,-0.014871714636683464,0.002747235121205449,0.013962061144411564,-0.013893794268369675,0.03121354803442955,0.11404107511043549,0.11241547763347626,0.04954914748668671,-0.043465182185173035,0.04424348473548889,0.032245270907878876,0.0888327956199646,0.053585831075906754,0.04915718361735344,0.008016296662390232,-0.016867004334926605,-0.14939822256565094,-0.031635187566280365,0.025457413867115974,0.02223929576575756,0.02540210261940956,-0.08566483855247498,0.04695571959018707,-0.00665165763348341,0.045998964458703995,0.08485125005245209,-0.004805855453014374,-0.07955632358789444,0.05750993639230728,0.07093095779418945,-0.03632649406790733,0.07688673585653305,-0.05401519313454628,0.04957655444741249,0.06035006046295166,0.019951924681663513,-0.032217878848314285,0.10558675229549408,0.10084205865859985,-0.0030357500072568655,0.07803241163492203,-0.055067747831344604,-0.02278757654130459,-0.02496093139052391,-0.0810743197798729,-0.08428524434566498,-0.03390698879957199,0.047650694847106934,-0.031597208231687546,0.03867988660931587,0.017859511077404022,0.004373126197606325,-0.14273293316364288,0.0009657354094088078,-0.07160128653049469,-0.019851846620440483,-0.05459423363208771,0.009881201200187206,-0.08828041702508926,-0.14607395231723785,0.05431701987981796,-0.029712051153182983,0.06400381773710251,-0.07317088544368744,0.026276500895619392,-0.10148318856954575,-0.01888374239206314,0.0052846563048660755,-0.06974759697914124,0.0007738907588645816,-0.020085355266928673,-0.052802037447690964,0.032162144780159,0.01657324656844139,0.08269280940294266,0.058212876319885254,-0.11265880614519119,-0.08015751093626022,0.053608909249305725,-0.0682576596736908,0.006362594664096832,-0.036310579627752304,-0.01355551928281784,-0.06407960504293442,0.00923045352101326,0.079269178211689,-0.02634982392191887,-0.048149995505809784,0.006278711371123791,-0.10242968797683716,-0.05301368981599808,0.1271502822637558,0.03609263896942139,-0.02131388708949089,-0.039359673857688904,0.09173738956451416,0.05536656826734543,0.04941146448254585,-0.019728926941752434,-0.0168559942394495,0.058706726878881454,-0.038033612072467804,-0.05277957394719124,-0.07408512383699417,0.011619051918387413,0.08096300065517426,-0.0026491330936551094,0.010901113040745258,0.10514551401138306,-0.06618548184633255,-0.0684838518500328,0.022788047790527344,-0.0037863096222281456,0.026947516947984695,0.0771806463599205,0.13962368667125702,0.030908219516277313,0.12592174112796783,0.004211284685879946,0.03669275343418121,-0.05017360299825668,-0.029495498165488243,-0.006163497921079397,0.02304280549287796,0.002305437345057726,-0.017064033076167107,-0.057694025337696075,-0.034523773938417435,0.04153328388929367,-0.015592633746564388,-0.0383184552192688,0.10053040832281113,0.06328197568655014,0.031932249665260315,-0.028682995587587357,0.027362652122974396,-0.009209990501403809,-0.003733954392373562,0.01920233853161335,-0.040285322815179825,-0.10115029662847519,0.030515065416693687,0.03887880966067314,-0.02889624983072281,0.06272563338279724,0.036762990057468414,0.014291476458311081,0.03893628343939781,-0.016192955896258354,-0.02422809600830078,0.06347157806158066,0.03894232213497162,-0.007345301099121571,0.0640113577246666,-0.010000772774219513,-0.01637176051735878,0.01571499928832054,0.14177961647510529,0.024472422897815704,-0.1427631825208664,-0.026878120377659798,0.026836557313799858,0.06415005773305893,-0.07666704803705215,0.10771872103214264,-0.01254252064973116,-0.054947562515735626
algerien,0.007004070095717907,-0.000488521414808929,0.0575086735188961,0.01928599178791046,0.12547184526920319,0.017626386135816574,0.03679431229829788,0.024075744673609734,0.08329620212316513,0.03850071504712105,0.09349625557661057,-0.18077486753463745,-0.05882144346833229,0.04078823700547218,0.009197755716741085,0.07010947912931442,0.09115208685398102,0.05252908915281296,-0.008179298602044582,0.0033275389578193426,0.008572776801884174,0.10667462646961212,-0.06736927479505539,-0.009358471259474754,-0.06322340667247772,0.010404850356280804,0.00959728006273508,0.04064130410552025,0.00862603634595871,0.021276751533150673,0.0610998161137104,0.00448235496878624,0.06422725319862366,-0.10067957639694214,0.05371958762407303,0.08536215871572495,-0.05920044332742691,0.07648913562297821,0.12344082444906235,-0.09361056238412857,0.008225522935390472,0.0999198779463768,0.038870587944984436,0.09491543471813202,-0.05975284054875374,0.039218056946992874,-0.01525608915835619,0.023315154016017914,0.0519428551197052,-0.041409898549318314,-0.07362104952335358,0.023248637095093727,0.03589456155896187,0.042317334562540054,0.11626482009887695,0.019206708297133446,0.019388893619179726,-0.0785420760512352,0.035726673901081085,-0.11637406051158905,-0.09155912697315216,-0.07235754281282425,-0.008535983972251415,0.08066873252391815,-0.00536228297278285,-0.10013682395219803,-0.03561633825302124,0.005123007111251354,-0.020163968205451965,-0.0464445985853672,-0.023707564920186996,-0.08595553785562515,0.019967366009950638,0.029209088534116745,0.030716169625520706,0.025231461971998215,0.017829161137342453,-0.02856220118701458,-0.08479919284582138,-0.023238226771354675,0.03250701725482941,0.06114299222826958,0.11956647038459778,0.05024668574333191,0.028545236214995384,0.024663975462317467,-0.0696076899766922,0.01486112829297781,-0.0055909291841089725,0.05072779208421707,-0.04389234632253647,-0.0018164659850299358,-0.013393466360867023,0.05809885635972023,-0.10057695209980011,0.013462602160871029,-0.048273805528879166,0.048972237855196,-0.008922060020267963,-0.04590614512562752,0.1133202537894249,-0.06441459059715271,0.05354481190443039,0.029405230656266212,-0.0060427808202803135,-0.02848401479423046,0.05413489788770676,0.04216641187667847,0.008686237968504429,0.028623653575778008,-0.04201124608516693,0.004562947899103165,0.12946291267871857,0.019100671634078026,-0.06556777656078339,0.08141472190618515,-0.06155109032988548,-0.028242751955986023,-0.01701883040368557,-0.01638006418943405,-0.12693104147911072,0.04431386664509773,-0.0324660986661911,-0.01824396848678589,-0.018480485305190086,0.07576379925012589,-0.0555158294737339,0.012265990488231182,-0.03505914658308029,0.05729511380195618,-0.004161014687269926,0.126998633146286,-0.07808375358581543,-0.013834272511303425,-0.0077844965271651745,-0.00475473515689373,0.025738561525940895,0.025315269827842712,0.0013573482865467668,0.055825091898441315,0.024603327736258507,0.04376153275370598,0.01379777304828167,0.03309435769915581,0.021727515384554863,-0.06561818718910217,0.04897812381386757,-0.018643565475940704,-0.0035759692545980215,0.0034045677166432142,-0.0006648405687883496,0.06083893030881882,0.07023914903402328,-0.09512697160243988,0.0696488693356514,0.029566319659352303,-0.05964897200465202,-0.047230321913957596,0.022352393716573715,-0.01752949133515358,0.016725463792681694,-0.03272496908903122,-0.022228935733437538,0.03500550240278244,0.008528354577720165,0.08725949376821518,-0.04557279497385025,0.040656376630067825,0.03501410409808159,0.027696268633008003,0.09030008316040039,0.05947994068264961,0.034184530377388,-0.059872522950172424,-0.03632335364818573,-0.059239711612463,-0.05856391042470932,-0.12037798762321472,-0.0813322365283966,0.05397186428308487,-0.019176436588168144,0.037526581436395645,-0.031873513013124466,-0.061701904982328415,0.04283119738101959,-0.0011230639647692442,-0.05257181450724602,-0.014076570980250835,-0.0341302715241909,-0.05838881433010101,0.048624567687511444,0.03173237293958664,-0.062087249010801315,0.03003237023949623,0.05855432152748108,-0.03600368648767471,0.10432126373052597,0.0372813418507576,0.00389326480217278,-0.052788615226745605,-0.04740419611334801,0.1296929270029068,0.09987271577119827,0.069706492125988,0.0608641617000103,0.01922922395169735,0.035404838621616364,-0.06645213067531586,-0.029203522950410843,-0.08203952014446259,-0.003106072312220931,-0.017075931653380394,-0.06921786814928055,0.00315859611146152,0.09972791373729706,0.18597252666950226,-0.05463032051920891,-0.03488016873598099,0.08622542023658752,-0.028627337887883186,0.0028470363467931747,-0.014442548155784607,0.09021978825330734,-0.03592968359589577,0.01590835675597191,-0.1198277696967125,-0.05912156030535698,0.09803951531648636,-0.07777843624353409,-0.0004224298754706979,0.06300415098667145,-0.007306193467229605,0.08054076880216599,-0.07311227172613144,-0.003759402548894286,-0.040666863322257996,-0.025923317298293114,-0.006248425226658583,-0.06008406728506088,0.01724529266357422,-0.09977191686630249,0.04437859728932381,0.028830643743276596,-0.07171893119812012,0.13732214272022247,0.10178972780704498,0.06342960894107819,0.1578194499015808,0.0214687492698431,0.020228981971740723,0.013993759639561176,-0.0256800539791584,0.013956697657704353,0.009576368145644665,-0.058583859354257584,0.11588235944509506,0.07347746938467026,0.02142144739627838,0.034144092351198196,-0.02146909385919571,-0.09864702820777893,-0.01762498915195465,-0.020417938008904457,0.015621625818312168,-0.0439651757478714,-0.016824135556817055,0.10117124021053314,0.022230396047234535,0.011309935711324215,-0.03937356173992157,0.003242657519876957,0.0006721634999848902,-0.008975778706371784,-0.03577788546681404,-0.01715073361992836,-0.13994859158992767,0.0320562869310379,0.02252020500600338,0.07810032367706299,0.0035519730299711227,0.0006061556050553918,0.035783570259809494,0.011715244501829147,0.10269463062286377,0.008093440905213356,-0.04219505935907364,-0.026497354730963707,0.026079319417476654,-0.026360662654042244,0.051684051752090454,-0.014526407234370708,-0.02393210493028164,-0.040883228182792664,0.06488201022148132,-0.0024450786877423525,-0.011014776304364204,-0.015364564955234528,0.0019784090109169483,0.07111852616071701,-0.04300516098737717
angola,0.015688080340623856,-0.035182759165763855,0.07517287880182266,-0.07366880029439926,0.18425026535987854,-0.04674640670418739,0.05173388123512268,-0.008436139672994614,0.05282440781593323,-0.08504048734903336,-0.003918900620192289,0.001091187703423202,0.037805140018463135,-0.045297715812921524,-0.0592183917760849,0.0004552112950477749,-0.0005677553708665073,-0.04241793230175972,0.023975919932127,-0.057322222739458084,0.08314085006713867,-0.01128710713237524,0.04122040793299675,-0.045115068554878235,-0.020396679639816284,0.12343160808086395,-0.14071954786777496,-0.054995592683553696,-0.01730603165924549,-0.0686148852109909,-0.0207385141402483,0.09413493424654007,0.010106015019118786,-0.036443714052438736,-0.1170012429356575,0.06638003140687943,0.0526142381131649,-0.0909675806760788,0.02823362499475479,0.0168167632073164,0.028562521561980247,0.0051699066534638405,-0.018807237967848778,0.002756988164037466,0.0361923947930336,0.015859253704547882,0.05000526085495949,-0.03946295008063316,0.08593834936618805,-0.13297438621520996,-0.05581861361861229,0.0343729704618454,0.010499983094632626,0.01429146807640791,0.13203924894332886,0.053800567984580994,-0.03353956714272499,0.09197758883237839,0.059417154639959335,-0.042076852172613144,-0.06597472727298737,-0.11132629215717316,0.04279714077711105,0.07138841599225998,0.014978555031120777,-0.05932414531707764,0.05148458480834961,0.0038192449137568474,0.12058360129594803,-0.015914207324385643,-0.059840746223926544,-0.036485712975263596,0.10867980122566223,-0.008283532224595547,0.03402511402964592,0.09708083420991898,-0.05082259699702263,0.032273780554533005,0.010897066444158554,-0.07890240103006363,0.07712874561548233,0.06975135952234268,0.07038316875696182,-0.07928362488746643,0.13707074522972107,0.015262799337506294,0.017216937616467476,0.021560542285442352,0.06168954074382782,0.024871552363038063,-0.018737206235527992,0.021218007430434227,-0.012291491962969303,-0.0884026288986206,-0.03503040224313736,0.07409660518169403,-0.06865059584379196,-0.06209389492869377,0.06137482449412346,-0.07443366944789886,0.10873731225728989,0.022098079323768616,0.06321503221988678,0.006490765605121851,-0.006234135013073683,0.021459098905324936,0.051210127770900726,-0.01814328320324421,0.01671670377254486,0.0025166370905935764,0.08072127401828766,0.05069145932793617,0.09749773889780045,0.004050786606967449,-0.16323363780975342,-0.01543455384671688,0.012631244026124477,-0.01964895986020565,0.00971147883683443,-0.04830620810389519,-0.03707548603415489,-0.04121256247162819,0.07858933508396149,-0.010064234025776386,0.13300824165344238,0.0027126462664455175,-0.025208309292793274,0.03957200422883034,-0.006294087506830692,0.07939502596855164,0.03950560837984085,0.09414233267307281,0.052382759749889374,-0.08686050027608871,-0.0257880799472332,0.050502318888902664,-0.07621278613805771,-0.006469103507697582,-0.031144075095653534,0.02903713285923004,0.026148471981287003,0.022678205743432045,0.013142501935362816,-0.03454795852303505,-0.003787600202485919,-0.07891891151666641,0.04712410271167755,-0.005609193816781044,0.06525206565856934,-0.035084228962659836,-0.06397911161184311,0.08080409467220306,0.046777382493019104,0.03866559639573097,0.030333982780575752,-0.06545300036668777,0.02231963723897934,0.014244765974581242,-0.000890471157617867,-0.029212171211838722,-0.018282964825630188,-0.08738857507705688,0.01412656158208847,0.005414369981735945,-0.013466035015881062,0.013833313249051571,0.004370625596493483,0.043219562619924545,0.026207417249679565,-0.02422596700489521,0.14677000045776367,0.12370557337999344,-0.0660596713423729,0.027882320806384087,0.060806747525930405,-0.05118810012936592,-0.04233467951416969,-0.002021036110818386,0.035790521651506424,-0.12749050557613373,0.026908209547400475,-0.07110440731048584,-0.03948964178562164,0.024711450561881065,-0.005187650676816702,-0.06424511224031448,0.07807978987693787,0.027072003111243248,0.0016209230525419116,0.01934005320072174,-0.055445969104766846,0.02542301081120968,-0.10259583592414856,0.015555362217128277,-0.07429170608520508,-0.004669414833188057,-0.06958901882171631,0.03120877966284752,-0.05285048484802246,-0.09961719810962677,-0.0440291166305542,0.06564127653837204,-0.03964745253324509,-0.06224457547068596,0.008875349536538124,0.022134751081466675,-0.013299566693603992,-0.030743325129151344,-0.009421401657164097,-0.062220532447099686,-0.12007138133049011,-0.03119305893778801,-0.05421368032693863,0.08347614109516144,0.10083962976932526,0.04698159173130989,-0.020427126437425613,-0.025547318160533905,0.049957018345594406,-0.04300127550959587,0.0371076799929142,-0.04184979572892189,-0.062187500298023224,-0.03981328010559082,0.01843101903796196,-0.07744698226451874,0.020841281861066818,-0.037303876131772995,0.012945312075316906,0.05828302726149559,0.004087446723133326,0.03442838788032532,0.06499654054641724,-0.04385406896471977,0.021177159622311592,0.022186268121004105,-0.03539913147687912,-0.01707867532968521,0.001852240413427353,-0.001810321700759232,-0.015215631574392319,0.03803008794784546,0.004458952229470015,-0.06073734164237976,0.05822990462183952,-0.0016958931228145957,0.05801856517791748,-0.02065569907426834,0.047804322093725204,-0.0697135180234909,0.04489222541451454,-0.0714508593082428,0.07139075547456741,0.037990182638168335,0.09568656235933304,0.05714407563209534,-0.06542930006980896,-0.03301569074392319,-0.01263547595590353,-0.010573414154350758,-0.08971954882144928,0.010748045518994331,0.08591911941766739,-0.03206547349691391,0.025600245222449303,0.10915880650281906,0.03672212362289429,0.04004187136888504,-0.0034976776223629713,0.047870371490716934,0.023190246894955635,-0.00420701177790761,-0.04467804729938507,-0.0728069618344307,0.04552771523594856,-0.05371455103158951,-0.031614456325769424,-0.018744831904768944,0.0977642834186554,0.0362699031829834,0.1402469426393509,-0.024610312655568123,-0.005030226428061724,-0.0412742905318737,0.11053136736154556,-0.10292923450469971,-0.0340738482773304,0.012386785820126534,0.016909833997488022,0.058476537466049194,-0.03210807591676712,0.045929767191410065,-0.026438333094120026,0.024407655000686646,-0.10451213270425797,-0.03525017201900482,-0.07554183900356293,-0.025440378114581108,-0.02996092103421688,-0.10663091391324997
argentinien,0.06411898881196976,0.023759206756949425,0.026809299364686012,-0.059728365391492844,0.10584666579961777,-0.043251316994428635,0.03153508901596069,-0.08615774661302567,0.050841767340898514,-0.08203945308923721,0.016764238476753235,-0.036543868482112885,-0.04532661661505699,-0.08923617005348206,-0.04583285003900528,0.07887428253889084,0.11553357541561127,-0.029012978076934814,-0.011586319655179977,0.002891083247959614,-0.04359648376703262,0.031115718185901642,0.0445416234433651,0.05792304873466492,-0.03832210600376129,0.036744747310876846,-0.004989732056856155,-0.08829555660486221,0.02486725151538849,-0.060099128633737564,-0.05575254186987877,0.003139462787657976,-0.0044491346925497055,-0.06249741092324257,0.051693305373191833,-0.0572332888841629,0.05935570225119591,-0.025483399629592896,0.1049036756157875,-0.017920050770044327,-0.01788346655666828,-0.021945854648947716,0.08433520048856735,-0.07355711609125137,0.039165761321783066,-0.06325549632310867,-0.07113488018512726,0.058679528534412384,-0.04296175390481949,0.03767300024628639,0.02366553619503975,-0.06266975402832031,-0.026814503595232964,0.08328968286514282,-0.021023588255047798,0.10478048771619797,-0.02318406291306019,0.0968356803059578,0.061966776847839355,0.06381876021623611,-0.03053400106728077,-0.17580930888652802,-0.061781298369169235,0.0013366719940677285,0.06702958792448044,0.044984836131334305,0.01933962292969227,-0.004905601963400841,0.053218163549900055,0.003911586478352547,-0.0031465354841202497,-0.06541745364665985,0.05035462975502014,0.008899078704416752,0.05763346701860428,0.047601714730262756,0.017844675108790398,-0.0037290086038410664,0.04945741593837738,-0.08202756196260452,0.02006816864013672,0.05674084275960922,-0.09330930560827255,-0.11312814056873322,-0.014638355933129787,-0.011265735141932964,0.004161038901656866,-0.025368018075823784,0.02093704417347908,0.033908694982528687,-0.09921330958604813,-0.03112090192735195,0.04080875590443611,0.06255418807268143,0.06146325170993805,0.08554227650165558,0.060118984431028366,0.0222785584628582,0.017656801268458366,-0.027434932067990303,0.03592811897397041,0.023553188890218735,-0.03555264696478844,0.031691014766693115,-0.051551543176174164,-0.04703167453408241,0.04685593023896217,-0.00040437959250994027,-0.10845360159873962,0.01445811614394188,-0.011204495094716549,0.05911687761545181,0.15499143302440643,-0.02603886090219021,0.006146190222352743,0.01576102152466774,-0.05081339180469513,-0.04572870209813118,-0.04314211755990982,0.04716269299387932,0.02628774382174015,-0.05261778458952904,-0.041077807545661926,-0.04797147214412689,0.02087359130382538,0.086107537150383,-0.050876449793577194,0.00940138939768076,-0.0446280837059021,0.042378444224596024,0.03367001563310623,-0.03837127611041069,-0.07709885388612747,-0.05424772948026657,-0.10436977446079254,0.01570405624806881,-0.04620516672730446,0.05356323719024658,0.061492498964071274,0.009313135407865047,0.07107443362474442,0.02314670942723751,0.010763585567474365,-0.040201254189014435,0.1524798423051834,-0.03474050387740135,-0.047834109514951706,0.11237286031246185,-0.016089024022221565,-0.14221005141735077,-0.03593902662396431,0.03486504778265953,0.07659473270177841,0.04899035021662712,-0.011986580677330494,-0.0046269954182207584,0.03104201704263687,0.1309231072664261,0.10125608742237091,0.006444388534873724,0.02005399391055107,-0.04090872034430504,0.051368799060583115,-0.009847240522503853,-0.10494769364595413,0.05130676552653313,-0.05983271822333336,0.03574639558792114,0.09075354784727097,0.05687588453292847,0.015258575789630413,-0.05497841536998749,-0.11192955821752548,0.05096723511815071,-0.046612128615379333,-0.03761519491672516,-0.029861774295568466,-0.014184810221195221,-0.01393667608499527,-0.07770734280347824,0.09756617993116379,0.054496243596076965,0.04177404195070267,0.020660990849137306,0.05929463729262352,-0.023944295942783356,0.04427444189786911,0.008214656263589859,0.04923534020781517,-0.1000698134303093,-0.020126068964600563,-0.006849904078990221,-0.10393517464399338,0.012954501435160637,-0.10613910853862762,0.0170602947473526,-0.08424870669841766,0.02208373136818409,-0.0648682713508606,0.02418275736272335,-0.005622606258839369,-0.044897597283124924,-0.008476696908473969,0.08652918040752411,-0.04687502980232239,0.08753322064876556,-0.016557009890675545,-0.04095979034900665,-0.05510171502828598,-0.0016455950681120157,-0.055725112557411194,-0.0014684717170894146,-0.03038136474788189,-0.06407894939184189,0.015022235922515392,0.05365355312824249,-0.043533071875572205,-0.13987815380096436,-0.059838566929101944,-0.10136997699737549,0.09367077797651291,0.06520520150661469,-0.04878782480955124,-0.0024322851095348597,0.055179908871650696,-0.07620250433683395,0.007058962248265743,-0.07989449054002762,0.03939751535654068,-0.02909666672348976,-0.020310821011662483,-0.002359969075769186,0.061921682208776474,-0.02288329228758812,0.08175385743379593,0.014880845323204994,0.009599583223462105,0.07392967492341995,0.09184101223945618,-0.12027721852064133,0.015707850456237793,0.022161008790135384,-0.08267208933830261,-0.08524079620838165,0.02464921399950981,-0.009006395936012268,-0.036562103778123856,0.014705467037856579,-0.015696914866566658,0.0009500862215645611,-0.07030606269836426,0.020563052967190742,-0.09885652363300323,0.07486194372177124,0.007216550875455141,0.024673450738191605,0.0056929136626422405,0.02948060818016529,-0.027854496613144875,-0.020653897896409035,-0.03974262624979019,0.03466131165623665,-0.009998581372201443,0.08302539587020874,-0.09576539695262909,0.05376753956079483,0.15294168889522552,0.08374324440956116,-0.012611200101673603,-0.0049712867476046085,-0.025130970403552055,-0.01498450431972742,-0.04084036499261856,-0.0583018958568573,0.11091511696577072,-0.12208554893732071,0.012341580353677273,-0.026288848370313644,0.07681214809417725,-0.02755090966820717,0.04326188936829567,-0.05272874981164932,0.0049416180700063705,0.026697834953665733,-0.007602441590279341,-0.02439667284488678,-0.01744413748383522,0.058604273945093155,-0.08135493844747543,0.0014084290014579892,0.024392802268266678,-0.06598451733589172,0.032925475388765335,-0.04292885214090347,-0.10299606621265411,0.00988672859966755,0.07006377726793289,0.03882957622408867,-0.037191905081272125,-0.02607421763241291
armenien,0.05304306745529175,0.01412888802587986,0.06779082119464874,-0.041081804782152176,0.030458293855190277,-0.09159333258867264,0.0704972967505455,0.02314312383532524,0.014668873511254787,-0.06794515252113342,0.030739281326532364,-0.04363866522908211,-0.04500827565789223,0.01995418779551983,-0.05531337112188339,-0.007519461680203676,-0.015601547434926033,-0.12066609412431717,0.0121129946783185,0.007905617356300354,-0.002235007006675005,0.06246109679341316,-0.04655786231160164,-0.033682044595479965,0.013527343049645424,-0.010125447064638138,-0.05451904982328415,0.06242886185646057,0.008814727887511253,-0.0013092763256281614,0.06264898926019669,0.01265928614884615,-0.05597671493887901,-0.07083503156900406,0.010574440471827984,0.10461883246898651,0.022718479856848717,-0.06038074567914009,0.0495741032063961,0.031962525099515915,-0.0030125449411571026,-0.02228652313351631,0.024456623941659927,0.09698609262704849,-0.036601949483156204,0.001420378452166915,-0.052314966917037964,0.01609787717461586,-0.05826333165168762,0.023920290172100067,-0.05425361543893814,-0.01817932538688183,-0.0012895158724859357,-0.08131497353315353,0.06647837907075882,-0.028760146349668503,0.00576947582885623,-0.059661366045475006,0.13890916109085083,0.004004002083092928,-0.021064087748527527,0.005000692792236805,-0.0650053322315216,-0.0037335956003516912,0.024014104157686234,-0.050739504396915436,-0.029103105887770653,-0.0012287647696211934,-0.10347583889961243,-0.02450108714401722,0.043980490416288376,0.009519479237496853,-0.004271425772458315,0.021718302741646767,0.031016871333122253,0.03707478567957878,0.008989661931991577,-0.001123750233091414,0.0679565891623497,-0.03315362334251404,0.04307795315980911,-0.08029082417488098,0.035368673503398895,-0.09319949150085449,0.07049693167209625,-0.010093804448843002,0.02449452504515648,0.04370178282260895,-0.01684304140508175,-0.0379042848944664,0.05572168901562691,-0.05801647529006004,-0.0003344206197652966,0.07436471432447433,-0.026546936482191086,-0.07414445281028748,-0.06628075987100601,-0.06290930509567261,-0.035147566348314285,-0.02215293049812317,-0.032140765339136124,0.07687624543905258,0.07388611882925034,-0.005653020925819874,-0.07837007194757462,-0.01716579869389534,0.10055490583181381,0.01747879385948181,-0.0846836045384407,0.06396233290433884,-0.01217864640057087,0.02367507666349411,0.06912808865308762,-0.0765804648399353,0.05003558099269867,0.017881186679005623,0.09848620742559433,-0.0818842425942421,0.08546384423971176,0.07073686271905899,0.043108612298965454,-0.01890295371413231,-0.0015172148123383522,0.048639435321092606,0.07711418718099594,0.016891006380319595,0.028098667040467262,0.014298275113105774,-0.07617669552564621,0.06960681825876236,-0.0002768768754322082,0.039554622024297714,-0.03642510250210762,-0.11829306185245514,-0.020442629233002663,0.07256809622049332,-0.1252867430448532,0.026670565828680992,0.08596988767385483,0.12447769194841385,0.10784368216991425,0.06486358493566513,-0.040107954293489456,0.04761507734656334,0.007769189774990082,-0.02360377460718155,-0.028216401115059853,0.08698226511478424,0.023775191977620125,-0.057683710008859634,-0.09704851359128952,-0.040319398045539856,0.08864118158817291,-0.047367993742227554,-0.002121700905263424,0.07196590304374695,0.07131568342447281,0.0033584798220545053,0.03501271456480026,-0.015268144197762012,-0.12623430788516998,0.0010323701426386833,-0.006888262461870909,0.01470497902482748,0.041676584631204605,-0.01209960225969553,0.039252541959285736,-0.009253771975636482,0.07505861669778824,-0.06516969949007034,0.0783824548125267,0.09601037949323654,0.012712975032627583,0.054791923612356186,-0.11418581753969193,-0.03219109773635864,0.002148945350199938,-0.11886164546012878,0.02575485035777092,-0.0578557625412941,0.00953854899853468,0.0632585808634758,0.03711280599236488,0.07941042631864548,0.05307145044207573,-0.010163148865103722,0.028184212744235992,0.00408935034647584,-0.021877136081457138,0.0480961911380291,-0.009940311312675476,-0.00015073049871716648,-0.043555814772844315,-0.05662672221660614,-0.04450905695557594,0.059307895600795746,-0.056047290563583374,0.0095225153490901,-0.04205756634473801,-0.030222227796912193,-0.10658574849367142,-0.009343022480607033,0.06889975070953369,0.011100757867097855,-0.031569916754961014,0.07026556879281998,-0.00023459606745745987,0.00482632452622056,0.06077859550714493,-0.23796404898166656,-0.09879449009895325,-0.03831695765256882,-0.03546193242073059,-0.06692219525575638,-0.09655037522315979,0.059344612061977386,0.01835182122886181,0.0023513997439295053,-0.06209641322493553,-0.04213631525635719,-0.027596166357398033,-0.051353659480810165,-0.007977952249348164,-0.04858212172985077,0.11558017879724503,-0.10981795936822891,0.00593477813526988,-0.07048527896404266,-0.10101969540119171,0.042660512030124664,0.09306389093399048,0.09855477511882782,-0.09237664937973022,0.026212599128484726,0.013924576342105865,0.01613064855337143,0.06133376061916351,-0.09882920980453491,0.06274812668561935,-0.05993318185210228,-0.016083834692835808,0.03933567926287651,-0.07847589254379272,-0.06456669420003891,0.04244428500533104,0.0619572214782238,-0.024487318471074104,0.07113054394721985,0.008680876344442368,-0.04164814576506615,0.09915123134851456,0.020372983068227768,0.011236809194087982,-0.03322308138012886,0.08685946464538574,0.024061398580670357,-0.07312047481536865,0.04146609827876091,-0.08586413413286209,0.046848930418491364,-0.0035997633822262287,0.01926364190876484,-0.07507215440273285,-0.005458989646285772,-0.034387845546007156,0.04959483817219734,0.006088032852858305,0.018865883350372314,0.002205304568633437,-0.02817326784133911,0.024453969672322273,0.08581527322530746,-0.039674270898103714,-0.02610194869339466,0.02091703936457634,-0.056823376566171646,-0.05643276870250702,-0.06090568006038666,0.06774918735027313,-0.0010610258905217052,-0.05067450925707817,0.11334797739982605,-0.014661785215139389,0.1564406007528305,0.017140952870249748,0.0013223408022895455,-0.03280145302414894,0.044641729444265366,0.08331752568483353,0.04422736167907715,0.05393240973353386,-0.09031552821397781,0.08686380833387375,-0.04471483454108238,-0.09342973679304123,-0.05982774868607521,-0.025534505024552345,0.020914625376462936,0.09408152848482132,0.04174530878663063
aserbaidschan,0.007057828363031149,-0.0020916778594255447,0.004965140018612146,-0.0757308155298233,0.07296294718980789,-0.09642651677131653,0.09561675786972046,0.08195725828409195,0.015214677900075912,-0.013491588644683361,0.04541903734207153,-0.05657496675848961,-0.016934877261519432,0.032749250531196594,0.01998177357017994,-0.012526002712547779,-0.05187131091952324,-0.050408538430929184,-0.06202973797917366,0.08464410156011581,-0.014234491623938084,0.16766561567783356,0.04433715343475342,0.04045486077666283,-0.012398295104503632,0.02901148609817028,-0.0958702564239502,0.07107985764741898,0.10659416764974594,-0.017553571611642838,0.07638576626777649,-0.006828465964645147,0.004434069152921438,-0.10486454516649246,0.03283396735787392,0.12807047367095947,0.056803274899721146,-0.07016906887292862,0.0823800265789032,-0.017003465443849564,-0.007427401840686798,0.013243697583675385,0.06317321211099625,0.061341144144535065,-0.0664122924208641,0.035832636058330536,-0.006638336461037397,0.034606706351041794,-0.02163228578865528,-0.0374578982591629,-0.07842809706926346,0.05509578436613083,-0.008075559511780739,-0.044747401028871536,0.06224210187792778,-0.030947836115956306,-0.03238151594996452,-0.016959454864263535,0.02589668147265911,-0.05970299616456032,-0.061282191425561905,-0.023124394938349724,-0.0015752078033983707,0.03549296408891678,0.05400483310222626,-0.011313141323626041,0.04650890454649925,-0.026126397773623466,-0.02159373089671135,0.005814210511744022,0.058866992592811584,0.02323596552014351,0.03778509050607681,0.0033646393567323685,0.04925653710961342,0.10459885746240616,-0.014702344313263893,-0.011506601236760616,0.06088009476661682,-0.010991886258125305,0.05212473124265671,-0.046892523765563965,0.026068730279803276,-0.021370017901062965,0.048703424632549286,-0.04726633429527283,0.008715215139091015,0.052057478576898575,-0.027043156325817108,0.007286153733730316,0.012233736924827099,-0.007369935046881437,0.046144284307956696,0.021305399015545845,-0.021168682724237442,-0.10611934959888458,-0.126022607088089,-0.07411014288663864,-0.010468033142387867,-0.05230488255620003,0.05299532413482666,0.030751459300518036,0.0017452981555834413,0.05999727547168732,-0.08995910733938217,-0.049122367054224014,0.12286022305488586,-0.06323384493589401,-0.11265886574983597,0.04279205948114395,0.0354500375688076,0.032438382506370544,-0.030562829226255417,-0.006981297396123409,0.013101954944431782,-0.03187478333711624,0.032192640006542206,-0.07758448272943497,0.10271815210580826,0.12106729298830032,-0.01535298302769661,-0.02408650331199169,-0.039506569504737854,0.09633132070302963,0.001537218107841909,0.037886835634708405,-0.031688276678323746,0.027255849912762642,0.02882598526775837,0.1263851821422577,0.007928071543574333,-0.006608994212001562,-0.030786635354161263,-0.09042521566152573,-0.04640574753284454,0.002804948017001152,-0.05901278182864189,0.014448389410972595,0.13576577603816986,0.13981623947620392,0.11796407401561737,0.06806619465351105,0.013980506919324398,0.039754077792167664,0.009484191425144672,0.03150611370801926,0.015192929655313492,0.05050591379404068,0.07684127241373062,-0.0012567122466862202,-0.009269523434340954,-0.02704699896275997,-0.0032006530091166496,-0.04450686648488045,-0.02803783491253853,0.03609786927700043,0.04672453552484512,0.014193659648299217,-0.02473820187151432,0.008604294620454311,-0.05962191894650459,-0.03358503058552742,-0.0055296760983765125,0.020817186683416367,0.04850858822464943,-0.005645901430398226,0.03818405792117119,0.007355850655585527,0.11021952331066132,-0.033892419189214706,0.010298062115907669,0.06747432798147202,-0.08188080042600632,-0.013006281107664108,-0.03711572289466858,-0.079478420317173,-0.051253240555524826,-0.10723617672920227,0.01812586560845375,-0.06575115025043488,0.02703739143908024,0.0313987135887146,-0.0398140475153923,-0.0002631619281601161,0.00029178918339312077,0.032117459923028946,0.0364493802189827,-0.03440530598163605,-0.0012231966247782111,-0.01483752392232418,-0.053060587495565414,-0.004879307933151722,-0.10138656944036484,-0.07933174818754196,-0.045727282762527466,0.04986732080578804,0.0716162919998169,0.033122725784778595,-0.030507711693644524,-0.07653845846652985,-0.06662158668041229,-0.03260926157236099,0.06345738470554352,0.057493291795253754,0.0434003621339798,0.04238896071910858,0.0024560748133808374,0.023813242092728615,0.049490779638290405,-0.15679247677326202,-0.03369355946779251,-0.021603025496006012,-0.004004984628409147,-0.07899423688650131,-0.06957835704088211,0.04382805898785591,0.030888188630342484,-0.03548407182097435,0.0037584658712148666,0.03959125280380249,0.07290231436491013,-0.07172653824090958,0.019698960706591606,-0.05198897793889046,0.04949841648340225,-0.135452538728714,0.03033515252172947,0.0026328859385102987,0.015173752792179585,0.03619679808616638,0.023034226149320602,0.1123696118593216,-0.08750273287296295,-0.02681959792971611,-0.034803107380867004,-0.05161067470908165,0.060865022242069244,-0.03815433382987976,0.054038770496845245,-0.007500857580453157,-0.007884719409048557,0.07756729423999786,-0.08777317404747009,-0.12807245552539825,0.04879533499479294,-0.0036363648250699043,-0.04549996554851532,0.04999379441142082,-0.058508746325969696,0.009034516289830208,0.10499152541160583,-0.027012363076210022,0.011888829991221428,-0.04753074795007706,0.05658700317144394,0.06214933097362518,-0.09525474905967712,0.0034067786764353514,-0.03297557681798935,0.09851574152708054,0.040947798639535904,0.030832640826702118,-0.07333648949861526,0.04011717811226845,-0.07969813048839569,0.01321982778608799,0.061058588325977325,-0.01713685505092144,0.060561876744031906,-0.04399939253926277,0.08470390737056732,0.08429038524627686,-0.09493189305067062,-0.05370466038584709,0.042635999619960785,-0.06833025813102722,-0.04486212879419327,0.004956403281539679,0.061608899384737015,0.0419311597943306,-0.02645336091518402,0.18145564198493958,-0.05263478308916092,0.034592922776937485,0.05262618139386177,0.03994825854897499,-0.036217380315065384,-0.07459177821874619,0.03370159491896629,-0.005707829724997282,-0.03183882683515549,-0.15243257582187653,0.14368189871311188,0.003737423103302717,-0.023878656327724457,0.024776503443717957,-0.0048669022507965565,-0.007353282533586025,0.11335789412260056,-0.003499452257528901
äthiopien,0.0014337560860440135,-0.03820021450519562,0.05241595208644867,-0.07980791479349136,0.06282836198806763,-0.051760073751211166,-0.0030922109726816416,0.027988005429506302,0.0061213355511426926,-0.0599101185798645,-0.03162826597690582,0.07554996013641357,-0.0006703052204102278,0.0388936921954155,-0.03144325315952301,-0.08543069660663605,0.03439197689294815,0.04490627348423004,0.01675735041499138,0.030469393357634544,-0.019894281402230263,0.02993910387158394,0.1080520749092102,-0.01676689088344574,-0.034690823405981064,0.15159498155117035,0.02876853011548519,0.01699751801788807,-0.02034713514149189,-0.03687886521220207,0.06330002844333649,-0.02468600869178772,0.07801935821771622,0.05777907371520996,0.04179495573043823,0.0529332235455513,0.05309059098362923,0.017686890438199043,0.027724409475922585,-0.04612718150019646,-0.014640172943472862,-0.044109974056482315,-0.08623451739549637,-0.06575039774179459,-0.014652143232524395,0.02709333971142769,0.01410345546901226,0.05949033796787262,0.02621174231171608,0.0029084286652505398,-0.13700416684150696,0.08312106132507324,-0.012886113487184048,0.022927457466721535,-0.0011239865561947227,-0.01055185403674841,-0.0264830831438303,0.1079227402806282,0.029795361682772636,-0.04643379524350166,-0.003589468542486429,-0.066475048661232,0.020490089431405067,0.0013083413941785693,0.059838805347681046,0.005337051581591368,0.04754769802093506,-0.05025726184248924,0.0700768381357193,0.0687694400548935,-0.04430240020155907,-0.015444709919393063,0.034527480602264404,0.031375233083963394,0.08044326305389404,0.05498218536376953,-0.05129829794168472,0.038892846554517746,0.017133338376879692,-0.005088835023343563,0.0006706420099362731,0.0374985970556736,-0.04487571492791176,-0.06809353083372116,-0.04432178661227226,0.12288213521242142,-0.022177014499902725,0.05306795984506607,0.020391661673784256,0.03878413513302803,-0.07853853702545166,0.05612843111157417,-0.026337362825870514,0.010523985140025616,0.008584166876971722,0.048386212438344955,-0.05218177288770676,-0.01536501757800579,0.03431939706206322,-0.12713885307312012,0.0035847886465489864,0.10871129482984543,0.09445853531360626,0.040109794586896896,-0.03727709874510765,0.024573830887675285,0.14579807221889496,0.09521476924419403,-0.07309258729219437,0.04472219571471214,0.10225839167833328,0.003551613073796034,0.0432080440223217,-0.009186488576233387,-0.0655268058180809,-0.013389413245022297,-0.042464569211006165,-0.13193443417549133,-0.12981794774532318,0.010201223194599152,-0.006647698115557432,-0.04529793560504913,0.0005428427830338478,-0.014546946622431278,0.11602949351072311,0.027411077171564102,-0.02674109674990177,-0.026449348777532578,0.03005637414753437,0.1334964483976364,0.06152207776904106,0.04281531646847725,-0.14114199578762054,-0.037365905940532684,-0.04653431475162506,0.03149034082889557,-0.04122639074921608,0.013385389931499958,0.08439815044403076,0.04494078829884529,-0.009734825231134892,-0.01595274545252323,0.05628523230552673,0.0486103855073452,0.03041081875562668,-0.020636603236198425,0.06188071891665459,0.004642702639102936,0.039262738078832626,-0.07574327290058136,-0.04411176219582558,0.04061591625213623,0.05392593517899513,-0.05553676187992096,-0.02704073116183281,-0.013723875395953655,0.09251514822244644,0.00557013601064682,0.1043972447514534,-0.07761083543300629,0.03292382135987282,-0.007632703520357609,-0.01810758374631405,0.02707374095916748,-0.10841791331768036,-0.04608915373682976,-0.09019972383975983,-0.009077931754291058,0.09931639581918716,0.020992428064346313,0.04137109965085983,-0.008995831944048405,0.00952283013612032,0.06119745597243309,-0.05357200652360916,0.025807132944464684,-0.031698424369096756,0.01168133970350027,0.0016118211206048727,0.02485709637403488,-0.021059736609458923,-0.05453752353787422,0.007523946929723024,0.05426878482103348,0.09785721451044083,-0.007585444487631321,0.0490032322704792,0.007707748096436262,-0.0078147416934371,0.01268761232495308,-0.05197407677769661,0.033626750111579895,-0.008614635095000267,0.005235876888036728,0.05063297972083092,-0.01068770419806242,0.06701468676328659,-0.024604154750704765,-0.06905996054410934,0.005589188542217016,-0.045317139476537704,0.0675574317574501,0.037720128893852234,0.04293542727828026,0.01592659391462803,-0.013667582534253597,0.039490956813097,-0.09422402083873749,-0.07279504090547562,-0.015871260315179825,0.008652561344206333,-0.0256936214864254,-0.026693660765886307,0.0346052385866642,-0.04391515627503395,0.10267873108386993,-0.08408427238464355,0.040513042360544205,0.02070455625653267,-0.07982290536165237,0.04178774729371071,-0.013785742223262787,-0.007778005208820105,-0.07949566096067429,0.0980759784579277,-0.09583241492509842,-0.016103705391287804,-0.12352757900953293,0.02162010967731476,0.08121814578771591,0.04321029782295227,0.009238332509994507,-0.14337018132209778,0.05898561701178551,0.04660279303789139,-0.03858449310064316,0.032486654818058014,0.11912346631288528,0.02106279879808426,-0.005948161706328392,-0.06554634124040604,0.08222279697656631,-0.04545338451862335,-0.17380695044994354,0.16608057916164398,-0.02457178197801113,-0.012540658004581928,0.047027211636304855,0.048612114042043686,0.06444752961397171,0.1258360594511032,-0.01783614419400692,-0.03531908988952637,-0.04892052337527275,0.04637715965509415,0.1470755785703659,-0.004746162798255682,-0.028742996975779533,-0.02312043122947216,-0.008408852852880955,-0.14997924864292145,0.02085684984922409,-0.01568819023668766,0.016175096854567528,0.0003155415179207921,-0.02423052303493023,0.13365010917186737,0.012322574853897095,0.025582456961274147,-0.05973466858267784,-0.0033967175986617804,-0.024900928139686584,0.02407659962773323,-0.03462589532136917,-0.05911065265536308,-0.02560625970363617,0.013701503165066242,0.018709765747189522,0.03826521709561348,0.039217568933963776,-0.0523255355656147,-0.04199479892849922,0.05629464611411095,0.02147243730723858,0.05751102790236473,0.0334676057100296,0.07301757484674454,-0.04771174117922783,0.024876434355974197,-0.09170373529195786,0.08938238769769669,-0.06867855042219162,0.031329941004514694,-0.062449850142002106,0.01169440895318985,0.1232626661658287,-0.030825650319457054,0.014578095637261868,-0.0157939363270998,0.03973391279578209
australien,0.048197776079177856,-0.02641286328434944,-0.029021840542554855,-0.057418301701545715,0.16441453993320465,-0.007781936787068844,0.041027482599020004,0.00944902841001749,0.15057212114334106,-0.027050806209445,-0.028673620894551277,-0.07880307734012604,-0.0019277140963822603,-0.06576618552207947,0.016761844977736473,0.03744836524128914,-0.12478987872600555,-0.08458183705806732,-0.07001595199108124,0.031012818217277527,-0.02416306547820568,0.018024494871497154,0.10664600133895874,-0.038493603467941284,-0.05368563160300255,-0.014334667474031448,-0.08928486704826355,0.02110995724797249,0.0075207543559372425,-0.06818756461143494,0.004846986848860979,0.04541277512907982,0.021303122863173485,0.0011350854765623808,0.026349620893597603,-0.05837837979197502,-0.07414789497852325,-0.012886280193924904,0.07099985331296921,0.008488540537655354,0.005090425256639719,-0.01664365455508232,-0.015118765644729137,0.07765564322471619,-0.04148569330573082,0.11024580895900726,-0.03863581269979477,0.04874773696064949,0.006773332599550486,-0.09623631089925766,0.0047423760406672955,0.020557768642902374,-0.04261372610926628,0.02552221529185772,0.020659014582633972,0.09174340218305588,-0.052211567759513855,-0.027776245027780533,-0.005116476211696863,-0.016740569844841957,0.04524451494216919,-0.032189663499593735,-0.03234688565135002,0.008475552313029766,0.020592443645000458,-0.03877786174416542,-0.03627926856279373,-0.03154977411031723,-0.05885371193289757,0.03780367597937584,0.041440486907958984,-0.08235982805490494,-0.01012003980576992,-0.008132622577250004,0.04835958406329155,-0.005620522424578667,0.024701274931430817,0.01185532659292221,-0.07474177330732346,-0.03492463380098343,0.061124544590711594,0.006282768677920103,0.042739640921354294,-0.0728558897972107,0.0024503024760633707,-0.014907355420291424,-0.15470531582832336,-0.03596967086195946,-0.020759467035531998,0.08097398281097412,0.07985701411962509,0.025729408487677574,0.007602460216730833,0.07619134336709976,-0.08212903141975403,-0.00958460196852684,0.04616890475153923,-0.05986602604389191,-0.005087380763143301,0.03090321645140648,0.13571253418922424,-0.03562197834253311,-0.13700182735919952,-0.0410955436527729,-0.056350164115428925,-0.00165383773855865,0.051334355026483536,-0.01560403686016798,-0.016991272568702698,0.03641170263290405,-0.04145030304789543,0.02452092431485653,0.014926748350262642,0.027146242558956146,-0.022407962009310722,0.07885263860225677,-0.04387504607439041,-0.04498651996254921,-0.0924999788403511,-0.007705105934292078,-0.05981982499361038,-0.052253901958465576,-0.020455654710531235,0.002114142756909132,0.06514967978000641,-0.0013616743963211775,0.013101003132760525,-0.0007811370305716991,0.09094264358282089,-0.00959637202322483,0.06321001052856445,-0.005631469190120697,0.03121381439268589,0.03748834505677223,-0.04991227015852928,-0.031345710158348083,-0.05222191661596298,0.022937443107366562,0.034062739461660385,0.07321248948574066,0.021962439641356468,-0.0553274005651474,0.019712984561920166,0.013074276968836784,0.11010356992483139,0.028162000700831413,0.05923885107040405,-0.025440329685807228,-0.001815656665712595,-0.08082108944654465,-0.022365253418684006,0.04542657360434532,0.08499278128147125,0.04669241979718208,-0.011769178323447704,0.04835497960448265,0.005549839697778225,0.023071164265275,0.004209050443023443,-0.011158238165080547,0.037401311099529266,-0.1379932314157486,-0.034709420055150986,0.03843871131539345,-0.0447845496237278,0.09890572726726532,-0.0020468307193368673,0.129859060049057,0.04046490415930748,0.09794872999191284,0.07137420028448105,-0.09746162593364716,-0.04453233629465103,0.05385610833764076,-0.00048240917385555804,-0.08272375911474228,-0.059013646095991135,-0.04546365886926651,0.0172676220536232,-0.02762187272310257,-0.014879755675792694,-0.0254471804946661,0.012343551963567734,0.034565605223178864,0.12346752732992172,0.019262468442320824,-0.06590505689382553,0.005742234643548727,-0.016718072816729546,-0.15919581055641174,0.023321954533457756,-0.05505133047699928,-0.06480482965707779,-0.07132789492607117,0.07603316009044647,0.06879173219203949,-0.024136902764439583,0.03759216144680977,-0.14216762781143188,-0.01779470033943653,-0.05294187366962433,-0.028794625774025917,-0.0216726865619421,0.02379777282476425,0.03219413757324219,0.0255134180188179,0.062111746519804,-0.08169185370206833,0.020873386412858963,-0.06666098535060883,0.0327533520758152,0.04046362265944481,0.07011367380619049,0.015138412825763226,0.02138657681643963,0.08848704397678375,-0.03749655932188034,-0.06039506942033768,-0.029313141480088234,0.04717685282230377,0.06365205347537994,0.049863554537296295,-0.09614608436822891,0.06095287576317787,0.016741489991545677,-0.11764951795339584,-0.06931611150503159,-0.05050008371472359,-0.03880162909626961,0.033838607370853424,0.12685024738311768,0.11521176248788834,-0.029594777151942253,-0.059514839202165604,0.008992000482976437,0.07091406732797623,-0.003143860725685954,0.04104096442461014,-0.05553213506937027,-0.12106847763061523,-0.07472852617502213,-0.013709859922528267,0.030555052682757378,0.029615938663482666,-0.011277008801698685,0.05184035003185272,0.07293915748596191,0.06417360156774521,0.08137737214565277,0.07238390296697617,-0.05471836403012276,-0.026379676535725594,0.09236549586057663,0.06269994378089905,0.05693599209189415,0.10305202752351761,-0.12121661752462387,0.062102314084768295,-0.008375017903745174,-0.08632848411798477,-0.07297813892364502,0.061067380011081696,-0.013980287127196789,0.05361612141132355,-0.025526156648993492,-0.01832909882068634,0.09562885761260986,0.03083113394677639,0.049856748431921005,-0.012129833921790123,0.04086526483297348,0.10007573664188385,-0.026198048144578934,-0.0822216048836708,0.08177079260349274,-0.07404989004135132,-0.008547559380531311,0.00553557276725769,-0.10455353558063507,-0.026560736820101738,-0.009319244883954525,-0.05340667814016342,0.0034843371249735355,-0.02257606014609337,-0.0024770009331405163,0.038341350853443146,0.08989295363426208,0.09840232133865356,0.09763260185718536,0.06190529465675354,-0.006033930461853743,-0.016051035374403,-0.012780353426933289,0.04589919000864029,-0.006894833408296108,-0.0026418648194521666,0.019646206870675087,0.03956949710845947,-0.1118435263633728,-0.02752397209405899
bangladesch,-0.027035214006900787,0.01882154308259487,0.0314544253051281,-0.03173170983791351,0.03267164155840874,0.005484194029122591,0.07749596983194351,0.01384005881845951,0.014366913586854935,-0.07113170623779297,0.02186703495681286,-0.032322484999895096,0.012531052343547344,-0.05633021891117096,-0.041387785226106644,-0.03377571702003479,-0.006840110290795565,0.02878711372613907,0.0518437884747982,-0.016955170780420303,0.03172697126865387,-0.02794518880546093,0.10517715662717819,-0.08119871467351913,0.026648009195923805,0.07575510442256927,-0.05923817679286003,-0.016846856102347374,-0.061946071684360504,0.009618379175662994,0.02726574055850506,0.04211718216538429,0.05564230680465698,-0.0475236214697361,0.041190434247255325,-0.03650470823049545,-0.09639819711446762,-0.05367593839764595,-0.03181928023695946,0.045173436403274536,-0.05231443792581558,0.08339254558086395,-0.04873022437095642,0.006028314586728811,0.04295414313673973,-0.03488912805914879,-0.12264606356620789,-0.009521900676190853,0.1142224445939064,-0.07985847443342209,-0.11022257059812546,0.09607468545436859,-0.01824086159467697,0.005153910722583532,0.049587324261665344,-0.04700259864330292,-0.03511893376708031,0.013226031325757504,0.06664177030324936,-7.822615771146957e-06,0.03262140229344368,-0.042551033198833466,0.034817758947610855,-0.014734449796378613,-0.014998374506831169,0.12035058438777924,0.044752106070518494,-0.04620320722460747,-0.04997098073363304,0.017145052552223206,-0.030210129916667938,-0.06050713732838631,0.14964917302131653,-0.10952924937009811,0.030669232830405235,0.05419190600514412,0.030301649123430252,0.05752590671181679,-0.018255921080708504,0.015706470236182213,-0.025097696110606194,0.08407583087682724,-0.08263718336820602,-0.08923077583312988,0.02863655798137188,0.004108676221221685,-0.026358438655734062,0.06738278269767761,0.007941624149680138,0.027762627229094505,-0.08445706218481064,0.006391833070665598,-0.04526616632938385,-0.03122570551931858,0.023756984621286392,0.016624322161078453,-0.02269946038722992,-0.0776853933930397,0.05958230048418045,0.0019168509170413017,0.0355977788567543,0.04781278967857361,0.06117788329720497,0.10860247910022736,-0.0065710595808923244,0.01271626353263855,0.2048909068107605,0.051209140568971634,-0.05083460360765457,0.026533478870987892,-0.059522803872823715,0.11739031970500946,-0.011045699939131737,0.03819570317864418,-0.12960009276866913,0.06808288395404816,0.00203047227114439,-0.10291355848312378,-0.10358379781246185,-0.042793989181518555,-0.017371846362948418,0.0027648326940834522,0.019799888134002686,-0.002779295900836587,0.05193347483873367,0.013873070478439331,0.0012935093836858869,0.022396236658096313,0.08981011807918549,0.11245540529489517,0.05119355767965317,0.007778603117913008,-0.033374395221471786,-0.07902558147907257,0.0005274896393530071,0.07077538967132568,0.041852980852127075,0.030640648677945137,0.10393460839986801,0.013006414286792278,0.018760817125439644,-0.06527060270309448,0.028776459395885468,0.04578019678592682,-0.049156926572322845,-0.11539992690086365,-0.01360960491001606,0.012496421113610268,-0.006753763649612665,-0.05109690874814987,0.03185107186436653,0.13075777888298035,0.04759924113750458,0.014461582526564598,0.0031658580992370844,-0.04390573874115944,0.07548355311155319,-0.023315422236919403,0.07940159738063812,-0.07815617322921753,-0.037152498960494995,-0.12605945765972137,-0.0591345839202404,-0.01605759561061859,-0.07020007073879242,0.028981471434235573,0.0462462417781353,0.0201373603194952,0.05606730654835701,-0.0031393400859087706,0.024680407717823982,0.058457810431718826,0.06419377028942108,0.04708874598145485,-0.0028735869564116,-0.09913865476846695,-0.047477837651968,-0.02229285053908825,0.20026537775993347,0.025517288595438004,-0.014202765189111233,-0.021463071927428246,-0.06369944661855698,0.016258321702480316,0.02169978991150856,0.008559775538742542,0.04502337425947189,0.018455808982253075,-0.02257680892944336,-0.11997251212596893,-0.0015784091083332896,0.02318810112774372,-0.032148327678442,-0.026841377839446068,-0.021307172253727913,-0.19086678326129913,-0.06476206332445145,-0.04838864505290985,-0.10242697596549988,-0.055018845945596695,-0.0029683110769838095,0.07131486386060715,0.02921658381819725,-0.01658003404736519,0.04105166718363762,-0.02267349511384964,0.007800702471286058,-0.09067807346582413,-0.03179877623915672,-0.02681267075240612,-0.05515075474977493,-0.025929775089025497,-0.020070403814315796,0.009849341586232185,0.010547964833676815,0.020759982988238335,0.04372257739305496,-0.07269231975078583,-0.03170715644955635,0.009507517330348492,-0.06817702949047089,-0.04040670767426491,-0.05897579714655876,-0.046666163951158524,0.0565531887114048,-0.10540872067213058,-0.05816209688782692,-0.057363539934158325,-0.014608741737902164,-0.02465124800801277,0.07803304493427277,0.045338671654462814,0.027360279113054276,-0.014079157263040543,-0.019695783033967018,0.02494104765355587,-0.0678882971405983,0.0711718201637268,0.023433135822415352,0.0012573373969644308,-0.13048526644706726,-0.009839995764195919,-0.09537559747695923,-0.028382370248436928,-0.008472942747175694,0.050853222608566284,0.02731430158019066,-0.001987529220059514,0.0768800750374794,0.023634938523173332,0.042788852006196976,-0.0281501617282629,0.04704704135656357,0.0001303437165915966,-0.02893098071217537,0.08936081826686859,0.04913439601659775,-0.008106041699647903,-0.07462826371192932,-0.029623638838529587,-0.015527397394180298,0.10920270532369614,0.04984473064541817,-0.038566600531339645,-0.10399577766656876,-0.12462613731622696,0.04907584190368652,0.06009606644511223,0.01595989614725113,0.07199880480766296,0.04231070727109909,0.02871100977063179,-0.028583403676748276,-0.027777856215834618,-0.009459994733333588,-0.031770963221788406,-0.0922623798251152,0.03586139157414436,0.05791928246617317,0.009843175299465656,0.011371481232345104,0.007405194919556379,0.1001926138997078,0.16184282302856445,0.006035080179572105,-0.0487838089466095,0.017599856480956078,0.05808693543076515,-0.015174397267401218,0.01682158000767231,0.006325316149741411,0.010586091317236423,-0.06717156618833542,-0.04924868792295456,0.027593344449996948,0.04941708967089653,0.05019187182188034,-0.019604187458753586,-0.050382550805807114,0.02771078795194626
belarus,-0.0003435306716710329,0.016726383939385414,0.06439384818077087,0.04904904216527939,0.14554762840270996,-0.05203323811292648,0.03171277791261673,0.008049603551626205,0.0758415088057518,-0.019010907039046288,-0.042452629655599594,-0.09288390725851059,0.032525040209293365,-0.022032644599676132,0.038312554359436035,0.03594597056508064,-0.03758380934596062,-0.005169749725610018,-0.029428772628307343,-0.09970689564943314,0.03972075134515762,0.04285995662212372,-0.004876892082393169,0.033534277230501175,0.06551607698202133,0.027958493679761887,-0.06242707371711731,0.028964022174477577,-0.029292505234479904,-0.024075482040643692,-0.011287684552371502,0.011732884682714939,-0.015207303687930107,-0.07938876003026962,-0.020996343344449997,0.09709346294403076,-0.07772724330425262,0.0029518655501306057,-0.036028485745191574,0.03784962743520737,0.03838296979665756,-0.0024564058985561132,-0.026509594172239304,0.021662607789039612,-0.0542796291410923,0.061992526054382324,0.015739157795906067,0.018846767023205757,0.013876773416996002,0.08367833495140076,0.024078093469142914,0.04872549697756767,-0.04062739759683609,-0.007170385681092739,0.04046415910124779,0.12368553131818771,0.023999016731977463,-0.03353201225399971,0.04463629424571991,-0.01720934547483921,-0.0324501171708107,-0.11577612906694412,-0.04732276499271393,-0.04421155899763107,-0.009989595040678978,-0.03351525217294693,-0.11922921240329742,-0.07680776715278625,-0.029825327917933464,-0.018695926293730736,0.054724790155887604,-0.0651736855506897,-0.012738846242427826,0.05142863839864731,-0.03817703202366829,-0.010612484999001026,-0.004893246106803417,-0.015899568796157837,0.052674196660518646,-0.009806191548705101,0.031107421964406967,-0.0038227741606533527,0.030981842428445816,-0.02107786200940609,0.029230352491140366,0.009941612370312214,0.060777705162763596,-0.0027899069245904684,0.02388930693268776,0.02594165876507759,-0.08054818958044052,-0.07245022058486938,-0.02342130057513714,0.006297241430729628,-0.12052278220653534,-0.02464871294796467,0.027354605495929718,-0.03730737417936325,0.030815288424491882,-0.04519139230251312,0.02920076996088028,0.06476648151874542,-0.04101567342877388,-0.038415346294641495,-0.0642511174082756,-0.03849874064326286,-0.07741499692201614,0.054296430200338364,-0.059809837490320206,-0.02688715234398842,-0.0013248359318822622,0.08743734657764435,-0.021813997998833656,0.04011092334985733,0.004207948688417673,-0.08222129940986633,0.024158453568816185,0.03473169729113579,-0.054469794034957886,0.06257416307926178,-0.054393645375967026,0.07421396672725677,0.01873798668384552,0.045815661549568176,0.062055956572294235,-0.01760169304907322,0.048997148871421814,0.061729613691568375,0.04357995465397835,0.10596394538879395,0.10185422748327255,0.061650119721889496,-0.044817402958869934,-0.004393408074975014,-0.11724250763654709,-0.029095206409692764,-0.10541681945323944,0.1389331817626953,-0.013100712560117245,0.1162768304347992,-0.010115968063473701,0.02439787983894348,0.013751818798482418,0.07880084216594696,0.011395313777029514,0.004279864486306906,-0.02137076109647751,-0.028617894276976585,0.03148961067199707,-0.0813823789358139,-0.022949974983930588,0.06688676029443741,0.12111537158489227,-0.04824346303939819,-0.00911241676658392,-0.03307134285569191,0.02680552937090397,-0.045691557228565216,-0.02396879903972149,-0.03400320187211037,-0.08179960399866104,0.016856027767062187,0.12695372104644775,-0.05793486908078194,-0.02772044762969017,0.047135334461927414,-0.03335517272353172,-0.00047119808732531965,0.1189906895160675,-0.03083849512040615,0.11480531841516495,0.13724170625209808,-0.09846451878547668,-0.02957669459283352,-0.040220990777015686,-0.025433721020817757,-0.04398275539278984,-0.0916871577501297,-0.01967833749949932,-0.139383003115654,-0.009823907166719437,0.013997407630085945,-0.06778091192245483,0.020181212574243546,0.023929843679070473,-0.08379299193620682,0.0042769815772771835,-0.11959782987833023,-0.028061775490641594,0.012289609760046005,-0.11025968194007874,0.012597638182342052,-0.04122374951839447,0.10803031921386719,-0.08781321346759796,-0.01391333807259798,-0.04987229034304619,-0.0017397530609741807,-0.08190137892961502,0.00570554519072175,-0.10561733692884445,0.07090608030557632,0.024751150980591774,0.06224947050213814,0.014719102531671524,-0.021884409710764885,-0.08492140471935272,0.026756446808576584,-0.09286709129810333,-0.0578254871070385,0.027844026684761047,-0.037299059331417084,0.13630473613739014,0.14859209954738617,-0.02415904961526394,0.12003666907548904,0.023492122069001198,0.06515298038721085,0.02659672684967518,-0.03345900774002075,0.018559705466032028,0.010862704366445541,0.05269675701856613,-0.029329633340239525,0.05003301426768303,-0.004142782650887966,0.022705599665641785,-0.004092564340680838,0.029655883088707924,-0.03563545644283295,0.011757460422813892,0.08970978856086731,0.010297403670847416,-0.02117409184575081,0.026747101917862892,-0.05368269234895706,0.019652189686894417,-0.07556130737066269,0.007775000762194395,-0.01871092990040779,-0.0003741301770787686,-0.060449663549661636,-0.0016619883244857192,-0.04551418870687485,-0.004848482087254524,0.024597691372036934,-0.046904489398002625,-0.0011273237178102136,-0.026254650205373764,-0.036757249385118484,0.0806206613779068,-0.05226769298315048,0.12418842315673828,0.010135707445442677,0.09555677324533463,0.04648272320628166,-0.08332079648971558,0.13543547689914703,0.011593170464038849,0.050040729343891144,-0.12996156513690948,0.03851934149861336,-0.030292948707938194,0.03799009323120117,0.021576451137661934,0.08480218052864075,0.1534130722284317,0.0030365490820258856,-0.06807798147201538,-0.06629645824432373,-0.006573543418198824,-0.0587383471429348,0.06935525685548782,0.0015003300504758954,0.0318119116127491,-0.12593884766101837,-0.06296011060476303,-0.01744062267243862,0.05606215447187424,0.038355015218257904,0.017031295225024223,-0.021759729832410812,-0.06348532438278198,-0.05526066944003105,0.06868010014295578,0.07493048906326294,0.004135725554078817,-0.03060002438724041,-0.08585181832313538,-0.007769424002617598,-0.06010590121150017,0.051088087260723114,0.016020646318793297,-0.05538835749030113,0.07260429114103317,0.039254430681467056,-0.09271056205034256,0.02727697417140007,0.027582546696066856,-0.025566909462213516
belgien,0.006401971448212862,-0.043715402483940125,0.03151524439454079,-0.057258736342191696,0.13592460751533508,-0.043151602149009705,0.04268291965126991,0.0701335072517395,0.0012707005953416228,-0.0647994726896286,-0.04662317782640457,-0.061091240495443344,-0.05880437791347504,0.024645641446113586,-0.08329279720783234,0.05207454040646553,-0.007202824577689171,-0.04083826392889023,-0.0389106310904026,0.04793649911880493,0.0687706395983696,0.04137999564409256,0.0033470799680799246,0.03615790978074074,-0.04063497111201286,-0.0010519211646169424,-0.03291519358754158,0.020799661055207253,0.031208228319883347,0.036287952214479446,-0.02994617447257042,-0.012429517693817616,-0.03394223377108574,-0.08392713963985443,-0.017870940268039703,-0.1098523736000061,0.06313538551330566,-0.01682811975479126,0.08956954628229141,-0.0344715490937233,-0.03492322936654091,-0.11934859305620193,0.01800837554037571,0.08138785511255264,0.016414379701018333,0.002368624322116375,-0.12520354986190796,0.02688523195683956,0.07905946671962738,-0.019272517412900925,-0.0012913962127640843,-0.11755011975765228,0.04301585629582405,0.10868189483880997,0.09920839220285416,0.0675872266292572,-0.19167782366275787,-0.01897411420941353,0.015062373131513596,0.1122007742524147,-0.006287022028118372,-0.10585097223520279,0.059751566499471664,-0.027866743505001068,0.01929721049964428,0.017062168568372726,-0.12138311564922333,-0.07390724122524261,-0.05497794970870018,0.05248699337244034,0.006684568710625172,-0.040541719645261765,-0.07208304107189178,-0.0398920476436615,0.05017460510134697,0.03502271696925163,0.03865719959139824,0.044409580528736115,0.03185514360666275,-0.0966818630695343,0.07228276133537292,0.025902552530169487,0.004079803824424744,0.01612059958279133,-0.0358896367251873,0.06349103897809982,-0.01670036092400551,0.060063548386096954,0.020460274070501328,-0.005983239505439997,-0.0530041866004467,-0.024027936160564423,-0.005935982335358858,0.07440686970949173,-0.0028959279879927635,-0.004379552323371172,0.03098328411579132,-0.023617839440703392,-0.0009833466028794646,-0.08512508869171143,-0.05022429674863815,0.07967943698167801,-0.10193740576505661,-0.08274659514427185,0.017621099948883057,-0.021961849182844162,0.14104050397872925,0.1082913726568222,0.0420682355761528,-0.021774956956505775,0.026003895327448845,0.043614793568849564,0.10394038259983063,0.022210998460650444,-0.056815363466739655,-0.01537826657295227,0.09395528584718704,-0.07082776725292206,-0.07854706048965454,-0.03355644643306732,0.021361494436860085,-0.02581515908241272,0.0022326663602143526,0.003766151610761881,-0.037331193685531616,0.032327789813280106,0.043338362127542496,3.2698018912924454e-05,-0.031124742701649666,0.038626283407211304,0.035282235592603683,0.08822419494390488,0.034146748483181,-0.09999288618564606,-0.0071269250474870205,0.00267698778770864,-0.04164792597293854,0.002619022037833929,0.001480783219449222,0.0723169818520546,-0.013643899001181126,-0.021378738805651665,-0.07173982262611389,0.045750558376312256,0.06404238939285278,0.04570996016263962,-0.041134923696517944,-0.021892832592129707,-0.00896771252155304,-0.0030162432231009007,-0.09037602692842484,0.004532904364168644,0.04771845415234566,0.07407348603010178,-0.0264181699603796,0.03440818190574646,-0.0504169724881649,0.0864204689860344,0.018864506855607033,-0.043014898896217346,0.0006052187527529895,-0.06620371341705322,-0.0011033398332074285,-0.02677799016237259,-0.09714954346418381,0.07815307378768921,-0.015391753986477852,0.07917966693639755,0.0896744653582573,-0.016276128590106964,0.07149328291416168,-0.02381519228219986,0.04737889766693115,0.06413362175226212,0.031033877283334732,-0.12280242145061493,-0.03823002055287361,-0.08296656608581543,0.02015317790210247,-0.006327470298856497,-0.028113573789596558,0.07330770790576935,0.034319713711738586,0.03490671515464783,-0.06803395599126816,-0.05367698892951012,-0.028609102591872215,-0.028908737003803253,-0.04658781737089157,-0.03714382275938988,0.042462680488824844,-0.02427537366747856,-0.09702010452747345,0.014801048673689365,0.01203168649226427,-0.018929582089185715,0.05619588866829872,0.02932063490152359,-0.07221584022045135,-0.0785476416349411,-0.10240967571735382,0.08108803629875183,-0.03547266870737076,0.09461470693349838,-0.08211967349052429,-0.03418624773621559,-0.1218995526432991,-0.10107746720314026,0.001145066344179213,-0.043876323848962784,0.04350053891539574,-0.03565746173262596,-0.07057882100343704,0.04768211767077446,0.0007794364355504513,0.04627888277173042,-0.004647783935070038,-0.0040111662819981575,-0.04581184685230255,-0.074626624584198,0.04014584794640541,-0.01708754524588585,-0.047263260930776596,0.06753776967525482,0.027353230863809586,0.0041596414521336555,-0.04705742374062538,-0.04620976001024246,-0.09678097814321518,0.027105700224637985,0.03318024426698685,-0.0016744941240176558,0.025640858337283134,0.009761040098965168,0.08897148072719574,0.025456253439188004,-0.004582111723721027,-0.026086360216140747,0.0030044163577258587,0.022749582305550575,0.015336577780544758,0.027338016778230667,-0.024624858051538467,-0.0009227420086972415,-0.017633000388741493,0.06211733818054199,-0.02870754338800907,0.01716551184654236,-0.01956222765147686,0.08501813560724258,-0.002458354691043496,0.049143534153699875,0.013923294842243195,0.05460871756076813,0.013274034485220909,0.029140155762434006,-0.035145822912454605,0.0747595801949501,0.05535155162215233,-0.08582127839326859,-0.026201240718364716,-0.04810156673192978,-0.03278086706995964,0.04850820451974869,-0.10202636569738388,-0.04343677684664726,0.14730709791183472,0.006974491290748119,0.03988578915596008,-0.050836384296417236,-0.1418127864599228,0.031853288412094116,-0.03811568394303322,-0.08088799566030502,0.08514730632305145,-0.046152208000421524,-0.05931917577981949,0.07002574950456619,0.08309683203697205,-0.003294165711849928,0.052746210247278214,-0.049504462629556656,-0.041516054421663284,0.09688638150691986,-0.06735268980264664,0.06922012567520142,-0.08447039872407913,0.010509415529668331,0.08354352414608002,-0.02014603093266487,0.05834190547466278,-0.0911090299487114,-0.054268963634967804,0.07704153656959534,-0.04811766743659973,-0.04546952620148659,0.021473554894328117,-0.02860293723642826,0.1482350379228592,-0.062704898416996
bosnien_und_herzegowina,0.08429796993732452,-0.0007718242704868317,0.04688685014843941,-0.003758348524570465,0.13389918208122253,0.030753396451473236,0.07970882952213287,0.06549389660358429,-0.07805448025465012,0.013666296377778053,-0.02580282650887966,0.03860456123948097,-0.08461061120033264,-0.005459120497107506,-0.043916936963796616,-0.04086608812212944,-0.02494027651846409,-0.042205750942230225,-0.007209705654531717,-0.056349802762269974,0.05510498210787773,-0.04315739497542381,-0.0012851569335907698,0.009122026152908802,0.03747664391994476,0.006792031694203615,-0.05561353638768196,-0.03275655210018158,-0.028231116011738777,-0.0706937164068222,0.007147360127419233,0.01798148825764656,-0.021429957821965218,-0.004866747185587883,0.015365258790552616,0.007068292237818241,0.01095283217728138,-0.1177225112915039,-0.03002004139125347,-0.021029992029070854,0.023463651537895203,0.002738106530159712,-0.050055306404829025,0.024242721498012543,-0.06926268339157104,0.1351504921913147,-0.013677351176738739,0.06963614374399185,-0.0597735233604908,0.04790204018354416,-0.05318933352828026,0.04998423159122467,0.04549747332930565,0.035360921174287796,-0.011555569246411324,-0.020480982959270477,-0.07009661942720413,-0.010980160906910896,0.0258313100785017,0.06803030520677567,0.037121038883924484,-0.05758350342512131,-0.09118426591157913,-0.013027377426624298,0.0791621282696724,0.007690942846238613,-0.112281933426857,-0.05651262402534485,-0.0033898635301738977,-0.016087820753455162,0.00678661372512579,-0.03449051454663277,0.04408922791481018,-0.08144956082105637,0.1317226141691208,0.036490559577941895,-0.06450439244508743,-0.036703743040561676,-0.05628766492009163,-0.015198124572634697,-0.0379938930273056,0.03984220698475838,0.066525399684906,-0.0495448000729084,-0.04567065089941025,0.001317028421908617,-0.02755364030599594,-0.056671351194381714,-0.03988019376993179,0.03441081941127777,-0.009503534995019436,-0.02012193761765957,0.038077037781476974,-0.016025908291339874,0.02535213902592659,0.10741190612316132,-0.028756923973560333,-0.02679533138871193,-0.07484161853790283,-0.07971550524234772,-0.11609124392271042,0.004659903235733509,0.02786971628665924,0.05069361999630928,-0.047815460711717606,0.09568115323781967,0.07660404592752457,0.050168395042419434,-0.12047833204269409,0.11401556432247162,-0.019650040194392204,-0.032065846025943756,-0.012803817167878151,0.06647870689630508,0.005359784699976444,-0.015483208000659943,0.084504634141922,-0.03813764452934265,-0.05427064746618271,-0.017525924369692802,-0.007394316140562296,0.06259817630052567,-0.023457249626517296,0.09836000949144363,0.04592674970626831,-0.03404495120048523,0.008747633546590805,-0.025530120357871056,0.021573366597294807,0.048768047243356705,0.08381417393684387,-0.013213127851486206,-0.019852090626955032,-0.13820494711399078,-0.021053578704595566,0.012958461418747902,-0.07781677693128586,0.056409742683172226,0.11428386718034744,0.03817466273903847,0.01757504604756832,-0.016214631497859955,-0.03247956559062004,-0.011706660501658916,0.035936590284109116,0.04580637067556381,0.03873724117875099,-0.0960870236158371,0.019535541534423828,0.02986396849155426,-0.11959534138441086,0.026443054899573326,0.07888418436050415,-0.023207053542137146,0.009319793432950974,0.02127547562122345,-0.014111168682575226,-0.023812951520085335,0.0828634724020958,-0.006828500889241695,0.056804753839969635,0.032691590487957,0.08691854029893875,-0.03722817450761795,0.004705140832811594,-0.0034091616980731487,-0.04879186674952507,-0.00985595304518938,0.043429967015981674,0.029413292184472084,-0.0027565290220081806,0.1325998455286026,-0.03525436669588089,0.05746337026357651,-0.003668996738269925,-0.04861712455749512,0.015694214031100273,-0.16252104938030243,-0.08952559530735016,-0.006453700363636017,-0.015710745006799698,0.03288629651069641,0.08028092235326767,0.12093161791563034,-0.018913092091679573,-0.13979391753673553,0.07063355296850204,-0.11321870237588882,-0.027966687455773354,-0.02955109067261219,-0.07617704570293427,-0.09276466816663742,0.011128398589789867,-0.031904514878988266,0.04454001411795616,-0.02358030341565609,-0.010402661748230457,-0.062038928270339966,-0.07747845351696014,-0.026342717930674553,-0.06477291136980057,-0.0355636328458786,-0.044575490057468414,-0.04801037162542343,0.05102933943271637,-0.1299358755350113,0.040461182594299316,0.007551014889031649,-0.05695030838251114,-0.10604098439216614,-0.025042034685611725,-0.0012432796647772193,-0.03952336683869362,0.036755647510290146,0.038391079753637314,0.04923088476061821,0.04135353863239288,0.07469455152750015,-0.02424567937850952,-0.026893997564911842,0.042831435799598694,0.003076476277783513,-0.028464827686548233,-0.013767239637672901,0.13608552515506744,-0.017755530774593353,0.08477416634559631,0.062322020530700684,0.06141465902328491,-0.00848106574267149,0.008083552122116089,-0.017026809975504875,-0.07678179442882538,0.008319186978042126,0.03069201111793518,-0.04991228133440018,-0.020914273336529732,0.04515457898378372,0.019484495744109154,-0.06635206192731857,-0.03965286910533905,0.03722564876079559,-0.011265449225902557,-0.0538330152630806,-0.019483622163534164,0.03434162959456444,0.050710517913103104,0.04992907866835594,-0.06085185706615448,-0.019779888913035393,0.07491549104452133,-0.027840320020914078,0.06599172204732895,0.015191197395324707,-0.0011515187798067927,0.06267457455396652,-0.00598230492323637,0.007982458919286728,-0.12605419754981995,-0.06437219679355621,-0.07937511801719666,0.06318177282810211,0.022944429889321327,0.003314852248877287,-0.012362592853605747,0.05637267976999283,-0.02853330597281456,0.09329810738563538,0.02364962361752987,-0.0178151186555624,0.18854981660842896,0.04160218685865402,-0.18044166266918182,-0.07442253828048706,-0.009285622276365757,0.03269154205918312,-0.03227831423282623,0.03617412969470024,-0.008712275885045528,0.014420468360185623,0.009156348183751106,-0.04034523293375969,-0.08845758438110352,-0.05289025232195854,-0.04535714164376259,0.03148601949214935,0.03071264736354351,-0.07074406743049622,-0.0061948481015861034,-0.05778208747506142,0.16834187507629395,-0.06275836378335953,0.02258019708096981,-0.044869907200336456,-0.10956647992134094,-0.057671207934617996,0.03849523514509201,0.08111144602298737,0.05615352466702461,-0.0184694342315197
brasilien,0.02406897023320198,0.02511688508093357,0.0014308897079899907,-0.04392339289188385,0.11557258665561676,-0.08398675918579102,0.09304492920637131,0.048595547676086426,0.10060770809650421,-0.09282185137271881,0.04265952110290527,-0.055050887167453766,-0.005197203252464533,-0.01937408186495304,-0.0968242734670639,0.0018082965398207307,0.04581203684210777,0.014013570733368397,-0.0007658714312128723,0.051754180341959,-0.07811719179153442,0.08516204357147217,0.027221987023949623,-0.13664889335632324,0.06151852011680603,0.012032738886773586,0.03519584611058235,0.02526724711060524,0.06666299700737,0.017136400565505028,0.018576394766569138,0.011917215771973133,0.05499283969402313,-0.027781454846262932,0.024026336148381233,0.04230378195643425,-0.012405513785779476,-0.03386463597416878,0.08851803094148636,0.07634680718183517,-0.02373000606894493,0.004648046102374792,0.0897931456565857,0.04295650124549866,0.052714161574840546,0.02769036777317524,-0.07890942692756653,-0.04250149428844452,0.07550229132175446,-0.00514497235417366,-0.05602533742785454,0.0025958791375160217,0.05071026086807251,0.043923743069171906,0.053246092051267624,0.02872524783015251,-0.07509638369083405,0.0031118409242480993,0.022787421941757202,0.008235632441937923,-0.07279364764690399,-0.06435175985097885,-0.08811573684215546,0.08561431616544724,0.018948983401060104,0.007569615263491869,-0.012088455259799957,0.025226199999451637,0.011868216097354889,0.04099138453602791,-0.03213882073760033,-0.019202422350645065,0.06836937367916107,0.04720405116677284,0.028800439089536667,0.023048030212521553,-0.012864400632679462,0.02542329765856266,-0.03445485606789589,-0.11358588933944702,0.06019603833556175,-0.06645816564559937,0.003938133828341961,-0.07093710452318192,0.05170469358563423,0.004243668634444475,-0.08905621618032455,-0.022396638989448547,0.038738593459129333,0.051447607576847076,-0.01169784925878048,0.04392024129629135,-0.019694508984684944,0.02646186389029026,-0.032415758818387985,-0.029383163899183273,-0.05159730464220047,-0.11163254827260971,0.033669374883174896,-0.015550537966191769,0.13585937023162842,0.0016485977685078979,-0.042131803929805756,0.09066510945558548,-0.033566705882549286,-0.0031486968509852886,0.0902017131447792,-0.06807319819927216,-0.011983895674347878,-0.010030630975961685,-0.03225783258676529,0.022008514031767845,0.12941884994506836,-0.10477225482463837,-0.009066157042980194,-0.013570839539170265,-0.058695435523986816,0.02740943245589733,-0.05233391374349594,-0.060241978615522385,-0.07203992456197739,0.027911033481359482,-0.00955970212817192,-0.02257401868700981,0.04983766749501228,-0.029201090335845947,0.10587688535451889,0.07874065637588501,0.05811994522809982,0.09189318120479584,0.03840652108192444,0.03008139319717884,-0.03002007305622101,-0.09525152295827866,0.0035627922043204308,-0.021481484174728394,-0.03993406146764755,0.08758468180894852,0.03844301775097847,0.056720733642578125,0.06651780009269714,0.01657738722860813,0.004481717478483915,-0.006463302299380302,0.12289265543222427,-0.12397832423448563,-0.020090634003281593,-0.0030573010444641113,-0.10999420285224915,-0.0641258955001831,0.03751278668642044,0.06434618681669235,0.04389922693371773,0.03185966610908508,-0.13807256519794464,-0.009994336403906345,0.020743558183312416,0.09099806100130081,-0.057339612394571304,-0.053132232278585434,0.1014062762260437,-0.054718974977731705,0.02919287607073784,-0.038194067776203156,-0.04459968954324722,0.1552620679140091,-0.009802090004086494,-0.0217468049377203,0.1108216717839241,0.10235986858606339,0.017854657024145126,0.028641697019338608,-0.04093635454773903,-0.05278383567929268,-0.07484909892082214,-0.06561320275068283,-0.0328858382999897,0.020047608762979507,-0.0661567747592926,-0.0743594691157341,0.041550107300281525,-0.019974784925580025,-0.020631948485970497,0.04614840820431709,0.004167669918388128,0.03867529332637787,-0.0032412579748779535,-0.01254742406308651,0.003398554166778922,0.024092718958854675,0.007679319474846125,-0.012570187449455261,-0.04042791947722435,0.05265525355935097,-0.04752681776881218,-0.06083308160305023,-0.013437189161777496,0.061196908354759216,-0.01727449521422386,-0.09240136295557022,0.04475867748260498,-0.08032401651144028,0.030830498784780502,-0.00739440368488431,-0.05822119489312172,0.11481752246618271,0.008984760381281376,0.023555422201752663,0.080951027572155,0.05789482966065407,-0.006550970021635294,-0.09434618800878525,0.0382818728685379,0.07466058433055878,-0.037116970866918564,0.1349181979894638,-0.03359154984354973,-0.057315386831760406,-0.07410948723554611,-0.062157128006219864,0.044529613107442856,0.024886811152100563,0.023076163604855537,0.036777742207050323,0.1065320074558258,-0.11351881921291351,-0.002942529274150729,-0.03967680409550667,-0.0696227103471756,0.029211200773715973,-0.052240826189517975,0.07643395662307739,0.008735598996281624,0.03743266686797142,0.013689364306628704,-0.004798824433237314,-0.04607326164841652,0.06799452751874924,0.06533577293157578,-0.08480849862098694,-0.07815559953451157,-0.010540185496211052,-0.019837429746985435,-0.09373196214437485,0.09200944751501083,0.00972643494606018,0.03642867133021355,-0.02692018635571003,-0.03253287822008133,-0.03178020566701889,-0.019060349091887474,-0.01190219260752201,0.03118673525750637,0.041995905339717865,0.06369930505752563,0.12965333461761475,-0.07332643121480942,0.001041861018165946,0.04196831211447716,-0.11410028487443924,0.036955345422029495,0.028398150578141212,0.03706781193614006,0.029691848903894424,-0.002262855414301157,0.003109835321083665,0.029525572434067726,0.06516969949007034,-0.011081899516284466,0.07862284034490585,0.06272906064987183,-0.01445911917835474,0.052827831357717514,-0.015249021351337433,0.032834697514772415,-0.14194105565547943,-0.11888789385557175,-0.02580547146499157,-0.028973305597901344,0.013394292443990707,0.04123466834425926,-0.027385730296373367,0.03577973693609238,-0.047918446362018585,-0.034496646374464035,0.0674269050359726,0.043629925698041916,0.026042139157652855,0.019031262025237083,-0.02527914196252823,0.07257991284132004,0.03262624144554138,0.04930873215198517,0.05205028876662254,-0.015129166655242443,0.01589326746761799,0.15593484044075012,0.03031613864004612,0.027171624824404716,-0.11633040010929108
