Country,Vectordimension_0,Vectordimension_1,Vectordimension_2,Vectordimension_3,Vectordimension_4,Vectordimension_5,Vectordimension_6,Vectordimension_7,Vectordimension_8,Vectordimension_9,Vectordimension_10,Vectordimension_11,Vectordimension_12,Vectordimension_13,Vectordimension_14,Vectordimension_15,Vectordimension_16,Vectordimension_17,Vectordimension_18,Vectordimension_19,Vectordimension_20,Vectordimension_21,Vectordimension_22,Vectordimension_23,Vectordimension_24,Vectordimension_25,Vectordimension_26,Vectordimension_27,Vectordimension_28,Vectordimension_29,Vectordimension_30,Vectordimension_31,Vectordimension_32,Vectordimension_33,Vectordimension_34,Vectordimension_35,Vectordimension_36,Vectordimension_37,Vectordimension_38,Vectordimension_39,Vectordimension_40,Vectordimension_41,Vectordimension_42,Vectordimension_43,Vectordimension_44,Vectordimension_45,Vectordimension_46,Vectordimension_47,Vectordimension_48,Vectordimension_49,Vectordimension_50,Vectordimension_51,Vectordimension_52,Vectordimension_53,Vectordimension_54,Vectordimension_55,Vectordimension_56,Vectordimension_57,Vectordimension_58,Vectordimension_59,Vectordimension_60,Vectordimension_61,Vectordimension_62,Vectordimension_63,Vectordimension_64,Vectordimension_65,Vectordimension_66,Vectordimension_67,Vectordimension_68,Vectordimension_69,Vectordimension_70,Vectordimension_71,Vectordimension_72,Vectordimension_73,Vectordimension_74,Vectordimension_75,Vectordimension_76,Vectordimension_77,Vectordimension_78,Vectordimension_79,Vectordimension_80,Vectordimension_81,Vectordimension_82,Vectordimension_83,Vectordimension_84,Vectordimension_85,Vectordimension_86,Vectordimension_87,Vectordimension_88,Vectordimension_89,Vectordimension_90,Vectordimension_91,Vectordimension_92,Vectordimension_93,Vectordimension_94,Vectordimension_95,Vectordimension_96,Vectordimension_97,Vectordimension_98,Vectordimension_99,Vectordimension_100,Vectordimension_101,Vectordimension_102,Vectordimension_103,Vectordimension_104,Vectordimension_105,Vectordimension_106,Vectordimension_107,Vectordimension_108,Vectordimension_109,Vectordimension_110,Vectordimension_111,Vectordimension_112,Vectordimension_113,Vectordimension_114,Vectordimension_115,Vectordimension_116,Vectordimension_117,Vectordimension_118,Vectordimension_119,Vectordimension_120,Vectordimension_121,Vectordimension_122,Vectordimension_123,Vectordimension_124,Vectordimension_125,Vectordimension_126,Vectordimension_127,Vectordimension_128,Vectordimension_129,Vectordimension_130,Vectordimension_131,Vectordimension_132,Vectordimension_133,Vectordimension_134,Vectordimension_135,Vectordimension_136,Vectordimension_137,Vectordimension_138,Vectordimension_139,Vectordimension_140,Vectordimension_141,Vectordimension_142,Vectordimension_143,Vectordimension_144,Vectordimension_145,Vectordimension_146,Vectordimension_147,Vectordimension_148,Vectordimension_149,Vectordimension_150,Vectordimension_151,Vectordimension_152,Vectordimension_153,Vectordimension_154,Vectordimension_155,Vectordimension_156,Vectordimension_157,Vectordimension_158,Vectordimension_159,Vectordimension_160,Vectordimension_161,Vectordimension_162,Vectordimension_163,Vectordimension_164,Vectordimension_165,Vectordimension_166,Vectordimension_167,Vectordimension_168,Vectordimension_169,Vectordimension_170,Vectordimension_171,Vectordimension_172,Vectordimension_173,Vectordimension_174,Vectordimension_175,Vectordimension_176,Vectordimension_177,Vectordimension_178,Vectordimension_179,Vectordimension_180,Vectordimension_181,Vectordimension_182,Vectordimension_183,Vectordimension_184,Vectordimension_185,Vectordimension_186,Vectordimension_187,Vectordimension_188,Vectordimension_189,Vectordimension_190,Vectordimension_191,Vectordimension_192,Vectordimension_193,Vectordimension_194,Vectordimension_195,Vectordimension_196,Vectordimension_197,Vectordimension_198,Vectordimension_199,Vectordimension_200,Vectordimension_201,Vectordimension_202,Vectordimension_203,Vectordimension_204,Vectordimension_205,Vectordimension_206,Vectordimension_207,Vectordimension_208,Vectordimension_209,Vectordimension_210,Vectordimension_211,Vectordimension_212,Vectordimension_213,Vectordimension_214,Vectordimension_215,Vectordimension_216,Vectordimension_217,Vectordimension_218,Vectordimension_219,Vectordimension_220,Vectordimension_221,Vectordimension_222,Vectordimension_223,Vectordimension_224,Vectordimension_225,Vectordimension_226,Vectordimension_227,Vectordimension_228,Vectordimension_229,Vectordimension_230,Vectordimension_231,Vectordimension_232,Vectordimension_233,Vectordimension_234,Vectordimension_235,Vectordimension_236,Vectordimension_237,Vectordimension_238,Vectordimension_239,Vectordimension_240,Vectordimension_241,Vectordimension_242,Vectordimension_243,Vectordimension_244,Vectordimension_245,Vectordimension_246,Vectordimension_247,Vectordimension_248,Vectordimension_249,Vectordimension_250,Vectordimension_251,Vectordimension_252,Vectordimension_253,Vectordimension_254,Vectordimension_255,Vectordimension_256,Vectordimension_257,Vectordimension_258,Vectordimension_259,Vectordimension_260,Vectordimension_261,Vectordimension_262,Vectordimension_263,Vectordimension_264,Vectordimension_265,Vectordimension_266,Vectordimension_267,Vectordimension_268,Vectordimension_269,Vectordimension_270,Vectordimension_271,Vectordimension_272,Vectordimension_273,Vectordimension_274,Vectordimension_275,Vectordimension_276,Vectordimension_277,Vectordimension_278,Vectordimension_279,Vectordimension_280,Vectordimension_281,Vectordimension_282,Vectordimension_283,Vectordimension_284,Vectordimension_285,Vectordimension_286,Vectordimension_287,Vectordimension_288,Vectordimension_289,Vectordimension_290,Vectordimension_291,Vectordimension_292,Vectordimension_293,Vectordimension_294,Vectordimension_295,Vectordimension_296,Vectordimension_297,Vectordimension_298,Vectordimension_299
afghanistan,0.11113057285547256,0.03559564799070358,0.16136589646339417,-0.10523758828639984,0.03879392892122269,-0.031990326941013336,0.03025229461491108,0.05731583759188652,-0.006543122697621584,-0.011546728201210499,-0.01589839532971382,-0.046961404383182526,-0.03029605932533741,-0.002374979667365551,0.01979205384850502,0.006983464118093252,0.048106856644153595,-0.005448127631098032,-0.0058823698200285435,-0.06115647777915001,0.04737228527665138,0.011848099529743195,0.03672119602560997,0.09493537992238998,-0.015724999830126762,0.030428942292928696,-0.016212118789553642,-0.01900826208293438,-0.006686338689178228,-0.07358434796333313,-0.05232841894030571,-0.03297966346144676,-0.09737528860569,0.058229900896549225,-0.024936802685260773,0.11692482978105545,0.03688502684235573,-0.07343321293592453,0.017694814130663872,0.0005580154829658568,0.034891556948423386,-0.02951960638165474,-0.09074046462774277,0.04388101026415825,-0.09488785266876221,0.03819485753774643,-0.01313919946551323,-0.02014368586242199,0.019823793321847916,0.015679029747843742,-0.01525955367833376,0.027216624468564987,0.006102272309362888,-0.013012993149459362,0.05149887874722481,0.09874580800533295,-0.05387987568974495,0.06385766714811325,0.05063578858971596,0.002846440300345421,-0.1329476535320282,-0.1233699843287468,-0.10935703665018082,-0.024353204295039177,0.027953719720244408,0.08196514844894409,-0.11244752258062363,0.050061941146850586,0.053875718265771866,0.053174592554569244,0.0023913877084851265,0.0008745244122110307,-0.009627426974475384,0.07897305488586426,0.156986802816391,-0.040304917842149734,-0.056999269872903824,0.04557943344116211,-0.01651802286505699,0.04553191363811493,0.10687161982059479,0.02282102406024933,-0.006486542988568544,0.029585467651486397,0.13267268240451813,0.02553696371614933,-0.06807537376880646,0.008914060890674591,0.06558538973331451,0.02153540402650833,0.047791555523872375,0.0031281562987715006,0.027516018599271774,0.05455522611737251,-0.07645637542009354,0.05963356792926788,0.011614554561674595,-0.047611165791749954,0.09095194935798645,-0.006527741905301809,-0.0166410394012928,0.01767566055059433,0.0740407258272171,0.0490712970495224,0.03393501415848732,-0.009148913435637951,0.09989014267921448,0.02612193487584591,-0.028273846954107285,0.09782195091247559,-0.023309508338570595,-0.05535842478275299,0.08238020539283752,0.009692194871604443,-0.010652010329067707,0.04377838596701622,-0.009510929696261883,-0.01416299119591713,0.014085676521062851,0.03918439894914627,-0.097385473549366,-0.056014981120824814,-0.01814071275293827,-0.05292651429772377,0.031433336436748505,0.0857488289475441,0.07130990922451019,-0.037905238568782806,0.1013445183634758,0.08027341216802597,0.0882217288017273,0.028044162318110466,-0.02442418597638607,-0.06967030465602875,0.010326387360692024,0.048114653676748276,-0.003662731731310487,-0.0026817868929356337,-0.028948361054062843,0.08990990370512009,-0.0671251192688942,0.031664974987506866,-0.01495746336877346,0.019675258547067642,0.05198047310113907,-0.09170862287282944,-0.004080063663423061,0.03459528833627701,-0.08490103483200073,-0.010504968464374542,0.016850043088197708,-0.020323172211647034,0.031714752316474915,0.01472207810729742,0.02279822528362274,-0.041112784296274185,0.040298812091350555,0.03448454663157463,0.0565306656062603,-0.042082156985998154,-0.053187329322099686,0.013871577568352222,0.021373668685555458,-0.0473310723900795,-0.08528432250022888,0.07386244833469391,-0.05983966216444969,-0.07292751967906952,-0.030293162912130356,0.03305757790803909,0.07446508854627609,0.11492970585823059,0.0015109856612980366,0.056053850799798965,0.043821509927511215,-0.08341601490974426,0.07057449221611023,-0.11180815100669861,0.08939486742019653,-0.030323505401611328,-0.07667569071054459,0.0020264489576220512,0.05221119523048401,0.12723644077777863,0.03138098120689392,0.03773903101682663,0.04907817766070366,-0.04230115935206413,-0.0747908428311348,-0.11627289652824402,-0.09164182841777802,0.05637107416987419,0.012288402765989304,0.04190394654870033,0.0004906354006379843,-0.054751280695199966,-0.09637759625911713,0.05025976523756981,-0.12213213741779327,0.026306096464395523,-0.04069817066192627,0.07091789692640305,-0.023016003891825676,0.06702637672424316,-0.04147768393158913,-0.06655258685350418,0.04298320412635803,-0.07523636519908905,-0.061263155192136765,-0.0701497346162796,0.008997430093586445,0.004873055499047041,-0.006860984954982996,0.01432012114673853,-0.0239089448004961,0.07818611711263657,0.02693844586610794,0.03579329699277878,0.04345637932419777,-0.05884549394249916,0.04195288568735123,-0.09037076681852341,-0.08200079947710037,0.003496665507555008,-0.0057594082318246365,0.019778305664658546,-0.0628090649843216,-0.10132240504026413,0.06295904517173767,0.02464105188846588,0.07837441563606262,0.1036631390452385,0.0016520408680662513,-0.009887353517115116,0.056409839540719986,-0.05576011911034584,-0.03393571451306343,0.05546342208981514,0.08660264313220978,-0.012756823562085629,-0.01733126863837242,0.044401995837688446,-0.07513176649808884,-0.0335991270840168,-0.0263945572078228,-0.03012121468782425,-0.03428918868303299,-0.01195192988961935,0.04716115444898605,-0.02348063886165619,0.047430094331502914,0.01790172979235649,0.009704794734716415,0.04700982943177223,0.0234270840883255,0.09237648546695709,0.09034924954175949,-0.043275658041238785,-0.015929490327835083,0.05745045840740204,-0.04822981730103493,0.09968487918376923,0.00994887761771679,0.003913788124918938,-0.04585765674710274,0.03896157070994377,0.11602901667356491,0.01771402545273304,0.030793361365795135,0.018379859626293182,0.09144793450832367,-0.06284364312887192,-0.015318119898438454,-0.003345020581036806,-0.01872529648244381,-0.093621626496315,-0.03456602618098259,0.037524692714214325,-0.07581140846014023,-0.0303353201597929,0.043015118688344955,-0.0412011593580246,0.018339931964874268,0.06725166738033295,0.07510589063167572,-0.08128629624843597,0.023889794945716858,0.042227569967508316,0.06217063218355179,0.005618935450911522,0.1500844657421112,-0.05156208947300911,-0.024787457659840584,-0.06402783840894699,0.026796776801347733,-0.0033417269587516785,0.04689236730337143,0.1163594126701355,0.04529600590467453,-0.10360545665025711
ägypten,-0.005645789206027985,-0.001774354837834835,-0.003553821472451091,-0.017967848107218742,-0.014013046398758888,-0.052801791578531265,-0.0029240467119961977,0.04796269163489342,0.13639089465141296,-0.12835021317005157,-0.003773168660700321,-0.003127951407805085,-0.0789010301232338,0.03345375135540962,0.030441338196396828,0.061559174209833145,-0.05441199988126755,-0.021706998348236084,0.015796439722180367,0.018422096967697144,-0.021402010694146156,0.03848846256732941,-0.02977757714688778,-0.03238643705844879,0.08800190687179565,0.09181299805641174,-0.033677633851766586,-0.002717398339882493,0.07899744063615799,-0.012039221823215485,-0.022017987444996834,0.044982753694057465,-0.010423317551612854,-0.12050891667604446,0.05710076168179512,0.04680819436907768,-0.08233331888914108,0.04026656597852707,0.046543169766664505,-0.01089948508888483,-0.03810397535562515,0.06559332460165024,0.04295395687222481,0.09025552123785019,-0.03255912661552429,0.0665225237607956,-0.03834099322557449,-0.010111072100698948,-0.032012924551963806,-0.03015521913766861,-0.04050588980317116,0.04706254601478577,-0.045254480093717575,0.004305236507207155,-0.0018164421198889613,-0.060852233320474625,-0.1085493341088295,-0.008470365777611732,0.09859170764684677,-0.016772614791989326,-0.032204464077949524,-0.030087590217590332,0.11254868656396866,-0.005311170592904091,-0.009009594097733498,-0.004940760787576437,0.03906075656414032,-0.06234081834554672,-0.014494077302515507,-0.03582644462585449,0.028686072677373886,-0.02594134211540222,0.05064604431390762,-0.035768765956163406,0.052429698407649994,0.058986663818359375,-0.04185636714100838,0.009168049320578575,-0.026674002408981323,-0.07418597489595413,0.0868586078286171,-0.023691056296229362,0.01359045971184969,-0.07170386612415314,-0.0048214225098490715,-0.005976447835564613,-0.02957969531416893,0.08273961395025253,0.048991020768880844,0.042106207460165024,-0.03311924636363983,0.04847123101353645,0.04450605437159538,0.07282999157905579,-0.002115151146426797,-0.11979485303163528,-0.0399748869240284,-0.0017849452560767531,0.11824319511651993,-0.02841322124004364,-0.036904726177453995,0.13148097693920135,0.02850496582686901,0.05588165670633316,-0.02992972545325756,0.014894657768309116,0.12305235117673874,-0.005272149574011564,-0.021428914740681648,0.026324236765503883,0.06009960174560547,0.020225858315825462,0.0244984719902277,-0.019782373681664467,-0.017964864149689674,0.010528338141739368,0.015007680281996727,-0.005784508306533098,-0.04710666835308075,-0.02768903225660324,-0.1249353364109993,-0.019679931923747063,-0.03018888086080551,-0.04653407633304596,0.033419907093048096,-0.038739897310733795,0.08275895565748215,0.09633491188287735,0.1243414580821991,0.08471463620662689,0.08735094219446182,0.09672614187002182,-0.07617674767971039,0.029103083536028862,-0.10045980662107468,-0.08128266036510468,-0.0917738750576973,0.03278551250696182,0.06666821986436844,0.06399856507778168,-0.06104777380824089,0.0266344603151083,-0.04789743199944496,0.04573482647538185,0.0455620214343071,0.025785595178604126,0.01784246414899826,0.06068764254450798,-0.06517785042524338,-0.05166909471154213,-0.024820802733302116,-0.00801351573318243,0.07370516657829285,0.0746995359659195,0.07021042704582214,0.010977160185575485,-0.07428205013275146,0.07241342961788177,0.00653246883302927,-0.02728567272424698,-0.048644036054611206,-0.06216524913907051,-0.03143303096294403,-0.02129371650516987,-0.09185370802879333,-0.008965181186795235,-0.06549091637134552,0.0762832909822464,0.01307537779211998,-0.04633282497525215,0.09947497397661209,0.06151444837450981,-0.012114974670112133,-0.03658071532845497,-0.1276925802230835,-0.021220747381448746,0.0033631816040724516,0.009786778129637241,0.0037122799549251795,-0.032964497804641724,0.002169447485357523,0.009055360220372677,0.038289234042167664,0.07086637616157532,-0.056544650346040726,-0.03933442384004593,0.06792055815458298,-0.013478318229317665,0.05123461037874222,-0.06400595605373383,0.0029985089786350727,0.03279722109436989,-0.00270103826187551,-0.004654684104025364,0.020605958998203278,-0.0439130999147892,-0.005155257415026426,0.09820451587438583,-0.045099105685949326,-0.02207251265645027,-0.01711134798824787,-0.03114580735564232,0.09897258877754211,0.026832781732082367,0.08283214271068573,0.12340406328439713,0.024358611553907394,-0.017619624733924866,-0.08523160964250565,-0.004123657941818237,0.06372374296188354,-0.03336135298013687,-0.05740727111697197,0.10986081510782242,-0.03658958151936531,-0.015082735568284988,0.0038909984286874533,-0.05697748437523842,0.13700395822525024,-0.03364672511816025,0.017980821430683136,-0.044422272592782974,-0.0648239254951477,-0.03440457955002785,0.037572991102933884,-0.0960899144411087,-0.0013677800307050347,-0.11039036512374878,-0.004161120858043432,0.10938440263271332,0.13292387127876282,-0.01845095306634903,-0.028445309028029442,0.018738942220807076,-0.041492313146591187,0.06373614817857742,-0.09172065556049347,0.05698084086179733,0.0346207395195961,-0.03592429310083389,0.014953626319766045,0.02964250184595585,-0.07186274230480194,-0.10243216902017593,0.039915867149829865,0.031159093603491783,-0.04109472781419754,0.060583509504795074,0.01042234804481268,-0.050322286784648895,0.121685691177845,0.004914573393762112,-0.034873634576797485,0.09360898286104202,0.016827166080474854,0.12928614020347595,-0.013171769678592682,0.0796579122543335,-0.03988451883196831,-0.056914400309324265,-0.030915094539523125,-0.06645982712507248,0.06884550303220749,0.014095938764512539,0.035442907363176346,-0.016112279146909714,0.07265034317970276,-0.01202365942299366,0.0014796456089243293,0.0765535831451416,0.004328608978539705,-0.002166659338399768,-0.03926299139857292,-0.055716343224048615,0.10596414655447006,-0.04482533410191536,-0.13679075241088867,0.04872939735651016,-0.052356161177158356,0.08250050991773605,0.02345367521047592,-0.09869304299354553,0.005686575546860695,0.07363779842853546,-0.07882668823003769,0.02811313606798649,0.10297155380249023,0.02487616240978241,0.00840818416327238,-0.04752041772007942,0.1276821792125702,-0.062289800494909286,4.3086336518172175e-05,0.04769562929868698,0.0095906937494874,0.04093893989920616,0.0065482426434755325,-0.02206805720925331,-0.061431437730789185,-0.11623195558786392
albanien,0.07211772352457047,-0.010960109531879425,0.014360051602125168,-0.11396081745624542,0.027858220040798187,-0.0155081981793046,0.09879422932863235,0.004610365256667137,0.05945569649338722,-0.02515440247952938,-0.029462149366736412,-0.09428484737873077,-0.0009350593900308013,-0.015630293637514114,-0.040293481200933456,0.03059222735464573,-0.10015922039747238,-0.006161416880786419,0.05536249279975891,0.028452949598431587,-0.039829935878515244,0.016864484176039696,0.07869527488946915,-0.021248705685138702,0.06317125260829926,0.03691796958446503,0.031308364123106,-0.020775968208909035,0.012148130685091019,-0.06574530899524689,-0.020911624655127525,-0.009453300386667252,-0.002842692658305168,-0.06189439818263054,-0.05000220239162445,-0.03404509648680687,0.010647260583937168,0.028098421171307564,0.07215141505002975,0.09771736711263657,0.0412026047706604,-0.07176932692527771,-0.016478072851896286,0.09081108868122101,-0.054442405700683594,0.03458324447274208,-0.055375490337610245,0.05702110379934311,0.061594408005476,-0.06166195869445801,-0.0642443522810936,0.05503144487738609,0.04811231046915054,0.09664382040500641,0.10216914862394333,-0.002948526991531253,0.03111605904996395,-0.04398674517869949,-0.011609243229031563,0.0021891058422625065,-0.012871213257312775,-0.06691872328519821,-0.030781768262386322,0.01004939153790474,0.0010212836787104607,-0.04600704088807106,-0.0014673444675281644,-0.00453691091388464,-0.05036152899265289,0.048059795051813126,0.05006830394268036,0.07611963152885437,0.09691190719604492,-0.014089684933423996,0.10014214366674423,-0.04916788265109062,-0.05024432763457298,-0.011740610003471375,0.036278583109378815,-0.0703793540596962,0.0850854367017746,0.01217706874012947,-0.008077633567154408,-0.012148670852184296,0.009301457554101944,0.07473327964544296,-0.04056644067168236,0.054776716977357864,0.04459557682275772,0.03631620481610298,0.017014477401971817,-0.0478547029197216,0.011163935996592045,-0.051613859832286835,0.0012621120549738407,0.03297188878059387,0.0012110975803807378,-0.07927247881889343,-0.07571988552808762,0.05239970237016678,-0.07099620997905731,0.004384392406791449,0.0003387153265066445,-0.02751893736422062,-0.11356271803379059,-0.006055380683392286,0.03490661457180977,0.06181268393993378,0.01497262716293335,0.020508473739027977,-0.0008796258480288088,0.0072532533667981625,0.0011097554815933108,0.011349271982908249,0.03795923292636871,0.02195456251502037,-0.1030094251036644,-0.07179133594036102,-0.024559399113059044,0.046609554439783096,0.005554430186748505,0.03734949231147766,-0.09041082859039307,-0.050813861191272736,-0.015480851754546165,0.010729311965405941,0.07003681361675262,0.0705842524766922,0.013141652569174767,0.06559646874666214,0.06851201504468918,-0.006182803772389889,-0.026139013469219208,-0.09170056879520416,0.028669336810708046,-0.052067164331674576,-0.04493076354265213,0.029070505872368813,0.10211251676082611,0.156919464468956,0.03749820590019226,0.009117471985518932,0.04323159158229828,0.05736050009727478,0.10253208875656128,0.06327348202466965,0.004832546226680279,-0.0235010776668787,-0.07061624526977539,-0.07703962922096252,-0.007173285353928804,0.0009427785407751799,-0.037697933614254,0.026698334142565727,-0.08125391602516174,0.10334596782922745,-0.004238004330545664,0.005097890738397837,0.09405750781297684,-0.01589219830930233,-0.03164587542414665,0.07194383442401886,0.05850983411073685,-0.043489720672369,0.08055072277784348,0.018806129693984985,-0.03003482148051262,0.0874754786491394,-0.005685239098966122,0.019669780507683754,0.12566633522510529,0.06696835160255432,0.09130155295133591,0.12560564279556274,-0.024726778268814087,0.07191923260688782,0.027092725038528442,-0.16959993541240692,-0.016299722716212273,-0.12556757032871246,0.011968683451414108,0.005976795684546232,0.024465011432766914,-0.004432068672031164,-0.034485336393117905,-0.11859266459941864,0.06185208633542061,-0.075999416410923,-0.04179015010595322,-0.06666366755962372,-0.06596291810274124,-0.05028652027249336,-0.10960806161165237,0.010342814028263092,-0.03767639771103859,0.037679728120565414,0.031097132712602615,-0.0176635030657053,-0.01497001014649868,-0.04483342915773392,-0.06003975495696068,-0.07006579637527466,0.06638418138027191,-0.04020508751273155,-0.07970760762691498,0.05813859775662422,0.006943791639059782,0.0464632585644722,0.0007388446247205138,-0.13522718846797943,-0.06676910817623138,0.09337230771780014,-0.08178561925888062,-0.0740174725651741,-0.039991382509469986,-0.0089621152728796,-0.0031111903954297304,0.03980980068445206,-0.001183063955977559,-0.023797189816832542,0.0686865895986557,0.009410777129232883,0.02729216031730175,0.015622774139046669,0.051190104335546494,-0.054271597415208817,-0.0009410383063368499,-0.01073866430670023,0.06553396582603455,0.05343489721417427,0.04634888470172882,0.04315149039030075,-0.01009379792958498,0.0573827400803566,-0.09063564985990524,-0.07795201241970062,-0.013588638044893742,-0.0455319844186306,0.005203212611377239,-0.05245311185717583,-0.02525152638554573,0.11315949261188507,-0.10916732996702194,-0.13969002664089203,0.014774492010474205,-0.011251392774283886,-0.01578439772129059,-0.008529101498425007,0.1210232749581337,-0.0070131695829331875,0.17938600480556488,-0.02166169323027134,0.006697621662169695,-0.11552853882312775,0.06616408377885818,0.07835167646408081,0.04576873779296875,0.06441851705312729,0.0022452317643910646,-0.0614713579416275,-0.059592559933662415,0.00480625731870532,-0.008640327490866184,-0.03698230907320976,0.01742067001760006,0.16042491793632507,-0.04202229902148247,0.013441545888781548,0.03845879063010216,-0.08066962659358978,0.048718132078647614,0.06692587584257126,-0.0033334814943373203,-0.09687519073486328,-0.01642938144505024,0.10481851547956467,0.0737251341342926,0.011274339631199837,0.07638558745384216,0.004407026339322329,0.04242173209786415,0.01483836118131876,-0.02288718894124031,0.024096474051475525,-0.019062867388129234,0.0440068244934082,0.06003740057349205,-0.00833150465041399,0.014362405985593796,0.02343490533530712,0.15992017090320587,-0.011592499911785126,-0.035803139209747314,0.017760632559657097,-0.01616712100803852,0.019723376259207726,-0.02488955855369568,0.015074145048856735,0.009443341754376888,0.054030295461416245
algerien,0.03709379583597183,-0.031016549095511436,0.06270042061805725,-0.04688231647014618,0.1149667277932167,0.023216592147946358,0.04320851340889931,0.01672312244772911,0.1441013067960739,0.006253477651625872,0.059413451701402664,-0.12216822803020477,-0.08024269342422485,-0.0010817156871780753,0.07021503150463104,0.0029951909091323614,0.01951516605913639,0.034801360219717026,-0.044835709035396576,0.04339058697223663,0.05498381331562996,0.07386273890733719,-0.03158922493457794,-0.0025752356741577387,-0.02712397091090679,0.0063987551257014275,-0.06336935609579086,-0.038760073482990265,-0.008196085691452026,0.046362701803445816,0.1559041440486908,0.05471068620681763,-0.021209603175520897,-0.07146554440259933,0.038682471960783005,-0.04040280729532242,-0.039450373500585556,-0.013783116824924946,0.1357235163450241,-0.07351189851760864,0.01887528784573078,0.06171298027038574,0.04559042304754257,0.057938020676374435,-0.03553887829184532,0.045900046825408936,-0.09742052853107452,0.05505489557981491,0.0494065023958683,0.06991071254014969,-0.048938922584056854,0.09503411501646042,0.022699831053614616,0.09340066462755203,0.07572486251592636,0.07303725183010101,-0.018680177628993988,-0.05018636956810951,0.03677179291844368,-0.12035489082336426,-0.02901536226272583,-0.005373239517211914,-0.03857032209634781,0.043617941439151764,-0.018605010583996773,-0.043052613735198975,0.006483075208961964,-0.03940510377287865,0.012316932901740074,-0.031447216868400574,0.09299249202013016,-0.055910754948854446,0.07200996577739716,-0.025327449664473534,0.01239517331123352,0.08425718545913696,0.056956760585308075,0.018303804099559784,-0.002179510425776243,-0.028468789532780647,0.07444015890359879,0.06378215551376343,0.1486630141735077,0.017173226922750473,-0.0429467111825943,-0.007081129588186741,-0.018561575561761856,0.0010454198345541954,0.02091105654835701,0.06198843568563461,-0.058517612516880035,-0.006496502086520195,0.04625219479203224,0.0383111797273159,-0.018757859244942665,0.07133330404758453,-0.02846243977546692,0.020817715674638748,-0.023242661729454994,-0.10632088780403137,0.11481945216655731,-0.0989367812871933,0.01844077557325363,0.042382244020700455,-0.03479689359664917,-0.04310893639922142,0.014538557268679142,-0.03709283843636513,-0.011364947073161602,0.08427342027425766,-0.031563661992549896,0.06937448680400848,0.12476442754268646,0.03693651035428047,-0.11763463914394379,0.08065558969974518,-0.06544127315282822,4.956543125445023e-05,-0.0524955615401268,0.06154036149382591,-0.009169727563858032,-0.030269799754023552,-0.0036231603007763624,-0.004494641441851854,0.013229604810476303,0.05477658659219742,0.030019007623195648,-0.01762886345386505,-0.009133045561611652,0.06045706942677498,-0.00026781289489008486,0.10521302372217178,-0.07855689525604248,0.04097243770956993,-0.04648667573928833,0.0454714298248291,-0.05352577939629555,0.011006677523255348,-0.0507657565176487,0.08993812650442123,0.011003540828824043,0.06380526721477509,0.04090936481952667,0.048575300723314285,0.10106997936964035,0.05127579718828201,0.023190179839730263,-0.07458921521902084,0.005141437519341707,-0.047798849642276764,0.013454526662826538,0.04716401547193527,0.053224340081214905,-0.1078285202383995,0.0658375471830368,0.05007988587021828,-0.10024051368236542,-0.0006340692634694278,0.03125589340925217,0.0384911373257637,-0.01150391437113285,-0.0706191211938858,-0.12576831877231598,-0.03143303096294403,0.022001538425683975,0.07332435250282288,-0.018836485221982002,-0.011445318348705769,0.03189600631594658,0.028024276718497276,0.03251373767852783,0.04921315610408783,0.004928105976432562,-0.02018120139837265,-0.07559804618358612,-0.03517584130167961,-0.08586385846138,-0.12722396850585938,-0.10048110038042068,0.0052319965325295925,-0.02709842659533024,0.09896143525838852,0.04564858600497246,-0.05827651545405388,0.02218782715499401,-0.0125337615609169,-0.10870040953159332,0.010480477474629879,0.022103548049926758,-0.07532986998558044,0.07041014730930328,-0.011578391306102276,-0.08028470724821091,0.05325048416852951,0.06240174174308777,-0.09441561251878738,0.12085341662168503,-0.003361068433150649,-0.047992605715990067,0.0012116966536268592,-0.004402833059430122,0.078740693628788,0.0592607744038105,-0.0032640707213431597,-0.00845202524214983,0.038239095360040665,0.07381213456392288,-0.007948718965053558,-0.017636192962527275,0.0817653089761734,0.023219818249344826,0.08404991775751114,-0.02854788489639759,-0.013244028203189373,0.020274166017770767,0.10485536605119705,-0.08639442920684814,-0.05578307434916496,0.06244475021958351,-0.07743293046951294,0.05772852525115013,-0.04291866347193718,0.02061077393591404,-0.07525902986526489,0.01971273683011532,-0.001606610487215221,0.021745773032307625,0.037393126636743546,-0.0645737498998642,0.019228046759963036,0.021105535328388214,0.019071517512202263,-0.023291315883398056,-0.017764892429113388,0.028514159843325615,-0.006893408950418234,-0.08088169246912003,-0.01667902059853077,-0.10094918310642242,0.00605187239125371,-0.029714977368712425,0.04928339272737503,-0.02272990345954895,-0.03272567689418793,0.051074035465717316,0.08919782936573029,0.08209016919136047,0.10351723432540894,0.04220307618379593,0.045912157744169235,0.10802929848432541,0.024752946570515633,-0.015131966210901737,0.02477799355983734,-0.0045026871375739574,0.024903958663344383,0.019727101549506187,0.1332758665084839,0.04052586853504181,0.009296643547713757,-0.01850884221494198,0.010823041200637817,0.014574800617992878,0.035829171538352966,0.006031377241015434,-0.07363370805978775,0.12624871730804443,-0.07316779345273972,-0.010698053985834122,-0.005886266939342022,0.006571540143340826,-0.03282541036605835,0.03990555927157402,-0.10135092586278915,0.04983554780483246,-0.06237285956740379,-0.027225332334637642,0.02114882692694664,0.019422072917222977,0.08065726608037949,0.02140188030898571,-0.03185116499662399,0.028276704251766205,0.1766921877861023,-0.02891511283814907,-0.08903578668832779,-0.028761016204953194,0.007404837291687727,0.07019514590501785,0.059547822922468185,0.04895210638642311,-0.025344235822558403,-0.02145160734653473,0.04022476449608803,0.0634223222732544,0.02626803144812584,0.07261467725038528,-0.022577177733182907,0.02783353626728058,-0.038242023438215256
angola,-0.05019675940275192,0.046665292233228683,0.05367919057607651,-0.010247611440718174,0.22257298231124878,-0.08781945705413818,0.06694673001766205,-0.04391501843929291,0.10170343518257141,-0.07023046910762787,0.02714969776570797,0.06812877207994461,0.007597472984343767,0.02667364850640297,-0.028599565848708153,0.003406694857403636,-0.016541719436645508,-0.017631564289331436,0.051825862377882004,-0.05164732411503792,0.06871672719717026,0.01690390333533287,0.07563722133636475,-0.032314300537109375,-0.009445417672395706,0.04237513616681099,-0.056361909955739975,-0.06956542283296585,-0.04170213267207146,-0.020050255581736565,-0.019621998071670532,0.030263151973485947,0.05046290159225464,-0.05314713716506958,-0.10352478176355362,0.11210036277770996,-0.0471702516078949,-0.04468953236937523,0.04908812791109085,0.008243556134402752,-0.018580688163638115,0.0976463109254837,-0.09342339634895325,-0.04260140657424927,0.06970693171024323,0.07339829951524734,-0.028474271297454834,-0.02193278819322586,0.10279347747564316,-0.008669762872159481,-0.07829830050468445,0.03393002972006798,-0.046356163918972015,0.061619505286216736,0.06006825342774391,0.08625666052103043,-0.061048321425914764,0.12371174991130829,0.012620195746421814,-0.03672289848327637,-0.0940266028046608,-0.07555218786001205,0.040809039026498795,0.0036131832748651505,-0.02860821783542633,0.033737342804670334,0.015352928079664707,-0.032544538378715515,0.08775317668914795,-0.0028828145004808903,-0.09770309925079346,0.033412426710128784,0.04670197516679764,-0.02533283270895481,0.10561021417379379,0.10858476907014847,-0.049707554280757904,0.042554013431072235,0.023491883650422096,-0.10826974362134933,0.04832020401954651,0.05590035021305084,0.04070078209042549,-0.11489859968423843,0.02158522978425026,0.007939528673887253,-0.010091365315020084,0.049553897231817245,0.0004900017520412803,0.07453139871358871,-0.011711820028722286,-0.024239232763648033,-0.03449811786413193,-0.03315448388457298,-0.08328185230493546,0.06982212513685226,-0.0072030844166874886,-0.0065533434972167015,0.0025634770281612873,-0.14800283312797546,0.09455546736717224,-0.0486222542822361,0.10004769265651703,0.04282752051949501,-0.055987611413002014,0.029928132891654968,0.0729137435555458,0.0208569448441267,-0.07040540874004364,0.02622297964990139,0.1161331832408905,0.03829585015773773,0.0408671572804451,0.07160574942827225,-0.10280058532953262,-0.006823851726949215,-0.008054646663367748,-0.1223498210310936,0.015892090275883675,-0.03265257552266121,-0.01707650162279606,0.02150697261095047,0.033478591591119766,-0.01048115361481905,0.05575498566031456,-0.05800337716937065,-0.09521181881427765,-0.01575647108256817,-0.026270495727658272,0.14584296941757202,0.07331937551498413,0.0644451305270195,-0.03963472694158554,-0.12699027359485626,-0.008057892322540283,0.08050384372472763,0.01699799858033657,0.037250079214572906,-0.0007105375989340246,0.01139951404184103,0.029409514740109444,0.04331805184483528,-0.053433097898960114,-0.024636507034301758,-0.03005785122513771,-0.09251560270786285,0.042460326105356216,0.03438553214073181,0.032083965837955475,-0.05642756447196007,-0.06757162511348724,0.07100452482700348,0.06944985687732697,0.011547824367880821,0.007286506239324808,-0.0742245614528656,0.02684086561203003,0.038486115634441376,0.03240496292710304,-0.027405988425016403,0.043489232659339905,-0.0837918370962143,-0.05530158802866936,0.042296551167964935,-0.01337684877216816,-0.005564691498875618,-0.0034187377896159887,0.10985684394836426,0.005153278354555368,-0.03679048269987106,0.05862754210829735,0.10988447815179825,-0.09192812442779541,0.036141492426395416,-0.012009631842374802,-0.04761424660682678,-0.0330725722014904,0.053572993725538254,0.038500916212797165,-0.0759349912405014,0.001330575323663652,0.00812993012368679,0.015552183613181114,-0.00994262658059597,-0.03724503144621849,-0.004026457667350769,0.06833983957767487,-0.022879241034388542,-0.025030367076396942,0.02333652414381504,-0.08319415897130966,0.04947779327630997,-0.11518368124961853,0.04809994250535965,-0.02520628646016121,0.012827196158468723,-0.023563383147120476,0.10989854484796524,-0.04933181405067444,-0.1057281419634819,-0.07334501296281815,-0.017179034650325775,-0.019863568246364594,0.017909282818436623,0.03779023140668869,0.019833708181977272,0.03994656354188919,-0.019786972552537918,0.03208446502685547,0.0014678952284157276,0.025480447337031364,0.04242675006389618,-0.019257938489317894,0.0506395548582077,0.08976451307535172,0.08306475728750229,0.022161688655614853,-0.0544651597738266,0.006035801023244858,-0.03614530339837074,0.043653685599565506,-0.04918794333934784,-0.021021109074354172,-0.07339456677436829,0.028407033532857895,-0.009803476743400097,-0.06617330014705658,-0.023602470755577087,-0.002263999544084072,0.04324838146567345,0.01783808320760727,-0.03134879469871521,0.10480128973722458,-0.018761979416012764,0.06193750351667404,0.027581054717302322,-0.01892605423927307,0.07595111429691315,0.0551619678735733,-0.00699158338829875,0.05241108313202858,0.03745784983038902,0.01655571535229683,-0.043556082993745804,0.10282708704471588,0.03758206591010094,-0.0009700229857116938,-0.02966284565627575,0.008138529025018215,-0.024308500811457634,0.06480328738689423,-0.07913675159215927,0.04365666210651398,0.04426107928156853,0.06684564799070358,0.09299080818891525,-0.06792230904102325,0.017788903787732124,0.02769473008811474,-0.003108202014118433,-0.07888633012771606,-0.03550643101334572,0.12292803078889847,-0.03263068571686745,0.02073007822036743,0.03970716521143913,-0.03517165035009384,0.030771398916840553,-0.043148335069417953,0.06437604129314423,0.016045846045017242,0.003764920402318239,-0.022439660504460335,-0.08866041898727417,0.06711748987436295,-0.08801226317882538,-0.03388131409883499,0.044369302690029144,0.10744841396808624,0.10432908684015274,0.12107334285974503,-0.03247620910406113,-0.0062784468755126,-0.018877645954489708,0.04750712215900421,-0.038492824882268906,0.016934489831328392,-0.011987827718257904,0.025805607438087463,0.010915015824139118,-0.012743531726300716,-0.028755398467183113,-0.02241918444633484,-0.0067322636023163795,-0.12192177027463913,-0.05939393490552902,-0.031136561185121536,-0.0280944611877203,0.013157496228814125,-0.11669132113456726
argentinien,0.12624484300613403,-0.02789844572544098,0.003015488153323531,-0.0782889872789383,0.10923504084348679,-0.05421723052859306,-0.08617442101240158,-0.06950335204601288,0.035002801567316055,-0.01003844104707241,0.025588156655430794,-0.052246760576963425,-0.0176082793623209,-0.1354629099369049,-0.023176705464720726,0.0595705509185791,0.07915062457323074,-0.05886545404791832,0.045891113579273224,0.02610570378601551,-0.008964920416474342,0.020372046157717705,0.02297796681523323,0.07618492841720581,0.03405670076608658,-0.0003030299849342555,-0.021489914506673813,-0.11304103583097458,0.05727182328701019,-0.09997087717056274,-0.1433723121881485,-0.0018845783779397607,-0.02170153521001339,-0.10666335374116898,-0.021793516352772713,0.004717467352747917,0.015988940373063087,0.01804795302450657,0.12767808139324188,-0.041950151324272156,-0.03778953477740288,-0.061778001487255096,0.027013864368200302,0.01010456494987011,0.02989473193883896,-0.02626843936741352,-0.055956803262233734,0.0723688006401062,-0.050773754715919495,0.006466601509600878,0.030171798542141914,-0.05314745008945465,-0.01008455827832222,0.005020660813897848,0.006406412459909916,0.11639019846916199,-0.025721577927470207,0.1265268474817276,-0.0490744486451149,0.027682900428771973,0.01883673295378685,-0.11240294575691223,-0.06806853413581848,0.02265993133187294,-0.012161985971033573,-0.02483128011226654,0.0018099615117534995,-0.01592039316892624,0.05634142458438873,0.02748199552297592,0.051018860191106796,-0.06785722076892853,0.10815544426441193,0.016829656437039375,0.06310811638832092,-0.01727880910038948,0.02177150547504425,0.014575470238924026,0.10390778630971909,-0.08726151287555695,0.028381191194057465,0.04228275269269943,-0.04962102323770523,-0.07057926803827286,-0.007219064515084028,-0.03420822322368622,-0.016750788316130638,-0.06809567660093307,0.013896702788770199,-0.07338807731866837,-0.05586182698607445,-0.0133252814412117,-0.037645578384399414,0.031170491129159927,0.13195361196994781,-0.023802824318408966,0.07158065587282181,0.004865717608481646,0.01395003218203783,-0.03409288078546524,0.025243492797017097,-0.023706629872322083,-0.06573130935430527,-0.014869526028633118,-0.045236192643642426,-0.06527014076709747,0.022040801122784615,-0.033203527331352234,-0.04000658541917801,0.060572169721126556,-0.025285927578806877,0.10324817895889282,0.07834383100271225,-0.055876147001981735,-0.001028111088089645,0.009158629924058914,-0.03427213802933693,-0.1262768656015396,-0.05340837687253952,-0.0055661131627857685,0.0011772924335673451,-0.05667182058095932,-0.024293988943099976,-0.03510766476392746,-0.008163990452885628,0.06881427764892578,-0.06921769678592682,0.08629687875509262,-0.019440729171037674,0.07356194406747818,0.01734822802245617,0.008390546776354313,-0.052277930080890656,-0.014147592708468437,-0.054874032735824585,0.04869123548269272,-0.028366809710860252,0.020499616861343384,0.05221623182296753,-0.03727279603481293,0.002184024779126048,0.024783706292510033,0.02892785519361496,-0.04225672408938408,0.07374263554811478,-0.010587800294160843,-0.05268228054046631,0.04658477008342743,-0.04373212531208992,-0.10911138355731964,-0.029059143736958504,0.015665652230381966,0.04735972732305527,0.01613287627696991,0.0747569352388382,-0.046241726726293564,0.03771680220961571,0.10123617202043533,0.007383798714727163,-0.012532733380794525,0.023132985457777977,-0.04468787461519241,-0.0111080976203084,0.03455507755279541,-0.06166921555995941,0.09672413021326065,0.011736640706658363,0.048607237637043,0.13030889630317688,0.0159682035446167,0.043039169162511826,-0.04228585213422775,-0.11279228329658508,0.08156170696020126,-0.07928638905286789,-0.05347670242190361,0.03574581816792488,0.03310497850179672,0.009580043144524097,-0.12663307785987854,0.05309641733765602,0.04514160752296448,0.011387291364371777,0.06770234555006027,0.05894332379102707,-0.039700865745544434,0.03956160321831703,-0.054226916283369064,0.06522247195243835,-0.14153428375720978,-0.08116938918828964,-0.10291020572185516,-0.064590685069561,0.010805390775203705,-0.05690331757068634,-0.038165103644132614,-0.03520902991294861,0.025065453723073006,-0.1007433533668518,0.04941778630018234,-0.011131715029478073,-0.10812852531671524,0.031265873461961746,0.03978719189763069,-0.044621486216783524,0.16434818506240845,0.06352288275957108,-0.025794485583901405,-0.1426721215248108,0.008268184028565884,-0.059361327439546585,0.007703955750912428,-0.05339738726615906,-0.06835846602916718,-0.008077909238636494,-0.004149513319134712,-0.047065798193216324,-0.0850328728556633,-0.04306153208017349,-0.10173992812633514,0.1565224677324295,0.0720180869102478,-0.07126719504594803,0.021616695448756218,0.016231201589107513,-0.02227203920483589,0.028523335233330727,0.003287996631115675,0.061542533338069916,0.05263263359665871,-0.008729479275643826,0.03236590325832367,-0.003048849990591407,-0.011499753221869469,0.08154188096523285,-0.04903959482908249,-0.02346600778400898,0.049243614077568054,0.08074307441711426,-0.07960852235555649,0.06214403733611107,0.01226669829338789,-0.029488325119018555,0.010241635143756866,0.08780891448259354,0.0033735851757228374,-0.044688817113637924,0.04575132951140404,0.01967933401465416,-0.05603613704442978,-0.01725004054605961,0.010205002501606941,-0.036660656332969666,0.046364523470401764,0.019207371398806572,0.030572568997740746,0.011589881964027882,-0.003508281195536256,0.0340200811624527,-0.006942959502339363,-0.005639474838972092,-0.031846821308135986,-0.03467950224876404,0.0498589426279068,-0.08296907693147659,0.09918606281280518,0.11677588522434235,0.026760688051581383,-0.03038608841598034,0.012839039787650108,0.03580409288406372,-0.020948192104697227,-0.012630417011678219,-0.035849783569574356,0.07613088190555573,-0.0883428156375885,0.004656968172639608,-0.017563577741384506,0.14503031969070435,0.03059135377407074,0.00285532814450562,-0.02049804851412773,-0.03536381945014,-0.03932470828294754,-0.0012344962451606989,-0.05067018046975136,-0.04845592379570007,0.10527253150939941,-0.05785050243139267,0.018377890810370445,0.06945539265871048,-0.044148121029138565,0.03352206572890282,-0.036396969109773636,-0.07004886865615845,-0.0017167648766189814,0.08103244751691818,0.06364767253398895,-0.017665745690464973,-0.07175317406654358
armenien,0.021035321056842804,-0.08317834883928299,0.04439976066350937,-0.08154396712779999,0.05781573802232742,-0.08884019404649734,0.10778846591711044,-0.04056264087557793,0.12320337444543839,-0.03683491423726082,0.0008711200789548457,-0.011940951459109783,-0.07580943405628204,0.03877294436097145,-0.10136494040489197,-0.030814381316304207,-0.08665792644023895,0.008859892375767231,0.04983438551425934,0.039293862879276276,-0.00044438333134166896,0.057858023792505264,0.07372656464576721,-0.023398790508508682,0.011238666251301765,0.014070617035031319,-0.10618990659713745,0.018856467679142952,-0.03740981966257095,-0.10177849978208542,0.08316580206155777,0.004704623483121395,-0.005956681910902262,-0.11206480860710144,-0.004142220132052898,0.050968196243047714,-0.05511818453669548,-0.037517715245485306,0.0022057334426790476,0.007930257357656956,0.040649186819791794,-0.0655381828546524,-0.023170098662376404,0.0853857696056366,-0.10208557546138763,-0.021892597898840904,-0.013973014429211617,0.07316187024116516,-0.04652583599090576,0.005152816418558359,-0.12010645121335983,0.012156047858297825,0.02249261923134327,-0.058806631714105606,0.0441153459250927,0.0136348195374012,-0.012082495726644993,-0.021082105115056038,-1.286465885641519e-05,0.006175181828439236,0.004555276595056057,0.007052124943584204,0.019272321835160255,0.02556348592042923,0.05095952749252319,0.05537168309092522,0.06964974850416183,-0.04866105318069458,-0.05034935474395752,-0.021351829171180725,0.003909138962626457,0.00789731740951538,-0.05458487570285797,-0.0408192053437233,0.048195548355579376,0.007921835407614708,-0.11694499850273132,0.01868310756981373,0.01205629762262106,-0.07396647334098816,0.13911572098731995,-0.02424761839210987,0.010899909771978855,-0.010255084373056889,0.02190333977341652,0.05944301187992096,0.041008684784173965,0.04387437552213669,-0.051414452493190765,0.000391236535506323,0.06378291547298431,0.0037399071734398603,0.02130867727100849,0.12607958912849426,-0.03845468536019325,-0.03164367377758026,-0.03162674233317375,-0.11835132539272308,0.035956256091594696,-0.09621374309062958,0.06388832628726959,0.014851280488073826,0.045151036232709885,-0.05576847121119499,-0.05746996030211449,-0.03050336241722107,0.1460239142179489,-0.06802786141633987,-0.11011991649866104,0.07831904292106628,-0.0003882498131133616,0.027840852737426758,0.07093120366334915,-0.0007947749691084027,0.032336264848709106,-0.019889729097485542,0.04475294426083565,-0.060380566865205765,0.0850028470158577,0.1489294320344925,0.0567130409181118,0.03223338723182678,0.03044135868549347,0.042748283594846725,0.01496359333395958,0.05240856483578682,0.04843013733625412,0.018277309834957123,0.03598034009337425,0.04337691888213158,0.08838947117328644,-0.030538883060216904,-0.08481605350971222,-0.11858915537595749,-0.03395382687449455,0.06303802132606506,-0.09976587444543839,0.05985437333583832,0.11778739094734192,0.06846592575311661,0.07602643221616745,-0.016634007915854454,-0.03616125136613846,0.032031431794166565,0.09514988213777542,-0.018329590559005737,-0.0008042053086683154,0.10223256796598434,0.04915613681077957,-0.05637228861451149,-0.005848983768373728,-0.013098666444420815,-0.002702501602470875,0.043843358755111694,0.05356401205062866,0.022973818704485893,0.07530257850885391,0.0017241566674783826,-0.03448488935828209,-0.04607301950454712,-0.148252934217453,-0.09668169170618057,-0.029582330957055092,0.0052808052860200405,0.0034318086691200733,-0.04696999117732048,0.05268797278404236,-0.04647378250956535,0.03362567350268364,-0.01607043668627739,0.00945188757032156,0.07309530675411224,-0.09354335069656372,-0.040028780698776245,-0.09861388057470322,-0.09527788311243057,0.044216010719537735,0.0017190601211041212,-0.03278835490345955,-0.02599717676639557,0.05177868902683258,0.1046580821275711,-0.028759896755218506,0.0374373197555542,0.01790737919509411,-0.04231664165854454,-0.011294569820165634,-0.012803435325622559,0.05185805633664131,0.00512517848983407,-0.05521482974290848,-0.03206218406558037,-0.02003917470574379,-0.0004385405336506665,-0.01454017125070095,0.05664080008864403,0.005429416429251432,0.015524952672421932,-0.07842086255550385,-0.03846460208296776,-0.08577484637498856,0.06839074194431305,0.08272673189640045,-0.005840974394232035,-0.035469330847263336,-0.013928038068115711,-0.0005482652923092246,-0.0641937106847763,-0.10005354136228561,-0.08559039980173111,-0.03139719367027283,-0.02291206456720829,-0.007606116123497486,-0.040034908801317215,-0.022467533126473427,0.016937624663114548,-0.03818703442811966,0.008664565160870552,-0.046170346438884735,0.050450704991817474,0.01728154346346855,-0.08516062051057816,-0.05041737109422684,0.02359289675951004,0.0973360538482666,-0.11638054251670837,0.05665411055088043,-0.06107661873102188,-0.0031477967277169228,0.03386176377534866,0.11882636696100235,0.041419144719839096,-0.07488486915826797,0.014403635635972023,-0.057853762060403824,0.040721166878938675,0.07733195275068283,0.016330324113368988,0.06407662481069565,0.04883348569273949,-0.04113372415304184,0.09054017066955566,-0.044972557574510574,-0.08945802599191666,0.0729966014623642,0.010288793593645096,-0.015914686024188995,0.02981494925916195,0.10188093781471252,0.02776702679693699,0.07962209731340408,0.049961771816015244,0.01348491758108139,-0.05142791196703911,0.050353191792964935,0.022302161902189255,-0.0020860263612121344,0.06869550049304962,-0.06296883523464203,0.11559230834245682,0.031828928738832474,0.05934353545308113,0.0061871507205069065,0.010727480053901672,-0.03372034803032875,0.043170493096113205,0.050051432102918625,-0.05747317150235176,0.031520552933216095,-0.0169841218739748,0.09935573488473892,-0.005503812339156866,-0.012850032187998295,0.03890860825777054,0.1100318655371666,-0.09820421785116196,-0.06764280050992966,0.02222914807498455,0.043581098318099976,0.11440157145261765,-0.024709191173315048,0.15978571772575378,-0.07558293640613556,0.074020154774189,0.019387174397706985,0.017106736078858376,-0.017481278628110886,0.017873503267765045,0.0021236820612102747,-0.005253924522548914,-0.02394171431660652,-0.022920792922377586,0.1007813811302185,0.019927192479372025,-0.04511487856507301,-0.008314907550811768,0.009196113795042038,0.02298683300614357,0.018447743728756905,-0.013534477911889553
aserbaidschan,-0.01747928187251091,-0.029822224751114845,0.08761898428201675,-0.059632666409015656,0.044952671974897385,-0.10150251537561417,0.10006030648946762,0.00468085752800107,0.12455827742815018,-0.037326063960790634,0.008916480466723442,-0.003831848269328475,-0.12666743993759155,0.04637555778026581,-0.04905074089765549,-0.0324222594499588,-0.09541153907775879,0.023240264505147934,-0.006000626366585493,0.05361891910433769,0.03776930645108223,0.0894135907292366,0.07836899161338806,-0.03975173085927963,0.000540421751793474,0.016531286761164665,-0.08850320428609848,0.01411357894539833,0.06294151395559311,-0.09088370949029922,0.061600759625434875,-0.017471900209784508,0.0020670194644480944,-0.05345551297068596,-0.004019483923912048,0.05841623246669769,0.00505739264190197,-0.034805722534656525,0.04711021110415459,-0.03118230774998665,0.008271457627415657,-0.06402653455734253,0.017062854021787643,0.044575970619916916,-0.0847916454076767,-0.0017500569811090827,-0.019638167694211006,0.06373775005340576,-0.08037769049406052,-0.016375796869397163,-0.05256953835487366,0.003300928045064211,0.05197141692042351,-0.08228051662445068,0.005368292331695557,0.001985002774745226,-0.03643358498811722,0.035130903124809265,-0.0018762295367196202,-0.09775813668966293,0.057119160890579224,0.021901311352849007,0.010856260545551777,0.03125997632741928,0.05355469882488251,0.008069071918725967,0.061085399240255356,0.034360371530056,-0.07002900540828705,-0.000577346479985863,-0.02940278686583042,-0.004712908528745174,-0.009727719239890575,0.04839058965444565,0.020716814324259758,0.027140773832798004,-0.05932288244366646,-0.016493652015924454,0.01013095211237669,-0.02327735722064972,0.13760480284690857,-0.0756673514842987,0.004777872934937477,-0.003718302585184574,-0.020948076620697975,0.062161944806575775,-0.0005005422863177955,0.053457409143447876,-0.048525724560022354,0.03022063709795475,0.07043807953596115,0.03847771883010864,0.0350877046585083,0.06474281847476959,-0.014513499103486538,-0.03677951171994209,-0.03911098092794418,-0.10318941622972488,0.028885457664728165,-0.027378173545002937,0.034160565584897995,-0.00823262520134449,0.07794954627752304,0.013641882687807083,-0.10392890125513077,-0.0493292361497879,0.13042299449443817,-0.0705098956823349,-0.13569611310958862,0.088251993060112,0.002299552783370018,0.08229248970746994,0.023582160472869873,-0.020686673000454903,0.05964713543653488,-0.04629920423030853,0.1085941419005394,-0.03399417921900749,0.08188523352146149,0.16179844737052917,0.009917016141116619,-0.023133432492613792,-0.025988688692450523,0.02960270456969738,-0.03250274062156677,0.03853524848818779,0.020902257412672043,0.02627253346145153,0.04117578640580177,0.07047577947378159,0.04500016197562218,0.06239749863743782,-0.07900960743427277,-0.11069118976593018,-0.03639386594295502,0.03919905424118042,-0.057520657777786255,0.01753661036491394,0.08129959553480148,0.09200678020715714,0.04769183322787285,0.022187581285834312,0.024218250066041946,0.012648158706724644,0.049968354403972626,0.017573779448866844,-0.0012196594616398215,0.0625702440738678,0.05106020346283913,-0.0236265417188406,0.034481730312108994,-0.0253817830234766,-0.024913089349865913,-0.012921353802084923,0.027278680354356766,0.017687153071165085,0.05343575030565262,-0.0015168702229857445,-0.09333246946334839,-0.07293134182691574,-0.07236635684967041,-0.07846961915493011,0.011289875023066998,0.0344940684735775,0.022949019446969032,-0.03980717062950134,0.08583077788352966,-0.040323518216609955,0.08486770838499069,0.03977850452065468,-0.007947107776999474,0.05416375771164894,-0.07290583848953247,-0.024283921346068382,-0.04109857231378555,-0.11568674445152283,0.06153742969036102,-0.011372952722012997,0.002442708006128669,-0.05082916095852852,0.0706837922334671,0.1133522167801857,-0.053953979164361954,-0.003234101692214608,-0.01623304933309555,-0.01778031326830387,-0.04963574931025505,-0.029995547607541084,0.006629331037402153,-0.03486669436097145,-0.05673745274543762,0.007206762675195932,-0.029928850010037422,-0.006628872361034155,-0.053192753344774246,0.07072150707244873,0.046364057809114456,0.0008536907844245434,-0.04033554717898369,-0.031745702028274536,-0.07170578837394714,-0.0016321534058079123,0.06281012296676636,0.05510460212826729,-0.06089210882782936,0.032280661165714264,0.008704788982868195,-0.005951874423772097,-0.12940485775470734,-0.11383109539747238,-0.05578652769327164,0.0008962191641330719,-0.0009945811470970511,-0.078183114528656,-0.021362483501434326,-0.000497204833664,-0.06497608125209808,-0.015449115075170994,-0.047917429357767105,0.027441680431365967,0.05732283368706703,-0.059589460492134094,-0.03564612939953804,0.0010764157632365823,0.06304135918617249,-0.10330869257450104,0.08989827334880829,-0.01172608695924282,-0.00592090655118227,0.0024723473470658064,0.05561807006597519,0.03269736096262932,-0.08787941932678223,-0.0020931183826178312,-0.0446937158703804,-0.00921381451189518,0.027460072189569473,0.08438679575920105,0.04916110262274742,0.05929659679532051,-0.05815513804554939,0.11242152005434036,-0.017590727657079697,-0.09435202181339264,0.10489235818386078,0.0643535852432251,-0.027935655787587166,0.055970098823308945,0.05040586367249489,-0.008740851655602455,0.13970862329006195,0.03318187966942787,0.022378385066986084,-0.01386540848761797,0.003371224971488118,0.033408258110284805,-0.07653551548719406,0.0945349708199501,-0.08849628269672394,0.08765161782503128,0.015806321054697037,0.05158413574099541,-0.007685073185712099,0.032847218215465546,-0.11557863652706146,0.03767958655953407,0.052952032536268234,-0.040457941591739655,0.037226442247629166,0.008619461208581924,0.10355865210294724,0.0241923276335001,0.009034824557602406,-0.04495818912982941,0.10534439980983734,-0.07120984047651291,-0.052629176527261734,0.0011922516860067844,0.11674878001213074,0.035238273441791534,-0.02195682004094124,0.18621526658535004,-0.08688429743051529,0.033875301480293274,0.06324482709169388,0.04356154426932335,-0.003699716180562973,-0.04942628741264343,-0.05568046495318413,0.012943565845489502,0.0025584674440324306,-0.10769214481115341,0.14905154705047607,0.06193799152970314,-0.040427085012197495,0.037573836743831635,0.008053685538470745,0.004233839455991983,0.03417196497321129,-0.07225881516933441
äthiopien,-0.022333519533276558,-0.05525687709450722,-0.024063941091299057,-0.04918034002184868,-0.01603109948337078,-0.08143942803144455,0.039452970027923584,0.09224385023117065,0.06542295962572098,-0.03809208795428276,-0.07814809679985046,0.012445353902876377,0.006099717225879431,-0.008030476979911327,-0.09405506402254105,-0.03588523715734482,0.0540301613509655,0.040909070521593094,-0.053236376494169235,-0.035544708371162415,0.0033660801127552986,0.0032218589913100004,0.057623233646154404,-0.019333025440573692,-0.022802092134952545,0.09269645065069199,-0.014440476894378662,0.0009748509037308395,0.04160492867231369,0.015575835481286049,0.051149893552064896,-0.024950362741947174,0.0732233077287674,0.04424072802066803,0.0007735702092759311,-0.03256922960281372,0.027645884081721306,0.03812045231461525,0.07108981162309647,-0.025308217853307724,-0.01419573649764061,0.008081911131739616,-0.029387716203927994,-0.060828983783721924,-0.05194950848817825,0.028502516448497772,-0.05448322370648384,0.06490586698055267,0.013119693845510483,0.014424837194383144,-0.10219366103410721,0.0501985102891922,-0.07859689742326736,-0.021273603662848473,0.023451287299394608,0.030022593215107918,-0.10462255030870438,0.08492719382047653,0.019174035638570786,-0.10873664170503616,-0.039503179490566254,0.003363474505022168,0.017131196334958076,-0.04023826867341995,0.023749779909849167,0.07215001434087753,0.041411422193050385,-0.045917194336652756,0.083063505589962,0.0372469387948513,-0.026230931282043457,-0.007534955628216267,-0.014989791437983513,-0.035797324031591415,0.023756010457873344,0.009182295762002468,-0.02571289613842964,0.07598292082548141,-0.0571618415415287,-0.07406333088874817,0.041192807257175446,0.03983441740274429,-0.04638219624757767,-0.13257627189159393,-0.03593091294169426,0.09545930474996567,0.016829408705234528,0.0609799325466156,0.005790875293314457,0.0347374752163887,-0.04429022595286369,-0.009805582463741302,-0.06522011011838913,0.010785170830786228,0.03975880146026611,0.07591073215007782,0.04669451713562012,-0.027771707624197006,0.04640422388911247,-0.1061645969748497,0.0019166272832080722,0.0944407656788826,0.07575954496860504,0.05248288810253143,-0.00310730654746294,0.017744582146406174,0.08507101237773895,0.11150359362363815,-0.018483998253941536,0.012344557791948318,0.0863572433590889,0.033636726438999176,0.011182325892150402,0.012987255118787289,-0.0067300754599273205,-0.037919219583272934,-0.08708786964416504,-0.11101017892360687,-0.04135621339082718,0.08505772799253464,0.01426716148853302,-0.08041510730981827,-0.02427108958363533,0.054271284490823746,0.0520566888153553,0.022956805303692818,0.031170083209872246,-0.019031215459108353,0.02273521199822426,0.15321345627307892,0.051061905920505524,-0.002200826071202755,-0.07203438878059387,-0.005112897139042616,-0.046395398676395416,0.04432380944490433,-0.09780339151620865,-0.005364586599171162,0.08178375661373138,0.08371062576770782,0.013055209070444107,0.02365054562687874,0.04888257011771202,0.04410703480243683,0.05300793796777725,-0.08434136211872101,0.05880439281463623,0.04265826568007469,-0.07155948877334595,-0.04013846814632416,-0.04069192707538605,0.048124801367521286,0.0487995371222496,-0.021968431770801544,-0.029202183708548546,-0.0052462355233728886,-0.0447588711977005,0.04358609765768051,0.10545254498720169,-0.015298550017178059,-0.006936704274266958,0.033886875957250595,-0.005199667066335678,0.07783050835132599,-0.0678202360868454,-0.0977618545293808,-0.13959689438343048,-0.0014366109389811754,0.027533382177352905,-0.0033376142382621765,0.08005163818597794,0.014336257241666317,0.007870553061366081,0.06811510771512985,-0.003945724107325077,0.011850477196276188,-0.07513275742530823,-0.007689987774938345,0.01642240583896637,0.029294975101947784,-0.0033718745689839125,-0.030536411330103874,0.016929535195231438,0.03954266756772995,0.05482468754053116,-0.05295652523636818,0.13656392693519592,-0.004351348616182804,-0.017678236588835716,-0.08737380802631378,-0.03749927133321762,0.0508476123213768,-0.0020499916281551123,0.037306733429431915,0.059823669493198395,-0.023865653201937675,-0.03331946209073067,-0.039723142981529236,0.00197491399012506,0.07384173572063446,-0.0757441371679306,0.09001122415065765,0.05274486169219017,0.0686328113079071,-0.01903901807963848,-0.03819674998521805,-0.013637390919029713,0.01175757311284542,-0.043687641620635986,-0.10595423728227615,0.04913761094212532,-0.018194084987044334,0.014751750975847244,0.10386453568935394,-0.033329643309116364,0.010956981219351292,-0.07093806564807892,0.04497920349240303,0.05578625574707985,-0.1341506987810135,0.01900862716138363,-0.022718053311109543,-0.07070951908826828,-0.03184649348258972,0.03296060860157013,-0.055895980447530746,-0.05725349858403206,-0.09639013558626175,0.03666681796312332,0.0034629309084266424,0.0639093890786171,-0.004950001370161772,-0.11429446190595627,0.07576967030763626,0.00962089467793703,-0.04117451608181,-0.019903820008039474,0.11982778459787369,0.03579876944422722,0.03320261836051941,-0.029500575736165047,0.08526164293289185,-0.027128571644425392,-0.22696223855018616,0.1398068368434906,-0.04813525080680847,-0.032510433346033096,0.02001384273171425,0.12572768330574036,0.06254543364048004,0.15192121267318726,-0.07839884608983994,0.03938206657767296,-0.0107649527490139,-0.017681851983070374,0.20142129063606262,0.013435859233140945,0.00029895215993747115,-0.03813255578279495,-0.05773276090621948,-0.09331776946783066,-0.03328322246670723,0.008390383794903755,-0.00453305896371603,0.04571766406297684,-0.06741540879011154,0.10235356539487839,0.026359273120760918,-0.015265311114490032,-0.0026171260979026556,0.03506012260913849,-0.04221366345882416,-0.031235335394740105,-0.0731467679142952,-0.01672394759953022,-0.04574419558048248,-0.029027024284005165,-0.0034309958573430777,-0.03806149959564209,0.022583812475204468,-0.02814323455095291,-0.08824332803487778,0.041765451431274414,0.05414799600839615,0.07269582152366638,-0.01935047097504139,0.031856611371040344,0.007776199374347925,0.03528007119894028,-0.020680315792560577,0.11856366693973541,-0.034736696630716324,0.0365164689719677,-0.04764082282781601,0.07264624536037445,0.057735372334718704,-0.014362908899784088,0.019077375531196594,-0.04832958057522774,-0.012858077883720398
australien,-0.06051693484187126,-0.012137051671743393,0.005240676458925009,-0.005244758911430836,0.1457560509443283,-0.07768847048282623,0.03197735548019409,0.0804498940706253,0.07194902747869492,-0.03246046602725983,-0.006669546011835337,-0.022533809766173363,-0.025209756568074226,-0.13817696273326874,0.05431800335645676,0.09268290549516678,0.060024164617061615,-0.037731289863586426,-0.028610199689865112,0.0544995553791523,0.011671192944049835,-0.003118978114798665,0.06039808318018913,-0.03856700286269188,-0.09706468880176544,-0.002210536040365696,-0.12509624660015106,0.016216564923524857,0.12218531221151352,-0.006619935855269432,-0.05238878354430199,-0.00531166885048151,0.06413189321756363,-0.0459560826420784,-0.05571174994111061,0.00709422817453742,-0.09524363279342651,-0.048460785299539566,0.030394304543733597,0.02632519043982029,0.006470013409852982,0.07138883322477341,-0.0327267125248909,0.13009421527385712,-0.03236009180545807,0.02059423364698887,-0.045682892203330994,0.08920647948980331,0.009439774788916111,-0.03994511440396309,-0.029140213504433632,0.02414557710289955,-0.04860404506325722,0.029449187219142914,0.0351724810898304,0.16362427175045013,-0.09502987563610077,-0.07622192054986954,0.017617490142583847,0.02233395166695118,-0.02582801692187786,-0.049552273005247116,-0.002849799580872059,-0.0026755917351692915,0.024729374796152115,0.07527080923318863,-0.01743888109922409,-0.009612932801246643,-0.0970139428973198,0.10010232776403427,0.030399776995182037,-0.09454596787691116,-0.06376396119594574,-0.03895269334316254,0.10950182378292084,0.011680648662149906,0.05241762474179268,0.033486783504486084,-0.03507079929113388,-0.039312005043029785,0.12101788818836212,0.04642372578382492,-0.027801794931292534,-0.04519309103488922,0.012723952531814575,-0.043651048094034195,-0.15786176919937134,0.03424089029431343,-0.08576302975416183,0.014003723859786987,0.06695998460054398,-0.019924020394682884,-0.0515134260058403,-0.02027158997952938,0.017594698816537857,-0.006194667425006628,0.01659672148525715,-0.032030750066041946,-0.0072089252062141895,0.03607427328824997,0.06525781005620956,-0.014563522301614285,-0.12299530953168869,-0.1183653250336647,-0.0022507242392748594,-0.032225966453552246,0.024939751252532005,0.0687832310795784,0.02407156489789486,0.007276145741343498,-0.07217053323984146,0.04592150077223778,-0.06434555351734161,0.07637915760278702,0.0009559366153553128,0.10624509304761887,0.06877730786800385,-0.10205497592687607,-0.04831451177597046,-0.011445394717156887,0.04545808956027031,-0.06390517950057983,-0.025156008079648018,-0.017290234565734863,-0.07823877781629562,0.03325950354337692,0.05009276047348976,-0.012584964744746685,0.0657309889793396,0.02867642417550087,-0.013854358345270157,-0.03197662532329559,-0.0316835455596447,0.043482713401317596,-0.0788407176733017,-0.01885271817445755,-0.06738951802253723,0.0406460277736187,0.016805777326226234,0.06706599146127701,0.04658368602395058,0.056334488093853,-0.002888261806219816,-0.05859564617276192,0.061339352279901505,-0.02329850010573864,0.07085628062486649,0.050219837576150894,0.02816612459719181,-0.10353834927082062,0.007619218900799751,0.03823007643222809,0.11103367060422897,0.0017035302007570863,0.002614750759676099,-7.784341869410127e-05,-0.03900200128555298,-0.015193718485534191,-0.011947629041969776,-0.021917376667261124,-0.03239092230796814,-0.17372624576091766,-0.0586596243083477,-0.10947492718696594,-0.04849736765027046,0.07300230860710144,-0.0332903116941452,0.0590081661939621,0.12041226029396057,0.05815127491950989,0.06699816137552261,0.021465396508574486,-0.03659498691558838,0.008633552119135857,-0.025540217757225037,0.01188693381845951,-0.015399882569909096,-0.004680984187871218,-0.03212914243340492,-0.07054290175437927,0.03367573395371437,0.04032735899090767,0.04140692949295044,-0.0677090436220169,3.897010537912138e-05,0.05399172753095627,0.03779316321015358,-0.033015161752700806,-0.038973793387413025,-0.10046480596065521,0.01406109519302845,-0.023310882970690727,-0.08316463232040405,0.007079666014760733,-0.04550319164991379,0.0206429585814476,-0.05834683030843735,0.1026078462600708,-0.07691638171672821,-0.020585620775818825,-0.006688971538096666,0.07073792815208435,-0.04367498308420181,0.1078602522611618,0.047110363841056824,0.002898531500250101,0.04916887730360031,0.008689080365002155,-0.022550908848643303,-0.011731147766113281,0.03063620999455452,-0.0231386236846447,0.048416897654533386,0.010060415603220463,0.08905506134033203,0.03437522426247597,-0.099159836769104,-0.03991362079977989,-0.013337156735360622,0.05920470505952835,0.0875561386346817,0.009286836721003056,-0.07796884328126907,-7.357729919021949e-05,0.035471443086862564,-0.012808995321393013,-0.04344666004180908,-0.0977434292435646,-0.12499439716339111,0.03975139558315277,0.12100518494844437,0.09467664361000061,-0.08756296336650848,-0.012509286403656006,-0.05819683521986008,0.09290072321891785,-0.07191652059555054,0.08583765476942062,0.01748586818575859,-0.02555650658905506,0.06491114944219589,-0.03333578631281853,-0.01024634763598442,0.006509430706501007,0.06208476424217224,-0.009682322852313519,0.07480620592832565,0.09885133802890778,0.024787427857518196,0.0493895597755909,-0.02601640485227108,-0.02488885074853897,0.11381035298109055,0.030184801667928696,0.0497167594730854,0.030412476509809494,-0.09450070559978485,0.042841363698244095,0.03548343479633331,-0.08153853565454483,-0.045850276947021484,-0.00145879911724478,0.03273879736661911,0.019483273848891258,-0.037113431841135025,-0.0035443308297544718,0.08086590468883514,0.01843206211924553,0.03184318542480469,0.016848713159561157,-0.06170709431171417,-0.019910089671611786,-0.010836247354745865,-0.053916845470666885,0.08693935722112656,-0.12337419390678406,-0.008430726826190948,0.029950140044093132,-0.013396990485489368,-0.05289958044886589,0.012938011437654495,-0.0020947870798408985,-0.026957625523209572,-0.06558889150619507,0.006600093096494675,0.03556982800364494,0.019262872636318207,0.05157240107655525,-0.014430438168346882,-0.0019115651957690716,0.12691038846969604,-0.02133834920823574,0.054604385048151016,0.0016471123090013862,0.03243059292435646,-0.02150540240108967,-0.061913471668958664,0.009197407402098179,-0.05608350783586502,0.023569397628307343
bangladesch,-0.005798491649329662,0.010233879089355469,0.135769784450531,-0.02034441940486431,0.043424200266599655,-0.019190199673175812,0.014830764383077621,0.027248412370681763,-0.01551478449255228,-0.040385760366916656,-0.029518671333789825,-0.06383835524320602,0.017221683636307716,-0.009033859707415104,-0.022213393822312355,-0.038354676216840744,-0.003833700902760029,0.06881178170442581,0.013250974006950855,-0.02399751916527748,0.018666671589016914,0.04598353058099747,0.10950969904661179,-0.0824146568775177,0.046653471887111664,0.0912601426243782,-0.03397386893630028,-0.0021113932598382235,0.004951774142682552,-0.03405294939875603,0.016665102913975716,0.06050831079483032,0.0599198155105114,-0.06797347962856293,0.049052782356739044,0.05350759997963905,-0.08278097212314606,-0.07814330607652664,0.06489913910627365,-0.01514711044728756,-0.04054917022585869,0.11483905464410782,-0.056020740419626236,0.05282330885529518,-0.01175762340426445,0.000559453503228724,-0.05838620662689209,-0.055374450981616974,0.12594272196292877,-0.07838702201843262,-0.07857788354158401,0.1001458689570427,-0.0319116935133934,0.0051858434453606606,0.0866369754076004,0.038316719233989716,-0.04319645091891289,0.13367527723312378,0.11091700941324234,0.030451973900198936,-0.012448348104953766,-0.08633094280958176,0.03583499789237976,-0.014731183648109436,-0.09110286086797714,0.08095569908618927,0.004403811879456043,-0.11669641733169556,0.09088913351297379,-0.0737600177526474,-0.06600449979305267,-0.014021194539964199,0.1555498093366623,-0.04931916669011116,0.04132019728422165,-0.0037472336553037167,0.01901363767683506,0.056116245687007904,-0.021258404478430748,-0.0027957959100604057,0.06307211518287659,0.0557156503200531,-0.11592215299606323,0.007478083483874798,0.036871228367090225,0.04107138141989708,-0.07911720126867294,0.020853431895375252,0.011631645262241364,0.02251095324754715,-0.08353419601917267,0.06889564543962479,-0.041732821613550186,-0.008403340354561806,0.035575345158576965,0.017656197771430016,-0.06874404847621918,-0.006038788706064224,0.012384744361042976,-0.008052284829318523,0.06791645288467407,-0.010991133749485016,0.04375602304935455,0.07032150775194168,-0.032821085304021835,-0.04407182335853577,0.09743913263082504,0.04223623126745224,0.009099596180021763,0.008414709940552711,0.014306807890534401,0.09129290282726288,-0.05214597284793854,-0.007222056854516268,-0.07152801752090454,-0.009041325189173222,-0.02743806131184101,-0.09575650840997696,-0.09771090745925903,-0.04254843294620514,-0.05336469039320946,-0.013047575950622559,-0.05017634481191635,-0.07798518240451813,0.011082795448601246,-0.018225328996777534,-0.04332965984940529,0.04868819937109947,0.04047384858131409,0.03072318248450756,0.03512280061841011,0.05531909689307213,0.01839316636323929,-0.08987344056367874,0.0023652585223317146,-0.027295365929603577,0.029110826551914215,0.05309467762708664,0.06623996794223785,0.05532659962773323,0.07930905371904373,-0.04078122600913048,0.0020666581112891436,0.019640691578388214,0.011153025552630424,-0.11729686707258224,0.027652030810713768,0.023447608575224876,-0.010674772784113884,-0.07762165367603302,0.023747537285089493,0.07748708873987198,0.10400326550006866,0.01257019117474556,0.012049427255988121,-0.040177833288908005,-0.002833968261256814,-0.038309842348098755,0.047078557312488556,-0.08232295513153076,-0.07457594573497772,-0.07044725865125656,-0.054503463208675385,0.022312136366963387,-0.07891743630170822,-0.022898437455296516,0.011035624891519547,0.03152872994542122,0.037563078105449677,-0.005704497452825308,0.027499422430992126,0.008025391958653927,0.04988403990864754,-0.0075934878550469875,-0.005772680975496769,-0.08732761442661285,-0.09854472428560257,-0.03209223225712776,0.14441333711147308,-0.04354141280055046,-0.02886047214269638,-0.0017439658986404538,-0.04659799858927727,-0.005735835526138544,-0.024709558114409447,-0.012656154111027718,0.05943528935313225,0.027064204216003418,-0.005299115553498268,-0.10241719335317612,0.001854616915807128,-0.007838868536055088,0.005567269865423441,0.005887679290026426,0.04874784126877785,-0.1101062148809433,-0.05178403481841087,-0.008968424052000046,-0.11341051757335663,-0.03237396106123924,0.016013050451874733,0.05589102953672409,-0.008011149242520332,0.03698955848813057,0.014389748685061932,-0.028127852827310562,0.04873046651482582,-0.08960890024900436,0.02948591113090515,-0.05794365331530571,-0.04337474703788757,0.0310189388692379,0.04326196014881134,-0.03222242370247841,0.03748916834592819,-0.014941854402422905,-0.003834020346403122,0.01691613718867302,0.008802901953458786,0.009229528717696667,0.04406774789094925,-0.07219679653644562,-0.1092248484492302,-0.020409811288118362,0.0436488538980484,-0.09963735193014145,-0.017218519002199173,-0.060242533683776855,0.030487101525068283,0.047654662281274796,0.008641380816698074,0.029953042045235634,0.012392460368573666,0.018331212922930717,0.02486666664481163,0.04801073297858238,-0.10027746111154556,-0.008721035905182362,0.04058784246444702,-0.05774521827697754,-0.08755612373352051,0.008465620689094067,-0.11384893208742142,-0.047497186809778214,-0.025384359061717987,0.10019887238740921,-0.01498913299292326,0.03981713205575943,0.034464072436094284,0.0729750394821167,0.0955260768532753,-0.09402169287204742,0.03270088881254196,-0.012432968243956566,-0.03500977158546448,0.13444513082504272,-0.0030457607936114073,0.02855844795703888,-0.1119803637266159,-0.024982361122965813,-0.05940184369683266,0.0471978634595871,0.024432236328721046,-0.054080430418252945,-0.1053863912820816,-0.14750072360038757,0.017896534875035286,0.03130973130464554,-0.03616352379322052,0.09585887938737869,0.06525204330682755,0.07137228548526764,-0.06895274668931961,-0.03808638080954552,-0.04522176459431648,-0.032834623008966446,-0.1238168403506279,0.00546457152813673,0.10854782909154892,0.04537113383412361,0.02625271864235401,-0.04709114134311676,0.15398114919662476,0.09164641052484512,-0.043538644909858704,-0.06712912768125534,0.00024566150386817753,0.030957212671637535,-0.016657816246151924,0.014896299690008163,0.10179335623979568,-0.0022733828518539667,-0.11296544224023819,-0.09613573551177979,0.017437411472201347,0.008796422742307186,0.025737451389431953,0.0046989875845611095,-0.046378713101148605,0.03120393306016922
belarus,0.027889521792531013,-0.02888656035065651,0.16491612792015076,0.07377004623413086,0.13526387512683868,-0.07210154831409454,0.05900050327181816,0.08426065742969513,0.03245890885591507,-0.05871172994375229,-0.06975699216127396,0.01882595382630825,-0.05645447224378586,-0.048440515995025635,0.010212453082203865,0.04903668165206909,-0.0920737013220787,0.0066335443407297134,0.026378201320767403,-0.03472280874848366,-0.020057376474142075,0.13515879213809967,0.06738746166229248,0.03912292420864105,-0.012333721853792667,0.043169453740119934,-0.048729557543992996,-0.006806149147450924,-0.039601873606443405,0.07304313778877258,-0.013265037909150124,0.03881823271512985,0.010824932716786861,-0.09395328164100647,-0.054026637226343155,0.12703834474086761,0.014663299545645714,0.014920951798558235,0.010857950896024704,0.0316070094704628,-0.030113928020000458,0.10826943814754486,-0.008651255629956722,0.039363205432891846,-0.06169562414288521,0.008885927498340607,-0.017653852701187134,0.10916423052549362,-0.0027765778359025717,0.10680372267961502,0.06864818930625916,0.03267216682434082,0.004235685337334871,-0.06426221132278442,0.016032272949814796,0.08315170556306839,-0.05514993518590927,0.00595523277297616,-0.04367734491825104,0.04947911575436592,-0.005822739098221064,-0.14912255108356476,-0.05358843505382538,-0.08164363354444504,0.026575367897748947,-0.017832105979323387,-0.09058799594640732,-0.03651072829961777,-0.0216805599629879,-0.032398421317338943,0.0727817639708519,-0.04023057967424393,-0.08255120366811752,0.06629551947116852,-0.011619464494287968,0.005568648222833872,-0.008271990343928337,-0.11272910237312317,0.04269038140773773,-0.047319602221250534,0.047888632863759995,0.05993248522281647,0.05991997942328453,-0.04822935163974762,0.039420194923877716,-0.009401860646903515,0.004279003478586674,0.11121673882007599,0.0014755397569388151,0.053879495710134506,-0.029302304610610008,-0.034707922488451004,-0.008980960585176945,-0.06708599627017975,-0.07933211326599121,0.0023737200535833836,0.01371100265532732,-0.06254635006189346,0.04564069211483002,-0.11146242171525955,0.011318767443299294,0.051657307893037796,0.008134746924042702,-0.08183226734399796,-0.01959441788494587,0.026699423789978027,-0.034497424960136414,0.05685878172516823,-0.029847776517271996,0.034598443657159805,-0.013900571502745152,0.024848446249961853,0.04608530178666115,0.004552988801151514,0.001113526290282607,-0.02899809181690216,0.04191811755299568,-0.006407143082469702,-0.056996189057826996,0.04242529720067978,0.000911833718419075,0.022802619263529778,-0.04527130350470543,0.08865966647863388,-0.028381209820508957,0.0011005150154232979,-0.05554904788732529,0.042589668184518814,-0.018853172659873962,0.15224729478359222,0.0879942774772644,0.11202941834926605,-0.022533155977725983,-0.05766988545656204,-0.10649768263101578,-0.05688793212175369,-0.012546706944704056,0.15498170256614685,-0.009748348034918308,0.07410519570112228,-0.01957264542579651,0.05857963487505913,0.022084882482886314,0.07904168218374252,-0.0246124267578125,-0.12344013154506683,-0.0014138480182737112,0.004874102305620909,-0.05029553547501564,-0.007903902791440487,-0.03784685209393501,-0.03216352313756943,0.05292365327477455,-0.08552812784910202,-0.005418755114078522,-0.003659769892692566,0.04150957986712456,0.00022116809850558639,-0.07509331405162811,0.012017160654067993,-0.00021575311257038265,0.08028968423604965,0.07804456353187561,-0.04173760488629341,0.050801243633031845,0.04541044682264328,0.06095316261053085,0.06167567893862724,0.09877191483974457,-0.03784428909420967,0.0866798684000969,0.08142014592885971,-0.03465583175420761,0.011332881636917591,0.04488638788461685,0.01379668153822422,-0.014204399660229683,-0.08490972220897675,-0.06685980409383774,-0.08342569321393967,-0.08028968423604965,0.04302835464477539,-0.03913625702261925,0.07070627063512802,0.0677984431385994,-0.05357916280627251,0.04014185816049576,-0.10774141550064087,-0.11053162068128586,0.04431205987930298,-0.04928440973162651,0.07754334062337875,-0.04425569623708725,0.052354421466588974,-0.014354497194290161,0.0023354561999440193,-0.07953926920890808,0.022549083456397057,-0.026745092123746872,0.020767508074641228,-0.07400830835103989,0.08307135850191116,-0.00606372207403183,0.05447087436914444,-0.004834477324038744,-0.007928604260087013,0.011882969178259373,0.005525913555175066,-0.09395568817853928,-0.08563265949487686,0.04915478453040123,0.05770432949066162,-0.0007440345943905413,0.06607140600681305,-0.05591144785284996,0.0716092586517334,-0.046351347118616104,0.017977718263864517,-0.025625495240092278,-0.05153719335794449,-0.09100416302680969,-0.020568769425153732,0.003939811140298843,0.00931630004197359,0.015741832554340363,-0.01390601322054863,0.05352631211280823,-0.00854957289993763,-0.023776914924383163,0.010776319541037083,0.0746142566204071,0.05605567991733551,-0.04070575162768364,-0.02763674594461918,-0.0031272955238819122,0.02297136001288891,0.011329037137329578,-0.06733356416225433,-0.0005392766324803233,0.07999169081449509,-0.035504572093486786,-0.027814967557787895,0.0016734087839722633,-0.10281571000814438,0.09008174389600754,0.06748756021261215,0.010487792082130909,0.009096472524106503,0.0850033387541771,-0.021542448550462723,0.12222690880298615,-0.029204802587628365,0.05134022235870361,0.006815634667873383,0.14609141647815704,-0.06909660249948502,0.01648641750216484,0.0928049087524414,0.04737289994955063,0.12047138065099716,-0.06784645467996597,0.06340115517377853,-0.06748738139867783,0.004977215081453323,-0.07682497799396515,0.06428470462560654,-0.004019933752715588,-0.05708739161491394,-0.03700702637434006,-0.004590893164277077,0.032732732594013214,0.009727085940539837,0.0679989755153656,-0.06312146037817001,0.015850430354475975,-0.12691761553287506,-0.05071035772562027,-0.10493441671133041,0.05556115135550499,0.01067917887121439,-0.0010838793823495507,-0.02284187823534012,-0.03764546662569046,-0.11175203323364258,0.04730721190571785,0.03504431992769241,0.009868048131465912,-0.06185990571975708,0.028857149183750153,0.0594751350581646,0.0006497476133517921,0.02370789274573326,0.0052710301242768764,-0.01110710296779871,0.030810894444584846,0.01229150127619505,-0.011395850218832493,0.009563096798956394,0.03504220396280289,-0.07109712809324265
belgien,-0.014734826982021332,-0.02852443978190422,0.024343356490135193,-0.043509237468242645,0.04568972438573837,-0.044830240309238434,0.05996619537472725,-0.013300045393407345,0.10355030000209808,-0.07807233184576035,-0.04059278592467308,-0.06619307398796082,-0.03160170093178749,0.05072075501084328,-0.058769989758729935,-0.024817654862999916,-0.07895268499851227,0.07678379863500595,-0.10298889875411987,0.04400431364774704,-0.017170500010252,0.05070964992046356,0.016384262591600418,0.04715697839856148,-0.10069841146469116,0.02793230675160885,-0.006022572051733732,0.0071952203288674355,0.03109387494623661,0.003758147591724992,0.02111291140317917,-0.05198178067803383,-0.10050967335700989,0.029905401170253754,-0.08074887096881866,-0.049922164529561996,-0.02034590393304825,-0.07285551726818085,0.15061010420322418,-0.05352243781089783,-0.015505351126194,-0.058157071471214294,0.06361628323793411,0.1727607697248459,-0.004839587956666946,-0.03352993354201317,-0.0450630784034729,0.0036467432510107756,-0.006494543515145779,-0.09074243158102036,0.01986483484506607,-0.03907972201704979,-0.06259989738464355,0.07613005489110947,0.006404101848602295,0.06125827506184578,-0.20924748480319977,-0.013683713041245937,0.05755514279007912,-0.02963552437722683,0.011184850707650185,-0.1091075986623764,0.05428159981966019,-0.020806092768907547,0.01072964072227478,-0.004490246996283531,-0.05965428426861763,-0.017085855826735497,-0.011732607148587704,0.05646275728940964,-0.027590738609433174,-0.005683715920895338,0.0127776013687253,-0.0486917607486248,0.07911399006843567,0.05842354893684387,0.0030012691859155893,0.007101304363459349,0.06074736267328262,-0.08515214174985886,0.0517556294798851,0.02009955793619156,0.010775357484817505,0.008081735111773014,0.02421692945063114,0.12638115882873535,8.93725809874013e-05,0.0004639196558855474,0.0042879958637058735,-0.007567505817860365,-0.06605324894189835,-0.02194080501794815,-0.018728896975517273,0.0340864472091198,0.05532123148441315,-0.020823273807764053,0.02188412845134735,-0.0071599604561924934,0.06889203190803528,-0.02404586225748062,0.015268176794052124,0.0718064159154892,-0.10120280832052231,-0.14035291969776154,-0.09956882894039154,-0.053686585277318954,0.1634993702173233,0.12391617894172668,0.030780188739299774,-0.05299658328294754,0.04327388107776642,0.009544159285724163,0.00453557213768363,0.026300663128495216,-0.014382182620465755,-0.013629301451146603,0.033316854387521744,-0.03691336512565613,0.0015292500611394644,-0.054288703948259354,0.06443153321743011,-0.04076477512717247,-0.09226582944393158,0.07311466336250305,0.009147078730165958,0.0693601593375206,-0.01122262328863144,-0.0311417393386364,-0.008484136313199997,0.08360425382852554,0.1000964567065239,0.1363362818956375,0.04023117572069168,-0.052004750818014145,-0.020945986732840538,0.005359589587897062,-0.05817921832203865,0.057515911757946014,0.1135646253824234,0.0640648603439331,0.07765115052461624,-0.1002563089132309,0.061015784740448,-0.04310419410467148,0.09575851261615753,-0.03253632411360741,0.0006789705366827548,0.029835516586899757,-0.03954145684838295,-0.024759702384471893,-0.014989901334047318,-0.011469782330095768,0.04802809655666351,0.06548775732517242,0.04280858486890793,0.029925167560577393,-0.0036708847619593143,0.05689014494419098,0.040120065212249756,0.04163079336285591,0.07043968886137009,-0.08859436959028244,0.004260153044015169,0.01797494664788246,-0.08162090182304382,0.0479867085814476,-0.06459223479032516,0.04868847876787186,-0.034527529031038284,0.0431499145925045,0.07814539968967438,-0.029105477035045624,-0.04367194324731827,0.01654227264225483,-0.07299397885799408,-0.08638043701648712,0.013662882149219513,0.035265274345874786,0.0374014712870121,-0.03853995352983475,0.04378664121031761,0.007597221061587334,-0.01059481967240572,-0.0859241932630539,0.042372751981019974,-0.008411151356995106,-0.08555569499731064,-0.021508237347006798,-0.05099676549434662,0.0033594765700399876,0.05393344908952713,-0.016401272267103195,-0.0992097407579422,-0.10160592198371887,-0.003575576702132821,0.02143329568207264,-0.03238917887210846,0.07181985676288605,-0.09920747578144073,-0.09222797304391861,-0.14215005934238434,0.06508661061525345,0.04806213080883026,0.015112152323126793,-0.02363155223429203,0.003446828108280897,-0.06867537647485733,-0.08201580494642258,-0.026109594851732254,-0.05776334926486015,-0.021167544648051262,-0.01086979079991579,-0.09127764403820038,0.040848638862371445,0.0680665448307991,0.01791425421833992,0.023595497012138367,-0.026609662920236588,-0.038422297686338425,-0.0342414416372776,0.04209621995687485,0.06115022301673889,-0.018263956531882286,0.058992862701416016,0.09193406999111176,0.022199561819434166,-0.021795624867081642,-0.08233263343572617,-0.08226074278354645,0.08473902940750122,0.00033135144622065127,0.049931228160858154,-0.009733298793435097,-0.010910142213106155,-0.039347946643829346,0.015031404793262482,-0.03402097523212433,-0.028504207730293274,-0.06527159363031387,-0.04333636537194252,-0.03407853841781616,-0.008346762508153915,-0.049677830189466476,-0.031181106343865395,0.057240039110183716,0.010195641778409481,0.0554724745452404,0.024763591587543488,-0.00013299605052452534,0.03153443709015846,-0.01596859283745289,0.046856001019477844,0.054103173315525055,0.06458255648612976,-0.04347807541489601,0.10998284816741943,-0.0379519909620285,0.008217703551054,0.03978360816836357,-0.05255170539021492,0.006792507134377956,-0.022928424179553986,0.029415706172585487,-0.06852157413959503,-0.02976372092962265,-0.08557262271642685,0.07307162880897522,0.01641033962368965,-0.004283935762941837,-0.06454598158597946,-0.06990328431129456,0.017806725576519966,-0.0032746794167906046,-0.04986753314733505,0.0943957269191742,-0.14370493590831757,-0.012215206399559975,0.07745585590600967,0.03899979218840599,0.0016646801959723234,0.12183837592601776,-0.0027574929408729076,-0.0018696896731853485,0.05260704457759857,0.048526033759117126,0.08258140832185745,-0.09874196350574493,0.021885903552174568,0.04990613833069801,-0.0273432694375515,0.07168353348970413,-0.04297845438122749,-0.044813383370637894,0.09147552400827408,0.014407839626073837,-0.008685929700732231,0.011804252862930298,-0.06842109560966492,0.08087867498397827,0.015599321573972702
bosnien_und_herzegowina,0.06546595692634583,0.05336849391460419,0.08282318711280823,-0.04314305633306503,0.09679468721151352,-0.05791349336504936,0.03581397607922554,0.06362778693437576,-0.04549899324774742,0.0666993111371994,-0.05629265680909157,-0.054240018129348755,-0.08721859753131866,0.010226432234048843,0.010665967129170895,0.014922386035323143,-0.09628037363290787,0.04867613688111305,-0.016350893303751945,-0.05062621086835861,0.023943983018398285,0.017372671514749527,-0.06237597018480301,0.01753254607319832,0.005336001515388489,-0.006821984425187111,-0.11742475628852844,-0.0769924744963646,-0.058589059859514236,-0.07451281696557999,0.10257250815629959,0.01705043762922287,-0.057214826345443726,0.00019923610670957714,0.028700632974505424,-0.010028193704783916,0.020403563976287842,-0.0430474691092968,-0.0336497500538826,-0.037949517369270325,-0.0288783460855484,-0.07988712191581726,-0.06203509494662285,-0.020891528576612473,-0.09459090977907181,0.10016949474811554,-0.029401496052742004,0.08108855783939362,-0.052336469292640686,-0.013305304571986198,-0.03271850571036339,0.02633860893547535,0.09530685096979141,0.07090224325656891,-0.054761357605457306,0.010052734054625034,-0.015831731259822845,0.025905277580022812,-0.024002132937312126,0.07269968092441559,0.06102009117603302,-0.051152586936950684,-0.08917531371116638,-0.021784979850053787,0.017508886754512787,-0.09954088926315308,-0.06817425787448883,-0.046716563403606415,0.06877972930669785,-0.013966480270028114,0.009312835521996021,-0.03380926325917244,0.012211667373776436,-0.03512899950146675,0.11277996003627777,0.026073575019836426,-0.0031097177416086197,0.02562406286597252,-0.04564686492085457,-0.058163195848464966,-0.017022958025336266,0.0025032912380993366,-0.03813272342085838,-0.044810641556978226,0.0705367922782898,-0.004314879886806011,-0.03835311532020569,-0.1032266765832901,-0.06338229030370712,0.07535594701766968,0.038203831762075424,-0.0396575964987278,-0.014187503606081009,0.0031033598352223635,-0.07674795389175415,0.08013126254081726,-0.03772773593664169,-0.019230466336011887,-0.001369181671179831,-0.10413063317537308,-0.11668410152196884,0.008891191333532333,0.03738488256931305,0.008249271661043167,0.0008550215279683471,0.03841595724225044,0.05225123465061188,-0.014239581301808357,-0.05173436924815178,0.06422064453363419,-0.040130820125341415,-0.00444578705355525,0.07833335548639297,0.025380361825227737,0.03302774205803871,0.04059895500540733,-0.0029494527261704206,0.036385711282491684,-0.05577545240521431,-0.024029145017266273,-0.00445220060646534,0.08873333781957626,-0.07240701466798782,0.14754284918308258,0.01603000983595848,0.03211068734526634,0.0252830870449543,-0.06555196642875671,0.012225544080138206,0.06770548224449158,0.12001395970582962,-0.00041657843394204974,-0.04941760003566742,-0.0823337510228157,0.03253338113427162,-0.006306212395429611,-0.03585130721330643,0.02591557800769806,0.06999267637729645,0.12055422365665436,0.0762060210108757,-0.00811731070280075,0.028624285012483597,0.006754359230399132,0.08720291405916214,0.027700074017047882,0.06941350549459457,-0.04458079859614372,-0.0036820480599999428,0.07897134125232697,-0.15380674600601196,0.036344680935144424,0.0026936933863908052,-0.007755735423415899,-0.06855355948209763,0.04385273531079292,0.00688696326687932,-0.046544160693883896,0.06533397734165192,-0.057007744908332825,0.04800000041723251,0.06808120012283325,0.029342135414481163,-0.07290767133235931,-0.0005888041923753917,0.038733843713998795,0.008891214616596699,-0.023253928869962692,0.03179120272397995,0.02144298329949379,0.06336980313062668,0.13044312596321106,0.005318960640579462,0.07547341287136078,0.012188531458377838,-0.015339654870331287,0.010724198073148727,-0.05994196981191635,-0.03457792475819588,-0.04019783064723015,0.02941962517797947,-0.03058600425720215,0.03682416304945946,0.033264484256505966,-0.009973268955945969,-0.19337065517902374,0.14026811718940735,-0.08179747313261032,-0.0791429802775383,-0.08256051689386368,-0.05676151439547539,-0.005515244789421558,0.05951791629195213,0.056119054555892944,0.03555302321910858,-0.06046806648373604,0.024646108970046043,-0.017267096787691116,-0.06152648106217384,-0.012228017672896385,-0.0935618132352829,-0.05302070826292038,-0.04891452565789223,0.0006364937289617956,-0.017338523641228676,-0.03630935400724411,-0.03098277375102043,-0.003800499252974987,-0.05760028958320618,-0.11951048672199249,0.03507503494620323,-0.04272342473268509,0.003673696657642722,-0.006848483812063932,0.03372469171881676,0.029337631538510323,0.053613532334566116,0.0451696515083313,-0.0008513068314641714,-0.014812099747359753,0.02949376218020916,-0.10161171853542328,-0.03164339065551758,0.017871471121907234,0.07515157759189606,0.027148816734552383,0.06771431118249893,-0.010785032995045185,0.0796143040060997,0.11318396031856537,-0.01306616235524416,0.035000745207071304,-0.043700121343135834,-0.03219118341803551,-0.0018123959889635444,-0.06962405145168304,-0.03477511927485466,0.10325238853693008,0.004851612262427807,-0.023914236575365067,-0.002944609150290489,0.09164518862962723,-0.009821340441703796,-0.09935455769300461,0.013145709410309792,0.062016576528549194,0.100702665746212,0.028224166482686996,0.037842344492673874,-0.036375947296619415,0.06700727343559265,-0.052043646574020386,-0.0025874616112560034,-0.018212921917438507,0.027418382465839386,0.047552213072776794,-0.011839997954666615,-0.018925074487924576,-0.0902714878320694,0.04660715535283089,-0.12221407145261765,0.028042595833539963,-0.05789193883538246,-0.07160604000091553,-0.013711152598261833,0.011138846166431904,-0.05396394059062004,-0.005968878045678139,0.09139852970838547,0.05803944915533066,0.06634758412837982,0.11978856474161148,-0.12250504642724991,-0.014804943464696407,-0.04770384356379509,-0.08360130339860916,0.0511326901614666,0.045326363295316696,-0.01208131667226553,-0.0011571041541174054,-0.003338039619848132,-0.03596918657422066,-0.09014897793531418,-0.0077989306300878525,0.07582511007785797,-0.03564434126019478,0.014188637025654316,-0.09330106526613235,0.029981378465890884,-0.06575661897659302,0.08723099529743195,-0.12044475227594376,0.0851878821849823,-0.015883665531873703,-0.056228455156087875,-0.031157735735177994,-0.07752805203199387,0.047494228929281235,-0.017121512442827225,-0.10571343451738358
brasilien,-0.006268446799367666,-0.044903188943862915,-0.04950914904475212,-0.06115763261914253,0.1444638967514038,-0.06116737052798271,0.04008825123310089,0.013500673696398735,0.03768997639417648,-0.045106176286935806,0.01547524519264698,-0.01768752746284008,-0.05430980771780014,-0.02917230874300003,-0.11344359815120697,0.025125334039330482,0.01270882785320282,0.02176632545888424,0.014174223877489567,0.07705345749855042,-0.09008077532052994,0.047855131328105927,0.05695866793394089,-0.07081359624862671,0.05522923171520233,0.06279296427965164,0.011495653539896011,-0.03498281538486481,0.0990571454167366,-0.0190039724111557,-0.025199076160788536,0.013677162118256092,0.012423328123986721,-0.07259853929281235,-0.054908718913793564,0.011447681114077568,-0.05314312502741814,-0.004609997384250164,0.07702471315860748,0.0380752757191658,-0.06901877373456955,-0.016970887780189514,0.06402216106653214,0.04181087389588356,0.09209387004375458,0.018647195771336555,-0.06983817368745804,-0.0023658175487071276,0.0607714019715786,-0.04191354662179947,-0.050192296504974365,0.03206441551446915,0.02575206570327282,0.06308602541685104,0.08913445472717285,-0.019250834360718727,-0.10244656354188919,0.049698635935783386,0.012270103208720684,0.012386064976453781,-0.08486228436231613,-0.07088897377252579,-0.037326205521821976,0.08437585830688477,-0.03371841460466385,-0.006172626744955778,0.004490821156650782,0.0006116185104474425,0.0028734314255416393,0.021060826256871223,0.06764090061187744,0.008679507300257683,0.036945804953575134,0.052526336163282394,-0.04868864268064499,0.0459858700633049,0.023638807237148285,0.008820455521345139,0.02530750259757042,-0.01685977913439274,0.10206256061792374,0.029582953080534935,0.042535364627838135,-0.03384346887469292,-0.021990984678268433,-0.014536592178046703,-0.028657393530011177,-0.0398528091609478,0.03567931428551674,0.06165875494480133,-0.036982908844947815,-0.027269626036286354,-0.050021227449178696,0.06594178080558777,-0.0650298222899437,-0.06985712051391602,0.0031435375567525625,-0.127680242061615,0.03864141181111336,-0.04541979730129242,0.11142797768115997,0.057689882814884186,-0.019600536674261093,0.09323067963123322,0.0009145925869233906,-0.04112608730792999,0.1313546746969223,-0.05199369415640831,-0.009698615409433842,-0.018934808671474457,-0.02884015627205372,0.053843747824430466,0.09846494346857071,-0.12109872698783875,-0.02651933580636978,-0.014331703074276447,0.01717246323823929,-0.03607984632253647,-0.05458604171872139,-0.0641481950879097,-0.09521757066249847,0.0025709408801048994,-0.050658516585826874,-0.07447271049022675,0.10271985083818436,-0.03166613727807999,-0.015271609649062157,0.02290901355445385,0.002845186274498701,0.11477666348218918,0.018143171444535255,0.04450457915663719,-0.02791059948503971,0.0029407250694930553,-0.017042238265275955,-0.03292914852499962,0.011994940228760242,0.08189977705478668,0.13807758688926697,0.08416572958230972,0.03663218766450882,0.1228114664554596,0.10268380492925644,0.0075164251029491425,0.1253383457660675,-0.06994108110666275,-0.029656914994120598,0.02938152849674225,-0.08203745633363724,-0.09357860684394836,0.014855580404400826,0.08586552739143372,-0.019826270639896393,0.02944633737206459,-0.06582993268966675,-0.0730624720454216,-0.017709307372570038,0.0487452894449234,-0.03668919950723648,-0.07153769582509995,0.06846323609352112,-0.07774796336889267,0.07934567332267761,-0.03280971199274063,-0.08041449636220932,0.12728719413280487,-0.04420015215873718,-0.03643757477402687,0.10016532242298126,0.052890192717313766,0.020751580595970154,0.06977728754281998,-0.05656231567263603,-0.013539238832890987,-0.07980793714523315,-0.10296482592821121,0.01613769307732582,0.028476037085056305,-0.0008369875722564757,-0.022019151598215103,0.05411233752965927,-0.02105872333049774,0.011475619859993458,0.010122235864400864,0.01120300404727459,0.06173671782016754,0.009442092850804329,-0.15030939877033234,0.01582702063024044,-0.07649194449186325,-0.12446169555187225,0.06067311018705368,-0.04970916733145714,0.03466073423624039,-0.08145710080862045,0.024445952847599983,-0.01252051256597042,0.025759803131222725,-0.014506813138723373,-0.012084320187568665,0.06262829899787903,-0.024043511599302292,0.039623040705919266,0.05977470055222511,0.0063020470552146435,0.06138389930129051,0.023322241380810738,0.08182108402252197,0.07260449975728989,-0.01796104572713375,0.032548874616622925,-0.019354941323399544,0.05012201890349388,0.11649617552757263,-0.06450844556093216,0.10573861002922058,-0.015527867712080479,-0.046789105981588364,-0.06505513936281204,-0.022969601675868034,0.08280353993177414,-0.026531176641583443,0.041592855006456375,0.015950476750731468,0.14027228951454163,-0.07330700755119324,-0.01087475661188364,0.007668738719075918,-0.019907791167497635,0.05901985242962837,0.01711495965719223,0.10123054683208466,-0.08119098097085953,0.02325179986655712,0.018566440790891647,-0.014141163788735867,-0.07953162491321564,0.027121659368276596,-0.01463766023516655,-0.10253787785768509,-0.04683394730091095,0.03125202655792236,-0.014558246359229088,-0.042856715619564056,0.05514392629265785,0.05906371772289276,-0.032090481370687485,-0.016845636069774628,-0.04748322814702988,-0.017152193933725357,-0.059845004230737686,-0.01625230722129345,-0.04285259172320366,0.05193251371383667,0.08176416903734207,0.09801524132490158,-0.043122898787260056,0.06058531254529953,0.07708558440208435,-0.05017741769552231,0.030126366764307022,0.0013664610451087356,0.0005283368518576026,0.066818006336689,-0.06448270380496979,0.02499798871576786,0.053062889724969864,0.07978504151105881,-0.015853533521294594,0.094357430934906,-0.015393877401947975,0.04998229816555977,0.02447292022407055,0.03371622785925865,0.08583620935678482,-0.10806383937597275,-0.0125881377607584,-0.0034586547408252954,0.06476323306560516,-0.02749822475016117,-0.008444608189165592,0.011439068242907524,-0.08461807668209076,-0.04964528977870941,-0.010899556800723076,0.0627334713935852,0.06200137734413147,0.03752150014042854,0.012864643707871437,-0.05247656628489494,0.0915268138051033,0.008389357477426529,0.05010276660323143,0.042132992297410965,0.03969477862119675,0.043436676263809204,0.08849187195301056,0.056857600808143616,-0.0501733236014843,-0.0992710292339325
