Country,Vectordimension_0,Vectordimension_1,Vectordimension_2,Vectordimension_3,Vectordimension_4,Vectordimension_5,Vectordimension_6,Vectordimension_7,Vectordimension_8,Vectordimension_9,Vectordimension_10,Vectordimension_11,Vectordimension_12,Vectordimension_13,Vectordimension_14,Vectordimension_15,Vectordimension_16,Vectordimension_17,Vectordimension_18,Vectordimension_19,Vectordimension_20,Vectordimension_21,Vectordimension_22,Vectordimension_23,Vectordimension_24,Vectordimension_25,Vectordimension_26,Vectordimension_27,Vectordimension_28,Vectordimension_29,Vectordimension_30,Vectordimension_31,Vectordimension_32,Vectordimension_33,Vectordimension_34,Vectordimension_35,Vectordimension_36,Vectordimension_37,Vectordimension_38,Vectordimension_39,Vectordimension_40,Vectordimension_41,Vectordimension_42,Vectordimension_43,Vectordimension_44,Vectordimension_45,Vectordimension_46,Vectordimension_47,Vectordimension_48,Vectordimension_49,Vectordimension_50,Vectordimension_51,Vectordimension_52,Vectordimension_53,Vectordimension_54,Vectordimension_55,Vectordimension_56,Vectordimension_57,Vectordimension_58,Vectordimension_59,Vectordimension_60,Vectordimension_61,Vectordimension_62,Vectordimension_63,Vectordimension_64,Vectordimension_65,Vectordimension_66,Vectordimension_67,Vectordimension_68,Vectordimension_69,Vectordimension_70,Vectordimension_71,Vectordimension_72,Vectordimension_73,Vectordimension_74,Vectordimension_75,Vectordimension_76,Vectordimension_77,Vectordimension_78,Vectordimension_79,Vectordimension_80,Vectordimension_81,Vectordimension_82,Vectordimension_83,Vectordimension_84,Vectordimension_85,Vectordimension_86,Vectordimension_87,Vectordimension_88,Vectordimension_89,Vectordimension_90,Vectordimension_91,Vectordimension_92,Vectordimension_93,Vectordimension_94,Vectordimension_95,Vectordimension_96,Vectordimension_97,Vectordimension_98,Vectordimension_99,Vectordimension_100,Vectordimension_101,Vectordimension_102,Vectordimension_103,Vectordimension_104,Vectordimension_105,Vectordimension_106,Vectordimension_107,Vectordimension_108,Vectordimension_109,Vectordimension_110,Vectordimension_111,Vectordimension_112,Vectordimension_113,Vectordimension_114,Vectordimension_115,Vectordimension_116,Vectordimension_117,Vectordimension_118,Vectordimension_119,Vectordimension_120,Vectordimension_121,Vectordimension_122,Vectordimension_123,Vectordimension_124,Vectordimension_125,Vectordimension_126,Vectordimension_127,Vectordimension_128,Vectordimension_129,Vectordimension_130,Vectordimension_131,Vectordimension_132,Vectordimension_133,Vectordimension_134,Vectordimension_135,Vectordimension_136,Vectordimension_137,Vectordimension_138,Vectordimension_139,Vectordimension_140,Vectordimension_141,Vectordimension_142,Vectordimension_143,Vectordimension_144,Vectordimension_145,Vectordimension_146,Vectordimension_147,Vectordimension_148,Vectordimension_149,Vectordimension_150,Vectordimension_151,Vectordimension_152,Vectordimension_153,Vectordimension_154,Vectordimension_155,Vectordimension_156,Vectordimension_157,Vectordimension_158,Vectordimension_159,Vectordimension_160,Vectordimension_161,Vectordimension_162,Vectordimension_163,Vectordimension_164,Vectordimension_165,Vectordimension_166,Vectordimension_167,Vectordimension_168,Vectordimension_169,Vectordimension_170,Vectordimension_171,Vectordimension_172,Vectordimension_173,Vectordimension_174,Vectordimension_175,Vectordimension_176,Vectordimension_177,Vectordimension_178,Vectordimension_179,Vectordimension_180,Vectordimension_181,Vectordimension_182,Vectordimension_183,Vectordimension_184,Vectordimension_185,Vectordimension_186,Vectordimension_187,Vectordimension_188,Vectordimension_189,Vectordimension_190,Vectordimension_191,Vectordimension_192,Vectordimension_193,Vectordimension_194,Vectordimension_195,Vectordimension_196,Vectordimension_197,Vectordimension_198,Vectordimension_199,Vectordimension_200,Vectordimension_201,Vectordimension_202,Vectordimension_203,Vectordimension_204,Vectordimension_205,Vectordimension_206,Vectordimension_207,Vectordimension_208,Vectordimension_209,Vectordimension_210,Vectordimension_211,Vectordimension_212,Vectordimension_213,Vectordimension_214,Vectordimension_215,Vectordimension_216,Vectordimension_217,Vectordimension_218,Vectordimension_219,Vectordimension_220,Vectordimension_221,Vectordimension_222,Vectordimension_223,Vectordimension_224,Vectordimension_225,Vectordimension_226,Vectordimension_227,Vectordimension_228,Vectordimension_229,Vectordimension_230,Vectordimension_231,Vectordimension_232,Vectordimension_233,Vectordimension_234,Vectordimension_235,Vectordimension_236,Vectordimension_237,Vectordimension_238,Vectordimension_239,Vectordimension_240,Vectordimension_241,Vectordimension_242,Vectordimension_243,Vectordimension_244,Vectordimension_245,Vectordimension_246,Vectordimension_247,Vectordimension_248,Vectordimension_249,Vectordimension_250,Vectordimension_251,Vectordimension_252,Vectordimension_253,Vectordimension_254,Vectordimension_255,Vectordimension_256,Vectordimension_257,Vectordimension_258,Vectordimension_259,Vectordimension_260,Vectordimension_261,Vectordimension_262,Vectordimension_263,Vectordimension_264,Vectordimension_265,Vectordimension_266,Vectordimension_267,Vectordimension_268,Vectordimension_269,Vectordimension_270,Vectordimension_271,Vectordimension_272,Vectordimension_273,Vectordimension_274,Vectordimension_275,Vectordimension_276,Vectordimension_277,Vectordimension_278,Vectordimension_279,Vectordimension_280,Vectordimension_281,Vectordimension_282,Vectordimension_283,Vectordimension_284,Vectordimension_285,Vectordimension_286,Vectordimension_287,Vectordimension_288,Vectordimension_289,Vectordimension_290,Vectordimension_291,Vectordimension_292,Vectordimension_293,Vectordimension_294,Vectordimension_295,Vectordimension_296,Vectordimension_297,Vectordimension_298,Vectordimension_299
afghanistan,0.05789393186569214,0.009374916553497314,0.1203516498208046,-0.08415441960096359,0.06856020539999008,0.005007621366530657,0.024127833545207977,0.11686065793037415,0.06142175942659378,0.015093613415956497,-0.01823500357568264,-0.06444305181503296,-0.03524916246533394,0.0813552588224411,0.004362213425338268,-0.06640371680259705,0.012526355683803558,-0.008911537937819958,-0.021140452474355698,-0.024156367406249046,0.02613862417638302,0.06218899041414261,0.024461233988404274,0.041195403784513474,-0.045311711728572845,0.0045495107769966125,-0.04798479750752449,0.04822513461112976,0.013020039536058903,-0.1263733059167862,-0.028408749029040337,0.0041287424974143505,-0.01066798996180296,-0.019878661260008812,0.032763317227363586,0.056244660168886185,0.015006817877292633,-0.08213953673839569,-0.04561752453446388,-0.009797458536922932,0.050156183540821075,0.01643502153456211,-0.083254374563694,0.06674196571111679,-0.05749323219060898,0.030852412804961205,0.024518907070159912,-0.04725585877895355,0.06925752013921738,0.034755174070596695,-0.016025695949792862,0.07267127931118011,0.00664671091362834,0.06901142746210098,0.08390136063098907,0.06695082783699036,-0.04449683055281639,0.0894310474395752,0.03385047987103462,0.007946218363940716,-0.06343253701925278,-0.1144212856888771,-0.08529108762741089,-0.054339516907930374,0.0541062094271183,0.018706239759922028,-0.0895720049738884,0.012567435391247272,0.04134659841656685,0.10731346160173416,0.10104142874479294,-0.002249085810035467,0.041751470416784286,0.0033659639302641153,0.09110337495803833,0.006895625498145819,-0.06803922355175018,0.06823179870843887,0.048476845026016235,0.000550480792298913,0.0763712078332901,-0.03828483819961548,-0.04940743371844292,0.08514648675918579,0.14640069007873535,0.02512865886092186,-0.04089619964361191,0.05670443922281265,0.04649294167757034,0.01433205883949995,0.026631582528352737,0.05637244135141373,-0.03548002243041992,0.04197545722126961,-0.06281689554452896,0.0601189061999321,0.05148547142744064,-0.007907385006546974,0.01650991477072239,0.01611957512795925,-0.03498145937919617,0.07177473604679108,0.003004110185429454,0.11237800866365433,0.016198655590415,-0.05375717580318451,0.13940158486366272,-0.024371618404984474,-0.05495432764291763,0.0482005774974823,-0.06258198618888855,-0.063784159719944,0.12095461785793304,0.046515826135873795,-0.06921543926000595,0.07390404492616653,-0.10272043198347092,-0.012095985934138298,-0.02288832888007164,0.01845700666308403,-0.08727305382490158,-0.03747105598449707,0.06482986360788345,-0.007579341065138578,0.026327170431613922,0.07367687672376633,0.02248954586684704,-0.034358683973550797,0.05350654572248459,0.08648542314767838,0.03053404949605465,0.023866860195994377,-0.14413218200206757,-0.10623962432146072,-0.05127239227294922,0.05027163401246071,-0.02479243278503418,-0.026959814131259918,0.049348361790180206,0.00857421662658453,-0.08682701736688614,-0.06324364989995956,-0.01999599300324917,0.021266134455800056,0.012501143850386143,-0.06592081487178802,-0.01848415844142437,0.039438094943761826,-0.009896749630570412,0.03884796053171158,0.03992600739002228,0.04185941815376282,-0.014432811178267002,0.03474003076553345,0.06043647974729538,-0.012450732290744781,0.024242177605628967,-0.020799415186047554,0.03769300878047943,-0.05094454064965248,-0.0642252042889595,-0.017033537849783897,0.019208932295441628,-0.009450124576687813,-0.08210037648677826,0.004395682364702225,-0.024068471044301987,-0.05555041879415512,0.03129756450653076,0.01114716473966837,0.03439936414361,0.14493539929389954,0.004781899508088827,0.06567579507827759,-0.0248422734439373,-0.09515582770109177,0.03375218063592911,-0.09022675454616547,0.056913334876298904,-0.040604911744594574,-0.0028407690115273,0.017141954973340034,0.048834264278411865,0.13381369411945343,0.033053621649742126,0.022398458793759346,0.08706340193748474,0.0015365381259471178,-0.04715277999639511,-0.07252033799886703,-0.06434427946805954,-0.040326546877622604,-0.015545565634965897,0.04694060608744621,0.06973277032375336,-0.07855996489524841,-0.02981002815067768,0.06163022294640541,-0.13240067660808563,-0.05691017583012581,-0.08782661706209183,0.060867682099342346,0.000175511886482127,0.03176185488700867,-0.009205264039337635,-0.03892922401428223,0.059338588267564774,-0.10169677436351776,-0.04238061606884003,-0.02428237721323967,0.013008762151002884,0.007768708746880293,-0.04524032771587372,-0.057188764214515686,0.00043717175140045583,0.12880097329616547,0.004505059216171503,0.020581385120749474,0.10534428805112839,-0.08158236742019653,-0.024831771850585938,-0.05108446255326271,-0.10621550679206848,-0.07100886106491089,-0.010934904217720032,-0.027810096740722656,-0.05787089839577675,-0.07661794871091843,0.05204055830836296,0.015326080843806267,-0.043059371411800385,0.11535342782735825,-0.08042650669813156,-0.04829370230436325,0.01648242399096489,-0.03358329460024834,0.04424597695469856,0.02365303598344326,0.14807845652103424,-0.012885413132607937,0.007306861691176891,0.05322353169322014,-0.07180887460708618,-0.05923205986618996,-0.07661768049001694,0.04818698391318321,-0.003482767380774021,-0.07731001824140549,0.04870307818055153,-0.01912968046963215,0.033553220331668854,0.04067797213792801,-0.022537250071763992,0.04284678399562836,0.02570263296365738,0.09617888927459717,0.09820137172937393,-0.026492441073060036,-0.04487184062600136,0.021680379286408424,-0.02084449864923954,0.0717150941491127,-0.031001178547739983,-0.022629965096712112,-0.05534025654196739,0.0741778165102005,0.08205225318670273,0.03095618262887001,0.042698781937360764,-0.053683437407016754,0.13283772766590118,-0.008113211952149868,-0.04699723795056343,-0.09152960777282715,-0.05903990566730499,-0.04549292102456093,-0.06724266707897186,0.02125818096101284,0.03346343711018562,3.166187525494024e-05,0.053967274725437164,0.05924242362380028,0.04804064705967903,0.03086462803184986,0.06190180033445358,-0.0986810028553009,0.022684171795845032,0.021258022636175156,0.010664633475244045,-0.01440614927560091,0.057625506073236465,-0.03128731995820999,0.03572512045502663,-0.02878376469016075,-0.009301447309553623,0.008413603529334068,0.005390191450715065,0.07978946715593338,-0.001628235331736505,-0.12419803440570831
ägypten,-0.006238579750061035,-0.03278649225831032,0.0047956062480807304,0.046135347336530685,0.05561302974820137,-0.030874762684106827,0.058340735733509064,0.0033248222898691893,0.1455589383840561,-0.12311980873346329,0.05936597287654877,0.021671799942851067,0.009321545250713825,0.001970120472833514,-0.00047152608749456704,0.06198630481958389,-0.10436614602804184,0.018827835097908974,0.035696279257535934,0.07572630047798157,-0.04201450198888779,0.051051557064056396,-0.09083583205938339,-0.08837238699197769,0.05511320382356644,0.0564601831138134,-0.044378623366355896,-0.02573937177658081,0.012312026694417,-0.046322938054800034,0.015781354159116745,-0.00197209301404655,-0.11568301916122437,-0.022217676043510437,0.0581483393907547,-0.11330845952033997,-0.06906311213970184,0.010832603089511395,-0.010415410622954369,0.07335663586854935,0.04855687543749809,0.04963776841759682,0.08944094181060791,0.03178693354129791,0.02641437016427517,0.016309829428792,-0.039583295583724976,-0.047143448144197464,-0.09006776660680771,-0.029474062845110893,0.006065257824957371,0.1167542040348053,0.006918699946254492,0.043169695883989334,0.041878748685121536,0.02668352983891964,-0.022228404879570007,-0.044743604958057404,-0.00608638022094965,-0.0716455802321434,-0.04781926050782204,-0.022972922772169113,0.08176161348819733,-0.021438641473650932,-0.008795318193733692,0.03757616877555847,0.09616784006357193,-0.04410874843597412,-0.06188170239329338,0.006246625911444426,-0.05194159224629402,-0.02401902712881565,0.0994519591331482,0.01917712576687336,0.12450756132602692,0.07820869237184525,0.016403071582317352,-0.013250610791146755,0.03950544819235802,-0.03679486736655235,0.019277354702353477,0.02857767604291439,0.10119646042585373,0.020089754834771156,0.02631274051964283,-0.10341644287109375,-0.012977839447557926,0.14657016098499298,-0.03393113613128662,-0.017488529905676842,-0.04705421254038811,0.09756424278020859,-0.03530028462409973,0.016276799142360687,-0.10100855678319931,-0.08566336333751678,0.013558479957282543,0.01007646881043911,0.026937488466501236,-0.05339747294783592,-0.00797299575060606,0.09768353402614594,0.019585536792874336,0.01166826207190752,-0.042711835354566574,-0.011821603402495384,0.13040666282176971,-0.016723381355404854,-0.06813757121562958,0.0038013863377273083,0.03383202478289604,0.0033472965005785227,0.09978630393743515,0.06473075598478317,-0.026607315987348557,-0.01108381524682045,0.12791834771633148,-0.08470265567302704,-0.0030788688454777002,-0.022950375452637672,-0.08626957982778549,0.010597428306937218,-0.04609961807727814,0.0031806936021894217,0.05769618973135948,0.00653328001499176,-0.004153832793235779,0.04794974997639656,0.06696562469005585,0.10594166815280914,0.033535849303007126,0.052938491106033325,-0.04318652302026749,-0.018160836771130562,-0.07278192043304443,0.012932311743497849,-0.1254456639289856,0.06404801458120346,0.03480300307273865,0.05727287381887436,-0.048219162970781326,0.017817601561546326,-0.01471101026982069,0.09368263930082321,0.06306669861078262,-0.01689242757856846,0.013369566760957241,0.04678322747349739,-0.009631182998418808,-0.08107500523328781,-0.060883212834596634,0.007820948027074337,0.05140753462910652,0.06275484710931778,-0.007203999906778336,0.04071030020713806,-0.033917177468538284,0.03331170976161957,0.02591153420507908,0.07886236906051636,0.011040511541068554,-0.10328429937362671,0.06692364811897278,0.027533799409866333,-0.042737871408462524,-0.015361861325800419,0.0327787846326828,0.03307278826832771,0.09010306000709534,-0.04013044759631157,0.09148091822862625,0.07605694979429245,-0.0576668344438076,-0.027869267389178276,-0.05315396562218666,-0.03470294922590256,-0.06100708991289139,-0.05476447939872742,0.04238467290997505,-0.10446857661008835,-0.013391486369073391,0.0795290619134903,0.04624102637171745,0.07656202465295792,0.03886016458272934,-0.05052206292748451,0.04742196202278137,-0.08866731822490692,-0.021803684532642365,-0.11490224301815033,-0.027392830699682236,-0.05027955397963524,-0.08535390347242355,-0.055528268218040466,-0.0176994651556015,0.003334406530484557,-0.04213729128241539,0.07013185322284698,-0.06166741997003555,0.006509336642920971,-0.0059919715858995914,0.07147985696792603,0.007486208342015743,-0.009009473025798798,0.061135005205869675,-0.006742123048752546,-0.012370515614748001,-0.08374278247356415,-0.05264217406511307,-0.007938852533698082,0.0016382761532440782,-0.0030762148089706898,0.012295751832425594,0.05086371675133705,-0.06603837013244629,-0.035451147705316544,-0.006830217316746712,0.0007756606210023165,0.09816737473011017,-0.021321197971701622,0.006719939410686493,0.0049084024503827095,0.007568631786853075,-0.02066648192703724,0.11798087507486343,-0.060895103961229324,-0.12783153355121613,-0.13099074363708496,0.009161010384559631,0.06694580614566803,0.07884059846401215,-0.019318046048283577,-0.0003470029914751649,0.0968562513589859,0.010716279037296772,0.010641597211360931,0.014170175418257713,0.08907266706228256,0.1285821944475174,-0.02594497799873352,-0.006382687017321587,0.014861552976071835,-0.05604368448257446,-0.09642979502677917,0.10708578675985336,0.05511583387851715,0.015462636016309261,0.07894240319728851,-0.0035115673672407866,0.03466800972819328,0.09228888154029846,0.07593248784542084,-0.02705545909702778,-0.02270045131444931,-0.038372769951820374,0.1582057774066925,0.04517482593655586,0.09040673077106476,0.0053133172914385796,-0.039546336978673935,-0.06526029855012894,0.02376864105463028,0.04257960245013237,-0.007768956013023853,-0.019534913823008537,0.06337852776050568,0.07942160964012146,0.05312695354223251,-0.009703351184725761,-0.04103139787912369,0.03210073336958885,0.024412957951426506,0.027943208813667297,-0.03315247595310211,0.08188103139400482,0.08309277147054672,-0.051264937967061996,-0.03374429792165756,0.020286444574594498,0.06315147131681442,-0.021636079996824265,-0.025121279060840607,-0.035167574882507324,0.15810100734233856,-0.036125726997852325,-0.03235728666186333,0.08883155137300491,0.04376107081770897,-0.036557089537382126,0.03145135939121246,0.031363971531391144,-0.08971190452575684,0.037546224892139435,0.015341539867222309,-0.028114596381783485,0.03896908834576607,-0.04624391719698906,0.0006114443531259894,0.010445578955113888,-0.027974504977464676
albanien,0.11626140773296356,0.08366672694683075,-0.042665258049964905,-0.10083048045635223,0.024132540449500084,-0.02024105191230774,0.1207183226943016,0.03171110525727272,0.015981581062078476,-0.05528147146105766,-0.03287649154663086,-0.10036300867795944,0.01093145739287138,0.009806087240576744,0.01924712397158146,0.049807269126176834,-0.025955919176340103,-0.0629115179181099,-0.005886852275580168,0.05075455456972122,-0.03660707548260689,-0.0082802539691329,0.05105572193861008,-0.008451342582702637,0.014687969349324703,0.014615003950893879,-0.0192381851375103,0.021576818078756332,-0.015821339562535286,-0.04842687025666237,-0.03748013824224472,0.007788959424942732,-0.028100013732910156,-0.14212962985038757,0.05812706798315048,-0.021091679111123085,-0.031067239120602608,-0.025311555713415146,0.0529470220208168,0.04806910455226898,0.03598294034600258,-0.12951558828353882,-0.055385276675224304,0.11379358172416687,-0.009163152426481247,0.02600661665201187,-0.047406069934368134,0.00939889531582594,0.06424541771411896,-0.006563573144376278,-0.02852819673717022,0.01614386774599552,-0.009625615552067757,0.11175532639026642,0.10858272016048431,0.07991905510425568,0.014381046406924725,0.017156442627310753,-0.04268977418541908,-0.0321185328066349,0.006723358295857906,-0.05168408900499344,-0.019354773685336113,-0.0013929532142356038,0.04504183679819107,-0.002871985547244549,0.01624862663447857,-0.04867654666304588,0.01182613056153059,0.02770858258008957,0.08133549988269806,0.07678202539682388,0.033415451645851135,0.0063668168149888515,0.06776390224695206,-0.03865852952003479,-0.010365813970565796,0.0074691311456263065,0.050515029579401016,-0.04334850609302521,0.15722520649433136,0.02370362915098667,-0.04166736081242561,0.02478925511240959,-0.03666972741484642,0.1320858895778656,-0.059987254440784454,0.07244731485843658,0.03718990087509155,-0.08751174062490463,-0.04716401919722557,-0.0071295625530183315,0.010084557346999645,-0.02269604802131653,-0.006267485674470663,0.03710827976465225,-0.00414702482521534,-0.11571649461984634,-0.051540736109018326,0.010889509692788124,-0.05243245139718056,0.012071466073393822,-0.01490594632923603,-0.0400441512465477,-0.16603197157382965,-0.014303470030426979,0.053531572222709656,0.024021118879318237,0.007432122714817524,0.04504461586475372,-0.00980925653129816,-0.02379114180803299,0.03551087528467178,0.05103855952620506,-0.041026972234249115,0.03494926914572716,-0.042122263461351395,-0.03590121120214462,-0.09039638191461563,-0.021117698401212692,-0.11087869852781296,0.0291169174015522,-0.05152532830834389,0.04245605692267418,0.03253050893545151,0.054313886910676956,0.050884269177913666,0.04966922849416733,0.1181427612900734,0.04374120384454727,0.027118481695652008,0.0658392682671547,0.02385689690709114,-0.06436914950609207,-0.00620709965005517,0.0001284633472096175,0.030720777809619904,0.01478184387087822,0.10843200236558914,0.10264076292514801,0.07267092168331146,-0.04800711199641228,0.04254236817359924,-0.006645679473876953,0.08509726822376251,0.06018603965640068,0.0047559794038534164,-0.03019711934030056,-0.038938798010349274,-0.07291010767221451,-0.06511571258306503,0.03575330972671509,0.055712856352329254,-0.0005366227123886347,-0.05242574214935303,-0.004597608931362629,-0.017161760479211807,0.023644061759114265,0.11246591806411743,0.021190792322158813,-0.05588846653699875,0.035507313907146454,0.04054374620318413,0.026034677401185036,0.020645907148718834,-0.02369774878025055,-0.04342327266931534,0.0998748317360878,0.07477784901857376,-0.04588279873132706,0.10301940143108368,0.09965891391038895,-0.04373863711953163,0.07346314936876297,-0.023307623341679573,0.011264624074101448,-0.018770460039377213,-0.05939628183841705,-0.10099658370018005,-0.007100439630448818,0.04825013130903244,-0.09162309765815735,-0.011474523693323135,0.021949758753180504,-0.05742630735039711,-0.1405918300151825,-0.045431774109601974,-0.0906103104352951,-0.053850289434194565,-0.011684824712574482,0.03821776807308197,-0.05757520720362663,-0.1326237916946411,0.05291833356022835,-0.010590260848402977,-0.017825651913881302,-0.008125619031488895,0.020910421386361122,-0.13489335775375366,-0.04686683788895607,0.0072774202562868595,-0.07213403284549713,0.029640162363648415,-0.027067266404628754,-0.04934510588645935,0.008167210966348648,0.03007001057267189,0.05588177219033241,0.06885448843240738,-0.11631903052330017,-0.07378693670034409,0.03696223720908165,-0.08118755370378494,0.0364200696349144,-0.06425505876541138,-0.0019979942589998245,-0.01460915245115757,0.016876911744475365,0.06640536338090897,-0.0950976237654686,-0.04848624765872955,0.04548896104097366,-0.11353667080402374,-0.02735729143023491,0.12639282643795013,0.04596438631415367,-0.019605502486228943,-0.03918779641389847,0.1255165934562683,0.029411595314741135,0.1045227125287056,0.04584433138370514,-0.03473808616399765,0.06741786003112793,-0.060905300080776215,-0.0552070252597332,-0.10278025269508362,-0.015055850148200989,0.0516628734767437,0.010739900171756744,0.019049037247896194,0.11184783279895782,-0.09328462928533554,-0.05589175969362259,-0.0003870522486977279,-0.03589468449354172,-0.005640818737447262,0.040713079273700714,0.08174236118793488,0.03244822844862938,0.10647274553775787,0.06539992243051529,0.02946918085217476,-0.07604184001684189,0.014643022790551186,0.010853348299860954,0.013836429454386234,0.015165023505687714,-0.051686231046915054,-0.027112964540719986,-0.05834406986832619,0.021588241681456566,0.0070762005634605885,-0.02870197966694832,0.04634038731455803,0.042749810963869095,0.011441180482506752,0.0006177499890327454,0.01949261501431465,0.04145033657550812,0.009957605972886086,0.05656573176383972,-0.07282975316047668,-0.1081295907497406,0.11563019454479218,0.0048652649857103825,-0.024808209389448166,0.09105096757411957,0.07715397328138351,0.03446158766746521,0.059467148035764694,0.003450314048677683,0.0039488328620791435,0.09137529879808426,0.017032483592629433,0.010578637942671776,0.09982173144817352,-0.022051353007555008,0.03222419321537018,-0.017341475933790207,0.09376578032970428,0.009379700757563114,-0.06176904961466789,-0.025708166882395744,0.012921260669827461,0.015405111014842987,-0.12038861215114594,0.0657169446349144,0.019056852906942368,-0.05037907138466835
algerien,0.052150461822748184,-0.008089312352240086,0.032494962215423584,-0.050142813473939896,0.09975957870483398,0.0020069072488695383,0.07232087105512619,-0.01976727694272995,0.13041207194328308,0.038340240716934204,0.09584642946720123,-0.11395556479692459,0.010998656041920185,0.0726405456662178,0.0625837966799736,0.07145868986845016,-0.07340017706155777,-0.032819002866744995,0.010202810168266296,-0.020485008135437965,-0.016570253297686577,0.07911708205938339,0.0328054316341877,0.022325029596686363,-0.04195798933506012,0.04657213017344475,0.020816626027226448,0.07150294631719589,0.05503075569868088,-0.00659446744248271,0.05342601239681244,-0.05335253104567528,-0.019679205492138863,-0.036447782069444656,-0.007439376786351204,0.04909682646393776,-0.01912924461066723,-0.013824493624269962,0.09975089877843857,0.022343164309859276,-0.005396542139351368,0.0360388420522213,0.023633506149053574,0.1145409569144249,-0.05674830079078674,0.004937739111483097,0.007319275755435228,-0.0018087152857333422,-0.01646655797958374,-0.023992421105504036,-0.06393393129110336,0.09296662360429764,0.014884116128087044,-0.04505028575658798,0.012638555839657784,-0.04126014560461044,-0.04140118137001991,0.02357141114771366,0.03948453813791275,-0.001125187030993402,-0.07250166684389114,-0.10941464453935623,-0.010790782049298286,0.13323555886745453,-0.048127204179763794,-0.0294182226061821,0.0603007972240448,-0.05868355929851532,0.007996183820068836,-0.04214755818247795,-0.04482533037662506,-0.11531141400337219,0.028696132823824883,-0.03071882203221321,0.09702474623918533,0.005944395903497934,-8.844350668368861e-05,0.009557584300637245,-0.02926645800471306,-0.022536614909768105,0.05794825404882431,0.03935408964753151,0.008901041932404041,0.028515813872218132,-0.011564458720386028,-0.028345337137579918,0.027550624683499336,0.06937000900506973,0.0007665820303373039,0.021917829290032387,0.03157513961195946,0.010156319476664066,-0.07197389006614685,0.044112589210271835,-0.01697930321097374,0.04498796910047531,0.002951890928670764,0.051687467843294144,0.00959020759910345,-0.0012415284290909767,0.1705152988433838,-0.07917255908250809,0.03165914863348007,0.053526684641838074,-0.07260873913764954,-0.0743403285741806,0.03633270040154457,0.09757593274116516,-0.07150603085756302,0.046459924429655075,-0.029886508360505104,0.09902860969305038,0.09967880696058273,0.02461693063378334,0.027165908366441727,0.0020967070013284683,-0.00776929734274745,-0.07516214996576309,0.07968185096979141,-0.05434057116508484,-0.1282150000333786,0.02594846487045288,-0.053237080574035645,-0.06302345544099808,-0.0838073194026947,0.006265421863645315,-0.1748352199792862,0.010944199748337269,0.07894086092710495,0.04845549911260605,-0.010102037340402603,0.08199740201234818,-0.06922410428524017,-0.09095137566328049,-0.053954508155584335,0.00767263351008296,-0.03752432391047478,0.03926868736743927,-0.02361159771680832,0.07091723382472992,-0.012844474986195564,0.009055500850081444,0.020492438226938248,-0.014065391384065151,-0.042803581804037094,-0.08775287866592407,0.0864231064915657,0.04160362854599953,-0.02331482619047165,-0.00131247378885746,0.015542297624051571,0.0801955983042717,0.05219409614801407,-0.08528736978769302,0.08852935582399368,-0.10241556912660599,0.003078322159126401,0.10374246537685394,0.029219571501016617,-0.002624809741973877,-0.0818633958697319,-0.08657333254814148,0.07015788555145264,0.052406881004571915,0.0736217051744461,0.04630786553025246,-0.01936032995581627,0.00017882690008264035,0.026478249579668045,-0.005616351962089539,0.11702658981084824,0.02228371798992157,0.002609818009659648,0.015649378299713135,0.04205508157610893,-0.03624105826020241,-0.10399387776851654,-0.14636479318141937,0.005722566042095423,0.0017108009196817875,-0.039276544004678726,0.0725896880030632,-0.07815010100603104,-0.02457122690975666,-0.022581353783607483,-0.05776391550898552,0.0959724560379982,-0.06790953874588013,-0.03372553735971451,-0.030763519927859306,0.007217967417091131,0.04408027604222298,-0.03259854391217232,0.08475775271654129,-0.03264567255973816,0.07557617872953415,0.04716316983103752,-0.007013025693595409,0.09532732516527176,-0.04268455505371094,-0.0023353893775492907,0.10278023034334183,0.05429818108677864,0.04749434068799019,0.05163572356104851,0.024591635912656784,0.10058172047138214,-0.08042535185813904,-0.00926138460636139,-0.0509202741086483,-0.044690098613500595,-0.056035786867141724,-0.06375399976968765,0.054737187922000885,0.03023446351289749,0.055803924798965454,-0.022843219339847565,0.02803133614361286,0.06231196969747543,-0.029513953253626823,0.04081505164504051,-0.029427247121930122,0.05090765655040741,-0.033842746168375015,0.02498524822294712,-0.05420625954866409,-0.10753752291202545,-0.0055498587898910046,0.012815669178962708,0.0029181509744375944,0.07299952954053879,-0.015448790974915028,0.03361481800675392,-0.022337637841701508,0.059365496039390564,-0.07967942208051682,0.036102503538131714,0.05169737711548805,0.13123968243598938,0.03865506127476692,-0.09142834693193436,0.02184237539768219,0.013615664094686508,-0.06545659899711609,0.0909637063741684,0.05694189667701721,-0.015126742422580719,0.11191299557685852,0.021284213289618492,0.07087326794862747,0.09685166925191879,0.07792500406503677,0.003216908546164632,-0.11064491420984268,0.008961012586951256,0.10803576558828354,0.05785156041383743,0.006755511276423931,-0.0070742047391831875,-0.08350616693496704,-0.027155404910445213,0.016911782324314117,0.04952196031808853,-0.023390214890241623,-0.04015999659895897,-0.03933315724134445,0.13080532848834991,0.08106039464473724,0.02298029698431492,0.015348752029240131,0.007900204509496689,0.053579021245241165,0.007875517942011356,-0.07936511188745499,0.034105390310287476,0.029616478830575943,0.011920575052499771,0.03483574837446213,0.12217134982347488,-0.008206906728446484,0.04768652468919754,0.06185520067811012,0.019080914556980133,0.07994332164525986,0.01722278818488121,0.03235745429992676,0.026154208928346634,0.004431774839758873,-0.019155262038111687,-0.04168250411748886,0.011233511380851269,-0.09379912912845612,-0.0007847609231248498,-0.025427816435694695,-0.06318183988332748,0.007930168882012367,-0.004372700583189726,0.10098325461149216,-0.004309576936066151,-0.030766863375902176
angola,0.023779556155204773,-0.04311453551054001,0.0888192355632782,-0.04341535270214081,0.1273009032011032,-0.0920465812087059,0.03718269616365433,-0.003934773150831461,0.13300307095050812,-0.09706633538007736,-0.020116256549954414,0.03549319878220558,0.03970856964588165,-0.04417575150728226,0.05913496017456055,-0.02569381520152092,0.027765225619077682,0.03850165754556656,-0.016435226425528526,-0.08762982487678528,0.04981750249862671,-0.043082766234874725,0.016512712463736534,-0.07864271104335785,-0.017715537920594215,0.08092635869979858,-0.10242201387882233,-0.03081701695919037,0.006965314969420433,-0.011558378115296364,-0.020594080910086632,0.05582389235496521,0.016745103523135185,-0.018283016979694366,-0.0661199539899826,0.02751842513680458,0.04423031955957413,-0.11236844956874847,0.01321957167237997,0.0318589061498642,0.043627165257930756,0.0185207799077034,-0.03551650792360306,-0.003587648505344987,0.02056480199098587,-0.025632865726947784,0.03174209967255592,-0.07306157797574997,-0.030404485762119293,-0.08332325518131256,-0.026635853573679924,0.03390688821673393,-0.012422029860317707,0.005762246437370777,0.022036420181393623,0.03069746494293213,-0.028310079127550125,0.07708275318145752,0.04962882399559021,0.024093022570014,-0.03113575279712677,-0.07336872816085815,0.04935166984796524,0.03952948749065399,0.01627456210553646,0.04788776859641075,0.0719333067536354,-0.019444741308689117,0.043476104736328125,-0.07688722759485245,-0.05148296430706978,0.043977249413728714,0.09668518602848053,0.0038546714931726456,0.05791306868195534,0.11022759974002838,-0.002124333754181862,0.059765636920928955,0.09086499363183975,-0.00889731664210558,0.07068166881799698,0.04264591634273529,0.03883638605475426,-0.10348612815141678,0.12999626994132996,0.012014102190732956,-0.013922316953539848,0.10703592002391815,0.08316240459680557,0.16568294167518616,-0.06283388286828995,0.016225099563598633,0.0530797615647316,-0.025468571111559868,0.041375353932380676,0.0020059600938111544,-0.04168590158224106,-0.015005192719399929,0.08648411184549332,-0.06708544492721558,0.09199239313602448,0.013832169584929943,0.06253413110971451,-0.03851599618792534,-0.07457229495048523,-0.0019823487382382154,0.07765715569257736,-0.0016395465936511755,-0.08237123489379883,0.013795435428619385,-0.06915872544050217,0.01197479385882616,0.07014013081789017,-0.0032945345155894756,-0.09606965631246567,0.019491760060191154,-0.06829259544610977,-0.11549793928861618,-0.07596966624259949,-0.04422667622566223,-0.02797117829322815,0.038979534059762955,0.07827907800674438,0.028967367485165596,0.03632114455103874,-0.00625388789921999,0.018261730670928955,-0.01287094783037901,-0.0074428110383450985,0.0891440212726593,0.08379524201154709,0.03694773092865944,-0.016845008358359337,-0.04251910001039505,-0.0655665323138237,0.09182728081941605,-0.09004572778940201,-0.07889809459447861,0.04299605265259743,-0.03296374902129173,0.04638679325580597,-0.042236801236867905,-0.03538062050938606,-0.04192733392119408,0.016347143799066544,-0.11781705915927887,0.06449352949857712,-0.050242166966199875,0.0862838625907898,-0.09566033631563187,0.02621719241142273,0.052413273602724075,0.09083624929189682,0.006836629007011652,0.024232370778918266,-0.04671610891819,-0.02437805011868477,-0.004374291747808456,0.08762402832508087,-0.004879115615040064,0.07695181667804718,-0.14596350491046906,-0.029850082471966743,-0.0012854301603510976,-0.09507104009389877,-0.0062052663415670395,-0.022670606151223183,-0.016691414639353752,0.05900852382183075,0.06415177881717682,0.020578421652317047,0.07371483743190765,0.06890825182199478,0.033372048288583755,0.014781031757593155,-0.05829734355211258,-0.04734328016638756,0.022023484110832214,0.04392952099442482,-0.02873021550476551,0.028583399951457977,-0.05028143897652626,0.00986151397228241,0.06567588448524475,-0.00010097975609824061,0.00936967320740223,0.14234592020511627,0.053488679230213165,-0.0629233568906784,-0.014511696062982082,0.024401763454079628,0.0001556532661197707,-0.10259006172418594,0.022653749212622643,0.02681448869407177,0.05028019845485687,-0.021382644772529602,0.04310348257422447,0.03505531698465347,-0.03829868882894516,-0.06697279214859009,-0.020832180976867676,0.0033571075182408094,0.013625441119074821,0.07410302758216858,0.03818589076399803,0.08738036453723907,0.0047415876761078835,0.015004020184278488,-0.014646317809820175,-0.054253023117780685,-0.05614012852311134,-0.10409540683031082,-0.014219152741134167,0.05032874643802643,0.11425776779651642,-0.0354434996843338,-0.012670513242483139,0.0038422660436481237,0.05837412551045418,0.03470003232359886,-0.038349028676748276,-0.1071963682770729,-0.06701571494340897,-0.017046308144927025,-0.13074950873851776,0.015284727327525616,-0.08014985173940659,0.025926975533366203,0.04396741837263107,0.05743507668375969,0.020188497379422188,0.03904377296566963,-0.029724521562457085,0.038309790194034576,0.01901119016110897,-0.02202409692108631,0.0655597671866417,0.0478416308760643,0.028699472546577454,-0.062114737927913666,0.0783805325627327,-0.1182805746793747,-0.047326162457466125,0.017476825043559074,0.007330737076699734,-0.008454169146716595,0.055259011685848236,0.018012048676609993,-0.0522906631231308,0.06912658363580704,0.00016021885676309466,0.03258978947997093,0.009987774305045605,0.07455930858850479,0.08127640932798386,-0.011415774933993816,-0.035573866218328476,0.027105364948511124,0.004454758949577808,-0.09718302637338638,0.07059759646654129,0.05626796931028366,-0.007642146199941635,0.048855751752853394,0.11280360072851181,0.07633042335510254,0.04982827976346016,-0.049403514713048935,0.027084199711680412,-0.050057295709848404,0.049649499356746674,-0.048818498849868774,0.009560617618262768,0.09362076967954636,-0.14854314923286438,-0.04108882695436478,0.03845454007387161,0.09186344593763351,0.10988672822713852,0.1251736432313919,0.03032756969332695,0.11933436989784241,-0.0176144577562809,0.04491543769836426,-0.05616964399814606,-0.020211266353726387,-0.011693371459841728,0.040732722729444504,0.03338237106800079,-0.01926328055560589,-0.021910766139626503,0.012631802819669247,0.0011419164948165417,-0.021589698269963264,-0.08772732317447662,-0.0037114426959306,-0.01767861470580101,-0.0004011116980109364,-0.04808838292956352
argentinien,0.015279317274689674,0.0013505617389455438,0.042791590094566345,0.030949803069233894,0.12122765183448792,-0.07555051892995834,0.004588626325130463,-0.0358821377158165,0.0741385668516159,-0.09588675200939178,0.0038637202233076096,-0.037884604185819626,0.009980952367186546,-0.11611487716436386,-0.07312222570180893,0.0762467011809349,0.0635259747505188,0.02150742895901203,0.03941894695162773,-0.018090924248099327,-0.01575964130461216,-0.005316076800227165,0.021547995507717133,0.01149210799485445,0.022131193429231644,-0.047881267964839935,-0.016270343214273453,-0.0889306366443634,0.01898893713951111,-0.04438526928424835,0.019270213320851326,0.030067497864365578,0.02369174361228943,-0.04677595943212509,0.04016900062561035,-0.041697703301906586,0.00032599596306681633,0.045233678072690964,0.05026749521493912,0.043653152883052826,-0.027757396921515465,-0.02488861232995987,0.05139322578907013,-0.027997996658086777,-0.044509805738925934,-0.04530405253171921,-0.1040341854095459,-0.01692141778767109,0.04562653973698616,0.021854707971215248,0.03510494902729988,-0.025772463530302048,-0.014807192608714104,0.029382646083831787,-0.018431270495057106,0.06894723325967789,-0.07986833155155182,0.12709833681583405,0.025840910151600838,0.08785466849803925,0.004675610922276974,-0.14655055105686188,-0.09648451954126358,0.077408567070961,0.04639862850308418,0.013374101370573044,0.02783557027578354,-0.03013944812119007,-0.033050090074539185,-0.038241371512413025,-0.035924479365348816,-0.04215621575713158,-0.02192082814872265,-0.0715424120426178,0.0945158526301384,0.13267117738723755,0.05134036764502525,0.0700201466679573,0.04632020369172096,-0.033923957496881485,0.034210678189992905,0.11133413761854172,-0.06576546281576157,-0.09102792292833328,-0.008980304934084415,0.04461316391825676,0.02434290573000908,-0.048190388828516006,0.03199490159749985,0.053688373416662216,-0.03778022527694702,0.012875808402895927,0.02067163959145546,0.04337054863572121,0.06409619003534317,0.019483229145407677,-0.03307665139436722,-0.03756813704967499,0.04272918030619621,-0.054264288395643234,0.07753593474626541,0.03833625838160515,0.028535109013319016,0.002986490959301591,-0.07658295333385468,-0.0006083998014219105,0.021459221839904785,-0.011566190980374813,-0.06528335809707642,0.04265838488936424,-0.03434096649289131,0.06705132126808167,0.15590672194957733,0.010162345133721828,-0.008536813780665398,0.05631386488676071,-0.07884377986192703,-0.02038518339395523,-0.0684492364525795,-0.02310897968709469,-0.044405728578567505,-0.08483021706342697,-0.0014637563144788146,0.030886711552739143,-0.054288141429424286,0.061023734509944916,-0.058389320969581604,0.0014352515572682023,-0.05531928315758705,0.06095277518033981,-0.005828610621392727,-0.04281304404139519,-0.03653295338153839,-0.006704817526042461,-0.03723272308707237,0.004241430666297674,-0.03169819712638855,0.05947041139006615,0.14055603742599487,-0.024956876412034035,0.017137911170721054,0.04434289410710335,0.07158147543668747,-0.05704641714692116,0.10983787477016449,-0.04526108503341675,-0.05690985918045044,0.11428151279687881,0.033313117921352386,-0.1143718957901001,0.020076164975762367,0.01607714407145977,0.09765124320983887,0.03605953976511955,0.01352761872112751,0.08015884459018707,0.03404457867145538,0.10078278928995132,0.07886002957820892,-0.03761545941233635,0.017409145832061768,-0.06762734800577164,0.04511602967977524,-0.07118503749370575,-0.0367296002805233,0.11198744177818298,0.008486075326800346,0.04275992512702942,0.058083705604076385,0.060047078877687454,0.07934420555830002,-0.07357140630483627,-0.11129232496023178,0.010315236635506153,-0.06505247950553894,-0.047461338341236115,-0.08480615168809891,0.04384646192193031,-0.055411890149116516,-0.06035645678639412,0.07929657399654388,0.041236672550439835,-0.033412158489227295,0.0743766650557518,0.007576704490929842,0.01395324245095253,0.09420276433229446,-0.014535107649862766,0.0077529605478048325,-0.11004862189292908,0.008027629926800728,-0.04083733260631561,-0.11051958799362183,-0.03411246836185455,-0.044562697410583496,-0.03781586512923241,-0.02036569081246853,-0.03240085765719414,-0.11827051639556885,-0.002714606700465083,-0.0021825158037245274,-0.0634576678276062,0.02631974034011364,0.018456626683473587,-0.019559379667043686,0.0537683330476284,0.008467091247439384,-0.08874619007110596,-0.07325024157762527,0.037598203867673874,0.042385030537843704,0.0206742063164711,-0.0022321583237499,-0.06244784966111183,0.09408523887395859,0.03300650417804718,-0.027101963758468628,-0.10653675347566605,-0.059344612061977386,-0.09046588093042374,0.0683218240737915,0.02973283641040325,-0.03861801698803902,-0.031466055661439896,-0.010477280244231224,-0.10919349640607834,0.07170618325471878,-0.04329778999090195,-0.05957807973027229,0.020253704860806465,-0.10106471180915833,0.051941197365522385,0.08601658046245575,-0.03269455209374428,-0.008717759512364864,-0.04169600084424019,-0.033367596566677094,0.07422890514135361,0.014404361136257648,-0.09325888752937317,0.05606129392981529,-0.004926654975861311,-0.04125712439417839,-0.03223554790019989,0.1011999249458313,0.048560481518507004,0.05961637943983078,0.04457887262105942,-0.022834308445453644,-0.03320307657122612,-0.0811079815030098,0.06131448969244957,-0.09398533403873444,0.053445909172296524,0.015373329631984234,0.08407838642597198,-0.004560705740004778,-0.01601114682853222,-0.04294344037771225,-0.06058243662118912,-0.018141446635127068,0.012894540093839169,-0.06793760508298874,0.08749248087406158,-0.05947030708193779,0.08825131505727768,0.08558520674705505,0.035905465483665466,-0.05443796515464783,-0.006172857712954283,0.01907951384782791,0.026377614587545395,-0.033608339726924896,0.027118345722556114,0.08518632501363754,-0.10593575239181519,-0.05775754898786545,-0.03711523860692978,0.09117618948221207,0.048576172441244125,-0.009050196968019009,-0.10147503763437271,0.007308014202862978,0.08216768503189087,-0.01546041201800108,-0.11514139920473099,-0.0006573726423084736,-0.009840279817581177,-0.06295423209667206,-0.015943925827741623,-0.021400045603513718,-0.027432631701231003,0.04454950615763664,-0.042694274336099625,-0.05944567173719406,-0.01316523551940918,0.06825893372297287,0.06796479970216751,-0.03655190020799637,-0.1083742007613182
armenien,0.0025061455089598894,-0.020402124151587486,0.08089481294155121,-0.0360613651573658,-0.032059069722890854,-0.013548551127314568,0.07376108318567276,0.0066082472912967205,-0.01734241656959057,-0.07828022539615631,0.008555497042834759,0.019867299124598503,-0.04702218994498253,0.05952342599630356,-0.023692701011896133,0.05785810574889183,-0.01395433023571968,-0.09776407480239868,-0.08757284283638,-0.050287876278162,-0.027018502354621887,-0.006532448343932629,-0.008395823650062084,-0.030374886468052864,0.04522087424993515,-0.004224729724228382,-0.0922066792845726,0.030101094394922256,-0.008989362046122551,0.011048697866499424,0.04185809567570686,-0.04348907992243767,-0.005655941553413868,-0.08838862925767899,0.10201720893383026,0.046403855085372925,-0.03876300901174545,-0.10272351652383804,0.07679442316293716,0.04241716489195824,0.023590659722685814,0.03986697643995285,0.01297723688185215,0.07942695170640945,-0.05297762155532837,0.07919624447822571,-0.08227245509624481,0.03092484176158905,-0.0769721046090126,0.023949310183525085,-0.10892512649297714,-0.02584865689277649,0.02282106690108776,-0.02543656714260578,-0.03061285801231861,-0.0667695552110672,-0.041499216109514236,-0.05868573859333992,0.09130829572677612,-0.0438745878636837,-0.04567922651767731,-0.007523535750806332,-0.01609175093472004,-0.06596727669239044,-0.02369840443134308,-0.02883223444223404,-0.027472542598843575,-0.07908133417367935,-0.09212607890367508,-0.06919653713703156,0.17501330375671387,0.043793123215436935,-0.039519332349300385,0.07499164342880249,0.0198996402323246,-0.0375514030456543,0.042151711881160736,-0.03490430861711502,0.08496992290019989,-0.04121268168091774,0.046438220888376236,-0.07095365226268768,-0.036380279809236526,-0.02739066071808338,0.03930799290537834,-0.003361183451488614,0.011261845007538795,0.07087243348360062,0.014680936932563782,-0.0009607181418687105,0.04406047239899635,-0.01863679848611355,-0.040565185248851776,0.09642799943685532,-0.04948538541793823,-0.07947281002998352,-0.021601036190986633,-0.0518353097140789,0.03405960649251938,0.014961139298975468,-0.057023968547582626,0.07219714671373367,0.05861803516745567,-0.03164736181497574,-0.05043293535709381,0.1133875697851181,0.04986974969506264,-0.029663320630788803,-0.11910847574472427,0.04259997978806496,0.0005047610029578209,0.048572130501270294,0.08816178888082504,-0.011002103798091412,0.023507198318839073,0.015718014910817146,0.05168499797582626,-0.030169343575835228,0.10886381566524506,0.06185002252459526,0.014648390002548695,0.0017490364843979478,0.009680316783487797,0.10634317994117737,0.06851907819509506,0.017953820526599884,0.18066979944705963,0.01528150588274002,-0.08701255917549133,-0.022257128730416298,0.05816365033388138,0.0419636145234108,-0.09045027941465378,-0.06336846202611923,-0.1106705367565155,0.06207183003425598,-0.10464943200349808,0.03223259001970291,0.07873178273439407,0.10527611523866653,0.10329264402389526,0.022801034152507782,-0.02748137339949608,0.029868481680750847,-0.009220538660883904,0.01451532356441021,0.02341959811747074,0.08016713708639145,-0.003180778818204999,-0.10451054573059082,-0.0037849515210837126,-0.07729541510343552,0.06348612159490585,-0.02862738072872162,-0.006020889617502689,0.08875738829374313,0.10588698834180832,0.02335295081138611,0.01024743914604187,-0.010912937112152576,-0.08444000780582428,-0.02854759991168976,-0.03319597616791725,-0.040749918669462204,0.0013986985431984067,0.01649627462029457,0.07567955553531647,-0.06756362318992615,0.04633377492427826,-0.10185295343399048,0.09530311077833176,0.06749284267425537,0.007824799045920372,-0.027045199647545815,-0.12566234171390533,-0.07666471600532532,-0.05895585939288139,-0.06790813058614731,-0.0254601389169693,-0.0663757249712944,0.011287365108728409,0.05028633400797844,0.06565935164690018,0.08004111796617508,-0.008100166916847229,-0.01978902332484722,-0.047330159693956375,-0.08447952568531036,-0.05323074012994766,-0.015962151810526848,-0.06428401172161102,-0.001871798769570887,-0.09165763109922409,-0.012428557500243187,-0.0777832418680191,0.021170061081647873,-0.06778468936681747,0.0025964686647057533,-0.03683226555585861,-0.0630418211221695,-0.055698685348033905,-0.005930556915700436,0.013493798673152924,0.006147435400635004,-0.012129071168601513,0.11785557121038437,0.057359348982572556,-0.016402069479227066,0.07084787636995316,-0.14514636993408203,-0.08176444470882416,-0.025682806968688965,-0.08363271504640579,0.02271311730146408,-0.03833821043372154,0.050770051777362823,0.033078525215387344,-0.06522698700428009,-0.02021762542426586,-0.11076795309782028,-0.08469046652317047,-0.04359583556652069,-0.004720686469227076,0.010617832653224468,0.06205454096198082,-0.05073042958974838,0.02912968583405018,-0.03752923756837845,-0.040127940475940704,0.012825854122638702,0.04567784443497658,0.045864567160606384,-0.056013140827417374,0.0008358844788745046,0.04866455867886543,0.003475830890238285,0.034462228417396545,-0.08222749084234238,0.046652358025312424,-0.04415033012628555,0.010844206437468529,0.013918209820985794,-0.02912207320332527,-0.04665117338299751,0.10413718223571777,0.06300736218690872,-0.04949118569493294,0.062382131814956665,-0.00922461599111557,-0.0019201257964596152,0.08889130502939224,0.027230001986026764,-0.018310774117708206,-0.10705889761447906,0.04864420369267464,-0.0050117396749556065,-0.010161958634853363,0.0013037904864177108,-0.0596739836037159,0.017994511872529984,-0.02313276007771492,0.06400895863771439,-0.13422372937202454,-0.0012561981566250324,0.006747716572135687,0.055863961577415466,-0.04154537245631218,-0.037312816828489304,-0.03439153730869293,0.025077801197767258,-0.008423854596912861,0.05457151681184769,-0.07892794162034988,-0.03478218987584114,0.09972044825553894,-0.068607859313488,-0.041233841329813004,0.03973747789859772,0.025555577129125595,0.011125734075903893,0.008195043541491032,0.1608957052230835,-0.033766862004995346,0.11250931769609451,0.020808231085538864,0.014521091245114803,-0.009075882844626904,-0.02632814086973667,0.056038688868284225,0.007812793366611004,0.03753667324781418,-0.039779048413038254,0.03574270382523537,-0.016279907897114754,-0.05884658545255661,-0.006497207563370466,0.005589541047811508,0.011849278584122658,0.11025512963533401,0.015129560604691505
aserbaidschan,0.03620929643511772,0.007580769248306751,-0.005204235669225454,-0.07243389636278152,0.0965983048081398,-0.10389118641614914,0.07408054172992706,0.01603466458618641,0.0016789353685453534,-0.055963411927223206,-0.0021826911251991987,-0.05143970996141434,-0.0017472193576395512,-0.021064378321170807,-0.023338129743933678,-0.004617766942828894,-0.026974471285939217,0.006282346323132515,-0.03980802744626999,0.10729675740003586,-0.015534617006778717,0.07469278573989868,0.061346203088760376,0.0008515117224305868,0.006921995431184769,0.026876945048570633,-0.04522367939352989,0.08058568090200424,0.06970450282096863,-0.07126428186893463,0.0442134290933609,0.011478697881102562,0.045592308044433594,-0.09181014448404312,-0.00450495071709156,0.07922033220529556,-0.0113780926913023,-0.1107456237077713,0.11430162191390991,0.014294927939772606,-0.01230750884860754,0.0015989893581718206,0.08473770320415497,0.10427306592464447,0.008030146360397339,0.03815051540732384,0.02013729326426983,0.06524447351694107,0.038868773728609085,-0.038594260811805725,-0.1157597154378891,0.0745491236448288,0.021222837269306183,0.04728027433156967,0.027389653027057648,-0.014058958739042282,-0.027640368789434433,0.016960252076387405,-0.026335306465625763,-0.08603009581565857,-0.05372752994298935,0.014223674312233925,0.016518136486411095,0.029141981154680252,0.05867830663919449,0.009235987439751625,0.059717822819948196,-0.06897393614053726,0.02725079096853733,-0.04496074467897415,0.004636757075786591,-0.00866577960550785,-0.0320381298661232,-0.03091091848909855,0.0026355863083153963,0.08261322975158691,-0.03244040161371231,0.03078239969909191,-0.004517886321991682,-0.07661271840333939,0.03262879699468613,-0.012545826844871044,0.000629347050562501,0.007523536682128906,0.10192759335041046,-0.05236384645104408,-0.057104021310806274,0.0323730930685997,0.03665650635957718,0.009892992675304413,-0.009081692434847355,-0.005441359709948301,-0.026867490261793137,-0.0042463988065719604,0.026246508583426476,-0.01326875202357769,-0.12287377566099167,-0.08125478774309158,0.03342333436012268,-0.04501337930560112,0.02136867679655552,0.037992119789123535,-0.04676181450486183,0.04710035026073456,-0.06627468019723892,-0.045117925852537155,0.14521139860153198,-0.011806175112724304,-0.120651476085186,0.004115542396903038,-0.026663394644856453,0.07662093639373779,0.07094893604516983,0.025827473029494286,0.018166041001677513,-0.07321305572986603,0.015564486384391785,-0.07378561049699783,0.0403713695704937,0.06200416758656502,0.01310639176517725,-0.0347197949886322,-0.10232700407505035,0.10626237094402313,0.013980977237224579,0.1032644510269165,-0.015665536746382713,0.060860875993967056,-0.005380786955356598,0.0983661413192749,0.023449871689081192,-0.0003554002905730158,-0.006773532833904028,-0.05755424126982689,-0.146205872297287,-0.052679356187582016,-0.04727098345756531,0.0498778335750103,0.14941726624965668,0.15078696608543396,0.005379479844123125,0.02814313769340515,0.05275702103972435,-0.000627664034254849,-0.013522560708224773,0.008189685642719269,-0.005996822379529476,0.002114201197400689,0.09535609930753708,0.048838887363672256,-0.0231083445250988,-0.0015237120678648353,0.06720586121082306,-0.04774008318781853,-0.061198387295007706,-0.014108079485595226,0.04343622177839279,0.022328976541757584,-0.041827552020549774,-0.04106711223721504,-0.10427939891815186,-0.07089424133300781,0.027042927220463753,0.021511146798729897,0.02565656788647175,0.032552849501371384,-0.011249693110585213,0.032392390072345734,0.0721386969089508,-0.0028210077434778214,-0.013196774758398533,0.05974503234028816,-0.035807572305202484,0.036904457956552505,0.050354212522506714,-0.055959995836019516,-0.026442673057317734,-0.11598215252161026,0.007540607359260321,-0.0631522387266159,0.025567973032593727,0.026564329862594604,0.03293442726135254,0.0247312281280756,-0.033561840653419495,0.0003921401803381741,-0.0014952428173273802,-0.025097768753767014,-0.02145613543689251,0.014958102256059647,-0.018967920914292336,-0.0767885223031044,-0.07644817233085632,-0.05204595625400543,-0.058150213211774826,0.03634043037891388,-0.023761358112096786,0.0753895565867424,-0.09976882487535477,-0.07327201217412949,-0.09560107439756393,-0.08690312504768372,-0.00831261184066534,0.018799861893057823,0.09472695738077164,0.07899888604879379,0.016571136191487312,0.038002859801054,0.0507541261613369,-0.18738828599452972,-0.13669858872890472,0.0033964505419135094,-0.05580075830221176,0.0015778178349137306,-0.020462946966290474,0.02577684074640274,0.011793401092290878,-0.015145900659263134,0.0045652142725884914,-0.08345776051282883,0.0935971662402153,-0.0972021073102951,-0.05655154585838318,-0.07510492950677872,0.039964333176612854,-0.15526753664016724,-0.05056788772344589,0.0027809245511889458,0.0428805872797966,0.09194973111152649,0.06543314456939697,0.05131859704852104,-0.04562896490097046,0.010289381258189678,0.013155123218894005,-0.07865423709154129,0.009392054751515388,-0.040601763874292374,0.007929106242954731,-0.048653099685907364,0.003489334136247635,0.0524197481572628,-0.12368611991405487,-0.047204647213220596,0.02190711721777916,-0.02689824067056179,-0.007495427504181862,0.016420697793364525,-0.011435705237090588,-0.01837817206978798,0.05224442854523659,-0.015242650173604488,0.014480730518698692,-0.08616357296705246,0.03447572886943817,0.12687863409519196,-0.04608514904975891,0.051220331341028214,-0.06858174502849579,0.053376466035842896,0.022791024297475815,0.07027985900640488,-0.01901867799460888,0.07501759380102158,-0.05134879797697067,0.006223365198820829,0.12026328593492508,0.001156371901743114,0.056483328342437744,0.0029212466906756163,0.05022631213068962,0.10930701345205307,-0.060065627098083496,-0.10392365604639053,0.013840214349329472,-0.047716837376356125,0.025825828313827515,0.04479360952973366,0.016325540840625763,0.023468349128961563,-0.040313802659511566,0.08202539384365082,-0.05297262221574783,0.017708661034703255,0.03549005463719368,0.05007956549525261,0.10386887937784195,-0.10695450752973557,0.011835958808660507,-0.043400947004556656,0.02233714982867241,-0.11141312122344971,0.08893381059169769,-0.0013819149462506175,-0.022431055083870888,0.08783522248268127,-0.0171644426882267,-0.018061792477965355,0.08437901735305786,-0.04126378148794174
äthiopien,-0.025677235797047615,-0.023425810039043427,0.012331116944551468,-0.0929071307182312,0.032694291323423386,-0.039235107600688934,0.10946115851402283,0.028291847556829453,-0.006552139297127724,-0.028998563066124916,-0.08381669968366623,0.08947982639074326,0.020258326083421707,-0.016711581498384476,-0.03495389223098755,0.025545528158545494,-0.009896860457956791,0.06128378584980965,0.007161776535212994,0.09811105579137802,-0.01023026928305626,0.091301329433918,0.06845458596944809,0.0015203889925032854,-0.01894301362335682,0.08513300120830536,0.05849465727806091,0.00033222761703655124,-0.041716236621141434,0.0449315682053566,0.05720779299736023,0.0067631579004228115,0.10533057898283005,0.016191722825169563,0.17662927508354187,-0.08436409384012222,0.048623859882354736,0.010751825757324696,-0.050233498215675354,0.002901980886235833,0.019342979416251183,-0.04990685358643532,-0.00671591330319643,-0.07986811548471451,0.15871459245681763,0.019834771752357483,0.017909115180373192,0.004112086724489927,-0.014186307787895203,0.021845415234565735,-0.07595761120319366,0.05948870629072189,0.014686296693980694,0.022186459973454475,0.06680528819561005,0.06107935681939125,-0.007928024046123028,0.09362389892339706,0.05977203696966171,-0.09173326939344406,-0.016631867736577988,-0.07223416119813919,-0.030240045860409737,0.0010247179307043552,0.031859807670116425,0.1362495720386505,-0.010079334490001202,-0.03814571723341942,-0.02160150557756424,0.0497722290456295,-0.0910704955458641,0.022187747061252594,0.08842016756534576,0.017326219007372856,0.04344999045133591,0.07713852822780609,-0.05671321600675583,0.039488378912210464,-0.0041726804338395596,-0.05358240753412247,0.05209615081548691,0.06979664415121078,-0.05399782583117485,-0.07003064453601837,0.028042392805218697,0.06773691624403,0.0018709804862737656,0.01379465963691473,-0.035402942448854446,0.0030510316137224436,-0.023922480642795563,0.04278964549303055,-0.01422092504799366,0.00579520920291543,-0.07329493761062622,0.04383256658911705,0.02189772203564644,0.015147029422223568,-0.020572641864418983,-0.09026729315519333,0.06959386169910431,0.044374819844961166,0.042381562292575836,0.01575760915875435,-0.012579696252942085,-0.057877227663993835,0.15197604894638062,0.07137735933065414,-0.08605221658945084,-0.014684888534247875,0.026572974398732185,-0.014153622090816498,0.06798674911260605,0.09141696244478226,-0.050200819969177246,0.0022012866102159023,-0.04062755033373833,-0.049655888229608536,-0.05024171248078346,0.032747089862823486,-0.05143211781978607,0.0204528346657753,0.04028179869055748,-0.037952836602926254,0.02790185622870922,0.04859123006463051,-0.012681125663220882,0.019518986344337463,-0.027952399104833603,0.08312256634235382,0.09394335001707077,0.07375183701515198,-0.07395270466804504,0.007289211731404066,-0.08238781988620758,0.048808880150318146,-0.0028142305091023445,0.019656775519251823,0.07984115928411484,0.025276964530348778,-0.02019709162414074,-0.02849845588207245,0.04448171705007553,0.13440003991127014,-0.00999970268458128,-0.019969938322901726,0.12025942653417587,-0.02573610283434391,0.06090623512864113,-0.07990334182977676,-0.017667770385742188,0.039454516023397446,0.00952991098165512,-0.10352618247270584,-0.05791619047522545,-0.034212976694107056,0.057063546031713486,0.035482004284858704,-0.00916496105492115,-0.1215110570192337,-0.030121393501758575,-0.06314222514629364,-0.034336671233177185,-0.023117082193493843,-0.02021907828748226,-0.038757093250751495,-0.057510122656822205,-0.022947657853364944,0.10999344289302826,-0.022278208285570145,0.06266359984874725,-0.044068071991205215,-0.05104212090373039,0.08159226179122925,-0.0671820268034935,-0.018942926079034805,-0.021084316074848175,-0.025355253368616104,0.027481278404593468,0.017326125875115395,0.021890509873628616,-0.06411436200141907,0.07835482060909271,0.04231096804141998,0.09749714285135269,-0.039294060319662094,0.08223568648099899,0.008782501332461834,-0.055552754551172256,-0.03405411168932915,-0.06290169805288315,-0.08584439754486084,-0.03596023470163345,0.011123686097562313,-0.0010594496270641685,0.023930689319968224,0.029453372582793236,0.019407905638217926,0.016069255769252777,-0.04687051847577095,-0.0662679672241211,0.09590209275484085,0.0436042882502079,0.07965122908353806,0.013621911406517029,0.00927684735506773,0.08922626823186874,-0.0036060744896531105,0.04133332520723343,-0.04283471405506134,0.01456773467361927,0.04344848543405533,0.007881003431975842,0.04447385296225548,0.006625615060329437,0.06196014955639839,-0.11101064831018448,0.04893902316689491,0.019644636660814285,-0.0894789770245552,0.03381071612238884,-0.027823565527796745,-0.02941705472767353,-0.04410093277692795,0.08490487188100815,-0.1376371681690216,0.010131643153727055,-0.04382386803627014,-0.0066044945269823074,0.011709153652191162,-0.00020520732505246997,0.005848502274602652,-0.10448988527059555,0.07621604949235916,0.00847690086811781,-0.022621240466833115,-0.02969169244170189,0.10165730863809586,0.08207875490188599,-0.1123083159327507,-0.06970199197530746,0.01479441486299038,-0.09765519946813583,-0.1155523806810379,0.134746715426445,0.002483035670593381,0.02094210870563984,0.07964974641799927,0.07544268667697906,0.045550473034381866,0.12173870950937271,-0.09348640590906143,-0.002499214606359601,-0.048678670078516006,0.06510014086961746,0.10565151274204254,0.0031756581738591194,-0.07739991694688797,0.037469103932380676,-0.046291787177324295,-0.0771038681268692,-0.021699856966733932,0.03694756701588631,0.027719683945178986,0.055428873747587204,-0.011344067752361298,0.07039031386375427,0.09486090391874313,-0.019829275086522102,-0.025319363921880722,0.08593607693910599,0.021282415837049484,0.037247031927108765,-0.06816048920154572,0.0025653382763266563,0.06843755394220352,0.009751812554895878,0.0700378343462944,0.03949875384569168,0.0926385223865509,-0.033674027770757675,-0.046034157276153564,0.025735432282090187,-0.0034817722626030445,0.08409935981035233,-0.03656580299139023,0.015813058242201805,-0.06785877048969269,-0.003871222957968712,-0.017592456191778183,0.04645668342709541,-0.061561278998851776,0.036731842905282974,-0.0670756846666336,0.01779024489223957,0.1177285760641098,6.484184723376529e-06,-0.004732925910502672,0.06564489006996155,0.05810483917593956
australien,-0.007438503205776215,0.08962215483188629,0.04302005469799042,-0.057083308696746826,0.03744295984506607,-0.06862024962902069,-0.014587623998522758,0.06560074537992477,0.09272343665361404,-0.049035586416721344,-0.01715906895697117,-0.019048137590289116,-0.030074259266257286,0.014246460050344467,-0.040103666484355927,0.10387836396694183,-0.1661018282175064,0.03569656237959862,-0.017499113455414772,0.04739924147725105,0.016089195385575294,0.0312718003988266,0.04143524542450905,-0.05364702641963959,-0.07772766053676605,0.012161306105554104,-0.02314617671072483,-0.01720394380390644,0.01667402870953083,0.008988740853965282,-0.039520323276519775,0.09846609830856323,0.04309043660759926,-0.009345618076622486,0.014616881497204304,-0.016967875882983208,-0.0959567204117775,-0.06402797996997833,0.0698205828666687,-0.03376726433634758,0.00720929866656661,-0.0009208557312376797,-0.002080076141282916,0.1748609095811844,-0.00024589861277490854,0.03814984858036041,-0.06954580545425415,0.11163214594125748,0.026074007153511047,-0.09514474868774414,0.05054605007171631,-0.04814046621322632,-0.015571963973343372,0.01822747476398945,0.044838737696409225,0.025218546390533447,-0.05713961645960808,-0.07166489213705063,0.013641702011227608,-0.057547569274902344,-0.0791596919298172,-0.08925049751996994,-0.028598979115486145,-0.04113807529211044,0.08407372236251831,-0.0008685715147294104,-0.03692648187279701,0.06212832033634186,-0.05336562171578407,0.06613148003816605,0.020113050937652588,-0.13334302604198456,0.04878344386816025,0.029120713472366333,0.0776268020272255,0.02291879989206791,0.010644334368407726,0.020555486902594566,-0.03837740048766136,-0.09032197296619415,0.0786459818482399,-0.04591180011630058,-0.07451701164245605,-0.08659739792346954,0.019607078284025192,0.060524556785821915,-0.10848501324653625,-0.03739824518561363,-0.017770959064364433,-0.004603204783052206,0.013300585560500622,0.023032210767269135,-0.03592295944690704,0.08454873412847519,-0.0757509395480156,-0.023964261636137962,-0.054838381707668304,-0.09338846802711487,-0.03517775982618332,-0.009175815619528294,0.10295692086219788,0.042831551283597946,-0.013166500255465508,-0.012438646517693996,-0.06165795773267746,-0.05741867795586586,0.1071152314543724,-0.0014933645725250244,-0.017755789682269096,0.04395885020494461,-0.02963501401245594,0.06667139381170273,0.00491613894701004,0.06624320894479752,-0.03700277954339981,0.029018891975283623,0.04664863273501396,-0.047520820051431656,-0.04282848909497261,0.0019433172419667244,-0.10124354064464569,-0.08986388891935349,-0.04172873869538307,0.035257577896118164,0.10669068992137909,0.05014410614967346,-0.02119883894920349,0.06031252071261406,0.03738405555486679,0.02011854201555252,0.039636142551898956,0.03521067276597023,-0.08496608585119247,-0.015959149226546288,-0.06701932847499847,0.03581410273909569,-0.007934602908790112,-0.008249664679169655,0.012810849584639072,0.06718917936086655,-0.01701929420232773,-0.09691090136766434,0.09350389987230301,0.04907680302858353,0.051608022302389145,-0.012940660119056702,0.027071131393313408,0.10274723917245865,0.03213951364159584,-0.07962153851985931,-0.030311219394207,0.009457075968384743,-0.020433465018868446,0.07652436196804047,0.07714291661977768,-0.002104236977174878,0.024123433977365494,0.0313708558678627,0.03381126746535301,-0.008584605529904366,-0.043972764164209366,-0.14514721930027008,-0.026728985831141472,0.12135320901870728,-0.08534883707761765,0.08192487806081772,0.03569009527564049,0.006072309799492359,0.12969301640987396,0.04052242264151573,0.05551959574222565,-0.07148159295320511,-0.09885154664516449,0.020424941554665565,-0.07811432331800461,0.007639668416231871,-0.05431807041168213,0.0003084211202803999,9.566257358528674e-05,-0.006962709128856659,0.04593925550580025,0.0711856409907341,-0.015335509553551674,0.013617991469800472,0.06130293384194374,0.016544684767723083,-0.11540146917104721,0.004893067758530378,-0.004593046847730875,-0.1303016096353531,0.011224260553717613,-0.0640353411436081,-0.010705702938139439,-0.044126950204372406,0.018315238878130913,0.022133570164442062,-0.06582914292812347,0.04362737759947777,-0.14131301641464233,-0.067342109978199,-0.02302950620651245,-0.021954460069537163,0.007301789708435535,0.06942726671695709,0.01549533661454916,0.01902061142027378,-0.013942197896540165,-0.11290445178747177,0.024083033204078674,0.015883957967162132,0.030022861436009407,0.024523090571165085,0.12589575350284576,0.014865519478917122,0.0424579419195652,0.05539366230368614,0.08833833038806915,-0.05383148416876793,-0.09625685960054398,0.07879424095153809,0.07181868702173233,-0.06332321465015411,-0.02136353775858879,-0.020783692598342896,0.056120239198207855,-0.12832589447498322,0.005031818989664316,-0.03792444244027138,-0.029143983498215675,0.002499593887478113,0.050026699900627136,0.07904797792434692,-0.010617408901453018,-0.037974532693624496,0.12943506240844727,0.08771517872810364,0.01382014062255621,-0.04971301183104515,-0.10093944519758224,-0.09836861491203308,-0.006582620553672314,-0.0066141607239842415,-0.001414263853803277,0.010865136049687862,-0.004518675617873669,0.07190554589033127,0.04223143681883812,0.04872019961476326,0.009013679809868336,0.04783119261264801,-0.029317721724510193,-0.012384303845465183,0.021389827132225037,0.09281838685274124,0.04847715422511101,0.10199552029371262,-0.11155737936496735,0.0077971359714865685,-0.03491082787513733,-0.07538224011659622,-0.07132075726985931,0.06429877877235413,-0.0606425441801548,-0.008880401961505413,-0.0256931371986866,-0.06771523505449295,0.11673758178949356,0.04597193002700806,0.008031874895095825,-0.00206562876701355,-0.0032284350600093603,0.0017980389529839158,-0.04846058413386345,-0.06910895556211472,0.03858180344104767,0.0029632975347340107,0.022965239360928535,0.032328154891729355,0.0005595469265244901,0.01058935932815075,0.03542505204677582,-0.00545486668124795,-0.04917638748884201,0.03076791949570179,-0.02303796447813511,0.040497709065675735,0.031089426949620247,0.021229971200227737,0.03248410299420357,-0.04847417026758194,-0.06949011981487274,-0.00169111299328506,0.08666441589593887,0.01931801810860634,0.023115791380405426,-0.03825466334819794,0.04030967876315117,0.10365530848503113,-0.07288113236427307,-0.006511181127279997
bangladesch,-0.04415367171168327,0.04906296357512474,0.007725606672465801,-0.02686614915728569,0.04197785630822182,-0.0025015666615217924,0.10480080544948578,0.007124865893274546,-0.024438079446554184,-0.039882030338048935,0.028660878539085388,-0.06960508227348328,-0.03981535881757736,-0.05476304516196251,-0.06705130636692047,-0.04184145852923393,0.058669716119766235,0.020431436598300934,0.04603278636932373,0.027135098353028297,0.008578959852457047,0.013722636736929417,0.09462782740592957,-0.05911456421017647,0.020822331309318542,0.08812640607357025,-0.05492718890309334,0.04495634511113167,-0.03976788744330406,0.014879790134727955,0.05468997731804848,0.022434134036302567,0.06920374184846878,-0.08003129065036774,0.0030782176181674004,0.05193707346916199,-0.09389706701040268,-0.0774555504322052,-0.05680466070771217,0.06610506772994995,-0.04363974928855896,0.08928307890892029,-0.02568061463534832,-0.007028094492852688,-0.007957659661769867,0.005045267753303051,-0.08506980538368225,-0.0002142676676157862,0.044655684381723404,-0.039353348314762115,-0.12415692955255508,0.08752275258302689,-0.040921419858932495,0.042494241148233414,0.07873231172561646,-0.07270405441522598,-0.0012494606198742986,0.021387599408626556,0.11340022832155228,-0.07577424496412277,0.0703488439321518,-0.050938017666339874,0.060673054307699203,-0.02923094481229782,0.009108119644224644,0.0911986231803894,0.003622527001425624,-0.026355087757110596,-0.0519985593855381,0.010845553129911423,-0.022596130147576332,-0.03972192853689194,0.1501048058271408,-0.08912600576877594,0.04316088557243347,0.08190037310123444,0.02822302095592022,0.06705781817436218,-0.0027259672060608864,0.005636746995151043,-0.002085754182189703,0.0614437609910965,-0.12193937599658966,-0.049084100872278214,-0.0045095751993358135,-0.0391690768301487,-0.06590504944324493,0.048916831612586975,0.0333520844578743,0.01636430434882641,-0.019800445064902306,-0.017018377780914307,-0.022607991471886635,-0.017640184611082077,0.03126111254096031,0.029974142089486122,-0.009583733975887299,-0.14579136669635773,0.09593284875154495,-0.011622770689427853,0.047620173543691635,0.054121024906635284,0.03195919841527939,0.10333890467882156,0.010904347524046898,0.02960638701915741,0.13696031272411346,0.019273068755865097,-0.01771005243062973,0.019590530544519424,-0.08641070872545242,0.06905333697795868,0.034857042133808136,0.051265113055706024,-0.04634551703929901,0.039456069469451904,-0.0004414133436512202,-0.12379343807697296,-0.036867570132017136,-0.06026444584131241,-0.01345119159668684,0.03328639641404152,0.0378471314907074,-0.013694819994270802,0.03222011402249336,0.007467762101441622,-0.02099931426346302,-0.01167913619428873,0.03440755978226662,0.1411026120185852,0.06833434104919434,0.02916000783443451,-0.09048712998628616,-0.11231141537427902,0.010362121276557446,0.13769713044166565,0.09445938467979431,0.04630441218614578,0.046008531004190445,0.03536374121904373,0.02822760120034218,-0.0195638295263052,0.02029535174369812,-0.013760498724877834,-0.024203283712267876,-0.09469089657068253,-0.036895330995321274,3.7486664950847626e-05,0.01567511446774006,-0.047792334109544754,0.011928017251193523,0.10931897908449173,0.013206983916461468,0.02366526424884796,-0.02010256238281727,0.014967754483222961,0.07159722596406937,-0.03150540590286255,0.06937937438488007,-0.07100968062877655,-0.03854258731007576,-0.10530262440443039,-0.022063536569476128,0.02317649871110916,-0.01774410903453827,0.06588193029165268,0.0718570351600647,-0.022382885217666626,0.047891199588775635,0.00035318502341397107,-0.02025173231959343,0.028310466557741165,0.007436346262693405,0.010198193602263927,-0.012632234022021294,-0.059341587126255035,-0.053679902106523514,-0.035913243889808655,0.16407382488250732,0.010703043080866337,-0.025078807026147842,0.05682418867945671,-0.0757845938205719,0.03017536923289299,0.04402151703834534,0.0013834068085998297,0.10707826167345047,0.022450873628258705,-0.0200644638389349,-0.08859051764011383,-0.009603194892406464,0.03413182497024536,-0.07197480648756027,0.01894434727728367,-0.0459081195294857,-0.11450964212417603,-0.09239612519741058,-0.05244604870676994,-0.11252757906913757,-0.07560253888368607,0.0078512541949749,0.12315105646848679,0.02168450877070427,-0.017375975847244263,0.0049937693402171135,0.02004382014274597,0.0393684059381485,-0.015028534457087517,0.01214432530105114,-0.024748653173446655,-0.08806530386209488,0.00506318174302578,-0.012074512429535389,0.020028041675686836,-0.014311358332633972,0.0450630858540535,0.040767520666122437,-0.06826440244913101,-0.06616459041833878,0.048880260437726974,-0.12190453708171844,-0.0916614681482315,-0.0827462300658226,-0.03488972410559654,0.12143401056528091,-0.07451865077018738,-0.08209983259439468,-0.03848828002810478,-0.012330662459135056,0.007701320108026266,0.008760417811572552,0.05846971645951271,0.03243662044405937,-0.03160177916288376,0.018219903111457825,-0.018971774727106094,-0.06054646894335747,0.10215818881988525,0.034172844141721725,-0.04516783356666565,-0.124018594622612,-0.040575627237558365,-0.0418982058763504,-0.06567302346229553,-0.09061072766780853,0.05821732059121132,0.038684286177158356,0.0576535239815712,0.08748256415128708,-0.02206062525510788,0.010296291671693325,-0.010011356323957443,0.0767103061079979,0.03118503838777542,-0.01808953657746315,0.0889052227139473,0.03160509839653969,-0.008530688472092152,-0.05899011343717575,0.0008517926326021552,-0.0314740389585495,0.06702010333538055,0.017691301181912422,-0.07773526012897491,-0.09529869258403778,-0.05540265515446663,0.090748630464077,0.026317449286580086,0.017138302326202393,0.1196281760931015,0.032924845814704895,0.0710272341966629,-0.05442227050662041,-0.00494022062048316,-0.01647002436220646,-0.06398632377386093,-0.04534376785159111,-0.0029703774489462376,0.06136566027998924,0.014291200786828995,-0.015335287898778915,0.038151390850543976,0.09787236899137497,0.13808925449848175,0.058320242911577225,-0.03658060356974602,0.002050257520750165,0.0073982165195047855,-0.07409277558326721,0.05009833350777626,-0.01724233105778694,0.01442651730030775,-0.07625363767147064,0.019502751529216766,0.0010587950237095356,0.03219655156135559,0.03834213688969612,-0.05145584046840668,-0.061316508799791336,0.031129933893680573
belarus,0.07165248692035675,0.006161078345030546,0.12512850761413574,-0.03202439099550247,0.04526076465845108,0.009743734262883663,0.11874078959226608,0.01858019456267357,0.10934551060199738,-0.09926122426986694,0.010507464408874512,-0.04525170102715492,0.013074876740574837,-0.048033472150564194,-0.0035180950071662664,0.09640313684940338,-0.03730474039912224,0.021098867058753967,-0.04767376929521561,0.0011937811505049467,-0.019012991338968277,0.0013272259384393692,0.009727200493216515,0.0015261693624779582,0.033054035156965256,0.10218639671802521,-0.10192222893238068,-0.01809367910027504,-0.03663697838783264,-0.1145460307598114,-0.044183727353811264,0.011545196175575256,-0.009580031968653202,-0.07141207903623581,0.015020245686173439,0.10718175768852234,-0.036823175847530365,0.0191761814057827,-0.04927389323711395,0.05241543799638748,0.03269129991531372,0.07598606497049332,-0.007779943756759167,-0.01119248103350401,0.09170083701610565,0.06964637339115143,0.03310980647802353,0.01720181293785572,-0.008212916553020477,0.09416119754314423,0.07624828815460205,0.05685489997267723,0.011287612840533257,0.04105297848582268,-0.0021183486096560955,0.11656582355499268,0.007734862621873617,-0.04300104081630707,0.09448771923780441,0.06737427413463593,-0.0383416973054409,-0.16936881840229034,-0.010914962738752365,0.0028837749268859625,0.004913998302072287,0.02314699999988079,-0.006723753642290831,-0.11960563063621521,0.03199732303619385,-0.08693293482065201,0.04372493922710419,-0.008236532099545002,0.05682528764009476,0.04551010951399803,0.06168125942349434,0.07722694426774979,-0.01766258478164673,-0.11833199858665466,0.0018233739538118243,-0.04445106163620949,0.07493122667074203,0.007136561907827854,0.0006408472545444965,-0.110381580889225,0.035277701914310455,-0.027669472619891167,0.009414304047822952,0.01794601045548916,0.012388025410473347,0.0013331915251910686,-0.07802630215883255,-0.049092959612607956,-0.09567400068044662,0.048589881509542465,0.016255604103207588,-0.048080794513225555,0.026382051408290863,-0.011373789049685001,0.005200609099119902,0.015349402092397213,0.019003551453351974,0.07747095078229904,0.03565731644630432,-0.01152871921658516,-0.027007631957530975,-0.054830681532621384,0.0030994145199656487,0.0834311991930008,-0.04444808512926102,0.05636996030807495,0.05987728387117386,0.05995943397283554,-0.015308802947402,0.04844123497605324,0.030881762504577637,-0.029132729396224022,0.01928865909576416,0.00517777306959033,0.03613779693841934,-0.013633787631988525,-0.0883956179022789,-0.07061655819416046,-0.024047046899795532,0.07296633720397949,0.027594266459345818,0.083750881254673,0.025976473465561867,0.11557627469301224,0.016500690951943398,0.04936062917113304,0.04439111053943634,0.05228114873170853,-0.11831282079219818,-0.06269524991512299,-0.10095573961734772,0.01766378805041313,0.052057504653930664,0.11658480763435364,-0.003057603258639574,0.13258233666419983,-0.047591682523489,-0.039090968668460846,-0.12754665315151215,0.006520618684589863,0.023408416658639908,0.0049642594531178474,-0.03287045285105705,-0.016045210883021355,-0.021538635715842247,-0.03915493190288544,0.047966428101062775,0.08719822019338608,0.0807231217622757,-0.048109836876392365,-0.03494492918252945,-0.06429528445005417,-0.08892235159873962,-0.024608010426163673,-0.00444992259144783,-0.08424331247806549,-0.041737478226423264,-0.0038289865478873253,0.02250746078789234,-0.02865840122103691,-0.047109078615903854,0.05384032800793648,0.02385528013110161,0.059135403484106064,0.10996349155902863,-0.011118657886981964,0.08432677388191223,0.06287932395935059,-0.04254935681819916,-0.1047670915722847,0.023526832461357117,0.011752579361200333,-0.1479506939649582,-0.020430395379662514,0.04970913752913475,-0.10745774209499359,-0.024093346670269966,-0.07813368737697601,-0.007918248884379864,0.07585090398788452,0.04048008471727371,-0.028574950993061066,0.022601434960961342,-0.08455180376768112,-0.07590562105178833,-0.05494967848062515,-0.06543204933404922,-0.0470285601913929,-0.01981046237051487,0.058101359754800797,-0.08426941186189651,-0.05873282253742218,-0.02786341682076454,0.0409112311899662,-0.11822786182165146,0.019103439524769783,-0.03788275271654129,0.007568263448774815,0.026471788063645363,-0.029556145891547203,-0.01265333965420723,0.012994685210287571,0.038759808987379074,0.07454241067171097,-0.06147921830415726,-0.13914988934993744,-0.009786662645637989,0.015981372445821762,-0.037914447486400604,0.07489251345396042,-0.025845151394605637,0.06453903019428253,0.06798423826694489,0.11216231435537338,0.006721275858581066,-0.0077903843484818935,-0.0055212895385921,-0.07367455214262009,-0.006079666316509247,-0.08025301247835159,0.0431181900203228,-0.09869427978992462,-0.014553895220160484,0.008874165825545788,0.048517487943172455,-0.1226724237203598,-0.008643433451652527,0.07203685492277145,0.0001859718468040228,-0.006031752098351717,-0.043031465262174606,-0.07921042293310165,0.0026827333495020866,-0.11431664228439331,0.01771237887442112,0.004519877023994923,0.010630630888044834,0.006162102799862623,-0.002817761152982712,0.0028862874023616314,0.02407083846628666,0.043743859976530075,-0.0044862558133900166,0.02549256756901741,0.004721107427030802,-0.044896651059389114,0.08764857798814774,-0.07216949015855789,5.128868724568747e-05,-0.06513262540102005,0.050039615482091904,0.055076468735933304,0.006539622787386179,0.04269365593791008,0.007075134664773941,0.09424051642417908,-0.05066470429301262,0.0425347238779068,0.004351299721747637,0.07711931318044662,-0.006271496415138245,0.19427898526191711,0.03978581354022026,-0.008614561520516872,-0.011860955506563187,-0.0026903017424046993,0.08450715243816376,-0.012821417301893234,-0.05884993448853493,-0.015661587938666344,0.0284978486597538,-0.15171875059604645,0.004465707112103701,-0.04978344216942787,0.059976208955049515,0.019553018733859062,0.021920574828982353,-0.023799613118171692,-0.05545676872134209,-0.05566655471920967,0.07443877309560776,0.047864850610494614,0.01115852128714323,-0.0011087722377851605,-0.01499806996434927,0.006141227204352617,-0.027765817940235138,0.04127257689833641,-0.005856477655470371,0.06915846467018127,-0.032385844737291336,0.02171531692147255,-0.02507430501282215,-0.03881774842739105,-0.013149934820830822,-0.06087203696370125
belgien,0.056522175669670105,0.03221830353140831,-0.009189448319375515,-0.021252477541565895,0.11870615929365158,-0.03442462161183357,0.03718893975019455,0.047317489981651306,0.0745823010802269,0.0030676135793328285,-0.03341684862971306,-0.03447289019823074,-0.07129175961017609,0.0519561842083931,-0.05815854296088219,0.009342282079160213,-0.026982707902789116,-0.02446533553302288,-0.018196627497673035,-0.03186101093888283,0.08026467263698578,0.04276455193758011,0.016156306490302086,0.05805516615509987,-0.016626793891191483,0.03067474439740181,-0.09562304615974426,0.12300141155719757,0.02987542375922203,-0.09906478971242905,0.03378821164369583,-0.007754645776003599,-0.06381727010011673,-0.004951992072165012,0.007321089040488005,-0.08753553032875061,-0.007878050208091736,0.01585346646606922,0.07395113259553909,-0.05512509495019913,-0.02734067663550377,-0.022864283993840218,0.011708910576999187,0.1118006780743599,-0.07090514898300171,0.006048007868230343,-0.05023055523633957,0.026658618822693825,0.10918517410755157,-0.02736593224108219,0.03824363648891449,-0.04262082651257515,0.003176446072757244,0.10983917862176895,0.06755323708057404,0.014325765892863274,-0.09763742238283157,-0.04512615129351616,0.017423035576939583,0.050149399787187576,-0.030184943228960037,-0.032707300037145615,0.09564761817455292,-0.022808846086263657,-0.012201491743326187,0.09122943878173828,-0.01893594302237034,-0.008645444177091122,-0.0069763134233653545,0.03304914012551308,0.027385177090764046,0.06685126572847366,-0.03553445264697075,-0.040952883660793304,0.10372117161750793,0.02522013522684574,0.033797673881053925,0.03200118988752365,0.07529473304748535,-0.09835457801818848,0.014135152101516724,0.059873029589653015,0.09680769592523575,-0.034812282770872116,-0.004262080416083336,0.0013187293661758304,0.011212591081857681,0.056505296379327774,0.00918804295361042,0.06807146966457367,-0.027027076110243797,-0.07490990310907364,0.01620236225426197,0.03827153518795967,-0.0482478141784668,-0.044386982917785645,0.010120775550603867,-0.09046903997659683,0.04716461896896362,-0.042338188737630844,0.01666058599948883,0.12951254844665527,-0.10717212408781052,0.0014727452071383595,-0.01858564279973507,-0.01654890924692154,0.09194016456604004,0.11242597550153732,0.03621537610888481,0.022377487272024155,0.010756270959973335,0.0027349544689059258,0.08954691141843796,0.06541020423173904,-0.008735129609704018,-0.04345853999257088,0.17681781947612762,-0.09556921571493149,-0.08676929026842117,-0.01795906573534012,0.028881117701530457,-0.020988311618566513,0.00892591942101717,0.01936209946870804,0.019245777279138565,0.04761861264705658,0.06861773133277893,-0.015170822851359844,-0.003521805861964822,0.01685858517885208,-0.05480637401342392,0.08308198302984238,-0.038707319647073746,-0.04766330122947693,-0.13052016496658325,-0.024907736107707024,0.033800382167100906,0.07675553858280182,0.08837305754423141,0.0716797485947609,0.02072644606232643,-0.029436558485031128,0.0011744905496016145,0.05061349645256996,0.03704385086894035,0.09322089701890945,-0.02183573879301548,0.04027622193098068,-0.04639530926942825,-0.031246310099959373,0.004590451251715422,0.031349487602710724,-0.014838624745607376,0.08456969261169434,-0.007162381429225206,0.020578868687152863,-0.011613711714744568,0.14368052780628204,0.08697877824306488,-0.07862395793199539,0.10436467826366425,-0.032526396214962006,0.05195275694131851,0.02052811160683632,-0.025724872946739197,0.11133987456560135,-0.08179464191198349,0.010092436335980892,0.027462594211101532,0.04066421091556549,0.028748750686645508,-0.06409519910812378,-0.0023359220940619707,0.056225813925266266,0.02686919830739498,-0.10947927832603455,-0.055517569184303284,-0.0256353747099638,0.0569721944630146,0.003246872453019023,0.0009592368733137846,-0.0173062551766634,0.061365123838186264,0.05545966327190399,-0.021026568487286568,-0.12895722687244415,-0.06476548314094543,-0.13154450058937073,0.013134988024830818,-0.016123397275805473,0.0748063325881958,-0.06232886016368866,-0.08192144334316254,0.017549894750118256,0.05550414323806763,0.08186498284339905,0.04568369686603546,0.03957187011837959,-0.08618297427892685,-0.006013285834342241,-0.03889470919966698,0.0048209140077233315,0.025063322857022285,0.09258831292390823,-0.07693953067064285,-0.020843079313635826,-0.0776124820113182,-0.05519497022032738,0.0019446087535470724,-0.06987765431404114,0.06438840925693512,0.012020997703075409,-0.09383609890937805,0.06324922293424606,-0.011674531735479832,0.03341140225529671,0.023350166156888008,0.008186616003513336,-0.009823381900787354,-0.07523110508918762,0.04944324865937233,0.014058324508368969,-0.040871523320674896,-0.02817164547741413,-0.04283604770898819,-0.07890717685222626,-0.06654439866542816,-0.015251618809998035,-0.1366933435201645,0.017755812034010887,-0.000610806979238987,0.057622529566287994,-0.022118132561445236,0.006162967067211866,0.03894750028848648,0.02805817686021328,-0.013948067091405392,0.06416714191436768,-0.010150249116122723,-0.009486103430390358,0.0068345400504767895,-0.0397370420396328,-0.020768536254763603,-0.0712723508477211,0.03949442878365517,0.057257816195487976,0.00283412984572351,0.0678386315703392,-0.04365817829966545,0.11490575969219208,-0.012183669954538345,0.04149574041366577,0.008315899409353733,0.030672192573547363,0.04095705598592758,0.05134426802396774,-0.014642288908362389,0.05362372472882271,-0.1058846041560173,-0.09386584162712097,-0.026771986857056618,-0.10209613293409348,-0.0724366083741188,0.03056015633046627,-0.11182238161563873,-0.012795963324606419,0.140780508518219,0.05307278409600258,-0.04607195779681206,-0.08625416457653046,-0.12490889430046082,-0.020613176748156548,-0.07733364403247833,-0.07093523442745209,0.06080635264515877,-0.04587297514081001,-0.04745722934603691,0.046800658106803894,0.016013309359550476,0.043986834585666656,-0.004643893335014582,-0.0495338998734951,-0.0164666585624218,0.10000864416360855,-0.004908555652946234,0.07973334938287735,-0.0859864354133606,0.05936050042510033,-9.26618668017909e-06,0.04271598532795906,0.03206539526581764,-0.02696019969880581,-0.04431510716676712,0.09705802798271179,-0.027339164167642593,-0.07518025487661362,-0.024610143154859543,-0.05049670860171318,0.032465822994709015,-0.0020487653091549873
bosnien_und_herzegowina,0.06759362667798996,-0.004057468380779028,0.025920690968632698,-0.0034382836893200874,0.10003557056188583,0.03452267497777939,0.10678386688232422,0.036244604736566544,-0.11106149107217789,0.06097060441970825,-0.05205930024385452,-0.02540489472448826,-0.10803557932376862,0.005684740841388702,0.004413687624037266,-0.020290523767471313,-0.05448742210865021,-0.023699568584561348,0.005992625840008259,-0.03951595351099968,0.09871144592761993,-0.023594750091433525,0.02342473715543747,-0.03281670808792114,0.004222864750772715,0.0008759824559092522,-0.07290220260620117,-0.03162238001823425,-0.06754306703805923,-0.08611954748630524,-0.0167197547852993,-0.01801384426653385,-0.03448408469557762,-0.007745982613414526,0.08844038099050522,0.010381340980529785,-0.022760331630706787,-0.09531939029693604,-0.04141777381300926,-0.015307730995118618,0.014342868700623512,0.0019933052826672792,-0.04663654789328575,-0.01545241940766573,-0.04826661944389343,0.10689779371023178,-0.0627555251121521,0.03161652386188507,-0.052748411893844604,0.004197841975837946,-0.05275016650557518,-0.013445425778627396,-0.015821149572730064,0.05819375440478325,-0.04069779813289642,0.009564846754074097,-0.07073397189378738,-0.020043451339006424,-0.013335196301341057,0.05057648569345474,-0.009098013862967491,-0.004646223969757557,-0.026317335665225983,-0.028768397867679596,0.09494724869728088,0.028970275074243546,-0.12295615673065186,-0.09204571694135666,0.01871734857559204,0.1038314551115036,0.03322436287999153,-0.026515191420912743,-0.006745943799614906,-0.0697370395064354,0.11035775393247604,0.06594577431678772,-0.07087329030036926,0.020864086225628853,-0.05530504137277603,-0.01076224260032177,0.004679314326494932,-0.03147260844707489,0.09156139940023422,-0.03911827877163887,-0.07847568392753601,0.018082652240991592,-0.026188137009739876,-0.08043737709522247,-0.012236380949616432,0.019636644050478935,0.03638569265604019,-0.02089019864797592,0.028425469994544983,-0.004982058424502611,0.01132560521364212,0.09386438131332397,-0.020638052374124527,-0.011702070944011211,-0.0948890969157219,-0.05494019016623497,-0.06815622001886368,-0.027643488720059395,0.013022441416978836,0.07337269932031631,-0.032413266599178314,0.09756597876548767,0.08231425285339355,0.04664238542318344,-0.10265769064426422,0.10511527955532074,-0.011181033216416836,-0.01548590138554573,-0.03422671556472778,0.03991292044520378,0.0007511873845942318,0.023057254031300545,0.029442382976412773,-0.0032370155677199364,-0.04855332151055336,-0.01959299109876156,-0.05649780482053757,0.05792595073580742,0.03100116364657879,0.06340297311544418,0.011257362551987171,0.04039362818002701,-0.003514343872666359,-0.02224159613251686,0.01914633810520172,0.12143658101558685,0.08054880797863007,0.03854711726307869,-0.001727304537780583,-0.054779138416051865,-0.023608967661857605,-0.00500867236405611,-0.018337856978178024,0.07490047812461853,0.17648392915725708,0.021641628816723824,0.02132570743560791,-0.005641397088766098,-0.03916531801223755,-0.08795973658561707,0.029745761305093765,0.052932579070329666,0.035624049603939056,-0.07043338567018509,0.04976619407534599,-0.00021369929891079664,-0.09118333458900452,0.021685803309082985,0.08286289125680923,-0.01814451441168785,0.03997684642672539,0.0542311817407608,-0.03446885943412781,0.002181838732212782,0.05209866911172867,-0.006806211080402136,0.02904398739337921,0.008882729336619377,0.0860111266374588,-0.02746959961950779,-0.0014861997915431857,-0.044949211180210114,-0.027707835659384727,0.00912170298397541,0.07513685524463654,-0.02621121145784855,0.01451094076037407,0.1391209363937378,-0.01810690388083458,0.03224518895149231,0.05528794229030609,-0.06251934915781021,0.004672969691455364,-0.15726971626281738,-0.023836569860577583,-0.04704383388161659,0.005515828728675842,0.03538430109620094,0.061755407601594925,0.16942425072193146,0.00583227351307869,-0.12249663472175598,0.009513629600405693,-0.11590573936700821,-0.028361547738313675,-0.008981473743915558,-0.06425390392541885,-0.0669110044836998,0.004766274243593216,-0.0764431431889534,0.04802171513438225,-0.04631058871746063,0.0026505293790251017,-0.04093308001756668,-0.07248707115650177,-0.03899453207850456,-0.08363082259893417,-0.05264771357178688,-0.02758411504328251,-0.08390393108129501,0.06272464990615845,-0.0981561690568924,-0.054928697645664215,0.009102039970457554,-0.061586908996105194,-0.0533570758998394,-0.029073622077703476,-0.01715308241546154,-0.07096324115991592,0.08771269023418427,4.380310656415531e-06,0.06464064866304398,-0.018234867602586746,0.058319274336099625,-0.007016523275524378,-0.05450291186571121,-0.02697581797838211,0.04837409779429436,0.01610935851931572,-0.070682592689991,0.11154333502054214,-0.051773179322481155,0.09450550377368927,0.08412473648786545,0.0604386143386364,-0.01710432581603527,0.042897410690784454,0.07358837127685547,-0.05406826734542847,-0.022191673517227173,0.010691347531974316,-0.030856018885970116,-0.013708445243537426,0.03782347962260246,0.05639249458909035,-0.011796425096690655,-0.04119770973920822,0.06169041991233826,-0.051287710666656494,-0.033378053456544876,-0.012066520750522614,0.05128004774451256,0.09852413833141327,-0.002290951320901513,-0.09690015763044357,-0.06010112538933754,0.07726173847913742,-0.03573913499712944,0.08534104377031326,0.02585604600608349,0.013599448837339878,0.05006701126694679,0.0239585991948843,0.0008603335008956492,-0.08735895156860352,-0.10706727206707001,-0.09455739706754684,0.05080607160925865,0.04082522541284561,-0.021607430651783943,-0.012413829565048218,0.03619444742798805,0.00897235982120037,0.08886458724737167,0.0038684005849063396,0.029630914330482483,0.17874783277511597,0.0779590830206871,-0.14516295492649078,-0.06902265548706055,-0.04925097897648811,-0.0018052683444693685,-0.03464454412460327,0.011476309970021248,-0.017928000539541245,-0.03404040262103081,-0.027642549946904182,-0.005704441107809544,-0.11033384501934052,-0.027638625353574753,-0.03746839985251427,-0.010704372078180313,0.06983168423175812,-0.018164124339818954,-0.0012272403109818697,-0.051250871270895004,0.14023767411708832,-0.08392322063446045,0.01860806532204151,-0.05236060544848442,-0.09029989689588547,-0.0034363309387117624,-0.025620581582188606,0.09364908933639526,-0.018176143988966942,-0.06606660038232803
brasilien,-0.011878645047545433,-0.03312041237950325,-0.00935176108032465,0.001860564574599266,0.05789460614323616,-0.06188930198550224,0.048537760972976685,-0.005984603427350521,0.13239873945713043,-0.11227771639823914,0.10926730930805206,-0.004859096370637417,-0.054892633110284805,-0.04429023712873459,-0.017266884446144104,-0.002654143376275897,0.019768821075558662,0.012387554161250591,0.05060424283146858,-0.0019056794699281454,-0.10000422596931458,0.07171561568975449,0.07210153341293335,-0.057339150458574295,0.004473009612411261,0.09714394807815552,0.044089797884225845,-0.03533178195357323,0.0987778902053833,-0.030224867165088654,0.04459090158343315,0.004602866247296333,0.06110834330320358,-0.05322297662496567,0.008838579058647156,0.03904242813587189,-0.09014452248811722,-0.05604764074087143,-0.011815418489277363,0.037371598184108734,-0.022500133141875267,0.05651846155524254,0.02748832106590271,-0.015020214952528477,0.10283996909856796,0.01373471599072218,-0.05462465062737465,-0.02806929126381874,0.05047951266169548,-0.0439000241458416,-0.05094647407531738,0.05571325495839119,0.013507111929357052,-0.012583340518176556,0.11717082560062408,0.09211272746324539,-0.07540621608495712,0.03410331904888153,0.07343456894159317,-0.00757326977327466,-0.03445989638566971,0.015559009276330471,-0.08649275451898575,0.12245222181081772,0.03999638557434082,-0.012288789264857769,-0.08712030947208405,-0.022303536534309387,0.02873079478740692,0.07177288085222244,-0.10569204390048981,-0.027029065415263176,-0.031164739280939102,0.03498927503824234,0.04891309514641762,0.04773523658514023,0.056772857904434204,-0.07087454944849014,0.04364117980003357,-0.11430251598358154,0.08756985515356064,0.051355648785829544,-0.017582708969712257,-0.09136384725570679,0.01645725406706333,-0.013577285222709179,-0.06451314687728882,-0.07599466294050217,-0.023539790883660316,-0.02889288403093815,-0.019726058468222618,0.04862087965011597,-0.016851166263222694,-0.039349380880594254,-0.058803729712963104,-0.042539581656455994,-0.031829822808504105,-0.016942642629146576,0.0515773668885231,-0.08420314639806747,0.026480209082365036,0.02167772315442562,0.0016082286601886153,0.13952769339084625,-0.1059546023607254,0.010654423385858536,0.04963017627596855,-0.05724915489554405,-0.05924851447343826,0.016098633408546448,-0.013177819550037384,0.014436984434723854,0.0832308977842331,-0.0010764203034341335,-0.10043830424547195,-0.009910330176353455,-0.053629353642463684,0.049013540148735046,-0.07784999161958694,-0.04177304729819298,-0.03821808844804764,-0.027898594737052917,0.017183002084493637,0.026017986238002777,0.028827639296650887,-0.048121318221092224,0.053020283579826355,0.13953374326229095,0.04164718836545944,0.060731373727321625,0.015321756713092327,0.011085963808000088,-0.035316102206707,0.026826677843928337,-0.02473580092191696,-0.02556747943162918,-0.034193005412817,0.12246361374855042,0.09274884313344955,-0.034754712134599686,0.05360519513487816,0.06854516267776489,-0.023198820650577545,-0.01868489384651184,0.12537047266960144,-0.10537781566381454,-0.00033927144249901175,0.04110988229513168,0.0015242751687765121,-0.11796689033508301,0.008944958448410034,-0.003462165594100952,-0.002172025851905346,0.030422905460000038,-0.058821000158786774,-0.029805874451994896,-0.004966827109456062,0.07817234843969345,-0.004600092303007841,0.008593099191784859,0.05430424585938454,-0.06733020395040512,-0.004765972029417753,-0.047368116676807404,0.020513076335191727,0.10555224120616913,-0.027091380208730698,0.04387250542640686,-0.010640318505465984,0.06839364767074585,0.02773199789226055,0.026599399745464325,0.011074057780206203,0.04134134575724602,0.010246655903756618,-0.14336742460727692,-0.055163510143756866,0.020464280620217323,-0.07638078182935715,0.005379463080316782,0.10436515510082245,0.057475246489048004,0.032777998596429825,0.0324547179043293,-0.06488404422998428,0.0005418285727500916,0.10952959209680557,-0.011552299372851849,0.05422673001885414,-0.04832027480006218,0.020943576470017433,-0.002565239556133747,-0.050732895731925964,-0.05637163668870926,-0.01976769231259823,-0.0530628077685833,0.000978201045654714,-0.009177732281386852,-0.02658444084227085,0.016102829948067665,0.08190563321113586,0.04117009416222572,0.010705369524657726,0.022428395226597786,0.014526146464049816,0.008585255593061447,0.05033118650317192,0.010080255568027496,-0.013871164992451668,-0.02148890681564808,-0.019829563796520233,-0.05376368388533592,0.0408732146024704,0.08051888644695282,0.02111174538731575,0.20262593030929565,-0.04037918150424957,-0.022396594285964966,-0.11225124448537827,-0.06214475259184837,0.007984980009496212,-0.04610459879040718,0.07390594482421875,0.05259006470441818,0.0061522191390395164,-0.06778551638126373,0.009585283696651459,-0.05706698074936867,-0.09239423274993896,-0.023725159466266632,0.030592389404773712,0.10920524597167969,-0.01850309409201145,0.0477650910615921,-0.05990350618958473,-0.040534812957048416,-0.103273905813694,0.04595283046364784,-0.0678861066699028,-0.10977517813444138,-0.06891798228025436,0.008632137440145016,-0.03246678411960602,-0.010261372663080692,0.14168556034564972,0.004758056253194809,-0.0061017898842692375,0.035909682512283325,-0.05239171162247658,-0.04687626659870148,-0.002339109545573592,0.010185236111283302,0.028106296434998512,-0.025222355499863625,0.10345276445150375,0.12623319029808044,-0.024342352524399757,-0.046643614768981934,0.03274601697921753,-0.03711416944861412,0.012093880213797092,0.05364740639925003,0.08390434831380844,0.03553180769085884,-0.042703330516815186,-0.04086100310087204,0.07352092862129211,0.051278237253427505,-0.07550603896379471,0.04316757619380951,0.0067552002146840096,0.06922054290771484,-0.015374903567135334,-0.04207596555352211,0.06807708740234375,-0.11560017615556717,-0.04784957319498062,0.04316921532154083,0.0004937124322168529,0.04853881523013115,0.016043227165937424,0.005531637463718653,0.015186243690550327,-0.0447244755923748,-0.04752122610807419,-0.09466297924518585,-0.022439435124397278,0.06206095591187477,0.00021922583982814103,0.046332359313964844,0.09188196808099747,-0.0601290762424469,-0.02736000344157219,0.06804264336824417,0.0067208088003098965,0.019860893487930298,0.09452033787965775,0.08689168095588684,0.045443274080753326,-0.12838736176490784
