Country,Vectordimension_0,Vectordimension_1,Vectordimension_2,Vectordimension_3,Vectordimension_4,Vectordimension_5,Vectordimension_6,Vectordimension_7,Vectordimension_8,Vectordimension_9,Vectordimension_10,Vectordimension_11,Vectordimension_12,Vectordimension_13,Vectordimension_14,Vectordimension_15,Vectordimension_16,Vectordimension_17,Vectordimension_18,Vectordimension_19,Vectordimension_20,Vectordimension_21,Vectordimension_22,Vectordimension_23,Vectordimension_24,Vectordimension_25,Vectordimension_26,Vectordimension_27,Vectordimension_28,Vectordimension_29,Vectordimension_30,Vectordimension_31,Vectordimension_32,Vectordimension_33,Vectordimension_34,Vectordimension_35,Vectordimension_36,Vectordimension_37,Vectordimension_38,Vectordimension_39,Vectordimension_40,Vectordimension_41,Vectordimension_42,Vectordimension_43,Vectordimension_44,Vectordimension_45,Vectordimension_46,Vectordimension_47,Vectordimension_48,Vectordimension_49,Vectordimension_50,Vectordimension_51,Vectordimension_52,Vectordimension_53,Vectordimension_54,Vectordimension_55,Vectordimension_56,Vectordimension_57,Vectordimension_58,Vectordimension_59,Vectordimension_60,Vectordimension_61,Vectordimension_62,Vectordimension_63,Vectordimension_64,Vectordimension_65,Vectordimension_66,Vectordimension_67,Vectordimension_68,Vectordimension_69,Vectordimension_70,Vectordimension_71,Vectordimension_72,Vectordimension_73,Vectordimension_74,Vectordimension_75,Vectordimension_76,Vectordimension_77,Vectordimension_78,Vectordimension_79,Vectordimension_80,Vectordimension_81,Vectordimension_82,Vectordimension_83,Vectordimension_84,Vectordimension_85,Vectordimension_86,Vectordimension_87,Vectordimension_88,Vectordimension_89,Vectordimension_90,Vectordimension_91,Vectordimension_92,Vectordimension_93,Vectordimension_94,Vectordimension_95,Vectordimension_96,Vectordimension_97,Vectordimension_98,Vectordimension_99,Vectordimension_100,Vectordimension_101,Vectordimension_102,Vectordimension_103,Vectordimension_104,Vectordimension_105,Vectordimension_106,Vectordimension_107,Vectordimension_108,Vectordimension_109,Vectordimension_110,Vectordimension_111,Vectordimension_112,Vectordimension_113,Vectordimension_114,Vectordimension_115,Vectordimension_116,Vectordimension_117,Vectordimension_118,Vectordimension_119,Vectordimension_120,Vectordimension_121,Vectordimension_122,Vectordimension_123,Vectordimension_124,Vectordimension_125,Vectordimension_126,Vectordimension_127,Vectordimension_128,Vectordimension_129,Vectordimension_130,Vectordimension_131,Vectordimension_132,Vectordimension_133,Vectordimension_134,Vectordimension_135,Vectordimension_136,Vectordimension_137,Vectordimension_138,Vectordimension_139,Vectordimension_140,Vectordimension_141,Vectordimension_142,Vectordimension_143,Vectordimension_144,Vectordimension_145,Vectordimension_146,Vectordimension_147,Vectordimension_148,Vectordimension_149,Vectordimension_150,Vectordimension_151,Vectordimension_152,Vectordimension_153,Vectordimension_154,Vectordimension_155,Vectordimension_156,Vectordimension_157,Vectordimension_158,Vectordimension_159,Vectordimension_160,Vectordimension_161,Vectordimension_162,Vectordimension_163,Vectordimension_164,Vectordimension_165,Vectordimension_166,Vectordimension_167,Vectordimension_168,Vectordimension_169,Vectordimension_170,Vectordimension_171,Vectordimension_172,Vectordimension_173,Vectordimension_174,Vectordimension_175,Vectordimension_176,Vectordimension_177,Vectordimension_178,Vectordimension_179,Vectordimension_180,Vectordimension_181,Vectordimension_182,Vectordimension_183,Vectordimension_184,Vectordimension_185,Vectordimension_186,Vectordimension_187,Vectordimension_188,Vectordimension_189,Vectordimension_190,Vectordimension_191,Vectordimension_192,Vectordimension_193,Vectordimension_194,Vectordimension_195,Vectordimension_196,Vectordimension_197,Vectordimension_198,Vectordimension_199,Vectordimension_200,Vectordimension_201,Vectordimension_202,Vectordimension_203,Vectordimension_204,Vectordimension_205,Vectordimension_206,Vectordimension_207,Vectordimension_208,Vectordimension_209,Vectordimension_210,Vectordimension_211,Vectordimension_212,Vectordimension_213,Vectordimension_214,Vectordimension_215,Vectordimension_216,Vectordimension_217,Vectordimension_218,Vectordimension_219,Vectordimension_220,Vectordimension_221,Vectordimension_222,Vectordimension_223,Vectordimension_224,Vectordimension_225,Vectordimension_226,Vectordimension_227,Vectordimension_228,Vectordimension_229,Vectordimension_230,Vectordimension_231,Vectordimension_232,Vectordimension_233,Vectordimension_234,Vectordimension_235,Vectordimension_236,Vectordimension_237,Vectordimension_238,Vectordimension_239,Vectordimension_240,Vectordimension_241,Vectordimension_242,Vectordimension_243,Vectordimension_244,Vectordimension_245,Vectordimension_246,Vectordimension_247,Vectordimension_248,Vectordimension_249,Vectordimension_250,Vectordimension_251,Vectordimension_252,Vectordimension_253,Vectordimension_254,Vectordimension_255,Vectordimension_256,Vectordimension_257,Vectordimension_258,Vectordimension_259,Vectordimension_260,Vectordimension_261,Vectordimension_262,Vectordimension_263,Vectordimension_264,Vectordimension_265,Vectordimension_266,Vectordimension_267,Vectordimension_268,Vectordimension_269,Vectordimension_270,Vectordimension_271,Vectordimension_272,Vectordimension_273,Vectordimension_274,Vectordimension_275,Vectordimension_276,Vectordimension_277,Vectordimension_278,Vectordimension_279,Vectordimension_280,Vectordimension_281,Vectordimension_282,Vectordimension_283,Vectordimension_284,Vectordimension_285,Vectordimension_286,Vectordimension_287,Vectordimension_288,Vectordimension_289,Vectordimension_290,Vectordimension_291,Vectordimension_292,Vectordimension_293,Vectordimension_294,Vectordimension_295,Vectordimension_296,Vectordimension_297,Vectordimension_298,Vectordimension_299
afghanistan,0.04044381529092789,-0.051454219967126846,0.005890996661037207,0.04054493457078934,0.048768118023872375,-0.04066597670316696,-0.022166064009070396,-0.04133195802569389,0.09875582903623581,-0.029193269088864326,-0.053266409784555435,-0.08650562167167664,0.06130725145339966,-0.12979230284690857,0.02597123570740223,0.04972658306360245,0.03478209301829338,-0.008547110483050346,0.06067980080842972,0.020254267379641533,-0.0197675209492445,-0.0537346675992012,0.02046487294137478,0.056967154145240784,-0.03369582071900368,0.020920751616358757,-0.11120571941137314,0.07618866860866547,0.0523323230445385,-0.005924928467720747,0.014050545170903206,0.025042612105607986,0.037680137902498245,-0.06311646848917007,-0.0742831751704216,0.011464443057775497,0.050910692662000656,0.015411549247801304,0.06559713929891586,-0.015536678954958916,0.07564078271389008,0.13312864303588867,-0.059984274208545685,-0.059549927711486816,-0.03264070302248001,-0.01788676530122757,0.02718314714729786,0.02201709896326065,0.07318578660488129,-0.010892324149608612,-0.03825584799051285,-0.07322650402784348,0.0504072904586792,0.035344842821359634,0.06074175238609314,0.0049406965263187885,-0.028071805834770203,-0.08305735886096954,-0.00042942888103425503,-0.06848583370447159,0.02896696701645851,-0.012969603762030602,-0.016229616478085518,0.09212563931941986,0.028048571199178696,-0.07619806379079819,-0.026502324268221855,0.0002613683172967285,0.0298031996935606,-0.03927147015929222,0.0059169805608689785,-0.04619450122117996,0.06869585067033768,-0.04674742743372917,0.06100563704967499,0.060494083911180496,-0.052324242889881134,0.04646814987063408,0.005573839880526066,-0.05697045847773552,0.05045250058174133,-0.026709791272878647,-0.0026222800370305777,0.014553266577422619,0.08338874578475952,-0.04086920991539955,-0.006781990174204111,-0.13009971380233765,0.07749911397695541,0.07880499213933945,-0.033101391047239304,0.0013169562444090843,0.0115713095292449,0.08699965476989746,-0.05763327702879906,-0.021116716787219048,-0.03347622603178024,0.03711283951997757,0.03696855157613754,-0.06537521630525589,0.147954523563385,0.032577477395534515,0.03389087691903114,0.014724931679666042,0.0023497329093515873,-0.008354661986231804,0.023873817175626755,0.04812465235590935,-0.011768127791583538,0.08388251066207886,0.0059523070231080055,0.0235646553337574,-0.03356385976076126,0.008433067239820957,0.038457706570625305,-0.04378858953714371,0.056454550474882126,0.0019267225870862603,0.004094485659152269,-0.012688751332461834,-0.08211001753807068,0.011666416190564632,0.05924484506249428,0.1372336894273758,-0.015900585800409317,-0.1515234261751175,0.0032481031958013773,0.10283167660236359,0.12325604259967804,0.018583940342068672,0.0657869428396225,0.045285094529390335,-0.011699453927576542,-0.05515184625983238,-0.06550534814596176,0.045473068952560425,-0.05134923756122589,0.04169996827840805,0.08984354883432388,0.13584841787815094,-0.06178939715027809,-0.03057182766497135,0.04614335671067238,0.08581893891096115,0.05710165202617645,-0.06623564660549164,-0.0013134483015164733,0.006434266921132803,-0.02259349264204502,0.07391755282878876,0.00026183290174230933,0.09239410609006882,0.11130163073539734,0.005042532924562693,0.04213973134756088,0.008960993029177189,0.004515724256634712,-0.017796620726585388,-0.03617539256811142,-0.07402315735816956,-0.10463247448205948,-0.07285197824239731,0.03069537878036499,-0.00400506891310215,-0.04373031109571457,0.0037874870467931032,0.03249116614460945,0.000981106422841549,0.05360475555062294,-0.06796448677778244,-0.026329100131988525,0.008465204387903214,-0.01434549130499363,0.028479188680648804,-0.12358837574720383,0.018622413277626038,-0.025251958519220352,-0.014465180225670338,0.10748980194330215,-0.054451778531074524,0.008831637911498547,0.06517550349235535,-0.01349582802504301,0.09968680888414383,-0.010807620361447334,-0.06746961176395416,0.0733061358332634,-0.07594049721956253,0.01829119212925434,-0.08965418487787247,0.043107375502586365,-0.06698483973741531,-0.016350245103240013,-0.07066918909549713,0.05806339159607887,0.001674927887506783,-0.07790036499500275,-0.08969582617282867,-0.042249951511621475,0.028797635808587074,0.01616585999727249,-0.0014468515291810036,0.08633412420749664,-0.007921400479972363,0.05585349723696709,-0.11021764576435089,0.0666254386305809,-0.03398473560810089,-0.08073160797357559,-0.10460226237773895,0.09970036149024963,-0.0067749046720564365,-0.051820553839206696,0.0004633594071492553,-0.07666651904582977,0.12573236227035522,0.050553321838378906,0.03755650669336319,0.02901323512196541,0.0597701296210289,0.003434909740462899,0.03696698695421219,-0.007418161258101463,-0.031025003641843796,0.03675013780593872,0.04164392873644829,0.022492799907922745,-0.053464826196432114,0.04497621953487396,0.05785331502556801,0.13495418429374695,0.02970900386571884,0.009586022235453129,-0.0015517350984737277,0.010336819104850292,0.04051310569047928,0.01826997473835945,-0.043844740837812424,-0.037301551550626755,-0.11380232870578766,-0.030993660911917686,0.016336187720298767,-0.03494176268577576,0.03441334143280983,0.033928610384464264,0.025825073942542076,-0.01905304566025734,0.11155880242586136,0.01769028604030609,-0.08802566677331924,0.1769842952489853,0.03317089378833771,0.06943351030349731,-0.13969050347805023,0.057918861508369446,0.05319303274154663,-0.0008933308999985456,-0.04176473617553711,-0.052481912076473236,-0.004276108928024769,-0.05186840891838074,0.06775061786174774,-0.0006031047669239342,-0.04383131116628647,-0.08614930510520935,-0.10312771797180176,0.0005803538369946182,-0.024276627227663994,0.021650653332471848,0.03508744016289711,0.06161191686987877,-0.04052174463868141,0.05628528073430061,0.034505851566791534,0.09102579206228256,-0.002436589216813445,0.05798208341002464,-0.008297670632600784,0.006525321863591671,0.05345463007688522,0.024173900485038757,0.06975699216127396,0.09229853004217148,0.007543453015387058,0.008779305964708328,-0.028871582821011543,0.03060746379196644,-0.03521300479769707,-0.03246837109327316,0.022187376394867897,0.07038276642560959,-0.10421910881996155,-0.00848875381052494,-0.05263695865869522,-0.021072788164019585,-0.0037556139286607504,-0.08645158261060715,0.04508545249700546,0.0840940773487091,-0.1335746943950653
ägypten,0.036938756704330444,-0.06358791887760162,0.09930455684661865,-0.06879664957523346,0.017581721767783165,-0.08775514364242554,0.07767332345247269,0.002749011153355241,0.05859387293457985,-0.07589094340801239,0.027419880032539368,0.04938707873225212,0.028714807704091072,-0.017563002184033394,-0.004712514579296112,-0.002460891380906105,0.025221923366189003,0.030760735273361206,0.03320987522602081,-0.0029872937593609095,-0.06804733723402023,0.009067541919648647,-0.02296442538499832,-0.09281986951828003,-0.0597221739590168,-0.022916605696082115,-0.08352221548557281,-0.002390909008681774,0.053269609808921814,0.02085496112704277,0.020476752892136574,0.02863091044127941,0.0534776970744133,-0.07657600939273834,0.06614997982978821,0.03459010645747185,-0.05959309637546539,-0.06709964573383331,0.07911957055330276,0.02974850870668888,0.014596416614949703,0.026574421674013138,-0.0011554717784747481,-0.013466267846524715,0.08484536409378052,-0.04983938857913017,-0.04014858976006508,0.05243629217147827,0.025154482573270798,0.0150566715747118,0.009346344508230686,0.015250896103680134,0.030184824019670486,-0.01656072773039341,-0.07188861817121506,0.06886599957942963,-0.007910738699138165,0.02590733766555786,-0.006557897198945284,0.0012623487273231149,-0.01307081338018179,0.008547990582883358,0.06524024158716202,0.004349234979599714,0.08846203982830048,-0.019781017675995827,0.026756953448057175,-0.04305297136306763,0.02260044403374195,-0.014071876183152199,0.023803219199180603,-0.04626067355275154,0.05028504505753517,-0.08560245484113693,0.02814423106610775,-0.008814677596092224,-0.029216380789875984,-0.03170032799243927,0.007792909163981676,-0.08304093033075333,0.07742541283369064,0.05064161866903305,0.011847104877233505,-0.041290540248155594,0.04985426366329193,0.014464807696640491,-0.0232232715934515,-0.05363065376877785,0.1120397299528122,0.07094801962375641,-0.011873207986354828,0.03698837757110596,-0.014274049550294876,0.040296830236911774,0.008014991879463196,-0.012429981492459774,0.0024167599622160196,0.0649062916636467,-0.025974825024604797,-0.12112293392419815,0.04135758429765701,0.08371289074420929,0.008421727456152439,-0.0946759507060051,0.0037277701776474714,-0.05707637220621109,0.09628216177225113,-0.0052930619567632675,0.02405628003180027,-0.1326349675655365,0.01346069760620594,0.20504172146320343,0.05075154826045036,0.06853245943784714,0.02190299890935421,0.05425526946783066,0.04220610857009888,-0.05294850841164589,0.0527464933693409,-0.0030251233838498592,-0.04054909572005272,-0.03592018783092499,0.049354422837495804,0.03074299544095993,0.03907415270805359,0.0037182439118623734,-0.020301641896367073,0.08179450035095215,0.013125336728990078,0.08784327656030655,0.0029009736608713865,-0.025319835171103477,-0.04810009151697159,-0.0341499000787735,-0.05244586616754532,-0.04153142869472504,-0.025319576263427734,0.07109406590461731,0.015601074323058128,0.11619791388511658,0.014775829389691353,0.004335406702011824,0.12950246036052704,0.06595686078071594,-0.02862175926566124,-0.06361113488674164,0.07981043308973312,0.020548222586512566,-0.055346034467220306,-0.09497549384832382,-0.029265427961945534,0.024386510252952576,0.14913275837898254,0.017378108575940132,0.08089526742696762,-0.049719810485839844,-0.01481957919895649,0.02966422028839588,0.03794243559241295,-0.056251198053359985,-0.08131857961416245,0.004130579065531492,0.041711483150720596,-0.0030358671210706234,0.010824303142726421,-0.06648685038089752,0.029360508546233177,0.041158393025398254,0.0341208279132843,0.09902922064065933,0.053156860172748566,0.021527286618947983,-0.08326931297779083,0.0006813767831772566,-0.00784990657120943,-0.12465506792068481,-0.07517550885677338,0.05098148062825203,0.09562823176383972,-0.01606362871825695,0.024781832471489906,-0.0239736158400774,-0.09200609475374222,0.04450923204421997,0.05274338647723198,-0.013012881390750408,0.06413990259170532,-0.06169958785176277,-0.008136866614222527,-0.04242011904716492,0.135324165225029,0.03176408261060715,-0.0034406620543450117,-0.0510859414935112,-0.019136415794491768,0.004388227593153715,0.03254571557044983,0.05954160541296005,-0.039610788226127625,-0.04404723644256592,-0.012809609062969685,-0.05242234095931053,0.01054302416741848,0.033644676208496094,0.02053217776119709,0.027155578136444092,0.031159155070781708,-0.022667404264211655,-0.047656673938035965,-0.09394201636314392,-0.047102656215429306,-0.024438580498099327,-0.026582514867186546,0.05773370340466499,-0.07092547416687012,0.09077172726392746,-0.03383272513747215,-0.03570437803864479,0.023511141538619995,0.08971257507801056,-0.07557699829339981,0.05626606196165085,-0.06076059117913246,-0.017983799800276756,0.13779966533184052,0.040471769869327545,-0.031841300427913666,-0.11144319921731949,0.032882533967494965,0.017397718504071236,0.0414760485291481,0.005227917339652777,-0.05049452185630798,0.1068849191069603,0.03859163820743561,0.10293010622262955,-0.09380103647708893,-0.05390571430325508,0.06197282671928406,-0.027858538553118706,0.04065980017185211,-0.05686122924089432,-0.05879778414964676,-0.003286676714196801,0.06998082995414734,-0.019444862380623817,0.02390563115477562,0.09899066388607025,-0.014483263716101646,0.06252504885196686,0.14188852906227112,0.03442880138754845,-0.07098190486431122,0.040500715374946594,0.1410430520772934,0.15566004812717438,-0.03719567507505417,-0.02653009630739689,-0.05118705704808235,0.04461956024169922,-0.0034409824293106794,0.14462244510650635,-0.02564339153468609,-0.026072602719068527,-0.007820957340300083,-0.005323620047420263,0.07813073694705963,0.01834028773009777,0.030485974624753,0.04556097462773323,-0.03357281908392906,0.061051979660987854,-0.022615298628807068,-0.06174628809094429,0.02747293747961521,-0.07643431425094604,0.07754228264093399,0.05072180926799774,-0.01316064689308405,-0.04019206017255783,-0.02266811579465866,-0.0035002660006284714,0.013388088904321194,-0.0558788888156414,-0.022331759333610535,-0.04389826953411102,0.08763615041971207,-0.008900530636310577,-0.0673861876130104,-0.031879451125860214,0.09882035851478577,0.0024792468175292015,-0.10783949494361877,0.01255030371248722,0.10684031993150711,0.036990709602832794,0.01670684665441513,-0.01805739663541317,0.013462568633258343,-0.19434209167957306
albanien,0.006788584403693676,-0.014978247694671154,0.037581924349069595,-0.09613674134016037,-0.03182995319366455,-0.0033375888597220182,0.032881174236536026,0.03560011461377144,0.006289069075137377,0.011270013637840748,0.0003855069517157972,-0.001183612970635295,0.04421115666627884,0.09084556996822357,0.016051163896918297,0.07188104838132858,-0.06482252478599548,-0.025123419240117073,-0.042464204132556915,-0.025402357801795006,-0.011024235747754574,0.04615933820605278,0.09789178520441055,0.058716826140880585,0.016130007803440094,0.09405383467674255,-0.04657071828842163,0.00953091774135828,-0.04327425733208656,-0.0375288687646389,-0.006600614171475172,-0.037454258650541306,-0.036657240241765976,0.08947812020778656,0.06528980284929276,0.05348379537463188,0.03635025396943092,-0.10535033792257309,-0.05858536437153816,0.022779714316129684,-0.0786171481013298,0.050577081739902496,-0.053978390991687775,0.013564216904342175,-0.021900271996855736,0.03577907383441925,-0.040923427790403366,-0.0037331650964915752,0.04789026454091072,-0.03786227107048035,-0.05457213148474693,0.024534568190574646,0.10189457982778549,0.026476193219423294,-0.028848033398389816,-0.007838020101189613,-0.037664178758859634,0.013856717385351658,-0.043890487402677536,0.01928519643843174,0.058736663311719894,-0.05356269329786301,0.03482328727841377,0.06305576115846634,-0.023305406793951988,0.006746661849319935,0.011929690837860107,0.005318482406437397,0.11582791060209274,0.04861936718225479,0.07270872592926025,0.020101774483919144,0.03942975774407387,-0.040791258215904236,0.03133821487426758,-0.045743927359580994,-0.0023029600270092487,0.09318768978118896,0.01824764534831047,-0.1866750717163086,0.08423324674367905,-0.008495733141899109,-0.02486681193113327,-0.0112700080499053,0.03449852764606476,0.05907884240150452,-0.035289011895656586,-0.010229012928903103,0.13335123658180237,0.01878742128610611,0.01576467975974083,0.08609927445650101,-0.026090960949659348,-0.07520239055156708,0.03027949295938015,0.06875325739383698,0.03708120062947273,-0.040586914867162704,-0.038321398198604584,-0.03959761559963226,0.11146596074104309,-0.08993164449930191,0.04039129987359047,0.03780985623598099,0.07749118655920029,0.0020763857755810022,0.09411197900772095,0.029542310163378716,-0.05117037519812584,0.05673709139227867,-0.024051804095506668,0.030380787327885628,-0.013107376173138618,0.01293728407472372,-0.017040403559803963,-0.014271873049438,-0.020481226965785027,-0.15445269644260406,0.048735570162534714,-0.051057811826467514,-0.054509487003088,-0.024179382249712944,0.0385357141494751,-0.06923350691795349,0.01305859163403511,0.03917577862739563,0.002876757178455591,0.07558610290288925,0.12976332008838654,0.11146792769432068,0.13225427269935608,0.012792869471013546,-0.05603954195976257,-0.036192942410707474,-0.05422918125987053,0.03152798116207123,-0.0936407521367073,0.11881299316883087,0.048319656401872635,0.09942461550235748,-0.01615537330508232,0.0005659968592226505,0.09746494889259338,0.03174898773431778,0.000268819450866431,0.047334522008895874,-0.026311228051781654,-0.026812218129634857,-0.030917365103960037,0.05868752300739288,0.018029240891337395,0.066243015229702,0.08579856157302856,0.055033572018146515,0.020148688927292824,0.09657768160104752,-0.026749148964881897,-0.044627316296100616,0.019937654957175255,-0.031335994601249695,-0.08853450417518616,0.03162815049290657,-0.05970901623368263,-0.005794965196400881,-0.03768892586231232,0.008346328511834145,0.09345979243516922,-0.08857491612434387,-0.004804637748748064,-0.07870499044656754,0.09650623798370361,0.03930400311946869,0.027853328734636307,-0.03629324957728386,-0.02429886721074581,0.014746911823749542,0.022961558774113655,-0.00954639445990324,0.11296160519123077,0.024861233308911324,0.027279486879706383,0.011821202002465725,-0.08038046956062317,0.1509617418050766,0.010296661406755447,-0.06577057391405106,-0.07264268398284912,-0.047423992305994034,-0.08768772333860397,-0.049812667071819305,0.09725622832775116,0.034146539866924286,-0.08344630897045135,0.0728880763053894,0.041250329464673996,-0.0124532924965024,0.04191879555583,0.03791844844818115,-0.050146475434303284,-0.05624869465827942,-0.05782981961965561,-0.018054021522402763,0.07054172456264496,-0.0013237595558166504,-0.05961901694536209,0.06545581668615341,-0.002184476237744093,-0.08667030185461044,0.029161527752876282,-0.08165837824344635,-0.018774406984448433,-0.0005909364554099739,-0.0334065742790699,-0.04076891764998436,-0.03157184645533562,0.1557367742061615,-0.0009171174024231732,0.01611941307783127,-0.05106610804796219,0.010530509054660797,-0.033367134630680084,0.08643525093793869,-0.06679517775774002,-0.013231722638010979,0.001829266780987382,-0.0209745392203331,0.013950751163065434,-0.040246594697237015,-0.0033737861085683107,-0.008921998552978039,0.05456051230430603,0.09234781563282013,-0.06524472683668137,-0.020612774416804314,-0.03289497643709183,0.004382785875350237,0.09729177504777908,0.023763012140989304,0.08481721580028534,-0.023903898894786835,0.027282916009426117,0.13873162865638733,-0.12537521123886108,-0.11115172505378723,0.00018936817650683224,0.08876153826713562,0.0009411010541953146,0.09426986426115036,0.04939696565270424,-0.00537892384454608,0.06538203358650208,0.07597838342189789,0.05130905285477638,0.07796498388051987,0.049633149057626724,0.09461908042430878,0.04937778785824776,-0.010523410513997078,-0.07062654197216034,0.00656936876475811,0.03781392052769661,-0.012146532535552979,-0.06827107816934586,0.01462303102016449,-0.07013867050409317,-0.06132252886891365,0.08031316846609116,0.06724616885185242,0.09133201837539673,-0.07670293748378754,0.040136758238077164,0.06737443804740906,0.0022032775450497866,0.004864768590778112,0.03054949827492237,-0.05096059665083885,0.03569292649626732,0.047611724585294724,0.08358471840620041,-0.015859263017773628,-0.058434583246707916,0.06016043946146965,-0.06727521121501923,0.00947994738817215,0.08971148729324341,0.007300127763301134,-0.024922765791416168,0.020643455907702446,-0.08626122027635574,0.0814463198184967,0.09937963634729385,0.0023729910608381033,-0.007667296100407839,-0.013011777773499489,-0.041895490139722824,0.03609016537666321,0.0282833743840456,0.01409939769655466,0.08493001013994217,0.007130563724786043
algerien,0.004870621487498283,0.04623271897435188,0.08437643945217133,-0.08683862537145615,0.042882420122623444,0.09060896188020706,0.004981531761586666,0.0006286335992626846,0.029047781601548195,-0.004639822989702225,-0.017689932137727737,-0.016288375481963158,0.017620142549276352,-0.03230488672852516,0.006804674863815308,0.07863922417163849,-0.026345619931817055,0.08135711401700974,0.037961818277835846,-0.010952712967991829,-0.06305170804262161,0.08698510378599167,0.06551384180784225,-0.02520027570426464,0.021310744807124138,0.024694696068763733,-0.050151485949754715,-0.07190711051225662,-0.018429651856422424,-0.017630474641919136,0.07085250318050385,0.0002700055483728647,-0.0800921618938446,-0.0015120364259928465,0.040619395673274994,0.10380586981773376,-0.07118739187717438,-0.08157556504011154,0.010994676500558853,-0.01147345919162035,0.04475986212491989,0.09209169447422028,-0.08377397805452347,-0.05401894822716713,0.02671770751476288,-0.025631411001086235,-0.04660405218601227,-0.04905061051249504,-0.07294904440641403,-0.1010551005601883,-0.06364493817090988,0.014545684680342674,0.08505894988775253,0.013476232998073101,-0.04469984769821167,0.044865623116493225,0.010256239213049412,-0.020500212907791138,0.0299910306930542,0.03066088631749153,0.035205598920583725,-0.053231753408908844,-0.050191085785627365,0.008142816834151745,0.025804566219449043,0.02222462184727192,-0.0713161900639534,-0.0647057443857193,0.0842510312795639,0.0025238206144422293,0.039447106420993805,0.020269369706511497,0.004418537020683289,-0.12892693281173706,0.056166768074035645,-0.027843115851283073,-0.07334449887275696,0.11987999826669693,-0.012167294509708881,0.054170988500118256,0.0896311029791832,-0.05781547725200653,-0.060085948556661606,-0.002879681997001171,0.0574098601937294,-0.07664282619953156,-0.054343659430742264,0.0026595243252813816,0.05263199657201767,0.126306414604187,0.018345829099416733,-0.02146347053349018,-0.04504361003637314,0.053539834916591644,-0.09828280657529831,-0.003688869997859001,0.016298631206154823,0.02872326411306858,0.12957702577114105,0.020638950169086456,0.04785185307264328,0.053658246994018555,0.004187741316854954,-0.009552013128995895,-0.00490595493465662,-0.06266055256128311,0.02578805759549141,0.13307414948940277,-0.058717768639326096,0.01212029717862606,-0.012238512746989727,-0.03721676021814346,-0.010407580994069576,0.03339148312807083,0.06679356843233109,-0.030120067298412323,-0.06294552236795425,-0.07020144164562225,0.01766001246869564,0.010962561704218388,0.00483328802511096,0.019917922094464302,0.056038498878479004,-0.06325598061084747,-0.03415857255458832,-0.09875984489917755,-0.05719202384352684,0.10097602009773254,-0.02058769389986992,0.019560961052775383,0.035715725272893906,0.04945393279194832,-0.07884751260280609,-0.08748489618301392,-0.1327911913394928,0.05947771668434143,-0.05486118793487549,0.1120571568608284,-0.06169130280613899,0.13277368247509003,-0.08838307112455368,0.05914069339632988,0.06309014558792114,0.06821196526288986,-0.07061199098825455,-0.038763340562582016,0.040684543550014496,0.0008953083888627589,0.02105093188583851,-0.08412674069404602,-0.0270658228546381,-0.023388326168060303,0.1582263559103012,0.015987630933523178,-0.030731288716197014,-0.047472815960645676,-0.09496219456195831,0.014854876324534416,0.03485885635018349,-0.03475267440080643,-0.11621210724115372,-0.05303959921002388,0.10911153256893158,-0.07729864120483398,-0.05595126003026962,0.02113935723900795,0.007592976558953524,0.02819487638771534,0.07471147924661636,0.03035798668861389,0.012511113658547401,0.05460884049534798,-0.03694768249988556,-0.04259544238448143,-0.05677466839551926,-0.13158459961414337,-0.03349508345127106,-0.04161687567830086,0.04930197820067406,0.06497770547866821,0.019356684759259224,0.04271744191646576,-0.01778978854417801,0.08712481707334518,-0.04400644451379776,-0.03788416087627411,0.0005069912876933813,0.049917589873075485,0.03106888197362423,0.03643013536930084,0.03625168651342392,-0.04896914213895798,0.001218167133629322,0.05274295061826706,-0.030989624559879303,-0.019855329766869545,-0.071627676486969,-0.11931096017360687,0.07424438744783401,-0.03294090926647186,0.09812676906585693,0.048949796706438065,0.036256272345781326,0.0012984012719243765,-0.0060673002153635025,-0.03402499854564667,0.04343461990356445,-0.027315178886055946,-0.08111171424388885,0.020031871274113655,0.025593584403395653,-0.12684302031993866,-0.02806611731648445,0.04827558249235153,-0.09851686656475067,0.06694541126489639,-0.022067146375775337,-0.014352296479046345,-0.030337823554873466,0.09417089819908142,-0.03367703780531883,0.10425526648759842,0.0021089871879667044,-0.010579511523246765,0.0864776149392128,0.019043581560254097,-0.015129453502595425,-0.013910442590713501,0.04275776445865631,-0.023348400369286537,0.0754864439368248,0.06739025563001633,0.0619325190782547,0.058314237743616104,-0.02148398570716381,-0.013617645017802715,-0.017534421756863594,-0.02605232410132885,-0.022471679374575615,-0.10244757682085037,-0.060772646218538284,-0.0011053257621824741,0.020979927852749825,0.07116413116455078,-0.027053389698266983,0.035208579152822495,-0.023798884823918343,0.13651008903980255,0.005162493325769901,-0.035973045974969864,0.17631828784942627,0.015555273741483688,0.04716416820883751,-0.019399574026465416,0.07681766897439957,0.09921905398368835,0.03645695745944977,0.09674012660980225,-0.07620886713266373,-0.0007944887620396912,-0.08891436457633972,0.0301218219101429,-0.043129485100507736,-0.05674440413713455,-0.003956935368478298,-0.11681713163852692,-0.014242174103856087,-0.008049815893173218,-0.011830169707536697,-0.027441395446658134,-0.004791492596268654,0.05632541701197624,0.005548834800720215,0.04123595729470253,0.10167256742715836,-0.021523326635360718,-0.05322837457060814,0.05791667476296425,-0.018673153594136238,0.014871379360556602,0.006080689840018749,0.06868385523557663,0.05182420834898949,-0.03210998326539993,0.00970909371972084,0.031212737783789635,-0.08664802461862564,-0.07309163361787796,-0.00039298002957366407,0.07839563488960266,0.05334116145968437,-0.040628042072057724,-0.024285776540637016,-0.07541896402835846,-0.035323407500982285,0.00651698000729084,-0.00024771326570771635,-0.07239759713411331,-0.014858637936413288,-0.0008845115662552416
angola,0.09919452667236328,0.011601611971855164,0.14042770862579346,-0.08189137279987335,-0.009312085807323456,-0.07954059541225433,0.09795456379652023,0.008396929129958153,0.004762168508023024,-0.006790548097342253,-0.014972960576415062,-0.0010214386275038123,0.0606137290596962,-0.07185854017734528,0.06611751765012741,0.032209038734436035,-0.045234549790620804,-0.04400968551635742,0.053719762712717056,0.001344416057690978,-0.03232932090759277,-0.009833174757659435,0.031277965754270554,-0.04630342125892639,-0.058796923607587814,-0.13386912643909454,-0.04782966151833534,0.04266873747110367,0.0012583230854943395,-0.07696984708309174,-0.04328766465187073,0.03302644565701485,0.0962529107928276,0.06452807784080505,-0.0533977672457695,0.04456550255417824,-0.010017902590334415,-0.0819898322224617,0.16579964756965637,0.01431965921074152,-0.005325316917151213,0.12658286094665527,-0.02158169634640217,0.0524870939552784,0.0604272335767746,-0.0964968204498291,-0.042426660656929016,0.0649482011795044,0.06020832434296608,-0.10217420756816864,-0.08413662761449814,0.007055432535707951,0.01804058626294136,-0.033343203365802765,-0.03894129768013954,0.08376915752887726,-0.11280906200408936,0.00496999965980649,0.01691925898194313,0.08619513362646103,0.04532640799880028,-0.10023612529039383,-0.06205237656831741,-0.010506093502044678,0.0002207957295468077,0.008070730604231358,0.0690269023180008,-0.012476003728806973,0.012815188616514206,0.05106010660529137,0.016460277140140533,-0.03727326542139053,0.05453544482588768,0.08148906379938126,-0.005315306596457958,0.0762261152267456,-0.04491383209824562,0.024097999557852745,-0.07845941931009293,-0.11125519871711731,0.029706459492444992,-0.038001563400030136,-0.03148389607667923,-0.11756118386983871,0.0023698979057371616,0.030303679406642914,0.05740397796034813,-0.03367052599787712,0.06211910769343376,0.1280837506055832,0.051994141191244125,-0.011117535643279552,-0.031652793288230896,0.06832634657621384,-0.014530124142765999,-0.03291371837258339,-0.0775054320693016,-0.07171034812927246,0.015064777806401253,-0.004078513476997614,0.09492230415344238,-0.00584789551794529,0.09756872802972794,0.1074942797422409,0.01744234561920166,-0.0840231254696846,0.0172469150274992,0.01346072368323803,0.00832428690046072,0.004150077234953642,0.08145895600318909,0.00905013456940651,0.03552652895450592,0.14625252783298492,-0.06080186367034912,-0.05977027863264084,-0.035716935992240906,0.03425067663192749,0.012568802572786808,-0.02856661193072796,-0.08660116046667099,0.04687049612402916,0.06129472330212593,0.06443464756011963,0.07260336726903915,-0.09300238639116287,0.0006340205436572433,0.010742755606770515,0.04356123507022858,0.09612388908863068,0.03334653750061989,0.07325847446918488,0.02791551873087883,-0.08370616286993027,-0.07495077699422836,0.05004847049713135,0.014076938852667809,-0.0215227659791708,0.06533299386501312,0.10875845700502396,0.014028637669980526,-0.023702824488282204,0.020871402695775032,0.04884840548038483,0.047922972589731216,-0.10803309082984924,0.08709404617547989,0.03800271078944206,-0.0006230148137547076,-0.02189646102488041,0.05527612194418907,0.014010396786034107,0.02479640021920204,0.0888945534825325,0.02917361818253994,-0.008025691844522953,0.07882899045944214,0.03236004710197449,-0.024136949330568314,-0.05869147926568985,0.02537343092262745,-0.0457126758992672,-0.015685439109802246,0.009226985275745392,-0.06950955092906952,-0.027880920097231865,-0.04693124443292618,0.001727637485601008,0.06590929627418518,-0.04540785029530525,0.05494460463523865,-0.013235509395599365,-0.03680473193526268,0.026351524516940117,0.05504588410258293,-0.022076483815908432,-0.06379576027393341,0.043183259665966034,0.07944313436746597,0.050041500478982925,-0.010753734968602657,-0.03999892622232437,0.042535200715065,0.07634983956813812,-0.0003108596720267087,0.019748274236917496,0.12724609673023224,-0.034724850207567215,-0.001434631529264152,0.0029376426246017218,0.03737340122461319,-0.0018935075495392084,-0.04414509981870651,-0.06749317049980164,-0.013079033233225346,0.06925737857818604,0.06586237251758575,0.06301185488700867,0.05214466154575348,-0.03233160451054573,-0.12263701856136322,-0.05456828325986862,0.0006244319956749678,-0.045376263558864594,0.059895001351833344,0.03717190772294998,0.014125490561127663,-0.027199609205126762,0.08944067358970642,-0.05705346539616585,0.044896986335515976,-0.06433459371328354,-0.008514798246324062,0.01681024767458439,-0.03980667144060135,0.06371544301509857,-0.05250947177410126,0.01672770082950592,-0.014742427505552769,-0.017108583822846413,-0.07491879910230637,0.006169539876282215,-0.027571428567171097,-0.053074177354574203,0.031364556401968,-0.1092960387468338,0.026100602000951767,-0.05674959346652031,-0.04350161552429199,0.042663510888814926,0.06303012371063232,0.10424456745386124,0.02979266084730625,0.07199637591838837,-0.003919948823750019,0.040187541395425797,0.004348731134086847,-0.10555636137723923,0.04686969518661499,-0.009322375990450382,-0.009027875028550625,0.044465042650699615,-0.061065852642059326,-0.004544293042272329,0.09512682259082794,0.09509879350662231,0.03610360249876976,0.03635069355368614,0.03494253382086754,0.0815718024969101,0.10824079811573029,-0.05580732598900795,-0.007460406515747309,0.002027162816375494,0.0638270229101181,0.17053426802158356,-0.03906466066837311,-0.061794381588697433,-0.013051409274339676,0.05746990814805031,0.03471827879548073,0.0359777994453907,-0.029136721044778824,-0.05425095185637474,-0.003807604080066085,0.045498576015233994,0.06812628358602524,0.008803403936326504,-0.01974368840456009,0.07843998074531555,-0.02644679695367813,0.042612139135599136,0.020117836073040962,-0.039344511926174164,0.0004917799378745258,-0.0782182514667511,-0.057448890060186386,0.048887383192777634,0.050971806049346924,0.07015756517648697,0.013537222519516945,0.020533666014671326,-0.014582852832973003,0.026160655543208122,0.028338849544525146,-0.07364372164011002,0.020236127078533173,-0.013047952204942703,-0.13601477444171906,-0.07201780378818512,0.0766400620341301,-0.07442373782396317,-0.023765811696648598,-0.02726799063384533,0.02671733871102333,-0.02055046148598194,-0.02555541694164276,0.008778142742812634,-0.07173772156238556,-0.09854624420404434
argentinien,-0.031442511826753616,0.028495414182543755,0.14315910637378693,-0.023765601217746735,0.04787618666887283,-0.010890441946685314,0.03858296200633049,0.034371811896562576,0.029856344684958458,-0.010027683340013027,0.09389444440603256,-0.004376641940325499,-0.059445787221193314,-0.08470519632101059,-0.019655168056488037,0.07925435900688171,-0.034787751734256744,-0.0024724488612264395,0.020491398870944977,-0.009892649948596954,0.011466882191598415,-0.017447231337428093,0.046987779438495636,-0.03281978890299797,-0.06926771253347397,0.07308517396450043,0.010275330394506454,0.011538832448422909,0.061328813433647156,-0.1334390640258789,-0.009715304709970951,0.026879053562879562,0.03635495528578758,0.042305417358875275,0.06706687808036804,0.05841653421521187,-0.0830443724989891,-0.051600683480501175,0.019591137766838074,0.013868242502212524,-0.08218224346637726,0.05070596933364868,-0.024683119729161263,0.010943517088890076,0.035473763942718506,-0.047345589846372604,-0.16020625829696655,0.06161502003669739,0.005362996831536293,-0.11127584427595139,-0.03516419976949692,-0.02074708603322506,0.05854016914963722,0.064566969871521,0.037362679839134216,0.03636236861348152,-0.09085644036531448,-0.048003505915403366,0.025584833696484566,0.06275290995836258,-0.01332883257418871,-0.033009354025125504,-0.08793707937002182,0.04767867922782898,0.019997766241431236,0.004492762498557568,-0.040844887495040894,-0.07047434896230698,-0.04964892193675041,0.057788290083408356,0.005538966041058302,-0.019250506535172462,-0.0033526483457535505,-0.0618097297847271,-0.014069401659071445,0.0701717659831047,0.0385555773973465,-0.0012652031145989895,0.02390456758439541,-0.15312154591083527,0.01776956580579281,0.015219967812299728,-0.11537885665893555,-0.1456553339958191,-0.05100167170166969,0.0091094383969903,-0.053851623088121414,0.05437672883272171,0.05253405123949051,0.01265848707407713,-0.03105347976088524,0.0435619130730629,-0.06834065169095993,-0.04783337935805321,0.024955356493592262,-0.007311059627681971,0.00556078040972352,-0.015174105763435364,0.04956717789173126,-0.02864651568233967,0.11823764443397522,0.0032348730601370335,-0.005968637764453888,0.006476922892034054,-0.039755892008543015,-0.08078125864267349,0.087508425116539,0.09337947517633438,-0.05987243354320526,0.03608059510588646,-0.036801569163799286,-0.008572873659431934,0.07519529014825821,-0.031578224152326584,-0.037362851202487946,0.09641670435667038,0.004522615112364292,-0.022754475474357605,-0.04523630440235138,-0.03796648979187012,-0.07891759276390076,-0.017338978126645088,0.048344243317842484,0.019701236858963966,0.08755838871002197,-0.012854202650487423,0.0009412264917045832,-0.0009115923312492669,-0.0453924760222435,0.1087607592344284,0.031930603086948395,0.056457191705703735,-0.07583228498697281,0.0336136557161808,-0.024329371750354767,0.08222956210374832,-0.005554516334086657,0.028982093557715416,0.01510230079293251,0.02458484098315239,-0.0061044832691550255,0.023814596235752106,0.07295402884483337,0.01632339507341385,0.04124830663204193,-0.03557635843753815,-0.006547861732542515,0.04587114229798317,0.03610489144921303,-0.054462797939777374,0.010264433920383453,0.05358504503965378,-0.021482421085238457,0.011114015243947506,-0.02309446595609188,-0.029511915519833565,0.012150073423981667,0.054410047829151154,0.05117877945303917,-0.02114897221326828,0.019722988829016685,-0.059637650847435,-0.11071944236755371,-0.055852796882390976,-0.02208726666867733,0.12643854320049286,0.0749070942401886,-0.03396276384592056,0.036477021872997284,0.10207800567150116,0.062207140028476715,-0.03134613856673241,-0.02361041121184826,-0.00959749985486269,-0.056502897292375565,-0.10587476193904877,-0.03222328796982765,0.00997486524283886,0.052500274032354355,-0.008936978876590729,0.08553444594144821,-0.014285486191511154,0.04255589097738266,-0.0008830957813188434,0.00284468661993742,-0.05871405452489853,-0.015453537926077843,-0.09434036165475845,0.014007319696247578,-0.05325860157608986,0.048550646752119064,-0.11636412143707275,-0.16652968525886536,0.02713574469089508,-0.08295871317386627,0.026347771286964417,0.02695576287806034,0.052206818014383316,-0.07409875839948654,-0.04019961878657341,-0.0239506047219038,-0.036618031561374664,-0.11608178913593292,0.035188380628824234,0.0391598679125309,-0.017619721591472626,0.07461747527122498,-0.030413314700126648,-0.0316287986934185,-0.10081952810287476,-0.02371973544359207,-0.06008331850171089,0.09152794629335403,0.09610654413700104,0.002633542288094759,0.06933100521564484,-0.06466363370418549,-0.046114481985569,-0.1228981465101242,0.010974137112498283,0.015185368247330189,0.061142850667238235,0.035102155059576035,-0.05258743092417717,0.04301783815026283,-0.0957588404417038,-0.013183852657675743,0.056633930653333664,-0.1082189530134201,0.06343697011470795,-0.05600760132074356,0.07956289499998093,-0.0012095903512090445,0.021929560229182243,0.0030395665671676397,0.0342104434967041,-0.07624143362045288,-0.0011322671780362725,-0.009002091363072395,-0.0639851987361908,0.021206192672252655,-0.05721317231655121,0.01942313462495804,-0.046859536319971085,0.07410747557878494,0.04362460970878601,0.009020679630339146,0.11206425726413727,-0.00022864778293296695,0.03478959947824478,0.04927380755543709,0.036158375442028046,-0.060076627880334854,0.007566087879240513,0.14440083503723145,0.1056920662522316,-0.02122410200536251,-0.0013426038203760982,0.00981889944523573,-0.0737106055021286,0.04093129187822342,0.020555876195430756,0.029556332156062126,-0.0029774755239486694,0.03031865879893303,-0.02251669391989708,-0.024111149832606316,0.09657954424619675,0.007214214187115431,0.0931769534945488,-0.0037692617624998093,0.055004220455884933,0.033843573182821274,0.016196604818105698,0.1869794875383377,-0.1369015872478485,-0.05519481748342514,0.016283681616187096,0.13362856209278107,-0.012883059680461884,0.022007782012224197,-0.026085302233695984,-0.003361023496836424,0.013852746225893497,-0.0012439606944099069,0.020941630005836487,-0.02825346775352955,0.12717463076114655,-0.11318714171648026,-0.022763025015592575,0.014400131069123745,-0.08352343738079071,-0.011323612183332443,-0.017449429258704185,-0.022159479558467865,0.04745446890592575,0.05579241365194321,0.07417596131563187,-0.05843781307339668,0.01285527553409338
armenien,0.03922494873404503,0.016202006489038467,0.0830140933394432,-0.06690233945846558,0.012234805151820183,-0.016424229368567467,0.13680823147296906,-0.0069180503487586975,0.013405936770141125,0.039070338010787964,-0.013704142533242702,-0.05774609372019768,-0.04672766849398613,-0.0524895004928112,0.04363144189119339,0.03928178921341896,-0.09619439393281937,0.02029886096715927,-0.013246357440948486,0.06709189713001251,-0.04459671676158905,0.043021947145462036,0.04594704508781433,-0.002620707033202052,-0.014483217149972916,-0.008954888209700584,-0.1270609050989151,-0.009500924497842789,0.02824905328452587,0.045348793268203735,-0.03790378198027611,-0.10794685781002045,0.030292296782135963,-0.02096392586827278,0.01192040741443634,0.1015574038028717,-0.011934863403439522,-0.03282950073480606,0.1330370455980301,-0.0272789616137743,0.00190253765322268,0.07120512425899506,-0.02532167173922062,-0.016020268201828003,-0.04138661175966263,0.03993126004934311,0.004344150889664888,0.08110939711332321,0.02906026318669319,-0.02372477948665619,-0.06084953621029854,0.029763875529170036,-0.0048515978269279,0.06227986887097359,0.003536467207595706,-0.05132100731134415,0.006802196614444256,-0.020309804007411003,-0.0025307689793407917,0.02653973549604416,-0.034351468086242676,-0.06691782921552658,0.004375057760626078,0.10293052345514297,0.056894540786743164,-0.02194032445549965,0.07686103880405426,-0.1069023385643959,0.05652593448758125,-0.06862316280603409,0.051793422549963,0.05345010757446289,0.06538385152816772,-0.08246786892414093,-0.001843355828896165,0.020392080768942833,-0.039008159190416336,0.010675039142370224,-0.035363197326660156,-0.07160142064094543,0.21948622167110443,-0.014842974953353405,-0.007829871959984303,-0.003197025740519166,0.09074725210666656,-0.014176311902701855,0.0229913629591465,-0.12736959755420685,0.011991815641522408,0.03902268409729004,0.04812252148985863,-0.049108222126960754,-0.0013191848993301392,0.05602582171559334,-0.028380004689097404,-0.06330174952745438,-0.04263962432742119,-0.06607858836650848,0.06651262193918228,-0.07497145235538483,0.05495857819914818,0.07189924269914627,0.002427522325888276,-0.02570885419845581,-0.026924308389425278,-0.02354852668941021,0.1032421886920929,-0.06045585125684738,-0.046110786497592926,0.035570643842220306,0.02588164247572422,0.1210266500711441,0.038850247859954834,0.005185384303331375,-0.01225954107940197,0.047527655959129333,0.05099428445100784,-0.01753103733062744,0.015016712248325348,0.07593946158885956,-0.06886418908834457,-0.023546969518065453,0.04372798651456833,0.06927001476287842,0.0405350998044014,-0.023978902027010918,0.044283512979745865,0.06297948956489563,0.025233549997210503,0.12414862215518951,0.08279260247945786,0.02153654955327511,-0.053169287741184235,-0.03918551281094551,0.0010545571567490697,0.03592895343899727,-0.08340972661972046,0.057818103581666946,0.024969246238470078,0.1417074203491211,-0.08557479083538055,0.020626980811357498,0.03240996599197388,0.12379604578018188,0.07003630697727203,-0.06773204356431961,-0.042517468333244324,0.004754715599119663,0.017889058217406273,-0.03646165877580643,-0.008384172804653645,0.0072914836928248405,0.030477896332740784,0.05269651859998703,-0.02082904800772667,-0.020856356248259544,0.053565870970487595,-0.020126596093177795,0.002355789765715599,0.01533981692045927,-0.1889260709285736,-0.00221181265078485,-0.0147141357883811,-0.01836768537759781,-0.05576755106449127,0.019375454634428024,0.0930088609457016,-0.01604195311665535,0.082493357360363,-0.01978336274623871,0.06710119545459747,0.027153806760907173,-0.10267991572618484,0.049818918108940125,0.004202356096357107,-0.0582350492477417,0.012615622952580452,-0.03303339704871178,0.0746484100818634,0.035560350865125656,-0.0009487736970186234,-0.039468828588724136,0.006113146897405386,0.03699995204806328,-0.10134460777044296,-0.04550895467400551,0.05099906399846077,-0.09097085893154144,-0.04443012923002243,0.007983308285474777,-0.02971375361084938,-0.06085404008626938,-0.13658057153224945,-0.045028023421764374,-0.05981751158833504,0.09083174169063568,-0.015273024328052998,0.008114476688206196,0.009824588894844055,0.03892946615815163,-0.03724851459264755,0.0013687051832675934,0.05858031287789345,0.035253848880529404,0.0077936239540576935,-0.003668971359729767,0.011616770178079605,-0.023836322128772736,0.001670439844019711,-0.16049252450466156,0.07456567883491516,-0.04303338751196861,0.01617770828306675,0.046271681785583496,-0.017307650297880173,-0.00242444034665823,-0.0727473795413971,-0.027823511511087418,0.022100256755948067,0.04680610075592995,0.12199252843856812,-0.004275227896869183,-0.03259054571390152,-0.0014781318604946136,0.0022854150738567114,-0.02032121643424034,0.06765401363372803,-0.01502273976802826,0.029451565816998482,-0.021788284182548523,0.04897109419107437,0.09179948270320892,-0.1010507196187973,0.0791642814874649,0.002553306519985199,0.026784371584653854,0.028980642557144165,0.0027809052262455225,-0.02422708459198475,-0.004549814388155937,0.051701467484235764,0.0981527641415596,-0.13137897849082947,-0.005421099252998829,0.07339797168970108,-0.015928059816360474,-0.006528391037136316,0.05507449805736542,0.07415395230054855,0.020013103261590004,0.16567720472812653,0.019759545102715492,0.09644842147827148,-0.017416493967175484,0.0571763776242733,0.1440400630235672,0.004652124363929033,0.08029589802026749,-0.03462299332022667,-0.0028815127443522215,0.04130211099982262,-0.01525749359279871,-0.02864878624677658,0.054672736674547195,-0.061942487955093384,0.04447661712765694,0.007747945841401815,0.0995199978351593,0.01564105413854122,-0.021945951506495476,0.03504550829529762,0.058400072157382965,0.0686962679028511,-0.054882027208805084,0.06046370416879654,-0.06148315593600273,-0.0035133664496243,-0.018406793475151062,0.038281287997961044,0.03025774285197258,-0.11648958176374435,0.027972452342510223,0.0007398180896416306,0.07459727674722672,-0.04729573428630829,0.05443792790174484,0.056660059839487076,-0.06831634044647217,-0.04117715358734131,-0.0060108257457613945,0.003521646372973919,-0.1215936541557312,0.02757255546748638,0.02655763551592827,-0.042519018054008484,-0.04603562504053116,-0.06918001919984818,0.0782843604683876,0.05401404947042465,0.03152959793806076
aserbaidschan,0.034056928008794785,0.01711379550397396,0.10369200259447098,-0.06817265599966049,0.029981814324855804,-0.017788555473089218,0.12225676327943802,0.04243506118655205,-0.035350505262613297,-0.012985602021217346,-0.023511162027716637,-0.06917737424373627,-0.11536327004432678,-0.1166403591632843,0.02010936848819256,0.027715547010302544,-0.04528495669364929,0.005024711135774851,0.010301521047949791,0.10247745364904404,0.04887391999363899,0.026784732937812805,0.060368578881025314,0.08517606556415558,0.01736612059175968,-0.04983191937208176,-0.09170244634151459,0.005137222353368998,0.028781915083527565,0.0025368020869791508,0.022568967193365097,0.005174538120627403,0.09628859907388687,-0.04363827407360077,0.0026102520059794188,0.08505553007125854,0.010385692119598389,-0.04677079990506172,0.04697035625576973,-0.01979893632233143,-0.00036348297726362944,0.04873433709144592,-0.02158959023654461,0.062111400067806244,-0.011416598223149776,-0.0607493557035923,-0.04037691652774811,0.11140637844800949,0.06310143321752548,-0.04260917380452156,-0.05121451988816261,-0.005127565003931522,0.060424063354730606,0.05508445203304291,-0.024339722469449043,-0.011003855615854263,-0.035313643515110016,0.013518296182155609,0.014193668030202389,0.005158025771379471,0.06353582441806793,-0.048714444041252136,-0.048630520701408386,0.0033608078956604004,0.05643680691719055,-0.003921236377209425,0.0435028113424778,-0.055280715227127075,0.06933410465717316,-0.1104990541934967,0.06873071938753128,0.028146125376224518,-0.011263581924140453,-0.014207540079951286,-0.004449611064046621,0.11295697093009949,-0.03129853308200836,0.0626782700419426,-0.030018040910363197,-0.03766365349292755,0.1634746938943863,-0.018682850524783134,0.02232184261083603,-0.06122073903679848,0.06629669666290283,0.05805976316332817,-0.011420190334320068,-0.05296749249100685,0.014255550689995289,-0.038777098059654236,0.017180414870381355,-0.09749865531921387,0.01647835411131382,-0.018882788717746735,-0.029972819611430168,-0.018327761441469193,-0.017543449997901917,-0.13266001641750336,0.017997607588768005,-0.04519518092274666,0.07520505040884018,-0.019467344507575035,0.03140520676970482,0.031809937208890915,-0.039691437035799026,-0.04219808802008629,0.14517775177955627,-0.07267230749130249,-0.08914169669151306,0.10000650584697723,0.08064616471529007,0.0772043839097023,0.06500223278999329,-0.03220327943563461,-0.048737533390522,0.042804643511772156,0.0773526281118393,-0.038304705172777176,-0.0060224467888474464,0.04639449715614319,-0.07721948623657227,0.030642373487353325,-0.05719424784183502,0.06601370871067047,0.03846375271677971,0.06069542467594147,-0.0006326828151941299,0.0023216577246785164,0.05641235411167145,0.12853224575519562,0.03170851245522499,-0.01368621550500393,-0.07922859489917755,-0.015030495822429657,-0.002556665800511837,-0.05112111195921898,-0.04475955292582512,0.05045483633875847,0.04194846749305725,0.12020381540060043,0.02913784049451351,0.05832892656326294,0.07725024223327637,0.12563464045524597,0.03943599388003349,0.004705565515905619,-0.02673088014125824,0.03719116002321243,0.006008292082697153,-0.053705595433712006,0.028418894857168198,-0.055481940507888794,0.020422304049134254,0.028904693201184273,0.014325832948088646,-0.07805263251066208,0.019532686099410057,-0.047019585967063904,-0.024718748405575752,-0.05199520289897919,-0.08111157268285751,0.028502346947789192,-0.03258707374334335,0.0391068160533905,-0.03710594028234482,-0.00033570401137694716,0.05117995664477348,-0.030597712844610214,0.13948562741279602,-0.030882036313414574,0.022740278393030167,0.022311590611934662,-0.07394834607839584,0.007127061486244202,-0.01979188062250614,-0.05857657268643379,-0.04203286021947861,-0.06008638069033623,0.024502750486135483,0.0066723935306072235,0.08379697054624557,-0.05672817304730415,-0.05978834256529808,-0.03335900232195854,-0.11117365211248398,-0.039466459304094315,0.04368440434336662,-0.01233829278498888,-0.06251920759677887,0.05423330143094063,0.03259815275669098,-0.07727547734975815,-0.1253071129322052,-0.02070765011012554,-0.038583267480134964,0.09482856094837189,0.0008444657432846725,0.03687695041298866,-0.04869706928730011,-0.017457881942391396,-0.06062706559896469,-0.012515035457909107,0.04406473785638809,-0.05346980690956116,-0.0022596917115151882,0.07959175854921341,-0.0015251419972628355,0.051026102155447006,0.03709558770060539,-0.10879507660865784,0.09574507176876068,-0.04689871519804001,-0.008474026806652546,0.015393641777336597,0.04109334945678711,0.07549899071455002,-0.11904779821634293,-0.05293484404683113,-0.08531739562749863,0.02490900456905365,0.0028428721707314253,-0.022502101957798004,0.07144193351268768,-0.025823818519711494,0.02192959375679493,-0.04497001692652702,0.0398450531065464,0.05782049149274826,0.014255537651479244,0.038474708795547485,-0.001963220303878188,0.0672481507062912,-0.05937870219349861,0.03937079757452011,-0.08017712086439133,0.032874695956707,0.05724131315946579,0.026621824130415916,-0.03470655530691147,-0.0071967486292123795,0.026509372517466545,0.1235620379447937,-0.11452966183423996,-0.008637968450784683,0.05649718642234802,-0.09272094815969467,-0.003029222832992673,0.008800037205219269,0.046604983508586884,0.03235659375786781,0.1505032181739807,0.02859753742814064,0.04363979771733284,-0.028841974213719368,0.05956960842013359,0.1673412322998047,-0.052037741988897324,-0.004073247313499451,-0.037495020776987076,-0.003191197756677866,-0.031469013541936874,-0.02453436329960823,-0.024653062224388123,0.04340728372335434,-0.06074168533086777,0.05279547721147537,-0.01466636173427105,0.11712640523910522,0.018104374408721924,0.06497759371995926,-0.027348477393388748,0.14531712234020233,0.0404435470700264,-0.05313058942556381,0.024770421907305717,-0.14437662065029144,-0.1031399667263031,0.047094810754060745,0.013485009782016277,0.015621236525475979,-0.07941168546676636,-0.00460327323526144,0.031148193404078484,-0.000318247388349846,0.007751122582703829,0.06359579414129257,0.060521334409713745,-0.06306581944227219,0.024148471653461456,-0.01857381872832775,-0.017260121181607246,-0.04067264497280121,-0.008350812830030918,-0.08834339678287506,0.010886168107390404,0.0270326416939497,-0.054797884076833725,0.057711031287908554,0.09649363905191422,0.01874297671020031
äthiopien,0.09246351569890976,-0.0698937177658081,0.015231120400130749,-0.032252583652734756,0.06153487414121628,-0.061919283121824265,0.09235698729753494,-0.05651714280247688,0.08490101248025894,-0.03706274554133415,0.0009879646822810173,0.007054533809423447,-0.004837909713387489,0.02039170078933239,-0.013600715436041355,0.0031163531821221113,-0.05007420852780342,0.06088879704475403,-0.025329522788524628,0.03765248507261276,0.039743829518556595,-0.010762046091258526,0.08499617874622345,-0.03576217219233513,-0.10768012702465057,-0.009368961676955223,-0.026374945417046547,-0.010881960391998291,-0.018294738605618477,-0.041970014572143555,0.01643771305680275,0.02557959593832493,0.0958382710814476,-0.012735499069094658,0.09413924813270569,0.003960433416068554,0.03072597086429596,-0.09482751041650772,0.052263807505369186,-0.03151565417647362,-0.02360679768025875,-0.014927832409739494,-0.06326200067996979,0.01420195959508419,-0.11971636861562729,-0.09264519065618515,-0.029169347137212753,0.03458024188876152,-0.018067043274641037,-0.06022854149341583,-0.08760581165552139,-0.06964936852455139,0.012491629458963871,0.011294545605778694,-0.007050966378301382,0.0763736218214035,0.02252288907766342,0.08649592101573944,0.04079753905534744,-0.010808899998664856,0.02372281812131405,-0.08455304801464081,-0.04587433487176895,0.013430691324174404,-0.008121584542095661,0.05796900391578674,0.014628210105001926,0.0021925827022641897,0.06235314533114433,0.04454612731933594,0.015394984744489193,-0.014862332493066788,0.009317412972450256,-0.05078210309147835,-0.04732545092701912,0.024643845856189728,-0.05087622255086899,0.10426538437604904,0.044634830206632614,-0.07178197801113129,0.09837310016155243,-0.013626792468130589,0.00216466560959816,-0.08631602674722672,0.12413890659809113,0.04297785088419914,0.00566245848312974,0.0061510889790952206,0.10967004299163818,0.11665098369121552,0.043831706047058105,0.02043776959180832,-0.02863011136651039,0.03408360853791237,-0.025233261287212372,0.02155090868473053,0.006223327945917845,-0.08143159002065659,-0.012890530750155449,-0.08806172013282776,0.10564589500427246,0.019485047087073326,0.10850790143013,0.06035738065838814,0.04669911041855812,-0.011875811964273453,-0.025227326899766922,-0.04823395609855652,8.032016921788454e-05,0.02618872933089733,-0.02565976046025753,0.08899279683828354,0.01993931457400322,0.013006612658500671,-0.027721596881747246,-0.008379094302654266,0.04169860854744911,-0.08779197186231613,0.0615885853767395,-0.05142838507890701,-0.0023738760501146317,-0.030580541118979454,0.021215343847870827,-0.057832177728414536,-0.011656767688691616,0.011636227369308472,0.07233491539955139,0.026116274297237396,-0.00524203572422266,0.12685160338878632,0.1333969086408615,0.08890646696090698,-0.06219926476478577,-0.08834970742464066,-0.039938874542713165,0.07124696671962738,0.006926544476300478,-0.0018726142589002848,0.04017404839396477,0.13379381597042084,0.0277825016528368,-0.031222332268953323,0.09386640042066574,0.04966404289007187,0.01842901110649109,-0.11713387817144394,0.04096958413720131,0.01701226644217968,0.054048892110586166,-0.0822678655385971,0.047541532665491104,0.010431801900267601,0.027014046907424927,0.040931519120931625,0.022696610540151596,-0.00730480719357729,0.018127834424376488,0.01950644887983799,-0.018103595823049545,-0.09382462501525879,-0.03963552042841911,0.017304034903645515,-0.0048314412124454975,-0.05396779999136925,-0.08069461584091187,-0.0617644377052784,-0.02111026644706726,-0.04808620363473892,0.16434316337108612,0.028405148535966873,0.14921239018440247,-0.011270609684288502,-0.05592281371355057,0.040526147931814194,-0.012695400044322014,-0.00011228100629523396,-0.056710198521614075,0.03625030070543289,0.06071200594305992,0.019103575497865677,0.035902589559555054,0.0038053200114518404,-0.022187454625964165,0.023479070514440536,0.026920506730675697,-0.07502690702676773,0.08635985106229782,-0.06901346892118454,-0.08025608956813812,-0.0190130602568388,0.012821569107472897,0.009262190200388432,-0.07365646958351135,0.007142236921936274,0.029057621955871582,0.04154760390520096,0.07483456283807755,-0.01188067439943552,0.007667812053114176,-0.10310155153274536,-0.09677666425704956,0.05035208538174629,0.06481002271175385,0.1104891374707222,0.06733902543783188,-0.06223629042506218,0.054312270134687424,-0.06473439931869507,0.05711560696363449,-0.043578263372182846,0.028257502242922783,-0.015668589621782303,-0.06414254754781723,0.12266765534877777,-0.05904209613800049,0.06992560625076294,-0.053914375603199005,-0.03201818838715553,-0.10717020183801651,0.09046494215726852,-0.08670761436223984,-0.04729822650551796,-0.13032551109790802,-0.09824731945991516,0.046888258308172226,-0.15176188945770264,0.005137572530657053,-0.0625220462679863,0.07426757365465164,0.06675960123538971,0.02485189214348793,0.07571648806333542,0.008202800527215004,0.045122046023607254,-0.005742673296481371,0.09960009902715683,0.018248852342367172,0.0060376962646842,0.08212351053953171,-0.036532919853925705,0.010035404935479164,0.021909356117248535,-0.07079051434993744,-0.014214509166777134,0.08686281740665436,0.01144446711987257,0.015056664124131203,0.04160340502858162,-0.007206536829471588,0.007804130669683218,0.10709647089242935,-0.04803707078099251,-0.03714174032211304,-0.018711986020207405,0.05126358941197395,0.13369496166706085,-0.008581535890698433,-0.012022181414067745,-0.03833545371890068,0.02547556348145008,-0.01925971917808056,0.05128037929534912,-0.0907357707619667,-0.01042658556252718,-0.019085576757788658,-0.04053362458944321,0.06321520358324051,0.034652553498744965,-0.008727814070880413,0.053870849311351776,0.05435587465763092,0.03990635648369789,-0.054714906960725784,-0.012420465238392353,0.025427300482988358,-0.040465887635946274,0.0010162213584408164,0.07194904237985611,0.044078726321458817,0.007100546266883612,-0.12718848884105682,0.029858378693461418,0.03305407986044884,0.052375826984643936,0.0015858894912526011,-0.027511514723300934,0.0076071107760071754,-0.003956014756113291,-0.08868534117937088,0.07533822953701019,0.02081071212887764,-0.1040850579738617,-0.046790484338998795,-0.0765971913933754,0.009137064218521118,-0.03459388017654419,0.01124752126634121,0.06453227996826172,-0.08823452889919281,-0.02287290245294571
australien,-0.02923435904085636,0.03662792965769768,0.05796227231621742,-0.06784180551767349,0.074802465736866,-0.016270507127046585,0.08359770476818085,0.06110385060310364,0.1396338790655136,-0.035111669450998306,0.05342999845743179,-0.14279869198799133,-0.020278645679354668,0.0048552085645496845,0.03204512596130371,0.047526538372039795,-0.01586969941854477,-0.054606519639492035,-0.00340505363419652,0.04477198049426079,0.019844351336359978,0.032016437500715256,0.027945328503847122,-0.019064802676439285,-0.041696690022945404,-0.014135620556771755,-0.050355955958366394,0.04868384823203087,0.029099611565470695,-0.017723239958286285,0.004436895716935396,-0.03333061560988426,0.04167716205120087,-0.04328838363289833,0.06346024572849274,0.02925892360508442,-0.07160969823598862,-0.02479674480855465,0.041543442755937576,0.061024636030197144,-0.050909120589494705,-0.031558096408843994,-0.06242065876722336,0.1230645403265953,0.01022860873490572,0.08298248052597046,-0.1823703944683075,0.030174124985933304,0.024190755560994148,-0.10084347426891327,0.018443094566464424,0.060046400874853134,0.027785848826169968,0.060447972267866135,-0.09685390442609787,0.08327912539243698,-0.05617945268750191,-0.011422174982726574,0.02366190403699875,0.02058379352092743,0.05667297542095184,-0.03473816066980362,-0.037224989384412766,0.01809326373040676,0.023143058642745018,-0.05885204300284386,0.09303418546915054,-0.0064957356080412865,-0.11130963265895844,-0.05662444606423378,0.001872451277449727,0.03205811232328415,0.0339248888194561,0.009571723639965057,0.03453945741057396,0.059026170521974564,0.06911023706197739,0.08804503828287125,-0.029492149129509926,-0.09098643064498901,0.10379765927791595,-0.026597704738378525,0.006208124104887247,-0.05078445374965668,0.05625022202730179,-0.006646785885095596,-0.04501777142286301,0.053090039640665054,0.06469933688640594,-0.029839245602488518,0.02777888998389244,0.03291664272546768,-0.05302368476986885,-0.05676693469285965,0.019944434985518456,-0.028449298813939095,0.022419271990656853,-0.14244404435157776,0.031029265373945236,-0.030728185549378395,0.05852555111050606,0.0914282575249672,-0.033747438341379166,0.026915354654192924,-0.04682556167244911,-0.07437403500080109,0.04323210194706917,0.08242717385292053,-0.06697526574134827,0.03231118991971016,-0.057740919291973114,0.009725632146000862,0.007618257310241461,0.02075924724340439,0.10250026732683182,-0.0032544624991714954,0.03144546225667,-0.07323290407657623,-0.04055163636803627,-0.04594222456216812,0.022440889850258827,0.03031070902943611,-0.030767597258090973,-0.006661147344857454,0.033770401030778885,-0.008003592491149902,0.013038703240454197,0.037204694002866745,0.03328699618577957,0.06330104917287827,0.03627520054578781,0.06272301822900772,-0.07451975345611572,0.0796562135219574,-0.09232217073440552,0.12153489142656326,0.015495849773287773,0.07492399960756302,0.007939908653497696,-0.0026403754018247128,0.025021888315677643,-0.011903472244739532,-0.017748555168509483,0.00317301694303751,0.07039718329906464,-0.009813563898205757,-0.0010298758279532194,0.01257028803229332,-0.03554419055581093,-0.04377374053001404,-0.021302787587046623,0.013386464677751064,-0.078165702521801,0.06498075276613235,0.04255586862564087,-0.015846911817789078,-0.05195191875100136,0.014057422056794167,0.08267480134963989,-0.016266517341136932,0.05505076050758362,-0.05952555313706398,-0.01042271126061678,-0.0002462122938595712,0.012021835893392563,-0.06298835575580597,0.07925599068403244,0.17160974442958832,0.15088710188865662,-0.004836102481931448,0.02862466312944889,-0.02329271286725998,-0.048376794904470444,0.05797173082828522,-0.004387763794511557,-0.02644161693751812,0.041793033480644226,-0.01971462368965149,-0.0022297066170722246,-0.0035716965794563293,0.03414751961827278,-0.02945053018629551,-0.09333686530590057,-0.03213925287127495,0.09927433729171753,0.0500178337097168,-0.08408945053815842,-0.13742411136627197,0.008575987070798874,0.01738002523779869,-0.02619590237736702,0.005757474806159735,-0.1536363661289215,-0.06286755949258804,-0.06442495435476303,0.05209304392337799,-0.09213687479496002,0.039263684302568436,-0.11701938509941101,0.006309048272669315,-0.018647028133273125,0.04463934898376465,0.034299369901418686,0.07524942606687546,0.0002718174073379487,-0.07363150268793106,0.044323258101940155,-0.002428787760436535,-0.020061813294887543,-0.07027126848697662,0.0011652878019958735,-0.04150042682886124,0.09402266144752502,0.03678721562027931,-0.016659803688526154,0.17115704715251923,0.03690467029809952,0.06634305417537689,-0.1086554154753685,0.00421180110424757,0.021487299352884293,0.020831797271966934,-0.033199112862348557,-0.04473245516419411,0.1401844173669815,-0.019570013508200645,-0.005689936224371195,-0.006215453147888184,-0.05223150923848152,0.01772177778184414,-0.03878386691212654,0.006241504568606615,0.0769176334142685,0.061237528920173645,0.0561889111995697,0.04788408800959587,-0.08582696318626404,0.04198416694998741,0.08896744251251221,-0.11273346841335297,0.02941463515162468,0.0072855292819440365,-0.03407780081033707,-0.040024396032094955,0.04504526033997536,0.08271624892950058,0.002994127105921507,0.09083778411149979,-0.08779525756835938,0.10194949060678482,-0.042187463492155075,0.06350929290056229,-0.08734229952096939,0.02344302460551262,0.05937505513429642,-0.031868163496255875,0.013777000829577446,0.014037108980119228,0.03052225522696972,0.011152680031955242,-0.059488508850336075,-0.013831707648932934,-0.056483931839466095,-0.01575436070561409,-0.0932050347328186,0.0045641339384019375,0.11039441078901291,0.028395740315318108,0.03689505159854889,0.08831637352705002,0.0458173006772995,-0.009640077129006386,-0.013068541884422302,-0.08699551224708557,0.08928589522838593,-0.09370163828134537,-0.0415031872689724,0.07325812429189682,-0.009429476223886013,0.05286845937371254,0.02387992851436138,0.10317904502153397,0.03230490908026695,0.0044733379036188126,-0.008843851275742054,-0.09704401344060898,-0.020729051902890205,-0.02100748009979725,0.03382807597517967,-0.02875596284866333,0.018610617145895958,-0.04692712053656578,-0.0081855533644557,0.00604400597512722,0.029103673994541168,-0.05386856943368912,-0.07471484690904617,-0.020486705005168915,0.017168061807751656,-0.004222838673740625
bangladesch,0.0035598163958638906,0.06669992953538895,0.04370243474841118,0.04530847445130348,0.08971799165010452,-0.08808396011590958,0.07168567180633545,0.012463727034628391,0.019446110352873802,-0.03848014399409294,-0.010632084682583809,-0.04357784241437912,-0.04549577087163925,-0.08812151104211807,0.07120559364557266,-0.025965457782149315,-0.07908408343791962,0.03313027694821358,0.01098553091287613,-0.053727660328149796,0.042726729065179825,-0.014680411666631699,0.039450790733098984,-0.007241593208163977,0.06738509237766266,0.08035655319690704,-0.02547314204275608,0.07239963859319687,-0.06471733003854752,-0.08898807317018509,0.01249671820551157,0.0568714365363121,0.07845868170261383,-0.03180090710520744,-0.017229463905096054,0.02143154852092266,-0.017498191446065903,-0.11274697631597519,0.11433133482933044,-0.019488591700792313,-0.012105069123208523,0.03151676803827286,-0.014088250696659088,-0.037955280393362045,0.05444563180208206,0.03969666734337807,-0.056732047349214554,0.06342343240976334,-0.004042221233248711,0.022167271003127098,-0.0897718146443367,0.054012179374694824,0.008334656246006489,0.004184699151664972,-0.038942765444517136,-0.07581838965415955,-0.0365615151822567,-0.027373116463422775,0.009720289148390293,-0.02530558407306671,-0.02738410234451294,0.03342118114233017,-0.09582826495170593,0.012754807248711586,0.0009369647596031427,0.039178360253572464,-0.12455087155103683,0.06001127511262894,0.04184695705771446,0.05343456193804741,0.03597143292427063,0.017313199117779732,0.013079836964607239,-0.035638097673654556,-0.014033161103725433,0.012916350737214088,-0.04484544321894646,0.049585409462451935,0.06476950645446777,0.041675224900245667,-0.0395527258515358,-0.008624086156487465,0.06345096230506897,-0.058925580233335495,0.0037454073317348957,0.06535355746746063,-0.09249795973300934,-0.03394819051027298,-0.030126163735985756,0.07885266840457916,0.002525696763768792,0.07274626195430756,-0.0023811792489141226,-0.001524012302979827,-0.03600509092211723,-0.012266255915164948,-0.03988765552639961,-0.0010361437452957034,0.05640712380409241,-0.06801071763038635,-0.00701817637309432,0.05002469941973686,0.031334396451711655,0.030614960938692093,-0.01634077914059162,0.0003271431487519294,0.08443500101566315,0.05338601395487785,-0.009017352014780045,-0.12527455389499664,-0.010516487061977386,-0.020547250285744667,0.11869943886995316,0.062001317739486694,0.019791802391409874,0.05561617761850357,0.022108811885118484,-0.024744341149926186,-0.05014733597636223,0.00530611677095294,0.033919475972652435,-0.01618102192878723,0.025461267679929733,0.08645439893007278,0.11264393478631973,-0.03352607041597366,-0.013542011380195618,0.024861449375748634,0.047501008957624435,0.10136371105909348,0.047523561865091324,0.03767257556319237,-0.04748149216175079,-0.06492839753627777,-0.03485090658068657,0.032108135521411896,0.047551315277814865,0.03504127636551857,0.028459902852773666,0.022751905024051666,0.026722494512796402,-0.027665523812174797,0.08107924461364746,-0.04206620156764984,0.053491804748773575,0.010661381296813488,-0.010360474698245525,0.04607332870364189,0.12968215346336365,-0.08993175625801086,-0.012513859197497368,0.11402399092912674,-0.05871754139661789,0.03201628103852272,-0.02810956910252571,-0.024644745513796806,-0.02693978324532509,0.012647024355828762,0.03448197618126869,0.013597964309155941,0.07793747633695602,-0.09444174915552139,0.026252761483192444,0.001382459537126124,-0.021369099617004395,0.006664253771305084,0.038679614663124084,0.028130393475294113,0.054900433868169785,0.1306719332933426,0.14160548150539398,0.04049566760659218,-0.018439272418618202,0.0958380475640297,-0.03849828243255615,-0.08207990229129791,-0.025573842227458954,0.01602593995630741,0.012101315893232822,-0.014433324337005615,-0.05355590954422951,0.01925424113869667,-0.000984241021797061,0.002541724592447281,-0.041141364723443985,-0.03277510032057762,0.05945876985788345,-0.12242887914180756,-0.031602662056684494,-0.058332961052656174,-0.05765693634748459,-0.0369110107421875,-0.0868450179696083,0.05960394814610481,0.004378467332571745,-0.0818450078368187,-0.042063046246767044,-0.03214332461357117,-0.10780861228704453,0.026979679241776466,-0.04752933233976364,0.03569095581769943,0.06659369170665741,0.05566168203949928,0.008096572943031788,0.07367990165948868,0.0917123556137085,-0.038536280393600464,-0.02138085663318634,-0.04415971413254738,-0.03739818185567856,-0.05492193251848221,0.023053979501128197,0.034903526306152344,0.004693982191383839,0.09170778095722198,0.018145758658647537,0.05198754370212555,-0.03852259740233421,-0.00917623657733202,0.07001965492963791,-0.10905823111534119,-0.05756017938256264,-0.08742734789848328,0.11303229629993439,-0.02798614278435707,0.07408944517374039,-0.15758094191551208,-0.04252668842673302,-0.028102636337280273,-0.011087609454989433,0.10741186141967773,-0.06642445176839828,0.12445012480020523,-0.03370996192097664,0.022737346589565277,0.02031468041241169,0.051118459552526474,-0.02750154212117195,-0.04819214716553688,-0.012546813115477562,-0.0316154845058918,-0.01206240151077509,-0.04974333569407463,0.05897226929664612,-0.024869944900274277,0.015483199618756771,0.05820687115192413,0.0035923775285482407,-0.020489230751991272,0.04370330646634102,-0.030300894752144814,0.0015951936366036534,-0.10600093007087708,0.12485470622777939,0.04962727054953575,-0.015162915922701359,-0.04252573102712631,-0.0905398428440094,-0.006067785434424877,-0.05854349583387375,0.08877073973417282,-0.031866639852523804,-0.020409008488059044,0.007409396581351757,-0.08414466679096222,0.008555942215025425,0.013156762346625328,0.11719008535146713,0.09483832120895386,0.011330015026032925,0.07937132567167282,-0.058615922927856445,-0.03768007084727287,0.05520186573266983,-0.06454753875732422,-0.12491955608129501,0.10643289238214493,0.21444885432720184,0.023382514715194702,0.03334091976284981,-0.05035180598497391,0.04118611663579941,0.05600336939096451,0.01597755029797554,-0.1294211745262146,0.006463988684117794,-0.007486310787498951,-0.03674769401550293,0.05910034477710724,0.025145264342427254,-0.08923976123332977,0.06805285811424255,-0.04919204115867615,0.1064167395234108,-0.024423008784651756,0.06257715821266174,-0.04077959805727005,-0.02358149364590645,-0.07353038340806961
belarus,0.08861526101827621,0.08558734506368637,0.06947336345911026,-0.10043823719024658,-0.01670217514038086,-0.003961292095482349,-0.023792767897248268,-4.059328421135433e-05,-0.029845165088772774,-0.01932801678776741,-0.1383843868970871,-0.09073667228221893,-0.024821927770972252,-0.09361831098794937,0.04176897183060646,0.06943026185035706,-0.02474256418645382,0.0036773886531591415,-0.10195320844650269,-0.04002542421221733,0.004408876411616802,0.004658082500100136,-0.04056674242019653,0.08270052820444107,-0.0747506394982338,0.006065023131668568,-0.14539626240730286,-0.023488134145736694,-0.002029057592153549,-0.04963449761271477,-0.0610111802816391,0.0017487953882664442,0.048244718462228775,0.0321580246090889,0.05307531729340553,0.09028477966785431,-0.09968353807926178,-0.14451688528060913,0.10448894649744034,-0.026116162538528442,0.043423138558864594,0.13560368120670319,-0.05737192928791046,0.01952560991048813,-0.10326039791107178,-0.020246077328920364,0.0007370911771431565,-0.050081510096788406,0.020108459517359734,0.010202153585851192,-0.1099928617477417,0.02564261294901371,0.0430426262319088,0.03098541498184204,-0.0758964866399765,0.020982110872864723,-0.03896848484873772,0.06169356405735016,0.016422150656580925,0.00038171123014763,0.054812707006931305,-0.04326124116778374,-0.07161449640989304,0.004292935132980347,0.05831822380423546,-0.040671635419130325,-0.15113531053066254,-0.013382548466324806,0.035768233239650726,0.003671656595543027,0.028157401829957962,0.03330474719405174,0.018533067777752876,0.012457059696316719,0.001819609315134585,0.03575871139764786,0.04315381124615669,0.05750734359025955,0.01159441377967596,-0.1351529359817505,0.1235477402806282,-0.0778597965836525,0.038772862404584885,0.042114950716495514,-0.00683811167255044,-0.042940642684698105,0.06160428747534752,-0.032418012619018555,0.00775644788518548,0.02177008055150509,-0.042457062751054764,-0.026851827278733253,-0.018213395029306412,0.0652349516749382,-0.01482356246560812,-0.10093996673822403,0.012360622175037861,-0.01954970508813858,0.04470391198992729,-0.014895070344209671,0.07722938805818558,0.057993438094854355,-0.005067137535661459,-0.01815999671816826,0.053726594895124435,-0.030902354046702385,-0.040977973490953445,-0.007856319658458233,-0.07077490538358688,-0.0030259836930781603,0.03040671907365322,0.09321527928113937,0.031317926943302155,0.08336305618286133,-0.05749214068055153,0.005452911369502544,-0.021868888288736343,0.09887738525867462,0.00949978269636631,0.0015883295563980937,-0.05644603818655014,0.03174971789121628,0.03244178742170334,0.0643932968378067,0.05379058048129082,0.0032182650174945593,-0.02907049097120762,0.03990475460886955,-0.016754422336816788,0.07764819264411926,0.04907802864909172,0.01604224182665348,-0.023487338796257973,-0.04253166541457176,-0.0376720055937767,-0.013101063668727875,-0.04328461363911629,0.13117903470993042,0.014279201626777649,0.03525039181113243,-0.01735137589275837,-0.023805789649486542,0.02751118689775467,0.1634591519832611,-0.1107855811715126,-0.016721529886126518,0.08371150493621826,0.015145557001233101,0.1314614713191986,0.03086872212588787,-0.009523545391857624,0.029474079608917236,-0.0053449394181370735,-0.030897658318281174,-0.0302423108369112,0.03483542799949646,-0.03215116262435913,-0.04899844527244568,0.0388546958565712,0.008760113269090652,-0.025794856250286102,-0.06496748328208923,0.01527177169919014,-0.007987619377672672,-0.12028369307518005,-0.08383011072874069,0.02699824795126915,-0.08320046216249466,0.07656769454479218,-0.008372432552278042,0.03815031424164772,-0.06440673023462296,-0.02875196933746338,-0.018578987568616867,-0.0764913484454155,0.02675715461373329,-0.0331362783908844,0.06703709065914154,-0.016897302120923996,-0.0031778516713529825,0.009498086757957935,-0.010048904456198215,-0.060172613710165024,0.024057546630501747,0.018183626234531403,0.0037545172963291407,0.018933704122900963,0.013214980252087116,-0.11815408617258072,-0.04047027602791786,-0.027225352823734283,-0.022104088217020035,-0.10213254392147064,0.04977899417281151,-0.17761364579200745,-0.03041568398475647,0.042066723108291626,-0.04358403757214546,-0.046707917004823685,-0.023198187351226807,0.008318979293107986,0.038324810564517975,0.06353908777236938,-0.009034492075443268,0.05231151729822159,0.07429516315460205,0.033652205020189285,-0.003851220477372408,-0.05979424715042114,-0.09887927025556564,0.08488588035106659,0.04332849755883217,-0.10598107427358627,0.06874644011259079,0.017698192968964577,0.15390905737876892,-0.09990549087524414,0.053853776305913925,0.06196347996592522,0.02817796729505062,0.018219653517007828,0.038131870329380035,0.05818522721529007,-0.07519593089818954,0.0030430664774030447,-0.034435540437698364,0.005637528374791145,0.06183835119009018,-0.006909929681569338,0.13958488404750824,0.019881224259734154,0.1333814412355423,-0.05384404957294464,0.09096069633960724,0.04238776117563248,0.007516027893871069,0.0016649308381602168,-0.00590329896658659,-0.015400892123579979,0.052147675305604935,-0.04334145411849022,0.024546192958950996,-0.09609266370534897,-0.06210827827453613,0.08520771563053131,0.05651594325900078,-0.02579846978187561,-0.004390728659927845,0.04480753093957901,-0.13905183970928192,0.0074024205096066,-0.04342816770076752,0.06192399933934212,-0.0027480635326355696,0.05458122864365578,-0.006648401729762554,0.008864229544997215,0.05301203206181526,0.010859517380595207,-0.012599498964846134,-0.10096766799688339,-0.028087612241506577,0.054858215153217316,0.09053776413202286,0.02544562891125679,-0.0266302190721035,0.013883458450436592,0.06583402305841446,0.04048417508602142,0.043928273022174835,0.07798441499471664,-0.010366181842982769,0.05785306170582771,-0.03262283280491829,-0.012525915168225765,-0.08651025593280792,0.027367183938622475,0.026787664741277695,0.023316912353038788,0.04990982264280319,0.015522842295467854,0.048757582902908325,-0.02600693888962269,-0.0789681151509285,0.012291784398257732,-0.03511427715420723,0.03127942979335785,0.06133713945746422,0.021124273538589478,-0.007804310880601406,0.027634520083665848,0.01902349479496479,0.09759940952062607,-0.02250443771481514,-0.02692219987511635,-0.021360086277127266,-0.05387243255972862,0.043387774378061295,-0.08004889637231827,0.040511664003133774
belgien,0.1014695093035698,0.006297310348600149,-0.02965726889669895,-0.057724662125110626,-0.018977636471390724,-0.04800349473953247,0.034735068678855896,-0.03964734449982643,0.11026646941900253,-0.0048148189671337605,0.023886241018772125,-0.09828576445579529,0.013330001384019852,-0.020990509539842606,0.009464834816753864,0.06334327906370163,-0.004690907895565033,0.013198249973356724,0.06483396142721176,0.11558002978563309,-0.00890408270061016,0.06543026864528656,-0.03513963147997856,-0.0721484124660492,0.08243079483509064,-0.01370164006948471,-0.021338684484362602,0.04162491112947464,0.10505737364292145,-0.030591299757361412,-0.02667892538011074,0.046715810894966125,0.054864201694726944,0.0008375226170755923,-0.07696166634559631,0.03496898338198662,0.012802724726498127,-0.10858273506164551,0.10169056802988052,-0.1103755533695221,0.07119888812303543,0.07382579147815704,-0.014090033248066902,0.06448584794998169,0.07274851202964783,0.060336459428071976,-0.07059905678033829,0.053113508969545364,0.04339122027158737,-0.014682265929877758,0.002105816500261426,-0.0255519337952137,0.005303077399730682,0.05266483873128891,0.0077956183813512325,0.014468496665358543,-0.08331421762704849,0.00014183939492795616,-0.008874909020960331,0.006526209879666567,0.025899089872837067,0.03074629046022892,0.01036393828690052,0.020853666588664055,-0.042854439467191696,-0.04705866798758507,-0.0661330595612526,-0.01957312971353531,0.1319623738527298,-0.05519569665193558,-0.01072690263390541,-0.08975600451231003,-0.0007298383279703557,-0.004078540485352278,0.038040075451135635,0.011171513237059116,0.03634177893400192,-0.07075051963329315,0.14729459583759308,-0.08252575248479843,0.06439176201820374,0.1226520985364914,-0.004434484057128429,0.018995949998497963,-0.030512046068906784,0.029063332825899124,0.024205096065998077,-0.03733266144990921,0.1153501495718956,-0.04182012006640434,0.056864168494939804,-0.022423261776566505,-0.0588478222489357,0.007306139450520277,0.03382693603634834,-0.04985801875591278,0.12034424394369125,-0.026405377313494682,0.00873479526489973,-0.06262332201004028,-0.049713172018527985,0.05876464024186134,-0.1036311537027359,-0.020385341718792915,0.037095267325639725,-0.10598689317703247,0.08803336322307587,0.08981863409280777,0.03320269659161568,0.054347626864910126,-0.014928750693798065,0.04010770469903946,0.017163047567009926,-0.06252218782901764,-0.043177280575037,0.06285273283720016,-0.03165573999285698,-0.11526466906070709,0.05918170511722565,-0.04038313776254654,-0.048801541328430176,-0.10610268265008926,0.020544221624732018,0.010995839722454548,0.11280623078346252,-0.03673199564218521,-0.02841469645500183,0.07227965444326401,0.01645330898463726,0.012822218239307404,0.1275024712085724,0.1275440901517868,0.02625211514532566,-0.10912756621837616,-0.031951967626810074,-0.01177924033254385,-0.017601970583200455,-0.06722374260425568,0.03448150306940079,0.05178031325340271,-0.010584384202957153,0.04490494728088379,0.06387533992528915,-0.036878082901239395,-0.024820176884531975,0.0030268931295722723,-0.006177640985697508,-0.017959527671337128,-0.03736526891589165,-0.08913003653287888,-0.05440160632133484,-0.05410470440983772,0.12082497775554657,0.06450526416301727,0.02248529903590679,0.06227786839008331,-0.04315213859081268,0.06905079632997513,-0.09564132243394852,-0.12475796788930893,0.059124793857336044,-0.06677426397800446,-0.03439456596970558,-0.09772491455078125,-0.0599864237010479,0.0684337243437767,-0.008921212516725063,-0.009759710170328617,0.10225784778594971,0.009424831718206406,0.034467849880456924,0.03284451737999916,-0.10023864358663559,0.042523689568042755,-0.08667727559804916,-0.07897838950157166,0.0418778695166111,-0.02055898867547512,0.004737041424959898,-0.014445586130023003,0.06871920824050903,-0.031007716432213783,-0.04763057455420494,-0.012802314944565296,0.023006640374660492,-0.07718656957149506,-0.07879491150379181,-0.004754353780299425,-0.029748542234301567,-0.027711639180779457,0.0023285739589482546,0.03855983912944794,-0.0923481360077858,0.10602233558893204,-0.02652057819068432,-0.027997398748993874,0.015736641362309456,0.07829570770263672,0.009256508201360703,0.024375800043344498,0.0014226054772734642,-0.041534390300512314,0.01029954757541418,0.07439111918210983,-0.002995876595377922,0.03190027177333832,-0.046243101358413696,-0.108858123421669,-0.011015268042683601,-0.01904149353504181,-0.09127853810787201,0.050739821046590805,0.021975034847855568,0.06435906887054443,0.011840286664664745,0.06751631200313568,-0.11338930577039719,0.0868670642375946,-0.048689521849155426,-0.11865001171827316,0.004775415640324354,-0.08189006894826889,-0.07678523659706116,0.02674654871225357,-0.013573501259088516,-0.006384226493537426,0.03314699977636337,0.046221621334552765,-0.0738275945186615,0.030782844871282578,0.02979295887053013,0.007626947481185198,0.0603635311126709,-2.1113091861479916e-05,-0.056366391479969025,-0.02379428595304489,-0.022503500804305077,0.03307522460818291,-0.014385833404958248,-0.06056971848011017,0.004771371837705374,-0.05162860453128815,0.05561954900622368,-0.07990644872188568,0.07559069991111755,0.04285600408911705,0.04208274558186531,-0.006049376912415028,-0.032301340252161026,0.028551526367664337,0.04971793666481972,-0.08754733204841614,0.01812012493610382,-0.005781812127679586,0.02853262796998024,0.09708546102046967,0.01869279518723488,-0.028443945571780205,0.08728580176830292,0.017600245773792267,-0.12502607703208923,-0.06715723872184753,0.011684359982609749,0.058301642537117004,-0.1684027463197708,-0.06258682906627655,0.10041871666908264,0.02857530675828457,0.06371431797742844,-0.021250324323773384,-0.016453318297863007,0.07595489919185638,-0.07663692533969879,-0.008447566069662571,-0.023213088512420654,-0.0720442682504654,0.02057047002017498,0.02859920635819435,0.04018289968371391,0.07463210821151733,0.058163952082395554,0.006169503554701805,-0.017832325771450996,-0.0358809232711792,-0.003774048527702689,-0.048987794667482376,-0.051771532744169235,-0.008825089782476425,0.007171699311584234,0.08022821694612503,-0.012778122909367085,0.06072402372956276,0.08019086718559265,-0.0029136857483536005,-0.015303081832826138,-0.0043367682956159115,-0.0006801084382459521,0.009058861061930656,0.046648427844047546,-0.021316586062312126
bosnien_und_herzegowina,0.1225912943482399,-0.0234129149466753,-0.02773178555071354,0.050669532269239426,0.011524247005581856,-0.011297781951725483,0.061271797865629196,0.03733643889427185,-0.11608783155679703,-0.017398539930582047,-0.04167816415429115,-0.1029699370265007,-0.019952913746237755,-0.008581176400184631,0.06884905695915222,0.017553677782416344,-0.04702122509479523,0.04448850452899933,0.0142850736156106,0.04253192991018295,-0.01779898814857006,0.06706389039754868,-0.04097307100892067,-0.018975382670760155,0.05091192200779915,-0.02494565024971962,-0.09554991871118546,-0.04293772578239441,0.008503131568431854,-0.08403428643941879,0.015164364129304886,0.0686303973197937,0.006286091171205044,0.013803735375404358,0.0855383425951004,-0.06042894721031189,-0.0499848797917366,-0.09930985420942307,-0.06950797885656357,-0.12047315388917923,0.01859765313565731,-0.01983828656375408,-0.06864768266677856,0.07920176535844803,-0.01587470807135105,0.013000632636249065,-0.08462142199277878,-0.06377876549959183,-0.0031431245151907206,0.037887923419475555,-0.06451810896396637,0.006595710292458534,-0.0650591105222702,0.05258352681994438,0.06105406954884529,0.05906279385089874,-0.05807839706540108,-0.03256933018565178,0.030749645084142685,-0.016518712043762207,-0.026948895305395126,0.016916871070861816,0.020663993433117867,0.0971044972538948,0.06718293577432632,0.03836868330836296,0.01414000615477562,-0.024263853207230568,0.037236761301755905,0.04252707585692406,0.07352111488580704,-0.029840417206287384,-0.05917482078075409,-0.10499045252799988,-0.047440554946660995,0.03500356897711754,-0.005623532924801111,0.08453227579593658,-0.07284390181303024,-0.09637416899204254,0.12401032447814941,-0.05836215615272522,-0.084663525223732,-0.06267447024583817,0.05942149460315704,0.0753796398639679,0.0021186580415815115,0.08907227963209152,0.03880523145198822,0.012996301986277103,-0.08433359116315842,0.055263109505176544,0.004356367513537407,-0.06613782793283463,0.04673784226179123,0.1356040984392166,0.06670156121253967,-0.08071722835302353,-0.013471269980072975,0.006984117906540632,0.03141588345170021,-0.07996034622192383,-0.07518519461154938,-0.008073900826275349,-0.1511675864458084,0.10440714657306671,0.07386275380849838,-0.04750162363052368,0.09459181129932404,0.08558168262243271,-0.04050244018435478,-0.05210795998573303,0.0480167418718338,-0.02383822202682495,-0.006448411848396063,-0.008631414733827114,-0.007940852083265781,-0.09013799577951431,0.03324798122048378,-0.03505915030837059,-0.11517657339572906,0.019056636840105057,0.05173134431242943,0.004416948650032282,0.012926877476274967,0.08313523977994919,-0.017376631498336792,-0.007880296558141708,0.035920679569244385,0.13659191131591797,0.08101947605609894,0.0280295442789793,0.020759757608175278,-0.023324502632021904,-0.05657929554581642,-0.11236988008022308,-0.051430437713861465,0.08778692036867142,-0.0032493299804627895,0.06600916385650635,-0.025692153722047806,0.008573685772716999,0.045871809124946594,-0.019144777208566666,0.04344678670167923,-0.08192012459039688,-0.009116394445300102,-0.06017782911658287,0.047828249633312225,0.06998886913061142,-0.02190529741346836,-0.07029565423727036,0.08542807400226593,0.06629012525081635,-0.019576508551836014,0.03088342398405075,-0.07229644805192947,0.014277120120823383,-0.0200076624751091,-0.018834205344319344,-0.029741154983639717,-0.009790959767997265,0.08328656107187271,-0.019718991592526436,-0.06209941953420639,0.04115196689963341,0.002054559299722314,0.04284484684467316,0.06207066774368286,-0.017868271097540855,-0.03665914386510849,-0.031088409945368767,0.009295283816754818,0.015834003686904907,-0.04784025996923447,0.0233435221016407,-0.06258097290992737,-0.14134688675403595,-0.047646038234233856,-0.014454644173383713,0.05188944935798645,-0.04360482841730118,0.0007414731662720442,0.02043781988322735,-0.07666024565696716,-0.09417373687028885,0.009561339393258095,-0.00022983101371210068,-0.0991365984082222,0.010465736500918865,0.03778941556811333,0.006151970010250807,-0.054581981152296066,-0.05053214356303215,0.025693852454423904,0.0024425543379038572,0.0503903403878212,-0.07352090626955032,0.005668817553669214,-0.09074559807777405,0.010854532942175865,-0.052146561443805695,0.004777333699166775,0.03209640458226204,0.002381222555413842,0.011763425543904305,0.03929990902543068,0.04531724378466606,-0.07858921587467194,-0.08232197910547256,-0.0069151222705841064,0.03859409689903259,0.018829340115189552,-0.003707981901243329,-0.092546746134758,0.07858017832040787,-0.07274855673313141,0.0351504310965538,0.042070332914590836,0.026535341516137123,-0.10778006911277771,0.04614657163619995,0.03463965654373169,-0.02453416772186756,0.02091793715953827,-0.05116599053144455,0.009929495863616467,0.0008424592670053244,0.06174983084201813,0.044189661741256714,0.044153545051813126,0.0024638455361127853,-0.01839304529130459,0.07256045192480087,0.0911925733089447,-0.0931059718132019,0.04536059498786926,0.06876090914011002,-0.05096319690346718,0.043430037796497345,-0.02184307388961315,0.10776873677968979,-0.025805814191699028,-0.11622938513755798,0.03961322829127312,0.014287834987044334,-0.05859963968396187,-0.003573174588382244,0.04173993691802025,-0.04957416281104088,0.09082113951444626,-0.06496642529964447,0.05208952724933624,0.0008919069659896195,0.08412931859493256,0.08559785038232803,0.021153656765818596,-0.013030760921537876,-0.09085606783628464,0.0544135682284832,-0.084601029753685,0.07613033801317215,0.035401903092861176,-0.09968309849500656,-0.029769882559776306,-0.00896508153527975,0.004445315338671207,0.10737865418195724,-0.015917789191007614,-0.059671275317668915,-0.010154200717806816,-0.0036795055493712425,0.020269494503736496,0.12697109580039978,-0.03471310809254646,0.01369229331612587,0.06015859916806221,0.06142464280128479,0.09890516847372055,0.026290029287338257,-0.09035218507051468,-0.0028084723744541407,-0.0998663604259491,0.09266459196805954,0.03771347925066948,0.038077447563409805,-0.040005747228860855,-0.008203691802918911,0.004271704703569412,0.07746093720197678,0.11650138348340988,-0.011655435897409916,0.004851754289120436,0.012474016286432743,-0.0589601993560791,0.03158438950777054,0.00677939597517252,0.03998821601271629,-0.0408475361764431,-0.08950766175985336
brasilien,0.007336037699133158,-0.013526853173971176,0.08619076013565063,-0.03924684226512909,0.06547094881534576,0.007429440040141344,0.0492871031165123,0.06303711235523224,0.017286231741309166,-0.07846636325120926,0.012475399300456047,-0.052360329777002335,-0.019673123955726624,-0.05331011489033699,0.07658501714468002,0.018809806555509567,-0.05198957398533821,0.06587088108062744,-0.043943263590335846,0.05413680523633957,-0.010203596204519272,-0.006641349755227566,0.09836915135383606,0.00977127905935049,-0.027290519326925278,0.03200160339474678,-0.016652854159474373,-0.00180734449531883,0.0648796409368515,-0.028962425887584686,0.021388044580817223,0.010485824197530746,0.07164637744426727,0.018377341330051422,0.04852963984012604,0.03426589444279671,-0.10675308108329773,-0.05057504400610924,0.02332662045955658,0.02773400768637657,-0.026843154802918434,0.017008857801556587,-0.07028569281101227,0.019605232402682304,0.0737864226102829,-0.12380386888980865,-0.10770547389984131,0.15676288306713104,0.05906303599476814,-0.0038573744241148233,-0.07352907955646515,0.036265578120946884,0.008121092803776264,0.047406360507011414,0.053316060453653336,0.03911883383989334,-0.08712005615234375,-0.03336860612034798,0.038428664207458496,-0.08498792350292206,-0.02797277830541134,0.0023600575514137745,-0.13331982493400574,0.0405614897608757,0.025574952363967896,0.015000367537140846,0.03181443735957146,-0.030584260821342468,0.004179181065410376,-0.006935713812708855,-0.06195426359772682,0.0043407343327999115,0.015225362032651901,-0.0496080107986927,0.06098324805498123,0.09327410906553268,-0.05879306420683861,-0.008218219503760338,0.10980132222175598,-0.06409616768360138,-0.01759016141295433,0.07800328731536865,-0.06321074068546295,-0.09566760808229446,0.06584114581346512,-0.005348545964807272,0.01730402372777462,0.09721020609140396,0.010207784362137318,0.11491206288337708,-0.0028363715391606092,0.05726098641753197,-0.024493079632520676,-0.0201067253947258,0.004039844963699579,-0.07431226223707199,0.015070788562297821,0.002590631367638707,0.08369947224855423,-0.04261992499232292,0.10638988763093948,-0.021731797605752945,-0.052013978362083435,0.04470984265208244,0.023097869008779526,0.03421870991587639,0.07365773618221283,0.08488960564136505,-0.057818830013275146,0.07109057903289795,-0.05867612361907959,-0.0031375165563076735,0.07120601087808609,-0.01920294761657715,-0.01238843984901905,-0.005383467301726341,-0.032300010323524475,-0.04832325503230095,0.0045199524611234665,-0.05196738615632057,-0.023630663752555847,-0.013159007765352726,0.025386344641447067,-0.008360256440937519,0.044857095927000046,-0.03055405430495739,-0.01537266094237566,0.020642297342419624,0.09975763410329819,0.0793512836098671,-0.015146675519645214,-0.005679883994162083,-0.06529802083969116,0.0029754454735666513,-0.10173948854207993,-0.012008151039481163,0.043317873030900955,0.0009001090656965971,0.03771481662988663,0.04483836889266968,0.03545844182372093,-0.021209558472037315,0.09205623716115952,-0.029387958347797394,0.11853427439928055,0.031213415786623955,0.06820809096097946,0.0826197937130928,0.12499308586120605,-0.005930027924478054,0.022532418370246887,0.15951035916805267,0.06385822594165802,0.0009461618028581142,0.05078057572245598,0.016959087923169136,-0.026285666972398758,-0.037419393658638,0.00861838273704052,-0.004726848099380732,0.037290360778570175,-0.07826701551675797,0.0074861920438706875,-0.08022862672805786,-0.06337720155715942,0.024074753746390343,0.009411528706550598,0.0025183274410665035,0.09093079715967178,0.06888287514448166,0.02455083280801773,0.035897672176361084,-0.006911012344062328,-0.03231847658753395,0.013278641737997532,-0.00286484113894403,0.010093904100358486,-0.0020726597867906094,0.060299769043922424,0.01218364480882883,0.014278683811426163,-0.06811440736055374,-0.024114610627293587,0.043155819177627563,-0.021553056314587593,-0.00030323059763759375,0.025318102911114693,-0.11518773436546326,-0.05016825348138809,-0.0971536785364151,0.028988050296902657,-0.12989647686481476,-0.08466952294111252,-0.002528307493776083,-0.0569760762155056,0.02446954883635044,0.05008520931005478,0.04897184669971466,-0.10225249081850052,-0.12362070381641388,-0.0011938299285247922,-0.024918846786022186,0.023142633959650993,0.0386059395968914,-0.08214012533426285,0.02248360961675644,0.06458506733179092,0.03192102164030075,0.09308072924613953,-0.0355367437005043,0.07757870107889175,-0.05611639842391014,-0.03337249532341957,0.035274043679237366,-0.01416703686118126,0.0840994119644165,-0.0675087422132492,0.09576274454593658,-0.04751747101545334,-0.017490100115537643,0.03219417482614517,0.0007657807436771691,-0.021348966285586357,-0.018704716116189957,0.03397415950894356,-0.033992066979408264,0.05760796740651131,-0.04199829325079918,-0.003927125129848719,0.049282852560281754,-0.036338381469249725,0.04588238149881363,-0.04799922555685043,0.026905514299869537,0.014806289225816727,0.017167290672659874,-0.08326013386249542,-0.023087751120328903,0.006716900505125523,0.036709245294332504,-0.026637829840183258,-0.02676849626004696,-0.02918051742017269,-0.06546365469694138,-0.006202956195920706,0.06381943821907043,0.01282003428786993,0.07788719236850739,0.008925720117986202,-0.008757863193750381,0.05321704223752022,-0.016425970941781998,-0.005113582126796246,-0.03515414893627167,0.09483739733695984,0.07632312923669815,0.02628771774470806,-0.08137420564889908,0.05803758278489113,-0.15339161455631256,-0.0019083998631685972,-0.03764994442462921,0.024488452821969986,-0.015690317377448082,0.008677572011947632,-0.05166329815983772,-0.01706639863550663,-0.04790664091706276,0.06112721562385559,-0.04268950968980789,0.06002578139305115,0.030540164560079575,0.00577888498082757,-0.06041458621621132,-0.0018812883645296097,-0.12644442915916443,-0.05563785135746002,0.04833485931158066,0.1459629237651825,0.10487443953752518,-0.0038084310945123434,0.09849534183740616,0.09463861584663391,0.07202466577291489,-0.009204741567373276,-0.04534577950835228,0.05997985601425171,0.08942671120166779,-0.11499880254268646,-0.06647475063800812,0.11140917241573334,-0.009726757183670998,0.02881818637251854,0.04140918329358101,-0.03562489151954651,0.057133499532938004,0.007567558437585831,0.20345541834831238,-0.10929429531097412,-0.06924675405025482
