Country,Vectordimension_0,Vectordimension_1,Vectordimension_2,Vectordimension_3,Vectordimension_4,Vectordimension_5,Vectordimension_6,Vectordimension_7,Vectordimension_8,Vectordimension_9,Vectordimension_10,Vectordimension_11,Vectordimension_12,Vectordimension_13,Vectordimension_14,Vectordimension_15,Vectordimension_16,Vectordimension_17,Vectordimension_18,Vectordimension_19,Vectordimension_20,Vectordimension_21,Vectordimension_22,Vectordimension_23,Vectordimension_24,Vectordimension_25,Vectordimension_26,Vectordimension_27,Vectordimension_28,Vectordimension_29,Vectordimension_30,Vectordimension_31,Vectordimension_32,Vectordimension_33,Vectordimension_34,Vectordimension_35,Vectordimension_36,Vectordimension_37,Vectordimension_38,Vectordimension_39,Vectordimension_40,Vectordimension_41,Vectordimension_42,Vectordimension_43,Vectordimension_44,Vectordimension_45,Vectordimension_46,Vectordimension_47,Vectordimension_48,Vectordimension_49,Vectordimension_50,Vectordimension_51,Vectordimension_52,Vectordimension_53,Vectordimension_54,Vectordimension_55,Vectordimension_56,Vectordimension_57,Vectordimension_58,Vectordimension_59,Vectordimension_60,Vectordimension_61,Vectordimension_62,Vectordimension_63,Vectordimension_64,Vectordimension_65,Vectordimension_66,Vectordimension_67,Vectordimension_68,Vectordimension_69,Vectordimension_70,Vectordimension_71,Vectordimension_72,Vectordimension_73,Vectordimension_74,Vectordimension_75,Vectordimension_76,Vectordimension_77,Vectordimension_78,Vectordimension_79,Vectordimension_80,Vectordimension_81,Vectordimension_82,Vectordimension_83,Vectordimension_84,Vectordimension_85,Vectordimension_86,Vectordimension_87,Vectordimension_88,Vectordimension_89,Vectordimension_90,Vectordimension_91,Vectordimension_92,Vectordimension_93,Vectordimension_94,Vectordimension_95,Vectordimension_96,Vectordimension_97,Vectordimension_98,Vectordimension_99,Vectordimension_100,Vectordimension_101,Vectordimension_102,Vectordimension_103,Vectordimension_104,Vectordimension_105,Vectordimension_106,Vectordimension_107,Vectordimension_108,Vectordimension_109,Vectordimension_110,Vectordimension_111,Vectordimension_112,Vectordimension_113,Vectordimension_114,Vectordimension_115,Vectordimension_116,Vectordimension_117,Vectordimension_118,Vectordimension_119,Vectordimension_120,Vectordimension_121,Vectordimension_122,Vectordimension_123,Vectordimension_124,Vectordimension_125,Vectordimension_126,Vectordimension_127,Vectordimension_128,Vectordimension_129,Vectordimension_130,Vectordimension_131,Vectordimension_132,Vectordimension_133,Vectordimension_134,Vectordimension_135,Vectordimension_136,Vectordimension_137,Vectordimension_138,Vectordimension_139,Vectordimension_140,Vectordimension_141,Vectordimension_142,Vectordimension_143,Vectordimension_144,Vectordimension_145,Vectordimension_146,Vectordimension_147,Vectordimension_148,Vectordimension_149,Vectordimension_150,Vectordimension_151,Vectordimension_152,Vectordimension_153,Vectordimension_154,Vectordimension_155,Vectordimension_156,Vectordimension_157,Vectordimension_158,Vectordimension_159,Vectordimension_160,Vectordimension_161,Vectordimension_162,Vectordimension_163,Vectordimension_164,Vectordimension_165,Vectordimension_166,Vectordimension_167,Vectordimension_168,Vectordimension_169,Vectordimension_170,Vectordimension_171,Vectordimension_172,Vectordimension_173,Vectordimension_174,Vectordimension_175,Vectordimension_176,Vectordimension_177,Vectordimension_178,Vectordimension_179,Vectordimension_180,Vectordimension_181,Vectordimension_182,Vectordimension_183,Vectordimension_184,Vectordimension_185,Vectordimension_186,Vectordimension_187,Vectordimension_188,Vectordimension_189,Vectordimension_190,Vectordimension_191,Vectordimension_192,Vectordimension_193,Vectordimension_194,Vectordimension_195,Vectordimension_196,Vectordimension_197,Vectordimension_198,Vectordimension_199,Vectordimension_200,Vectordimension_201,Vectordimension_202,Vectordimension_203,Vectordimension_204,Vectordimension_205,Vectordimension_206,Vectordimension_207,Vectordimension_208,Vectordimension_209,Vectordimension_210,Vectordimension_211,Vectordimension_212,Vectordimension_213,Vectordimension_214,Vectordimension_215,Vectordimension_216,Vectordimension_217,Vectordimension_218,Vectordimension_219,Vectordimension_220,Vectordimension_221,Vectordimension_222,Vectordimension_223,Vectordimension_224,Vectordimension_225,Vectordimension_226,Vectordimension_227,Vectordimension_228,Vectordimension_229,Vectordimension_230,Vectordimension_231,Vectordimension_232,Vectordimension_233,Vectordimension_234,Vectordimension_235,Vectordimension_236,Vectordimension_237,Vectordimension_238,Vectordimension_239,Vectordimension_240,Vectordimension_241,Vectordimension_242,Vectordimension_243,Vectordimension_244,Vectordimension_245,Vectordimension_246,Vectordimension_247,Vectordimension_248,Vectordimension_249,Vectordimension_250,Vectordimension_251,Vectordimension_252,Vectordimension_253,Vectordimension_254,Vectordimension_255,Vectordimension_256,Vectordimension_257,Vectordimension_258,Vectordimension_259,Vectordimension_260,Vectordimension_261,Vectordimension_262,Vectordimension_263,Vectordimension_264,Vectordimension_265,Vectordimension_266,Vectordimension_267,Vectordimension_268,Vectordimension_269,Vectordimension_270,Vectordimension_271,Vectordimension_272,Vectordimension_273,Vectordimension_274,Vectordimension_275,Vectordimension_276,Vectordimension_277,Vectordimension_278,Vectordimension_279,Vectordimension_280,Vectordimension_281,Vectordimension_282,Vectordimension_283,Vectordimension_284,Vectordimension_285,Vectordimension_286,Vectordimension_287,Vectordimension_288,Vectordimension_289,Vectordimension_290,Vectordimension_291,Vectordimension_292,Vectordimension_293,Vectordimension_294,Vectordimension_295,Vectordimension_296,Vectordimension_297,Vectordimension_298,Vectordimension_299
afghanistan,0.02644045650959015,0.028276314958930016,0.08371890336275101,-0.013184434734284878,0.08987293392419815,0.028161101043224335,0.057587847113609314,0.09623168408870697,0.05613882094621658,-0.007887427695095539,-0.03528612107038498,-0.0650242492556572,-0.03154144808650017,0.08178362995386124,-0.008277274668216705,0.036479391157627106,0.056617893278598785,-0.01280972734093666,0.04426445811986923,0.0264546237885952,-0.002474157838150859,0.03261839225888252,-0.003429006552323699,0.05296210199594498,-0.0804300531744957,0.02763795107603073,0.0028914115391671658,0.06262797117233276,0.03224438428878784,-0.09546204656362534,-0.013146940618753433,0.03835942596197128,0.014850154519081116,-0.01333804614841938,-0.017370764166116714,0.0041667683981359005,0.028940772637724876,-0.10561451315879822,-0.0775785744190216,-0.010057018138468266,0.02156660333275795,0.034212954342365265,-0.10962226241827011,0.03612145781517029,-0.039492417126894,0.012758675031363964,-0.012647159397602081,-0.032338399440050125,0.044984687119722366,0.002701242920011282,-0.01227857917547226,0.0712241679430008,0.038646601140499115,0.0393097884953022,0.0847003385424614,0.05116516351699829,-0.07585019618272781,0.028946571052074432,0.06763293594121933,-0.04215708747506142,-0.10368131101131439,-0.1137930303812027,-0.10136925429105759,-0.005326328333467245,0.07880640029907227,-0.009803016670048237,-0.09129808098077774,-0.05216684564948082,-0.0006483917823061347,0.10662048310041428,0.04825266823172569,-0.03755776211619377,0.06028827652335167,0.020188134163618088,0.11452063173055649,0.050287939608097076,-0.08559320867061615,0.07788588851690292,0.02913818508386612,0.021690864115953445,0.0714503824710846,-0.03858755901455879,-0.04421835020184517,0.049807582050561905,0.08566257357597351,0.002061012666672468,-0.04391029477119446,0.035786695778369904,0.06970837712287903,0.09523281455039978,0.015188382938504219,0.047917440533638,0.01347658783197403,-0.006204166449606419,-0.03053312562406063,0.06296505033969879,-0.0191032774746418,9.577245509717613e-05,0.08588839322328568,-0.04636518284678459,-0.03891567513346672,-0.0048067085444927216,0.05252391844987869,0.06753790378570557,0.006418733391910791,-0.05420903116464615,0.10945191979408264,0.07740319520235062,-0.07012731581926346,0.026124104857444763,-0.06380365043878555,-0.03556448966264725,0.06747642159461975,0.061911847442388535,-0.10333866626024246,0.02040807157754898,-0.10369016975164413,-0.0037852281238883734,-0.016846444457769394,-0.030912509188055992,-0.17344136536121368,-0.0260306503623724,0.05264332890510559,-0.0024856708478182554,0.05702488496899605,0.0677444115281105,0.008471724577248096,-0.02798081375658512,0.06156836077570915,0.062025025486946106,0.016305774450302124,0.10658782720565796,-0.10801056027412415,-0.1578315645456314,-0.115254245698452,0.005993216764181852,-0.017778392881155014,0.01321876235306263,0.024905992671847343,0.031196223571896553,-0.09815599769353867,-0.023115573450922966,-0.04521762579679489,0.08524847030639648,0.04340576380491257,-0.0480584017932415,-4.7971203457564116e-05,0.021848877891898155,0.003475061384961009,0.0449296236038208,0.03864523395895958,0.10254856944084167,0.07628972828388214,0.0682278573513031,-0.0014693058328703046,-0.03118150122463703,0.03633137047290802,-0.007774975150823593,0.017749562859535217,-0.04815923050045967,-0.06653372198343277,-0.057122305035591125,0.0228275153785944,-0.0120473587885499,-0.05291985720396042,0.02004673145711422,-0.018565943464636803,-0.0541951060295105,0.036936741322278976,-0.021422458812594414,0.0628313422203064,0.07316479831933975,0.015439356677234173,0.043341297656297684,-0.010031754150986671,-0.031239530071616173,-0.028410717844963074,-0.09147971123456955,0.008393857628107071,0.0023194225504994392,0.020692504942417145,-0.05695023760199547,0.01759442500770092,0.1649312973022461,0.09606145322322845,0.03791628032922745,0.04262039437890053,-0.036099161952733994,-0.05826207250356674,-0.044434625655412674,-0.05314551293849945,-0.04382622614502907,-0.003910830244421959,0.006287456955760717,0.028867969289422035,-0.07299315929412842,-0.07507438957691193,0.016481628641486168,-0.10690463334321976,-0.03603949397802353,-0.06936080753803253,-0.03533332794904709,0.012257156893610954,0.0662117674946785,0.03526913747191429,-0.10134074836969376,0.02560974657535553,-0.14686568081378937,-0.08758518099784851,-0.03271210938692093,0.035181913524866104,0.03434218838810921,-0.08625228703022003,-0.010892737656831741,0.059455111622810364,0.11721751093864441,0.05976981297135353,0.03251485526561737,0.038110312074422836,-0.0929160863161087,-0.021882180124521255,0.021046672016382217,-0.08043909817934036,-0.03974931314587593,-0.019064942374825478,0.0016672866186127067,-0.01571154221892357,-0.04732874035835266,0.0336301214993,0.024868976324796677,-0.00960459653288126,0.09653983265161514,-0.040733397006988525,-0.05550128594040871,0.026678500697016716,-0.03197856247425079,0.003148638876155019,0.05399830639362335,0.2046409696340561,0.051515236496925354,0.03932731971144676,-0.026448052376508713,-0.04436766356229782,-0.051120396703481674,-0.03669159859418869,0.018896466121077538,-0.050126563757658005,-0.06805713474750519,0.030628563836216927,-0.022600539028644562,0.06516706198453903,0.03505665808916092,0.05413656309247017,0.024440836161375046,0.03534005582332611,0.05410310998558998,0.044320229440927505,-0.07035838812589645,-0.02873918041586876,0.008420508354902267,-0.032351911067962646,0.06950598955154419,0.06751571595668793,-0.07784624397754669,-0.007388098631054163,0.05708271637558937,0.11305929720401764,0.0443626306951046,0.05533324182033539,-0.04309019073843956,0.11768274009227753,0.03345717862248421,-0.03183281794190407,-0.06438193470239639,-0.013174217194318771,-0.0626351609826088,-0.006917430553585291,0.027039509266614914,0.03288865089416504,-0.028712116181850433,0.036354612559080124,0.014670594595372677,0.02088429033756256,0.05463564023375511,0.09849842637777328,-0.08302968740463257,0.04188169911503792,-0.004155315924435854,0.016401294618844986,-0.054894544184207916,0.081502266228199,0.0003677716013044119,0.018598683178424835,-0.058099228888750076,-0.035650644451379776,0.04395706579089165,-0.04479971528053284,-0.013693198561668396,-0.05049695074558258,-0.12836067378520966
ägypten,-0.03828493878245354,-0.03263934329152107,0.017503108829259872,-0.01081265788525343,0.06486020237207413,0.018782883882522583,0.05480735003948212,-0.0032853952143341303,0.13243676722049713,-0.09702052175998688,0.033418457955121994,-0.0002072708448395133,0.06588231772184372,-0.018569927662611008,-0.04345940798521042,0.04466390237212181,-0.06602459400892258,0.05731534585356712,-0.05878841504454613,0.03024630807340145,-0.017284803092479706,0.03636223450303078,-0.03366737812757492,-0.14675714075565338,0.009817731566727161,0.012042952701449394,-0.05898428335785866,-0.007325619459152222,-0.04165353998541832,-0.013816448859870434,-0.03179964795708656,0.007393102627247572,-0.055205728858709335,-0.1493765264749527,0.052708256989717484,-0.09242718666791916,-0.0207380298525095,-0.027150273323059082,-0.017964068800210953,-0.015141155570745468,0.05396367236971855,0.07957539707422256,0.033282749354839325,0.015771623700857162,0.0076304650865495205,0.04361662641167641,-0.016321152448654175,-0.07241152226924896,-0.15523996949195862,-0.0551811121404171,-0.06091597303748131,0.09835998713970184,0.06909278780221939,0.014382578432559967,0.0486472062766552,0.06258659064769745,-0.019740285351872444,-0.038153134286403656,-0.0010801819153130054,-0.09089967608451843,0.01889044977724552,-0.025016214698553085,0.021697290241718292,0.05643298849463463,-0.051205478608608246,-0.0024025021120905876,-0.005415281280875206,-0.07002182304859161,-0.05197615921497345,-0.03642639145255089,-0.03120170533657074,-0.09330003708600998,0.037107691168785095,-0.027504272758960724,0.014521214179694653,0.041890036314725876,0.00019825059280265123,0.00206554913893342,0.041857704520225525,-0.04448028653860092,-0.06777366250753403,0.11172570288181305,0.05283551290631294,-0.05378812551498413,0.06668292731046677,-0.04754579812288284,0.017800696194171906,0.07321177423000336,-0.012654909864068031,-0.021829603239893913,-0.06541551649570465,0.029618941247463226,-0.12419147044420242,0.014276952482759953,-0.006950368173420429,-0.029651017859578133,-0.061068955808877945,0.02114109694957733,-0.007034740410745144,-0.03473139926791191,0.07274286448955536,0.15307480096817017,0.05649714171886444,0.008622431196272373,-0.03688092157244682,-0.03754942864179611,0.16524890065193176,0.03406734764575958,-0.060391444712877274,0.016271503642201424,0.012045321054756641,0.0169124323874712,0.05277378857135773,-0.0042188456282019615,-0.04336235299706459,-0.01110053714364767,0.048381257802248,-0.04404532536864281,-0.038660090416669846,0.01144887413829565,-0.052940577268600464,0.005737337749451399,-0.031647417694330215,-0.04411808028817177,0.03888636454939842,0.03299936279654503,0.030761102214455605,0.036978356540203094,-0.034993890672922134,0.17070259153842926,0.009974651038646698,0.0009346315055154264,-0.09807243943214417,-0.01778140291571617,0.011128189042210579,0.03184058889746666,-0.06497036665678024,0.07558385282754898,0.08290021866559982,0.04548870027065277,0.01289392076432705,-0.04625829681754112,-0.012174182571470737,0.051010359078645706,0.01480000838637352,-0.027107831090688705,0.041653700172901154,0.10541334003210068,0.04104967787861824,-0.04472952336072922,-0.03555586189031601,0.005198619328439236,0.1642816662788391,0.06008598580956459,0.051541686058044434,0.010629664175212383,-0.10253773629665375,0.0399792306125164,-0.02775980904698372,0.06565167009830475,-0.0690816268324852,-0.04546564817428589,0.04109560698270798,-0.0024841418489813805,-0.013978485018014908,0.01642036810517311,0.004967988468706608,0.10732471197843552,0.023474421352148056,-0.06796690076589584,0.08384675532579422,0.014401361346244812,-0.07776541262865067,-0.02566801756620407,-0.03777496516704559,-0.07340112328529358,-0.04191868379712105,-0.038288358598947525,0.07639540731906891,-0.08346853405237198,-0.023652521893382072,0.09071307629346848,-0.015103542245924473,0.011823590844869614,0.05870535224676132,-0.0746031254529953,0.0064962697215378284,-0.0799468606710434,-0.01613338105380535,-0.12605175375938416,-0.02384405955672264,-0.043827202171087265,-0.03588033467531204,-0.05294099077582359,-0.09165451675653458,-0.016869641840457916,-0.08395516127347946,0.08501581847667694,-0.14289851486682892,0.01812012307345867,-0.05400150641798973,0.1006171777844429,0.003873655339702964,0.008982219733297825,0.06270091235637665,0.01872239075601101,-0.04150519147515297,-0.05019652470946312,-0.028995050117373466,-0.05019080266356468,0.0430900901556015,-0.0402805469930172,-0.018660569563508034,-0.0014875077176839113,-0.04606910049915314,0.009809973649680614,0.04787902906537056,-0.0891665369272232,0.016008147969841957,-0.0027497883420437574,0.005946505814790726,0.043234143406152725,-0.04554053768515587,0.01366250030696392,0.0664886012673378,-0.029203716665506363,-0.10405182838439941,-0.09737946838140488,0.09012626856565475,0.06081581860780716,0.04111910238862038,-0.07619722187519073,0.017623119056224823,0.07251318544149399,0.05142546445131302,0.011654745787382126,0.013478987850248814,0.08253222703933716,0.1883266717195511,0.011816686019301414,-0.048144154250621796,0.0007373159169219434,-0.11736325174570084,-0.02495269849896431,0.057964976876974106,0.08617114275693893,-0.007775015663355589,0.07479911297559738,-0.022639844566583633,-0.02443525195121765,0.10372760146856308,0.028769170865416527,-0.08675917237997055,0.00985097885131836,0.02115495130419731,0.0972195640206337,-0.005943926051259041,0.0800783708691597,-0.044563647359609604,-0.052887704223394394,-0.05786219239234924,-0.0008690846152603626,-0.01065975334495306,-0.017064794898033142,-0.009300523437559605,0.045549727976322174,0.10611414164304733,0.03242189809679985,-0.026840588077902794,0.03782784938812256,0.040212906897068024,0.023920198902487755,0.012861332856118679,-0.07535610347986221,0.027204245328903198,0.005149583797901869,-0.08420446515083313,-0.022443901747465134,0.04118967428803444,0.1025158241391182,0.04555303975939751,-0.02777547761797905,-0.045295070856809616,0.0743422880768776,0.0037075141444802284,-0.02800646238029003,0.034992486238479614,0.02682553231716156,-0.06022137403488159,0.014938009902834892,0.06513823568820953,-0.11463871598243713,0.03274521231651306,0.014818168245255947,0.021268166601657867,0.04132326692342758,0.03376879543066025,0.018544020131230354,0.0045714061707258224,-0.11339376866817474
albanien,0.044825587421655655,0.03284585848450661,-0.006096403114497662,-0.08181949704885483,0.053469475358724594,0.02529180608689785,0.08924432843923569,0.08499496430158615,0.04846201464533806,-0.06910006701946259,0.022520821541547775,-0.12891355156898499,0.016268212348222733,-0.02266000211238861,0.068320631980896,0.004130457062274218,-0.027365759015083313,-0.0032492668833583593,-0.05209772288799286,-0.012484235689043999,-0.06389346718788147,0.0019748194608837366,0.04261206462979317,0.008792185224592686,0.02086762897670269,0.02937355265021324,0.02880924567580223,0.0346100851893425,0.01915997825562954,-0.08306854963302612,-0.05477351322770119,-0.0220218226313591,-0.003212735755369067,-0.1217651441693306,0.026220962405204773,-0.05456265062093735,-0.045279573649168015,-0.040287554264068604,0.06321602314710617,0.06278436630964279,0.03833060339093208,-0.13538457453250885,-0.02905252017080784,0.0816085934638977,-0.013387966901063919,0.042255159467458725,-0.003614000743255019,0.02813061885535717,0.05659438297152519,-0.04811231046915054,-0.010970230214297771,0.038834646344184875,0.0788673534989357,0.14978866279125214,0.10302211344242096,0.10793904215097427,-0.046536121517419815,0.0733388289809227,0.0038155291695147753,0.020899010822176933,0.050377845764160156,-0.08829385042190552,0.004074858967214823,0.06975862383842468,0.012986855581402779,0.0018521680030971766,0.02759801223874092,-0.09003441780805588,-0.006461190525442362,0.04827732592821121,-0.011559832841157913,0.08328598737716675,-0.011439710855484009,-0.06734307110309601,0.07567428797483444,0.008273358456790447,0.009103797376155853,0.03837503865361214,0.06207994371652603,-0.0458679124712944,0.11235341429710388,-0.003407899523153901,-0.05411219596862793,-0.06402705609798431,0.07883531600236893,-0.008580204099416733,-0.048879485577344894,0.029905283823609352,0.01844935491681099,0.005240644793957472,-0.0339096263051033,0.029061947017908096,0.022678609937429428,-0.053669046610593796,-0.059817805886268616,0.047701235860586166,-0.005587511695921421,-0.12695153057575226,-0.049998536705970764,0.03859082981944084,0.014622491784393787,0.017083819955587387,0.01912536658346653,-0.10738211870193481,-0.06421047449111938,-0.07136297971010208,0.057858165353536606,0.025302257388830185,-0.007918932475149632,0.015486531890928745,-0.07000737637281418,0.08487623929977417,0.09966758638620377,0.028662927448749542,-0.06019715592265129,0.0004813914420083165,-0.06511974334716797,-0.04355064034461975,-0.1023860052227974,-0.05743109807372093,-0.06682588160037994,0.048651739954948425,-0.0610925517976284,0.08932965248823166,0.10477873682975769,0.004058975726366043,0.06429636478424072,0.014416092075407505,0.0487692654132843,0.07129713892936707,0.03559834137558937,0.11422975361347198,0.0024587821681052446,-0.024878516793251038,0.03468436747789383,-0.026342490687966347,-0.004848852287977934,0.019266437739133835,0.08241231739521027,0.12932327389717102,0.009432122111320496,-0.05039851367473602,0.05252300202846527,0.05396449938416481,-0.013479259796440601,0.05744864046573639,0.06833608448505402,0.022431505843997,0.01759747788310051,-0.05969870463013649,-0.07802295684814453,0.005703237373381853,-0.01981452852487564,-0.02675067074596882,-0.10677836835384369,0.09799491614103317,-0.01611056923866272,0.058354806154966354,0.08401409536600113,0.07467901706695557,-0.05100886523723602,0.03925161436200142,0.06379728019237518,0.016734378412365913,0.046160824596881866,-0.018253080546855927,0.04050309583544731,0.04879508540034294,0.0880969911813736,0.01786174438893795,0.06272125989198685,0.036174822598695755,0.025158902630209923,0.07174953073263168,0.00021166173974052072,0.0012550645042210817,-0.04021460935473442,-0.08664002269506454,-0.08438503742218018,0.014874518848955631,0.035616032779216766,-0.04127716273069382,-0.026070473715662956,0.0008617551065981388,-0.030445849522948265,-0.10047584027051926,0.004265189170837402,-0.05629401281476021,-0.07705886662006378,0.01032471377402544,0.04465070739388466,-0.011753288097679615,-0.16117095947265625,-0.004339449107646942,0.005042706150561571,0.055337805300951004,-0.03596679866313934,0.03019356168806553,-0.09521742165088654,0.0389011949300766,0.06470164656639099,-0.10353853553533554,0.019786424934864044,0.006459377706050873,-0.049607522785663605,-0.018268637359142303,0.04710744693875313,-0.00421226117759943,0.07930976152420044,-0.10205850005149841,-0.09754697978496552,0.06266198307275772,-0.09876327961683273,0.04042583331465721,-0.07981951534748077,0.026716912165284157,0.0320667140185833,0.010285581462085247,0.08593008667230606,-0.05723469704389572,-0.031247584149241447,0.02986862324178219,-0.15286430716514587,-0.057985320687294006,0.1352209895849228,-0.03367481753230095,-0.013436132110655308,0.04870118200778961,0.07929649204015732,0.04427124187350273,0.10948095470666885,0.03246346488595009,0.07400974631309509,0.013215307146310806,-0.014105422422289848,-0.03588973730802536,-0.017302732914686203,-0.021244492381811142,0.043356020003557205,0.046178821474313736,0.040249381214380264,0.05827745795249939,-0.10297393053770065,-0.05141996964812279,0.021951839327812195,-0.003570251865312457,0.027588093653321266,0.040730442851781845,0.09563085436820984,0.037293754518032074,0.10189677029848099,-0.026371929794549942,0.0010295022511854768,-0.022941425442695618,0.06689245253801346,-0.027803506702184677,-0.027916105464100838,-0.024882515892386436,-0.08136504888534546,-0.08964824676513672,-0.0840797945857048,0.05099087953567505,-0.024980904534459114,0.036095596849918365,-0.005646564066410065,0.010263732634484768,-0.020832300186157227,0.06095120683312416,-0.03178831562399864,-0.004623851273208857,0.020789552479982376,0.02984263189136982,-0.01054443046450615,-0.07816684246063232,0.08712378144264221,-0.00518229091539979,-0.008691462688148022,0.05141996964812279,0.0900098979473114,-0.009231497533619404,0.029511041939258575,0.025625985115766525,-0.041297875344753265,0.07303216308355331,0.07232102006673813,0.030710488557815552,0.06754620373249054,0.013013768941164017,-0.05068061500787735,-0.014505252242088318,0.12660269439220428,-0.0022486397065222263,-0.03657941147685051,-0.02224874123930931,0.014319750480353832,0.09510953724384308,-0.031676240265369415,0.08603730797767639,0.013486315496265888,-0.10422195494174957
algerien,0.04632752388715744,0.05307870730757713,0.1082582175731659,-0.051478635519742966,0.07491116970777512,0.020020250231027603,0.06938760727643967,-0.055438071489334106,0.13037581741809845,-0.011905779130756855,0.1361188292503357,-0.13327255845069885,0.018741387873888016,0.07875490933656693,0.03301122412085533,0.04229407012462616,-0.06202053651213646,-0.020203040912747383,-0.002585615264251828,-0.010881827212870121,-0.004513236694037914,0.05264952406287193,0.0504988394677639,-0.009012166410684586,-0.05434321612119675,0.010785053484141827,0.024622026830911636,0.0498717725276947,0.023464372381567955,-0.04607229307293892,0.04135553538799286,-0.012467185966670513,-0.018883727490901947,-0.04169033095240593,-0.05109289661049843,0.05691962316632271,-0.017676057294011116,-0.029715143144130707,0.08964668214321136,-0.023062555119395256,0.05450766161084175,0.014908207580447197,0.013765915296971798,0.13264282047748566,-0.03757346794009209,0.025107979774475098,0.00040503067430108786,-0.03116436116397381,0.009505663067102432,-0.036023762077093124,-0.09259165823459625,0.04990728944540024,0.043144527822732925,-0.06879906356334686,0.061431411653757095,-0.049806147813797,-0.02457313798367977,0.07109779119491577,0.014637785963714123,-0.011429164558649063,-0.025563348084688187,-0.17289555072784424,0.002432770561426878,0.1432548612356186,-0.016594232991337776,-0.05280346795916557,-0.0009786932496353984,-0.10624248534440994,-0.02066863514482975,-0.01108377706259489,-0.029635047540068626,-0.1119922325015068,0.04769224673509598,-0.06074340268969536,0.10507211089134216,-0.016076186671853065,-0.035452473908662796,0.07486464083194733,-0.010240892879664898,-0.05965325981378555,0.010648392140865326,0.04451742768287659,-0.014958885498344898,0.018887270241975784,-0.02977852150797844,-0.033811476081609726,0.05813993513584137,0.025877656415104866,0.00338306138291955,0.05374457314610481,0.028493810445070267,0.08223432302474976,-0.12561507523059845,0.0687808021903038,-0.012279391288757324,0.029243359342217445,0.030189279466867447,0.04410126805305481,0.01505852211266756,0.0077579389326274395,0.1463048905134201,-0.041079651564359665,0.05178917199373245,-0.006059996318072081,-0.024326801300048828,-0.10358033329248428,0.03101297840476036,0.08807078748941422,-0.04802849888801575,0.0749884694814682,-0.04225585237145424,0.1040564477443695,0.06321767717599869,0.06355930864810944,0.05574237182736397,0.01271433662623167,-0.0039404877461493015,-0.030309412628412247,0.032366033643484116,-0.0708036869764328,-0.11111908406019211,0.03196656331419945,-0.04358041658997536,-0.034703582525253296,-0.05731337144970894,0.0018491378286853433,-0.1121140718460083,0.011070632375776768,0.010541016235947609,0.010710738599300385,-0.006192577071487904,0.07535310089588165,-0.05962714925408363,-0.14581818878650665,-0.04747101664543152,-0.012222398072481155,-0.051306288689374924,0.018745167180895805,-0.03335367143154144,0.07412593066692352,0.00022991832520347089,0.009062537923455238,-0.00729196984320879,0.027677876874804497,-0.05243946984410286,-0.048549748957157135,0.04137357696890831,0.01784694194793701,-0.00912308506667614,-0.05083409324288368,-0.003534108866006136,0.028901034966111183,0.10272064059972763,-0.0926361158490181,0.09210903197526932,-0.07504823058843613,0.025895481929183006,0.0933639332652092,0.0536283478140831,-0.008769520558416843,-0.07801546901464462,-0.030174430459737778,0.05447492003440857,0.040008362382650375,0.05570761486887932,0.04099234938621521,-0.034458767622709274,-0.020569929853081703,0.004956859163939953,-0.01758427359163761,0.103916235268116,-0.022641241550445557,0.0149106215685606,0.012750620022416115,0.022145656868815422,-0.009336836636066437,-0.09503228962421417,-0.1471346616744995,0.09222481399774551,-0.04077902436256409,0.0003088712110184133,0.06895121186971664,-0.07546065747737885,0.05083233863115311,0.013247593306005001,-0.0733431801199913,0.07156256586313248,0.00912472978234291,-0.023958737030625343,-0.05294148251414299,0.026045650243759155,0.028356244787573814,-0.04030892997980118,0.07110384106636047,-0.02455783262848854,0.026384158059954643,0.05132273957133293,-0.0071684191934764385,0.09562825411558151,0.030618717893958092,-0.06293579190969467,0.10281310975551605,0.05075681954622269,0.05163144692778587,0.004964820109307766,0.004102801904082298,0.08744755387306213,-0.14117732644081116,0.0288335382938385,-0.006829234305769205,-0.0005165693000890315,-0.12326810508966446,-0.09119617193937302,0.0009065967169590294,0.0347132608294487,0.06013000011444092,-0.017549876123666763,-0.021451754495501518,0.030820675194263458,0.0024298338685184717,-6.82356912875548e-05,-0.0020337486639618874,-0.01740119606256485,-0.0692475438117981,0.004301168490201235,-0.05346614867448807,-0.00506599759683013,-0.023055201396346092,0.030130842700600624,0.016117772087454796,0.028264936059713364,-0.02304939180612564,-0.007983055897057056,-0.031768541783094406,-0.010388949885964394,-0.010412084870040417,0.008051184937357903,0.025087852030992508,0.14555199444293976,0.01418091170489788,-0.04939093068242073,-0.016570668667554855,0.009401150047779083,-0.031160112470388412,0.08080900460481644,0.12360172718763351,-0.006705530919134617,0.145567387342453,0.02955450490117073,0.023915059864521027,0.12140727788209915,0.09404647350311279,-0.00829767994582653,-0.07552748173475266,0.021474678069353104,0.0922977477312088,0.07775170356035233,-0.043027251958847046,-0.04082394763827324,-0.10591703653335571,-0.016107941046357155,0.04519209265708923,0.04406934604048729,0.00570456450805068,-0.08725429326295853,-0.05543775111436844,0.1314750760793686,0.10126128047704697,0.0006615582969971001,-0.037049710750579834,0.0028619649820029736,0.06200282648205757,-0.0027506547048687935,-0.04656026512384415,0.04197656363248825,0.01803336665034294,0.017144745215773582,0.06198306754231453,0.05744689330458641,-0.028676973655819893,0.021801596507430077,0.043315205723047256,0.02605053223669529,0.14510364830493927,-0.003512993222102523,-0.004266010131686926,0.0048600248992443085,-0.05246007815003395,0.01184777356684208,-0.007218607235699892,0.02245335280895233,-0.04022538289427757,0.016258906573057175,-0.006653822027146816,0.024011848494410515,0.018815672025084496,-0.060392171144485474,0.06381180137395859,0.02754509449005127,-0.0466558039188385
angola,0.11168786138296127,-0.005196200683712959,0.08087010681629181,-0.038426391780376434,0.091471828520298,-0.011721458286046982,0.04520120471715927,0.02777007594704628,0.04826086014509201,-0.04278047755360603,-0.051453519612550735,0.0027716970071196556,0.09511636197566986,-0.0502602756023407,0.07177743315696716,-0.010281568393111229,-0.008862405084073544,0.025768551975488663,-0.024023910984396935,0.019056519493460655,-0.011877733282744884,-0.025305956602096558,0.06981050223112106,-0.04629224166274071,0.002502789255231619,0.06680577248334885,-0.032556526362895966,-0.06881383061408997,0.022997019812464714,0.022921830415725708,-0.028831664472818375,0.06638189405202866,-0.04548381641507149,-0.11548715829849243,-0.02310718223452568,0.05901173874735832,0.049739185720682144,-0.010094706900417805,0.05051041021943092,-0.014579208567738533,0.04416215419769287,0.06494578719139099,-0.058442119508981705,-0.02021176554262638,0.058728475123643875,0.03833920136094093,-0.016264038160443306,0.00958195049315691,-0.03457094728946686,0.0072460416704416275,-0.03032323345541954,-0.026531072333455086,-0.03466663137078285,-0.05147751793265343,-0.007514705881476402,0.0529043972492218,-0.0012827049940824509,0.05400070175528526,-0.0012342222034931183,-0.056649405509233475,-0.00414176844060421,-0.000706100428942591,-0.03263638913631439,-1.1688975973811466e-05,0.010316971689462662,0.02605586312711239,0.09351185709238052,-0.007245021406561136,0.00734415790066123,-0.04862986132502556,-0.04022757709026337,0.035348404198884964,0.01933065988123417,0.019686337560415268,0.026434948667883873,0.12799391150474548,-0.016722144559025764,0.07858898490667343,0.05058087036013603,-0.04160482436418533,-0.005854857619851828,0.058252520859241486,0.014840716496109962,-0.10965520143508911,0.04769757017493248,0.0565619096159935,0.02132783830165863,0.05329896882176399,0.03167376667261124,0.15152308344841003,-0.020908068865537643,-0.017035046592354774,0.0378287099301815,-0.004563922993838787,0.051188983023166656,0.04817788675427437,-0.007462756708264351,-0.0136666689068079,0.12460595369338989,-0.017829105257987976,0.045968230813741684,0.00880317110568285,0.09034383296966553,0.05142649635672569,-0.09479115158319473,-0.02115476131439209,0.0980057343840599,-0.03161255270242691,-0.09401105344295502,-0.01809091866016388,0.02469645068049431,-0.030193766579031944,0.0769696831703186,0.06468649208545685,0.031211964786052704,-0.019173603504896164,-0.08199591934680939,-0.07646245509386063,-0.022602537646889687,-0.05141158029437065,-0.028304357081651688,-0.001724014524370432,0.06135882809758186,0.02050016075372696,0.04245755076408386,0.007997186854481697,-0.03597569838166237,0.002453519031405449,0.025069190189242363,0.03937085345387459,0.05521726608276367,0.08084451407194138,-0.023423325270414352,-0.02852732129395008,-0.06085586175322533,0.07509715855121613,-0.06765076518058777,-0.07309088855981827,0.031957726925611496,-0.018162669613957405,0.023840930312871933,-0.054157499223947525,0.05281227454543114,-0.022542692720890045,-0.03249111399054527,-0.06535167247056961,0.11321372538805008,0.09198014438152313,0.06821005046367645,-0.0488857664167881,0.0703575536608696,0.04618145152926445,0.23436175286769867,-0.005254472605884075,0.05507587641477585,0.00842923205345869,0.02189926989376545,0.09032794088125229,0.1403002291917801,-0.02172994799911976,-0.0025010781828314066,-0.12578800320625305,0.05010460689663887,-0.03843258321285248,-0.08652998507022858,0.02525683492422104,-0.0022436208091676235,-0.007959055714309216,0.07504386454820633,-0.01360174547880888,0.01922747492790222,0.06646104902029037,-0.005874679423868656,0.01641674153506756,-0.011668579652905464,-0.05412770435214043,-0.01730259321630001,0.04988709092140198,-0.010257366113364697,-0.03954865038394928,-0.060816485434770584,-0.06673283129930496,-0.03677524998784065,0.07656349986791611,0.016987470909953117,-0.017020918428897858,0.08691868185997009,0.010754182003438473,-0.07084567099809647,0.007184311747550964,0.01196082029491663,0.013873495161533356,-0.0884910598397255,0.039728909730911255,-0.00820710975676775,0.051829367876052856,0.006184479687362909,0.021534139290452003,0.028274428099393845,-0.02979794330894947,-0.03558460623025894,-0.018805373460054398,-0.019855162128806114,-0.03314497694373131,0.0786500796675682,0.023175301030278206,0.05875211954116821,0.021656015887856483,0.0003640261711552739,0.00980087649077177,-0.04949621483683586,-0.050112418830394745,-0.09161495417356491,0.040701381862163544,0.03674929961562157,0.08959363400936127,0.024462757632136345,-0.003114094724878669,-0.006494556088000536,-0.009228073060512543,0.07853160053491592,-0.04741520807147026,-0.06585143506526947,-0.17046742141246796,0.08207988739013672,-0.18620941042900085,0.07346947491168976,-0.04204857349395752,0.08472774922847748,0.03417281061410904,0.040425531566143036,0.060133494436740875,-0.012168907560408115,0.001756274257786572,-0.04322393611073494,0.060708124190568924,-0.027211131528019905,0.01813397742807865,-0.06186345964670181,0.0541202537715435,-0.022763516753911972,0.06415453553199768,-0.12597419321537018,-0.05754800885915756,0.01302296295762062,-0.076835997402668,0.03020053170621395,0.07888510823249817,-0.02259022183716297,0.0045019774697721004,0.170589417219162,-0.016156427562236786,0.0041718073189258575,-0.019279712811112404,0.05617067217826843,0.14649264514446259,-0.017149411141872406,-0.06548704952001572,0.04983079805970192,0.0026516509242355824,-0.0341997966170311,0.034749217331409454,0.059852875769138336,0.021711744368076324,0.05514149367809296,0.05274737626314163,0.1190042570233345,0.10659294575452805,-0.013001627288758755,0.04285567253828049,-0.07524213194847107,0.08672064542770386,-0.09844180196523666,-0.06026850640773773,0.10418333858251572,-0.1100025549530983,-0.03500053286552429,0.02424803003668785,0.09717845916748047,0.08720623701810837,0.0841030552983284,0.025105463340878487,0.05325447395443916,0.016499023884534836,0.04737865552306175,-0.028698427602648735,-0.08942358195781708,-0.05073532089591026,-0.07453402876853943,0.04710085690021515,0.02836051769554615,-0.04764631763100624,-0.004444187972694635,-0.018106704577803612,0.016453063115477562,-0.08866889029741287,0.005460680928081274,0.029668273404240608,0.002328608650714159,-0.03636325150728226
argentinien,0.08169660717248917,0.0013240489643067122,0.07099052518606186,-0.035840556025505066,0.15528671443462372,-0.04811084270477295,0.0020176521502435207,-0.09637056291103363,-0.025130175054073334,-0.09861713647842407,-0.06460219621658325,-0.13442975282669067,-0.04106063395738602,-0.03766168653964996,-0.050247326493263245,-0.016629474237561226,-0.004476041533052921,0.0036335664335638285,0.06577005237340927,-0.020930448547005653,-0.032680291682481766,0.029695114120841026,-0.014850468374788761,0.04526533558964729,-0.06508952379226685,0.043320585042238235,-0.023903775960206985,-0.05801194906234741,0.00401711231097579,0.046233974397182465,-0.015551047399640083,0.024729950353503227,0.037139661610126495,-0.06127522513270378,0.14650145173072815,-0.03597209230065346,-0.012120437808334827,0.0736699253320694,0.13183915615081787,0.037994734942913055,-0.09171432256698608,0.039914488792419434,-0.01633157953619957,-0.050859950482845306,-0.04287445917725563,-0.1354435533285141,-0.005232655443251133,-0.021719882264733315,0.005128845106810331,-0.0013662207638844848,-0.04238823056221008,-0.09207822382450104,-0.03166581317782402,0.026020606979727745,2.529642551962752e-05,0.08379581570625305,-0.09036482125520706,0.01948995143175125,0.012204587459564209,0.009462406858801842,0.013384527526795864,-0.13390451669692993,-0.12824083864688873,0.04351766034960747,-0.015325505286455154,-0.10355602949857712,-0.007095769979059696,0.012051181867718697,-0.059315573424100876,0.07240056246519089,-0.03562888503074646,0.020957225933670998,-0.028751343488693237,-0.017101552337408066,0.010967200621962547,0.030310707166790962,0.0013832126278430223,0.04460708051919937,0.07910583913326263,-0.0884488970041275,-0.0024127543438225985,0.09433423727750778,-0.08980896323919296,-0.08668094873428345,0.057881854474544525,0.021095585078001022,0.015862632542848587,0.037319716066122055,-0.0012241064105182886,-0.00934202503412962,-0.10550437122583389,0.020886898040771484,0.01216058898717165,-0.013845889829099178,0.04332907870411873,0.04160982742905617,-0.0031617763452231884,0.02596789039671421,0.028193799778819084,-0.014444292522966862,0.027953004464507103,0.027858559042215347,-0.005069708917289972,0.011079886928200722,-0.09191244840621948,-0.05771244317293167,0.0036814906634390354,0.0735606849193573,-0.052905306220054626,0.11717356741428375,-0.05631460249423981,-0.03475760668516159,0.05804022401571274,0.009579332545399666,-0.051174458116292953,0.01896466314792633,0.013399655930697918,-0.05970868840813637,-0.05127997323870659,0.007585830986499786,-0.041276391595602036,-0.03857262805104256,0.028150413185358047,-0.014350613579154015,0.01167107280343771,0.03260086476802826,-0.049007121473550797,0.020319273695349693,-0.03499944880604744,0.07220593839883804,0.03277580067515373,-0.08132749795913696,-0.09449072927236557,-0.025002244859933853,0.03568165749311447,-0.041211552917957306,-0.06119496002793312,0.0324697345495224,0.045892324298620224,0.03386100381612778,0.04834653437137604,0.03363436833024025,0.039568498730659485,-0.07261000573635101,0.043126482516527176,0.01812068745493889,0.022630073130130768,0.044564563781023026,0.08296924829483032,-0.158843532204628,-0.01343490369617939,0.03685103356838226,0.08901943266391754,0.03511525318026543,0.017329812049865723,0.0058664362877607346,0.10406000912189484,0.11540677398443222,0.0336700864136219,-0.032761555165052414,0.042353104799985886,-0.010581976734101772,-0.009741050191223621,-0.013342926278710365,0.0046904622577130795,0.08707159757614136,-0.011514238081872463,0.008724481798708439,0.0630195364356041,0.009939303621649742,0.006300944369286299,-0.061000458896160126,-0.09652063250541687,0.048950403928756714,-0.11339270323514938,-0.06524971127510071,0.03946250304579735,-0.04700033366680145,-0.03678898140788078,-0.04567888379096985,0.02805272489786148,0.020156212151050568,0.03671819344162941,0.09337972104549408,0.05103613808751106,0.030384104698896408,0.02237546257674694,-0.04650486260652542,-0.017751656472682953,-0.08829765766859055,0.0001909902348415926,0.02117742784321308,-0.08886632323265076,0.02298412285745144,-0.033166754990816116,-0.03247659653425217,-0.07191052287817001,0.08347611874341965,-0.1346774846315384,-0.029195636510849,0.014591580256819725,-0.0008396550547331572,0.026309628039598465,0.027006737887859344,0.001527845044620335,0.016137192025780678,-0.018356982618570328,-0.11595376580953598,-0.07501843571662903,0.012532155029475689,-0.045832738280296326,0.024998236447572708,0.07607255131006241,-0.11023137718439102,0.050942763686180115,0.031548872590065,-0.02950090914964676,-0.08971083164215088,-0.1094169020652771,-0.07248052209615707,0.04394945129752159,0.009371520951390266,-0.08158403635025024,-0.06037246063351631,0.07582920044660568,-0.06282740831375122,-0.03737689182162285,-0.022873293608427048,-0.05692136660218239,0.03019045852124691,0.006315247155725956,-0.01380388718098402,0.08860907703638077,-0.037379711866378784,0.11108627170324326,0.02047545835375786,0.0008979807607829571,-0.053349897265434265,-0.05082894116640091,-0.0933331772685051,0.016170402988791466,0.02843436598777771,-0.019290629774332047,-0.011310791596770287,0.13076870143413544,-0.020143333822488785,0.06478983163833618,0.07639507204294205,-0.09407065063714981,-0.05793584883213043,-0.0770983174443245,0.022758841514587402,-0.024803997948765755,0.06700985133647919,0.04269027337431908,0.10939992219209671,-0.05537575110793114,-0.0007589400629512966,-0.0013100882060825825,-0.003203157102689147,-0.039812829345464706,0.06039930880069733,-0.06450667977333069,0.025245215743780136,-0.05377193167805672,0.06034128740429878,0.10689155012369156,0.06585317105054855,-0.044688254594802856,0.033029064536094666,0.014208808541297913,-0.007505758199840784,0.02621406689286232,0.04124928638339043,0.051373448222875595,-0.012626846320927143,-0.05971983075141907,-0.0104657718911767,0.021746760234236717,-0.008960915729403496,-0.022603843361139297,-0.005025418475270271,-0.009304375387728214,0.03965979069471359,0.0384809672832489,-0.08395393192768097,-0.024096013978123665,0.157073974609375,-0.08765208721160889,0.0256454199552536,0.051574330776929855,-0.11843013763427734,-0.05249730125069618,-0.0798565223813057,-0.1368485540151596,-0.0030402063857764006,0.07413608580827713,0.05514932796359062,-0.02205134555697441,-0.053106386214494705
armenien,0.01461737509816885,-0.005556430667638779,0.08284548670053482,-0.020126156508922577,-0.02225598506629467,-0.04820207506418228,0.04675000160932541,0.0002912722993642092,0.04796941205859184,-0.04389415681362152,-0.009654299356043339,-0.0580911822617054,-0.08422107249498367,0.018107768148183823,-0.04557923972606659,0.1025073379278183,-0.04777234420180321,-0.07350903749465942,-0.023968199267983437,0.06462326645851135,-0.008005695417523384,0.05490304157137871,0.02208949811756611,-0.05309935286641121,0.03692297637462616,-0.0048125614412128925,-0.06670259684324265,0.06384531408548355,0.011454933322966099,0.07471153140068054,0.05904219299554825,-0.060672879219055176,-0.045852575451135635,-0.08704783022403717,0.06036800518631935,0.04610325023531914,-0.027339430525898933,-0.07701661437749863,0.05835772678256035,0.010639962740242481,-0.05712330341339111,0.017629774287343025,0.05185876041650772,0.05698790401220322,-0.08042509108781815,0.07599079608917236,0.0492616631090641,0.09336243569850922,-0.06674744933843613,0.040355611592531204,-0.11374233663082123,0.023910442367196083,0.05132156237959862,-0.04977332428097725,-0.019011978060007095,-0.048727620393037796,-0.04927835986018181,-0.05077069625258446,0.06716609746217728,-0.03384530544281006,-0.013064796105027199,0.0059684328734874725,-0.005579240620136261,-0.04934922605752945,0.011265718378126621,-0.04750187695026398,-0.03802752494812012,-0.13659243285655975,-0.032916732132434845,-0.01418105885386467,0.09838665276765823,0.03185148909687996,0.00735971424728632,-0.00283642765134573,0.04364275932312012,0.021429069340229034,0.016955023631453514,0.05032503604888916,0.06906428933143616,-0.014719231054186821,0.03559130057692528,-0.0470513254404068,-0.003583065466955304,-0.01330699771642685,0.09206648170948029,-0.015090695582330227,0.006280929781496525,0.0793701782822609,0.07443010807037354,-0.041705578565597534,-0.02431557886302471,-0.03808620572090149,-0.02347005158662796,0.04833979532122612,-0.01935572177171707,-0.06272406131029129,-0.0812143012881279,-0.06552001088857651,0.060807712376117706,-0.00024807607405819,-0.08592311292886734,0.055089980363845825,0.087088942527771,0.0035146919544786215,-0.07870616763830185,0.038073740899562836,0.005309205502271652,-0.08030678331851959,-0.13298633694648743,0.011325273662805557,0.014005269855260849,0.025216465815901756,0.10435041040182114,0.004585392773151398,0.033043064177036285,-0.008791361935436726,-0.03028990514576435,-0.053901899605989456,0.012024284340441227,0.01588316634297371,-0.0041265725158154964,0.026513012126088142,-0.005603214260190725,0.16548258066177368,0.0019048344111070037,0.035957567393779755,0.01995903067290783,0.01967397890985012,-0.08330156654119492,0.0416799820959568,0.0871211439371109,-0.05399753153324127,-0.0661332905292511,-0.05420428141951561,-0.11860894411802292,0.06626255065202713,-0.12614932656288147,0.00655222637578845,0.03906266391277313,0.09494879841804504,0.09750531613826752,0.14369384944438934,0.059264130890369415,0.051841143518686295,0.018149616196751595,-0.0148402014747262,0.011903633363544941,0.03057478927075863,0.05353240668773651,-0.05201569199562073,-0.02957337535917759,0.03732910752296448,0.10405715554952621,0.022432738915085793,-0.09151963889598846,0.030586881563067436,0.09365809708833694,-0.01588757149875164,0.025517618283629417,-0.014780129306018353,-0.12451276183128357,0.054281581193208694,-0.03540941700339317,-0.006717420183122158,-0.019144590944051743,-0.024465441703796387,0.021915405988693237,-0.016808584332466125,0.010778398253023624,-0.05706018954515457,0.04622681811451912,0.08319172263145447,0.008961460553109646,0.019220398738980293,-0.07138463854789734,-0.10397545993328094,-0.05793396010994911,-0.023941366001963615,0.03752109408378601,-0.04405275359749794,-0.016769325360655785,0.04497935250401497,0.02162872441112995,0.07413843274116516,-0.021471530199050903,0.026476770639419556,-0.031004587188363075,-0.06616736203432083,-0.07165150344371796,0.047298770397901535,-0.059745267033576965,0.014311857521533966,-0.11327660828828812,-0.08976001292467117,-0.06650929898023605,-0.010365120135247707,-0.02461223304271698,0.036887574940919876,-0.06620589643716812,-0.0412568673491478,-0.12290165573358536,-0.06169293820858002,0.07107853144407272,0.010799546726047993,0.019277064129710197,0.06528467684984207,0.01691664382815361,0.040706004947423935,-0.027111034840345383,-0.13948620855808258,-0.12243138998746872,-0.019548755139112473,-0.0537584014236927,0.009981701150536537,-0.07065585255622864,0.059172045439481735,0.04228474572300911,-0.005759590771049261,-0.02339513786137104,-0.06271614879369736,0.009873724542558193,-0.006847400683909655,-0.026735875755548477,0.009219516068696976,0.07118761539459229,-0.07242976874113083,-0.04116477072238922,0.01544114388525486,0.00018634740263223648,0.05698838829994202,0.10300461947917938,0.09530935436487198,-0.05687763914465904,-0.007915327325463295,0.007115613203495741,-0.03288393095135689,0.07213040441274643,-0.06043316796422005,0.011444823816418648,-0.11571437120437622,0.02115730196237564,0.08179225772619247,-0.07201271504163742,-0.07129473984241486,0.09901943802833557,-0.0027409351896494627,-0.022735439240932465,0.09877767413854599,0.005800783634185791,0.010099167004227638,0.11592572927474976,0.034458477050065994,-0.025746697559952736,-0.10096486657857895,0.05235958471894264,0.08864713460206985,-0.02525126375257969,-0.00849556177854538,-0.06033404916524887,0.02725980244576931,-0.05061076954007149,0.054818689823150635,-0.08230961114168167,0.0014784159138798714,-0.01215431559830904,0.09094947576522827,0.008677715435624123,0.014453139156103134,-0.04884457588195801,0.052382711321115494,0.06714197248220444,0.1015937551856041,-0.03591214492917061,-0.11035354435443878,0.07488607615232468,-0.03316805139183998,-0.07587628811597824,0.05687225982546806,0.03248267620801926,0.012230297550559044,-0.08902609348297119,0.1174100935459137,-0.03474289923906326,0.11793917417526245,0.013392679393291473,-0.0038076620548963547,0.016772309318184853,0.021282687783241272,0.0464012548327446,0.019337167963385582,0.005691322032362223,-0.04841044172644615,0.03771235793828964,0.006056618876755238,-0.05038890242576599,0.04134340584278107,0.005624409299343824,-0.03731009364128113,0.090741366147995,0.0845474898815155
aserbaidschan,-0.0097558768466115,0.009218361228704453,0.02660425752401352,-0.10687730461359024,0.08349926024675369,-0.06086508184671402,0.06890594214200974,0.0341581366956234,-0.008916971273720264,-0.06437776982784271,0.022141555324196815,-0.06823722273111343,-0.04545563831925392,-0.029071727767586708,-0.034971967339515686,0.017692632973194122,-0.06138281151652336,0.037659142166376114,-0.037771884351968765,0.0913228988647461,-0.0071073733270168304,0.07587086409330368,0.07998629659414291,0.0397932194173336,0.031337521970272064,0.11407684534788132,-0.0665082111954689,0.07684825360774994,0.09855756163597107,0.0009171944693662226,0.06426873058080673,-0.000965682789683342,0.026804247871041298,-0.07279862463474274,0.023605838418006897,0.08670055121183395,-0.020771104842424393,-0.11879827082157135,0.1045604795217514,-0.00861605629324913,-0.040038857609033585,0.03395579010248184,0.07862124592065811,0.066659115254879,-0.05167466029524803,0.025707973167300224,0.018101589754223824,0.0565967783331871,0.02110612951219082,0.00028395341360010207,-0.1210903525352478,0.08538756519556046,0.05096924304962158,-0.021949876099824905,0.0015130212996155024,0.008503397926688194,-0.008135794661939144,-0.014604473486542702,0.013942752033472061,-0.025160467252135277,-0.07394128292798996,-0.0010664545698091388,0.01112531591206789,0.017775731161236763,0.06690169125795364,0.018555186688899994,0.09176675230264664,-0.11366156488656998,0.004306705202907324,-0.050684913992881775,0.027500202879309654,-0.016686126589775085,-0.03323782607913017,-0.038864508271217346,0.048109740018844604,0.10274938493967056,-0.03402263671159744,0.0925055742263794,0.029341785237193108,-0.06957202404737473,-0.011920453980565071,0.003576782299205661,0.04332961142063141,-0.029997296631336212,0.11540553718805313,-0.0343179889023304,-0.06757019460201263,0.05546339228749275,0.05370377004146576,-0.014886293560266495,0.024883756414055824,0.016040317714214325,-0.04213150963187218,0.001545426668599248,0.0014377129264175892,-0.01477768737822771,-0.14431904256343842,-0.03230484202504158,0.04233136773109436,-0.0586998388171196,0.007553476374596357,0.004467379301786423,-0.060777634382247925,0.07014432549476624,-0.027105899527668953,-0.028092125430703163,0.10757521539926529,-0.021596064791083336,-0.11498840153217316,-0.011992422863841057,-0.04502436891198158,0.06170213595032692,0.041733451187610626,0.010400163009762764,0.024168794974684715,-0.07336334139108658,0.02612294815480709,-0.0930764451622963,0.003567823674529791,0.05245130509138107,-0.0009108398226089776,0.018417242914438248,-0.054240014404058456,0.09838660061359406,0.04732740297913551,0.09497791528701782,-0.05632069706916809,0.03021833300590515,-0.006144699174910784,0.13112790882587433,0.042455144226551056,-0.010587254539132118,-0.028428109362721443,-0.037432435899972916,-0.13496169447898865,-0.036941707134246826,-0.04954606294631958,0.054386768490076065,0.1532733291387558,0.11190052330493927,0.05471160262823105,0.061516985297203064,0.07618016749620438,0.01845734566450119,-0.0007084073149599135,-0.007978742942214012,-0.021765992045402527,0.009452344849705696,0.08531016111373901,0.043753866106271744,-0.022488441318273544,0.0404253713786602,0.08036346733570099,-0.033056799322366714,-0.05824678763747215,-0.015334784984588623,0.033260151743888855,0.031786635518074036,-0.003527286695316434,-0.011090666055679321,-0.07847446203231812,-0.07124792784452438,0.008219458162784576,0.006874871905893087,0.029264582321047783,0.004272227641195059,-0.004333419259637594,0.019229913130402565,0.049504924565553665,-0.03186298906803131,0.0006804825970903039,0.04549197107553482,-0.03304200619459152,0.013756008818745613,0.039867617189884186,-0.06574230641126633,-0.03560103476047516,-0.12399926036596298,0.01018765103071928,-0.015833575278520584,0.014682712964713573,0.047775860875844955,0.0253264419734478,-0.00045688002137467265,-0.023638403043150902,0.014231573790311813,0.015323574654757977,-0.059418290853500366,-0.050394948571920395,0.05392957851290703,-0.014485047198832035,-0.08020748198032379,-0.09792342036962509,-0.0976332351565361,-0.03376194089651108,0.03281105309724808,0.01254077348858118,0.05898047611117363,-0.10080047696828842,-0.050709858536720276,-0.06470993161201477,-0.07805438339710236,-0.027848955243825912,0.03583139926195145,0.08270949125289917,0.08867750316858292,0.019363202154636383,0.002283222507685423,0.03377213329076767,-0.15633532404899597,-0.12749481201171875,-0.03220806643366814,-0.05375633016228676,-0.015508155338466167,-0.0047567421570420265,0.043076563626527786,-0.016816670075058937,-0.01963120698928833,0.010889940895140171,-0.07722976803779602,0.12077487260103226,-0.1037503257393837,-0.028094343841075897,-0.06551455706357956,0.03799264505505562,-0.10292239487171173,-0.019953973591327667,0.050892237573862076,0.05358884856104851,0.08944346010684967,0.06776648759841919,0.06277311593294144,-0.05088881030678749,0.005519988480955362,0.004454333335161209,-0.03456433117389679,0.011746291071176529,-0.029851948842406273,0.0491609051823616,-0.06659846007823944,0.016099823638796806,0.09693244099617004,-0.08383259922266006,-0.014313691295683384,0.061512600630521774,-0.04937523230910301,-0.024361811578273773,0.023829486221075058,0.0007376594003289938,-0.017326196655631065,0.0634455755352974,-0.03589208051562309,0.010771668516099453,-0.07081712037324905,0.003302572527900338,0.11452847719192505,-0.023692039772868156,0.009851804003119469,-0.0558273047208786,0.04497598111629486,-0.014189210720360279,0.08011965453624725,-0.012824222445487976,0.017292657867074013,-0.02172188274562359,0.010561877861618996,0.11516124755144119,0.0439956970512867,0.010684954933822155,0.049342475831508636,0.05950228124856949,0.12179271876811981,-0.05509462207555771,-0.08553897589445114,0.014493192546069622,-0.06767241656780243,-0.021964184939861298,0.051729973405599594,0.014388586394488811,0.014945302158594131,-0.042256832122802734,0.07951892167329788,-0.0207408145070076,0.05418289825320244,0.00371043779887259,0.07295922189950943,0.12362051755189896,-0.07598714530467987,0.03075128234922886,0.01500396803021431,0.009383094497025013,-0.16912655532360077,0.06136980280280113,-0.014225414022803307,-0.030897287651896477,0.11152127385139465,-0.04988603666424751,-0.044345706701278687,0.06521730870008469,-0.0029072649776935577
äthiopien,0.03862697258591652,-0.06413345783948898,0.02115662582218647,-0.029343027621507645,-0.03248831629753113,-0.016931241378188133,0.11701425164937973,0.029914548620581627,0.009286371991038322,-0.02473287470638752,-0.093826062977314,0.08461044728755951,-0.04222970828413963,0.001044610165990889,-0.03200151026248932,0.03541973605751991,0.024253427982330322,0.012652366422116756,-0.02113318257033825,0.0398884043097496,0.006581204943358898,0.06991230696439743,0.04762318357825279,-0.0006314871716313064,-0.059662457555532455,0.05844074860215187,0.08087635785341263,0.02718101628124714,-0.04745185002684593,0.007726890966296196,0.08628959953784943,0.007833345793187618,0.08563277870416641,-0.017669502645730972,0.10224100202322006,-0.04918280616402626,0.06109018996357918,-0.12100587040185928,-0.07786441594362259,-0.0035916080232709646,0.0196035485714674,-0.0977424681186676,0.0389958918094635,-0.0361664779484272,0.05779397487640381,-0.01524363737553358,0.01652856357395649,0.04540940374135971,-0.023314744234085083,0.02071221172809601,-0.11011914908885956,-0.00015924626495689154,-0.0020671754609793425,-0.01042360533028841,0.010436467826366425,0.05692919343709946,-0.07727114856243134,0.04244520515203476,0.05738825723528862,-0.05832493677735329,0.014746454544365406,-0.09749563783407211,-0.04492013156414032,0.06350193917751312,0.029579967260360718,0.12346667796373367,-0.05254469811916351,-0.04218871518969536,0.033106621354818344,0.03411650285124779,-0.012753145769238472,0.03409569710493088,-0.02327854558825493,-0.03546405956149101,0.02650182507932186,0.05636225640773773,-0.06571607291698456,0.06637930124998093,-0.013967531733214855,-0.03069816529750824,0.03936071693897247,0.05908961594104767,-0.08785653859376907,-0.09056581556797028,0.0759032592177391,0.0601675808429718,0.015990765765309334,-0.0018200873164460063,0.009341384284198284,-0.04955156892538071,-0.0018363973358646035,0.05853186547756195,-0.014018245041370392,0.04945202171802521,-0.09965106099843979,0.05343393608927727,0.026630854234099388,0.053835056722164154,-0.008036530576646328,-0.08193743973970413,0.048191625624895096,0.0022955068852752447,0.0635281428694725,-0.043935514986515045,-0.027785366401076317,-0.08101523667573929,0.0881892517209053,0.060032520443201065,-0.07818476110696793,0.028963180258870125,-0.035854995250701904,0.06645037233829498,0.10274524986743927,0.07639317214488983,-0.0014345566742122173,-0.029835140332579613,-0.07480606436729431,-0.03535517305135727,-0.017517846077680588,-0.002520786365494132,-0.07686866074800491,0.0025122815277427435,-0.01299989689141512,-0.10112713277339935,0.035141024738550186,0.055982399731874466,-0.027730155736207962,0.018518999218940735,-0.0680667981505394,0.09183883666992188,0.11329782009124756,0.025346538051962852,-0.045593779534101486,-0.0548093318939209,-0.07414248585700989,0.04945915937423706,-0.005940278526395559,-0.01930992491543293,0.12141841650009155,0.03255857154726982,0.03932029753923416,-0.013253757730126381,0.04655686393380165,0.06884407252073288,-0.06652259081602097,0.010983124375343323,0.09424074739217758,0.0043118055909872055,0.07671430706977844,-0.07589273899793625,0.05781455338001251,0.09349315613508224,0.05940784513950348,-0.03037523478269577,-0.02408050186932087,0.023337483406066895,0.08822423219680786,-0.050944581627845764,-0.008465059101581573,-0.11325028538703918,-0.07414375990629196,-0.09661523997783661,0.025591958314180374,-0.058582603931427,-0.039281923323869705,-0.018162615597248077,0.004471510648727417,-0.012796680442988873,0.07042799144983292,-0.026388876140117645,0.036910008639097214,-0.045687444508075714,-0.0671912357211113,0.02488825097680092,-0.06660528481006622,0.024985631927847862,-0.03754526376724243,0.008782051503658295,0.013527448289096355,0.04460549354553223,0.051364313811063766,-0.014017579145729542,0.06866193562746048,0.03540850803256035,0.11848951876163483,-0.04186764732003212,0.05261245742440224,-0.03284742310643196,-0.08564633876085281,-0.043461382389068604,-0.02661612257361412,-0.02398042008280754,-0.06603450328111649,0.03770419955253601,-0.12164858728647232,-0.004354899283498526,-0.027418993413448334,0.04328754171729088,-0.09769981354475021,-0.13665853440761566,-0.0008322027861140668,0.025872481986880302,0.06120418757200241,0.03605787456035614,0.021381942555308342,0.008530420251190662,0.09486692398786545,-0.014674942009150982,0.09405632317066193,-0.06065632775425911,0.04103352501988411,0.009993689134716988,0.02171221747994423,0.05921272188425064,0.053297121077775955,0.060908153653144836,-0.05032150819897652,-0.03924613445997238,0.008971038274466991,-0.06186669319868088,0.013808008283376694,-0.054058708250522614,-0.08365876227617264,0.004655967000871897,0.06511750817298889,-0.12925611436367035,-0.03165386989712715,0.006948275491595268,-0.0035100094974040985,0.025131655856966972,0.015134742483496666,-0.03313157334923744,-0.14990396797657013,0.06253544986248016,-0.05570892244577408,-0.009434768930077553,0.004839822184294462,0.0423085018992424,0.16741611063480377,-0.05273861810564995,0.010650829412043095,-0.005674479529261589,-0.1382550150156021,-0.04883584380149841,0.1602105349302292,-0.013243394903838634,0.03830289468169212,0.02232256345450878,-0.0003496062126941979,0.023209713399410248,0.08488182723522186,-0.0896131843328476,0.009862419217824936,-0.0423298105597496,0.08794791996479034,0.021845964714884758,0.07660787552595139,-0.07557675987482071,0.014290420338511467,0.016071142628788948,-0.08168871700763702,0.03842368349432945,0.005518884398043156,-0.0023517522495239973,0.059297796338796616,-0.018596459180116653,0.06629859656095505,0.07347279787063599,-0.03738921508193016,-0.05246918648481369,0.10217349976301193,0.09019546210765839,-0.04591716453433037,-0.13576219975948334,-0.011080720461905003,0.019816048443317413,-0.017013762146234512,0.061561305075883865,0.02861405350267887,0.07316964119672775,0.030724622309207916,0.022254595533013344,0.061393968760967255,0.057861026376485825,0.06814242154359818,-0.012954228557646275,0.023136351257562637,-0.046447478234767914,0.06315235048532486,0.050198305398225784,0.026699040085077286,-0.0952552780508995,-0.05593192204833031,-0.020168187096714973,-0.010140400379896164,0.10721030831336975,-0.018450813367962837,0.005311822984367609,0.032635532319545746,0.04840526357293129
australien,0.040435172617435455,0.02593120187520981,-0.030668459832668304,0.02162341959774494,0.06751930713653564,-0.0633641928434372,0.019179146736860275,0.040281347930431366,0.14102576673030853,-0.017892779782414436,0.08398882299661636,0.01870400831103325,-0.08512426912784576,0.031147833913564682,-0.08584326505661011,0.07122363150119781,-0.06298630684614182,-0.03189253434538841,-0.05069049447774887,0.04554091393947601,0.0635477602481842,-0.015521989203989506,-0.02364169806241989,-0.002877629827708006,-0.03472422808408737,0.01831395924091339,0.03447379171848297,0.008526009507477283,0.08526422083377838,0.005940459202975035,-0.00922597385942936,0.031260646879673004,0.09162168949842453,-0.13671506941318512,0.04190448671579361,0.030271144583821297,-0.008843467570841312,-0.09354076534509659,0.1279965043067932,-0.021269947290420532,0.0058652544394135475,-0.007141913753002882,0.022019710391759872,0.08667705953121185,0.04142725467681885,0.045029740780591965,-0.04337213933467865,0.1508278101682663,0.04232092574238777,-0.0946967750787735,0.03662603348493576,-0.07309798151254654,-0.04815543442964554,0.05384213849902153,0.10589733719825745,0.011975351721048355,-0.12493571639060974,-0.04299110174179077,-0.00655759172514081,-0.059634074568748474,-0.00019316440739203244,-0.028800643980503082,0.08040955662727356,0.018892953172326088,-0.060094814747571945,0.05656902492046356,-0.01808297447860241,-0.012613608501851559,-0.05525603145360947,0.013004259206354618,0.00035579781979322433,0.017744911834597588,0.014663678593933582,-0.019806455820798874,0.09835059940814972,-0.008648578077554703,-0.0010379424784332514,0.08155656605958939,0.011693381704390049,-0.13921114802360535,0.11523669958114624,-0.059649985283613205,-0.08481159806251526,-0.08964037895202637,0.04298407584428787,-0.014204450882971287,-0.003432375146076083,-0.009831095114350319,-0.0625004991889,0.003732988378033042,0.0359920859336853,-0.030378639698028564,-0.07467309385538101,0.03540593013167381,-0.07299602776765823,0.015722090378403664,-0.009723066352307796,-0.09958655387163162,-0.00413002772256732,0.02364794909954071,0.04326987639069557,-0.028412548825144768,-0.058769892901182175,0.021547572687268257,-0.13126306235790253,-0.00898017268627882,0.11982226371765137,-0.0030048403423279524,0.02478697896003723,0.034552477300167084,-0.04518494755029678,-0.0525149367749691,0.051616866141557693,0.048903632909059525,-0.0444180965423584,0.016163626685738564,-0.01615053415298462,-0.030377348884940147,-0.08178263157606125,-0.03239110857248306,-0.08774656057357788,-0.0784391462802887,-0.017038442194461823,0.06620247662067413,0.11847904324531555,0.017440099269151688,-0.017911681905388832,-0.03567139431834221,0.09505396336317062,0.11013088375329971,0.002152016619220376,-0.012190299108624458,-0.017180325463414192,-0.04662594944238663,-0.04879104346036911,0.033847466111183167,0.012105779722332954,0.06743581593036652,0.09772904217243195,-0.0028587847482413054,-0.012480496428906918,0.028655357658863068,0.011694055050611496,-0.003865177044644952,0.09159833192825317,-0.028829582035541534,-0.04641196131706238,0.06623191386461258,0.03012058138847351,-0.07931658625602722,0.042517486959695816,0.007809056900441647,-0.003484143177047372,0.06721226871013641,0.04335615783929825,0.07614356279373169,0.021700797602534294,-0.06675726175308228,0.008667659945786,-0.11703886836767197,0.006378066726028919,0.010679375380277634,0.0431651808321476,-0.03509432449936867,-0.023416267707943916,0.061843957751989365,0.012551124207675457,0.10394081473350525,0.11328918486833572,0.049309488385915756,0.04883381351828575,-0.07547084987163544,-0.035699136555194855,0.026760810986161232,-0.06095418334007263,-0.03843588009476662,-0.04009905830025673,0.0017238003201782703,0.04992792755365372,-0.05822136253118515,0.07951870560646057,0.024428652599453926,0.03608833625912666,0.0438835546374321,0.044377438724040985,0.0855230838060379,0.030446989461779594,0.005374585743993521,-0.043996285647153854,-0.061875659972429276,-0.01184607483446598,-0.04257005453109741,-0.026056692004203796,-0.04569103196263313,0.11033283174037933,0.03837664797902107,-0.052952416241168976,0.09850745648145676,-0.1506904661655426,-0.03060462698340416,-0.06117456778883934,-0.01904088445007801,0.0609002448618412,0.05170178413391113,-0.05073220655322075,-0.06622040271759033,0.06922272592782974,-0.07380041480064392,0.02674485184252262,0.038198862224817276,-0.005974114872515202,0.07498113065958023,0.10673686116933823,-0.017712846398353577,0.010195732116699219,0.0556601919233799,0.03069063276052475,-0.03254818916320801,-0.023099632933735847,0.00338614615611732,0.02771872840821743,-0.03834078833460808,-0.05689827352762222,-0.009051647037267685,0.12228917330503464,-0.10540342330932617,-0.053685422986745834,-0.04739776626229286,-0.019368132576346397,0.023727471008896828,0.044727109372615814,0.00844899658113718,-0.002063092542812228,0.027891455218195915,0.0792352557182312,0.048326265066862106,-0.007044908590614796,-0.04565027356147766,-0.039609041064977646,-0.022556867450475693,-0.02698795311152935,0.1258154958486557,0.023394187912344933,-0.07820503413677216,0.01266228687018156,-0.00842815637588501,0.028730664402246475,0.04300490766763687,0.09007007628679276,0.03153218328952789,-0.005134269129484892,0.06308449059724808,-0.00305280857719481,0.034980256110429764,-0.05957832187414169,0.12893809378147125,-0.11784963309764862,0.07673303782939911,-0.01820656843483448,-0.05347001180052757,-0.08200743049383163,0.07190804183483124,0.003905436024069786,0.043969910591840744,-0.0438523143529892,-0.011799462139606476,0.12918005883693695,-0.04045134782791138,0.040748581290245056,-0.02391531877219677,-0.1293783038854599,0.08223246037960052,-0.015916604548692703,-0.08908414095640182,0.12677116692066193,-0.056593287736177444,0.06953810155391693,0.05795342102646828,0.023444153368473053,-0.024525288492441177,0.03975893184542656,0.022263823077082634,0.07017049193382263,0.03834141790866852,-0.016814572736620903,0.0294937901198864,-0.010503891855478287,-0.009691748768091202,0.02613554708659649,0.006351657677441835,-0.0009496975690126419,-0.054838135838508606,0.07232485711574554,-0.0013644277350977063,0.020805073902010918,-0.029940377920866013,0.01074093859642744,0.06392303854227066,0.029283782467246056,-0.05758904293179512
bangladesch,-0.012346056289970875,0.10951582342386246,-0.06304661929607391,0.02464643307030201,-0.010523906908929348,0.021801522001624107,0.11247613281011581,0.02141738496720791,-0.0005666485521942377,-0.020996341481804848,0.11373942345380783,-0.07855942845344543,-0.0004960298538208008,-0.03246384114027023,-0.06722154468297958,0.01191276777535677,0.02831479348242283,0.0419757254421711,0.034120090305805206,-0.02787218615412712,0.056525759398937225,-0.0466366745531559,0.06078530102968216,-0.022911436855793,-0.06502332538366318,0.11048390716314316,-0.023054007440805435,0.07004081457853317,0.006505876313894987,0.03803408890962601,0.0916466936469078,0.03507480025291443,0.013813103549182415,-0.12671074271202087,-0.012235458008944988,-0.05261583998799324,-0.026399236172437668,-0.10252883285284042,-0.03809758275747299,0.014380041509866714,-0.029122471809387207,0.07453031092882156,-0.03228015452623367,-0.05226072669029236,0.06262820214033127,0.051868148148059845,-0.11171428114175797,0.0007778115686960518,0.05737633630633354,-0.04707184433937073,-0.09120860695838928,0.12175785005092621,0.03233146667480469,0.0884096622467041,0.023533547297120094,-0.01584400050342083,0.01206312607973814,-0.05779605358839035,0.04245062917470932,-0.055190302431583405,0.092533640563488,-0.020510781556367874,0.00057589216157794,0.07008370012044907,-0.062356237322092056,0.03377428650856018,-0.01803789846599102,0.02278590202331543,-0.05048329383134842,0.016000501811504364,0.013660815544426441,-0.05136389657855034,0.09088598936796188,-0.08913338929414749,0.02286197431385517,0.05128784850239754,-0.02355194464325905,0.056041162461042404,0.014555925503373146,-0.012586912140250206,0.01267290860414505,0.11704377830028534,-0.1274717003107071,-0.08795049041509628,0.00949688721448183,-0.00014867620484437793,0.022275401279330254,0.021970907226204872,0.018530139699578285,0.018752578645944595,-0.07123758643865585,0.06915326416492462,-0.0387173555791378,-0.06069616973400116,0.02712416835129261,-0.0007249815389513969,0.025229182094335556,-0.09871341288089752,0.07719407975673676,-0.004815632477402687,-0.010370291769504547,0.08161728829145432,0.026625946164131165,0.07239307463169098,-0.01235127542167902,0.03231203928589821,0.1332343965768814,0.027911124750971794,-0.044213905930519104,-0.021949514746665955,-0.03208322077989578,0.12450285255908966,0.05131714791059494,0.11180029064416885,-0.03191975876688957,0.1005537286400795,0.0014468113658949733,-0.1414836198091507,0.023921115323901176,-0.07760857045650482,-0.01879928819835186,0.005724302493035793,0.07770217210054398,0.027012890204787254,0.068862184882164,0.0384707935154438,-0.04034589231014252,0.030083363875746727,-0.004468958359211683,0.11335830390453339,0.09659653902053833,0.018681472167372704,-0.07922565937042236,-0.09404336661100388,0.030884230509400368,0.095955491065979,0.025175675749778748,0.02507595345377922,0.01165200024843216,0.04322725534439087,-0.04546469822525978,-0.02889307029545307,0.04421396180987358,0.07768941670656204,-0.04112939164042473,-0.05912356823682785,0.008963942527770996,-0.01871682144701481,0.02199743315577507,-0.05244684964418411,-0.03659540042281151,0.08296512812376022,0.055787574499845505,0.01690051704645157,-0.01725012995302677,-0.008297001011669636,0.04235619679093361,0.02055199444293976,0.041278403252363205,-0.053044915199279785,-0.005665450356900692,-0.11382050067186356,0.04080016165971756,-0.044661808758974075,-0.03363320976495743,0.09552299231290817,0.052436187863349915,-0.008759140968322754,0.029303019866347313,0.00985568668693304,0.040552545338869095,-0.03293566033244133,-0.006924675777554512,0.06001158431172371,-0.004752952605485916,-0.007692080922424793,0.007275995332747698,-0.03535345941781998,0.19021648168563843,0.03807617351412773,0.027968021109700203,0.03467230126261711,-0.08765245229005814,0.0294466745108366,-0.05265047773718834,0.021583382040262222,0.06305045634508133,-0.017185242846608162,-0.007010896690189838,-0.13580605387687683,-0.019769655540585518,-0.030580131337046623,-0.06542818993330002,0.026131892576813698,0.01927940547466278,-0.13662633299827576,-0.060957036912441254,-0.03151630982756615,-0.13603848218917847,0.03290785476565361,-0.002338101388886571,0.029219716787338257,0.04566856101155281,-0.036160606890916824,0.04383285343647003,0.08536039292812347,0.05209797993302345,-0.07448551058769226,-0.0147451376542449,-0.013933572918176651,-0.01126321405172348,-0.0373658761382103,0.026401815935969353,0.04131607711315155,0.028557347133755684,0.03531699627637863,0.014108060859143734,-0.009793875738978386,-0.04625158756971359,0.012284266762435436,-0.06653596460819244,-0.08038283884525299,-0.12047946453094482,-0.020984314382076263,0.14038272202014923,-0.07086685299873352,-0.016305508092045784,-0.0062422966584563255,0.09713621437549591,0.004577447660267353,-0.007385823410004377,0.05451653152704239,0.004193040542304516,0.020885825157165527,-0.05518921837210655,0.021812833845615387,-0.033459991216659546,0.03627471998333931,0.012473106384277344,-0.014229324646294117,-0.026397885754704475,-0.005467324983328581,-0.06178785488009453,-0.02379411645233631,-0.03962688520550728,0.039124973118305206,0.07018241286277771,0.06484562158584595,0.06718941032886505,0.0078090340830385685,0.04633396863937378,-0.0017774339066818357,0.04751630499958992,-0.03713630884885788,-0.0080490093678236,0.0669003501534462,0.054775480180978775,-0.06582809239625931,-0.128560870885849,-0.01827443391084671,-0.05604982003569603,0.06726483255624771,-0.003989411052316427,0.008994011208415031,-0.05689704418182373,-0.04819207638502121,0.1349760890007019,0.03935083746910095,0.05225935950875282,-0.053678467869758606,0.02880360558629036,0.11151096969842911,-0.027750972658395767,-0.06119713559746742,-0.02623102441430092,-0.07364534586668015,-0.07371852546930313,-0.010372939519584179,0.0666302740573883,-0.028498448431491852,0.0006580479093827307,-0.007605378516018391,0.13020852208137512,0.0976630225777626,0.030552634969353676,-0.05782312527298927,0.04428980499505997,-0.00621957890689373,-0.09214276075363159,0.08416225761175156,-0.00020393059821799397,-0.05113830044865608,-0.03894039988517761,-0.005823998246341944,0.01271545048803091,0.068504199385643,0.018628600984811783,-0.05883528292179108,-0.01240626536309719,0.06817479431629181
belarus,0.019633494317531586,0.02309003286063671,0.060254596173763275,-0.0022192075848579407,0.00025948393158614635,0.07131185382604599,0.13337108492851257,0.11116933077573776,0.013370024971663952,-0.038637299090623856,-0.02317715995013714,0.024436980485916138,-0.029729260131716728,0.000839012092910707,0.0019673972856253386,0.10216367244720459,0.020364878699183464,0.04174353927373886,-0.01931537687778473,-0.025335852056741714,0.010501083917915821,0.000646861968562007,-0.019293637946248055,-0.010481249541044235,0.030101124197244644,-0.015307373367249966,-0.10424616187810898,-0.07759945094585419,-0.03598970174789429,-0.07127710431814194,0.021630175411701202,0.06758613139390945,0.020969310775399208,-0.10980207473039627,0.0634339451789856,0.10129745304584503,-0.033665429800748825,-0.008996428921818733,-0.01880922168493271,-0.01101332250982523,0.060891225934028625,0.04575415328145027,0.03554084524512291,0.065939761698246,0.016419792547822,0.030284015461802483,0.08681146800518036,-0.023051414638757706,0.05234678089618683,0.0570734366774559,0.10588487982749939,0.03704818710684776,0.040311411023139954,0.016449015587568283,0.06316569447517395,0.001646642223931849,0.02314618229866028,-0.03197221830487251,-0.04622703790664673,0.05685407295823097,0.04401595517992973,-0.07599223405122757,-0.06164078414440155,0.0027611078694462776,0.01923123560845852,-0.028182173147797585,-0.04428128898143768,-0.12984050810337067,0.10451503843069077,-0.06483156979084015,0.01617184467613697,-0.03869815543293953,0.031136522069573402,0.019533740356564522,0.08319278061389923,0.020796678960323334,-0.0036216359585523605,-0.09589378535747528,0.031225617974996567,-0.005041592754423618,0.10240357369184494,-0.025977859273552895,0.0378858856856823,-0.07973673939704895,0.0702873021364212,-0.0597514733672142,0.004909944254904985,0.014977513812482357,-0.019294487312436104,-0.010770686902105808,0.013967628590762615,-0.04837364703416824,-0.03324909135699272,0.05449976399540901,-0.05869733542203903,-0.10808251053094864,0.0733574628829956,0.04331047087907791,0.03291473165154457,-0.009903796948492527,0.04137510433793068,0.020710350945591927,-0.0318058542907238,-0.04552748054265976,-0.05201278626918793,-0.05585385486483574,-0.03234478458762169,0.045536551624536514,-0.031715795397758484,0.07197564095258713,0.0344274640083313,0.11322646588087082,-0.019725719466805458,0.017150606960058212,0.0031806225888431072,-0.04718516767024994,-0.03507319092750549,-0.03828984498977661,-0.049027640372514725,-0.08758074790239334,-0.09506677836179733,-0.048410166054964066,0.021065933629870415,0.09897681325674057,0.03299212083220482,0.04129175469279289,0.0631839781999588,0.020637361332774162,0.002232728060334921,0.10482428222894669,0.02017817273736,-0.034054070711135864,-0.10750490427017212,-0.050668079406023026,-0.04641423746943474,-0.03408835455775261,-0.008598106913268566,0.08457333594560623,0.014785940758883953,0.15880116820335388,-0.03496761992573738,-0.016375774517655373,-0.04200549051165581,-0.040084391832351685,0.000440664793131873,-0.04629727452993393,-0.01334002148360014,0.018794527277350426,-0.02455761283636093,-0.05680094659328461,0.09608402103185654,0.010345067828893661,0.05885090306401253,-0.027178725227713585,-0.0015240018256008625,0.048767831176519394,-0.058719757944345474,-0.06154283881187439,0.008359049446880817,-0.09092866629362106,-0.07616973668336868,-0.022587670013308525,0.05106459558010101,-0.09135153889656067,-0.04680250212550163,-0.027900954708456993,0.023363864049315453,0.010416517965495586,0.09632894396781921,0.018115781247615814,0.07578247040510178,0.11404526978731155,-0.07459564507007599,-0.09579773247241974,0.07939954847097397,-0.008074923418462276,-0.1506553590297699,-0.005460302345454693,0.010289548896253109,-0.11247401684522629,-0.022742895409464836,-0.03380658105015755,0.02225855551660061,0.05620360001921654,0.04320019856095314,-0.044890452176332474,-0.01835009641945362,-0.09255512803792953,-0.03607307747006416,-0.025607502087950706,-0.024318592622876167,-0.02021642215549946,-0.028547920286655426,-0.05485757067799568,-0.10598576813936234,-0.11079362779855728,-0.037448614835739136,0.08025623112916946,-0.11993172764778137,-0.006839492823928595,-0.031957779079675674,0.056172776967287064,0.05324641242623329,0.04108404368162155,0.040585387498140335,0.03992963209748268,0.04947179555892944,-0.016057616099715233,-0.049815353006124496,-0.06963576376438141,0.03239033743739128,-0.03160947933793068,-0.026452278718352318,0.0031610182486474514,-0.034295324236154556,0.0430544912815094,0.09004751592874527,0.1275472193956375,-0.016306784003973007,-0.0918174609541893,-0.04603298380970955,-0.0826679915189743,-0.009252354502677917,-0.09950516372919083,-0.04442425072193146,-0.08975883573293686,-0.03519626334309578,0.005465500522404909,0.06399689614772797,-0.05577271059155464,0.015042280778288841,0.09524523466825485,-0.03080155700445175,-0.0027568740770220757,-0.04838168993592262,-0.016900332644581795,0.07557171583175659,-0.08633899688720703,0.010391912423074245,-0.016021445393562317,-0.031170383095741272,0.012946425005793571,0.008021191693842411,-0.03303954005241394,0.02609933912754059,0.058947548270225525,0.0889439657330513,0.004677162505686283,0.02500629611313343,-0.07703868299722672,0.15322662889957428,0.02046944573521614,0.013518257066607475,-0.009382256306707859,0.11847925931215286,0.1056426540017128,0.053577274084091187,0.08724144846200943,0.02370784431695938,0.05194466561079025,-0.10057789087295532,0.029726410284638405,-0.05038449540734291,0.04910881817340851,-0.059618204832077026,0.10612855851650238,0.022124819457530975,0.022107426077127457,-0.07410132884979248,0.05597850680351257,0.043834563344717026,0.0655258446931839,-0.05605867877602577,-0.025295985862612724,-0.06469203531742096,-0.170720174908638,0.04885561019182205,-0.03980214521288872,0.05476105213165283,0.017103614285588264,0.008903183974325657,-0.017186343669891357,0.04626847058534622,-0.08187565207481384,0.026104940101504326,0.036894336342811584,0.05295173078775406,-0.029781004413962364,-0.06300700455904007,-0.003766417969018221,-0.03490066155791283,-0.0056672669015824795,0.0660894513130188,0.05027473345398903,-0.05911564826965332,0.04369421675801277,-0.07404588162899017,-0.08559964597225189,0.02140463888645172,0.016961321234703064
belgien,-0.002952932845801115,-0.0567891001701355,0.04271126911044121,-0.06724156439304352,0.08248815685510635,-0.03364550322294235,0.05942530184984207,0.05912322178483009,0.05652438849210739,-0.023446476086974144,0.004443700425326824,-0.05806431174278259,-0.10738558322191238,-0.012684519402682781,-0.13413166999816895,-0.07607633620500565,-0.044111985713243484,0.00826232135295868,0.02162613719701767,0.03163793310523033,0.02370307594537735,0.06422856450080872,-0.08866211026906967,-0.0064920480363070965,-0.006024712231010199,0.10492800921201706,-0.05955033749341965,0.029871609061956406,0.09476306289434433,0.0019509854028001428,-0.004643236752599478,0.03900294378399849,-0.043951231986284256,-0.08878225833177567,0.04115181788802147,-0.10741009563207626,0.051147736608982086,-0.04382442310452461,0.09585577994585037,-0.08458006381988525,-0.002136412775143981,0.020747538655996323,0.016706766560673714,0.15826299786567688,-0.118166983127594,-0.016817862167954445,-0.05173150449991226,0.02830503322184086,0.0973300188779831,-0.05441111698746681,0.044268302619457245,-0.09319348633289337,-0.0636768639087677,0.0675499439239502,0.008986195549368858,0.03825893625617027,-0.1567991077899933,-0.06998910009860992,-0.024157514795660973,0.05932729318737984,0.007535009179264307,-0.0028126826509833336,-0.011810312047600746,0.005883066914975643,0.06647788733243942,0.07522671669721603,0.0032532105688005686,0.017959557473659515,0.08544358611106873,0.014675711281597614,-0.01965467259287834,0.021223604679107666,0.01792769879102707,-0.06788425892591476,0.004939211066812277,-0.01749834045767784,-0.01888538897037506,-0.034035950899124146,-0.0011440091766417027,-0.037377677857875824,0.07602151483297348,-0.03515768051147461,0.024011289700865746,0.008709576912224293,-0.015352826565504074,-0.008219578303396702,-0.02122521586716175,0.07934138178825378,0.0013134696055203676,0.06726311892271042,-0.08466500788927078,-0.009574872441589832,0.005872078239917755,-3.001353888976155e-06,0.032014887779951096,0.006211843341588974,-0.04563187062740326,-0.07276651263237,0.011786150746047497,0.01859966479241848,-0.01890862174332142,0.06692850589752197,-0.03581861034035683,0.04607038572430611,-0.04366333782672882,-0.018681084737181664,0.10911457985639572,0.10823705047369003,-0.03591033071279526,0.05333187058568001,0.011767151765525341,0.004382092040032148,0.07200639694929123,0.06837581098079681,-0.04858730733394623,-0.03214127570390701,0.09356344491243362,-0.10363829135894775,-0.07042371481657028,-0.03256113454699516,0.014166170731186867,-0.06123511493206024,-0.0017872023163363338,0.034414153546094894,0.05137946084141731,0.04984993860125542,0.02011590637266636,0.014667496085166931,-0.020342690870165825,0.10041903704404831,-0.0978863537311554,0.04438645392656326,-0.05732645094394684,-0.06394655257463455,-0.025450754910707474,-0.03889334946870804,0.009946804493665695,0.036033421754837036,0.07007459551095963,0.11993738263845444,0.04127620905637741,-0.014237516559660435,0.06401858478784561,0.003424262162297964,0.011246254667639732,0.01683005876839161,0.09255710244178772,-0.03993837162852287,-0.02051357924938202,-0.024622026830911636,-0.01060994528234005,-0.045947130769491196,0.00013990802108310163,0.10309136658906937,0.04103965312242508,0.035052310675382614,0.003932624123990536,0.06626427918672562,0.039455708116292953,-0.025196192786097527,0.11046790331602097,-0.0940859392285347,0.07790448516607285,0.05996730178594589,-0.09380901604890823,0.10727827250957489,-0.03866580128669739,-0.01484233420342207,0.0951818898320198,0.11037401109933853,-0.015636418014764786,0.05418504402041435,0.03184772655367851,0.09105589240789413,0.0038210521452128887,-0.12012356519699097,-0.04065294936299324,-0.040415167808532715,-0.02711023949086666,-0.020789755508303642,0.04552268609404564,-0.024668976664543152,-0.11331339925527573,0.014930129051208496,-0.012074839323759079,-0.07734746485948563,-0.05872541666030884,-0.09563178569078445,-0.04369181767106056,-0.07671552896499634,0.003709472017362714,0.025032615289092064,-0.047208063304424286,-0.06858102977275848,0.04279392957687378,0.05102448910474777,0.03787895292043686,-0.004475014749914408,-0.07519432157278061,0.0018786784494295716,-0.0357283316552639,-0.014512293040752411,0.03475520759820938,0.08387145400047302,0.019821947440505028,0.02118721790611744,-0.11275529116392136,-0.12083497643470764,-0.03621179610490799,-0.007973920553922653,0.019981741905212402,0.046603839844465256,0.00431728595867753,-0.010005914606153965,0.011657027527689934,-0.0012535785790532827,-0.03746597468852997,0.04362288489937782,-0.020182527601718903,0.0028415548149496317,0.04896599426865578,-0.010789674706757069,-0.10126671195030212,-0.015057459473609924,0.019851360470056534,-0.002438503550365567,-0.041437238454818726,0.06736831367015839,-0.13726690411567688,0.07133244723081589,0.036603763699531555,0.08314704149961472,0.010789296589791775,-0.03602311760187149,0.07807641476392746,-0.08139889687299728,-0.027535127475857735,0.059001803398132324,-0.049707673490047455,-0.02806716226041317,-0.01890462450683117,-0.04115811362862587,-0.05316980555653572,0.04033290222287178,-0.013386687263846397,0.08933499455451965,-0.009251013398170471,0.035350359976291656,-0.014688205905258656,0.13946911692619324,-0.012737853452563286,-0.01239772792905569,0.057265542447566986,0.04016854614019394,0.0789804607629776,-0.02079065516591072,-0.10931186378002167,0.09388835728168488,-0.024404847994446754,-0.09734486043453217,-0.09995104372501373,-0.01641904190182686,-0.03133460879325867,-0.02714250423014164,-0.051355764269828796,-0.044446732848882675,0.13911442458629608,0.037138018757104874,0.07074011117219925,0.0034745747689157724,-0.014675701968371868,0.04183200001716614,-0.11994186788797379,-0.03722788393497467,0.042177893221378326,-0.049807194620370865,-0.03158371523022652,0.03848305717110634,0.09186315536499023,0.021038677543401718,0.024355990812182426,-0.0373021699488163,0.018098222091794014,0.04270906746387482,-0.011346320621669292,0.01847805082798004,-0.09930962324142456,0.05722320079803467,0.06766939908266068,0.07433339953422546,0.028787463903427124,0.022354569286108017,-0.0580868199467659,0.06675882637500763,-0.027986792847514153,-0.05092700198292732,-0.010725044645369053,0.02958308532834053,0.08601658046245575,-0.06848366558551788
bosnien_und_herzegowina,0.09181582927703857,-0.026064230129122734,-0.02841075137257576,0.019297674298286438,0.10137096792459488,-0.012310861609876156,0.13612128794193268,0.042465731501579285,-0.08477655798196793,0.06968654692173004,-0.019302885979413986,0.004446862731128931,-0.13430525362491608,0.05286909267306328,-0.018919959664344788,-0.07047726213932037,-0.0761784091591835,-0.01897575333714485,0.03530410677194595,-0.052363377064466476,0.05419745296239853,-0.08005283772945404,-0.019353944808244705,-0.036787647753953934,-0.012782693840563297,-0.0029140489641577005,-0.0017870585434138775,-0.0170902106910944,-0.03208443522453308,-0.09176945686340332,-0.01676621288061142,0.003346871118992567,0.008672794327139854,-0.003079645801335573,0.08803650736808777,-0.013450485654175282,-0.00208333320915699,-0.08856146782636642,-0.02610137313604355,-0.07125392556190491,0.1112702339887619,-0.09147259593009949,-0.04918985441327095,-0.00364637840539217,-0.017325235530734062,0.09498321264982224,-0.045611102133989334,0.04830985888838768,-0.01052263006567955,-0.014137929305434227,-0.08321279287338257,0.018388081341981888,-0.0007188486051745713,0.06109125167131424,0.0485629141330719,0.04529155418276787,-0.07404030114412308,-0.03671129420399666,-0.09631763398647308,0.05789732187986374,0.0020727014634758234,-0.12751570343971252,-0.04593789950013161,0.018478261306881905,0.09863368421792984,0.054160717874765396,-0.10078310966491699,-0.13082097470760345,0.030869536101818085,0.016619112342596054,0.022199230268597603,-0.003171664196997881,-0.02420978993177414,-0.09212842583656311,0.07873782515525818,0.021085398271679878,-0.06473737210035324,0.058232780545949936,0.0031819811556488276,-0.05291176587343216,0.027410145848989487,0.06734360754489899,0.02913711406290531,-0.011704545468091965,-0.00581433204934001,0.05637996643781662,0.04017634689807892,-0.02550625614821911,-0.023047635331749916,0.003005226142704487,0.02532697655260563,0.012310349382460117,-0.027914984151721,-0.06369475275278091,-0.04023198038339615,0.060603946447372437,0.047720909118652344,-0.006502937991172075,-0.043053943663835526,-0.0500335618853569,-0.052950020879507065,-0.0491940975189209,0.01890275813639164,0.0918346717953682,-0.09237458556890488,0.07862028479576111,0.08337704092264175,0.019651921465992928,-0.061331428587436676,0.07613071799278259,-0.06524305790662766,-0.0865950956940651,-0.0018302211537957191,-0.019317761063575745,-0.011140107177197933,-0.02461804449558258,-0.013738309033215046,-0.039107512682676315,-0.05151442810893059,0.027853723615407944,-0.08974533528089523,-0.03836676850914955,0.040956851094961166,0.017102086916565895,-0.028291838243603706,0.034277260303497314,-0.03230845183134079,-0.02833179384469986,-0.029543165117502213,0.10869968682527542,0.03754984214901924,0.006420682184398174,-0.046496644616127014,-0.047978680580854416,-0.01644905097782612,0.004006816074252129,-0.08141786605119705,0.04186041280627251,0.09748071432113647,0.10973303765058517,-0.01072677131742239,-0.031152594834566116,-0.050561875104904175,-0.001978897722437978,0.03996910899877548,0.01914014294743538,0.006382919382303953,-0.02274389937520027,0.005158024374395609,-0.0009326993604190648,-0.14824959635734558,-0.007491394877433777,0.12887832522392273,0.031004970893263817,0.019862191751599312,0.01400721538811922,-0.08323005586862564,0.027603862807154655,0.04173123091459274,0.020505590364336967,0.01441276352852583,0.046160243451595306,0.13738122582435608,-0.047296926379203796,-0.023723334074020386,-0.07979840785264969,-0.020409053191542625,0.036678776144981384,0.06009768322110176,-0.0332280732691288,-0.015347030945122242,0.1328602135181427,-0.08536072820425034,0.08760222792625427,0.013844754546880722,-0.02286454290151596,-0.04758862033486366,-0.14464806020259857,-0.0032245719339698553,0.03391510993242264,0.012484394945204258,0.05101332068443298,0.0024864717852324247,0.12110954523086548,-0.003533618524670601,-0.05138568580150604,0.030491767451167107,-0.06577703356742859,-0.040772486478090286,0.02498113177716732,-0.0003344358701724559,-0.07737385481595993,0.006038011517375708,-0.024059228599071503,0.032769910991191864,-0.01293221116065979,-0.0033303715754300356,-0.028630651533603668,-0.05166424438357353,-0.05403151735663414,-0.07907989621162415,-0.11438868939876556,-0.04655460640788078,-0.07553395628929138,0.028544388711452484,-0.11868595331907272,-0.021221129223704338,0.04556811973452568,-0.019849887117743492,-0.05266527086496353,-0.00948692113161087,-0.028651190921664238,-0.04168730229139328,0.033278923481702805,-0.04336714744567871,0.0842353031039238,0.015249612741172314,0.02971118688583374,0.028367413207888603,-0.11254659295082092,-0.015581684187054634,-0.02118935063481331,-0.01331891119480133,-0.07527238875627518,0.09546077996492386,-0.106776662170887,0.14385674893856049,0.08560067415237427,0.09769011288881302,0.02347634546458721,0.05094611272215843,0.044246457517147064,-0.023443136364221573,-0.010760363191366196,-0.010121265426278114,-0.03107701614499092,-0.0022011662367731333,0.07286461442708969,0.03258095681667328,-0.002110918750986457,0.03696922957897186,0.039638862013816833,-0.04783797264099121,-0.08544230461120605,0.0018817768432199955,0.031245814636349678,0.0751369446516037,0.008495575748383999,0.0030612219125032425,-0.07069145888090134,0.09014099836349487,-0.10170021653175354,0.0767594501376152,0.026515943929553032,-0.042410630732774734,0.04646932706236839,0.054751332849264145,0.010805555619299412,-0.0905495136976242,-0.009102405980229378,-0.0009921223390847445,0.034768469631671906,-0.009426440112292767,-0.031838204711675644,-0.05418471619486809,0.046183545142412186,0.03525858372449875,0.06566939502954483,-0.013554139994084835,-0.007615452166646719,0.17000320553779602,0.07154814153909683,-0.13449078798294067,-0.004467479418963194,-0.03943057730793953,-0.013449827209115028,0.020618559792637825,0.03629239276051521,0.08541041612625122,-0.05110187456011772,-0.033549245446920395,-0.07388927787542343,-0.06967037916183472,0.0033820243552327156,-0.006795133464038372,-0.002853348385542631,-0.01675204373896122,0.044652413576841354,-0.010538503527641296,-0.02869020774960518,0.18063069880008698,-0.03339933231472969,-0.004431804176419973,-0.053521789610385895,-0.04158570617437363,0.011789871379733086,-0.04309026524424553,0.026975039392709732,-0.005023627076297998,-0.07774196565151215
brasilien,-0.0454498827457428,-0.07526126503944397,0.0746481642127037,-0.07583785802125931,0.07322461903095245,-0.06210271269083023,0.051007386296987534,0.008798805065453053,0.10372918844223022,-0.09908685833215714,0.050891924649477005,-0.06457074731588364,-0.061929553747177124,-0.05821096897125244,0.04104514420032501,-0.01678767427802086,-0.009483734145760536,0.006624934263527393,0.02887519635260105,0.07365000993013382,-0.0483461394906044,0.04667524993419647,0.035136882215738297,-0.09316335618495941,0.02341155707836151,0.04930196702480316,-0.03032916970551014,0.02124725840985775,-0.001956430496647954,-0.06545256823301315,0.02204531989991665,0.03684840351343155,0.10672120749950409,-0.004439972341060638,0.024626299738883972,0.05261629447340965,-0.008129212073981762,0.03759454935789108,-0.014404891058802605,0.036168232560157776,-0.038375888019800186,0.012455767951905727,0.025113340467214584,-0.04731268435716629,0.08119756728410721,0.047246962785720825,-0.1083400696516037,-0.0027598016895353794,-0.005656788125634193,-0.04047000780701637,-0.003517115255817771,0.036749280989170074,-0.03233139589428902,0.09938272088766098,0.0341668426990509,0.021843956783413887,-0.10570905357599258,0.04919329658150673,0.013839439488947392,-0.050674229860305786,-0.01683649979531765,0.044878896325826645,-0.0711759626865387,0.0752405971288681,-0.002571800025179982,-0.03558165580034256,0.07535017281770706,-0.031142059713602066,-0.03880935162305832,-0.060871243476867676,-0.09687372297048569,-0.03907925635576248,0.005986351054161787,0.1065276637673378,-0.003924109041690826,-0.015366277657449245,-0.021301722154021263,-0.029230687767267227,0.08677114546298981,-0.0984034612774849,0.14185087382793427,0.06413958966732025,-0.013515648432075977,-0.07521196454763412,-0.016773417592048645,0.021124141290783882,-0.004224705044180155,-0.038911521434783936,0.014467328786849976,0.04835803806781769,0.053142428398132324,0.0382932610809803,-0.09364024549722672,-0.014108176343142986,-0.03603621944785118,0.01128808781504631,0.023162666708230972,-0.007497523911297321,0.03211422264575958,0.004723373334854841,0.10440348833799362,0.005925032775849104,0.051677946001291275,0.1201862096786499,0.0017497255466878414,0.0064793056808412075,0.11340662837028503,-0.0064253737218678,-0.10748004168272018,-0.017682164907455444,-0.038736116141080856,0.027455629780888557,0.09559188783168793,-0.048918675631284714,-0.08688189089298248,-0.0019355211406946182,-0.03339174762368202,0.04398525506258011,-0.1081189289689064,-0.010236386209726334,-0.03108794428408146,0.01882139779627323,-0.00027446512831375003,0.007002335973083973,0.04465574398636818,-0.0034097060561180115,-0.02510261908173561,0.16906015574932098,-0.06289256364107132,0.0393613763153553,0.06317442655563354,0.07376941293478012,-0.028058620169758797,-0.030806096270680428,-0.011245636269450188,0.08570192754268646,0.04980915039777756,0.1394689828157425,0.06224707141518593,0.009279172867536545,0.027698051184415817,0.07421538978815079,0.02379237301647663,0.03274703398346901,0.044636890292167664,-0.13049671053886414,0.02156268246471882,0.04291127622127533,0.009304975159466267,-0.04233476147055626,0.03517720475792885,-0.03998427093029022,0.02488417737185955,0.06550491601228714,-0.06506074219942093,0.016382601112127304,-0.0021253013983368874,0.014289384707808495,-0.030760392546653748,0.07620549947023392,0.07018780708312988,-0.057613883167505264,-0.04195643961429596,-0.024854788556694984,-0.0031946722883731127,0.10276851803064346,-0.12558798491954803,0.0393839031457901,0.07242628931999207,-0.01780332438647747,0.05232395976781845,-0.0010681855492293835,-0.016374360769987106,0.03465364873409271,-0.04333309084177017,-0.14449992775917053,-0.003961594775319099,0.0559355765581131,-0.028063731268048286,-0.025857634842395782,0.087754026055336,0.041958607733249664,-0.002005035523325205,0.00636287173256278,-0.04889347776770592,0.005832448601722717,0.02188923768699169,-0.043144531548023224,-0.01779020205140114,-0.09389977902173996,0.017642509192228317,-0.030350176617503166,-0.03093842603266239,0.05336534604430199,-0.014908649027347565,-0.06890799850225449,0.00038671091897413135,0.004097903147339821,-0.028487013652920723,-0.07460284233093262,-0.03230876103043556,0.019345613196492195,0.018612664192914963,0.011773215606808662,0.10304096341133118,0.014845102094113827,0.05979258194565773,-0.0701412633061409,-0.01067409012466669,-0.03374674543738365,0.012846176512539387,-0.04996444284915924,0.021311186254024506,0.09061747044324875,-0.024323951452970505,0.15750008821487427,-0.06822191178798676,-0.0341300405561924,-0.10688222199678421,-0.04441326484084129,-0.043955642729997635,-0.039692699909210205,-0.009204108268022537,-0.0445140041410923,0.09270931780338287,-0.06689658015966415,0.0700874775648117,-0.059030480682849884,-0.07433009147644043,0.12439946085214615,0.009874897077679634,0.05564179643988609,0.032097477465867996,0.0007855971925891936,0.019159803166985512,-0.04212717339396477,-0.0799582228064537,0.02890726923942566,0.007932293228805065,-0.11117371916770935,-0.013749686069786549,0.014212341979146004,-0.0408007986843586,-0.08589103072881699,0.12622077763080597,-0.03200611472129822,-0.014197025448083878,0.0429239496588707,0.023744434118270874,-0.08909378945827484,-0.03247622773051262,0.012924439273774624,0.022543037310242653,0.03248221054673195,0.031205756589770317,0.09893453121185303,-0.002203422598540783,-0.06258005648851395,0.0034218800719827414,-0.011173422448337078,0.03430110216140747,0.0877133309841156,0.053527139127254486,0.05309241637587547,-0.014826861210167408,-0.01891338638961315,0.05696720629930496,0.072498619556427,-0.08978799730539322,0.03113727644085884,-0.031626008450984955,0.0943070501089096,-0.07066397368907928,-0.05138635262846947,0.03937974572181702,-0.0634678527712822,-0.008714460767805576,0.03524312749505043,0.020038755610585213,0.15597382187843323,0.06959923356771469,-0.006633313372731209,0.01175888255238533,-0.05169256776571274,0.0011619053548201919,0.006170984823256731,-0.030882027000188828,0.08973690122365952,-0.03934410214424133,0.005871495231986046,0.1618916094303131,-0.05073832347989082,-0.08871568739414215,0.06377404928207397,-0.03292820230126381,0.035245202481746674,0.0959552526473999,0.0864071249961853,0.05680461227893829,-0.020133214071393013
