Country,Vectordimension_0,Vectordimension_1,Vectordimension_2,Vectordimension_3,Vectordimension_4,Vectordimension_5,Vectordimension_6,Vectordimension_7,Vectordimension_8,Vectordimension_9,Vectordimension_10,Vectordimension_11,Vectordimension_12,Vectordimension_13,Vectordimension_14,Vectordimension_15,Vectordimension_16,Vectordimension_17,Vectordimension_18,Vectordimension_19,Vectordimension_20,Vectordimension_21,Vectordimension_22,Vectordimension_23,Vectordimension_24,Vectordimension_25,Vectordimension_26,Vectordimension_27,Vectordimension_28,Vectordimension_29,Vectordimension_30,Vectordimension_31,Vectordimension_32,Vectordimension_33,Vectordimension_34,Vectordimension_35,Vectordimension_36,Vectordimension_37,Vectordimension_38,Vectordimension_39,Vectordimension_40,Vectordimension_41,Vectordimension_42,Vectordimension_43,Vectordimension_44,Vectordimension_45,Vectordimension_46,Vectordimension_47,Vectordimension_48,Vectordimension_49,Vectordimension_50,Vectordimension_51,Vectordimension_52,Vectordimension_53,Vectordimension_54,Vectordimension_55,Vectordimension_56,Vectordimension_57,Vectordimension_58,Vectordimension_59,Vectordimension_60,Vectordimension_61,Vectordimension_62,Vectordimension_63,Vectordimension_64,Vectordimension_65,Vectordimension_66,Vectordimension_67,Vectordimension_68,Vectordimension_69,Vectordimension_70,Vectordimension_71,Vectordimension_72,Vectordimension_73,Vectordimension_74,Vectordimension_75,Vectordimension_76,Vectordimension_77,Vectordimension_78,Vectordimension_79,Vectordimension_80,Vectordimension_81,Vectordimension_82,Vectordimension_83,Vectordimension_84,Vectordimension_85,Vectordimension_86,Vectordimension_87,Vectordimension_88,Vectordimension_89,Vectordimension_90,Vectordimension_91,Vectordimension_92,Vectordimension_93,Vectordimension_94,Vectordimension_95,Vectordimension_96,Vectordimension_97,Vectordimension_98,Vectordimension_99,Vectordimension_100,Vectordimension_101,Vectordimension_102,Vectordimension_103,Vectordimension_104,Vectordimension_105,Vectordimension_106,Vectordimension_107,Vectordimension_108,Vectordimension_109,Vectordimension_110,Vectordimension_111,Vectordimension_112,Vectordimension_113,Vectordimension_114,Vectordimension_115,Vectordimension_116,Vectordimension_117,Vectordimension_118,Vectordimension_119,Vectordimension_120,Vectordimension_121,Vectordimension_122,Vectordimension_123,Vectordimension_124,Vectordimension_125,Vectordimension_126,Vectordimension_127,Vectordimension_128,Vectordimension_129,Vectordimension_130,Vectordimension_131,Vectordimension_132,Vectordimension_133,Vectordimension_134,Vectordimension_135,Vectordimension_136,Vectordimension_137,Vectordimension_138,Vectordimension_139,Vectordimension_140,Vectordimension_141,Vectordimension_142,Vectordimension_143,Vectordimension_144,Vectordimension_145,Vectordimension_146,Vectordimension_147,Vectordimension_148,Vectordimension_149,Vectordimension_150,Vectordimension_151,Vectordimension_152,Vectordimension_153,Vectordimension_154,Vectordimension_155,Vectordimension_156,Vectordimension_157,Vectordimension_158,Vectordimension_159,Vectordimension_160,Vectordimension_161,Vectordimension_162,Vectordimension_163,Vectordimension_164,Vectordimension_165,Vectordimension_166,Vectordimension_167,Vectordimension_168,Vectordimension_169,Vectordimension_170,Vectordimension_171,Vectordimension_172,Vectordimension_173,Vectordimension_174,Vectordimension_175,Vectordimension_176,Vectordimension_177,Vectordimension_178,Vectordimension_179,Vectordimension_180,Vectordimension_181,Vectordimension_182,Vectordimension_183,Vectordimension_184,Vectordimension_185,Vectordimension_186,Vectordimension_187,Vectordimension_188,Vectordimension_189,Vectordimension_190,Vectordimension_191,Vectordimension_192,Vectordimension_193,Vectordimension_194,Vectordimension_195,Vectordimension_196,Vectordimension_197,Vectordimension_198,Vectordimension_199,Vectordimension_200,Vectordimension_201,Vectordimension_202,Vectordimension_203,Vectordimension_204,Vectordimension_205,Vectordimension_206,Vectordimension_207,Vectordimension_208,Vectordimension_209,Vectordimension_210,Vectordimension_211,Vectordimension_212,Vectordimension_213,Vectordimension_214,Vectordimension_215,Vectordimension_216,Vectordimension_217,Vectordimension_218,Vectordimension_219,Vectordimension_220,Vectordimension_221,Vectordimension_222,Vectordimension_223,Vectordimension_224,Vectordimension_225,Vectordimension_226,Vectordimension_227,Vectordimension_228,Vectordimension_229,Vectordimension_230,Vectordimension_231,Vectordimension_232,Vectordimension_233,Vectordimension_234,Vectordimension_235,Vectordimension_236,Vectordimension_237,Vectordimension_238,Vectordimension_239,Vectordimension_240,Vectordimension_241,Vectordimension_242,Vectordimension_243,Vectordimension_244,Vectordimension_245,Vectordimension_246,Vectordimension_247,Vectordimension_248,Vectordimension_249,Vectordimension_250,Vectordimension_251,Vectordimension_252,Vectordimension_253,Vectordimension_254,Vectordimension_255,Vectordimension_256,Vectordimension_257,Vectordimension_258,Vectordimension_259,Vectordimension_260,Vectordimension_261,Vectordimension_262,Vectordimension_263,Vectordimension_264,Vectordimension_265,Vectordimension_266,Vectordimension_267,Vectordimension_268,Vectordimension_269,Vectordimension_270,Vectordimension_271,Vectordimension_272,Vectordimension_273,Vectordimension_274,Vectordimension_275,Vectordimension_276,Vectordimension_277,Vectordimension_278,Vectordimension_279,Vectordimension_280,Vectordimension_281,Vectordimension_282,Vectordimension_283,Vectordimension_284,Vectordimension_285,Vectordimension_286,Vectordimension_287,Vectordimension_288,Vectordimension_289,Vectordimension_290,Vectordimension_291,Vectordimension_292,Vectordimension_293,Vectordimension_294,Vectordimension_295,Vectordimension_296,Vectordimension_297,Vectordimension_298,Vectordimension_299
afghanistan,0.07994963973760605,-0.037133537232875824,0.01964120753109455,-0.000890689087100327,0.07570423930883408,-0.007698518689721823,0.03135190159082413,-0.0009484915062785149,0.1292807161808014,-0.030294088646769524,-0.04684656858444214,-0.08386837691068649,0.04416662082076073,-0.051582999527454376,0.01925056427717209,0.028921255841851234,0.05571150779724121,-0.007880479097366333,-0.04029325395822525,0.04218555986881256,-0.07218196988105774,-0.04828159138560295,-0.008668389171361923,0.07599146664142609,-0.041264843195676804,0.044283293187618256,-0.16095837950706482,0.07757111638784409,0.0006649517454206944,-0.02190268598496914,0.07006022334098816,0.03716124966740608,-0.02305730991065502,-0.012884816154837608,-0.015367189422249794,-0.00842653214931488,0.008213642984628677,-0.056731268763542175,0.10033292323350906,-0.012125813402235508,0.10615729540586472,0.16999079287052155,-0.09008613228797913,-0.03255442902445793,-0.01939837820827961,-0.007558825425803661,0.02503564953804016,0.013305873610079288,0.06438131630420685,0.002604071982204914,-0.07241417467594147,0.01789345219731331,0.014536966569721699,0.07911313325166702,0.03699176385998726,0.057780105620622635,-0.04597162827849388,-0.06694526970386505,-0.06288450956344604,0.06493211537599564,0.05469382926821709,-0.01983938179910183,-0.04678146168589592,0.0827351063489914,0.027861319482326508,0.024143092334270477,-0.09503881633281708,-0.04353035241365433,-0.0061879344284534454,0.01152575109153986,0.00907718762755394,0.029047343879938126,0.10415279120206833,-0.04449150711297989,0.01476503349840641,0.04331694170832634,-0.14788208901882172,0.002483703661710024,0.02782435342669487,-0.06174803897738457,0.06471406668424606,-0.07014752179384232,0.04124525189399719,0.034809987992048264,0.059331219643354416,-0.047425124794244766,-0.09415241330862045,-0.10589172691106796,0.043461643159389496,0.06985850632190704,-0.09832488745450974,0.03841796889901161,-0.0771835669875145,0.03564624860882759,-0.06895279139280319,-0.026633160188794136,-0.017341041937470436,-0.09090892225503922,0.013880825601518154,-0.032148923724889755,0.08762221038341522,0.050081513822078705,-0.012637436389923096,0.07973317056894302,-0.0738295391201973,-0.047657761722803116,0.03586838021874428,0.06447597593069077,-0.018173079937696457,0.016604650765657425,-0.009974704124033451,0.05531269311904907,0.01382045354694128,0.05788657069206238,0.047367021441459656,0.028523048385977745,0.01975121907889843,-0.002961490536108613,0.018788348883390427,-0.07544547319412231,-0.0510709173977375,-0.006717144977301359,0.02985338680446148,0.1265001893043518,-0.014397650957107544,-0.05685048922896385,0.030750321224331856,0.10432317107915878,0.05611332505941391,0.02879410982131958,0.01343136839568615,0.0681220293045044,-0.08634821325540543,-0.04716791585087776,-0.005678399000316858,0.024728892371058464,0.01459660567343235,0.13443966209888458,-0.06085324287414551,0.11975720524787903,-0.03804212808609009,-0.03625490143895149,0.05349227041006088,0.042671095579862595,0.04710102453827858,-0.11187827587127686,0.053779568523168564,-0.04199375584721565,0.023237086832523346,0.023136839270591736,-0.034343618899583817,0.03702764958143234,0.034902963787317276,0.05477232113480568,-0.013892083428800106,-0.06137825548648834,-0.05126672610640526,0.002039856743067503,0.03898853436112404,-0.012469409964978695,-0.12607280910015106,-0.021354252472519875,-0.09024631232023239,-0.014995279721915722,-0.008505106903612614,-0.04306040331721306,-0.01348926406353712,-0.013099695555865765,0.023535821586847305,-0.021921556442975998,0.06853891164064407,0.06974539160728455,-0.03842784836888313,0.034858524799346924,-0.06151203066110611,-0.05913593992590904,0.026449184864759445,0.045894917100667953,0.08905322849750519,-0.013339260593056679,-0.009023167192935944,-0.017394306138157845,-0.02969181537628174,0.07484624534845352,0.0669441968202591,-0.025287412106990814,0.10730528831481934,-0.09739896655082703,0.06030208244919777,-0.0483955480158329,0.06323195993900299,0.03903557360172272,-0.07149845361709595,-0.02646230161190033,0.12628532946109772,0.028503814712166786,-0.02375989593565464,-0.03798675537109375,-0.07045301795005798,0.016291232779622078,-0.02241833508014679,0.013273507356643677,0.07412885129451752,0.06074647232890129,0.0834389254450798,-0.027149435132741928,0.1115848571062088,0.03186085820198059,-0.08645179867744446,-0.1726893186569214,0.004364319145679474,-0.053342197090387344,-0.029350534081459045,0.0800485834479332,-0.03927011415362358,0.08992468565702438,0.07099078595638275,-0.029987163841724396,0.09773969650268555,0.07305579632520676,-0.0027607842348515987,0.04714072868227959,0.043384019285440445,-0.06709755212068558,0.022543512284755707,0.06441449373960495,0.03124139830470085,-0.053865909576416016,-0.004006669390946627,0.009699353016912937,0.04689440876245499,0.06266211718320847,0.024700334295630455,1.4136072422843426e-05,0.004190254956483841,0.08777523785829544,0.004034230951219797,-0.03775089234113693,-0.02200525999069214,-0.024974295869469643,0.041367996484041214,0.02649168111383915,-0.07051845639944077,0.05425940081477165,0.025216273963451385,0.07660423964262009,0.003209531307220459,0.049493394792079926,0.022815639153122902,-0.05823035165667534,0.11059004813432693,-0.009117967449128628,0.06131761521100998,-0.0875285416841507,0.07932262122631073,0.13314072787761688,-0.005557526368647814,-0.013751273043453693,-0.008863799273967743,-0.029505418613553047,0.01444273628294468,-0.00042475745431147516,0.06254779547452927,-0.06657405942678452,-0.09111180901527405,-0.07731962203979492,0.03479773551225662,-0.006402904167771339,0.0033022137358784676,0.0033960333094000816,0.03788347914814949,-0.041503969579935074,0.018853874877095222,0.00980951264500618,0.06886176764965057,0.025054767727851868,0.012093969620764256,-0.048430055379867554,0.060951150953769684,0.015012020245194435,-0.05422733351588249,0.05252176150679588,0.03129372373223305,0.028576703742146492,0.05879782885313034,-0.03393182158470154,0.017378557473421097,-0.11455383151769638,-0.034971147775650024,-0.013829824514687061,0.15469752252101898,-0.07312068343162537,0.03832829371094704,-0.0468391589820385,0.035720646381378174,-0.04283361881971359,-0.053263988345861435,0.027878768742084503,-0.0063314856961369514,-0.09861733019351959
ägypten,0.02568642981350422,-0.09957115352153778,0.08990225940942764,0.00671541690826416,0.02475956827402115,-0.04425393044948578,0.0050107622519135475,0.009831367991864681,0.06423385441303253,-0.07236923277378082,-0.0023945702705532312,-0.04438072070479393,-0.005568171851336956,-0.05421430990099907,0.05132048949599266,0.036552753299474716,-0.02040981315076351,0.08095624297857285,-0.04963062331080437,-0.04825592413544655,-0.035191357135772705,-0.0027844454161822796,-0.02145247906446457,-0.03690468519926071,-0.027822770178318024,0.0396173931658268,-0.05462156981229782,-0.01848783902823925,0.025803547352552414,-0.039663754403591156,0.02892831526696682,-0.03401802107691765,0.0893845483660698,0.01707226224243641,0.13388438522815704,0.025288499891757965,-0.02330136112868786,-0.09346351027488708,0.10822208225727081,-0.005647442303597927,0.04269949719309807,0.033920176327228546,0.0047608488239347935,0.030460886657238007,0.09949330985546112,-0.034481585025787354,-0.06968037039041519,0.0182645320892334,0.010558899492025375,0.00853018183261156,-0.00821113120764494,0.05858945846557617,0.02080385759472847,0.03015197440981865,0.040561676025390625,0.02153954841196537,-0.016941651701927185,0.0419480986893177,0.03580666705965996,0.020623300224542618,0.01952204667031765,-0.08401939272880554,0.12613824009895325,0.09571952372789383,0.0683680847287178,-0.008319949731230736,-0.10759325325489044,-0.03826778382062912,-0.004052812699228525,0.049402832984924316,-0.008792847394943237,-0.042449209839105606,-0.019241083413362503,0.009037844836711884,-0.05990338698029518,0.02556348405778408,-0.02868906781077385,-0.03226430341601372,0.0613228939473629,-0.0808047503232956,0.14202991127967834,0.0036846159491688013,0.0554724857211113,0.03957922011613846,0.05519678816199303,-0.004917989019304514,0.04638940468430519,-0.06548714637756348,0.08627527952194214,0.11512397974729538,-0.07355852425098419,0.011164117604494095,0.020939841866493225,0.03483624756336212,-0.009176179766654968,-0.03471214696764946,0.07635407149791718,-0.030767597258090973,0.0536973811686039,-0.15270401537418365,0.017182020470499992,0.07798383384943008,0.03088502399623394,-0.0503406822681427,-0.04595448821783066,0.004559209104627371,0.1293925791978836,0.012269644066691399,-0.007857664488255978,-0.051067449152469635,-0.041898034512996674,0.14469072222709656,0.09474553912878036,-5.86311289225705e-05,-0.006775008514523506,0.08604548126459122,0.04466329514980316,-0.04030684009194374,-0.01824328489601612,0.019100917503237724,-0.10264411568641663,-0.007832950912415981,0.05007290467619896,0.09811011701822281,-0.0005772476433776319,-0.02074899710714817,0.0007075469475239515,0.047353554517030716,0.019145941361784935,0.09562229365110397,0.0067341383546590805,0.01635936088860035,-0.05719655752182007,-0.05499153211712837,0.027094770222902298,0.019637515768408775,0.004810798447579145,0.08446277678012848,-0.026175562292337418,0.16523219645023346,-0.004373434465378523,0.05557331070303917,0.09493696689605713,0.0932280495762825,0.0029128852766007185,-0.011886855587363243,0.10416332632303238,-0.0035842990037053823,-0.01897752285003662,-0.042584873735904694,-0.060636915266513824,-0.010619432665407658,0.14537300169467926,0.02987307868897915,0.03027660772204399,-0.0011390576837584376,0.012462114915251732,0.06450822204351425,0.05645899102091789,-0.05187792703509331,-0.05599042773246765,-0.06606248766183853,0.034990787506103516,-0.04613158106803894,-0.05642637610435486,-0.014431079849600792,0.007959133945405483,0.013444319367408752,0.03377675637602806,0.035372037440538406,0.0966564491391182,0.0073127723298966885,-0.12099065631628036,0.05366869270801544,0.014700300991535187,-0.10008946806192398,-0.007806793320924044,-0.022853799164295197,0.07613667845726013,-0.03539023920893669,0.05233386904001236,0.04379839450120926,-0.027418531477451324,0.003921639174222946,0.02735946699976921,0.046002984046936035,0.06640580296516418,-0.08568525314331055,0.026794489473104477,-0.008407060988247395,0.11869511753320694,-0.09075326472520828,-0.060430191457271576,-0.03694570064544678,-0.018545063212513924,0.024543019011616707,0.013071860186755657,-0.04517475888133049,-0.04724404215812683,-0.010010281577706337,-0.0060606529004871845,0.031578533351421356,0.04135613515973091,0.009489945136010647,0.04042130336165428,-0.00011049151362385601,0.0026396724861115217,-0.046762410551309586,0.012194649316370487,-0.05859678238630295,0.007447048556059599,-0.03252730518579483,0.001674153027124703,0.10586483776569366,-0.03555711358785629,0.04561595246195793,-0.042741693556308746,-0.037305280566215515,-0.006090033799409866,0.14035150408744812,0.00567057216539979,0.039397355169057846,-0.02703464776277542,-0.01923319511115551,0.0538654625415802,-0.033928032964468,-0.037565089762210846,-0.09748219698667526,0.004643466789275408,0.07957404851913452,0.08969319611787796,0.019737325608730316,0.02287842147052288,0.07653854787349701,-0.004941473715007305,0.05985274910926819,-0.0678575336933136,-0.04171482101082802,-0.01562183815985918,-0.062701515853405,0.011957825161516666,-0.05914231762290001,-0.13009598851203918,-0.026536114513874054,0.05177120491862297,-0.007424077484756708,0.052246998995542526,0.1371569037437439,-0.015102706849575043,-0.009274017997086048,0.07863865047693253,-0.0011206987546756864,-0.06281408667564392,0.01919803023338318,0.1602822095155716,0.1366741806268692,-0.04911661520600319,-0.03487203270196915,-0.024600300937891006,0.02258463203907013,-0.02746199257671833,0.1098441556096077,0.03585872799158096,0.002378185046836734,-0.012344656512141228,-0.01428845152258873,0.1601279228925705,-0.008760270662605762,0.032602209597826004,0.014049259014427662,0.0018282989040017128,-0.008666541427373886,-0.13951784372329712,-0.11937554180622101,0.057840414345264435,-0.01669403910636902,0.02106884866952896,0.0572112500667572,0.03845858946442604,0.0601075179874897,-0.010453112423419952,-0.0486360564827919,-0.04036150872707367,-0.01976189762353897,-0.05805153027176857,-0.07836020737886429,0.03110313042998314,-0.015300784260034561,-0.0724216029047966,0.02736661210656166,0.08555926382541656,-0.052017178386449814,-0.014975090511143208,0.00025623186957091093,0.03237087279558182,0.003620066912844777,0.04188172519207001,0.01871631108224392,-0.04272497445344925,-0.13499952852725983
albanien,-0.010167156346142292,-0.005384634714573622,0.005134565755724907,-0.08457710593938828,0.006318012718111277,-0.0009093469707295299,0.10452745109796524,0.036449432373046875,0.009660296142101288,-0.02619371935725212,-0.04674094542860985,-0.09773458540439606,0.03303460404276848,0.07504316419363022,-0.0196126326918602,0.09079700708389282,-0.0026526350993663073,0.027748428285121918,-0.049983516335487366,0.04141857847571373,0.012598928064107895,-0.035092663019895554,0.08430074155330658,-0.0031355926766991615,-0.04710305109620094,0.07068108022212982,-0.05338483303785324,0.04729413613677025,-0.00942600890994072,0.01686246506869793,0.025158081203699112,0.04579808935523033,-0.06644795089960098,0.07469597458839417,-0.01908925734460354,0.027445312589406967,-0.08771922439336777,-0.1416008621454239,-0.09833524376153946,0.01839439943432808,-0.056021798402071,0.0948072224855423,-0.025129584595561028,0.02217104285955429,-0.04603689908981323,0.05642511695623398,0.016978934407234192,0.018728068098425865,0.04628710076212883,-0.052364423871040344,-0.008560465648770332,0.0032619826961308718,0.07017729431390762,0.0119496900588274,-0.04219597205519676,0.009619464166462421,-0.07910311222076416,-0.05122140422463417,-0.021613644436001778,-0.04215966910123825,0.047217946499586105,-0.03976945951581001,0.005613372661173344,0.035392653197050095,0.03697119653224945,0.026743723079562187,-0.03295288234949112,-0.0033034575171768665,0.0970720499753952,0.04691750183701515,0.07208418846130371,0.02020997926592827,0.03828006982803345,-0.0422070287168026,0.026388151571154594,0.015607020817697048,-0.089244544506073,0.1056172102689743,0.03921874240040779,-0.09376201778650284,0.10700425505638123,-0.027421297505497932,-0.01463263388723135,-0.07899641990661621,0.01098930835723877,0.10184019058942795,-0.03473501652479172,0.0920988991856575,0.09788225591182709,0.037873275578022,0.005047943443059921,0.006298072636127472,0.021004341542720795,-0.01589975692331791,-0.015901939943432808,0.0035056681372225285,0.08015751093626022,-0.04450269415974617,-0.052325114607810974,-0.017136581242084503,0.061159394681453705,-0.045531466603279114,0.03200202062726021,0.020635174587368965,0.08654787391424179,-0.07896271347999573,0.11819279193878174,0.0519903339445591,-0.039247747510671616,0.0554530993103981,0.023019112646579742,0.008009176701307297,0.044403936713933945,0.04638594761490822,0.008532212115824223,0.011196636594831944,-0.022007707506418228,-0.1179199069738388,-0.009457563050091267,-0.012958388775587082,-0.08887818455696106,0.011645317077636719,0.047147247940301895,-0.03078063577413559,0.015233771875500679,0.11676977574825287,-0.013111555948853493,0.08877503871917725,0.057199809700250626,0.11944325268268585,0.20524418354034424,-0.0009736568899825215,-0.029891856014728546,-0.013634764589369297,-0.04559343680739403,0.036501917988061905,-0.07227371633052826,0.028919115662574768,0.06727717071771622,0.05642322823405266,0.014997776597738266,-0.04886399954557419,0.052782054990530014,-0.08966560661792755,-0.005929355043917894,-0.009265796281397343,-0.05919142812490463,0.0005725540104322135,0.018625963479280472,0.03956989943981171,0.026179088279604912,-0.0379728227853775,0.0275920070707798,0.07861081510782242,0.008413881994783878,0.04532653093338013,-0.044800736010074615,-0.04958656430244446,-0.020306440070271492,-0.020807527005672455,-0.029445568099617958,0.0756637454032898,-0.013231292366981506,-0.12402348220348358,-0.082298643887043,-0.02496500127017498,0.12848423421382904,-0.06540531665086746,-0.046321265399456024,-0.023597270250320435,0.1297435164451599,0.005235095974057913,-0.07487872242927551,-0.03509363532066345,-0.012040436267852783,-0.010172209702432156,-0.11306629329919815,-0.0580780990421772,0.11776837706565857,0.029292674735188484,0.029801802709698677,-0.03664436191320419,-0.019111519679427147,0.0870414599776268,-0.018501125276088715,-0.01556948572397232,-0.09833332896232605,-0.04942433908581734,-0.04610380157828331,-0.02848026342689991,0.08435873687267303,0.04562979191541672,0.022765975445508957,0.06894797831773758,0.019359750673174858,-0.02700054831802845,-0.007373838685452938,-0.07700397074222565,0.020307404920458794,-0.0006698301294818521,-0.06839248538017273,0.0923176258802414,0.10257931053638458,0.0013894326984882355,-0.0294740479439497,-0.0016276813112199306,-0.01941841095685959,-0.09214179217815399,-0.08337326347827911,-0.06867318600416183,-0.021955721080303192,0.002787239383906126,-0.03706628084182739,0.023314250633120537,-0.11747001111507416,0.1556081622838974,-0.013036664575338364,-0.005046498030424118,-0.07891973108053207,0.04669896513223648,0.016237424686551094,-0.024560561403632164,-0.046521469950675964,-0.08491671085357666,-0.019807787612080574,-0.1354566365480423,0.026908041909337044,0.001369502511806786,-0.03268706426024437,0.06677249073982239,-0.00019364496984053403,0.1075991690158844,-0.007476369850337505,-0.012031075544655323,-0.011699968948960304,-0.0731690526008606,0.07932794839143753,0.03918817639350891,0.02843458577990532,0.020405711606144905,0.09200727194547653,0.06394936144351959,-0.06763803213834763,0.025586845353245735,-0.03643547743558884,0.06451492011547089,0.020980127155780792,0.06977022439241409,0.09960698336362839,0.021532759070396423,0.05254531651735306,0.034764401614665985,0.08040910959243774,0.08801431953907013,0.05442860350012779,0.07608353346586227,0.09408978372812271,-0.0020968930330127478,-0.07242438942193985,-0.08368716388940811,-0.07395928353071213,0.07152363657951355,-0.1018984392285347,-0.060641564428806305,-0.07633758336305618,0.017665278166532516,0.025214189663529396,0.01317018922418356,0.023424217477440834,0.005078608635812998,0.04826854169368744,-0.0057837157510221004,-0.06323076039552689,0.030812373384833336,0.005849041976034641,-0.025989292189478874,-0.019925467669963837,0.0500374473631382,-0.05244871973991394,-0.059160202741622925,-0.08138436824083328,0.017748618498444557,-0.06315314024686813,0.017385520040988922,0.05975126475095749,-0.006300594657659531,-0.046875521540641785,0.02236703597009182,-0.07058019936084747,0.050359029322862625,0.11083539575338364,0.021817505359649658,-0.010248109698295593,0.00336979771964252,-0.024352293461561203,0.03536535054445267,-0.04771236330270767,0.007163622882217169,0.09144715219736099,-0.0673549547791481
algerien,0.012677859514951706,0.034798189997673035,0.04677513614296913,-0.03672526404261589,0.053430188447237015,0.00104645942337811,0.07444959133863449,-0.02109580673277378,0.055501461029052734,-0.017698751762509346,-0.005250104703009129,-0.041340310126543045,0.041852355003356934,0.015311198309063911,0.11670293658971786,0.01213775109499693,-0.06876654177904129,0.0984855592250824,-0.08545389026403427,-0.0035659291315823793,-0.07773462682962418,-0.03859525918960571,-0.02836637943983078,-0.05023300275206566,-0.032036952674388885,-0.00748373894020915,-0.05513281002640724,-0.04253947734832764,0.052010901272296906,-0.019316578283905983,0.05469724163413048,-0.01675087958574295,-0.0663703978061676,-0.03039727546274662,0.09602680802345276,0.10401767492294312,-0.05205157771706581,-0.05836852639913559,-0.017801586538553238,-0.0034953781869262457,0.09693729877471924,0.11042340844869614,-0.04561512544751167,-0.08471754938364029,0.03879822790622711,-0.06875792890787125,-0.015698986127972603,-0.07161089777946472,0.03180285543203354,0.10088568925857544,-0.03664349392056465,-0.0023836023174226284,-0.062232449650764465,0.0729178711771965,0.0011430475860834122,0.08872166275978088,-0.03395276516675949,0.03430594131350517,0.03168509155511856,0.00799058098345995,-0.012082571163773537,-0.13059495389461517,-0.019390376284718513,0.08655396103858948,0.03575121983885765,0.057579755783081055,-0.09105788171291351,-0.04855997860431671,0.05521119013428688,0.010538698174059391,0.06675907969474792,0.000975737115368247,0.08062221109867096,-0.0003659081121440977,0.011746268719434738,-0.03319447487592697,-0.0699569508433342,0.0002711965353228152,0.04150206968188286,-0.024944381788372993,0.1258963644504547,-0.026220260187983513,0.014874669723212719,-0.004250339698046446,0.0031812882516533136,0.017732052132487297,0.04815596714615822,-0.056660715490579605,0.048395268619060516,0.08282987773418427,-0.021680770441889763,0.09678372740745544,0.008157271891832352,-0.034408971667289734,-0.0416254922747612,0.06921464949846268,0.01591508463025093,-0.06987079232931137,0.10160965472459793,-0.035708192735910416,0.08404858410358429,0.034867942333221436,-0.01712273433804512,0.014855469577014446,0.035564929246902466,-0.08615458011627197,0.06775729358196259,0.10631933063268661,-0.04923104867339134,-0.003334496170282364,-0.05008396506309509,-0.10422731935977936,0.01510083582252264,0.06083741784095764,0.06432890892028809,-0.006794876419007778,-0.016092386096715927,-0.02844923920929432,0.0588747002184391,-0.03956342861056328,-0.07151801139116287,-0.06407895684242249,0.03297378495335579,-0.02559363842010498,0.0386495441198349,-0.11656329780817032,-0.028231171891093254,0.021876679733395576,-0.08299221098423004,0.07560232281684875,0.027134904637932777,-0.051697149872779846,-0.055523648858070374,-0.1278279423713684,-0.05396736413240433,0.06326209753751755,-0.05191681906580925,0.11686662584543228,-0.03834640979766846,0.07853177189826965,-0.08016259968280792,-0.028402917087078094,0.04532414674758911,0.12597012519836426,-0.02950730361044407,-0.04741625860333443,0.05681141838431358,-0.08224408328533173,-0.0070699844509363174,-0.038605619221925735,-0.11820340901613235,-0.01437787339091301,0.17256776988506317,-0.018206195905804634,0.031053990125656128,-0.0514334961771965,-0.0344850979745388,0.05753760784864426,0.03595191612839699,-0.11656729876995087,-0.033778201788663864,0.011290457099676132,0.09609011560678482,-0.055019546300172806,-0.13741540908813477,-0.026521729305386543,0.054188940674066544,-0.0451679565012455,0.022921541705727577,0.001160269952379167,-0.06545757502317429,0.07438897341489792,0.02762502245604992,-0.0424862876534462,-0.07432902604341507,-0.11027976870536804,-0.10942244529724121,-0.11051800847053528,0.08902045339345932,0.07494393736124039,-0.04146431013941765,0.006608808413147926,0.0018577901646494865,0.08476920425891876,-0.03223094716668129,-0.07124988734722137,0.04775170236825943,-0.09864098578691483,0.027101319283246994,-0.11712699383497238,0.0330907478928566,-0.005816515535116196,-0.06710833311080933,0.010069381445646286,-0.03219011053442955,-0.009724880568683147,0.03565092384815216,-0.036655958741903305,0.018322361633181572,-0.025422999635338783,-0.003312812652438879,0.03269801661372185,0.08184131979942322,0.010139607824385166,0.05546322092413902,0.06852401047945023,0.016739359125494957,-0.06874572485685349,-0.009106581099331379,0.02140624448657036,-0.008584708906710148,0.0026671243831515312,-0.017740875482559204,-0.013158757239580154,-0.09967871010303497,0.0920606181025505,-0.026547720655798912,-0.007865353487432003,-0.019870860502123833,0.1071443110704422,-0.007799698505550623,0.020586539059877396,0.07605856657028198,-0.014344274066388607,0.04814084991812706,-0.010913772508502007,0.07058937102556229,-0.03702883422374725,0.06308342516422272,0.010503644123673439,0.05617774650454521,0.02313234657049179,-0.008013466373085976,0.11737444996833801,-0.009342238306999207,-0.02711673639714718,-0.006925828289240599,0.020963434129953384,-0.08228857070207596,-0.04317574203014374,-0.003599839750677347,-0.058938346803188324,-0.04369807988405228,0.0021570788230746984,0.009338291361927986,0.016832226887345314,-0.04313650727272034,0.05958263948559761,-0.006884378846734762,0.015032217837870121,0.14833009243011475,0.000703607511240989,0.021530667319893837,0.051964420825242996,0.07167667150497437,0.07674359530210495,0.07036418467760086,0.044955864548683167,0.01919485256075859,0.010740519501268864,0.03850499913096428,0.05016523227095604,0.05510751157999039,-0.052350666373968124,-0.027171194553375244,0.04982023686170578,0.02557898499071598,0.048062268644571304,0.049458544701337814,0.03533283621072769,-0.003779739374294877,0.023386599496006966,0.002345265820622444,0.014469324611127377,0.0818428322672844,-0.008546613156795502,0.026075195521116257,0.05920425057411194,0.026584165170788765,0.04882190749049187,-0.015387228690087795,0.08745379000902176,0.09087970107793808,0.09818152338266373,0.03486396372318268,0.009632584638893604,0.020984217524528503,-0.03434034809470177,0.005677192937582731,0.061121389269828796,0.1454649716615677,-0.07570914179086685,0.031415052711963654,-0.042398158460855484,0.009628613479435444,0.009887025691568851,-0.03800520300865173,0.009830235503613949,-0.02274133451282978,0.08902391791343689
angola,0.05575013533234596,0.0034298645332455635,0.051059428602457047,-0.05787099897861481,0.029680754989385605,-0.03791295737028122,0.0352545790374279,0.021102482452988625,0.0002803673269227147,-0.01999483071267605,0.005593768786638975,0.017585277557373047,0.0019651316106319427,-0.05232194811105728,0.07845783233642578,0.010987922549247742,-0.012600473128259182,-0.038857895880937576,-0.027222217991948128,0.009938288480043411,0.005586355458945036,-0.01960570551455021,0.04474511370062828,-0.027724308893084526,-0.07871420681476593,-0.09974385797977448,-0.05058953911066055,0.004389326088130474,0.014714762568473816,-0.088982492685318,-0.004082781262695789,0.09665494412183762,0.09732772409915924,0.03336673974990845,0.014594308100640774,0.06772873550653458,-0.04113788157701492,-0.09615451097488403,0.19447068870067596,-0.029818428680300713,0.013303196057677269,0.110455721616745,-0.05751973018050194,-0.026743276044726372,0.0759822353720665,-0.029062695801258087,-0.034697987139225006,0.05987069383263588,0.015843966975808144,-0.011756468564271927,-0.055598001927137375,0.04011927917599678,0.006755512673407793,-0.07568869739770889,0.023326793685555458,-0.002951371483504772,-0.08831333369016647,0.07620343565940857,-0.008973250165581703,0.08068141341209412,0.054301902651786804,-0.03072422742843628,-0.08826944231987,0.03088032267987728,0.05481630191206932,0.013026395812630653,0.0503690205514431,0.0018375167855992913,0.024853823706507683,0.04011084511876106,-0.03942832350730896,-0.035101015120744705,0.011087154038250446,0.049341510981321335,-0.019828254356980324,0.01135935541242361,-0.06991749256849289,0.05865608900785446,0.013556580059230328,-0.13391458988189697,0.015172197483479977,0.04677033796906471,-0.024096013978123665,-0.0837768092751503,-0.018297625705599785,0.04808235168457031,0.029867323115468025,-0.04409340023994446,0.08846548944711685,0.0595378652215004,0.02587708830833435,-0.03832143545150757,-0.06427430361509323,0.0008628082578070462,-0.05275045335292816,0.013073538430035114,-0.035746604204177856,-0.024133024737238884,0.045716796070337296,-0.04126981273293495,0.06897515058517456,-0.02516375668346882,0.12012831121683121,0.09911064058542252,-0.006211817264556885,0.012554430402815342,0.04859159141778946,0.01611977070569992,-0.032229140400886536,-0.05924201011657715,0.06976847350597382,0.024571586400270462,0.02938655950129032,0.0853518545627594,-0.0494166761636734,0.00915042869746685,0.0738118588924408,-0.062188826501369476,-0.0326702781021595,0.02032749354839325,-0.04055656120181084,0.03639598935842514,0.11526640504598618,0.0491270013153553,0.08965962380170822,-0.010920172557234764,0.04488823562860489,-0.05893043801188469,0.030686480924487114,0.08228996396064758,0.007309337146580219,0.07130982726812363,0.01828894205391407,-0.08696094155311584,-0.014382648281753063,0.06773331016302109,-0.004628930706530809,-0.029506802558898926,0.05997713655233383,0.13407742977142334,0.03566669672727585,-0.041325975209474564,0.06974224746227264,0.022168271243572235,0.027795882895588875,-0.09613796323537827,0.09048176556825638,-0.010327966883778572,-0.030379923060536385,-0.04400915652513504,0.13267719745635986,0.018494129180908203,0.04398597776889801,0.12693560123443604,0.04976977780461311,-0.027242878451943398,0.0903826430439949,0.03431488573551178,-0.03037828765809536,0.028016764670610428,-0.022290509194135666,-0.06449289619922638,0.051487624645233154,0.006191423162817955,-0.0007284384919330478,-0.05501919612288475,0.007062656804919243,-0.017402779310941696,-0.0007164361304603517,0.04799975827336311,0.05274663865566254,0.04216505587100983,-0.028720108792185783,0.05275251716375351,-0.0032790314871817827,-0.05419878289103508,-0.03664851561188698,-0.029487214982509613,0.1367272287607193,-0.0068420544266700745,0.006666714791208506,-0.00961095467209816,0.03032667748630047,0.08082757145166397,-0.013565685600042343,-0.0015442592557519674,0.12345509976148605,-0.012502557598054409,-0.02997180074453354,0.04139207676053047,-0.008196428418159485,-0.0033982624299824238,-0.05093139782547951,-0.09974800050258636,-0.008134592324495316,0.05726177617907524,-0.014727737754583359,0.06823689490556717,0.0033570323139429092,0.018337173387408257,-0.053051646798849106,-0.011156649328768253,0.03476407378911972,-0.09794241935014725,0.047872912138700485,0.04030456766486168,0.10112623870372772,-0.05068838596343994,-0.01354152336716652,-0.0682944655418396,0.023955542594194412,-0.05168456211686134,-0.03675589710474014,0.09669734537601471,-0.014735566452145576,0.07302575558423996,-0.0741255059838295,-0.05557475611567497,-0.01201564073562622,0.004960224498063326,-0.04193057492375374,-0.013160863891243935,-0.028511634096503258,-0.09633791446685791,0.09645982086658478,-0.1517418920993805,0.029786551371216774,-0.08370795100927353,-0.012808107770979404,0.041011709719896317,0.025958282873034477,0.10970097780227661,0.05058467760682106,0.05278453603386879,0.08560337871313095,0.030436798930168152,0.014351018704473972,-0.04557459428906441,-0.008360716514289379,0.06310538947582245,0.04126173257827759,-0.010673998855054379,-0.023824119940400124,-0.07522552460432053,0.09622730314731598,0.039732810109853745,0.014189002104103565,0.061057355254888535,0.06789273768663406,0.06388537585735321,0.12660540640354156,-0.04662550240755081,0.02883659116923809,0.06837662309408188,0.1389140486717224,0.10348393768072128,-0.09217693656682968,-0.026194600388407707,-0.0647980347275734,0.0324246808886528,-0.01701243221759796,0.04716508090496063,-0.06309951841831207,-0.024560803547501564,-0.012126543559134007,0.047276198863983154,0.12334910780191422,0.010802487842738628,0.04219212755560875,0.06882280111312866,-0.019574351608753204,0.020820846781134605,-0.010222824290394783,-0.10382050275802612,0.026295658200979233,-0.09906279295682907,-0.046916358172893524,-0.031908124685287476,0.07226014137268066,-0.012354419566690922,-0.009203475899994373,-0.005662808660417795,-0.014244426041841507,0.052959468215703964,0.0009196842438541353,-0.10646762698888779,0.04458003491163254,-0.019420241937041283,-0.1813318133354187,-0.023650091141462326,0.07209944725036621,-0.11932329833507538,-0.008306658826768398,0.028267988935112953,-0.010883910581469536,-0.02754073590040207,-0.056562621146440506,0.000890502764377743,-0.08468570560216904,-0.07843636721372604
argentinien,0.005541105289012194,0.007932174019515514,0.07027117908000946,-0.08491797000169754,-0.0037048514932394028,-0.08552616834640503,0.022383272647857666,0.04793570563197136,0.04660617560148239,0.026114534586668015,0.11194538325071335,-0.02382984384894371,-0.060145653784275055,-0.032928697764873505,-0.009846818633377552,0.05381046608090401,-0.03874414414167404,0.01851797290146351,0.043985117226839066,0.03642047196626663,0.012140758335590363,-0.003785232314839959,0.004941930063068867,-0.019927332177758217,-0.046800125390291214,0.08811701089143753,-0.07783135771751404,0.017670804634690285,0.12229286879301071,-0.0912809818983078,0.030611397698521614,-0.05018705874681473,0.04117114469408989,-0.04151434078812599,-0.0613204650580883,0.03539898246526718,-0.11914155632257462,-0.08597801625728607,0.03352821245789528,-0.027317794039845467,-0.07324608415365219,0.02921503409743309,-0.05032823607325554,-0.06177840754389763,0.02632281184196472,-0.07063744962215424,-0.1278996765613556,1.9431601685937494e-05,0.01927625946700573,-0.09161287546157837,0.02391613833606243,-0.011281829327344894,0.0649711862206459,0.10256976634263992,0.01473439484834671,0.08209358155727386,-0.025668222457170486,0.011463052593171597,-0.004511503502726555,0.0707039162516594,0.029624570161104202,0.024759501218795776,-0.05368490144610405,0.08031583577394485,0.006471826229244471,0.04342503100633621,-0.007788923103362322,-0.05382933467626572,-0.11364682018756866,0.06632083654403687,0.026700902730226517,0.01158623956143856,0.038940999656915665,-0.015373763628304005,0.03225580230355263,0.03433368355035782,0.080604188144207,-0.04700182378292084,0.023578666150569916,-0.18249283730983734,0.11546038091182709,0.007515764329582453,-0.1253400295972824,-0.08361371606588364,-0.06601651757955551,0.018276145681738853,0.004229843616485596,0.03261948376893997,-0.012324200011789799,0.006116893608123064,0.0029347713571041822,-0.020881546661257744,-0.08735869079828262,-0.10206600278615952,0.0020780761260539293,0.03917556628584862,0.014918702654540539,-0.020938070490956306,0.023727767169475555,-0.012040818110108376,0.07250020653009415,0.00022428386728279293,0.04859325662255287,0.0498916320502758,0.005978400819003582,-0.08589101582765579,0.04313012957572937,0.05503900349140167,-0.057089801877737045,0.046861905604600906,0.02684308961033821,-0.003346673445776105,0.13644546270370483,0.0021714214235544205,-0.06620205193758011,0.13037094473838806,-0.0558149553835392,0.012865479104220867,-0.02052266336977482,-0.07518928498029709,-0.08279827237129211,-0.04299204796552658,0.10958974063396454,0.02103623002767563,0.00688666058704257,-0.003285718150436878,-0.03842691704630852,0.03096305951476097,-0.0034394124522805214,0.040214214473962784,0.017848171293735504,0.02694334089756012,-0.0252695195376873,-0.05820184573531151,-0.06508418917655945,0.07733037322759628,-0.04814818501472473,0.03024202398955822,-0.03527776524424553,0.0463772676885128,0.009437501430511475,0.00014527478197123855,0.11946981400251389,0.03356471285223961,-0.009581207297742367,-0.04242762178182602,0.04188389703631401,0.023586038500070572,-0.007070275489240885,-0.05845879018306732,0.009893286041915417,0.036875318735837936,0.014797739684581757,0.017342349514365196,0.04107097163796425,-0.02758440189063549,-0.06667777895927429,0.07383596152067184,0.07348928600549698,-0.0983630046248436,0.043323930352926254,-0.08725330233573914,-0.09672994911670685,0.04704953730106354,-0.056695904582738876,0.11417360603809357,0.0917285680770874,-0.048774585127830505,0.023031041026115417,0.031011277809739113,0.062284719198942184,-0.0705270916223526,-0.05172335356473923,-0.01720350980758667,-0.06642579287290573,-0.10978292673826218,0.015006059780716896,-0.06633320450782776,-0.017401279881596565,-0.014063864946365356,0.003432582365348935,-0.052218835800886154,-0.022644074633717537,-0.0563405305147171,-0.05917709693312645,0.014818421564996243,0.05530528724193573,-0.08137673139572144,0.01358841173350811,-0.05629532411694527,0.043436143547296524,-0.04688447713851929,-0.16397716104984283,-0.06766870617866516,-0.03827821463346481,0.0294212456792593,0.011737056076526642,-0.006021600682288408,-0.06595001369714737,-0.07051973044872284,-0.04888300597667694,-0.0218624509871006,-0.026557249948382378,0.08551272749900818,0.07375036180019379,0.033058613538742065,0.1357336789369583,-0.05744318291544914,-0.04148004576563835,-0.10383562743663788,0.012008609250187874,-0.01839365065097809,0.05673234164714813,0.035976607352495193,-0.0484306700527668,0.06749517470598221,-0.004311141557991505,-0.04216884821653366,0.0051912120543420315,0.0525723434984684,0.011254332959651947,0.06964123249053955,-0.002347540808841586,0.007921302691102028,0.10913893580436707,-0.07282794266939163,0.04719434306025505,0.03802832216024399,-0.024717116728425026,0.03237275779247284,0.010485969483852386,0.061829593032598495,0.05895192548632622,0.01995093934237957,-0.01593533344566822,0.020830603316426277,-0.04575050622224808,0.0394291914999485,0.032117296010255814,-0.09176468104124069,0.02179078571498394,-0.03773865848779678,0.006085664499551058,0.003996746614575386,0.0990799218416214,0.0029728361405432224,0.028091013431549072,0.07291151583194733,-0.030179167166352272,-0.019431186839938164,0.0897284671664238,-0.015542295761406422,-0.0546521320939064,0.03005526214838028,0.15386539697647095,0.11629478633403778,-0.02260487712919712,0.03462729975581169,-0.043700579553842545,-0.13944388926029205,0.04128826782107353,0.0553499199450016,0.07284621894359589,-0.01779509149491787,0.07320541888475418,-0.039501070976257324,-0.03393479809165001,0.10452347248792648,0.06939272582530975,0.042106084525585175,0.005882115103304386,0.061063531786203384,0.047661613672971725,0.05321016535162926,0.14026503264904022,-0.1138656958937645,0.030111394822597504,0.014826180413365364,0.06912920624017715,0.02050017938017845,-0.04585476964712143,0.03371552377939224,0.005833372473716736,0.011837752535939217,0.07707738131284714,0.03640054538846016,-0.022259579971432686,0.06301937252283096,-0.05373824015259743,-0.01749030500650406,0.05861843377351761,-0.07671575993299484,0.006137425545603037,-0.040604718029499054,-0.03835071623325348,0.033832136541604996,0.01518635731190443,0.02052328735589981,-0.031578369438648224,-0.016290370374917984
armenien,0.006787598133087158,0.00470403116196394,0.08922595530748367,-0.09153126925230026,0.06617851555347443,-0.028301222249865532,0.11827842891216278,0.024480311200022697,-0.01780371181666851,0.03752453625202179,-0.026565788313746452,-0.045150384306907654,-0.06061257794499397,-0.04756533354520798,-0.007028310559689999,0.01133952010422945,-0.09288675338029861,0.04922015964984894,0.0024191599804908037,0.10214082896709442,0.015685509890317917,0.10457275807857513,0.043294910341501236,0.025262942537665367,0.0005197675200179219,0.014196385629475117,-0.06512335687875748,0.012224361300468445,0.013795843347907066,0.01307542622089386,-0.0066435206681489944,-0.08472094684839249,0.004242992028594017,-0.005086050368845463,-0.023383332416415215,0.07698635011911392,-0.0037402883172035217,-0.06764893978834152,0.08480773866176605,0.004945784341543913,-0.033339619636535645,0.10794447362422943,-0.04470352083444595,-0.015413206070661545,-0.04013070836663246,0.07621514797210693,0.016070540994405746,0.09582358598709106,0.02698799967765808,-0.029334334656596184,-0.10596009343862534,0.020138392224907875,0.011183025315403938,0.057959217578172684,-0.002681142883375287,-0.07130861282348633,-0.025977998971939087,-0.00789598561823368,-0.002680549630895257,0.05687378719449043,0.030177192762494087,-0.008630475029349327,-0.09052708745002747,0.12783312797546387,0.06463132798671722,-0.045254070311784744,0.11438915133476257,-0.12039335817098618,0.06886328756809235,-0.03494885936379433,0.06011517345905304,0.012941480614244938,0.0013435403816401958,-0.01871427893638611,-0.040772270411252975,-0.0025924842339009047,0.007261211052536964,0.11618321388959885,-0.008433124050498009,-0.08650423586368561,0.19297745823860168,-0.008581871166825294,-0.04197455197572708,0.0007256771204993129,0.023697303608059883,0.036246977746486664,0.03995859995484352,-0.11484028398990631,-0.03734626621007919,0.06167421117424965,0.03317193314433098,-0.07577955722808838,-0.018403273075819016,0.009732273407280445,-0.02571263164281845,-0.019199466332793236,0.005655121058225632,-0.09835728257894516,0.029143953695893288,-0.05054158344864845,0.08556747436523438,0.026956753805279732,-0.02459285967051983,0.019206972792744637,-0.056440867483615875,-0.05769368261098862,0.1642741560935974,-0.03277968242764473,-0.01923101581633091,0.009047611616551876,0.09002888202667236,0.12001485377550125,0.05576286092400551,0.02166377753019333,-0.03401528671383858,0.07389053702354431,0.022162586450576782,-0.003090205602347851,0.03384186699986458,0.09017404913902283,-0.07260201871395111,-0.05237877368927002,0.05076952651143074,0.05201965942978859,0.08420660346746445,0.030330490320920944,0.026318827643990517,0.07145577669143677,-0.047901663929224014,0.15538273751735687,0.06583896279335022,-0.018651284277439117,-0.038622234016656876,0.014518039301037788,0.03298633545637131,-0.0037446999922394753,-0.08590416610240936,0.06665647774934769,0.032571375370025635,0.08132698386907578,0.02853374555706978,0.0604681521654129,0.08293802291154861,0.08474409580230713,0.06754761934280396,-0.04735058173537254,-0.054908387362957,0.031775034964084625,0.0016739642014726996,-0.04420926049351692,0.03278448060154915,-0.0666385367512703,0.07178333401679993,0.052358757704496384,-0.022787056863307953,-0.03897913545370102,0.008403966203331947,-0.04304976761341095,-0.013914310373365879,0.02992483228445053,-0.15229229629039764,0.0046654753386974335,-0.0415281318128109,-0.013487543910741806,-0.13253359496593475,-0.01870054006576538,0.07602094113826752,-0.027866868302226067,0.1127169132232666,0.019562257453799248,0.05453646928071976,0.028691673651337624,-0.10394427180290222,-0.02743346430361271,0.021700464189052582,-0.07432232797145844,-0.012314812280237675,-0.04829011484980583,0.10417298972606659,0.041019927710294724,-0.03464892879128456,-0.03629577159881592,0.02733338065445423,0.045144546777009964,0.0035561956465244293,-0.03775925934314728,0.012309075333178043,-0.011320059187710285,0.007496620994061232,0.03774675726890564,1.4697478036396205e-05,-0.04505503550171852,-0.09808249026536942,-0.007256566546857357,-0.03668658435344696,0.06163783743977547,0.004822487011551857,-0.012797932140529156,-0.0005955855594947934,0.010229965671896935,-0.031599465757608414,0.05085070803761482,0.08462391793727875,0.035953376442193985,0.04183525964617729,0.009999356232583523,0.06120506301522255,0.002954664174467325,-0.02993026375770569,-0.09234047681093216,0.016470864415168762,-0.010430017486214638,0.045236729085445404,0.11214806139469147,-0.051844432950019836,0.0373794361948967,-0.008727685548365116,-0.020429393276572227,0.025267459452152252,0.044852741062641144,0.06495819985866547,-0.01802988536655903,0.01093335822224617,-0.027220575138926506,0.03983136638998985,-0.08696674555540085,0.06201741099357605,-0.021348249167203903,-0.012272949330508709,0.017399229109287262,0.032560236752033234,0.0982760414481163,-0.03875263035297394,0.05461546778678894,-0.09971906989812851,0.061008404940366745,0.0074918209575116634,0.020198998972773552,0.02947963774204254,0.04681432247161865,0.06677911430597305,0.06336748600006104,-0.11872977018356323,-0.015926651656627655,0.0818781927227974,-0.032879337668418884,0.05553564429283142,0.0828411877155304,0.06881040334701538,0.07297173142433167,0.098729208111763,0.04975917562842369,0.11088839173316956,0.006376510486006737,0.032178450375795364,0.11301484704017639,-0.015921924263238907,0.05429616570472717,-0.01058589480817318,0.034247882664203644,-0.018297871574759483,0.011335828341543674,0.01119829248636961,0.032090187072753906,-0.0005022395635023713,0.08378106355667114,0.016439171507954597,0.10318385809659958,-0.007514472119510174,-0.026324966922402382,0.01045901607722044,0.07290606200695038,0.03266701102256775,-0.04321727901697159,0.07389809936285019,-0.06257861107587814,-0.09079239517450333,0.015756266191601753,0.08078016340732574,0.02795899473130703,-0.14140410721302032,-0.02725723199546337,0.0002028121962212026,0.0815630853176117,-0.07215180993080139,-0.011386886239051819,0.03626612201333046,-0.012589664198458195,-0.026202522218227386,-0.0008473795605823398,0.029649274423718452,-0.09122724086046219,-0.030454786494374275,-0.009436847642064095,-0.04846978187561035,-0.04882209375500679,-0.061791568994522095,0.10739507526159286,0.004234510939568281,-0.017887402325868607
aserbaidschan,0.02765900455415249,0.023939790204167366,0.10596811026334763,-0.06343305110931396,0.07996475696563721,-0.07264057546854019,0.08931923657655716,0.07293028384447098,-0.09786362200975418,-0.003975235391408205,-0.022986585274338722,-0.09447652846574783,-0.07807057350873947,-0.0735863596200943,-0.03188121318817139,-0.010081392712891102,-0.0741170197725296,0.008171048946678638,-0.0027319854125380516,0.07618239521980286,0.03744309023022652,0.07177914679050446,0.05579109862446785,0.07204824686050415,-0.026508204638957977,0.0010949143907055259,-0.07692772895097733,-0.06004978343844414,-0.0034784474410116673,-0.030254274606704712,0.024575555697083473,-0.00946264248341322,0.07553208619356155,0.008498972281813622,-0.04373040050268173,0.030818721279501915,-0.005377483554184437,-0.08075421303510666,0.06464960426092148,-0.005948637146502733,-0.011194728314876556,0.04917097091674805,-0.07214050740003586,-0.021909160539507866,-0.019741777330636978,0.03510911017656326,-0.04746567830443382,0.11974108219146729,0.02772936038672924,-0.05099951848387718,-0.10689879953861237,0.051983315497636795,0.04284069687128067,0.06072947755455971,0.031037406995892525,-0.02088884450495243,-0.0902470052242279,-0.009214473888278008,0.02317974716424942,0.027993593364953995,0.04967798665165901,-0.003732371376827359,-0.11505026370286942,0.07372568547725677,0.09296944737434387,-0.023981958627700806,0.0638359859585762,-0.039011526852846146,0.0894508957862854,-0.03548033535480499,0.07509137690067291,-0.016529930755496025,0.005139494780451059,-0.0009988287929445505,-0.03935431316494942,0.03506605699658394,-0.013045568019151688,0.11566956341266632,0.02462189272046089,-0.026354774832725525,0.20212502777576447,-0.016141841188073158,-0.02816629596054554,-0.08515217900276184,0.01592034101486206,0.08912191540002823,-0.017989972606301308,-0.036927226930856705,0.009110934101045132,0.0201403871178627,-0.04261813685297966,-0.12248459458351135,-0.005775421857833862,-0.010737527161836624,-0.030866598710417747,-0.029941808432340622,0.013640455901622772,-0.1398283988237381,0.014608687721192837,-0.03780772164463997,0.04338957369327545,-0.013590439222753048,-0.06370680034160614,-0.014060062356293201,-0.06783647835254669,-0.04869149997830391,0.18043269217014313,-0.03064076229929924,-0.09973479807376862,0.010604530572891235,0.10862965136766434,0.12306869029998779,0.041015200316905975,-0.02441294677555561,-0.010812549851834774,0.051414333283901215,0.01708967611193657,0.006703147664666176,-0.0442834198474884,0.08346445858478546,-0.03768312931060791,-0.011999945156276226,0.00017837736231740564,0.06726951152086258,0.05110494792461395,-0.0020906180143356323,0.034796033054590225,0.0388113372027874,0.0005137353437021375,0.10614804178476334,0.03142343461513519,-0.06685133278369904,-0.05639951676130295,0.020000746473670006,-0.0312587209045887,-0.02090751938521862,-0.04283775016665459,0.05073529854416847,0.0879632756114006,0.10721603035926819,0.07580875605344772,0.08427441120147705,0.08791710436344147,0.052078451961278915,0.07184294611215591,-0.034509893506765366,-0.07123817503452301,0.09353138506412506,0.04611401632428169,-0.03702225908637047,0.06783667206764221,-0.08247817307710648,0.03698889911174774,-0.04660212993621826,-0.028107790276408195,-0.0652201846241951,0.05375177785754204,-0.043606217950582504,0.010543211363255978,-0.06192626804113388,-0.06226886436343193,0.03518657013773918,-0.09708121418952942,-0.001018479117192328,-0.0478818453848362,-0.0032823754008859396,0.065020352602005,-0.061667975038290024,0.05993440002202988,-0.0013218109961599112,-0.03368481248617172,0.029207857325673103,-0.06267917901277542,-0.06551317125558853,-0.047604385763406754,-0.045412953943014145,-0.006475470028817654,-0.05306750535964966,0.05993520841002464,0.052250854671001434,0.006982327904552221,-0.06266549974679947,-0.004877797327935696,-0.023112518712878227,0.011102055199444294,-0.03812462463974953,0.055790018290281296,-0.0207268875092268,0.02642468549311161,0.03417676314711571,0.025664864107966423,-0.05460268631577492,-0.08058355003595352,-0.0015767685836181045,-0.011713501065969467,0.07938141375780106,-0.02330915816128254,-0.009737318381667137,-0.031221572309732437,-0.03073963336646557,-0.005784011445939541,-0.010660085827112198,0.03832568600773811,-0.007483344990760088,0.0008856856147758663,0.0474020279943943,0.06468524783849716,0.02907002530992031,-0.006543907802551985,-0.0864754319190979,0.07381503283977509,-0.001811533235013485,0.05298367887735367,-0.025126943364739418,0.005357600282877684,0.09397736191749573,-0.003412970108911395,-0.05749191343784332,-0.021254729479551315,0.04170292988419533,-0.0132786575704813,0.0038155613001435995,0.06781993806362152,-0.07327138632535934,-0.006826742552220821,-0.09554088115692139,0.06674875319004059,0.01146520022302866,0.0193690937012434,0.03774839639663696,-0.033954039216041565,0.12758272886276245,-0.03850165382027626,0.032943520694971085,-0.08567477017641068,0.058631327003240585,0.05793651565909386,-0.02165527269244194,-0.003989972174167633,0.03041769750416279,0.046007853001356125,0.09133285284042358,-0.13893559575080872,0.033982738852500916,0.0367966927587986,-0.01970433071255684,0.03767020255327225,0.009441863745450974,0.035736989229917526,0.0662463828921318,0.11735644191503525,0.042582783848047256,0.10702412575483322,-0.011818882077932358,0.03351735696196556,0.12994696199893951,-0.0053016794845461845,-0.021259909495711327,0.005458309315145016,0.00047455073217861354,-0.04556489735841751,0.009695134125649929,0.022619325667619705,-0.015092642977833748,-0.029560750350356102,0.0616903118789196,0.11002932488918304,0.08469748497009277,-0.007402604911476374,0.05240553990006447,-0.0019349067006260157,0.07778312265872955,-0.029421815648674965,-0.06061602011322975,0.08353658020496368,-0.07306315004825592,-0.1783495992422104,0.034965772181749344,0.030797909945249557,-0.05244075879454613,-0.09404034912586212,-0.07123471051454544,0.024629883468151093,0.032775502651929855,-0.03188987448811531,-0.036738134920597076,0.042462076991796494,-0.03824930265545845,-0.042991574853658676,0.001313028740696609,-0.008934885263442993,-0.06294511258602142,-0.044353142380714417,-0.030150888487696648,-0.024596597999334335,-0.021425234153866768,-0.02705593779683113,0.12117807567119598,0.06731834262609482,-0.009331732988357544
äthiopien,0.08771791309118271,-0.02240489237010479,0.05191081389784813,0.024224964901804924,-0.0015721381641924381,-0.027591580525040627,0.04528101161122322,-0.016197603195905685,0.12013305723667145,-0.05503376945853233,-0.07932397723197937,-0.02601630426943302,-0.029085058718919754,-0.0192185677587986,0.03632627800107002,0.005164329428225756,-0.04860438033938408,0.030858114361763,-0.0018543730257079005,0.008740740828216076,-0.038775913417339325,0.01032385602593422,0.0922289565205574,0.0067169624380767345,-0.06358155608177185,0.01558118686079979,-0.09450124204158783,-0.017306070774793625,0.0005557648837566376,-0.04922157898545265,0.05406288802623749,0.028935054317116737,0.08346079289913177,-0.006863287650048733,0.059257976710796356,-0.010853134095668793,-0.04125731438398361,-0.11502727121114731,0.008367453701794147,-0.007681689225137234,-0.01996644213795662,-0.019355708733201027,-0.024986008182168007,0.024675743654370308,-0.02457088977098465,-0.015248851850628853,-0.042909152805805206,0.0024658972397446632,-0.0072162761352956295,-0.02985459379851818,-0.13018380105495453,-0.017337001860141754,0.06370100378990173,0.07056257128715515,0.028371958062052727,0.08401437848806381,-0.08725114166736603,0.0449274480342865,0.01509617269039154,-0.026196904480457306,-0.0476919487118721,-0.018773287534713745,-0.034463007003068924,0.00534760020673275,0.06919744610786438,0.06308732181787491,-0.028479954227805138,-0.002790966769680381,0.04140981286764145,-0.0046775308437645435,-0.008094276301562786,0.009304357692599297,-0.01889982260763645,-0.08276630938053131,-0.08126313984394073,0.03521810472011566,-0.02800082601606846,0.05137015879154205,0.029952358454465866,-0.12192873656749725,0.09644728153944016,0.08315357565879822,-0.06051875278353691,-0.11129515618085861,0.06427926570177078,0.025187361985445023,0.012157946825027466,0.07460109889507294,0.031008822843432426,0.11332470178604126,0.03427230939269066,0.046632420271635056,-0.009306459687650204,0.02925170585513115,0.002643413143232465,0.08711622655391693,-0.05555877462029457,-0.05499560013413429,-0.026080895215272903,-0.09547150135040283,0.09955530613660812,0.0848313570022583,0.06442364305257797,0.05050854757428169,0.04503928869962692,0.02220131829380989,0.0740438774228096,0.006253933068364859,-0.059087928384542465,0.03819917514920235,0.025233929976820946,0.017751744017004967,0.06708161532878876,-0.012018688023090363,-0.03744075819849968,0.041141342371702194,0.03970642387866974,-0.09536010771989822,-0.057793039828538895,-0.03522346541285515,-0.03973190113902092,0.021577563136816025,0.016862697899341583,-0.021558737382292747,0.04809952527284622,-0.0027215087320655584,0.06327333301305771,-0.0378330759704113,0.030367298051714897,0.1807723194360733,0.06994728744029999,0.015109023079276085,-0.038759294897317886,-0.05351042374968529,-0.009972983039915562,0.1075875535607338,-0.03370315209031105,0.06939564645290375,0.1197223961353302,0.14343227446079254,0.0022799873258918524,-0.009660056792199612,0.10698971152305603,0.060372430831193924,0.015896975994110107,-0.10216587036848068,0.06521373987197876,0.009042409248650074,0.020841551944613457,-0.023076273500919342,0.024833353236317635,0.07253190129995346,0.1063428670167923,0.017784716561436653,-0.026857564225792885,-0.039713092148303986,0.03664889931678772,0.04987548291683197,0.02644398622214794,-0.13752344250679016,-0.03994963318109512,-0.010127711109817028,0.11522041261196136,0.032735053449869156,-0.07982372492551804,-0.004583409056067467,-0.03535587340593338,-0.03402421995997429,0.06446895003318787,0.027311136946082115,0.025677978992462158,-0.04001800715923309,-0.025932027027010918,-0.012652573175728321,-0.07776814699172974,-0.037333931773900986,-0.027645645663142204,0.019997093826532364,0.03992786630988121,0.01631535403430462,-0.0041325893253088,-0.0777512863278389,-0.001386325340718031,0.019415415823459625,0.0005093322251923382,-0.0033045734744518995,0.06465842574834824,-0.034114938229322433,0.010639716871082783,-0.08684802055358887,-0.004638968035578728,0.034441690891981125,-0.07447876781225204,-0.0051384540274739265,-0.010535728186368942,0.0025112938601523638,0.05695413425564766,-0.08700444549322128,-0.02802579663693905,-0.04633612930774689,-0.03994812071323395,0.07257048785686493,0.02707281894981861,0.0051664370112121105,0.07038696110248566,0.019749293103814125,0.007359334733337164,0.010315227322280407,0.07196234911680222,-0.014614049345254898,0.0241383146494627,-0.040868282318115234,0.02611328475177288,0.1164022833108902,-0.05523788183927536,0.12264616787433624,-0.05376346781849861,0.015047334134578705,-0.024856168776750565,0.07150515913963318,-0.08726390451192856,-0.019924188032746315,-0.1018986850976944,-0.10402435809373856,0.05185924470424652,-0.16281580924987793,-0.012757427990436554,-0.08943118155002594,0.041837695986032486,0.06349287927150726,0.08842229843139648,0.0629924014210701,-0.04661617800593376,0.04183884710073471,-0.02543303743004799,0.057165537029504776,0.010606235824525356,0.008311286568641663,0.08497028052806854,0.03553714603185654,0.01821042411029339,-0.0096491863951087,-0.1145324856042862,-0.07061972469091415,0.08928357064723969,0.019137537106871605,0.029682355001568794,0.023071663454174995,0.04000695422291756,-0.04603595659136772,0.141635000705719,-0.003475029254332185,-0.062168020755052567,0.0010454794391989708,0.06041828542947769,0.09626550227403641,0.015208752825856209,-0.007888727821409702,-0.03208038955926895,-0.040801726281642914,-0.01576656848192215,0.09650924801826477,0.004557893145829439,-0.035947736352682114,-0.06819047778844833,-0.03456917032599449,0.10361377894878387,-0.009812559932470322,0.0514381118118763,0.04279690980911255,0.07068327069282532,0.07714777439832687,-0.06966326385736465,-0.06262028217315674,0.036107007414102554,-0.07967913895845413,0.04913293570280075,0.03420418128371239,0.07552030682563782,0.005115303676575422,-0.13481326401233673,-0.0044237906113266945,-0.007963479496538639,0.09189661592245102,0.026774439960718155,0.014714029617607594,0.1010436937212944,-0.05255195498466492,-0.06146901473402977,0.039183396846055984,0.1244964748620987,-0.085697703063488,-0.019604478031396866,-0.06227916479110718,0.018482988700270653,-0.015531984157860279,-0.017197895795106888,0.0009657983318902552,-0.09208685904741287,-0.07058416306972504
australien,0.03196823596954346,-0.0014435515040531754,0.0937674269080162,-0.06752800196409225,0.06849762797355652,0.02311716042459011,-0.018589327111840248,0.01590157300233841,0.04645959660410881,0.03599774092435837,0.058683715760707855,-0.05772934481501579,0.05372786521911621,-0.00018905432079918683,0.046167343854904175,-0.040828220546245575,-0.03741440922021866,0.019498411566019058,0.06581241637468338,0.07271858304738998,0.023493105545639992,0.024798454716801643,0.06288700550794601,-0.02806490659713745,-0.05794060230255127,0.1339477300643921,-0.06821592152118683,0.06006547808647156,0.11902795732021332,0.0180536899715662,0.051795680075883865,-0.030407210811972618,0.07436710596084595,-0.017346598207950592,0.013364598155021667,0.03687687963247299,-0.11418768018484116,-0.0034685677383095026,-0.04626380279660225,0.011735974811017513,-0.009251736104488373,0.05684627592563629,-0.0014960234984755516,-0.00021323929831851274,0.03370063006877899,0.09731444716453552,-0.2173936367034912,0.01608291082084179,0.0206967294216156,-0.12163390964269638,-0.03861252963542938,0.056436192244291306,0.026835180819034576,0.05814026668667793,-0.004702722188085318,0.04249384626746178,-0.0353379026055336,-0.029429221525788307,0.01339119765907526,0.00835876353085041,-0.024063613265752792,0.002788604935631156,-0.023254891857504845,-0.011888517998158932,0.06918016076087952,-0.02561984211206436,0.024516083300113678,-0.01334044523537159,0.00614467216655612,-0.07927756011486053,-0.031556081026792526,-0.0500679686665535,0.08474689722061157,-0.051132943481206894,-0.021659335121512413,0.03892677649855614,-0.07043381780385971,0.08519178628921509,0.06262364238500595,-0.0217563696205616,0.09574530273675919,0.02860511653125286,-0.03439609706401825,-0.07084261626005173,0.017986206337809563,0.03642592951655388,-0.02884562686085701,0.017735324800014496,-0.030671529471874237,-0.010719742625951767,0.06433535367250443,0.023035582154989243,-0.16489873826503754,-0.027841225266456604,0.011178248561918736,-0.008374489843845367,0.07097240537405014,-0.0783575251698494,0.06934761255979538,-0.039996907114982605,0.00912593211978674,0.022194724529981613,-0.06773103773593903,-0.056290943175554276,0.019972778856754303,-0.08486395329236984,0.12160822749137878,0.03588837385177612,-0.02399737760424614,-0.041292283684015274,-0.036915767937898636,0.05024862661957741,0.019330361858010292,0.07884354889392853,-0.10506397485733032,0.048292387276887894,0.021229876205325127,-0.01995869353413582,-0.025244850665330887,0.05518212914466858,-0.05959217622876167,0.00030967514612711966,0.004579912405461073,-0.05740165337920189,0.03765486553311348,-0.020217999815940857,0.08912032842636108,-0.009198347106575966,0.07526086270809174,0.08604181557893753,0.006948379799723625,0.06973927468061447,-0.11060211062431335,-0.05423928052186966,-0.11673732846975327,0.011678403243422508,-0.00715671805664897,0.03799091652035713,-0.025950582697987556,0.026638852432370186,0.05076446756720543,0.028556449338793755,-0.027972836047410965,-0.010113685391843319,0.021135151386260986,0.007857965305447578,-0.023510193452239037,0.01675928197801113,-9.139477333519608e-05,-0.021992359310388565,-0.04392532631754875,-0.06747341901063919,0.026159213855862617,0.020050114020705223,0.04578636959195137,0.0011825195979326963,0.05644712969660759,0.03019404597580433,0.008735687471926212,-0.0029412023723125458,0.06523358076810837,-0.042457133531570435,-0.03272075951099396,-0.057521697133779526,-0.029688457027077675,-0.06800957024097443,0.0556139200925827,0.1550517976284027,0.1338498592376709,-0.027624428272247314,0.023823609575629234,0.028110243380069733,-0.0327288955450058,0.0696452260017395,0.028688879683613777,0.023893816396594048,-0.05725155025720596,-0.021586040034890175,0.0688747838139534,0.007194238714873791,0.08197827637195587,-0.009893214330077171,-0.10218628495931625,-0.09397090971469879,0.07653573900461197,-0.03517783805727959,-0.04224316403269768,-0.13466598093509674,0.02435177005827427,-0.07466653734445572,0.019257305189967155,0.035279154777526855,-0.08326499909162521,-0.002009843708947301,-0.04339011013507843,0.02965790405869484,-0.08635897934436798,0.03889639675617218,-0.09377662092447281,0.002528134500607848,0.03852164372801781,-0.04219025373458862,0.026554370298981667,0.10465666651725769,0.08426710963249207,-0.04933717101812363,0.012246114201843739,-0.08485470712184906,-0.013150148093700409,-0.08080825209617615,0.07616621255874634,-0.013774747960269451,0.07326588779687881,0.043127063661813736,-0.03466872125864029,0.07397494465112686,0.05031773820519447,0.0366358682513237,-0.001885626814328134,-0.032297007739543915,0.029941130429506302,0.03338635340332985,-0.020212747156620026,-0.1890062838792801,0.0879119411110878,0.031625594943761826,0.014870760031044483,-0.03585749864578247,-0.026354337111115456,0.06383762508630753,0.07246393710374832,0.04044315218925476,0.08861348778009415,0.03451487049460411,0.05099250376224518,-0.006382001098245382,0.002564884489402175,0.04437154531478882,0.06721597164869308,-0.026015067473053932,0.07223127037286758,-0.06771119683980942,0.027470991015434265,-0.02641908824443817,0.1063040941953659,0.1533706933259964,0.009063415229320526,0.11407600343227386,-0.05252750590443611,-0.04959084466099739,0.02824315056204796,-0.0873236209154129,-0.11522582173347473,-0.005485181231051683,0.00686138030141592,-0.043888647109270096,-0.01126006804406643,0.041175149381160736,-0.038575004786252975,-0.032240647822618484,-0.08498221635818481,0.0503397211432457,0.05715814232826233,-0.005088165868073702,-0.08363191038370132,0.10737039893865585,0.1339116096496582,0.004032372962683439,0.08437055349349976,0.02966471202671528,0.016566604375839233,0.0021531640086323023,-0.0448191873729229,-0.06581287086009979,0.07824844866991043,-0.11293002963066101,-0.10098201036453247,0.07675781100988388,-0.027733495458960533,-0.048784755170345306,-0.016628488898277283,0.04042545333504677,-0.056272510439157486,-0.008753573521971703,-0.04851595684885979,-0.015287353657186031,0.011629655957221985,0.008890340104699135,0.04312404990196228,-0.0031492419075220823,-0.01594933308660984,0.006859925575554371,-0.0005032190820202231,-0.03685515373945236,-0.030588852241635323,-0.03920846804976463,-0.01155309658497572,-0.025973614305257797,-0.00784527137875557,-0.03470996022224426
bangladesch,0.02927710860967636,0.036387450993061066,0.058050572872161865,0.008119912818074226,0.11657024919986725,-0.15937753021717072,0.072325199842453,0.01614483632147312,0.016363099217414856,-0.03291388601064682,0.01419201772660017,-0.006377314683049917,-0.009891537949442863,-0.07013621181249619,0.09837158024311066,0.035223543643951416,-0.005269824992865324,-0.028357092291116714,0.04730749502778053,-0.028134332969784737,0.04756855592131615,-0.028018247336149216,0.03286926448345184,-0.010649379342794418,0.08335758000612259,0.09785650670528412,-0.04627230390906334,0.024262048304080963,-0.018977444618940353,-0.12775641679763794,0.0283270962536335,0.047083381563425064,0.08124274760484695,0.0012799641117453575,-0.02751016430556774,0.017582107335329056,-0.00883927009999752,-0.10533567517995834,0.12075989693403244,-0.0471702441573143,-0.05821140110492706,0.021619385108351707,-0.04863739013671875,-0.02821771427989006,0.05486786738038063,0.02997981756925583,-0.08341490477323532,0.027503980323672295,-0.050827447324991226,0.05521238595247269,-0.10919567197561264,0.05062020570039749,-0.003473658347502351,0.03566455841064453,-0.013513672165572643,-0.047079700976610184,-0.06187136843800545,-0.03799610212445259,0.056063443422317505,-0.006065605208277702,-0.04497135430574417,0.02317279390990734,-0.049724578857421875,0.0904872938990593,-0.019119972363114357,0.07249567657709122,-0.11973495036363602,0.022238297387957573,0.07388931512832642,0.02909018099308014,0.015499324537813663,-0.027135170996189117,0.008657016791403294,-0.0561785064637661,-0.04493213817477226,0.07772037386894226,-0.035107679665088654,0.007481240667402744,0.06930503249168396,0.06702994555234909,0.018182817846536636,-0.019471853971481323,0.03272354230284691,-0.05348355695605278,0.04987513646483421,0.0038826498202979565,-0.084759421646595,-0.054585523903369904,0.017948539927601814,0.08095885813236237,0.015135182067751884,0.023688653483986855,0.034468874335289,0.020006222650408745,-0.05578271672129631,0.019377944990992546,0.018653616309165955,-0.059266362339258194,0.03793139383196831,-0.13029542565345764,-0.014065533876419067,0.03413166105747223,0.0042190635576844215,0.06963511556386948,0.06412335485219955,0.024161119014024734,0.037396326661109924,0.03828571364283562,-0.05964645370841026,-0.14025336503982544,-0.05570705980062485,-0.004018429666757584,0.0872473493218422,0.09706263244152069,0.02565668150782585,0.04143651947379112,-0.00768217584118247,-0.039614591747522354,-0.08122637867927551,-0.016008466482162476,0.0022630630992352962,-0.049317941069602966,0.033628854900598526,0.03159663826227188,0.03927332162857056,-0.009478329680860043,-0.04115048423409462,-0.02144807018339634,0.04929632693529129,0.09720078855752945,0.0649418830871582,0.0130856828764081,-0.06641397625207901,-0.06023398041725159,-0.027886614203453064,-0.005162120331078768,0.03841035068035126,0.05334213376045227,0.010263169184327126,0.10193968564271927,0.0066968840546905994,0.025544043630361557,-0.02776452712714672,-0.04589727148413658,0.03681908920407295,0.059486813843250275,-0.034208379685878754,0.022842280566692352,0.03216027840971947,-0.02144162729382515,-0.008459363132715225,0.1097373515367508,-0.03595034405589104,-0.040750909596681595,-0.027022507041692734,0.004926229361444712,0.03821716457605362,0.08137848228216171,0.018199866637587547,0.062807597219944,0.07995287328958511,-0.07933203130960464,0.06997178494930267,0.040605030953884125,-0.025432700291275978,-0.03771710768342018,0.0013070189161226153,0.05115910619497299,0.04806093871593475,0.13719546794891357,0.07497089356184006,-0.02093326859176159,-0.08143971115350723,0.11941099166870117,-0.010196821764111519,-0.051097527146339417,-0.09845100343227386,-0.043830323964357376,0.11627495288848877,-0.03648403286933899,-0.053211696445941925,-0.015433011576533318,-0.0116004329174757,-0.007202042266726494,-0.02989417314529419,-0.01699758693575859,0.04409714415669441,-0.07312367856502533,0.004177477676421404,-0.032653115689754486,-0.06722594052553177,-0.0388469398021698,-0.05285188555717468,0.012491489760577679,-0.002234293380752206,-0.023826492950320244,0.04114341363310814,-0.0701228454709053,-0.11847256124019623,0.02312055416405201,-0.02640577033162117,0.02148006483912468,0.060299575328826904,0.034618206322193146,-0.0286028403788805,0.03731900081038475,0.008635194040834904,-0.05808321014046669,0.044474221765995026,-0.04744703695178032,-0.07908549904823303,-0.05233696475625038,-0.019556619226932526,0.06377027183771133,-0.02188040502369404,0.02230032905936241,-0.044008854776620865,0.04341595619916916,0.02485203556716442,-0.019843386486172676,0.06619977205991745,-0.053078971803188324,-0.08595985174179077,-0.0890645682811737,0.12856681644916534,-0.018807804211974144,0.06990505009889603,-0.19297051429748535,0.03952633589506149,0.004983332008123398,0.057541992515325546,0.10197146981954575,-0.04545300453901291,0.12469145655632019,-0.03462418168783188,-0.009331279434263706,-0.02111060731112957,0.06237869709730148,-0.04185738414525986,0.040143340826034546,0.019997209310531616,-0.06666247546672821,-0.014698991551995277,-0.011194881051778793,0.016552509739995003,0.015266334637999535,0.07994948327541351,0.05827901139855385,-0.02761942707002163,0.02681289054453373,0.04517311975359917,-0.0031268028542399406,0.011919522657990456,-0.047112707048654556,0.051685698330402374,0.026235945522785187,-0.009497569873929024,0.015209900215268135,0.023514362052083015,-0.04617052897810936,-0.08616175502538681,0.09816858172416687,-0.04280926287174225,-0.011023989878594875,-0.005455869249999523,-0.037006329745054245,0.022907331585884094,0.017302414402365685,0.08872063457965851,0.08690526336431503,-0.005603071302175522,0.10352442413568497,-0.10269082337617874,-0.04142322018742561,0.04060841724276543,-0.07031583040952682,-0.09495458006858826,0.09254332631826401,0.23096948862075806,0.036289315670728683,-0.03484538570046425,-0.03291727602481842,0.0675312951207161,0.10347025841474533,-0.020275088027119637,-0.11617660522460938,0.004770415369421244,-0.021440565586090088,-0.048197705298662186,0.042783185839653015,-0.0058186412788927555,-0.06853995472192764,0.05572492629289627,-0.05303439497947693,0.04170050844550133,0.022125110030174255,-0.011439214460551739,-0.06266665458679199,-0.061792824417352676,-0.032773930579423904
belarus,0.052692364901304245,0.017366569489240646,0.05140480771660805,-0.08609574288129807,0.010289302095770836,-0.03304960951209068,0.05853225290775299,-0.05773887410759926,-0.022669730708003044,-0.03052620030939579,-0.11553457379341125,-0.04994836822152138,0.04615794122219086,0.04074156656861305,0.040542591363191605,0.09139285236597061,-0.022818179801106453,0.027969175949692726,-0.03128386661410332,-0.0282821636646986,0.005645181518048048,0.045857347548007965,0.061422932893037796,0.046432193368673325,-0.041351281106472015,-0.001975988270714879,-0.13725627958774567,0.012893185950815678,0.07276100665330887,-0.0654696524143219,-0.09195797890424728,0.014792387373745441,-0.022625621408224106,0.007144832517951727,0.02056610956788063,0.10844255983829498,-0.0600273534655571,-0.0421045646071434,0.10350316017866135,0.0075075640343129635,-0.03314381465315819,0.04294169694185257,-0.026969946920871735,0.04009738191962242,-0.04185314476490021,-0.05904875323176384,0.0005160694709047675,0.04367446154356003,0.030780576169490814,-0.09348917752504349,-0.008811715058982372,0.041193753480911255,0.05499573051929474,0.16417597234249115,-0.0421534962952137,0.06670349836349487,-0.12230724841356277,0.03399273008108139,-0.03309128060936928,-0.007563884370028973,0.06083947792649269,-0.01807486079633236,-0.0933796688914299,0.06405403465032578,0.05000471696257591,0.022641727700829506,-0.07770872861146927,-0.04156644642353058,0.00871302280575037,0.02899557538330555,0.08281666785478592,-0.00505927624180913,0.02469048462808132,0.04880077764391899,0.020063377916812897,-0.018983956426382065,-0.003251866204664111,0.05621042847633362,0.03371311351656914,-0.07746750116348267,0.20015379786491394,-0.08598563075065613,-0.013424189761281013,-0.06526349484920502,0.023235175758600235,-0.013348911888897419,0.06673472374677658,-0.04351429641246796,0.08827761560678482,0.008139031939208508,-0.045722153037786484,-0.06893312186002731,0.027508221566677094,0.06037556380033493,-0.06749258190393448,-0.1596374362707138,0.013156233355402946,-0.02265184558928013,-0.03190213441848755,-0.0014135729288682342,0.056890953332185745,0.021968167275190353,0.025248602032661438,-0.07143517583608627,-0.02992062270641327,-0.028436249122023582,0.005257508717477322,0.012151475995779037,-0.029834698885679245,0.027592308819293976,0.0010231550550088286,0.11225668340921402,0.10207556933164597,-0.0013876216253265738,-0.10408172756433487,0.049736469984054565,-0.020408203825354576,0.00853042770177126,0.06103385612368584,-0.024628710001707077,0.009134727530181408,0.023144934326410294,0.06451530009508133,0.047550883144140244,-0.002034445758908987,0.00171559932641685,-0.11004442721605301,0.037997160106897354,0.006235362496227026,0.10257917642593384,0.11365038901567459,0.05675293505191803,-0.03736114129424095,0.05030873045325279,-0.10405915230512619,-0.023022620007395744,-0.09383339434862137,0.07882928103208542,0.009415192529559135,0.08248388767242432,0.017414988949894905,0.08068681508302689,0.03042621724307537,0.0026943632401525974,-0.05580991506576538,-0.03565560653805733,-0.04363837465643883,0.09823649376630783,0.10481254011392593,0.0060930438339710236,-0.05860763415694237,0.016910670325160027,0.053774844855070114,0.03401608020067215,-0.03494346886873245,-0.032346054911613464,-0.07252217084169388,-0.011337044648826122,0.03579019010066986,-0.07961467653512955,0.025858916342258453,0.05084753781557083,-0.004107446875423193,-0.024738984182476997,-0.09160085767507553,0.02412848174571991,0.1007046326994896,0.014135178178548813,0.041742827743291855,-0.0017887587891891599,0.06377927958965302,0.0769190862774849,-0.030096491798758507,-0.05685754120349884,0.003898290917277336,0.01063007302582264,-0.10806622356176376,-0.017408644780516624,-0.02598191238939762,-0.08393047749996185,-0.06816624104976654,-0.012744004838168621,-0.0039732856675982475,0.07088441401720047,-0.05824962630867958,-0.007244694512337446,0.014450235292315483,-0.04296562448143959,0.051040202379226685,0.08053936809301376,0.03604268282651901,-0.10078749805688858,-0.05918234959244728,0.006028680596500635,-0.15054143965244293,-0.02919318899512291,0.010205027647316456,0.039402350783348083,-0.11511129140853882,-0.02396566793322563,-0.02583831548690796,0.003115235362201929,0.07238501310348511,-0.039659976959228516,-0.010401367209851742,0.10653670877218246,-0.0057379440404474735,0.014590990729629993,-0.05222848057746887,-0.010253231972455978,0.03653385117650032,0.019296446815133095,-0.06212174892425537,-0.035431332886219025,0.07411909103393555,0.061122771352529526,-0.08555778115987778,0.1027015745639801,0.0069112628698349,0.03175527974963188,0.018510812893509865,0.08319686353206635,0.028517773374915123,-0.10642752051353455,-0.004549321252852678,-0.08410533517599106,-0.006142737343907356,0.02938801795244217,-0.02019859291613102,0.09079606831073761,0.040729179978370667,0.06450837850570679,-0.06536424905061722,0.059221070259809494,0.03358909487724304,-0.1124773770570755,-0.0007265874301083386,-0.02412172220647335,-0.0029422598890960217,-0.002791885519400239,-0.0033198310993611813,0.11348474025726318,-0.035660337656736374,-0.043316550552845,0.047990620136260986,0.041342008858919144,0.025867270305752754,0.06739954650402069,0.03343568742275238,-0.08255227655172348,0.02605121023952961,-0.10840646922588348,-0.017526129260659218,0.04304032400250435,0.020151128992438316,0.031901538372039795,0.015316779725253582,0.09570508450269699,-0.08009093254804611,-0.0327843613922596,0.0031826847698539495,0.02462010830640793,0.014862993732094765,0.022914059460163116,-0.08145453035831451,-0.03395910933613777,0.03194659203290939,0.06724900007247925,-0.05500544607639313,0.015479928813874722,0.010850777849555016,-0.003227619919925928,0.061623167246580124,-0.019666926935315132,0.03980930149555206,-0.157779723405838,-0.06266932934522629,0.017275681719183922,0.07766792923212051,0.03838341310620308,-0.026629624888300896,0.038622405380010605,0.04618331044912338,-0.062318213284015656,0.027656612917780876,-0.024334097281098366,0.07284495234489441,-0.022152459248900414,0.017147794365882874,0.05084624141454697,0.005638281349092722,-0.08524837344884872,0.03948908671736717,0.019163690507411957,-0.12048798054456711,0.0242119412869215,0.08173420280218124,-0.03622313216328621,0.0001814240386011079,0.01616641692817211
belgien,-0.01194559596478939,0.05952289327979088,-0.016228629276156425,-0.030435768887400627,0.0060442108660936356,-0.03124314546585083,0.02872583270072937,0.019827499985694885,0.04235986992716789,-0.07393074780702591,0.025289826095104218,-0.08268175274133682,-0.017513452097773552,-0.02673385664820671,-0.014586553908884525,0.1032714769244194,0.004832931328564882,0.09433718025684357,0.10864429175853729,0.08434488624334335,-0.006285488605499268,0.0211668498814106,-0.02428237348794937,-0.05200603976845741,0.03015589527785778,-0.012831998988986015,-0.008455679751932621,0.040408018976449966,0.13555075228214264,-0.009047161787748337,0.014964663423597813,-0.027193583548069,0.01532375905662775,-0.07459485530853271,-0.03614502027630806,-0.01621885970234871,0.02808551676571369,-0.0816311240196228,0.15069639682769775,-0.05815356224775314,0.055801257491111755,0.04445195943117142,-0.041696444153785706,0.09181588888168335,0.07884279638528824,0.04768640175461769,-0.08744646608829498,0.04956469312310219,-0.012363127432763577,-0.07299167662858963,0.02112460322678089,-0.025739848613739014,-0.09534384310245514,-0.006972955539822578,0.030332740396261215,-0.03839634358882904,-0.07848702371120453,-0.027678878977894783,0.003046144498512149,-0.00942368246614933,-0.026534374803304672,0.017008531838655472,0.020491832867264748,-0.02868717908859253,-0.03814156726002693,-0.0151046272367239,-0.03047145903110504,-0.09445786476135254,0.065243199467659,-0.030850866809487343,0.038241032510995865,-0.10118764638900757,0.01675850711762905,-0.07953648269176483,0.009131272323429585,0.04052000865340233,-0.02648327499628067,0.023391522467136383,0.07150599360466003,-0.04599021375179291,0.007384277414530516,0.06328622251749039,-0.021933695301413536,-0.07402118295431137,-0.011060233227908611,0.10995861887931824,0.0641605481505394,-0.016524571925401688,0.11938010901212692,-0.035953983664512634,0.0307807344943285,-0.07294303178787231,-0.10179907828569412,0.026090046390891075,0.020194869488477707,-0.14025741815567017,0.06748238205909729,-0.013512412086129189,0.007082225754857063,-0.07175645232200623,0.019713615998625755,0.09099335968494415,-0.0538850799202919,-0.06841793656349182,0.007140392903238535,-0.1260940134525299,0.13901950418949127,0.07844190299510956,0.013742162846028805,0.07347920536994934,0.03513395041227341,0.026424456387758255,0.047640055418014526,0.03042619489133358,-0.07734682410955429,0.03776073828339577,0.03609427809715271,-0.016478002071380615,0.020106688141822815,-0.050565555691719055,-0.0028316716197878122,-0.0446726530790329,0.07778085768222809,0.06201567128300667,0.038481276482343674,-0.06479821354150772,0.09462924301624298,0.048902638256549835,0.03574855998158455,-0.018920131027698517,0.04037727788090706,0.08104441314935684,-0.05120948329567909,-0.08713649213314056,-0.06800771504640579,-0.004765286576002836,-0.04354787990450859,-0.12003044784069061,0.002255344996228814,0.07002715021371841,-0.035149477422237396,0.045865748077631,0.033064357936382294,0.008957858197391033,0.04808938130736351,-0.018909653648734093,0.004686572123318911,-0.014166977256536484,-0.022559089586138725,-0.032125718891620636,-0.09475719183683395,0.002217087196186185,0.04673977196216583,0.05885576456785202,0.02603575959801674,-0.027426470071077347,-0.0628756731748581,0.12450166791677475,-0.0878787487745285,-0.07992513477802277,0.06562642753124237,-0.09068331122398376,-0.0035259402357041836,-0.11175581812858582,-0.08463998138904572,0.06410648673772812,-0.007117984816431999,0.02842072583734989,0.06474710255861282,0.053329948335886,0.06273672729730606,0.030632100999355316,-0.04604827240109444,0.09996134787797928,-0.06720764935016632,-0.11301744729280472,0.03252127766609192,-0.007556811906397343,-0.06288082152605057,0.030877985060214996,0.07064658403396606,-0.1045083999633789,-0.0019643446430563927,0.03912908211350441,0.005411483813077211,-0.0383087582886219,-0.06742361187934875,-0.05592833459377289,-0.029830744490027428,-0.03898094594478607,0.04810458421707153,-0.028901152312755585,-0.1271466314792633,-0.004290364217013121,0.05650894343852997,-0.004198018461465836,-0.04185263812541962,0.08925000578165054,-0.019130118191242218,0.09874831885099411,-0.06512577086687088,0.04186483100056648,0.06820940971374512,0.1297369748353958,-0.052116427570581436,0.04578094556927681,-0.0004755163681693375,-0.06340819597244263,-0.024325409904122353,-0.06113710254430771,-0.044534966349601746,-0.005181192886084318,0.012708917260169983,0.022711900994181633,-0.046743735671043396,0.10549527406692505,-0.031005188822746277,-0.024829654023051262,-0.09165851771831512,-0.06717030704021454,-0.034910593181848526,0.026280662044882774,-0.026871180161833763,0.03762422129511833,0.04624011367559433,-0.05040296912193298,-0.0016167231369763613,-0.027178822085261345,-0.07240753620862961,-0.006625476758927107,0.04540688171982765,0.012616192921996117,0.0007166729774326086,0.04639451205730438,0.04350507631897926,0.05594666674733162,0.007642126642167568,0.033235713839530945,-0.0010339205618947744,-0.015477911569178104,-0.00146503746509552,-0.007776102051138878,0.03855247423052788,-0.05180769041180611,0.10010472685098648,-0.06146197393536568,-0.007036462891846895,0.1598740518093109,-0.027240660041570663,-0.001854279893450439,0.09906172007322311,-0.02433873899281025,0.08324607461690903,0.04793592169880867,-0.038946282118558884,0.03081446886062622,0.04140206426382065,0.04442230984568596,-0.023034606128931046,-0.07276006042957306,-0.03345652297139168,0.09690798074007034,-0.07476674765348434,-0.02544238232076168,-0.04852486401796341,0.06811897456645966,0.14639726281166077,0.04145299270749092,0.002384237479418516,0.02134045399725437,0.024706335738301277,0.07750129699707031,-0.0361940860748291,-0.06715081632137299,0.03374500200152397,-0.1356630027294159,0.06969929486513138,0.07067745923995972,-0.008426494896411896,0.018940359354019165,-0.05080529302358627,0.027846217155456543,-0.00910292100161314,-0.07976127415895462,0.021375853568315506,-0.052614785730838776,-0.08404888212680817,-0.0076999785378575325,0.0418921634554863,0.08140922337770462,-0.008982375264167786,-0.04444526508450508,0.07512342929840088,0.005677061155438423,-0.007512273266911507,0.043156661093235016,0.03682900592684746,0.0023300773464143276,-0.06347733736038208,0.0029247975908219814
bosnien_und_herzegowina,0.017509406432509422,-0.01881455071270466,-0.017043007537722588,0.01837700977921486,-0.006846537347882986,0.001245994004420936,0.12734489142894745,0.05430622771382332,-0.07607421278953552,-0.03912559524178505,-0.020628102123737335,-0.11226508021354675,-0.06026516854763031,0.014595436863601208,-0.038600727915763855,-0.020705711096525192,-0.07043857127428055,0.15030549466609955,0.00888789538294077,0.022677911445498466,0.01949145272374153,0.057649847120046616,-0.005943869706243277,-0.011914413422346115,-0.0162168201059103,0.06479580700397491,-0.09806762635707855,-0.058737870305776596,-0.016531595960259438,-0.0286319088190794,-0.026129473000764847,-0.0022231691982597113,-0.02994641289114952,0.030730916187167168,-0.0016547951381653547,-0.08117120712995529,-0.08715561777353287,-0.12847881019115448,0.0060435994528234005,-0.10509234666824341,0.0031037707813084126,0.026072420179843903,-0.07623905688524246,0.10372691601514816,-0.004570906050503254,0.05640239641070366,-0.015275079756975174,0.0030869226902723312,0.01657651551067829,0.021061759442090988,-0.061807870864868164,0.006845435127615929,0.007789313793182373,0.08588282763957977,-0.00044600627734325826,0.08897942304611206,-0.09848352521657944,-0.012255443260073662,-0.004917938262224197,0.021221891045570374,0.005238847807049751,-0.03153901919722557,-0.02155732549726963,0.026317890733480453,0.03402988612651825,0.11485253274440765,-0.052859578281641006,-0.010209070518612862,0.020422348752617836,0.024941449984908104,0.0867338627576828,0.017016805708408356,-0.06577296555042267,-0.02204791270196438,0.013534114696085453,-0.007115948013961315,-0.017562169581651688,0.1105683222413063,-0.03456968441605568,-0.05905389413237572,0.10627017170190811,-0.07926476001739502,-0.04587344080209732,-0.08403827250003815,-0.0025959888007491827,0.12365825474262238,-0.022151080891489983,0.05292103812098503,0.06433149427175522,0.010570080019533634,-0.04706943780183792,0.026595016941428185,-0.04758365452289581,-0.008452223613858223,0.056161701679229736,0.1356041580438614,0.034263789653778076,-0.04457080736756325,-0.051416125148534775,0.06161916255950928,0.00627598213031888,-0.033801544457674026,-0.055477771908044815,-0.04315576329827309,0.014698725193738937,0.08142437785863876,0.09668156504631042,-0.09574299305677414,0.03405861184000969,-0.013065970502793789,-0.049935344606637955,-0.03862413018941879,0.0678253099322319,0.004710264038294554,-0.014911822974681854,0.04789254441857338,-0.016328861936926842,-0.06734638661146164,0.03676147013902664,-0.06982181966304779,-0.16135425865650177,0.07617565244436264,0.03419492393732071,-0.030940653756260872,0.07191327959299088,0.011452616192400455,-0.02962745912373066,-0.06010764092206955,0.04251987859606743,0.16106705367565155,0.13594701886177063,0.04143276438117027,-0.040949512273073196,-0.03142322227358818,-0.09435342997312546,-0.03974185883998871,0.049995262175798416,0.1067013368010521,0.021081704646348953,0.015644673258066177,0.047471240162849426,0.001394507009536028,0.07214409857988358,-0.05446503683924675,0.06852717697620392,-0.055770356208086014,-0.02601279318332672,-0.06239210069179535,0.07867441326379776,0.06701896339654922,-0.10577816516160965,-0.04900004714727402,0.0309927798807621,0.08776265382766724,0.03717019781470299,-0.02259904518723488,-0.06765971332788467,-0.017294034361839294,0.009677939116954803,-0.06304933875799179,0.01955089531838894,-0.010021645575761795,0.04884626716375351,-0.06747176498174667,-0.04771769046783447,-0.025612927973270416,0.04361793398857117,0.013661357574164867,0.0068977330811321735,-0.0016312869265675545,0.002565214177593589,0.03117316961288452,0.05799069628119469,-0.02355138398706913,-0.0495477132499218,-0.05371400713920593,-0.016475949436426163,-0.12253328412771225,0.010444249957799911,0.03351249918341637,0.052645567804574966,-0.07682356983423233,-0.02622712031006813,0.1160067617893219,-0.09033516049385071,-0.05612645298242569,-0.028425004333257675,0.01983528584241867,-0.051219742745161057,0.02638980932533741,0.01888003759086132,0.05884143337607384,-0.04055149480700493,0.034368231892585754,0.025906218215823174,-0.016377558931708336,0.002930997172370553,-0.10447347909212112,-0.017994415014982224,-0.022203100845217705,-0.02664320543408394,-0.05550457164645195,0.0749339759349823,0.0029486818239092827,-0.058462295681238174,-0.03943759202957153,0.03631340712308884,0.024129515513777733,-0.01740597002208233,-0.058207232505083084,0.006155878771096468,0.034484703093767166,-0.04963269457221031,0.057442910969257355,-0.10728491097688675,0.13038958609104156,-0.10468399524688721,-0.03196404501795769,0.0595109798014164,0.008207682520151138,-0.11291483044624329,-0.08509361743927002,0.03696716949343681,-0.025732969865202904,0.03546949476003647,-0.04853019118309021,0.02060585282742977,-0.008852408267557621,0.034745536744594574,0.09258017688989639,-0.007613235618919134,0.06716099381446838,-0.027859890833497047,0.03138227015733719,0.11194365471601486,-0.08793168514966965,0.04802897945046425,0.027341149747371674,-0.031025510281324387,0.0806480348110199,0.015530966222286224,0.0397430844604969,-0.02411780320107937,-0.0830821618437767,0.036718543618917465,0.10534058511257172,0.022449955344200134,0.04176471009850502,-0.015882583335042,0.01770068146288395,-0.021665185689926147,-0.05083153024315834,-0.03611289709806442,0.07810970395803452,0.09229908138513565,0.0899246484041214,0.07901643961668015,-0.029359515756368637,-0.04427972063422203,0.0469730943441391,-0.08262467384338379,0.11282023042440414,0.008843226358294487,-0.07314657419919968,-0.006801052950322628,0.004396228585392237,-0.009761412627995014,0.13068774342536926,0.019812284037470818,-0.06816771626472473,0.026502592489123344,0.016130609437823296,-0.08386421948671341,0.08305937051773071,-0.05073858052492142,-0.018977070227265358,0.004852687940001488,0.05588458105921745,-0.04392625764012337,0.033174339681863785,-0.04045955091714859,0.03885910287499428,-0.04194052889943123,0.07678952813148499,-0.06831948459148407,-0.025236116722226143,-0.025439711287617683,0.003327738493680954,-0.0059475963935256,0.0744381844997406,0.06377624720335007,-0.03574550896883011,0.037959542125463486,0.0042766910046339035,0.0022769803181290627,-0.00729521457105875,-0.010466535575687885,-0.015240908600389957,0.01712200604379177,-0.1569739431142807
brasilien,0.05935652181506157,0.048703212291002274,0.08334281295537949,-0.13001811504364014,0.041529398411512375,-0.11989891529083252,0.052566371858119965,0.030225588008761406,0.026537660509347916,0.004222964867949486,0.04257569834589958,-0.03508855774998665,-0.04339474439620972,-0.0044204071164131165,0.04365020990371704,0.01978963054716587,0.010571399703621864,0.004438621457666159,-0.06474999338388443,0.03844200074672699,-0.05712291970849037,0.04279133304953575,0.11577703803777695,-0.08701837807893753,-0.08321317285299301,0.01927816867828369,-0.10092294216156006,-0.03059256263077259,0.07751115411520004,-0.019439077004790306,-0.013689441606402397,-0.010745884850621223,0.0964658260345459,-0.06937740743160248,0.036542490124702454,0.018095526844263077,-0.11757422238588333,-0.07924451678991318,0.0006898309802636504,-0.010411929339170456,-0.033029381185770035,-0.005787645932286978,-0.011901927180588245,-0.05365987867116928,0.02507157251238823,-0.0539509654045105,-0.11177810281515121,0.08069758117198944,0.010584549978375435,0.003557985881343484,-0.1128578707575798,0.0934569239616394,0.030552856624126434,0.0754958987236023,-0.07714679092168808,0.09900349378585815,-0.08595985919237137,0.05040121078491211,0.04906436428427696,-0.05888889357447624,0.010121206752955914,-0.003675467101857066,-0.024429896846413612,0.12692444026470184,0.02601742371916771,0.016313770785927773,0.0024699412751942873,-0.03629755228757858,-0.04333965480327606,-0.05404379963874817,0.007602305617183447,0.005462933331727982,0.022050978615880013,-0.029470255598425865,0.026532992720603943,0.019537925720214844,0.00048740292550064623,0.008174830116331577,0.0651571974158287,-0.1658061444759369,0.07858248054981232,-0.02495916187763214,-0.06719348579645157,-0.053013257682323456,0.06809276342391968,0.030606364831328392,-0.030208770185709,0.08223061263561249,0.022760234773159027,0.04547213017940521,0.0236832182854414,0.025167446583509445,-0.0362091138958931,-0.02145335264503956,-0.05116156116127968,0.03549037501215935,-0.017542369663715363,0.03339805826544762,0.07060597091913223,-0.05035358667373657,0.10188364237546921,0.06691715121269226,0.00430998345836997,0.12714017927646637,-0.053231433033943176,0.03352225571870804,0.08651152998209,-0.019346963614225388,-0.09189409017562866,0.041750188916921616,-0.012928372249007225,-0.005940787028521299,0.11248514801263809,-0.022450992837548256,-0.0780104249715805,0.044400811195373535,-0.07370110601186752,0.0118866553530097,-0.049369968473911285,-0.00021528762590605766,-0.03256956860423088,-0.026931704953312874,0.04639366269111633,-0.05916254594922066,0.0971444696187973,-0.01169124711304903,0.002588581992313266,-0.005694234278053045,0.031531721353530884,0.07229948043823242,-0.009082810021936893,-0.0472959540784359,-0.023059068247675896,-0.009808940812945366,-0.08640515059232712,0.004165853373706341,0.05811210349202156,0.03448185324668884,0.027291126549243927,0.11020616441965103,-0.008275547996163368,-0.010025291703641415,0.09128478914499283,-0.04149184748530388,-0.015232548117637634,0.01973973773419857,0.011542719788849354,0.0164859090000391,0.08907855302095413,-0.07376573234796524,-0.04796149954199791,0.03651154786348343,0.007728223223239183,0.05465684086084366,0.05307043343782425,-0.046397753059864044,0.01771659031510353,0.005377910565584898,-0.05825888738036156,-0.030324021354317665,0.05797047168016434,-0.08264105021953583,-0.007843106053769588,-0.05346301943063736,-0.11066369712352753,0.03715012967586517,0.08939013630151749,-0.020350703969597816,0.12158869206905365,0.0938834547996521,-0.01496472954750061,0.01235018391162157,-0.05058525130152702,0.060143932700157166,-0.0026633087545633316,-0.05292815715074539,-0.01640254817903042,-0.05948597565293312,0.0013530070427805185,0.07222520560026169,0.047473277896642685,-0.10083995014429092,0.035684406757354736,-0.031234879046678543,-0.08106060326099396,0.02739929035305977,0.029964445158839226,-0.1531217098236084,-0.04803989827632904,-0.10512969642877579,0.07321193069219589,-0.060804568231105804,-0.14966988563537598,-0.0740424320101738,-0.06294628232717514,-0.03693581372499466,-0.008400363847613335,0.05641934275627136,-0.03873593360185623,-0.02517099492251873,0.06806113570928574,-0.06266845762729645,0.05519477650523186,0.06761390715837479,0.05587735399603844,-0.010980947874486446,0.05847116932272911,0.0123639777302742,0.026611071079969406,-0.0635540708899498,0.03952514007687569,0.006401079706847668,0.061249230057001114,0.09788619726896286,-0.06852133572101593,0.09124353528022766,-0.03545650467276573,0.0959920808672905,-0.026900775730609894,0.078121118247509,0.039289940148591995,-0.01737341657280922,0.020027974620461464,0.008328107185661793,0.014340508729219437,-0.024663468822836876,0.10341541469097137,0.028137018904089928,-0.04260816052556038,0.013773676939308643,0.015070505440235138,0.01982835680246353,-0.053779277950525284,-0.011002331040799618,0.042166709899902344,0.06075691431760788,-0.10465613007545471,-0.058138538151979446,0.010199147276580334,-0.016948141157627106,0.01694708690047264,-0.009166701696813107,-0.036396678537130356,-0.06651708483695984,-0.000882969587109983,0.024950606748461723,0.03749336302280426,0.037216078490018845,-0.005434499122202396,0.04437743499875069,-0.019631095230579376,-0.10890597105026245,-0.020091364160180092,0.020473381504416466,0.06280061602592468,0.06336638331413269,-0.06851315498352051,-0.0588587187230587,-0.02985413558781147,-0.1310959756374359,-0.055052656680345535,0.01771615818142891,0.08164555579423904,0.009180229157209396,0.0380646213889122,-0.0016991510055959225,-0.07001888751983643,0.0208558589220047,0.030210837721824646,0.051528871059417725,-0.001268379157409072,-0.03619982674717903,0.024913758039474487,-0.029213599860668182,0.017756953835487366,-0.1062287986278534,-0.043773140758275986,0.041646119207143784,0.055596087127923965,0.05441948026418686,-0.02825511060655117,0.1538660228252411,-0.022801026701927185,0.037593990564346313,0.05313706770539284,-0.06505553424358368,0.04762404412031174,0.04488734155893326,0.001409498741850257,0.02279127575457096,0.0576576329767704,-0.04543091729283333,0.06909260898828506,-0.06818147748708725,0.03287142142653465,0.05523787811398506,-0.0019878819584846497,0.10630238056182861,-0.10435120016336441,-0.0622054822742939
